~o
<STREAMINFO> 1 39
<VECSIZE> 39<NULLD><MFCC_D_A_0><DIAGC>
~h "prototype"
<BEGINHMM>
<NUMSTATES> 5
<STATE> 2
<MEAN> 39
 -8.961552e+000 -4.664027e+000 -4.186292e+000 -1.208173e+001 -5.524267e+000 -9.763525e+000 -5.467774e+000 -5.219600e+000 -1.612462e+000 -4.820687e+000 -2.859833e+000 -3.351794e+000 5.921867e+001 2.106518e-002 6.209548e-003 1.289449e-004 -1.027645e-003 -1.720885e-003 -9.523513e-003 -1.087379e-002 -1.203475e-002 -1.070513e-002 -1.517692e-002 -1.138559e-002 -8.691402e-003 3.195284e-002 -1.900303e-003 1.729348e-003 6.281117e-004 4.017281e-003 3.815582e-003 5.059647e-003 3.802216e-003 2.289118e-003 1.710753e-003 1.398082e-003 3.309096e-003 2.290760e-003 -5.916368e-003
<VARIANCE> 39
 9.703523e+001 8.487712e+001 8.287466e+001 1.075882e+002 9.381345e+001 6.989118e+001 8.952563e+001 9.203165e+001 6.280593e+001 6.683927e+001 6.106000e+001 4.513559e+001 2.352636e+002 2.752582e+000 3.061254e+000 3.245990e+000 4.150236e+000 4.483235e+000 4.162928e+000 4.779908e+000 4.986430e+000 4.179621e+000 4.002965e+000 3.751801e+000 3.111905e+000 3.473041e+000 3.960582e-001 4.509527e-001 5.067643e-001 6.652188e-001 7.504336e-001 7.463781e-001 8.329312e-001 8.608732e-001 7.746636e-001 7.309149e-001 6.752480e-001 5.788046e-001 4.309452e-001
<GCONST> 1.405958e+002
<STATE> 3
<MEAN> 39
 -8.961552e+000 -4.664027e+000 -4.186292e+000 -1.208173e+001 -5.524267e+000 -9.763525e+000 -5.467774e+000 -5.219600e+000 -1.612462e+000 -4.820687e+000 -2.859833e+000 -3.351794e+000 5.921867e+001 2.106518e-002 6.209548e-003 1.289449e-004 -1.027645e-003 -1.720885e-003 -9.523513e-003 -1.087379e-002 -1.203475e-002 -1.070513e-002 -1.517692e-002 -1.138559e-002 -8.691402e-003 3.195284e-002 -1.900303e-003 1.729348e-003 6.281117e-004 4.017281e-003 3.815582e-003 5.059647e-003 3.802216e-003 2.289118e-003 1.710753e-003 1.398082e-003 3.309096e-003 2.290760e-003 -5.916368e-003
<VARIANCE> 39
 9.703523e+001 8.487712e+001 8.287466e+001 1.075882e+002 9.381345e+001 6.989118e+001 8.952563e+001 9.203165e+001 6.280593e+001 6.683927e+001 6.106000e+001 4.513559e+001 2.352636e+002 2.752582e+000 3.061254e+000 3.245990e+000 4.150236e+000 4.483235e+000 4.162928e+000 4.779908e+000 4.986430e+000 4.179621e+000 4.002965e+000 3.751801e+000 3.111905e+000 3.473041e+000 3.960582e-001 4.509527e-001 5.067643e-001 6.652188e-001 7.504336e-001 7.463781e-001 8.329312e-001 8.608732e-001 7.746636e-001 7.309149e-001 6.752480e-001 5.788046e-001 4.309452e-001
<GCONST> 1.405958e+002
<STATE> 4
<MEAN> 39
 -8.961552e+000 -4.664027e+000 -4.186292e+000 -1.208173e+001 -5.524267e+000 -9.763525e+000 -5.467774e+000 -5.219600e+000 -1.612462e+000 -4.820687e+000 -2.859833e+000 -3.351794e+000 5.921867e+001 2.106518e-002 6.209548e-003 1.289449e-004 -1.027645e-003 -1.720885e-003 -9.523513e-003 -1.087379e-002 -1.203475e-002 -1.070513e-002 -1.517692e-002 -1.138559e-002 -8.691402e-003 3.195284e-002 -1.900303e-003 1.729348e-003 6.281117e-004 4.017281e-003 3.815582e-003 5.059647e-003 3.802216e-003 2.289118e-003 1.710753e-003 1.398082e-003 3.309096e-003 2.290760e-003 -5.916368e-003
<VARIANCE> 39
 9.703523e+001 8.487712e+001 8.287466e+001 1.075882e+002 9.381345e+001 6.989118e+001 8.952563e+001 9.203165e+001 6.280593e+001 6.683927e+001 6.106000e+001 4.513559e+001 2.352636e+002 2.752582e+000 3.061254e+000 3.245990e+000 4.150236e+000 4.483235e+000 4.162928e+000 4.779908e+000 4.986430e+000 4.179621e+000 4.002965e+000 3.751801e+000 3.111905e+000 3.473041e+000 3.960582e-001 4.509527e-001 5.067643e-001 6.652188e-001 7.504336e-001 7.463781e-001 8.329312e-001 8.608732e-001 7.746636e-001 7.309149e-001 6.752480e-001 5.788046e-001 4.309452e-001
<GCONST> 1.405958e+002
<TRANSP> 5
 0.000000e+000 1.000000e+000 0.000000e+000 0.000000e+000 0.000000e+000
 0.000000e+000 6.000000e-001 4.000000e-001 0.000000e+000 0.000000e+000
 0.000000e+000 0.000000e+000 6.000000e-001 4.000000e-001 0.000000e+000
 0.000000e+000 0.000000e+000 0.000000e+000 6.000000e-001 4.000000e-001
 0.000000e+000 0.000000e+000 0.000000e+000 0.000000e+000 0.000000e+000
<ENDHMM>
