~o
<STREAMINFO> 1 39
<VECSIZE> 39<NULLD><MFCC_D_A_0><DIAGC>
~h "a"
<BEGINHMM>
<NUMSTATES> 5
<STATE> 2
<NUMMIXES> 2
<MIXTURE> 1 5.000000e-001
<MEAN> 39
 -1.291230e+000 -1.068853e+001 -7.469187e+000 -1.523334e+001 -3.558240e+000 -1.073253e+001 -5.471018e+000 3.961206e+000 1.305852e-001 -6.878470e+000 -5.615425e+000 -2.663196e-001 7.686521e+001 3.797335e-001 -1.362683e+000 -2.202228e-001 -5.206006e-002 1.596000e+000 9.408644e-001 7.377300e-001 2.073852e+000 -1.688414e-002 -6.524696e-001 -8.522706e-002 1.022511e+000 1.956322e+000 -1.673864e-001 6.457702e-001 4.842443e-001 5.928947e-001 2.504422e-001 2.846706e-001 2.928038e-001 -3.327617e-001 8.947825e-002 5.135365e-001 5.339258e-001 1.086959e-001 -4.136627e-001
<VARIANCE> 39
 5.048892e+001 4.602499e+001 7.700130e+001 8.202017e+001 1.079223e+002 8.559377e+001 9.730787e+001 8.773778e+001 7.402840e+001 8.016561e+001 7.333675e+001 6.017519e+001 8.951897e+001 2.996162e+000 3.648132e+000 4.755703e+000 4.722593e+000 6.016016e+000 5.340703e+000 6.068597e+000 7.553965e+000 5.195463e+000 5.325972e+000 4.743632e+000 4.165306e+000 4.411462e+000 5.397252e-001 6.894736e-001 6.815658e-001 7.634622e-001 9.867460e-001 8.744848e-001 1.010078e+000 1.144300e+000 9.421862e-001 9.149633e-001 9.358429e-001 7.658148e-001 8.847867e-001
<GCONST> 1.462755e+002
<MIXTURE> 2 5.000000e-001
<MEAN> 39
 -4.133452e+000 -1.340219e+001 -1.097920e+001 -1.885594e+001 -7.713666e+000 -1.443321e+001 -9.416808e+000 2.144681e-001 -3.311005e+000 -1.045988e+001 -9.040899e+000 -3.369226e+000 7.308064e+001 -3.126435e-001 -2.126687e+000 -1.092526e+000 -9.213212e-001 6.148976e-001 1.646598e-002 -2.476508e-001 9.744725e-001 -9.286265e-001 -1.575592e+000 -9.564223e-001 2.061473e-001 1.116182e+000 -4.612504e-001 3.136320e-001 1.540163e-001 2.433895e-001 -1.468981e-001 -8.938498e-002 -1.092068e-001 -7.606495e-001 -2.987868e-001 1.309216e-001 1.469699e-001 -2.413475e-001 -7.899151e-001
<VARIANCE> 39
 5.048892e+001 4.602499e+001 7.700130e+001 8.202017e+001 1.079223e+002 8.559377e+001 9.730787e+001 8.773778e+001 7.402840e+001 8.016561e+001 7.333675e+001 6.017519e+001 8.951897e+001 2.996162e+000 3.648132e+000 4.755703e+000 4.722593e+000 6.016016e+000 5.340703e+000 6.068597e+000 7.553965e+000 5.195463e+000 5.325972e+000 4.743632e+000 4.165306e+000 4.411462e+000 5.397252e-001 6.894736e-001 6.815658e-001 7.634622e-001 9.867460e-001 8.744848e-001 1.010078e+000 1.144300e+000 9.421862e-001 9.149633e-001 9.358429e-001 7.658148e-001 8.847867e-001
<GCONST> 1.462755e+002
<STATE> 3
<NUMMIXES> 2
<MIXTURE> 1 5.000000e-001
<MEAN> 39
 -1.474538e+000 -1.402453e+001 -8.258950e+000 -1.482162e+001 -6.869540e-001 -9.756825e+000 -5.941336e+000 5.334610e+000 -1.725839e+000 -8.084856e+000 -6.468411e+000 -3.381086e-001 7.928496e+001 2.678067e-001 7.222521e-001 3.176265e-001 5.928750e-001 2.914222e-001 1.924523e-001 7.591402e-002 5.945356e-002 2.110104e-001 2.342879e-001 5.255842e-001 6.717045e-002 -2.555686e-001 1.273491e-001 6.334988e-001 2.894917e-001 1.966484e-001 -1.543234e-001 1.646337e-003 2.486430e-002 -1.971077e-001 2.201429e-001 3.530512e-001 2.837993e-001 -5.111720e-002 -2.915889e-001
<VARIANCE> 39
 4.798343e+001 2.793016e+001 4.514726e+001 8.130988e+001 8.915164e+001 7.321925e+001 9.973650e+001 7.388187e+001 7.202275e+001 6.127725e+001 6.186314e+001 5.309347e+001 1.899921e+001 6.632353e-001 1.670997e+000 1.503339e+000 1.535500e+000 2.836927e+000 2.379358e+000 3.242348e+000 2.556783e+000 2.483436e+000 2.570731e+000 2.256640e+000 2.221415e+000 6.940131e-001 1.297096e-001 2.286680e-001 2.509272e-001 3.140123e-001 3.962592e-001 4.277594e-001 5.380465e-001 5.525353e-001 4.935467e-001 4.725275e-001 4.357137e-001 3.933780e-001 1.427075e-001
<GCONST> 1.180598e+002
<MIXTURE> 2 5.000000e-001
<MEAN> 39
 -4.245340e+000 -1.613849e+001 -1.094662e+001 -1.842850e+001 -4.463760e+000 -1.317955e+001 -9.936062e+000 1.896427e+000 -5.120487e+000 -1.121605e+001 -9.614536e+000 -3.252719e+000 7.754143e+001 -5.795032e-002 2.051839e-001 -1.728164e-001 9.721381e-002 -3.823049e-001 -4.245545e-001 -6.443468e-001 -5.801442e-001 -4.193464e-001 -4.070521e-001 -7.530044e-002 -5.290061e-001 -5.887984e-001 -1.671174e-002 4.422218e-001 8.912113e-002 -2.749879e-002 -4.061199e-001 -2.599669e-001 -2.685423e-001 -4.944385e-001 -6.086861e-002 7.808863e-002 1.976487e-002 -3.019966e-001 -4.426955e-001
<VARIANCE> 39
 4.798343e+001 2.793016e+001 4.514726e+001 8.130988e+001 8.915164e+001 7.321925e+001 9.973650e+001 7.388187e+001 7.202275e+001 6.127725e+001 6.186314e+001 5.309347e+001 1.899921e+001 6.632353e-001 1.670997e+000 1.503339e+000 1.535500e+000 2.836927e+000 2.379358e+000 3.242348e+000 2.556783e+000 2.483436e+000 2.570731e+000 2.256640e+000 2.221415e+000 6.940131e-001 1.297096e-001 2.286680e-001 2.509272e-001 3.140123e-001 3.962592e-001 4.277594e-001 5.380465e-001 5.525353e-001 4.935467e-001 4.725275e-001 4.357137e-001 3.933780e-001 1.427075e-001
<GCONST> 1.180598e+002
<STATE> 4
<NUMMIXES> 2
<MIXTURE> 1 5.000000e-001
<MEAN> 39
 -5.736262e-001 -4.659723e+000 -6.841272e+000 -1.068347e+001 -2.057643e+000 -1.064303e+001 -6.259097e+000 3.138893e+000 -2.559133e-001 -9.216473e+000 -3.763592e+000 -3.151503e+000 7.017188e+001 -2.587054e-001 1.895991e+000 9.566371e-001 1.249745e+000 1.372635e-001 5.101005e-001 8.610870e-001 -4.902555e-001 3.611891e-001 8.092325e-001 8.121363e-001 4.645688e-002 -1.524972e+000 -1.153820e-001 3.508424e-002 1.602259e-001 1.799664e-001 2.348040e-001 2.949813e-001 3.922021e-001 1.582726e-001 1.753302e-001 3.251477e-001 1.932703e-001 2.443572e-001 6.341870e-002
<VARIANCE> 39
 6.347188e+001 4.967324e+001 6.412911e+001 8.688234e+001 1.012432e+002 7.069259e+001 1.076801e+002 9.596848e+001 7.671725e+001 8.905390e+001 5.743192e+001 5.628637e+001 8.158799e+001 1.801663e+000 2.775654e+000 2.742609e+000 3.141064e+000 4.209873e+000 3.899394e+000 5.252542e+000 4.907369e+000 4.059569e+000 4.149364e+000 3.818100e+000 3.497399e+000 1.813043e+000 2.543887e-001 3.528625e-001 4.296602e-001 4.937932e-001 6.176788e-001 6.525903e-001 9.210488e-001 8.326701e-001 7.134514e-001 7.230352e-001 6.429407e-001 5.990032e-001 2.357712e-001
<GCONST> 1.354155e+002
<MIXTURE> 2 5.000000e-001
<MEAN> 39
 -3.760396e+000 -7.478893e+000 -1.004450e+001 -1.441189e+001 -6.082430e+000 -1.400619e+001 -1.040986e+001 -7.796471e-001 -3.759449e+000 -1.299121e+001 -6.794946e+000 -6.152473e+000 6.655884e+001 -7.956096e-001 1.229579e+000 2.942041e-001 5.408235e-001 -6.834555e-001 -2.797749e-001 -5.564998e-002 -1.376359e+000 -4.447458e-001 -5.567055e-003 3.053792e-002 -7.015965e-001 -2.063570e+000 -3.171298e-001 -2.025247e-001 -1.019680e-001 -1.011152e-001 -7.956620e-002 -2.815091e-002 8.316929e-003 -2.067304e-001 -1.625340e-001 -1.497815e-002 -1.274640e-001 -6.522395e-002 -1.308064e-001
<VARIANCE> 39
 6.347188e+001 4.967324e+001 6.412911e+001 8.688234e+001 1.012432e+002 7.069259e+001 1.076801e+002 9.596848e+001 7.671725e+001 8.905390e+001 5.743192e+001 5.628637e+001 8.158799e+001 1.801663e+000 2.775654e+000 2.742609e+000 3.141064e+000 4.209873e+000 3.899394e+000 5.252542e+000 4.907369e+000 4.059569e+000 4.149364e+000 3.818100e+000 3.497399e+000 1.813043e+000 2.543887e-001 3.528625e-001 4.296602e-001 4.937932e-001 6.176788e-001 6.525903e-001 9.210488e-001 8.326701e-001 7.134514e-001 7.230352e-001 6.429407e-001 5.990032e-001 2.357712e-001
<GCONST> 1.354155e+002
<TRANSP> 5
 0.000000e+000 1.000000e+000 0.000000e+000 0.000000e+000 0.000000e+000
 0.000000e+000 5.555375e-001 4.444626e-001 0.000000e+000 0.000000e+000
 0.000000e+000 0.000000e+000 7.794431e-001 2.205569e-001 0.000000e+000
 0.000000e+000 0.000000e+000 0.000000e+000 7.022976e-001 2.977025e-001
 0.000000e+000 0.000000e+000 0.000000e+000 0.000000e+000 0.000000e+000
<ENDHMM>
~h "b"
<BEGINHMM>
<NUMSTATES> 5
<STATE> 2
<NUMMIXES> 2
<MIXTURE> 1 5.000000e-001
<MEAN> 39
 -6.683714e+000 -1.075100e+001 -9.631467e+000 -1.323040e+001 -2.214990e+000 -4.360604e+000 -3.709214e+000 -1.049077e+000 7.578431e-001 -1.382877e+000 -8.052471e+000 -3.120156e+000 6.721116e+001 -2.976549e-001 -6.459880e-001 -1.327904e-002 3.586355e-001 8.418385e-001 8.399438e-001 1.016059e+000 1.237978e+000 4.820436e-002 -5.874094e-001 -3.247858e-001 9.016930e-001 1.113707e+000 1.044278e-001 3.843705e-001 3.740769e-001 4.871588e-001 2.039894e-001 1.272444e-001 7.682993e-002 -7.045092e-002 -1.324660e-001 1.558463e-001 3.077764e-001 1.595422e-001 -1.981714e-001
<VARIANCE> 39
 2.964106e+001 6.043243e+001 4.425531e+001 5.537666e+001 3.751870e+001 6.664414e+001 9.430293e+001 6.038802e+001 3.587482e+001 3.669030e+001 9.843710e+001 5.873679e+001 2.797537e+002 9.342365e-001 2.638059e+000 1.976699e+000 3.876588e+000 2.054708e+000 2.992326e+000 2.756347e+000 5.290322e+000 3.435893e+000 3.481184e+000 3.729748e+000 2.943457e+000 2.630558e+000 1.367373e-001 3.579952e-001 2.820199e-001 6.769771e-001 3.661828e-001 6.118523e-001 6.491253e-001 8.145160e-001 5.313120e-001 7.500877e-001 6.686444e-001 4.947192e-001 2.912530e-001
<GCONST> 1.281358e+002
<MIXTURE> 2 5.000000e-001
<MEAN> 39
 -8.861458e+000 -1.386054e+001 -1.229245e+001 -1.620702e+001 -4.665090e+000 -7.626038e+000 -7.593602e+000 -4.157466e+000 -1.637981e+000 -3.805777e+000 -1.202109e+001 -6.185753e+000 6.052082e+001 -6.842785e-001 -1.295672e+000 -5.756596e-001 -4.289266e-001 2.684684e-001 1.480102e-001 3.519687e-001 3.179498e-001 -6.932421e-001 -1.333727e+000 -1.097288e+000 2.154328e-001 4.649472e-001 -4.348420e-002 1.450397e-001 1.616547e-001 1.580444e-001 -3.806281e-002 -1.856396e-001 -2.454433e-001 -4.314531e-001 -4.240306e-001 -1.905841e-001 -1.930636e-002 -1.218030e-001 -4.140428e-001
<VARIANCE> 39
 2.964106e+001 6.043243e+001 4.425531e+001 5.537666e+001 3.751870e+001 6.664414e+001 9.430293e+001 6.038802e+001 3.587482e+001 3.669030e+001 9.843710e+001 5.873679e+001 2.797537e+002 9.342365e-001 2.638059e+000 1.976699e+000 3.876588e+000 2.054708e+000 2.992326e+000 2.756347e+000 5.290322e+000 3.435893e+000 3.481184e+000 3.729748e+000 2.943457e+000 2.630558e+000 1.367373e-001 3.579952e-001 2.820199e-001 6.769771e-001 3.661828e-001 6.118523e-001 6.491253e-001 8.145160e-001 5.313120e-001 7.500877e-001 6.686444e-001 4.947192e-001 2.912530e-001
<GCONST> 1.281358e+002
<STATE> 3
<NUMMIXES> 2
<MIXTURE> 1 5.000000e-001
<MEAN> 39
 -1.599682e+001 -1.157048e+001 -5.650267e+000 -8.312430e+000 -1.413072e+000 -6.850218e+000 2.261949e-001 -4.106914e+000 1.960850e+000 -2.797510e+000 8.984300e-001 -2.114253e+000 4.415419e+001 7.670908e-002 1.380856e-001 2.228040e-001 2.745855e-001 2.921075e-001 2.473906e-001 2.413173e-001 3.042563e-001 2.414369e-001 2.640440e-001 2.689225e-001 3.026813e-001 1.434260e-003 7.628490e-002 9.655716e-002 8.601677e-002 8.066169e-002 9.546061e-002 8.341569e-002 9.335089e-002 1.562556e-001 1.497505e-001 1.542890e-001 1.233583e-001 9.563903e-002 2.418168e-002
<VARIANCE> 39
 1.206913e+001 9.782603e+000 1.039937e+001 1.410318e+001 1.391590e+001 1.792290e+001 2.375140e+001 2.357365e+001 2.534048e+001 1.979778e+001 3.360203e+001 1.945028e+001 8.947884e+001 2.228739e-001 4.044081e-001 7.751577e-001 1.281583e+000 1.454898e+000 1.838944e+000 1.961671e+000 2.369524e+000 2.733491e+000 2.206159e+000 2.065415e+000 1.990386e+000 5.424986e-002 5.271375e-002 9.834556e-002 1.585301e-001 2.794443e-001 3.080911e-001 3.987297e-001 4.111297e-001 4.897721e-001 5.975701e-001 4.987222e-001 4.384764e-001 4.304906e-001 1.567894e-002
<GCONST> 9.177008e+001
<MIXTURE> 2 5.000000e-001
<MEAN> 39
 -1.738644e+001 -1.282156e+001 -6.940189e+000 -9.814599e+000 -2.905232e+000 -8.543636e+000 -1.723221e+000 -6.049022e+000 -5.272371e-002 -4.577298e+000 -1.420260e+000 -3.878351e+000 4.037046e+001 -1.121290e-001 -1.162868e-001 -1.293682e-001 -1.782426e-001 -1.903691e-001 -2.950401e-001 -3.189214e-001 -3.114741e-001 -4.198940e-001 -3.300819e-001 -3.059395e-001 -2.616428e-001 -9.173214e-002 -1.555300e-002 -2.888323e-002 -7.324658e-002 -1.307883e-001 -1.265632e-001 -1.691645e-001 -1.631267e-001 -1.236793e-001 -1.594602e-001 -1.281921e-001 -1.415119e-001 -1.668081e-001 -2.590455e-002
<VARIANCE> 39
 1.206913e+001 9.782603e+000 1.039937e+001 1.410318e+001 1.391590e+001 1.792290e+001 2.375140e+001 2.357365e+001 2.534048e+001 1.979778e+001 3.360203e+001 1.945028e+001 8.947884e+001 2.228739e-001 4.044081e-001 7.751577e-001 1.281583e+000 1.454898e+000 1.838944e+000 1.961671e+000 2.369524e+000 2.733491e+000 2.206159e+000 2.065415e+000 1.990386e+000 5.424986e-002 5.271375e-002 9.834556e-002 1.585301e-001 2.794443e-001 3.080911e-001 3.987297e-001 4.111297e-001 4.897721e-001 5.975701e-001 4.987222e-001 4.384764e-001 4.304906e-001 1.567894e-002
<GCONST> 9.177008e+001
<STATE> 4
<NUMMIXES> 2
<MIXTURE> 1 5.000000e-001
<MEAN> 39
 -6.148582e+000 -9.878703e+000 -5.524707e+000 -1.247463e+001 -6.605764e-002 -7.355767e+000 -8.523838e+000 -2.022493e+000 -5.049896e+000 -2.750725e+000 -1.445408e+001 -2.353999e+000 7.397466e+001 6.553473e-001 1.337767e+000 9.904475e-001 1.018888e-001 -2.300038e-002 -8.149582e-001 -2.706445e-001 -6.418376e-001 3.662753e-001 1.284572e+000 4.095648e-001 -3.317629e-001 -7.286778e-001 2.199306e-001 2.982396e-001 1.173711e-001 2.071383e-001 -1.428638e-001 1.093621e-001 -1.669673e-002 -7.955462e-002 4.425710e-001 1.731636e-001 3.219396e-001 1.060595e-001 -4.982629e-002
<VARIANCE> 39
 1.762664e+001 4.011051e+001 2.281171e+001 2.632678e+001 2.588471e+001 3.694088e+001 3.219769e+001 4.730138e+001 4.039812e+001 3.749088e+001 7.602553e+001 4.303006e+001 1.395972e+002 3.007838e-001 7.725021e-001 7.139587e-001 1.124081e+000 2.075830e+000 1.787259e+000 1.655158e+000 3.569936e+000 3.299410e+000 2.545497e+000 2.071114e+000 1.697384e+000 3.925956e-001 8.219405e-002 1.590885e-001 1.413690e-001 2.435749e-001 2.627457e-001 3.487963e-001 2.996882e-001 5.032553e-001 4.633937e-001 6.010282e-001 3.654768e-001 3.072287e-001 5.084882e-002
<GCONST> 1.046094e+002
<MIXTURE> 2 5.000000e-001
<MEAN> 39
 -7.827946e+000 -1.241202e+001 -7.435171e+000 -1.452701e+001 -2.101138e+000 -9.786927e+000 -1.079356e+001 -4.773533e+000 -7.592276e+000 -5.199917e+000 -1.794178e+001 -4.977891e+000 6.924861e+001 4.359722e-001 9.861988e-001 6.524631e-001 -3.222020e-001 -5.993100e-001 -1.349712e+000 -7.852563e-001 -1.397609e+000 -3.602958e-001 6.463871e-001 -1.660898e-001 -8.528976e-001 -9.793076e-001 1.052526e-001 1.386960e-001 -3.302520e-002 9.725081e-003 -3.478987e-001 -1.268738e-001 -2.356719e-001 -3.633166e-001 1.702790e-001 -1.369404e-001 8.012094e-002 -1.156534e-001 -1.400250e-001
<VARIANCE> 39
 1.762664e+001 4.011051e+001 2.281171e+001 2.632678e+001 2.588471e+001 3.694088e+001 3.219769e+001 4.730138e+001 4.039812e+001 3.749088e+001 7.602553e+001 4.303006e+001 1.395972e+002 3.007838e-001 7.725021e-001 7.139587e-001 1.124081e+000 2.075830e+000 1.787259e+000 1.655158e+000 3.569936e+000 3.299410e+000 2.545497e+000 2.071114e+000 1.697384e+000 3.925956e-001 8.219405e-002 1.590885e-001 1.413690e-001 2.435749e-001 2.627457e-001 3.487963e-001 2.996882e-001 5.032553e-001 4.633937e-001 6.010282e-001 3.654768e-001 3.072287e-001 5.084882e-002
<GCONST> 1.046094e+002
<TRANSP> 5
 0.000000e+000 1.000000e+000 0.000000e+000 0.000000e+000 0.000000e+000
 0.000000e+000 7.356223e-001 2.643777e-001 0.000000e+000 0.000000e+000
 0.000000e+000 0.000000e+000 9.122923e-001 8.770774e-002 0.000000e+000
 0.000000e+000 0.000000e+000 0.000000e+000 7.472570e-001 2.527430e-001
 0.000000e+000 0.000000e+000 0.000000e+000 0.000000e+000 0.000000e+000
<ENDHMM>
~h "c"
<BEGINHMM>
<NUMSTATES> 5
<STATE> 2
<NUMMIXES> 2
<MIXTURE> 1 5.000000e-001
<MEAN> 39
 -1.128566e+001 1.184435e+000 -2.998269e+000 -5.601911e+000 -4.368991e+000 -6.562074e+000 -1.471842e+000 -3.561732e+000 1.026395e+000 -1.494473e+000 1.012591e+000 -1.247807e+000 5.534497e+001 -1.901264e-001 -5.223845e-001 -4.765134e-001 3.017495e-001 1.362944e+000 1.026800e+000 9.427385e-001 1.094840e+000 3.901732e-001 8.794743e-001 8.070326e-001 5.380561e-001 1.893239e-001 4.925278e-001 -1.853691e-002 -1.345093e-001 -3.666453e-001 1.219065e-001 8.080607e-002 -2.957387e-002 1.653806e-001 -7.893733e-003 2.740721e-001 -3.083813e-002 1.367390e-001 7.805733e-001
<VARIANCE> 39
 4.783180e+001 7.826391e+001 3.794948e+001 6.300139e+001 5.597354e+001 5.701140e+001 4.521288e+001 5.196959e+001 4.199071e+001 4.582029e+001 4.027689e+001 4.471898e+001 1.106204e+002 2.491125e+000 2.933914e+000 4.360186e+000 4.571399e+000 4.603386e+000 4.817818e+000 4.349445e+000 4.862323e+000 4.251488e+000 4.422503e+000 4.053596e+000 3.263102e+000 3.151656e+000 3.718843e-001 5.872409e-001 7.981409e-001 8.178645e-001 8.778986e-001 9.723603e-001 9.135492e-001 9.352307e-001 8.749644e-001 8.805829e-001 7.973353e-001 6.416318e-001 5.697187e-001
<GCONST> 1.373181e+002
<MIXTURE> 2 5.000000e-001
<MEAN> 39
 -1.405208e+001 -2.354240e+000 -5.462395e+000 -8.776848e+000 -7.361609e+000 -9.582310e+000 -4.161462e+000 -6.445330e+000 -1.565614e+000 -4.202101e+000 -1.525972e+000 -3.922697e+000 5.113793e+001 -8.214583e-001 -1.207531e+000 -1.311756e+000 -5.534837e-001 5.047234e-001 1.488189e-001 1.085256e-001 2.128127e-001 -4.345923e-001 3.828445e-002 1.690811e-003 -1.845063e-001 -5.207923e-001 2.485986e-001 -3.250635e-001 -4.918643e-001 -7.283887e-001 -2.528785e-001 -3.136273e-001 -4.118930e-001 -2.214487e-001 -3.820519e-001 -1.012854e-001 -3.880127e-001 -1.836687e-001 4.786544e-001
<VARIANCE> 39
 4.783180e+001 7.826391e+001 3.794948e+001 6.300139e+001 5.597354e+001 5.701140e+001 4.521288e+001 5.196959e+001 4.199071e+001 4.582029e+001 4.027689e+001 4.471898e+001 1.106204e+002 2.491125e+000 2.933914e+000 4.360186e+000 4.571399e+000 4.603386e+000 4.817818e+000 4.349445e+000 4.862323e+000 4.251488e+000 4.422503e+000 4.053596e+000 3.263102e+000 3.151656e+000 3.718843e-001 5.872409e-001 7.981409e-001 8.178645e-001 8.778986e-001 9.723603e-001 9.135492e-001 9.352307e-001 8.749644e-001 8.805829e-001 7.973353e-001 6.416318e-001 5.697187e-001
<GCONST> 1.373181e+002
<STATE> 3
<NUMMIXES> 2
<MIXTURE> 1 5.000000e-001
<MEAN> 39
 -9.561829e+000 -3.689311e+000 -9.012783e+000 -8.977296e+000 1.214186e+000 -4.466883e+000 -9.899644e-001 -8.585938e-001 -3.413608e-001 2.078411e+000 8.643546e-001 2.914045e-001 5.887563e+001 1.781649e+000 7.017956e-002 -1.004954e+000 -1.461385e+000 5.900108e-001 -1.088213e-001 -3.294677e-001 1.113599e+000 -5.425187e-001 8.850091e-001 2.041463e-001 4.840577e-001 2.962071e+000 7.820882e-001 7.159894e-001 7.152722e-001 -1.102412e-001 -5.232599e-001 -3.367456e-001 -2.893693e-001 -1.206587e-001 9.124025e-002 -9.923759e-002 -6.634985e-002 8.423043e-002 7.476447e-001
<VARIANCE> 39
 4.813870e+001 6.076529e+001 6.583270e+001 8.485763e+001 9.849248e+001 8.684055e+001 6.546909e+001 8.528563e+001 7.989520e+001 7.339932e+001 4.753763e+001 4.878384e+001 1.142149e+002 4.019879e+000 6.987166e+000 9.493723e+000 7.993084e+000 1.099071e+001 1.148200e+001 8.812106e+000 8.606615e+000 7.438993e+000 5.960327e+000 5.011003e+000 4.974489e+000 7.152842e+000 5.282652e-001 8.590031e-001 1.314643e+000 1.193334e+000 1.675487e+000 1.311461e+000 1.316491e+000 1.391590e+000 1.161328e+000 1.020282e+000 8.164040e-001 8.505656e-001 9.148556e-001
<GCONST> 1.537068e+002
<MIXTURE> 2 5.000000e-001
<MEAN> 39
 -1.233711e+001 -6.807395e+000 -1.225828e+001 -1.266202e+001 -2.755549e+000 -8.194414e+000 -4.226483e+000 -4.552602e+000 -3.916725e+000 -1.348525e+000 -1.893547e+000 -2.502413e+000 5.460077e+001 9.796633e-001 -9.871504e-001 -2.237430e+000 -2.592267e+000 -7.360789e-001 -1.464225e+000 -1.516875e+000 -5.988257e-002 -1.633499e+000 -9.154213e-002 -6.912645e-001 -4.080848e-001 1.892279e+000 4.913608e-001 3.452597e-001 2.566406e-001 -5.472006e-001 -1.041022e+000 -7.948217e-001 -7.483231e-001 -5.925214e-001 -3.398195e-001 -5.032736e-001 -4.277702e-001 -2.846740e-001 3.650523e-001
<VARIANCE> 39
 4.813870e+001 6.076529e+001 6.583270e+001 8.485763e+001 9.849248e+001 8.684055e+001 6.546909e+001 8.528563e+001 7.989520e+001 7.339932e+001 4.753763e+001 4.878384e+001 1.142149e+002 4.019879e+000 6.987166e+000 9.493723e+000 7.993084e+000 1.099071e+001 1.148200e+001 8.812106e+000 8.606615e+000 7.438993e+000 5.960327e+000 5.011003e+000 4.974489e+000 7.152842e+000 5.282652e-001 8.590031e-001 1.314643e+000 1.193334e+000 1.675487e+000 1.311461e+000 1.316491e+000 1.391590e+000 1.161328e+000 1.020282e+000 8.164040e-001 8.505656e-001 9.148556e-001
<GCONST> 1.537068e+002
<STATE> 4
<NUMMIXES> 2
<MIXTURE> 1 5.000000e-001
<MEAN> 39
 -2.290495e+000 -3.340974e+000 -8.508265e+000 -1.425526e+001 -2.370479e+000 -9.995981e+000 -4.471303e+000 -5.038743e-001 -2.550406e+000 8.229613e-001 -4.427496e-001 -1.201004e+000 6.642915e+001 2.176000e+000 8.964273e-001 8.471733e-001 -8.878052e-001 -5.174922e-001 -3.620529e-001 -1.665668e-001 3.018367e-001 2.266561e-001 2.814325e-002 -1.845507e-001 7.111712e-001 3.100518e+000 7.072773e-002 2.422922e-001 7.562905e-001 3.870046e-001 1.188287e-001 5.288032e-001 4.449181e-001 2.300964e-003 4.884586e-001 7.029109e-002 2.307705e-001 3.083460e-001 -1.186642e-001
<VARIANCE> 39
 7.502343e+001 8.321581e+001 1.412597e+002 1.312252e+002 1.200567e+002 1.629272e+002 1.358481e+002 1.215646e+002 1.135209e+002 8.851528e+001 7.654906e+001 6.248318e+001 1.013747e+002 5.645590e+000 7.616178e+000 8.384842e+000 9.017552e+000 9.345917e+000 9.261282e+000 1.050534e+001 9.818913e+000 8.522456e+000 6.669917e+000 6.293049e+000 5.237211e+000 8.655517e+000 8.388786e-001 1.266835e+000 1.559777e+000 1.692374e+000 1.939346e+000 1.897683e+000 1.841973e+000 1.781879e+000 1.576820e+000 1.254633e+000 1.180564e+000 1.035988e+000 1.158720e+000
<GCONST> 1.635754e+002
<MIXTURE> 2 5.000000e-001
<MEAN> 39
 -5.755137e+000 -6.989882e+000 -1.326237e+001 -1.883740e+001 -6.753294e+000 -1.510170e+001 -9.133459e+000 -4.914128e+000 -6.812254e+000 -2.940341e+000 -3.942442e+000 -4.362856e+000 6.240174e+001 1.225582e+000 -2.074697e-001 -3.110904e-001 -2.088975e+000 -1.740336e+000 -1.579347e+000 -1.463045e+000 -9.515691e-001 -9.410737e-001 -1.004904e+000 -1.187989e+000 -2.042270e-001 1.923708e+000 -2.956335e-001 -2.079229e-001 2.567264e-001 -1.333605e-001 -4.382129e-001 -2.222242e-002 -9.795911e-002 -5.316472e-001 -1.382739e-002 -3.777505e-001 -2.038446e-001 -9.878799e-002 -5.492396e-001
<VARIANCE> 39
 7.502343e+001 8.321581e+001 1.412597e+002 1.312252e+002 1.200567e+002 1.629272e+002 1.358481e+002 1.215646e+002 1.135209e+002 8.851528e+001 7.654906e+001 6.248318e+001 1.013747e+002 5.645590e+000 7.616178e+000 8.384842e+000 9.017552e+000 9.345917e+000 9.261282e+000 1.050534e+001 9.818913e+000 8.522456e+000 6.669917e+000 6.293049e+000 5.237211e+000 8.655517e+000 8.388786e-001 1.266835e+000 1.559777e+000 1.692374e+000 1.939346e+000 1.897683e+000 1.841973e+000 1.781879e+000 1.576820e+000 1.254633e+000 1.180564e+000 1.035988e+000 1.158720e+000
<GCONST> 1.635754e+002
<TRANSP> 5
 0.000000e+000 1.000000e+000 0.000000e+000 0.000000e+000 0.000000e+000
 0.000000e+000 7.207335e-001 2.792666e-001 0.000000e+000 0.000000e+000
 0.000000e+000 0.000000e+000 5.034246e-001 4.965754e-001 0.000000e+000
 0.000000e+000 0.000000e+000 0.000000e+000 6.023791e-001 3.976209e-001
 0.000000e+000 0.000000e+000 0.000000e+000 0.000000e+000 0.000000e+000
<ENDHMM>
~h "d"
<BEGINHMM>
<NUMSTATES> 5
<STATE> 2
<NUMMIXES> 2
<MIXTURE> 1 5.000000e-001
<MEAN> 39
 -1.010006e+001 -3.789647e+000 -1.187992e-001 -9.267211e+000 -6.946794e+000 -1.282928e+001 -3.611725e+000 -3.688028e+000 -1.373298e+000 -8.502507e-001 -2.195462e+000 -8.588207e-001 6.415349e+001 1.218762e+000 1.560004e+000 8.008533e-001 8.399630e-001 -3.432511e-002 1.178608e-001 -1.999962e-001 -3.081982e-001 -4.333692e-001 3.214592e-002 1.427085e-001 1.154363e-001 1.811683e-001 6.039884e-001 6.410229e-001 2.630610e-001 1.317002e-001 5.962330e-002 7.988656e-002 -9.740742e-002 9.325191e-002 1.146797e-001 -3.943481e-002 -5.498555e-002 3.657878e-002 1.708463e-001
<VARIANCE> 39
 4.190884e+001 3.621328e+001 2.915464e+001 9.126640e+001 1.374287e+002 7.419928e+001 4.720301e+001 5.674032e+001 3.700008e+001 4.581620e+001 3.023459e+001 2.536670e+001 3.491103e+002 3.335244e+000 4.223671e+000 2.342266e+000 4.174664e+000 5.005397e+000 5.004626e+000 4.094108e+000 4.298556e+000 3.021376e+000 4.560414e+000 2.285641e+000 2.271085e+000 2.624140e+000 4.865076e-001 7.271989e-001 3.106240e-001 5.417753e-001 1.110074e+000 1.073881e+000 6.557103e-001 6.770594e-001 4.638870e-001 6.919095e-001 4.878530e-001 4.810413e-001 5.046197e-001
<GCONST> 1.334662e+002
<MIXTURE> 2 5.000000e-001
<MEAN> 39
 -1.268954e+001 -6.196745e+000 -2.278601e+000 -1.308855e+001 -1.163599e+001 -1.627484e+001 -6.359903e+000 -6.701075e+000 -3.806406e+000 -3.557757e+000 -4.394902e+000 -2.873435e+000 5.667969e+001 4.882556e-001 7.379406e-001 1.886747e-001 2.268322e-002 -9.292349e-001 -7.769800e-001 -1.009352e+000 -1.137517e+000 -1.128653e+000 -8.220591e-001 -4.620249e-001 -4.873685e-001 -4.667996e-001 3.249880e-001 2.999191e-001 4.012639e-002 -1.627214e-001 -3.618169e-001 -3.346263e-001 -4.213112e-001 -2.358826e-001 -1.577573e-001 -3.721592e-001 -3.343714e-001 -2.408498e-001 -1.133001e-001
<VARIANCE> 39
 4.190884e+001 3.621328e+001 2.915464e+001 9.126640e+001 1.374287e+002 7.419928e+001 4.720301e+001 5.674032e+001 3.700008e+001 4.581620e+001 3.023459e+001 2.536670e+001 3.491103e+002 3.335244e+000 4.223671e+000 2.342266e+000 4.174664e+000 5.005397e+000 5.004626e+000 4.094108e+000 4.298556e+000 3.021376e+000 4.560414e+000 2.285641e+000 2.271085e+000 2.624140e+000 4.865076e-001 7.271989e-001 3.106240e-001 5.417753e-001 1.110074e+000 1.073881e+000 6.557103e-001 6.770594e-001 4.638870e-001 6.919095e-001 4.878530e-001 4.810413e-001 5.046197e-001
<GCONST> 1.334662e+002
<STATE> 3
<NUMMIXES> 2
<MIXTURE> 1 5.000000e-001
<MEAN> 39
 -3.908665e+000 5.047631e+000 2.857568e+000 -5.301916e+000 -1.096330e+001 -1.368445e+001 -9.208935e+000 -8.400809e+000 -2.779793e+000 -4.881378e+000 -3.213719e+000 -1.515581e+000 6.128420e+001 1.668556e+000 2.466600e+000 7.663498e-001 7.403241e-001 1.274745e-002 1.192856e-001 2.551076e-001 -1.043563e-002 7.792233e-002 -2.201025e-001 -2.281610e-001 -3.658652e-001 1.793179e-001 -1.743803e-001 -2.261970e-001 -1.061801e-001 -9.397042e-002 2.385996e-001 3.431654e-001 5.575254e-001 4.507304e-001 2.911956e-001 3.264600e-001 1.744104e-001 1.513054e-001 3.784750e-001
<VARIANCE> 39
 2.763310e+001 5.603302e+001 2.424382e+001 4.285673e+001 5.530225e+001 4.369508e+001 5.615741e+001 4.793560e+001 4.079913e+001 4.405875e+001 3.259053e+001 3.088598e+001 1.340167e+002 5.106846e+000 5.684335e+000 2.351665e+000 3.241223e+000 6.578792e+000 5.526720e+000 4.984076e+000 4.202731e+000 2.655248e+000 4.218399e+000 3.306774e+000 3.695896e+000 5.860410e+000 3.303603e-001 4.652903e-001 3.437718e-001 5.027035e-001 7.929623e-001 7.022097e-001 7.788786e-001 6.409079e-001 5.597618e-001 7.446490e-001 5.271516e-001 7.024537e-001 4.367095e-001
<GCONST> 1.320795e+002
<MIXTURE> 2 5.000000e-001
<MEAN> 39
 -6.011353e+000 2.053423e+000 8.880477e-001 -7.920518e+000 -1.393792e+001 -1.632854e+001 -1.220646e+001 -1.117023e+001 -5.334761e+000 -7.536448e+000 -5.497243e+000 -3.738587e+000 5.665358e+001 7.646223e-001 1.512926e+000 1.529442e-001 2.018826e-002 -1.013219e+000 -8.210735e-001 -6.378942e-001 -8.304582e-001 -5.738750e-001 -1.041652e+000 -9.555424e-001 -1.134854e+000 -7.890135e-001 -4.042883e-001 -4.990458e-001 -3.407083e-001 -3.775768e-001 -1.175941e-001 7.973596e-003 2.045090e-001 1.305036e-001 -8.073359e-003 -1.871219e-002 -1.160104e-001 -1.839446e-001 1.141390e-001
<VARIANCE> 39
 2.763310e+001 5.603302e+001 2.424382e+001 4.285673e+001 5.530225e+001 4.369508e+001 5.615741e+001 4.793560e+001 4.079913e+001 4.405875e+001 3.259053e+001 3.088598e+001 1.340167e+002 5.106846e+000 5.684335e+000 2.351665e+000 3.241223e+000 6.578792e+000 5.526720e+000 4.984076e+000 4.202731e+000 2.655248e+000 4.218399e+000 3.306774e+000 3.695896e+000 5.860410e+000 3.303603e-001 4.652903e-001 3.437718e-001 5.027035e-001 7.929623e-001 7.022097e-001 7.788786e-001 6.409079e-001 5.597618e-001 7.446490e-001 5.271516e-001 7.024537e-001 4.367095e-001
<GCONST> 1.320795e+002
<STATE> 4
<NUMMIXES> 2
<MIXTURE> 1 5.000000e-001
<MEAN> 39
 9.186510e-001 8.810245e+000 5.020592e+000 -1.144646e+001 -9.608733e+000 -1.443386e+001 -1.771816e+000 -8.268554e+000 -2.743326e+000 -4.065038e+000 -5.457444e+000 -3.832489e+000 6.213138e+001 5.064608e-001 4.626252e-001 2.154828e-001 9.510204e-002 5.424278e-001 4.334981e-001 6.076721e-001 7.518260e-001 4.727721e-001 6.094637e-001 5.217237e-001 3.699160e-001 1.491922e+000 -4.294055e-002 -2.317401e-001 1.589325e-001 -4.561364e-002 2.435702e-001 2.890329e-001 1.317921e-001 2.123712e-001 3.061550e-001 5.092684e-001 3.770475e-001 4.050955e-001 5.217531e-001
<VARIANCE> 39
 8.062025e+001 6.387070e+001 1.184217e+002 1.131921e+002 8.835309e+001 8.132309e+001 8.448945e+001 1.049402e+002 4.913157e+001 7.439580e+001 6.064821e+001 6.055715e+001 1.160070e+002 5.290816e+000 7.304262e+000 5.513490e+000 6.163132e+000 6.519181e+000 6.688223e+000 7.415249e+000 6.171895e+000 4.534729e+000 5.534165e+000 4.312956e+000 5.066082e+000 6.547429e+000 8.910448e-001 1.319948e+000 9.944874e-001 1.115408e+000 1.335486e+000 1.379043e+000 1.352209e+000 1.042095e+000 8.939566e-001 1.156294e+000 8.628088e-001 9.611707e-001 1.020477e+000
<GCONST> 1.529138e+002
<MIXTURE> 2 5.000000e-001
<MEAN> 39
 -2.672900e+000 5.613479e+000 6.677223e-001 -1.570213e+001 -1.336859e+001 -1.804104e+001 -5.448542e+000 -1.236617e+001 -5.547082e+000 -7.515158e+000 -8.572522e+000 -6.945228e+000 5.782312e+001 -4.136101e-001 -6.184307e-001 -7.237501e-001 -8.979242e-001 -4.788796e-001 -6.009659e-001 -4.815661e-001 -2.419059e-001 -3.790240e-001 -3.315285e-001 -3.089826e-001 -5.304024e-001 4.684040e-001 -4.205212e-001 -6.912961e-001 -2.399635e-001 -4.680651e-001 -2.186828e-001 -1.806977e-001 -3.333459e-001 -1.959610e-001 -7.204216e-002 7.914398e-002 5.497491e-003 1.293828e-002 1.176785e-001
<VARIANCE> 39
 8.062025e+001 6.387070e+001 1.184217e+002 1.131921e+002 8.835309e+001 8.132309e+001 8.448945e+001 1.049402e+002 4.913157e+001 7.439580e+001 6.064821e+001 6.055715e+001 1.160070e+002 5.290816e+000 7.304262e+000 5.513490e+000 6.163132e+000 6.519181e+000 6.688223e+000 7.415249e+000 6.171895e+000 4.534729e+000 5.534165e+000 4.312956e+000 5.066082e+000 6.547429e+000 8.910448e-001 1.319948e+000 9.944874e-001 1.115408e+000 1.335486e+000 1.379043e+000 1.352209e+000 1.042095e+000 8.939566e-001 1.156294e+000 8.628088e-001 9.611707e-001 1.020477e+000
<GCONST> 1.529138e+002
<TRANSP> 5
 0.000000e+000 1.000000e+000 0.000000e+000 0.000000e+000 0.000000e+000
 0.000000e+000 6.740986e-001 3.259014e-001 0.000000e+000 0.000000e+000
 0.000000e+000 0.000000e+000 6.292844e-001 3.707156e-001 0.000000e+000
 0.000000e+000 0.000000e+000 0.000000e+000 8.180575e-001 1.819425e-001
 0.000000e+000 0.000000e+000 0.000000e+000 0.000000e+000 0.000000e+000
<ENDHMM>
~h "e"
<BEGINHMM>
<NUMSTATES> 5
<STATE> 2
<NUMMIXES> 2
<MIXTURE> 1 5.000000e-001
<MEAN> 39
 -5.279936e+000 4.563723e-001 2.467525e+000 -1.074048e+001 -1.104773e+001 -1.294144e+001 -5.145163e+000 -4.533898e+000 -8.535084e-001 -2.622116e+000 -2.074190e-001 -1.595709e+000 6.956883e+001 1.641634e+000 2.053238e-001 1.830947e+000 -1.179556e+000 -2.050307e+000 -2.041647e-001 6.970075e-001 1.588678e-001 1.028055e-001 1.181069e+000 6.931669e-001 9.528575e-001 2.761600e+000 1.203557e-001 8.105356e-002 2.150243e-001 -1.311987e-001 1.392127e-001 4.690732e-001 3.542969e-001 9.844173e-002 2.509504e-001 5.160045e-001 2.063990e-002 3.054572e-001 2.364805e-001
<VARIANCE> 39
 6.881929e+001 6.239320e+001 5.912916e+001 8.318188e+001 9.864879e+001 7.411726e+001 6.879329e+001 7.376624e+001 4.982918e+001 4.914684e+001 5.284105e+001 4.410263e+001 1.388684e+002 8.363002e+000 7.508430e+000 6.812000e+000 7.597566e+000 9.145072e+000 8.093641e+000 8.621547e+000 7.480927e+000 6.666964e+000 6.887255e+000 5.159084e+000 5.193526e+000 8.554836e+000 9.221158e-001 9.073206e-001 7.523113e-001 1.018045e+000 1.232621e+000 1.251161e+000 9.940761e-001 1.268801e+000 9.090989e-001 9.430043e-001 9.054303e-001 8.174229e-001 9.284000e-001
<GCONST> 1.519727e+002
<MIXTURE> 2 5.000000e-001
<MEAN> 39
 -8.598232e+000 -2.703202e+000 -6.082948e-001 -1.438864e+001 -1.502061e+001 -1.638510e+001 -8.462831e+000 -7.969388e+000 -3.677100e+000 -5.426308e+000 -3.115093e+000 -4.252101e+000 6.485513e+001 4.848799e-001 -8.907368e-001 7.869549e-001 -2.282104e+000 -3.259939e+000 -1.342138e+000 -4.774913e-001 -9.351836e-001 -9.300131e-001 1.313262e-001 -2.153777e-001 4.128513e-002 1.591654e+000 -2.637517e-001 -2.999600e-001 -1.319192e-001 -5.347915e-001 -3.048811e-001 2.165198e-002 -4.451653e-002 -3.521225e-001 -1.304363e-001 1.275709e-001 -3.599765e-001 -5.618859e-002 -1.489336e-001
<VARIANCE> 39
 6.881929e+001 6.239320e+001 5.912916e+001 8.318188e+001 9.864879e+001 7.411726e+001 6.879329e+001 7.376624e+001 4.982918e+001 4.914684e+001 5.284105e+001 4.410263e+001 1.388684e+002 8.363002e+000 7.508430e+000 6.812000e+000 7.597566e+000 9.145072e+000 8.093641e+000 8.621547e+000 7.480927e+000 6.666964e+000 6.887255e+000 5.159084e+000 5.193526e+000 8.554836e+000 9.221158e-001 9.073206e-001 7.523113e-001 1.018045e+000 1.232621e+000 1.251161e+000 9.940761e-001 1.268801e+000 9.090989e-001 9.430043e-001 9.054303e-001 8.174229e-001 9.284000e-001
<GCONST> 1.519727e+002
<STATE> 3
<NUMMIXES> 2
<MIXTURE> 1 5.000000e-001
<MEAN> 39
 -2.753531e+000 -1.697089e+000 6.110864e+000 -1.676118e+001 -2.043767e+001 -1.378275e+001 -5.035952e+000 -5.019042e+000 -1.187285e+000 1.061330e-001 -4.533782e-001 1.317447e-001 7.549111e+001 7.256180e-001 -2.022549e-001 1.569462e+000 -1.361474e+000 -1.041421e+000 8.201481e-001 1.029228e+000 -1.080147e-001 1.545770e-001 1.884860e+000 -2.292799e-001 8.917866e-001 1.936453e+000 -3.411055e-001 4.066932e-001 -2.313019e-001 6.827990e-001 1.272667e+000 6.320085e-001 3.434475e-001 1.935333e-001 3.089859e-001 1.648361e-001 -4.619743e-002 5.780096e-003 -6.022017e-001
<VARIANCE> 39
 4.035785e+001 6.548064e+001 5.810518e+001 8.635068e+001 6.434989e+001 6.633448e+001 6.189116e+001 8.284327e+001 6.209023e+001 6.347325e+001 4.507006e+001 3.960410e+001 4.949403e+001 4.159314e+000 4.710937e+000 4.668622e+000 7.318298e+000 7.711580e+000 6.090839e+000 6.350494e+000 6.211750e+000 4.606979e+000 7.081016e+000 4.286422e+000 4.251454e+000 6.239932e+000 7.621260e-001 1.009175e+000 6.383380e-001 7.996914e-001 1.016972e+000 1.027105e+000 1.100203e+000 1.190365e+000 9.776416e-001 1.037618e+000 7.446134e-001 7.075670e-001 6.272253e-001
<GCONST> 1.451821e+002
<MIXTURE> 2 5.000000e-001
<MEAN> 39
 -5.294644e+000 -4.933893e+000 3.061794e+000 -2.047818e+001 -2.364641e+001 -1.704059e+001 -8.182789e+000 -8.659773e+000 -4.339179e+000 -3.080671e+000 -3.138748e+000 -2.385527e+000 7.267702e+001 -9.015784e-002 -1.070443e+000 7.051821e-001 -2.443568e+000 -2.152210e+000 -1.670369e-001 2.122024e-002 -1.104950e+000 -7.039780e-001 8.204525e-001 -1.057427e+000 6.702441e-002 9.372589e-001 -6.903048e-001 4.862395e-003 -5.508861e-001 3.250972e-001 8.692869e-001 2.266237e-001 -7.611473e-002 -2.428821e-001 -8.651713e-002 -2.426180e-001 -3.913614e-001 -3.306879e-001 -9.189919e-001
<VARIANCE> 39
 4.035785e+001 6.548064e+001 5.810518e+001 8.635068e+001 6.434989e+001 6.633448e+001 6.189116e+001 8.284327e+001 6.209023e+001 6.347325e+001 4.507006e+001 3.960410e+001 4.949403e+001 4.159314e+000 4.710937e+000 4.668622e+000 7.318298e+000 7.711580e+000 6.090839e+000 6.350494e+000 6.211750e+000 4.606979e+000 7.081016e+000 4.286422e+000 4.251454e+000 6.239932e+000 7.621260e-001 1.009175e+000 6.383380e-001 7.996914e-001 1.016972e+000 1.027105e+000 1.100203e+000 1.190365e+000 9.776416e-001 1.037618e+000 7.446134e-001 7.075670e-001 6.272253e-001
<GCONST> 1.451821e+002
<STATE> 4
<NUMMIXES> 2
<MIXTURE> 1 5.000000e-001
<MEAN> 39
 -2.727466e+000 1.676307e-001 9.684048e+000 -2.210719e+001 -1.779819e+001 -1.057533e+001 -1.700703e+000 -9.490897e+000 -8.878307e-001 4.011629e+000 -4.601693e+000 2.962330e-001 7.487609e+001 1.528042e-001 7.673922e-001 -1.677193e-001 1.248727e+000 1.070232e+000 6.982366e-001 5.620232e-001 2.509805e-001 3.663072e-001 -2.763413e-002 5.185730e-001 6.598753e-002 -3.709472e-001 6.338575e-002 1.855083e-001 -1.256608e-001 5.814639e-001 4.574951e-001 1.381333e-001 7.921048e-002 3.242445e-001 2.181409e-001 -5.155553e-002 3.325933e-001 6.626169e-002 -1.139703e-001
<VARIANCE> 39
 5.477699e+001 6.782262e+001 6.326128e+001 1.426483e+002 8.875105e+001 1.167961e+002 6.987130e+001 8.590529e+001 7.801687e+001 8.111934e+001 5.814357e+001 5.092406e+001 5.872238e+001 2.340488e+000 2.699102e+000 2.926532e+000 5.927358e+000 4.659051e+000 4.435886e+000 3.920967e+000 4.451398e+000 3.691953e+000 4.923270e+000 3.714017e+000 3.164523e+000 2.424238e+000 3.489240e-001 4.344902e-001 4.724411e-001 9.509122e-001 8.634702e-001 8.365178e-001 8.006406e-001 7.846954e-001 6.568058e-001 9.536261e-001 6.628205e-001 5.873618e-001 3.856539e-001
<GCONST> 1.387639e+002
<MIXTURE> 2 5.000000e-001
<MEAN> 39
 -5.687925e+000 -3.126549e+000 6.502569e+000 -2.688461e+001 -2.156651e+001 -1.489821e+001 -5.044265e+000 -1.319830e+001 -4.420917e+000 4.089776e-001 -7.651771e+000 -2.558211e+000 7.181087e+001 -4.591420e-001 1.102344e-001 -8.520037e-001 2.748801e-001 2.068387e-001 -1.442251e-001 -2.300340e-001 -5.929529e-001 -4.022710e-001 -9.151719e-001 -2.522984e-001 -6.455767e-001 -9.937458e-001 -1.728934e-001 -7.815523e-002 -4.005982e-001 1.914050e-001 8.580272e-002 -2.277121e-001 -2.787036e-001 -3.008767e-002 -1.060334e-001 -4.421706e-001 6.938116e-003 -2.402964e-001 -3.623745e-001
<VARIANCE> 39
 5.477699e+001 6.782262e+001 6.326128e+001 1.426483e+002 8.875105e+001 1.167961e+002 6.987130e+001 8.590529e+001 7.801687e+001 8.111934e+001 5.814357e+001 5.092406e+001 5.872238e+001 2.340488e+000 2.699102e+000 2.926532e+000 5.927358e+000 4.659051e+000 4.435886e+000 3.920967e+000 4.451398e+000 3.691953e+000 4.923270e+000 3.714017e+000 3.164523e+000 2.424238e+000 3.489240e-001 4.344902e-001 4.724411e-001 9.509122e-001 8.634702e-001 8.365178e-001 8.006406e-001 7.846954e-001 6.568058e-001 9.536261e-001 6.628205e-001 5.873618e-001 3.856539e-001
<GCONST> 1.387639e+002
<TRANSP> 5
 0.000000e+000 1.000000e+000 0.000000e+000 0.000000e+000 0.000000e+000
 0.000000e+000 3.404687e-001 6.595312e-001 0.000000e+000 0.000000e+000
 0.000000e+000 0.000000e+000 4.798844e-001 5.201157e-001 0.000000e+000
 0.000000e+000 0.000000e+000 0.000000e+000 8.199159e-001 1.800841e-001
 0.000000e+000 0.000000e+000 0.000000e+000 0.000000e+000 0.000000e+000
<ENDHMM>
~h "f"
<BEGINHMM>
<NUMSTATES> 5
<STATE> 2
<NUMMIXES> 2
<MIXTURE> 1 5.000000e-001
<MEAN> 39
 -1.534867e+001 -8.931682e+000 -4.792555e+000 -7.127611e+000 -1.376965e+000 -7.285819e+000 5.343550e-001 -4.734261e+000 9.682684e-001 -4.492106e+000 -2.219981e-001 -2.617433e+000 4.218793e+001 1.246899e-001 1.789636e-001 2.121759e-001 3.044260e-001 2.899212e-001 2.506257e-001 3.197699e-001 3.397869e-001 3.332886e-001 3.144941e-001 3.580413e-001 3.182028e-001 4.791723e-002 7.331514e-002 8.889745e-002 8.197493e-002 9.429566e-002 1.216950e-001 1.250249e-001 1.477387e-001 1.537288e-001 1.617434e-001 1.460600e-001 1.695651e-001 1.289725e-001 3.309730e-002
<VARIANCE> 39
 4.573312e+000 6.197110e+000 1.220091e+001 1.916210e+001 1.852837e+001 2.057116e+001 2.430874e+001 2.522139e+001 2.753697e+001 2.870541e+001 2.563422e+001 1.961905e+001 1.878117e+001 4.795004e-001 7.192908e-001 1.121213e+000 1.921575e+000 1.989112e+000 1.994374e+000 2.440546e+000 2.913119e+000 2.981772e+000 2.398840e+000 2.754521e+000 2.070627e+000 1.204522e-001 9.569243e-002 1.561894e-001 2.287377e-001 3.810167e-001 3.992760e-001 4.107905e-001 5.250881e-001 6.118356e-001 5.931062e-001 4.826108e-001 5.777911e-001 4.459983e-001 2.891733e-002
<GCONST> 9.756133e+001
<MIXTURE> 2 5.000000e-001
<MEAN> 39
 -1.620409e+001 -9.927442e+000 -6.189747e+000 -8.878592e+000 -3.098749e+000 -9.100037e+000 -1.437801e+000 -6.743097e+000 -1.130759e+000 -6.635203e+000 -2.247208e+000 -4.389169e+000 4.045444e+001 -1.522940e-001 -1.602804e-001 -2.113735e-001 -2.500576e-001 -2.742223e-001 -3.142635e-001 -3.051199e-001 -3.429276e-001 -3.574237e-001 -3.050335e-001 -3.058287e-001 -2.573841e-001 -9.090767e-002 -5.042164e-002 -6.918576e-002 -1.093312e-001 -1.526105e-001 -1.310582e-001 -1.313468e-001 -1.421131e-001 -1.591509e-001 -1.463102e-001 -1.318208e-001 -1.344852e-001 -1.381600e-001 -3.492309e-002
<VARIANCE> 39
 4.573312e+000 6.197110e+000 1.220091e+001 1.916210e+001 1.852837e+001 2.057116e+001 2.430874e+001 2.522139e+001 2.753697e+001 2.870541e+001 2.563422e+001 1.961905e+001 1.878117e+001 4.795004e-001 7.192908e-001 1.121213e+000 1.921575e+000 1.989112e+000 1.994374e+000 2.440546e+000 2.913119e+000 2.981772e+000 2.398840e+000 2.754521e+000 2.070627e+000 1.204522e-001 9.569243e-002 1.561894e-001 2.287377e-001 3.810167e-001 3.992760e-001 4.107905e-001 5.250881e-001 6.118356e-001 5.931062e-001 4.826108e-001 5.777911e-001 4.459983e-001 2.891733e-002
<GCONST> 9.756133e+001
<STATE> 3
<NUMMIXES> 2
<MIXTURE> 1 5.000000e-001
<MEAN> 39
 -1.418341e+001 1.174235e+000 -2.611124e+000 1.734082e+000 -7.053564e+000 -3.719002e+000 -5.389627e+000 -4.771806e+000 -5.589194e+000 -2.337288e+000 -5.324018e+000 -4.013765e+000 6.918663e+001 -8.487108e-001 9.755069e-001 1.065277e+000 9.454655e-001 9.134251e-001 9.484699e-001 1.153916e+000 1.254112e-001 4.916175e-001 9.033181e-001 8.903285e-001 4.408484e-002 -5.975308e-001 3.227600e-001 5.529920e-003 -4.569232e-003 8.192647e-002 -6.354888e-002 1.414657e-001 6.990956e-004 3.784883e-001 2.997510e-001 2.858592e-001 5.422138e-002 1.602143e-001 2.184600e-001
<VARIANCE> 39
 5.766190e+001 3.525257e+001 2.853384e+001 4.836864e+001 4.986909e+001 5.203404e+001 2.683585e+001 2.539076e+001 7.945734e+001 5.321022e+001 4.693805e+001 2.996057e+001 1.114862e+002 1.958351e+000 1.844001e+000 1.562912e+000 1.566601e+000 1.226650e+000 3.318061e+000 2.426647e+000 2.484601e+000 3.732164e+000 5.604673e+000 2.822605e+000 2.057144e+000 9.154025e-001 4.264684e-001 3.491523e-001 2.546760e-001 3.750935e-001 3.717672e-001 6.137710e-001 4.612549e-001 5.105526e-001 8.293214e-001 1.147176e+000 5.847333e-001 3.495886e-001 2.519325e-001
<GCONST> 1.211202e+002
<MIXTURE> 2 5.000000e-001
<MEAN> 39
 -1.722083e+001 -1.200720e+000 -4.747807e+000 -1.047821e+000 -9.878286e+000 -6.604387e+000 -7.461761e+000 -6.787376e+000 -9.154748e+000 -5.255102e+000 -8.064472e+000 -6.203215e+000 6.496315e+001 -1.408475e+000 4.323309e-001 5.652111e-001 4.448098e-001 4.704082e-001 2.198481e-001 5.308080e-001 -5.050935e-001 -2.811349e-001 -4.364950e-002 2.183041e-001 -5.296251e-001 -9.802374e-001 6.154181e-002 -2.308265e-001 -2.064310e-001 -1.630530e-001 -3.074397e-001 -1.719084e-001 -2.709639e-001 9.267647e-002 -6.451736e-002 -1.425660e-001 -2.516500e-001 -7.628976e-002 1.768844e-002
<VARIANCE> 39
 5.766190e+001 3.525257e+001 2.853384e+001 4.836864e+001 4.986909e+001 5.203404e+001 2.683585e+001 2.539076e+001 7.945734e+001 5.321022e+001 4.693805e+001 2.996057e+001 1.114862e+002 1.958351e+000 1.844001e+000 1.562912e+000 1.566601e+000 1.226650e+000 3.318061e+000 2.426647e+000 2.484601e+000 3.732164e+000 5.604673e+000 2.822605e+000 2.057144e+000 9.154025e-001 4.264684e-001 3.491523e-001 2.546760e-001 3.750935e-001 3.717672e-001 6.137710e-001 4.612549e-001 5.105526e-001 8.293214e-001 1.147176e+000 5.847333e-001 3.495886e-001 2.519325e-001
<GCONST> 1.211202e+002
<STATE> 4
<NUMMIXES> 2
<MIXTURE> 1 5.000000e-001
<MEAN> 39
 -8.709177e+000 -2.142091e+000 -8.440016e+000 -7.664134e+000 -4.102295e+000 -1.176344e+001 -7.666628e+000 -2.388986e+000 6.957932e-001 -2.656076e+000 1.429976e+000 -4.537868e+000 6.813680e+001 1.211692e+000 4.082120e-001 1.478470e-001 -3.752589e-002 -1.276282e-001 4.564224e-001 3.127869e-001 1.136786e+000 3.900978e-001 2.537024e-001 2.464296e-002 4.598473e-001 1.617875e+000 4.548515e-001 1.758635e-001 2.149015e-001 4.465247e-002 1.225732e-002 1.140034e-001 -3.569182e-002 7.633413e-002 2.159158e-001 1.749621e-001 -2.022344e-002 1.549439e-001 4.324961e-001
<VARIANCE> 39
 1.163888e+002 3.223420e+001 3.795460e+001 7.939698e+001 3.583344e+001 1.183427e+002 9.365062e+001 5.781640e+001 4.621367e+001 2.852316e+001 2.679439e+001 3.393978e+001 1.556339e+002 7.648463e+000 3.359651e+000 5.159304e+000 3.672093e+000 3.797199e+000 6.756630e+000 4.915092e+000 6.205087e+000 6.544017e+000 3.799611e+000 3.421162e+000 3.536628e+000 6.016190e+000 9.512141e-001 5.289398e-001 6.972423e-001 6.589191e-001 6.376400e-001 1.120114e+000 8.172456e-001 1.103870e+000 1.131477e+000 8.195971e-001 7.955682e-001 7.453740e-001 7.450081e-001
<GCONST> 1.414665e+002
<MIXTURE> 2 5.000000e-001
<MEAN> 39
 -1.302452e+001 -4.413097e+000 -1.090431e+001 -1.122833e+001 -6.496737e+000 -1.611486e+001 -1.153756e+001 -5.430470e+000 -2.023432e+000 -4.792359e+000 -6.405556e-001 -6.868183e+000 6.314667e+001 1.054581e-001 -3.249620e-001 -7.607170e-001 -8.040341e-001 -9.070843e-001 -5.833183e-001 -5.740134e-001 1.403854e-001 -6.331532e-001 -5.260012e-001 -7.152123e-001 -2.923897e-001 6.367585e-001 6.473070e-002 -1.150495e-001 -1.191026e-001 -2.800429e-001 -3.071521e-001 -3.093384e-001 -3.972984e-001 -3.439268e-001 -2.095678e-001 -1.871643e-001 -3.770020e-001 -1.903963e-001 8.724071e-002
<VARIANCE> 39
 1.163888e+002 3.223420e+001 3.795460e+001 7.939698e+001 3.583344e+001 1.183427e+002 9.365062e+001 5.781640e+001 4.621367e+001 2.852316e+001 2.679439e+001 3.393978e+001 1.556339e+002 7.648463e+000 3.359651e+000 5.159304e+000 3.672093e+000 3.797199e+000 6.756630e+000 4.915092e+000 6.205087e+000 6.544017e+000 3.799611e+000 3.421162e+000 3.536628e+000 6.016190e+000 9.512141e-001 5.289398e-001 6.972423e-001 6.589191e-001 6.376400e-001 1.120114e+000 8.172456e-001 1.103870e+000 1.131477e+000 8.195971e-001 7.955682e-001 7.453740e-001 7.450081e-001
<GCONST> 1.414665e+002
<TRANSP> 5
 0.000000e+000 1.000000e+000 0.000000e+000 0.000000e+000 0.000000e+000
 0.000000e+000 9.724548e-001 2.754520e-002 0.000000e+000 0.000000e+000
 0.000000e+000 0.000000e+000 8.113538e-001 1.886462e-001 0.000000e+000
 0.000000e+000 0.000000e+000 0.000000e+000 8.728221e-001 1.271779e-001
 0.000000e+000 0.000000e+000 0.000000e+000 0.000000e+000 0.000000e+000
<ENDHMM>
~h "g"
<BEGINHMM>
<NUMSTATES> 5
<STATE> 2
<NUMMIXES> 2
<MIXTURE> 1 5.000000e-001
<MEAN> 39
 -2.970947e+000 -4.351240e-001 -2.739185e+000 -9.916236e+000 -3.556617e+000 -1.319849e+001 -7.522110e+000 -5.907658e+000 1.616054e+000 -3.655040e+000 2.411999e-001 -3.334850e+000 6.084001e+001 1.581079e+000 7.359226e-001 -4.170333e-001 -1.028117e+000 2.740853e-001 -3.512546e-001 3.532338e-001 2.398513e+000 1.256796e+000 -1.966529e-001 -2.240225e-001 -3.067845e-001 3.134683e+000 1.547926e-001 2.889108e-002 6.713440e-002 -4.315689e-001 3.726654e-002 3.181907e-001 5.030667e-001 4.001655e-001 3.396767e-002 2.922285e-001 -7.869796e-002 2.042308e-001 6.103478e-001
<VARIANCE> 39
 7.981413e+001 7.523844e+001 4.490447e+001 6.472721e+001 5.864713e+001 6.560150e+001 5.845169e+001 1.478416e+002 5.936106e+001 5.421799e+001 4.841299e+001 5.942189e+001 1.513475e+002 4.667345e+000 1.162821e+001 5.838306e+000 7.960596e+000 9.119473e+000 9.221870e+000 8.383687e+000 1.832999e+001 5.645786e+000 4.339218e+000 4.326573e+000 5.685736e+000 9.441395e+000 5.656039e-001 1.456051e+000 1.276474e+000 1.149564e+000 1.048175e+000 1.672745e+000 1.501353e+000 3.376822e+000 9.045139e-001 7.838777e-001 7.581109e-001 1.256502e+000 1.686245e+000
<GCONST> 1.551829e+002
<MIXTURE> 2 5.000000e-001
<MEAN> 39
 -6.544497e+000 -3.904728e+000 -5.419617e+000 -1.313436e+001 -6.619873e+000 -1.643828e+001 -1.058026e+001 -1.077126e+001 -1.465792e+000 -6.600354e+000 -2.541978e+000 -6.418274e+000 5.591907e+001 7.169172e-001 -6.280838e-001 -1.383537e+000 -2.156698e+000 -9.338533e-001 -1.565956e+000 -8.049501e-001 6.859713e-001 3.063612e-001 -1.029884e+000 -1.056039e+000 -1.260576e+000 1.905609e+000 -1.460340e-001 -4.537767e-001 -3.847902e-001 -8.604398e-001 -3.722551e-001 -1.991478e-001 1.294786e-002 -3.348798e-001 -3.464561e-001 -6.191893e-002 -4.269762e-001 -2.441444e-001 9.092582e-002
<VARIANCE> 39
 7.981413e+001 7.523844e+001 4.490447e+001 6.472721e+001 5.864713e+001 6.560150e+001 5.845169e+001 1.478416e+002 5.936106e+001 5.421799e+001 4.841299e+001 5.942189e+001 1.513475e+002 4.667345e+000 1.162821e+001 5.838306e+000 7.960596e+000 9.119473e+000 9.221870e+000 8.383687e+000 1.832999e+001 5.645786e+000 4.339218e+000 4.326573e+000 5.685736e+000 9.441395e+000 5.656039e-001 1.456051e+000 1.276474e+000 1.149564e+000 1.048175e+000 1.672745e+000 1.501353e+000 3.376822e+000 9.045139e-001 7.838777e-001 7.581109e-001 1.256502e+000 1.686245e+000
<GCONST> 1.551829e+002
<STATE> 3
<NUMMIXES> 2
<MIXTURE> 1 5.000000e-001
<MEAN> 39
 -1.838634e+000 1.963876e+000 2.755158e+000 -9.938791e+000 -8.226414e+000 -1.485257e+001 -5.720768e+000 -9.351687e+000 -1.360505e+000 6.882977e+000 -1.582306e-001 -7.009178e+000 6.737503e+001 2.410277e-001 2.061829e-001 2.909802e-001 -5.233339e-001 3.724900e-001 1.867254e-001 7.205314e-001 3.956406e-001 -1.974274e-001 7.150955e-002 2.234010e-001 4.480474e-001 6.291447e-001 -1.334220e-002 2.010028e-002 5.205110e-002 3.439808e-001 3.852772e-001 3.792460e-001 3.306003e-001 1.998027e-001 6.029052e-002 3.316449e-002 1.867490e-001 3.782556e-001 -1.568689e-002
<VARIANCE> 39
 2.688232e+001 2.685448e+001 6.217630e+001 7.841450e+001 8.775632e+001 3.131684e+001 8.054963e+001 8.557668e+001 1.008481e+002 1.014604e+002 5.304263e+001 3.359084e+001 4.305953e+001 9.429438e-001 1.212992e+000 3.730035e+000 5.708495e+000 5.513854e+000 3.166104e+000 6.157638e+000 3.221245e+000 5.482409e+000 4.721867e+000 2.934834e+000 2.673058e+000 8.644868e-001 2.269465e-001 3.163665e-001 4.851265e-001 7.728136e-001 6.978781e-001 5.095806e-001 6.990525e-001 7.692435e-001 1.155437e+000 8.166483e-001 7.004679e-001 4.509123e-001 3.168548e-001
<GCONST> 1.305682e+002
<MIXTURE> 2 5.000000e-001
<MEAN> 39
 -3.912560e+000 -1.089767e-001 -3.989201e-001 -1.348087e+001 -1.197355e+001 -1.709103e+001 -9.310746e+000 -1.305199e+001 -5.377431e+000 2.853875e+000 -3.071445e+000 -9.327482e+000 6.475024e+001 -1.473934e-001 -2.343607e-001 -4.815517e-001 -1.479032e+000 -5.667738e-001 -5.250166e-001 -2.720522e-001 -3.222726e-001 -1.134009e+000 -7.976847e-001 -4.618532e-001 -2.059322e-001 2.572336e-001 -2.038978e-001 -2.048856e-001 -2.265530e-001 -7.658438e-003 5.112080e-002 9.370637e-002 -3.837114e-003 -1.510234e-001 -3.696745e-001 -3.283099e-001 -1.480268e-001 1.096556e-001 -2.408463e-001
<VARIANCE> 39
 2.688232e+001 2.685448e+001 6.217630e+001 7.841450e+001 8.775632e+001 3.131684e+001 8.054963e+001 8.557668e+001 1.008481e+002 1.014604e+002 5.304263e+001 3.359084e+001 4.305953e+001 9.429438e-001 1.212992e+000 3.730035e+000 5.708495e+000 5.513854e+000 3.166104e+000 6.157638e+000 3.221245e+000 5.482409e+000 4.721867e+000 2.934834e+000 2.673058e+000 8.644868e-001 2.269465e-001 3.163665e-001 4.851265e-001 7.728136e-001 6.978781e-001 5.095806e-001 6.990525e-001 7.692435e-001 1.155437e+000 8.166483e-001 7.004679e-001 4.509123e-001 3.168548e-001
<GCONST> 1.305682e+002
<STATE> 4
<NUMMIXES> 2
<MIXTURE> 1 5.000000e-001
<MEAN> 39
 3.845686e-001 4.598555e+000 -6.988663e+000 -1.197435e+001 -1.096434e+001 -1.719412e+001 -1.574140e+000 -8.884716e+000 2.299712e+000 -1.083901e+001 -3.518987e+000 -1.154035e+001 6.136581e+001 6.579256e-002 -7.948568e-002 1.311096e-001 3.494951e-001 5.956836e-001 7.139345e-001 6.895199e-001 2.389564e-001 2.742273e-001 3.354571e-001 1.416293e-001 6.016918e-001 7.585697e-002 2.846384e-002 1.777700e-002 1.221460e-001 1.989047e-001 2.083197e-001 1.645667e-001 2.159318e-001 2.292733e-001 1.672624e-001 2.136689e-001 1.854523e-001 2.315908e-001 7.383637e-002
<VARIANCE> 39
 2.851139e+001 1.228230e+002 1.088736e+002 9.752053e+001 2.100476e+002 9.166261e+001 7.883629e+001 7.648411e+001 9.135235e+001 4.914496e+001 5.500728e+001 1.022740e+002 1.096520e+002 8.427200e-001 1.948449e+000 4.103499e+000 5.194221e+000 4.806066e+000 2.528856e+000 5.728267e+000 3.751808e+000 4.371415e+000 3.793427e+000 3.543276e+000 3.304471e+000 6.412111e-001 9.060104e-002 2.829504e-001 4.885956e-001 8.192338e-001 6.763232e-001 4.067167e-001 1.118096e+000 5.767221e-001 6.460282e-001 6.821014e-001 6.474874e-001 6.160184e-001 1.408260e-001
<GCONST> 1.333575e+002
<MIXTURE> 2 5.000000e-001
<MEAN> 39
 -1.751274e+000 1.655333e-001 -1.116236e+001 -1.592445e+001 -1.676154e+001 -2.102374e+001 -5.125732e+000 -1.238292e+001 -1.523425e+000 -1.364315e+001 -6.485663e+000 -1.558557e+001 5.717722e+001 -3.014066e-001 -6.378331e-001 -6.791742e-001 -5.621383e-001 -2.812260e-001 7.783944e-002 -2.678321e-001 -5.358270e-001 -5.620899e-001 -4.436117e-001 -6.113144e-001 -1.254364e-001 -2.444457e-001 -9.193619e-002 -1.949953e-001 -1.574525e-001 -1.631414e-001 -1.206358e-001 -9.053064e-002 -2.070284e-001 -7.449561e-002 -1.542411e-001 -1.166888e-001 -1.364141e-001 -8.235660e-002 -7.627079e-002
<VARIANCE> 39
 2.851139e+001 1.228230e+002 1.088736e+002 9.752053e+001 2.100476e+002 9.166261e+001 7.883629e+001 7.648411e+001 9.135235e+001 4.914496e+001 5.500728e+001 1.022740e+002 1.096520e+002 8.427200e-001 1.948449e+000 4.103499e+000 5.194221e+000 4.806066e+000 2.528856e+000 5.728267e+000 3.751808e+000 4.371415e+000 3.793427e+000 3.543276e+000 3.304471e+000 6.412111e-001 9.060104e-002 2.829504e-001 4.885956e-001 8.192338e-001 6.763232e-001 4.067167e-001 1.118096e+000 5.767221e-001 6.460282e-001 6.821014e-001 6.474874e-001 6.160184e-001 1.408260e-001
<GCONST> 1.333575e+002
<TRANSP> 5
 0.000000e+000 1.000000e+000 0.000000e+000 0.000000e+000 0.000000e+000
 0.000000e+000 6.443967e-001 3.556033e-001 0.000000e+000 0.000000e+000
 0.000000e+000 0.000000e+000 6.522488e-001 3.477512e-001 0.000000e+000
 0.000000e+000 0.000000e+000 0.000000e+000 8.385832e-001 1.614168e-001
 0.000000e+000 0.000000e+000 0.000000e+000 0.000000e+000 0.000000e+000
<ENDHMM>
~h "h"
<BEGINHMM>
<NUMSTATES> 5
<STATE> 2
<NUMMIXES> 2
<MIXTURE> 1 5.000000e-001
<MEAN> 39
 -1.625215e+001 -9.926961e+000 -4.612922e+000 -7.447618e+000 -1.401173e+000 -6.899873e+000 1.327763e-001 -4.229246e+000 1.546277e+000 -2.920058e+000 1.325135e+000 -2.060635e+000 4.163211e+001 9.915227e-002 1.336564e-001 1.631155e-001 2.202241e-001 2.764936e-001 2.964579e-001 2.788844e-001 3.222756e-001 3.324596e-001 3.101904e-001 3.093525e-001 2.895486e-001 5.724382e-002 6.215976e-002 7.501487e-002 7.835934e-002 1.038030e-001 1.263664e-001 1.326647e-001 1.277603e-001 1.552636e-001 1.594300e-001 1.413693e-001 1.361704e-001 1.344087e-001 3.701784e-002
<VARIANCE> 39
 8.373433e+000 1.374883e+001 1.172854e+001 1.545027e+001 1.865332e+001 2.073586e+001 2.382228e+001 2.587738e+001 2.532804e+001 2.214803e+001 2.222028e+001 1.839746e+001 3.584536e+001 2.615129e-001 5.069404e-001 8.024635e-001 1.339840e+000 1.726607e+000 2.139161e+000 2.306353e+000 2.762250e+000 3.042122e+000 2.405173e+000 2.404130e+000 2.117526e+000 8.938407e-002 5.488950e-002 1.057194e-001 1.686092e-001 2.843969e-001 3.676961e-001 4.530164e-001 4.861185e-001 5.846862e-001 6.576177e-001 5.039991e-001 4.974905e-001 4.576997e-001 1.985960e-002
<GCONST> 9.459942e+001
<MIXTURE> 2 5.000000e-001
<MEAN> 39
 -1.740963e+001 -1.141014e+001 -5.982800e+000 -9.019892e+000 -3.128753e+000 -8.721339e+000 -1.819547e+000 -6.264039e+000 -4.668022e-001 -4.802526e+000 -5.604008e-001 -3.776325e+000 3.923727e+001 -1.054011e-001 -1.511426e-001 -1.952059e-001 -2.427817e-001 -2.491081e-001 -2.885770e-001 -3.285829e-001 -3.425251e-001 -3.652076e-001 -3.101544e-001 -3.108578e-001 -2.925203e-001 -6.234486e-002 -3.155428e-002 -5.504321e-002 -8.588886e-002 -1.095125e-001 -1.161854e-001 -1.365612e-001 -1.511285e-001 -1.505955e-001 -1.649445e-001 -1.426023e-001 -1.459616e-001 -1.362053e-001 -1.935180e-002
<VARIANCE> 39
 8.373433e+000 1.374883e+001 1.172854e+001 1.545027e+001 1.865332e+001 2.073586e+001 2.382228e+001 2.587738e+001 2.532804e+001 2.214803e+001 2.222028e+001 1.839746e+001 3.584536e+001 2.615129e-001 5.069404e-001 8.024635e-001 1.339840e+000 1.726607e+000 2.139161e+000 2.306353e+000 2.762250e+000 3.042122e+000 2.405173e+000 2.404130e+000 2.117526e+000 8.938407e-002 5.488950e-002 1.057194e-001 1.686092e-001 2.843969e-001 3.676961e-001 4.530164e-001 4.861185e-001 5.846862e-001 6.576177e-001 5.039991e-001 4.974905e-001 4.576997e-001 1.985960e-002
<GCONST> 9.459942e+001
<STATE> 3
<NUMMIXES> 2
<MIXTURE> 1 5.000000e-001
<MEAN> 39
 -1.272558e+001 -5.517500e+000 -3.913002e+000 -7.467182e+000 -1.190276e+000 -7.369707e+000 -1.721440e+000 -1.436947e+000 6.297972e-001 -1.456762e+000 3.308141e-002 -5.954123e-001 5.933965e+001 2.217887e-001 2.286422e-001 1.733299e-001 1.690305e-001 4.325145e-001 2.822260e-001 1.684090e-001 4.149238e-001 4.105372e-001 3.790983e-001 3.299860e-001 3.587019e-001 3.568715e-001 2.570099e-001 1.766705e-001 1.081408e-001 9.716529e-002 1.271922e-001 1.097671e-001 8.817665e-002 1.570040e-001 1.292612e-001 1.080623e-001 8.932047e-002 1.398869e-001 1.324373e-001
<VARIANCE> 39
 5.013593e+001 6.410925e+001 5.720477e+001 6.346962e+001 8.239944e+001 6.334316e+001 6.660102e+001 8.105340e+001 7.356992e+001 6.387422e+001 5.398880e+001 4.745486e+001 2.201935e+002 1.132576e+000 1.372356e+000 1.883625e+000 2.476512e+000 3.197163e+000 3.185297e+000 3.889687e+000 3.915556e+000 4.034651e+000 3.418027e+000 3.182359e+000 2.797432e+000 6.487468e-001 2.492372e-001 2.766265e-001 3.343593e-001 4.506369e-001 6.123038e-001 6.065329e-001 7.394781e-001 7.401783e-001 7.559606e-001 6.742625e-001 5.953634e-001 5.515183e-001 1.350509e-001
<GCONST> 1.282547e+002
<MIXTURE> 2 5.000000e-001
<MEAN> 39
 -1.555785e+001 -8.720230e+000 -6.938356e+000 -1.065389e+001 -4.821242e+000 -1.055324e+001 -4.985818e+000 -5.038133e+000 -2.801119e+000 -4.653616e+000 -2.906001e+000 -3.350912e+000 5.340408e+001 -2.039015e-001 -2.399482e-001 -3.756509e-001 -4.604470e-001 -2.827100e-001 -4.316700e-001 -6.204826e-001 -3.765867e-001 -3.929204e-001 -3.604180e-001 -3.835807e-001 -3.103191e-001 3.469227e-002 5.731528e-002 -3.371067e-002 -1.231545e-001 -1.713527e-001 -1.858072e-001 -2.017538e-001 -2.557950e-001 -1.871304e-001 -2.185227e-001 -2.203916e-001 -2.193187e-001 -1.571702e-001 -1.455973e-002
<VARIANCE> 39
 5.013593e+001 6.410925e+001 5.720477e+001 6.346962e+001 8.239944e+001 6.334316e+001 6.660102e+001 8.105340e+001 7.356992e+001 6.387422e+001 5.398880e+001 4.745486e+001 2.201935e+002 1.132576e+000 1.372356e+000 1.883625e+000 2.476512e+000 3.197163e+000 3.185297e+000 3.889687e+000 3.915556e+000 4.034651e+000 3.418027e+000 3.182359e+000 2.797432e+000 6.487468e-001 2.492372e-001 2.766265e-001 3.343593e-001 4.506369e-001 6.123038e-001 6.065329e-001 7.394781e-001 7.401783e-001 7.559606e-001 6.742625e-001 5.953634e-001 5.515183e-001 1.350509e-001
<GCONST> 1.282547e+002
<STATE> 4
<NUMMIXES> 2
<MIXTURE> 1 5.000000e-001
<MEAN> 39
 -1.256594e+001 -6.755521e+000 -6.214206e+000 -9.433667e+000 5.380769e+000 -7.048477e+000 -2.675112e+000 9.896850e-001 3.124275e+000 -7.507424e-002 7.525796e-001 -1.258794e+000 5.657685e+001 1.286451e+000 6.677895e-001 5.915168e-002 -1.188745e-001 7.216879e-001 4.560147e-001 -1.189783e-001 4.072085e-001 1.678764e-001 6.418538e-003 1.222749e-001 3.348100e-001 1.296630e+000 5.919115e-001 3.179106e-001 1.319001e-001 -4.204235e-003 -9.841189e-002 1.649337e-001 1.004280e-001 8.559375e-002 4.138607e-002 7.746194e-004 2.336287e-002 1.772443e-001 4.500470e-001
<VARIANCE> 39
 6.341050e+001 7.027781e+001 1.045354e+002 1.212733e+002 1.951642e+002 1.114494e+002 1.134231e+002 1.270626e+002 1.035934e+002 8.188239e+001 7.540266e+001 8.367069e+001 1.799956e+002 4.531517e+000 3.249061e+000 4.384423e+000 5.354349e+000 8.624213e+000 5.476586e+000 6.546832e+000 7.665941e+000 6.608573e+000 5.418533e+000 4.608054e+000 4.462069e+000 2.698743e+000 6.937047e-001 6.006350e-001 7.270938e-001 9.458930e-001 1.277499e+000 9.840779e-001 1.168491e+000 1.256674e+000 1.115838e+000 9.188816e-001 8.871028e-001 7.836815e-001 5.211738e-001
<GCONST> 1.516621e+002
<MIXTURE> 2 5.000000e-001
<MEAN> 39
 -1.575116e+001 -1.010880e+001 -1.030391e+001 -1.383863e+001 -2.072786e-001 -1.127126e+001 -6.935123e+000 -3.519197e+000 -9.469589e-001 -3.694630e+000 -2.720809e+000 -4.917662e+000 5.121035e+001 4.349567e-001 -5.321663e-002 -7.784088e-001 -1.044453e+000 -4.529925e-001 -4.800696e-001 -1.142449e+000 -7.002889e-001 -8.604094e-001 -9.246911e-001 -7.363803e-001 -5.101344e-001 6.395156e-001 2.587557e-001 7.908010e-003 -2.091791e-001 -3.932323e-001 -5.505179e-001 -2.318691e-001 -3.319590e-001 -3.628122e-001 -3.811469e-001 -3.826586e-001 -3.533817e-001 -1.768589e-001 1.612775e-001
<VARIANCE> 39
 6.341050e+001 7.027781e+001 1.045354e+002 1.212733e+002 1.951642e+002 1.114494e+002 1.134231e+002 1.270626e+002 1.035934e+002 8.188239e+001 7.540266e+001 8.367069e+001 1.799956e+002 4.531517e+000 3.249061e+000 4.384423e+000 5.354349e+000 8.624213e+000 5.476586e+000 6.546832e+000 7.665941e+000 6.608573e+000 5.418533e+000 4.608054e+000 4.462069e+000 2.698743e+000 6.937047e-001 6.006350e-001 7.270938e-001 9.458930e-001 1.277499e+000 9.840779e-001 1.168491e+000 1.256674e+000 1.115838e+000 9.188816e-001 8.871028e-001 7.836815e-001 5.211738e-001
<GCONST> 1.516621e+002
<TRANSP> 5
 0.000000e+000 1.000000e+000 0.000000e+000 0.000000e+000 0.000000e+000
 0.000000e+000 9.475814e-001 5.241858e-002 0.000000e+000 0.000000e+000
 0.000000e+000 0.000000e+000 6.935087e-001 3.064913e-001 0.000000e+000
 0.000000e+000 0.000000e+000 0.000000e+000 7.709865e-001 2.290135e-001
 0.000000e+000 0.000000e+000 0.000000e+000 0.000000e+000 0.000000e+000
<ENDHMM>
~h "i"
<BEGINHMM>
<NUMSTATES> 5
<STATE> 2
<NUMMIXES> 2
<MIXTURE> 1 5.000000e-001
<MEAN> 39
 -4.667069e+000 5.908628e+000 9.472753e+000 -1.719563e+001 -1.325395e+001 -1.019108e+001 -8.016782e+000 -1.213534e+001 -7.026945e-001 -1.797007e+000 -4.254386e+000 -1.734643e+000 6.967307e+001 1.359250e+000 1.348383e+000 2.921266e+000 -2.378276e+000 -1.497021e+000 9.244186e-001 -9.547681e-001 -8.238333e-001 5.328404e-001 8.624486e-001 -1.049736e+000 1.059890e+000 2.527218e+000 -1.830377e-001 -6.471598e-002 -1.704838e-001 2.347014e-001 7.934756e-001 6.506917e-001 6.123824e-001 6.029308e-001 3.610502e-001 3.719612e-001 2.234429e-001 3.851285e-001 -9.659156e-002
<VARIANCE> 39
 8.039131e+001 7.098759e+001 8.814758e+001 1.329416e+002 1.054682e+002 7.898647e+001 9.143016e+001 7.515563e+001 7.307262e+001 6.996366e+001 6.547337e+001 4.606560e+001 9.326258e+001 7.779126e+000 5.444181e+000 7.024646e+000 8.936899e+000 9.139068e+000 7.552565e+000 8.200260e+000 7.370728e+000 6.127360e+000 5.928625e+000 6.413569e+000 4.964103e+000 5.190520e+000 8.659006e-001 1.016787e+000 1.184083e+000 1.596390e+000 1.736179e+000 1.181297e+000 1.400851e+000 1.263858e+000 1.022506e+000 9.835001e-001 9.943187e-001 7.717596e-001 8.898699e-001
<GCONST> 1.549898e+002
<MIXTURE> 2 5.000000e-001
<MEAN> 39
 -8.253517e+000 2.538463e+000 5.717275e+000 -2.180765e+001 -1.736185e+001 -1.374606e+001 -1.184155e+001 -1.560304e+001 -4.121995e+000 -5.142779e+000 -7.491011e+000 -4.449509e+000 6.581017e+001 2.436067e-001 4.150724e-001 1.861104e+000 -3.574062e+000 -2.706257e+000 -1.748586e-001 -2.100212e+000 -1.909797e+000 -4.572998e-001 -1.115022e-001 -2.062737e+000 1.686792e-001 1.615910e+000 -5.552528e-001 -4.680594e-001 -6.057462e-001 -2.706920e-001 2.664190e-001 2.159417e-001 1.389522e-001 1.532450e-001 -4.342597e-002 -2.472506e-002 -1.754192e-001 3.372910e-002 -4.739232e-001
<VARIANCE> 39
 8.039131e+001 7.098759e+001 8.814758e+001 1.329416e+002 1.054682e+002 7.898647e+001 9.143016e+001 7.515563e+001 7.307262e+001 6.996366e+001 6.547337e+001 4.606560e+001 9.326258e+001 7.779126e+000 5.444181e+000 7.024646e+000 8.936899e+000 9.139068e+000 7.552565e+000 8.200260e+000 7.370728e+000 6.127360e+000 5.928625e+000 6.413569e+000 4.964103e+000 5.190520e+000 8.659006e-001 1.016787e+000 1.184083e+000 1.596390e+000 1.736179e+000 1.181297e+000 1.400851e+000 1.263858e+000 1.022506e+000 9.835001e-001 9.943187e-001 7.717596e-001 8.898699e-001
<GCONST> 1.549898e+002
<STATE> 3
<NUMMIXES> 2
<MIXTURE> 1 5.000000e-001
<MEAN> 39
 -5.978002e+000 6.763996e+000 1.441991e+001 -2.732845e+001 -1.545640e+001 -5.546919e+000 -1.093972e+001 -1.346913e+001 -2.612687e-001 1.230206e+000 -9.942826e+000 2.527436e+000 7.461215e+001 3.002799e-001 4.155867e-001 7.658777e-002 1.875108e-001 6.976433e-001 8.324296e-001 4.499225e-001 3.662187e-001 4.130728e-001 2.961473e-001 2.404705e-001 4.909927e-001 5.326581e-002 1.625441e-001 3.599099e-002 -3.734386e-001 1.010458e+000 4.897986e-001 -5.111204e-002 5.014158e-001 3.265917e-001 6.583192e-002 -4.454574e-002 5.577575e-001 -1.348258e-001 -2.841314e-001
<VARIANCE> 39
 3.565934e+001 4.390939e+001 6.329231e+001 1.666610e+002 6.129636e+001 7.498935e+001 8.602307e+001 6.182582e+001 6.259850e+001 7.135933e+001 8.427367e+001 5.565262e+001 2.246826e+001 1.122064e+000 1.828904e+000 2.227305e+000 4.313266e+000 2.945627e+000 2.965957e+000 3.484915e+000 2.907982e+000 2.752070e+000 2.830682e+000 2.999348e+000 2.696182e+000 1.020688e+000 2.914680e-001 2.938211e-001 4.875375e-001 6.847371e-001 7.349487e-001 6.345115e-001 7.530047e-001 7.008825e-001 5.977403e-001 5.889439e-001 6.398103e-001 5.134939e-001 2.032490e-001
<GCONST> 1.282001e+002
<MIXTURE> 2 5.000000e-001
<MEAN> 39
 -8.366620e+000 4.113430e+000 1.123765e+001 -3.249234e+001 -1.858808e+001 -9.010775e+000 -1.464966e+001 -1.661431e+001 -3.426037e+000 -2.148772e+000 -1.361485e+001 -4.565917e-001 7.271613e+001 -1.234301e-001 -1.253612e-001 -5.203785e-001 -6.432254e-001 1.113011e-002 1.435515e-001 -2.967946e-001 -3.158935e-001 -2.505018e-001 -3.768380e-001 -4.522745e-001 -1.658095e-001 -3.508506e-001 -5.340701e-002 -1.808301e-001 -6.527342e-001 6.794626e-001 1.468820e-001 -3.697369e-001 1.543124e-001 -8.283244e-003 -2.434227e-001 -3.515165e-001 2.378049e-001 -4.214598e-001 -4.644640e-001
<VARIANCE> 39
 3.565934e+001 4.390939e+001 6.329231e+001 1.666610e+002 6.129636e+001 7.498935e+001 8.602307e+001 6.182582e+001 6.259850e+001 7.135933e+001 8.427367e+001 5.565262e+001 2.246826e+001 1.122064e+000 1.828904e+000 2.227305e+000 4.313266e+000 2.945627e+000 2.965957e+000 3.484915e+000 2.907982e+000 2.752070e+000 2.830682e+000 2.999348e+000 2.696182e+000 1.020688e+000 2.914680e-001 2.938211e-001 4.875375e-001 6.847371e-001 7.349487e-001 6.345115e-001 7.530047e-001 7.008825e-001 5.977403e-001 5.889439e-001 6.398103e-001 5.134939e-001 2.032490e-001
<GCONST> 1.282001e+002
<STATE> 4
<NUMMIXES> 2
<MIXTURE> 1 5.000000e-001
<MEAN> 39
 -5.152680e+000 7.743553e+000 8.711479e+000 -1.698702e+001 -1.044942e+001 -5.452454e+000 -8.384485e+000 -1.187092e+001 2.931991e-001 -3.628989e+000 -4.437839e+000 -1.192747e+000 6.756024e+001 2.159593e-001 -6.091635e-002 -9.883181e-001 2.681802e+000 1.341290e+000 -3.162284e-002 1.171902e+000 8.870527e-001 1.925354e-001 9.033805e-002 1.185444e+000 -1.532933e-001 -9.179697e-001 -4.128439e-003 -8.947612e-004 5.396597e-002 1.871501e-001 2.317632e-001 1.423621e-001 1.849081e-001 2.488388e-001 1.834718e-001 2.691263e-001 1.557605e-001 2.232044e-001 5.219687e-002
<VARIANCE> 39
 6.601888e+001 5.885437e+001 5.831991e+001 1.434930e+002 8.188264e+001 1.039958e+002 8.095901e+001 6.993736e+001 6.294931e+001 7.468761e+001 5.847488e+001 4.988605e+001 7.749979e+001 2.256384e+000 2.322112e+000 3.330423e+000 4.538286e+000 4.067654e+000 4.491595e+000 4.884338e+000 4.300811e+000 4.231075e+000 3.917305e+000 4.058226e+000 3.467067e+000 1.516743e+000 2.138049e-001 3.432105e-001 4.122893e-001 7.054172e-001 6.911933e-001 7.394195e-001 7.849171e-001 7.310142e-001 7.301750e-001 6.699542e-001 6.457117e-001 5.859781e-001 1.851541e-001
<GCONST> 1.351931e+002
<MIXTURE> 2 5.000000e-001
<MEAN> 39
 -8.402761e+000 4.674889e+000 5.656781e+000 -2.177856e+001 -1.406898e+001 -9.531587e+000 -1.198357e+001 -1.521606e+001 -2.880425e+000 -7.085869e+000 -7.496593e+000 -4.017949e+000 6.403888e+001 -3.848913e-001 -6.704555e-001 -1.718296e+000 1.829672e+000 5.345529e-001 -8.793582e-001 2.878801e-001 5.751678e-002 -6.302477e-001 -7.013493e-001 3.796421e-001 -8.980957e-001 -1.410594e+000 -1.890846e-001 -2.352314e-001 -2.028731e-001 -1.488064e-001 -1.007890e-001 -2.015959e-001 -1.694741e-001 -9.315865e-002 -1.583293e-001 -5.827666e-002 -1.656643e-001 -8.299243e-002 -1.199213e-001
<VARIANCE> 39
 6.601888e+001 5.885437e+001 5.831991e+001 1.434930e+002 8.188264e+001 1.039958e+002 8.095901e+001 6.993736e+001 6.294931e+001 7.468761e+001 5.847488e+001 4.988605e+001 7.749979e+001 2.256384e+000 2.322112e+000 3.330423e+000 4.538286e+000 4.067654e+000 4.491595e+000 4.884338e+000 4.300811e+000 4.231075e+000 3.917305e+000 4.058226e+000 3.467067e+000 1.516743e+000 2.138049e-001 3.432105e-001 4.122893e-001 7.054172e-001 6.911933e-001 7.394195e-001 7.849171e-001 7.310142e-001 7.301750e-001 6.699542e-001 6.457117e-001 5.859781e-001 1.851541e-001
<GCONST> 1.351931e+002
<TRANSP> 5
 0.000000e+000 1.000000e+000 0.000000e+000 0.000000e+000 0.000000e+000
 0.000000e+000 6.371341e-001 3.628659e-001 0.000000e+000 0.000000e+000
 0.000000e+000 0.000000e+000 7.654437e-001 2.345563e-001 0.000000e+000
 0.000000e+000 0.000000e+000 0.000000e+000 7.685042e-001 2.314958e-001
 0.000000e+000 0.000000e+000 0.000000e+000 0.000000e+000 0.000000e+000
<ENDHMM>
~h "j"
<BEGINHMM>
<NUMSTATES> 5
<STATE> 2
<NUMMIXES> 2
<MIXTURE> 1 5.000000e-001
<MEAN> 39
 -1.329611e+001 -3.284932e+000 -4.936726e+000 -9.833975e+000 -3.069349e+000 -6.590710e+000 -2.625264e+000 -7.407771e-001 3.923755e-001 -1.098957e+000 1.768203e+000 -4.390575e-002 6.061651e+001 -1.805331e-001 1.106963e-001 1.931215e-001 1.827947e-001 5.434709e-001 8.192014e-001 7.453267e-001 3.506985e-001 7.554808e-001 1.109771e+000 5.462558e-001 4.513055e-001 -6.746857e-002 2.881856e-001 8.423547e-002 1.086325e-001 7.811543e-002 9.926168e-002 1.278083e-001 5.333574e-002 1.397424e-001 1.518654e-001 1.162354e-001 6.680854e-002 1.764867e-001 1.448777e-001
<VARIANCE> 39
 3.938667e+001 4.123320e+001 7.584489e+001 5.833868e+001 7.729637e+001 7.397728e+001 7.184468e+001 8.173833e+001 5.251035e+001 5.990861e+001 5.103101e+001 5.254526e+001 2.010002e+002 1.911693e+000 1.436718e+000 2.397140e+000 3.045490e+000 3.278343e+000 3.685516e+000 4.272650e+000 4.102592e+000 4.439132e+000 4.480531e+000 2.578625e+000 3.447295e+000 1.408827e+000 2.182608e-001 2.359886e-001 4.016954e-001 5.254391e-001 5.602461e-001 7.199987e-001 6.945992e-001 7.328427e-001 7.966262e-001 8.019349e-001 4.929325e-001 6.766189e-001 1.668239e-001
<GCONST> 1.304755e+002
<MIXTURE> 2 5.000000e-001
<MEAN> 39
 -1.580647e+001 -5.853456e+000 -8.420284e+000 -1.288917e+001 -6.586083e+000 -1.003111e+001 -6.015714e+000 -4.357147e+000 -2.506186e+000 -4.194983e+000 -1.089237e+000 -2.943430e+000 5.494553e+001 -7.335891e-001 -3.687564e-001 -4.261865e-001 -5.152586e-001 -1.807769e-001 5.129343e-002 -8.148888e-002 -4.594957e-001 -8.728916e-002 2.630799e-001 -9.606815e-002 -2.913702e-001 -5.422446e-001 1.013120e-001 -1.100792e-001 -1.448853e-001 -2.118333e-001 -2.001367e-001 -2.116027e-001 -2.800347e-001 -2.026825e-001 -2.051503e-001 -2.419678e-001 -2.140281e-001 -1.525407e-001 -1.849864e-002
<VARIANCE> 39
 3.938667e+001 4.123320e+001 7.584489e+001 5.833868e+001 7.729637e+001 7.397728e+001 7.184468e+001 8.173833e+001 5.251035e+001 5.990861e+001 5.103101e+001 5.254526e+001 2.010002e+002 1.911693e+000 1.436718e+000 2.397140e+000 3.045490e+000 3.278343e+000 3.685516e+000 4.272650e+000 4.102592e+000 4.439132e+000 4.480531e+000 2.578625e+000 3.447295e+000 1.408827e+000 2.182608e-001 2.359886e-001 4.016954e-001 5.254391e-001 5.602461e-001 7.199987e-001 6.945992e-001 7.328427e-001 7.966262e-001 8.019349e-001 4.929325e-001 6.766189e-001 1.668239e-001
<GCONST> 1.304755e+002
<STATE> 3
<NUMMIXES> 2
<MIXTURE> 1 5.000000e-001
<MEAN> 39
 -1.267781e+001 -2.163873e+000 -5.047118e+000 -1.198856e+001 -1.385235e+000 -3.928170e+000 -1.504516e+000 1.721164e+000 -1.051178e+000 1.848145e+000 1.215395e+000 -1.884991e+000 6.349741e+001 3.681143e-001 5.128144e-001 2.643953e-001 -2.760831e-001 2.052833e-001 8.313376e-001 3.635018e-001 9.041125e-002 3.391337e-001 7.525951e-001 2.734750e-002 2.413184e-001 2.734767e-001 8.208149e-001 4.767620e-001 4.220026e-001 -3.934229e-002 -1.651106e-001 -1.459357e-001 -1.639515e-001 -1.160052e-001 -9.617493e-003 -1.133830e-001 -1.253173e-001 1.653115e-001 3.437303e-001
<VARIANCE> 39
 5.587114e+001 4.256471e+001 1.039301e+002 8.720382e+001 8.316294e+001 7.869646e+001 8.361577e+001 1.139924e+002 7.115264e+001 6.381791e+001 5.052711e+001 5.306507e+001 1.328460e+002 2.233739e+000 2.137226e+000 3.748372e+000 3.581265e+000 4.666507e+000 5.087234e+000 5.368387e+000 5.295023e+000 5.463024e+000 4.995271e+000 3.430902e+000 3.303194e+000 1.564556e+000 5.065275e-001 3.650568e-001 6.068562e-001 7.613549e-001 6.573181e-001 9.627464e-001 1.054429e+000 1.185196e+000 9.882189e-001 8.140039e-001 6.629128e-001 6.788336e-001 3.221033e-001
<GCONST> 1.397289e+002
<MIXTURE> 2 5.000000e-001
<MEAN> 39
 -1.566769e+001 -4.773539e+000 -9.124962e+000 -1.572388e+001 -5.032983e+000 -7.476611e+000 -5.162182e+000 -2.549525e+000 -4.425259e+000 -1.347300e+000 -1.627902e+000 -4.798821e+000 5.888705e+001 -2.297137e-001 -7.195579e-002 -5.100332e-001 -1.033052e+000 -6.588007e-001 -7.085834e-002 -5.632894e-001 -8.300254e-001 -5.957909e-001 -1.414091e-001 -7.135603e-001 -4.856692e-001 -2.268521e-001 5.361319e-001 2.350822e-001 1.103987e-001 -3.883649e-001 -4.894112e-001 -5.384143e-001 -5.746931e-001 -5.514720e-001 -4.072543e-001 -4.742716e-001 -4.509951e-001 -1.642540e-001 1.167137e-001
<VARIANCE> 39
 5.587114e+001 4.256471e+001 1.039301e+002 8.720382e+001 8.316294e+001 7.869646e+001 8.361577e+001 1.139924e+002 7.115264e+001 6.381791e+001 5.052711e+001 5.306507e+001 1.328460e+002 2.233739e+000 2.137226e+000 3.748372e+000 3.581265e+000 4.666507e+000 5.087234e+000 5.368387e+000 5.295023e+000 5.463024e+000 4.995271e+000 3.430902e+000 3.303194e+000 1.564556e+000 5.065275e-001 3.650568e-001 6.068562e-001 7.613549e-001 6.573181e-001 9.627464e-001 1.054429e+000 1.185196e+000 9.882189e-001 8.140039e-001 6.629128e-001 6.788336e-001 3.221033e-001
<GCONST> 1.397289e+002
<STATE> 4
<NUMMIXES> 2
<MIXTURE> 1 5.000000e-001
<MEAN> 39
 -9.828301e+000 -3.412758e+000 -9.873561e+000 -1.623870e+001 5.800924e+000 -1.101873e+000 -1.708290e+000 1.614500e+000 -1.048852e+000 1.061892e+000 2.166264e+000 -1.960723e+000 6.198773e+001 2.194685e+000 1.556951e+000 1.100088e+000 -5.238208e-001 -6.765512e-001 -5.185469e-001 -2.907546e-001 -4.574448e-001 -1.156630e-001 -3.389042e-001 -3.319035e-001 4.487273e-001 1.526291e+000 7.809356e-001 4.347371e-001 3.993438e-001 -1.852481e-002 -4.880010e-001 -1.700442e-001 -2.162333e-001 -2.756290e-001 6.562144e-002 -3.052337e-002 -4.012242e-002 1.568248e-001 6.118369e-001
<VARIANCE> 39
 6.282215e+001 4.671994e+001 1.650363e+002 1.269315e+002 1.538397e+002 1.291352e+002 9.447820e+001 9.333607e+001 9.997896e+001 6.823761e+001 6.822501e+001 6.223612e+001 1.492366e+002 4.453827e+000 4.100521e+000 6.760651e+000 5.754485e+000 6.726030e+000 5.939677e+000 7.595210e+000 9.101574e+000 5.374093e+000 5.703455e+000 3.308591e+000 4.321918e+000 3.068187e+000 6.736243e-001 5.749534e-001 8.801933e-001 1.058380e+000 1.103126e+000 9.640252e-001 1.359048e+000 1.077629e+000 1.097090e+000 9.490426e-001 6.553355e-001 8.272517e-001 5.185786e-001
<GCONST> 1.506687e+002
<MIXTURE> 2 5.000000e-001
<MEAN> 39
 -1.299872e+001 -6.146838e+000 -1.501222e+001 -2.074526e+001 8.396383e-001 -5.647379e+000 -5.596286e+000 -2.249923e+000 -5.048431e+000 -2.242351e+000 -1.137674e+000 -5.116318e+000 5.710123e+001 1.350521e+000 7.469611e-001 6.003818e-002 -1.483361e+000 -1.713935e+000 -1.493405e+000 -1.393131e+000 -1.664197e+000 -1.042947e+000 -1.294181e+000 -1.059485e+000 -3.828416e-001 8.256412e-001 4.526372e-001 1.314343e-001 2.406936e-002 -4.300352e-001 -9.081202e-001 -5.627834e-001 -6.825461e-001 -6.908646e-001 -3.533468e-001 -4.201986e-001 -3.639336e-001 -2.069887e-001 3.237873e-001
<VARIANCE> 39
 6.282215e+001 4.671994e+001 1.650363e+002 1.269315e+002 1.538397e+002 1.291352e+002 9.447820e+001 9.333607e+001 9.997896e+001 6.823761e+001 6.822501e+001 6.223612e+001 1.492366e+002 4.453827e+000 4.100521e+000 6.760651e+000 5.754485e+000 6.726030e+000 5.939677e+000 7.595210e+000 9.101574e+000 5.374093e+000 5.703455e+000 3.308591e+000 4.321918e+000 3.068187e+000 6.736243e-001 5.749534e-001 8.801933e-001 1.058380e+000 1.103126e+000 9.640252e-001 1.359048e+000 1.077629e+000 1.097090e+000 9.490426e-001 6.553355e-001 8.272517e-001 5.185786e-001
<GCONST> 1.506687e+002
<TRANSP> 5
 0.000000e+000 1.000000e+000 0.000000e+000 0.000000e+000 0.000000e+000
 0.000000e+000 7.473880e-001 2.526120e-001 0.000000e+000 0.000000e+000
 0.000000e+000 0.000000e+000 3.748730e-001 6.251270e-001 0.000000e+000
 0.000000e+000 0.000000e+000 0.000000e+000 6.040024e-001 3.959976e-001
 0.000000e+000 0.000000e+000 0.000000e+000 0.000000e+000 0.000000e+000
<ENDHMM>
~h "k"
<BEGINHMM>
<NUMSTATES> 5
<STATE> 2
<NUMMIXES> 2
<MIXTURE> 1 5.000000e-001
<MEAN> 39
 -1.111462e+001 7.179651e-001 -1.542608e+000 -5.349428e+000 -3.667917e+000 -6.831499e+000 -1.529753e+000 -3.378055e+000 1.195732e+000 -1.117412e+000 7.374488e-001 -8.610378e-001 5.551101e+001 2.450049e-002 -2.766258e-001 -2.219075e-001 3.774934e-001 9.609309e-001 8.188772e-001 8.827115e-001 1.086066e+000 5.526415e-001 6.507517e-001 7.630545e-001 6.087376e-001 -1.407991e-001 3.897009e-001 1.100712e-001 -7.326327e-002 -3.610191e-001 1.245923e-001 1.094288e-001 1.575920e-002 2.397214e-001 5.928193e-002 1.489773e-001 -5.924931e-003 1.311538e-001 7.751168e-001
<VARIANCE> 39
 4.873430e+001 6.237497e+001 4.075634e+001 6.376031e+001 5.737933e+001 5.766379e+001 4.967913e+001 5.907146e+001 4.462737e+001 5.020375e+001 4.465435e+001 3.519368e+001 8.969570e+001 2.481836e+000 2.748938e+000 3.801961e+000 4.834499e+000 4.724820e+000 5.062808e+000 4.530482e+000 4.593326e+000 4.215227e+000 4.072078e+000 4.088251e+000 3.269110e+000 4.168005e+000 4.571704e-001 5.893936e-001 7.836315e-001 9.829705e-001 9.557532e-001 1.046534e+000 9.408845e-001 9.750762e-001 9.102804e-001 8.256152e-001 8.050402e-001 6.765954e-001 6.597732e-001
<GCONST> 1.381561e+002
<MIXTURE> 2 5.000000e-001
<MEAN> 39
 -1.390702e+001 -2.441148e+000 -4.096236e+000 -8.543430e+000 -6.697883e+000 -9.868966e+000 -4.349091e+000 -6.452374e+000 -1.476416e+000 -3.951596e+000 -1.935508e+000 -3.234008e+000 5.172269e+001 -6.056533e-001 -9.398227e-001 -1.001852e+000 -5.020064e-001 9.146488e-002 -8.115020e-002 3.131432e-002 2.287844e-001 -2.685993e-001 -1.564240e-001 -4.572248e-002 -1.144896e-001 -9.574268e-001 1.192434e-001 -1.970167e-001 -4.273551e-001 -7.575986e-001 -2.664582e-001 -2.997722e-001 -3.722376e-001 -1.552624e-001 -3.223525e-001 -2.144762e-001 -3.648210e-001 -1.978679e-001 4.502111e-001
<VARIANCE> 39
 4.873430e+001 6.237497e+001 4.075634e+001 6.376031e+001 5.737933e+001 5.766379e+001 4.967913e+001 5.907146e+001 4.462737e+001 5.020375e+001 4.465435e+001 3.519368e+001 8.969570e+001 2.481836e+000 2.748938e+000 3.801961e+000 4.834499e+000 4.724820e+000 5.062808e+000 4.530482e+000 4.593326e+000 4.215227e+000 4.072078e+000 4.088251e+000 3.269110e+000 4.168005e+000 4.571704e-001 5.893936e-001 7.836315e-001 9.829705e-001 9.557532e-001 1.046534e+000 9.408845e-001 9.750762e-001 9.102804e-001 8.256152e-001 8.050402e-001 6.765954e-001 6.597732e-001
<GCONST> 1.381561e+002
<STATE> 3
<NUMMIXES> 2
<MIXTURE> 1 5.000000e-001
<MEAN> 39
 -9.036387e+000 -2.049527e+000 -4.202291e+000 -9.181143e+000 -1.494567e+000 -7.716245e+000 5.685692e-002 -7.283788e-001 1.526094e+000 -1.018305e+000 -1.364553e-001 -4.070514e-001 5.782322e+001 1.583258e+000 -7.502521e-002 -1.266706e+000 -1.704448e+000 1.093200e+000 3.129054e-001 -5.660084e-002 1.456939e+000 -2.361334e-001 6.271812e-001 2.800598e-001 5.180004e-001 3.289095e+000 6.526706e-001 5.538707e-001 3.097093e-001 -1.757375e-001 2.796931e-002 1.649987e-001 -2.555925e-001 -1.578312e-001 -1.442668e-001 6.486390e-002 1.319019e-002 6.672212e-002 9.405737e-001
<VARIANCE> 39
 6.218447e+001 8.473499e+001 8.460661e+001 1.002518e+002 1.090171e+002 1.049706e+002 7.948203e+001 9.506378e+001 6.642082e+001 6.962016e+001 5.861332e+001 4.574362e+001 1.129352e+002 6.503496e+000 8.075543e+000 1.173326e+001 1.209731e+001 1.232242e+001 1.228247e+001 9.762098e+000 1.035503e+001 8.825142e+000 6.930196e+000 6.687976e+000 5.429594e+000 1.003214e+001 7.057986e-001 1.139429e+000 1.307014e+000 1.677365e+000 1.711853e+000 1.670050e+000 1.421745e+000 1.565444e+000 1.256948e+000 1.088767e+000 1.029405e+000 8.135365e-001 1.244365e+000
<GCONST> 1.599639e+002
<MIXTURE> 2 5.000000e-001
<MEAN> 39
 -1.219067e+001 -5.731591e+000 -7.881565e+000 -1.318618e+001 -5.671017e+000 -1.181445e+001 -3.509251e+000 -4.628405e+000 -1.733865e+000 -4.355853e+000 -3.198829e+000 -3.112413e+000 5.357238e+001 5.631799e-001 -1.211725e+000 -2.636860e+000 -3.095696e+000 -3.109326e-001 -1.088949e+000 -1.306375e+000 1.697701e-001 -1.424419e+000 -4.258294e-001 -7.543851e-001 -4.140592e-001 2.022153e+000 3.166234e-001 1.268945e-001 -1.475896e-001 -6.937900e-001 -4.953819e-001 -3.519230e-001 -7.325403e-001 -6.583020e-001 -5.927216e-001 -3.525121e-001 -3.926482e-001 -2.940629e-001 4.943693e-001
<VARIANCE> 39
 6.218447e+001 8.473499e+001 8.460661e+001 1.002518e+002 1.090171e+002 1.049706e+002 7.948203e+001 9.506378e+001 6.642082e+001 6.962016e+001 5.861332e+001 4.574362e+001 1.129352e+002 6.503496e+000 8.075543e+000 1.173326e+001 1.209731e+001 1.232242e+001 1.228247e+001 9.762098e+000 1.035503e+001 8.825142e+000 6.930196e+000 6.687976e+000 5.429594e+000 1.003214e+001 7.057986e-001 1.139429e+000 1.307014e+000 1.677365e+000 1.711853e+000 1.670050e+000 1.421745e+000 1.565444e+000 1.256948e+000 1.088767e+000 1.029405e+000 8.135365e-001 1.244365e+000
<GCONST> 1.599639e+002
<STATE> 4
<NUMMIXES> 2
<MIXTURE> 1 5.000000e-001
<MEAN> 39
 -3.654014e+000 -2.239154e+000 -9.167050e+000 -1.787152e+001 -2.926215e-001 -8.179385e+000 -4.121611e+000 1.797516e-001 -2.467901e+000 -5.752668e-001 -1.237696e+000 -8.828436e-001 6.738610e+001 2.019506e+000 1.309647e+000 5.973040e-001 -7.749245e-001 -6.486077e-002 1.431359e-001 -5.354366e-001 -2.314851e-001 -4.657686e-001 2.151999e-002 -9.229299e-002 2.189983e-001 2.835491e+000 2.631663e-001 5.941760e-001 1.130164e+000 8.621666e-001 -1.758104e-001 3.185845e-001 2.881297e-001 -3.575763e-001 4.563069e-001 5.446323e-002 1.299942e-001 2.630872e-001 -2.333199e-001
<VARIANCE> 39
 7.910522e+001 8.708215e+001 1.528091e+002 1.422080e+002 1.364873e+002 1.436756e+002 1.214434e+002 1.262744e+002 1.051102e+002 8.717511e+001 7.457347e+001 6.254060e+001 7.743511e+001 4.854928e+000 6.825575e+000 8.612232e+000 9.455578e+000 9.448143e+000 8.000176e+000 9.061799e+000 9.113351e+000 7.531605e+000 6.475747e+000 6.736869e+000 4.551039e+000 7.554224e+000 9.058060e-001 1.322348e+000 1.860621e+000 1.937390e+000 2.211234e+000 2.117149e+000 1.994809e+000 1.866068e+000 1.607338e+000 1.365306e+000 1.181908e+000 1.053012e+000 1.011201e+000
<GCONST> 1.632514e+002
<MIXTURE> 2 5.000000e-001
<MEAN> 39
 -7.211658e+000 -5.971867e+000 -1.411169e+001 -2.264156e+001 -4.965733e+000 -1.297398e+001 -8.529665e+000 -4.315124e+000 -6.568832e+000 -4.309971e+000 -4.691934e+000 -4.046148e+000 6.386621e+001 1.138150e+000 2.646152e-001 -5.765601e-001 -2.004921e+000 -1.294374e+000 -9.882474e-001 -1.739550e+000 -1.439018e+000 -1.563519e+000 -9.963796e-001 -1.130512e+000 -6.343283e-001 1.736093e+000 -1.175291e-001 1.342024e-001 5.845457e-001 3.054060e-001 -7.706192e-001 -2.634326e-001 -2.768212e-001 -9.039927e-001 -5.081647e-002 -4.129220e-001 -3.048682e-001 -1.473783e-001 -6.355539e-001
<VARIANCE> 39
 7.910522e+001 8.708215e+001 1.528091e+002 1.422080e+002 1.364873e+002 1.436756e+002 1.214434e+002 1.262744e+002 1.051102e+002 8.717511e+001 7.457347e+001 6.254060e+001 7.743511e+001 4.854928e+000 6.825575e+000 8.612232e+000 9.455578e+000 9.448143e+000 8.000176e+000 9.061799e+000 9.113351e+000 7.531605e+000 6.475747e+000 6.736869e+000 4.551039e+000 7.554224e+000 9.058060e-001 1.322348e+000 1.860621e+000 1.937390e+000 2.211234e+000 2.117149e+000 1.994809e+000 1.866068e+000 1.607338e+000 1.365306e+000 1.181908e+000 1.053012e+000 1.011201e+000
<GCONST> 1.632514e+002
<TRANSP> 5
 0.000000e+000 1.000000e+000 0.000000e+000 0.000000e+000 0.000000e+000
 0.000000e+000 7.450297e-001 2.549703e-001 0.000000e+000 0.000000e+000
 0.000000e+000 0.000000e+000 4.897691e-001 5.102309e-001 0.000000e+000
 0.000000e+000 0.000000e+000 0.000000e+000 5.297326e-001 4.702674e-001
 0.000000e+000 0.000000e+000 0.000000e+000 0.000000e+000 0.000000e+000
<ENDHMM>
~h "l"
<BEGINHMM>
<NUMSTATES> 5
<STATE> 2
<NUMMIXES> 2
<MIXTURE> 1 5.000000e-001
<MEAN> 39
 -3.939058e+000 -1.600297e+000 9.622217e-001 -1.054270e+001 -1.094475e+001 -1.626847e+001 -1.042108e+001 -5.959881e+000 1.133359e-001 -4.540375e+000 -6.056817e-001 8.881586e-001 7.093537e+001 1.704115e-001 8.052537e-001 8.611909e-001 8.487851e-001 2.731757e-001 -2.857163e-001 3.508241e-001 4.684116e-001 7.125647e-002 -4.672163e-002 5.389662e-001 1.013489e+000 -9.245405e-002 4.108066e-002 8.465426e-002 -1.960297e-002 -1.010885e-001 2.154483e-001 4.463783e-001 2.765558e-001 2.235392e-001 1.905642e-001 2.575091e-001 1.615483e-001 1.127042e-001 1.302975e-001
<VARIANCE> 39
 4.307509e+001 4.926085e+001 4.433112e+001 7.318543e+001 5.667225e+001 7.701336e+001 7.642377e+001 5.470308e+001 6.804690e+001 6.550664e+001 5.606351e+001 5.137196e+001 8.993776e+001 1.122904e+000 1.618869e+000 1.817260e+000 2.703295e+000 2.625585e+000 3.797754e+000 4.191878e+000 3.743141e+000 3.580901e+000 3.639746e+000 3.050306e+000 2.971239e+000 1.007893e+000 1.681633e-001 2.550571e-001 2.585694e-001 5.448755e-001 4.908311e-001 7.157426e-001 6.861772e-001 6.449724e-001 6.646554e-001 6.585876e-001 6.310178e-001 4.667831e-001 1.520789e-001
<GCONST> 1.261284e+002
<MIXTURE> 2 5.000000e-001
<MEAN> 39
 -6.564322e+000 -4.407740e+000 -1.701043e+000 -1.396464e+001 -1.395599e+001 -1.977877e+001 -1.391790e+001 -8.918342e+000 -3.186286e+000 -7.777822e+000 -3.600704e+000 -1.978811e+000 6.714194e+001 -2.534572e-001 2.963146e-001 3.219678e-001 1.911171e-001 -3.749706e-001 -1.065229e+000 -4.681389e-001 -3.054763e-001 -6.856743e-001 -8.098463e-001 -1.596388e-001 3.239981e-001 -4.940296e-001 -1.229502e-001 -1.173585e-001 -2.230018e-001 -3.963513e-001 -6.478909e-002 1.079720e-001 -5.478743e-002 -9.770149e-002 -1.355413e-001 -6.710453e-002 -1.561982e-001 -1.605819e-001 -2.569171e-002
<VARIANCE> 39
 4.307509e+001 4.926085e+001 4.433112e+001 7.318543e+001 5.667225e+001 7.701336e+001 7.642377e+001 5.470308e+001 6.804690e+001 6.550664e+001 5.606351e+001 5.137196e+001 8.993776e+001 1.122904e+000 1.618869e+000 1.817260e+000 2.703295e+000 2.625585e+000 3.797754e+000 4.191878e+000 3.743141e+000 3.580901e+000 3.639746e+000 3.050306e+000 2.971239e+000 1.007893e+000 1.681633e-001 2.550571e-001 2.585694e-001 5.448755e-001 4.908311e-001 7.157426e-001 6.861772e-001 6.449724e-001 6.646554e-001 6.585876e-001 6.310178e-001 4.667831e-001 1.520789e-001
<GCONST> 1.261284e+002
<STATE> 3
<NUMMIXES> 2
<MIXTURE> 1 5.000000e-001
<MEAN> 39
 -1.547320e+000 -9.234759e-001 2.957051e+000 -1.009976e+001 -1.067785e+001 -1.757781e+001 -1.112884e+001 -4.837341e+000 3.527631e-001 -6.919443e+000 -2.897570e+000 4.918531e+000 7.133929e+001 2.137063e-001 1.852104e-001 2.461760e-001 -8.271022e-002 1.173887e-001 7.063866e-001 8.203551e-001 7.864972e-001 5.178604e-001 2.624902e-001 5.449137e-001 3.727466e-001 5.526351e-001 3.403077e-002 -6.595483e-002 -1.594562e-001 -1.431229e-001 8.597329e-002 5.595325e-001 4.356863e-001 2.497875e-001 2.161839e-001 4.100225e-001 1.560826e-001 -2.608396e-001 3.005592e-001
<VARIANCE> 39
 7.055996e+001 6.360940e+001 4.617112e+001 6.913224e+001 6.108656e+001 7.613213e+001 7.066854e+001 6.438387e+001 6.609577e+001 7.096642e+001 6.411885e+001 5.812842e+001 5.089491e+001 1.218638e+000 2.110651e+000 1.877857e+000 3.217128e+000 3.729527e+000 3.655852e+000 4.778374e+000 4.197634e+000 3.667633e+000 4.599355e+000 4.060918e+000 3.177988e+000 1.574855e+000 1.610138e-001 4.028865e-001 3.775412e-001 5.894753e-001 6.183364e-001 7.083585e-001 8.953511e-001 7.826803e-001 7.676978e-001 8.614402e-001 7.450917e-001 6.198796e-001 2.280237e-001
<GCONST> 1.317374e+002
<MIXTURE> 2 5.000000e-001
<MEAN> 39
 -4.907319e+000 -4.113696e+000 2.390773e-001 -1.342560e+001 -1.380417e+001 -2.106796e+001 -1.449142e+001 -8.046924e+000 -2.899209e+000 -1.028911e+001 -6.100540e+000 1.868851e+000 6.848567e+001 -2.278614e-001 -3.959128e-001 -3.019637e-001 -8.001644e-001 -6.550907e-001 -5.842467e-002 -5.402464e-002 -3.302796e-002 -2.481822e-001 -5.953541e-001 -2.611551e-001 -3.403299e-001 5.066225e-002 -1.264753e-001 -3.198482e-001 -4.052338e-001 -4.502321e-001 -2.285642e-001 2.228763e-001 5.719432e-002 -1.040894e-001 -1.342895e-001 3.876730e-002 -1.891921e-001 -5.757693e-001 1.095519e-001
<VARIANCE> 39
 7.055996e+001 6.360940e+001 4.617112e+001 6.913224e+001 6.108656e+001 7.613213e+001 7.066854e+001 6.438387e+001 6.609577e+001 7.096642e+001 6.411885e+001 5.812842e+001 5.089491e+001 1.218638e+000 2.110651e+000 1.877857e+000 3.217128e+000 3.729527e+000 3.655852e+000 4.778374e+000 4.197634e+000 3.667633e+000 4.599355e+000 4.060918e+000 3.177988e+000 1.574855e+000 1.610138e-001 4.028865e-001 3.775412e-001 5.894753e-001 6.183364e-001 7.083585e-001 8.953511e-001 7.826803e-001 7.676978e-001 8.614402e-001 7.450917e-001 6.198796e-001 2.280237e-001
<GCONST> 1.317374e+002
<STATE> 4
<NUMMIXES> 2
<MIXTURE> 1 5.000000e-001
<MEAN> 39
 2.239425e+000 -2.723076e+000 4.732828e+000 -1.650113e+001 -7.486758e+000 -1.746321e+001 -1.135625e+001 7.799146e-001 3.756038e+000 -7.665135e+000 -5.688825e+000 7.275866e+000 7.286045e+001 1.903342e-001 -5.934951e-002 -2.787431e-001 -2.256663e-001 6.160454e-001 1.162280e+000 1.529880e+000 1.180782e+000 2.187513e-001 8.109006e-001 2.823472e-001 -3.218273e-002 8.843465e-001 -5.200269e-002 2.209336e-002 -6.409723e-002 1.175589e-001 2.452300e-001 4.630834e-001 5.577165e-001 3.931519e-002 -6.686474e-002 4.341044e-001 1.830146e-001 3.212351e-002 1.368809e-001
<VARIANCE> 39
 5.868134e+001 6.301630e+001 6.666859e+001 1.269083e+002 8.167262e+001 1.125383e+002 1.324519e+002 1.194971e+002 9.465002e+001 8.625312e+001 7.490236e+001 1.012412e+002 5.156395e+001 1.804492e+000 4.103300e+000 3.290931e+000 4.883012e+000 4.774123e+000 6.499135e+000 8.268669e+000 7.534529e+000 6.313620e+000 6.411477e+000 5.115047e+000 5.711146e+000 2.912380e+000 2.047183e-001 5.605499e-001 3.872098e-001 6.917307e-001 7.930573e-001 9.031394e-001 1.147433e+000 1.054661e+000 1.001197e+000 9.950998e-001 8.647386e-001 1.001941e+000 2.620898e-001
<GCONST> 1.449942e+002
<MIXTURE> 2 5.000000e-001
<MEAN> 39
 -8.247252e-001 -5.898388e+000 1.466794e+000 -2.100727e+001 -1.110167e+001 -2.170657e+001 -1.595975e+001 -3.592675e+000 -1.354918e-001 -1.138004e+001 -9.150671e+000 3.251118e+000 6.998814e+001 -3.469913e-001 -8.696136e-001 -1.004380e+000 -1.109568e+000 -2.579452e-001 1.425441e-001 3.796684e-001 8.281824e-002 -7.863255e-001 -2.019352e-001 -6.223116e-001 -9.881029e-001 2.017187e-001 -2.329859e-001 -2.773862e-001 -3.130020e-001 -2.151225e-001 -1.109850e-001 8.294880e-002 1.292433e-001 -3.714716e-001 -4.671041e-001 3.508563e-002 -1.889506e-001 -3.682645e-001 -6.789788e-002
<VARIANCE> 39
 5.868134e+001 6.301630e+001 6.666859e+001 1.269083e+002 8.167262e+001 1.125383e+002 1.324519e+002 1.194971e+002 9.465002e+001 8.625312e+001 7.490236e+001 1.012412e+002 5.156395e+001 1.804492e+000 4.103300e+000 3.290931e+000 4.883012e+000 4.774123e+000 6.499135e+000 8.268669e+000 7.534529e+000 6.313620e+000 6.411477e+000 5.115047e+000 5.711146e+000 2.912380e+000 2.047183e-001 5.605499e-001 3.872098e-001 6.917307e-001 7.930573e-001 9.031394e-001 1.147433e+000 1.054661e+000 1.001197e+000 9.950998e-001 8.647386e-001 1.001941e+000 2.620898e-001
<GCONST> 1.449942e+002
<TRANSP> 5
 0.000000e+000 1.000000e+000 0.000000e+000 0.000000e+000 0.000000e+000
 0.000000e+000 7.512977e-001 2.487023e-001 0.000000e+000 0.000000e+000
 0.000000e+000 0.000000e+000 5.582718e-001 4.417282e-001 0.000000e+000
 0.000000e+000 0.000000e+000 0.000000e+000 6.684031e-001 3.315969e-001
 0.000000e+000 0.000000e+000 0.000000e+000 0.000000e+000 0.000000e+000
<ENDHMM>
~h "m"
<BEGINHMM>
<NUMSTATES> 5
<STATE> 2
<NUMMIXES> 2
<MIXTURE> 1 5.000000e-001
<MEAN> 39
 2.433795e+000 -1.193767e+000 -2.863597e+000 -8.348429e+000 -5.239734e+000 -1.018713e+001 -1.057302e+001 -1.190275e+001 -4.745708e+000 -1.551262e+000 -3.169398e+000 -5.993474e+000 6.778288e+001 1.223491e+000 9.786376e-001 6.150460e-001 1.553414e+000 4.183137e-001 -1.403465e-001 -1.117919e-001 -1.495036e+000 -4.445343e-001 1.197362e+000 9.536241e-002 -1.477079e-001 5.123129e-001 -1.831748e-001 -7.750068e-002 1.963297e-001 -9.973975e-002 2.628956e-001 3.075056e-001 3.671547e-001 6.293587e-001 3.614345e-001 1.662590e-001 1.078839e-001 2.815269e-001 2.498025e-001
<VARIANCE> 39
 7.519105e+001 6.668279e+001 5.220252e+001 6.685137e+001 6.385201e+001 5.709268e+001 7.664379e+001 8.825380e+001 5.270692e+001 6.777998e+001 5.199486e+001 3.786296e+001 1.067803e+002 2.874612e+000 4.540707e+000 4.854733e+000 4.542576e+000 4.262405e+000 4.487700e+000 6.248049e+000 6.830165e+000 5.444180e+000 4.747611e+000 3.653196e+000 3.500368e+000 3.432771e+000 3.982316e-001 5.917280e-001 6.789275e-001 6.212620e-001 5.886242e-001 6.990380e-001 8.212001e-001 1.107533e+000 7.969775e-001 7.666674e-001 6.170421e-001 5.418230e-001 2.538258e-001
<GCONST> 1.389627e+002
<MIXTURE> 2 5.000000e-001
<MEAN> 39
 -1.034716e+000 -4.460149e+000 -5.753649e+000 -1.161894e+001 -8.436032e+000 -1.320951e+001 -1.407488e+001 -1.566049e+001 -7.649689e+000 -4.844406e+000 -6.053696e+000 -8.454789e+000 6.364949e+001 5.453037e-001 1.262802e-001 -2.662924e-001 7.008817e-001 -4.075100e-001 -9.877141e-001 -1.111636e+000 -2.540420e+000 -1.377845e+000 3.258018e-001 -6.691710e-001 -8.960788e-001 -2.287966e-001 -4.355972e-001 -3.851961e-001 -1.332585e-001 -4.150204e-001 -4.399180e-002 -2.692838e-002 4.674322e-003 2.084011e-001 4.340106e-003 -1.839792e-001 -2.063242e-001 -1.290765e-002 4.827795e-002
<VARIANCE> 39
 7.519105e+001 6.668279e+001 5.220252e+001 6.685137e+001 6.385201e+001 5.709268e+001 7.664379e+001 8.825380e+001 5.270692e+001 6.777998e+001 5.199486e+001 3.786296e+001 1.067803e+002 2.874612e+000 4.540707e+000 4.854733e+000 4.542576e+000 4.262405e+000 4.487700e+000 6.248049e+000 6.830165e+000 5.444180e+000 4.747611e+000 3.653196e+000 3.500368e+000 3.432771e+000 3.982316e-001 5.917280e-001 6.789275e-001 6.212620e-001 5.886242e-001 6.990380e-001 8.212001e-001 1.107533e+000 7.969775e-001 7.666674e-001 6.170421e-001 5.418230e-001 2.538258e-001
<GCONST> 1.389627e+002
<STATE> 3
<NUMMIXES> 2
<MIXTURE> 1 5.000000e-001
<MEAN> 39
 2.233379e+000 -2.325331e+000 -1.796572e+000 -7.572397e+000 -5.361765e+000 -9.955157e+000 -1.077721e+001 -1.295787e+001 -6.550858e+000 -5.613234e-001 -4.698407e+000 -6.721926e+000 7.078749e+001 6.208707e-002 2.247009e-001 2.331178e-001 3.731140e-001 3.443084e-001 2.210535e-001 3.251576e-001 3.615191e-001 3.002989e-001 4.145581e-001 3.053471e-001 2.055039e-001 1.408697e-001 4.168496e-003 9.199973e-003 -3.533429e-002 -1.675700e-001 7.056004e-002 1.966651e-001 1.675076e-001 6.024382e-001 3.403790e-001 -1.643749e-002 1.585264e-001 1.953226e-001 1.562556e-001
<VARIANCE> 39
 6.618390e+001 6.034885e+001 4.924239e+001 6.493752e+001 5.801692e+001 5.339539e+001 8.439079e+001 7.787167e+001 5.704319e+001 7.338506e+001 6.101871e+001 3.984799e+001 3.478353e+001 2.833964e-001 1.041474e+000 1.353072e+000 1.764733e+000 1.676504e+000 1.703105e+000 1.990859e+000 2.916535e+000 2.275538e+000 2.286592e+000 2.026153e+000 1.869274e+000 5.045971e-001 6.595039e-002 1.530306e-001 3.152823e-001 3.653859e-001 2.990679e-001 3.684236e-001 4.277056e-001 7.399771e-001 5.235750e-001 5.168172e-001 4.211091e-001 4.035551e-001 6.885380e-002
<GCONST> 1.134407e+002
<MIXTURE> 2 5.000000e-001
<MEAN> 39
 -1.020761e+000 -5.432713e+000 -4.603488e+000 -1.079575e+001 -8.408519e+000 -1.287804e+001 -1.445179e+001 -1.648767e+001 -9.571937e+000 -3.987927e+000 -7.822987e+000 -9.246936e+000 6.842839e+001 -1.508529e-001 -1.835096e-001 -2.321687e-001 -1.582590e-001 -1.736111e-001 -3.009588e-001 -2.392336e-001 -3.215955e-001 -3.030965e-001 -1.903011e-001 -2.640250e-001 -3.413817e-001 -1.432703e-001 -9.855474e-002 -1.472765e-001 -2.599343e-001 -4.093586e-001 -1.481884e-001 -4.612652e-002 -9.408925e-002 2.583504e-001 5.094504e-002 -3.039975e-001 -1.010453e-001 -5.878135e-002 5.129558e-002
<VARIANCE> 39
 6.618390e+001 6.034885e+001 4.924239e+001 6.493752e+001 5.801692e+001 5.339539e+001 8.439079e+001 7.787167e+001 5.704319e+001 7.338506e+001 6.101871e+001 3.984799e+001 3.478353e+001 2.833964e-001 1.041474e+000 1.353072e+000 1.764733e+000 1.676504e+000 1.703105e+000 1.990859e+000 2.916535e+000 2.275538e+000 2.286592e+000 2.026153e+000 1.869274e+000 5.045971e-001 6.595039e-002 1.530306e-001 3.152823e-001 3.653859e-001 2.990679e-001 3.684236e-001 4.277056e-001 7.399771e-001 5.235750e-001 5.168172e-001 4.211091e-001 4.035551e-001 6.885380e-002
<GCONST> 1.134407e+002
<STATE> 4
<NUMMIXES> 2
<MIXTURE> 1 5.000000e-001
<MEAN> 39
 9.437608e-001 2.065819e+000 -2.888664e+000 -6.584787e+000 -4.270055e+000 -1.038440e+001 -7.605048e+000 -9.184470e+000 -3.686928e+000 -3.211244e+000 -2.879715e+000 -7.347720e+000 6.632108e+001 -2.650116e-001 -2.329637e-001 -1.604037e-001 -3.113799e-001 6.027365e-001 6.946516e-001 5.723659e-001 2.206384e+000 1.303371e+000 -1.303309e-001 3.325258e-001 6.248900e-001 4.621508e-001 -3.825421e-002 -7.911392e-002 1.432637e-001 2.917357e-002 2.657873e-001 2.546126e-001 1.639804e-001 4.632763e-001 2.009829e-001 -8.267730e-003 1.444207e-001 3.938828e-001 1.482799e-001
<VARIANCE> 39
 7.293826e+001 1.001169e+002 6.260680e+001 7.229310e+001 6.340441e+001 5.817294e+001 8.489215e+001 8.553476e+001 6.966486e+001 8.678031e+001 5.520626e+001 4.555605e+001 1.135139e+002 8.703595e-001 2.598756e+000 3.787081e+000 4.065444e+000 3.203447e+000 3.595199e+000 4.265670e+000 8.375774e+000 5.405268e+000 4.777688e+000 3.640298e+000 3.674159e+000 1.651430e+000 1.406351e-001 3.068151e-001 4.851948e-001 6.240635e-001 5.401972e-001 5.928468e-001 6.506411e-001 1.008246e+000 7.535013e-001 8.800351e-001 6.164845e-001 6.378464e-001 1.259090e-001
<GCONST> 1.339650e+002
<MIXTURE> 2 5.000000e-001
<MEAN> 39
 -2.472395e+000 -1.936518e+000 -6.053642e+000 -9.985802e+000 -7.455131e+000 -1.343524e+001 -1.129053e+001 -1.288387e+001 -7.025548e+000 -6.937482e+000 -5.851751e+000 -1.004753e+001 6.205936e+001 -6.381838e-001 -8.777900e-001 -9.388207e-001 -1.117898e+000 -1.131905e-001 -6.378882e-002 -2.537740e-001 1.048746e+000 3.734018e-001 -1.004648e+000 -4.306568e-001 -1.418338e-001 -5.188116e-002 -1.882596e-001 -3.006775e-001 -1.353600e-001 -2.868172e-001 -2.820511e-002 -5.337359e-002 -1.586689e-001 6.163051e-002 -1.462349e-001 -3.835085e-001 -1.696454e-001 7.442162e-002 6.345250e-003
<VARIANCE> 39
 7.293826e+001 1.001169e+002 6.260680e+001 7.229310e+001 6.340441e+001 5.817294e+001 8.489215e+001 8.553476e+001 6.966486e+001 8.678031e+001 5.520626e+001 4.555605e+001 1.135139e+002 8.703595e-001 2.598756e+000 3.787081e+000 4.065444e+000 3.203447e+000 3.595199e+000 4.265670e+000 8.375774e+000 5.405268e+000 4.777688e+000 3.640298e+000 3.674159e+000 1.651430e+000 1.406351e-001 3.068151e-001 4.851948e-001 6.240635e-001 5.401972e-001 5.928468e-001 6.506411e-001 1.008246e+000 7.535013e-001 8.800351e-001 6.164845e-001 6.378464e-001 1.259090e-001
<GCONST> 1.339650e+002
<TRANSP> 5
 0.000000e+000 1.000000e+000 0.000000e+000 0.000000e+000 0.000000e+000
 0.000000e+000 5.613146e-001 4.386854e-001 0.000000e+000 0.000000e+000
 0.000000e+000 0.000000e+000 7.972037e-001 2.027963e-001 0.000000e+000
 0.000000e+000 0.000000e+000 0.000000e+000 6.862230e-001 3.137770e-001
 0.000000e+000 0.000000e+000 0.000000e+000 0.000000e+000 0.000000e+000
<ENDHMM>
~h "n"
<BEGINHMM>
<NUMSTATES> 5
<STATE> 2
<NUMMIXES> 2
<MIXTURE> 1 5.000000e-001
<MEAN> 39
 3.189892e+000 -3.341468e+000 -2.416816e+000 -1.363938e+001 -7.560733e+000 -1.200259e+001 -7.740295e+000 -6.019807e+000 -4.540932e+000 -2.093987e+000 -3.874672e+000 -4.094052e+000 7.301356e+001 7.120282e-001 9.879915e-001 7.873699e-001 1.591448e+000 -5.012573e-001 -3.747446e-002 1.187433e+000 -9.280300e-001 6.498330e-002 7.267773e-001 1.553281e-001 3.595744e-001 -6.324034e-001 -2.611019e-002 1.350554e-001 1.025615e-001 2.745743e-002 2.436363e-001 3.490449e-001 1.757969e-001 3.219009e-001 2.584233e-001 7.352622e-002 1.556745e-001 2.554207e-001 6.880401e-002
<VARIANCE> 39
