~o
<STREAMINFO> 1 39
<VECSIZE> 39<NULLD><MFCC_D_A_0><DIAGC>
~h "a"
<BEGINHMM>
<NUMSTATES> 5
<STATE> 2
<NUMMIXES> 2
<MIXTURE> 1 7.020922e-001
<MEAN> 39
 -2.417299e+000 -1.333897e+001 -8.210283e+000 -1.883002e+001 -6.234534e+000 -1.327628e+001 -7.592072e+000 4.276228e+000 -1.752122e+000 -7.671381e+000 -8.802389e+000 -2.326624e+000 7.890684e+001 -3.129062e-001 -1.741324e+000 -4.499567e-001 -2.583929e-001 1.286436e+000 5.922120e-001 6.291623e-001 1.614780e+000 -6.267135e-001 -9.645701e-001 -5.389265e-001 5.998877e-001 9.628352e-001 -2.675211e-001 6.837785e-001 3.009650e-001 6.031741e-001 1.956121e-002 9.826119e-002 5.920032e-002 -7.904236e-001 -1.113171e-001 3.219303e-001 4.585670e-001 -3.443773e-002 -7.547327e-001
<VARIANCE> 39
 4.160197e+001 2.881303e+001 6.287040e+001 7.370887e+001 1.053786e+002 8.062218e+001 9.746836e+001 7.816595e+001 7.548134e+001 7.139757e+001 6.993972e+001 5.780509e+001 8.936769e+000 1.415702e+000 2.325951e+000 3.824615e+000 3.689168e+000 4.844842e+000 4.537342e+000 5.078916e+000 5.968355e+000 4.452138e+000 4.706535e+000 4.111151e+000 3.672519e+000 1.142317e+000 3.656623e-001 4.011515e-001 4.800470e-001 5.609828e-001 8.699878e-001 7.995075e-001 9.183412e-001 9.523607e-001 8.754262e-001 7.716057e-001 8.758339e-001 6.808181e-001 3.863849e-001
<GCONST> 1.349218e+002
<MIXTURE> 2 2.978691e-001
<MEAN> 39
 -3.027600e+000 -8.624386e+000 -1.258073e+001 -1.381753e+001 -5.174819e+000 -1.060404e+001 -6.295342e+000 -1.966766e+000 -1.481560e+000 -1.210274e+001 -3.485492e+000 2.486443e-001 6.621772e+001 1.216277e+000 -1.827227e+000 -8.215884e-001 -1.096428e+000 1.406677e-001 2.026200e-001 -3.930612e-001 5.339026e-001 -2.727658e-001 -1.269764e+000 -7.455187e-001 6.439388e-001 3.476918e+000 -6.046636e-001 1.846544e-003 4.552024e-001 1.380923e-001 2.081752e-001 1.107353e-001 1.758071e-001 -1.271325e-001 1.524707e-002 4.914834e-001 6.040376e-002 -2.506171e-001 -4.442332e-001
<VARIANCE> 39
 6.182623e+001 8.527690e+001 9.889806e+001 8.157023e+001 1.064864e+002 8.565314e+001 8.963721e+001 7.421629e+001 6.610737e+001 8.331735e+001 5.984430e+001 5.358230e+001 1.697021e+002 7.169056e+000 6.862053e+000 7.323027e+000 7.390495e+000 8.829660e+000 7.283177e+000 7.563090e+000 8.057068e+000 6.297189e+000 6.778283e+000 6.320846e+000 5.242442e+000 1.093867e+001 1.063721e+000 1.303156e+000 1.218934e+000 1.070500e+000 1.378344e+000 1.187742e+000 1.251621e+000 1.263439e+000 1.129528e+000 1.255337e+000 9.564828e-001 9.295392e-001 2.163678e+000
<GCONST> 1.573396e+002
<STATE> 3
<NUMMIXES> 2
<MIXTURE> 1 5.373738e-001
<MEAN> 39
 6.768583e-002 -1.543607e+001 -6.750908e+000 -2.144185e+001 -8.253893e-002 -1.550097e+001 -7.483259e+000 5.694788e+000 -1.400717e+000 -7.427373e+000 -8.643044e+000 -3.243592e+000 7.888627e+001 1.792217e-001 3.861926e-001 4.358294e-002 3.214631e-001 -7.917274e-002 -1.185119e-001 -3.193055e-001 -1.957162e-001 -1.367087e-001 -6.134177e-002 3.782944e-001 -2.304210e-001 -3.338766e-001 8.817926e-002 5.208135e-001 9.471200e-002 2.119548e-001 -3.707047e-001 4.119414e-002 -1.711586e-001 -4.161484e-001 5.418736e-003 1.666151e-001 2.562285e-001 -1.241067e-001 -3.188613e-001
<VARIANCE> 39
 3.748004e+001 2.672192e+001 3.669584e+001 6.909248e+001 9.734535e+001 7.101105e+001 1.158717e+002 8.184169e+001 6.698176e+001 5.573403e+001 5.337137e+001 6.458207e+001 7.673239e+000 5.490148e-001 1.284212e+000 1.563482e+000 1.282023e+000 2.792178e+000 2.353821e+000 3.363745e+000 2.727326e+000 2.433688e+000 2.627171e+000 2.211128e+000 2.306714e+000 4.124747e-001 9.995579e-002 2.052699e-001 2.256272e-001 2.957883e-001 3.575142e-001 3.819886e-001 5.770667e-001 6.303995e-001 5.011591e-001 4.848927e-001 3.914755e-001 4.176225e-001 1.069571e-001
<GCONST> 1.148185e+002
<MIXTURE> 2 4.625190e-001
<MEAN> 39
 -6.723241e+000 -1.499676e+001 -1.256370e+001 -1.088383e+001 -5.681615e+000 -6.938477e+000 -7.794869e+000 1.059129e+000 -6.277154e+000 -1.216556e+001 -7.182576e+000 -3.109492e-003 7.846673e+001 6.319065e-003 4.681207e-001 8.207206e-002 3.254641e-001 -3.811910e-003 -1.183934e-001 -2.146305e-001 -3.557437e-001 -5.561492e-002 -7.319944e-002 5.860307e-003 -2.233645e-001 -4.317593e-001 6.618665e-002 5.854495e-001 3.039002e-001 -1.117977e-001 -2.345399e-001 -3.581711e-001 -1.448701e-001 -2.826250e-001 2.031144e-001 3.043930e-001 1.837564e-003 -2.546864e-001 -4.291024e-001
<VARIANCE> 39
 2.918737e+001 2.775790e+001 3.717374e+001 3.599718e+001 5.984676e+001 3.693343e+001 7.901925e+001 5.225603e+001 6.459708e+001 5.271050e+001 6.986565e+001 3.497453e+001 2.856849e+001 6.668362e-001 1.734680e+000 1.438824e+000 1.736101e+000 2.957296e+000 2.292794e+000 2.918887e+000 2.154649e+000 2.402643e+000 2.382136e+000 2.118226e+000 2.030170e+000 7.268584e-001 1.379960e-001 2.400383e-001 2.444433e-001 2.535965e-001 3.812448e-001 3.666747e-001 4.585790e-001 4.282207e-001 4.414901e-001 4.240509e-001 4.262042e-001 3.434699e-001 1.605055e-001
<GCONST> 1.133749e+002
<STATE> 4
<NUMMIXES> 2
<MIXTURE> 1 4.724184e-001
<MEAN> 39
 -2.434518e-001 -7.450296e+000 -7.239525e+000 -1.496794e+001 -5.343266e+000 -1.435825e+001 -1.065778e+001 1.316198e+000 -1.127062e+000 -8.106909e+000 -7.247833e+000 -3.818743e+000 7.257319e+001 -3.408487e-002 2.495150e+000 6.279258e-001 1.666463e+000 -5.898730e-002 2.895353e-001 -1.949968e-001 -1.079095e+000 6.939112e-002 -8.793504e-002 9.156837e-001 -3.088392e-001 -2.568132e+000 -4.243316e-001 -2.812998e-002 -7.733563e-002 2.442675e-001 2.246552e-001 3.503825e-001 5.621260e-001 7.345701e-002 -4.361172e-002 -4.136097e-003 8.096337e-002 8.637078e-002 -2.125765e-001
<VARIANCE> 39
 4.768642e+001 3.970829e+001 4.667331e+001 8.370141e+001 1.022305e+002 7.075175e+001 1.003326e+002 7.669471e+001 6.294654e+001 8.522842e+001 5.664084e+001 5.170510e+001 3.064621e+001 2.060093e+000 1.846754e+000 2.437004e+000 2.451943e+000 4.355495e+000 4.230959e+000 6.123196e+000 5.204761e+000 3.936973e+000 4.163300e+000 3.583967e+000 3.499789e+000 1.967161e+000 2.854563e-001 4.462512e-001 4.474802e-001 5.213338e-001 6.676571e-001 6.604996e-001 8.634342e-001 8.244271e-001 6.612860e-001 7.530960e-001 6.697279e-001 5.911065e-001 3.316991e-001
<GCONST> 1.334209e+002
<MIXTURE> 2 5.274917e-001
<MEAN> 39
 -1.694384e+000 -6.262143e+000 -1.012744e+001 -1.212106e+001 -3.045441e+000 -1.070075e+001 -7.865552e+000 1.798839e+000 -2.638596e+000 -1.370340e+001 -4.161730e+000 -5.392059e+000 6.706320e+001 -5.692881e-001 1.125610e+000 6.716263e-001 3.421018e-001 -6.008843e-001 -1.512363e-001 6.236537e-001 -9.672635e-001 -2.295694e-001 6.768993e-001 -7.486485e-002 -4.558311e-001 -1.302205e+000 -7.759629e-002 -1.464524e-002 1.990669e-001 -5.971039e-002 -3.170082e-002 -4.858964e-002 -6.312916e-002 -1.745648e-001 1.294398e-002 2.579663e-001 -1.687168e-004 8.309437e-002 -2.997845e-003
<VARIANCE> 39
 6.427512e+001 5.775365e+001 7.405598e+001 7.745375e+001 9.891682e+001 6.120223e+001 1.061546e+002 1.164260e+002 8.472564e+001 8.028091e+001 5.545665e+001 5.986360e+001 9.457497e+001 1.238105e+000 2.047311e+000 2.963427e+000 2.666835e+000 3.741231e+000 3.426628e+000 4.417571e+000 4.647365e+000 4.166731e+000 3.808594e+000 3.365171e+000 3.344106e+000 8.782764e-001 1.148240e-001 2.934094e-001 3.716755e-001 4.170096e-001 5.227858e-001 5.477406e-001 7.439560e-001 7.804087e-001 7.344466e-001 6.188544e-001 5.977941e-001 5.788065e-001 1.470803e-001
<GCONST> 1.309734e+002
<TRANSP> 5
 0.000000e+000 1.000000e+000 0.000000e+000 0.000000e+000 0.000000e+000
 0.000000e+000 5.495222e-001 4.504779e-001 0.000000e+000 0.000000e+000
 0.000000e+000 0.000000e+000 7.636001e-001 2.363999e-001 0.000000e+000
 0.000000e+000 0.000000e+000 0.000000e+000 6.837449e-001 3.162551e-001
 0.000000e+000 0.000000e+000 0.000000e+000 0.000000e+000 0.000000e+000
<ENDHMM>
~h "b"
<BEGINHMM>
<NUMSTATES> 5
<STATE> 2
<NUMMIXES> 2
<MIXTURE> 1 4.884240e-001
<MEAN> 39
 -5.179183e+000 -1.057118e+001 -1.141424e+001 -1.504941e+001 -5.112766e+000 -8.223022e+000 -1.073799e+001 -3.642207e+000 1.567779e+000 1.169472e-001 -1.252214e+001 -7.264614e+000 6.967548e+001 -8.998584e-001 -2.374953e+000 -1.327622e+000 -1.074652e+000 8.382493e-001 7.580281e-001 1.442180e+000 2.257817e+000 3.609197e-001 -1.292581e+000 -1.534950e+000 8.913511e-001 2.196716e+000 -1.727078e-001 4.393685e-001 5.320498e-001 8.894585e-001 2.066125e-001 3.374624e-001 2.799397e-001 -2.749270e-001 -5.691956e-001 -5.108073e-001 2.008871e-001 3.207322e-001 -5.826595e-001
<VARIANCE> 39
 2.398360e+001 3.460992e+001 3.059497e+001 4.650017e+001 2.553715e+001 5.256474e+001 5.910101e+001 5.805046e+001 2.670363e+001 3.083552e+001 9.398354e+001 5.654796e+001 1.660571e+002 1.201621e+000 3.103379e+000 2.073230e+000 5.829406e+000 2.013879e+000 3.027376e+000 2.533306e+000 3.464744e+000 3.499191e+000 5.127679e+000 4.230210e+000 4.039938e+000 3.199871e+000 1.995978e-001 4.916823e-001 3.056768e-001 6.593792e-001 3.347581e-001 6.488222e-001 5.802237e-001 9.033955e-001 5.171510e-001 7.330695e-001 9.379998e-001 4.686571e-001 3.898872e-001
<GCONST> 1.272530e+002
<MIXTURE> 2 5.115764e-001
<MEAN> 39
 -9.285362e+000 -1.005988e+001 -9.044742e+000 -1.393839e+001 -1.632529e+000 -5.857652e+000 -9.666913e-001 -4.279998e+000 -2.491345e+000 -3.896851e+000 -3.835076e+000 -3.749382e+000 5.079036e+001 1.988078e-002 1.510419e-001 8.601631e-002 4.157337e-001 1.465679e-001 2.575274e-001 -3.850123e-002 -3.084119e-001 -3.712347e-001 -5.707525e-001 -1.162816e-001 1.180293e-001 -2.115126e-001 -2.406848e-003 -5.230854e-002 -2.411412e-002 -6.323747e-002 -2.248749e-002 -1.174503e-001 -8.387561e-002 9.247133e-002 1.072034e-003 -6.718827e-003 -6.309481e-003 -4.542121e-002 5.257815e-002
<VARIANCE> 39
 4.337131e+001 1.378405e+002 8.347150e+001 9.379904e+001 3.785493e+001 6.722821e+001 8.670881e+001 8.557333e+001 2.837133e+001 5.015057e+001 5.621576e+001 4.541053e+001 1.597206e+002 7.022517e-001 2.081391e+000 2.210164e+000 2.196990e+000 2.214877e+000 3.148036e+000 3.325887e+000 5.219989e+000 2.828335e+000 2.714020e+000 3.181114e+000 2.787282e+000 1.201880e+000 1.185004e-001 3.886349e-001 4.425128e-001 4.340044e-001 4.016397e-001 4.500562e-001 6.112091e-001 1.020163e+000 5.855092e-001 5.821308e-001 6.223721e-001 4.972976e-001 2.243496e-001
<GCONST> 1.267770e+002
<STATE> 3
<NUMMIXES> 2
<MIXTURE> 1 8.518264e-001
<MEAN> 39
 -1.768080e+001 -1.266620e+001 -6.430004e+000 -9.130147e+000 -1.778168e+000 -8.144296e+000 6.469628e-002 -5.388300e+000 1.577982e+000 -3.541387e+000 1.025095e+000 -2.973427e+000 4.043648e+001 -1.344213e-002 -1.242766e-002 -1.886823e-003 2.994215e-002 1.137855e-002 1.558485e-002 -6.303409e-003 3.962211e-002 2.966061e-002 3.924135e-002 1.144123e-002 -2.268324e-002 -3.474392e-002 1.850983e-002 1.289368e-002 4.057948e-003 -5.871802e-003 -8.398452e-003 -1.821483e-002 6.896995e-003 3.465540e-002 6.438112e-003 -5.649743e-003 -1.516347e-002 -1.226692e-002 1.010380e-002
<VARIANCE> 39
 3.008720e+000 3.719863e+000 6.690837e+000 9.271556e+000 1.160142e+001 1.297716e+001 1.795023e+001 1.872632e+001 2.283975e+001 1.717344e+001 1.649929e+001 1.530011e+001 2.352636e+000 2.217495e-001 4.046161e-001 7.196606e-001 1.307977e+000 1.583411e+000 1.842291e+000 1.928014e+000 2.443841e+000 2.982734e+000 2.314018e+000 2.054864e+000 1.991643e+000 4.228674e-002 4.844454e-002 8.863384e-002 1.541001e-001 2.969835e-001 3.468755e-001 4.164579e-001 4.111421e-001 5.048860e-001 6.530762e-001 4.976893e-001 4.299428e-001 4.398837e-001 8.765970e-003
<GCONST> 8.216950e+001
<MIXTURE> 2 1.481718e-001
<MEAN> 39
 -9.639302e+000 -1.107816e+001 -9.882863e+000 -1.238875e+001 -3.530852e+000 -6.002190e+000 -4.621956e+000 -2.448125e+000 9.199428e-001 -4.483062e+000 -1.026853e+001 -4.566127e+000 6.188322e+001 -3.721076e-001 -2.194358e-001 3.348247e-001 5.903031e-001 3.860395e-001 1.707167e-001 4.620922e-001 2.479120e-001 -1.051914e+000 -1.149697e+000 -3.595198e-002 7.377964e-001 1.163716e-001 2.777278e-001 4.019054e-001 2.928728e-001 1.717532e-001 2.032507e-003 -2.140889e-001 -4.728970e-001 -4.526609e-001 -3.317272e-001 2.139802e-001 1.286730e-001 -2.672071e-001 -1.954665e-001
<VARIANCE> 39
 3.683351e+001 5.679008e+001 3.807552e+001 3.951012e+001 2.747720e+001 5.065711e+001 6.036182e+001 5.449570e+001 4.606892e+001 3.835870e+001 9.890723e+001 7.798714e+001 4.036718e+002 4.118125e-001 6.161534e-001 9.517724e-001 1.087824e+000 2.002191e+000 2.583205e+000 2.344404e+000 2.963970e+000 2.305236e+000 2.193615e+000 1.838345e+000 2.103491e+000 2.383201e-001 1.555640e-001 2.792631e-001 2.682899e-001 3.638042e-001 2.594069e-001 4.431030e-001 5.199202e-001 6.353579e-001 4.518282e-001 5.758265e-001 5.770340e-001 4.020902e-001 2.577100e-001
<GCONST> 1.152913e+002
<STATE> 4
<NUMMIXES> 2
<MIXTURE> 1 3.684156e-001
<MEAN> 39
 -1.167113e+001 -2.697312e+000 -2.454139e+000 -5.547642e+000 -3.886266e+000 -1.033935e+001 -5.470071e+000 -8.739699e+000 -4.516000e+000 -6.592368e+000 -2.608150e+000 -4.341704e+000 4.518973e+001 1.408373e+000 1.812453e+000 1.148636e+000 8.796596e-001 1.957695e-001 -3.944050e-001 -7.712355e-001 -6.531797e-001 -1.227895e+000 -1.021424e+000 -5.780586e-001 -5.994995e-001 8.996176e-001 5.471889e-001 2.751193e-001 -2.384135e-001 -2.488720e-001 1.621354e-002 8.289447e-002 -6.611276e-002 -5.555853e-002 3.783987e-002 2.389183e-002 -8.960155e-003 -5.965002e-002 5.516090e-001
<VARIANCE> 39
 4.359481e+001 7.818729e+001 4.552264e+001 5.820055e+001 2.526119e+001 4.419092e+001 5.222927e+001 5.867974e+001 4.745227e+001 4.835766e+001 5.088942e+001 3.448906e+001 1.333684e+002 2.822283e+000 4.836420e+000 3.260718e+000 2.469997e+000 2.102573e+000 3.178747e+000 4.600251e+000 6.465306e+000 5.334278e+000 4.103754e+000 3.749259e+000 2.370091e+000 9.504021e-001 7.006619e-001 1.569836e+000 1.108356e+000 8.059661e-001 5.389513e-001 9.365352e-001 1.148203e+000 1.504548e+000 1.450003e+000 9.749994e-001 7.923945e-001 5.783052e-001 4.003622e-001
<GCONST> 1.365483e+002
<MIXTURE> 2 6.315851e-001
<MEAN> 39
 -7.609328e+000 -1.555006e+001 -9.550930e+000 -1.339046e+001 -4.866786e-001 -4.239621e+000 -8.868935e+000 -6.776178e-001 -6.522882e+000 -7.297708e+000 -1.945115e+001 -1.033973e+000 7.840620e+001 2.008735e-001 7.210481e-001 7.881367e-001 -3.572450e-001 5.050868e-001 -9.683986e-001 -2.605346e-001 -2.284818e-001 -9.365284e-001 4.739543e-001 -3.604353e-001 -4.855233e-001 -5.781546e-001 2.119897e-001 3.489916e-001 8.444449e-002 -1.494834e-001 -2.405083e-001 -3.480778e-001 -1.561055e-001 -2.751048e-001 2.784367e-001 5.411488e-001 5.371920e-002 -3.107080e-001 -2.440104e-001
<VARIANCE> 39
 5.629105e+000 8.557235e+000 1.148365e+001 1.230710e+001 2.480574e+001 3.148742e+001 2.296062e+001 2.800337e+001 3.222612e+001 1.981504e+001 1.406149e+001 2.766995e+001 5.671428e+000 2.612059e-001 6.529988e-001 2.657423e-001 8.503666e-001 9.890500e-001 1.893701e+000 9.528984e-001 1.538274e+000 1.490440e+000 1.744742e+000 1.029508e+000 1.663572e+000 2.243823e-001 2.189240e-002 4.441268e-002 4.746522e-002 1.579991e-001 2.134047e-001 2.274995e-001 1.583947e-001 2.779098e-001 2.479744e-001 2.107178e-001 1.914936e-001 1.932740e-001 1.265720e-002
<GCONST> 7.694675e+001
<TRANSP> 5
 0.000000e+000 1.000000e+000 0.000000e+000 0.000000e+000 0.000000e+000
 0.000000e+000 7.241027e-001 2.758973e-001 0.000000e+000 0.000000e+000
 0.000000e+000 0.000000e+000 8.843623e-001 1.156377e-001 0.000000e+000
 0.000000e+000 0.000000e+000 0.000000e+000 7.690549e-001 2.309450e-001
 0.000000e+000 0.000000e+000 0.000000e+000 0.000000e+000 0.000000e+000
<ENDHMM>
~h "c"
<BEGINHMM>
<NUMSTATES> 5
<STATE> 2
<NUMMIXES> 2
<MIXTURE> 1 3.142809e-001
<MEAN> 39
 -1.010030e+001 4.423040e+000 -4.613369e-001 -1.925012e+000 -6.141713e+000 -7.196047e+000 -5.117032e+000 -4.687689e+000 -7.936099e-001 -1.051690e+000 5.446672e-001 2.361236e-002 5.293317e+001 -1.195980e+000 -1.242359e+000 -1.042808e+000 5.013000e-001 1.941747e+000 1.398313e+000 1.214815e+000 1.294806e+000 6.788287e-002 3.658913e-001 6.699318e-001 3.058308e-001 -3.833892e-001 2.888488e-001 -5.349218e-001 -6.652720e-001 -8.636720e-001 -5.815429e-002 -9.580383e-002 -1.818837e-001 -1.029524e-001 -1.942469e-001 2.535083e-001 -3.558247e-001 -1.543361e-001 9.012075e-001
<VARIANCE> 39
 2.242867e+001 3.329069e+001 1.673472e+001 3.060160e+001 4.022891e+001 3.415329e+001 3.161014e+001 2.911619e+001 2.322707e+001 2.987432e+001 2.695688e+001 2.131026e+001 5.280272e+001 1.520440e+000 3.091479e+000 3.341118e+000 3.252216e+000 3.116349e+000 3.136261e+000 3.464927e+000 3.206865e+000 3.194918e+000 3.349324e+000 3.993659e+000 2.529767e+000 2.489045e+000 3.191915e-001 4.883074e-001 7.082293e-001 6.343675e-001 7.842992e-001 7.745851e-001 6.979849e-001 7.229318e-001 6.152175e-001 6.745318e-001 7.760450e-001 4.681720e-001 3.688644e-001
<GCONST> 1.229293e+002
<MIXTURE> 2 6.857178e-001
<MEAN> 39
 -1.227792e+001 -2.024453e+000 -7.725753e+000 -1.181494e+001 -8.474215e+000 -1.091371e+001 -5.053817e+000 -7.434992e+000 -9.798020e-001 -3.363428e+000 1.418556e+000 -3.393088e+000 5.547084e+001 -4.967736e-001 -2.988226e-001 -1.805724e-001 7.264685e-002 6.120281e-002 9.814723e-003 2.012822e-001 1.809515e-001 7.472122e-002 3.284488e-001 2.837442e-001 1.739589e-001 -6.502048e-001 2.033268e-001 -3.406076e-002 1.312079e-002 -8.440438e-002 1.007937e-001 7.501749e-003 -9.791563e-002 6.731449e-002 -7.634320e-002 -2.002884e-002 -9.208526e-002 2.947516e-002 1.879885e-001
<VARIANCE> 39
 6.219848e+001 9.104910e+001 4.523162e+001 4.711654e+001 1.038664e+002 9.104908e+001 9.239120e+001 7.998233e+001 6.294883e+001 5.288966e+001 6.687406e+001 9.503791e+001 1.277166e+002 1.931820e+000 1.618191e+000 2.074154e+000 3.155604e+000 3.594363e+000 4.238974e+000 3.889923e+000 4.234155e+000 4.023319e+000 4.342276e+000 3.810841e+000 4.100678e+000 1.676556e+000 2.650620e-001 3.693140e-001 4.236560e-001 5.913993e-001 7.716234e-001 8.801082e-001 8.751214e-001 9.236643e-001 8.306174e-001 8.615242e-001 6.746143e-001 8.290200e-001 2.599419e-001
<GCONST> 1.358623e+002
<STATE> 3
<NUMMIXES> 2
<MIXTURE> 1 4.959305e-001
<MEAN> 39
 -1.082677e+001 -2.914569e+000 -6.627236e+000 -9.442702e+000 -2.738366e+000 -5.693066e+000 -1.332731e+000 -3.108993e+000 -3.320310e-001 -4.331417e+000 -1.732174e+000 -2.037614e+000 4.868153e+001 1.431392e+000 -9.261564e-001 -2.706836e+000 -2.460668e+000 6.778470e-001 -7.562498e-002 -5.612620e-001 1.307579e+000 -1.280542e+000 6.670818e-001 3.286026e-001 3.606540e-001 3.002424e+000 5.988500e-001 1.345819e-001 -3.316680e-001 -6.275803e-001 -2.487074e-001 -4.343362e-001 -5.683452e-001 -1.554095e-001 -3.652191e-001 2.080686e-001 -6.866948e-002 -2.205015e-003 1.241603e+000
<VARIANCE> 39
 4.189455e+001 7.159195e+001 5.284280e+001 6.749329e+001 5.620382e+001 6.162456e+001 3.923236e+001 5.242422e+001 4.977537e+001 4.211655e+001 3.891222e+001 2.632808e+001 7.156290e+001 4.690835e+000 8.285011e+000 9.196051e+000 1.035991e+001 1.130714e+001 1.353659e+001 8.722973e+000 8.035336e+000 8.862040e+000 5.947227e+000 5.538628e+000 4.453191e+000 7.017730e+000 4.210848e-001 9.505837e-001 9.998794e-001 1.118825e+000 1.199933e+000 1.385028e+000 1.075973e+000 1.165901e+000 1.150796e+000 7.609349e-001 8.129501e-001 5.410183e-001 8.287154e-001
<GCONST> 1.478973e+002
<MIXTURE> 2 5.040683e-001
<MEAN> 39
 -1.276685e+001 -4.615765e+000 -1.148872e+001 -9.594571e+000 7.424966e-001 -4.740623e+000 -3.817527e+000 -2.713921e+000 -2.789997e+000 3.908183e+000 3.847642e-001 -5.244761e-001 6.207085e+001 9.406427e-001 -1.973368e-002 -3.298664e-001 -1.236851e+000 -5.650877e-001 -6.621822e-001 -8.791562e-001 -4.064038e-001 -8.389398e-001 1.324920e-001 -4.808635e-001 -1.204513e-001 1.150195e+000 7.572123e-001 6.893708e-001 8.448224e-001 -3.229692e-001 -1.141997e+000 -7.904239e-001 -5.036734e-001 -3.838871e-001 -1.255151e-001 -6.096531e-001 -2.904118e-001 -1.498531e-001 1.965490e-001
<VARIANCE> 39
 6.045953e+001 4.296560e+001 7.183936e+001 1.094049e+002 1.121317e+002 7.974361e+001 7.199046e+001 9.141940e+001 7.684190e+001 5.689133e+001 4.158868e+001 5.631216e+001 7.357860e+001 2.763196e+000 4.046113e+000 6.989592e+000 5.030053e+000 7.566475e+000 7.447219e+000 6.594622e+000 5.609217e+000 4.164273e+000 4.633678e+000 3.828373e+000 3.515603e+000 3.287052e+000 5.749335e-001 6.851127e-001 1.168401e+000 1.321359e+000 1.422104e+000 1.213769e+000 1.476102e+000 1.335510e+000 1.112779e+000 9.197497e-001 8.837596e-001 9.794399e-001 5.311463e-001
<GCONST> 1.471786e+002
<STATE> 4
<NUMMIXES> 2
<MIXTURE> 1 4.174032e-001
<MEAN> 39
 -2.975544e+000 -6.011678e+000 -1.626356e+001 -1.895923e+001 1.072625e+000 -1.260099e+001 -8.269376e+000 1.820879e+000 -6.404324e+000 -5.150535e-001 -2.519263e+000 -5.831023e+000 6.477480e+001 1.380797e+000 -5.042585e-001 -8.759912e-001 -1.503540e+000 2.863180e-001 -1.352238e+000 -1.063725e+000 1.428580e+000 -7.723840e-001 -1.604432e-001 -3.178033e-001 3.566991e-001 3.882132e+000 1.290069e-002 3.847731e-001 1.048797e+000 1.762241e-001 -8.711956e-001 2.368437e-001 3.804332e-001 -8.673342e-001 4.826064e-001 -4.544822e-001 -1.181222e-001 3.763732e-001 -4.353180e-001
<VARIANCE> 39
 5.765628e+001 8.430206e+001 1.551572e+002 1.769299e+002 1.383479e+002 2.549505e+002 1.681919e+002 1.474395e+002 1.764516e+002 1.114224e+002 8.798864e+001 7.455161e+001 8.081319e+001 6.400928e+000 8.176754e+000 1.097203e+001 1.070557e+001 1.190739e+001 1.331268e+001 1.460648e+001 1.264161e+001 1.325823e+001 9.290062e+000 6.981932e+000 6.923388e+000 9.146741e+000 9.602603e-001 1.577979e+000 1.884750e+000 2.544906e+000 2.311208e+000 3.165385e+000 2.894461e+000 2.089721e+000 2.519851e+000 1.526367e+000 1.400020e+000 1.332335e+000 1.394015e+000
<GCONST> 1.720323e+002
<MIXTURE> 2 5.825965e-001
<MEAN> 39
 -4.990848e+000 -9.171425e-002 -9.743581e+000 -1.594907e+001 -7.457008e+000 -1.039974e+001 -6.953808e+000 -4.975144e+000 -6.803442e+000 -8.081890e-001 -1.020476e+000 -1.459043e+000 6.456626e+001 2.537249e+000 1.423241e+000 7.640837e-001 -2.026477e+000 -2.640257e+000 -1.549720e+000 -1.328776e+000 -1.697356e+000 -6.137294e-001 -6.178833e-001 -5.015467e-001 -9.318543e-002 2.225706e+000 -9.655780e-002 -2.663744e-001 1.353560e-001 4.240255e-002 2.007580e-001 3.149179e-001 1.636020e-001 1.221679e-001 4.474387e-001 -4.939524e-002 -5.513908e-002 2.379745e-002 -1.902947e-001
<VARIANCE> 39
 7.216090e+001 6.206807e+001 8.277906e+001 8.152087e+001 8.484165e+001 9.414365e+001 7.566877e+001 6.465260e+001 6.994054e+001 5.493308e+001 4.119031e+001 3.484968e+001 7.388224e+001 3.993638e+000 4.343306e+000 5.916391e+000 7.615057e+000 5.985914e+000 6.890537e+000 7.850453e+000 5.963973e+000 5.620533e+000 4.873415e+000 4.456059e+000 3.942837e+000 5.345062e+000 5.677472e-001 7.289789e-001 9.195591e-001 9.748859e-001 1.250035e+000 1.033357e+000 9.947485e-001 1.210498e+000 8.800727e-001 8.948296e-001 7.561272e-001 6.019216e-001 9.049815e-001
<GCONST> 1.466118e+002
<TRANSP> 5
 0.000000e+000 1.000000e+000 0.000000e+000 0.000000e+000 0.000000e+000
 0.000000e+000 7.693337e-001 2.306663e-001 0.000000e+000 0.000000e+000
 0.000000e+000 0.000000e+000 6.048026e-001 3.951974e-001 0.000000e+000
 0.000000e+000 0.000000e+000 0.000000e+000 5.541909e-001 4.458091e-001
 0.000000e+000 0.000000e+000 0.000000e+000 0.000000e+000 0.000000e+000
<ENDHMM>
~h "d"
<BEGINHMM>
<NUMSTATES> 5
<STATE> 2
<NUMMIXES> 2
<MIXTURE> 1 4.960240e-001
<MEAN> 39
 -8.222127e+000 -7.523909e-001 2.382460e-001 -1.357724e+001 -1.115841e+001 -1.680685e+001 -5.816323e+000 -7.099170e+000 -2.015512e+000 -2.852290e+000 -5.232306e+000 -1.671374e+000 6.162743e+001 2.364284e-001 6.854659e-001 -4.161620e-001 1.881556e+000 7.493235e-001 8.945083e-001 3.207256e-002 -4.330530e-002 -2.548945e-002 -5.961943e-001 2.996802e-001 -3.646952e-001 -2.285001e+000 6.028425e-002 -3.365814e-002 -4.419684e-002 -1.929204e-001 -1.031661e-002 2.842200e-001 5.931399e-002 4.070907e-002 2.061888e-001 7.592447e-002 -2.043662e-001 -4.851190e-002 4.355243e-002
<VARIANCE> 39
 7.684012e+001 2.155300e+001 3.787455e+001 7.352289e+001 1.062498e+002 5.322698e+001 3.586325e+001 6.368214e+001 6.068042e+001 6.513520e+001 6.225197e+001 2.721261e+001 2.164840e+002 2.053521e+000 3.564048e+000 3.462152e+000 3.083342e+000 6.208662e+000 4.781028e+000 3.116484e+000 4.359990e+000 2.736954e+000 5.775537e+000 4.650948e+000 5.312465e+000 4.232245e+000 3.436997e-001 2.836258e-001 2.571835e-001 3.870197e-001 8.722389e-001 8.912349e-001 4.946425e-001 7.453234e-001 5.837147e-001 7.575440e-001 9.170153e-001 7.172511e-001 3.802013e-001
<GCONST> 1.341712e+002
<MIXTURE> 2 5.039763e-001
<MEAN> 39
 -1.445921e+001 -6.234422e+000 -3.505538e+000 -7.138837e+000 -2.010505e+000 -8.578591e+000 -3.249169e+000 -6.406506e+000 -1.920424e+000 -3.178713e+000 -1.553660e+000 -2.669550e+000 4.239676e+001 2.094927e+000 2.431432e+000 1.192603e+000 -1.898521e-002 -1.086215e+000 -1.489284e+000 -1.611001e+000 -1.119646e+000 -1.427746e+000 -9.503328e-001 -7.165126e-001 -3.790668e-001 9.002733e-001 8.295014e-001 1.062698e+000 3.659229e-001 -2.707866e-001 -7.306055e-001 -6.052291e-001 -4.115958e-001 -1.856648e-001 -1.827411e-001 -2.923858e-001 -2.523113e-001 -2.275646e-001 5.789456e-001
<VARIANCE> 39
 1.648260e+001 4.729049e+001 2.559188e+001 6.960231e+001 3.105803e+001 4.900660e+001 4.584453e+001 3.693807e+001 3.632379e+001 4.195669e+001 2.252925e+001 2.643011e+001 8.937598e+001 4.211936e+000 5.523015e+000 2.390112e+000 5.574701e+000 6.045711e+000 3.716260e+000 4.273401e+000 5.468262e+000 4.187144e+000 5.201879e+000 1.701116e+000 2.023133e+000 1.202892e+000 6.535328e-001 8.426555e-001 4.497910e-001 6.535158e-001 6.884266e-001 6.514994e-001 9.060832e-001 8.750805e-001 7.314098e-001 7.640100e-001 4.269574e-001 5.534095e-001 3.054407e-001
<GCONST> 1.292306e+002
<STATE> 3
<NUMMIXES> 2
<MIXTURE> 1 6.859311e-001
<MEAN> 39
 -2.119288e+000 7.340786e+000 3.079939e-002 -8.375380e+000 -1.342848e+001 -1.350019e+001 -6.966559e+000 -7.077342e+000 -3.259662e+000 -8.403570e+000 -6.331131e+000 -3.234525e+000 5.546410e+001 -2.834155e-001 3.650582e-001 -8.380979e-004 5.218957e-001 6.088731e-001 6.505581e-001 2.658246e-001 -5.181644e-002 1.815632e-001 5.112738e-002 -1.187674e-001 -3.506013e-001 -4.369216e-001 -3.443477e-001 -4.216523e-001 1.327101e-002 -1.870688e-001 6.420329e-002 -1.172614e-002 -4.843049e-002 -5.038902e-002 6.354979e-002 2.918416e-001 1.368354e-001 1.734674e-001 3.637415e-001
<VARIANCE> 39
 4.762508e+001 4.151752e+001 3.108170e+001 5.081537e+001 3.684529e+001 4.321873e+001 5.665217e+001 4.241948e+001 3.170845e+001 4.301403e+001 2.950001e+001 2.979976e+001 1.382326e+002 1.153551e+000 1.819546e+000 2.233838e+000 1.946868e+000 2.893912e+000 3.037938e+000 3.311874e+000 3.504201e+000 2.213234e+000 2.894285e+000 3.178756e+000 2.885794e+000 2.255425e+000 2.194853e-001 3.032695e-001 2.769134e-001 5.500653e-001 6.548541e-001 6.417215e-001 6.563212e-001 7.398809e-001 4.036473e-001 7.597305e-001 5.103908e-001 6.272636e-001 4.306391e-001
<GCONST> 1.230943e+002
<MIXTURE> 2 3.140688e-001
<MEAN> 39
 -1.769546e+000 8.263108e+000 3.486387e+000 -6.185404e+000 -1.085434e+001 -1.428895e+001 -9.756995e+000 -1.204274e+001 -6.415327e+000 -8.869972e+000 -4.662673e+000 -5.516752e+000 4.911213e+001 3.380322e+000 3.747325e+000 5.196197e-001 -1.576713e+000 -3.110915e+000 -2.001766e+000 -7.778872e-001 -6.612271e-001 -7.624561e-001 -6.544390e-001 -1.072497e+000 -9.944898e-001 2.403622e+000 -8.205074e-001 -1.105281e+000 -7.818179e-001 -3.736125e-001 3.335831e-001 5.783367e-001 9.385124e-001 5.283032e-001 4.115023e-001 5.493281e-001 2.973646e-001 2.019214e-001 1.558466e-001
<VARIANCE> 39
 4.578040e+001 5.505072e+001 3.713672e+001 3.559117e+001 6.774612e+001 3.394611e+001 2.795263e+001 2.702048e+001 2.899092e+001 3.491069e+001 3.475320e+001 2.894631e+001 7.480234e+001 5.556998e+000 8.003332e+000 4.492850e+000 3.665601e+000 4.529760e+000 3.557211e+000 6.582788e+000 6.196872e+000 4.190212e+000 5.226065e+000 3.567353e+000 3.464630e+000 3.725821e+000 7.494091e-001 1.085027e+000 3.722660e-001 7.819995e-001 1.428034e+000 8.585897e-001 6.904049e-001 7.939034e-001 8.026525e-001 7.563524e-001 7.463354e-001 5.985832e-001 5.467491e-001
<GCONST> 1.354657e+002
<STATE> 4
<NUMMIXES> 2
<MIXTURE> 1 4.474001e-001
<MEAN> 39
 -1.289850e-001 6.889689e+000 -1.931404e-001 -1.228717e+001 -9.015116e+000 -1.395616e+001 -4.101804e+000 -1.063226e+001 -4.492716e+000 -7.340990e+000 -5.253298e+000 -5.950078e+000 5.980032e+001 -5.745831e-001 -8.991353e-001 6.194166e-002 -1.018479e+000 4.546557e-001 -8.292809e-001 -4.394425e-001 4.867602e-001 3.830286e-002 5.149648e-001 2.151582e-001 4.085958e-001 2.340352e+000 -7.344147e-002 -6.150361e-001 9.725587e-002 -3.196133e-001 -3.275158e-001 -2.026028e-001 -2.117379e-001 -6.431562e-002 8.644670e-002 5.486501e-001 1.225909e-001 2.039799e-001 4.835941e-001
<VARIANCE> 39
 8.058572e+001 5.457906e+001 1.430699e+002 9.806213e+001 8.324516e+001 7.477934e+001 1.029094e+002 1.302449e+002 8.173661e+001 6.862469e+001 6.261292e+001 6.062310e+001 1.082528e+002 8.199791e+000 7.669520e+000 9.263464e+000 8.803154e+000 9.816232e+000 9.513460e+000 1.365071e+001 1.145515e+001 6.608747e+000 8.625418e+000 7.299975e+000 8.514021e+000 9.281681e+000 1.336748e+000 1.101176e+000 1.550130e+000 1.511624e+000 2.084600e+000 1.594146e+000 2.346210e+000 1.671234e+000 1.154885e+000 1.258106e+000 1.145578e+000 1.237771e+000 1.805936e+000
<GCONST> 1.630646e+002
<MIXTURE> 2 5.526014e-001
<MEAN> 39
 -1.205935e+000 1.153296e+000 4.063427e+000 -1.680067e+001 -1.329494e+001 -1.560579e+001 -4.946664e+000 -1.301294e+001 -4.438378e+000 1.110047e+000 -7.570679e+000 -5.880720e+000 6.454723e+001 1.069601e-001 5.930522e-002 -8.066066e-002 8.957539e-004 -9.562546e-002 4.535386e-001 4.685063e-001 -4.226924e-001 -2.350598e-001 -4.421635e-002 -6.345994e-002 -1.169587e-001 -2.172714e-001 3.007204e-002 1.428736e-001 -1.453361e-002 4.119263e-002 1.304117e-001 1.014529e-001 -8.504086e-002 -4.921651e-002 8.976498e-003 -2.324834e-001 -2.300153e-002 6.294295e-003 -7.321440e-002
<VARIANCE> 39
 7.959617e+001 7.459125e+001 1.240916e+002 1.939384e+002 8.887218e+001 1.017394e+002 1.119353e+002 1.312698e+002 8.343380e+001 9.260513e+001 7.397854e+001 1.063857e+002 1.437437e+002 1.839712e+000 2.503043e+000 3.781389e+000 4.880543e+000 3.991835e+000 4.637585e+000 4.208718e+000 4.895297e+000 4.225141e+000 4.565794e+000 2.696460e+000 3.734272e+000 1.669529e+000 3.925062e-001 5.808896e-001 6.619972e-001 9.844443e-001 8.515984e-001 1.185180e+000 8.776621e-001 1.053081e+000 8.108426e-001 7.612352e-001 6.278238e-001 8.157373e-001 3.836844e-001
<GCONST> 1.441332e+002
<TRANSP> 5
 0.000000e+000 1.000000e+000 0.000000e+000 0.000000e+000 0.000000e+000
 0.000000e+000 6.215504e-001 3.784496e-001 0.000000e+000 0.000000e+000
 0.000000e+000 0.000000e+000 7.293016e-001 2.706984e-001 0.000000e+000
 0.000000e+000 0.000000e+000 0.000000e+000 8.681280e-001 1.318720e-001
 0.000000e+000 0.000000e+000 0.000000e+000 0.000000e+000 0.000000e+000
<ENDHMM>
~h "e"
<BEGINHMM>
<NUMSTATES> 5
<STATE> 2
<NUMMIXES> 2
<MIXTURE> 1 3.522848e-001
<MEAN> 39
 -6.012357e+000 1.195095e-001 2.706190e-001 -1.258721e+001 -1.492848e+001 -1.399048e+001 -4.472202e+000 -6.206052e+000 -2.947349e+000 -4.337464e+000 1.475597e+000 -4.459106e+000 6.589719e+001 1.631231e+000 -1.376301e+000 2.692636e+000 -4.325200e+000 -4.130531e+000 -1.153373e+000 -2.140215e-001 -3.278083e-001 4.986157e-002 2.077674e+000 3.078572e-001 1.174095e+000 5.035776e+000 -1.409180e-001 -2.310947e-001 2.826007e-001 -5.807049e-001 7.798373e-002 3.364654e-001 1.222878e-001 -2.463094e-001 1.182082e-001 4.496168e-001 -7.101095e-001 3.294576e-001 -1.889207e-001
<VARIANCE> 39
 6.748592e+001 9.113433e+001 7.681707e+001 9.196606e+001 1.120057e+002 8.675666e+001 6.463032e+001 7.325198e+001 6.050682e+001 5.283741e+001 4.104774e+001 4.163631e+001 1.470142e+002 1.099207e+001 1.301204e+001 1.082066e+001 9.639208e+000 1.325465e+001 9.716374e+000 8.198253e+000 1.019650e+001 8.710364e+000 8.201886e+000 6.374873e+000 5.196398e+000 1.014460e+001 1.521673e+000 1.647995e+000 1.305153e+000 1.599915e+000 1.923623e+000 1.390475e+000 1.219471e+000 1.385725e+000 1.112965e+000 1.071945e+000 8.575637e-001 7.903179e-001 2.110991e+000
<GCONST> 1.600922e+002
<MIXTURE> 2 6.477146e-001
<MEAN> 39
 -5.345829e+000 -2.427326e+000 3.612817e+000 -1.557991e+001 -1.801239e+001 -1.741825e+001 -9.058376e+000 -5.862756e+000 -3.009075e+000 -3.305439e+000 -3.261461e+000 -1.659829e+000 7.346159e+001 1.314512e+000 -8.258725e-001 8.537285e-001 -1.851942e+000 -2.822505e+000 -4.553396e-001 5.592390e-001 -2.879579e-001 -4.936996e-001 7.996582e-001 1.925792e-002 4.004160e-001 1.661198e+000 -4.391603e-001 -5.602561e-002 -1.974220e-001 5.105542e-002 4.118035e-001 6.584122e-001 3.774651e-001 -8.058917e-002 1.495458e-001 4.139607e-001 -6.256036e-002 -5.936788e-002 -2.730039e-001
<VARIANCE> 39
 3.862609e+001 5.425240e+001 4.518053e+001 8.737198e+001 4.829188e+001 5.129038e+001 5.698053e+001 8.341817e+001 4.730844e+001 4.880530e+001 5.162840e+001 3.931424e+001 2.723859e+001 6.518764e+000 2.804529e+000 4.240263e+000 4.603973e+000 5.017331e+000 7.815341e+000 8.409852e+000 5.660085e+000 4.459222e+000 6.361326e+000 4.676744e+000 4.223910e+000 1.949721e+000 5.984002e-001 6.910056e-001 3.591725e-001 5.307027e-001 7.714424e-001 8.758016e-001 9.342682e-001 1.200580e+000 6.973348e-001 8.187647e-001 7.517577e-001 6.690651e-001 2.277909e-001
<GCONST> 1.374124e+002
<STATE> 3
<NUMMIXES> 2
<MIXTURE> 1 6.191992e-001
<MEAN> 39
 -4.270240e+000 -7.421244e+000 7.922377e+000 -2.228886e+001 -2.072801e+001 -1.831685e+001 -4.551640e+000 -4.071346e+000 -4.682868e+000 3.305407e+000 -4.304032e+000 -4.910866e-001 7.824458e+001 -4.790018e-001 -5.884084e-001 1.014371e+000 -1.934807e+000 -7.714090e-001 8.539293e-001 1.264484e+000 -6.761788e-001 -2.940613e-001 2.012075e+000 -7.655727e-001 2.055116e-001 8.101541e-001 -1.376762e-001 7.837234e-001 -5.835006e-001 7.726585e-001 8.437304e-001 4.935914e-001 -2.651241e-001 -3.261490e-001 2.788647e-001 -6.188555e-001 -9.318037e-002 -2.789103e-001 -8.613055e-001
<VARIANCE> 39
 2.873326e+001 2.736200e+001 5.859558e+001 9.086047e+001 4.906699e+001 5.527232e+001 5.099926e+001 7.356861e+001 4.976934e+001 5.845734e+001 5.456404e+001 4.250508e+001 8.833432e+000 1.593762e+000 3.231591e+000 3.170825e+000 4.620568e+000 4.902716e+000 4.876302e+000 4.970060e+000 5.379809e+000 3.786021e+000 6.298361e+000 3.996636e+000 3.728947e+000 1.523302e+000 4.623211e-001 4.130138e-001 6.264961e-001 7.562162e-001 7.409092e-001 8.153424e-001 8.845170e-001 8.509117e-001 6.529749e-001 1.107285e+000 7.972663e-001 6.531006e-001 3.670618e-001
<GCONST> 1.328709e+002
<MIXTURE> 2 3.808007e-001
<MEAN> 39
 -3.748425e+000 1.468315e+000 5.384543e+000 -2.330404e+001 -2.377422e+001 -1.063509e+001 -6.168123e+000 -1.373306e+001 1.719967e+000 -2.656441e+000 -2.949430e+000 5.882995e-001 7.190583e+001 3.276832e-001 -5.037708e-001 3.319281e-001 -9.541579e-001 -7.814485e-001 8.364688e-001 -3.081806e-003 -9.031841e-001 8.764768e-002 1.354553e-001 -5.038946e-001 4.775670e-001 1.418402e+000 -7.964261e-001 -1.799019e-001 -5.707996e-001 1.002060e+000 1.426186e+000 8.065183e-002 2.834952e-001 5.170255e-001 -2.806993e-001 -8.430354e-002 4.369334e-003 -4.129809e-001 -9.457343e-001
<VARIANCE> 39
 3.949232e+001 6.610209e+001 6.671626e+001 1.457894e+002 8.060032e+001 7.040974e+001 8.588210e+001 6.744728e+001 7.677191e+001 5.637477e+001 6.024389e+001 4.301496e+001 5.426480e+001 3.469979e+000 4.405220e+000 5.733631e+000 1.035938e+001 8.918544e+000 5.555498e+000 4.398557e+000 4.774849e+000 4.815520e+000 5.197665e+000 3.948516e+000 4.223597e+000 8.589126e+000 7.276939e-001 8.488533e-001 8.578934e-001 1.097790e+000 1.452035e+000 1.327272e+000 1.307500e+000 9.277714e-001 1.057064e+000 8.106534e-001 8.547348e-001 6.364993e-001 8.178994e-001
<GCONST> 1.475486e+002
<STATE> 4
<NUMMIXES> 2
<MIXTURE> 1 4.667689e-001
<MEAN> 39
 -4.184802e+000 -5.189952e+000 9.775080e+000 -2.758458e+001 -2.013104e+001 -1.427744e+001 -3.055905e+000 -8.701355e+000 -3.935792e+000 6.759457e+000 -6.959088e+000 -1.627937e-001 7.772742e+001 2.275871e-001 5.411842e-001 -3.736454e-001 6.308936e-001 2.566612e-001 3.365298e-001 -9.640184e-002 -5.345391e-001 5.484235e-002 -4.837307e-001 8.811954e-002 -1.529344e-001 -5.772429e-001 1.491857e-001 1.745042e-001 -2.921205e-001 6.201000e-001 1.480808e-001 5.089691e-004 -1.893675e-001 9.616815e-002 3.642391e-002 -5.850887e-001 2.472359e-001 -1.498943e-001 -3.578331e-001
<VARIANCE> 39
 3.195000e+001 3.768137e+001 4.329018e+001 1.062748e+002 5.230782e+001 8.365243e+001 5.675990e+001 8.335358e+001 6.369592e+001 4.288474e+001 5.109930e+001 4.653623e+001 1.067179e+001 8.517964e-001 1.431093e+000 1.501920e+000 3.083509e+000 2.223287e+000 2.736808e+000 2.556394e+000 2.939643e+000 2.256045e+000 3.179944e+000 2.270760e+000 2.178797e+000 1.230607e+000 1.484341e-001 2.483452e-001 2.478412e-001 3.893208e-001 4.472257e-001 5.892923e-001 5.750499e-001 5.939898e-001 4.627469e-001 5.124467e-001 4.801524e-001 4.433584e-001 1.831684e-001
<GCONST> 1.187048e+002
<MIXTURE> 2 5.332299e-001
<MEAN> 39
 -5.982070e+000 -1.948670e+000 2.392564e+000 -1.806510e+001 -2.150090e+001 -9.213741e+000 -6.099617e+000 -1.061916e+001 -2.417419e+000 -3.412511e+000 -3.103217e+000 -2.445096e+000 7.308415e+001 -6.368931e-002 5.455346e-001 -5.100275e-001 1.213978e+000 7.942972e-001 -1.399144e-001 -9.372003e-002 2.074355e-001 -2.720531e-001 -8.604480e-001 1.094542e-001 -3.652188e-001 -9.545010e-001 -8.708647e-002 8.044452e-002 -1.633331e-002 1.690128e-001 3.433224e-001 -3.018182e-001 -2.765620e-002 1.207173e-001 1.846895e-002 9.073699e-002 -5.686970e-002 3.804401e-002 -2.281545e-001
<VARIANCE> 39
 4.993849e+001 7.524368e+001 4.627544e+001 8.024957e+001 6.487468e+001 6.933385e+001 5.864518e+001 8.230712e+001 7.054169e+001 5.240323e+001 3.887929e+001 4.159123e+001 5.075796e+001 1.052522e+000 2.057989e+000 1.973444e+000 3.543842e+000 3.887461e+000 4.334924e+000 3.076790e+000 3.526667e+000 3.644577e+000 3.222510e+000 3.258248e+000 2.621964e+000 1.609246e+000 1.924082e-001 2.960340e-001 2.529673e-001 5.005711e-001 5.794047e-001 6.646802e-001 6.225480e-001 6.225566e-001 6.490684e-001 5.890291e-001 5.387310e-001 4.725556e-001 1.728624e-001
<GCONST> 1.266444e+002
<TRANSP> 5
 0.000000e+000 1.000000e+000 0.000000e+000 0.000000e+000 0.000000e+000
 0.000000e+000 3.318340e-001 6.681660e-001 0.000000e+000 0.000000e+000
 0.000000e+000 0.000000e+000 4.992911e-001 5.007089e-001 0.000000e+000
 0.000000e+000 0.000000e+000 0.000000e+000 8.244525e-001 1.755475e-001
 0.000000e+000 0.000000e+000 0.000000e+000 0.000000e+000 0.000000e+000
<ENDHMM>
~h "f"
<BEGINHMM>
<NUMSTATES> 5
<STATE> 2
<NUMMIXES> 2
<MIXTURE> 1 2.396742e-001
<MEAN> 39
 -1.397645e+001 -7.362533e+000 -3.103643e+000 -4.576825e+000 -8.825043e-001 -8.656033e+000 -3.474157e+000 -7.404234e+000 -9.080241e-001 -6.825743e+000 -3.433358e+000 -4.631419e+000 4.376712e+001 -1.233998e-001 6.529691e-002 3.296130e-001 5.737991e-001 3.685976e-001 4.165290e-001 4.234404e-001 -6.379046e-002 -1.161080e-001 -1.232210e-001 3.412218e-002 -3.606152e-001 -1.175876e-002 -2.165695e-001 -2.524621e-001 -3.629041e-001 -3.803349e-001 -1.887688e-001 6.890879e-002 4.030991e-001 3.387615e-001 2.798690e-001 3.013219e-001 3.844198e-001 1.278710e-001 -1.116175e-001
<VARIANCE> 39
 7.354880e+000 6.155028e+000 1.206762e+001 1.622963e+001 2.282219e+001 2.324542e+001 2.713485e+001 2.391785e+001 2.496530e+001 2.797683e+001 3.034477e+001 1.786210e+001 5.969878e+001 9.486618e-001 9.528466e-001 1.314460e+000 2.262467e+000 2.661608e+000 2.353862e+000 2.129764e+000 3.350694e+000 3.340736e+000 2.075960e+000 2.480170e+000 1.863539e+000 1.825825e-001 1.246534e-001 1.881757e-001 1.870929e-001 3.321328e-001 5.069427e-001 5.245616e-001 3.852279e-001 7.218405e-001 4.504424e-001 2.983655e-001 5.450324e-001 4.630681e-001 3.826882e-002
<GCONST> 1.012236e+002
<MIXTURE> 2 7.603260e-001
<MEAN> 39
 -1.622525e+001 -1.022064e+001 -5.986777e+000 -8.928209e+000 -2.778009e+000 -8.096530e+000 4.417354e-001 -4.940991e+000 3.719766e-001 -5.680798e+000 -6.652056e-001 -3.035706e+000 4.024977e+001 1.028689e-002 -2.822395e-002 -7.817229e-002 -9.804060e-002 -1.246956e-001 -1.302601e-001 -1.465817e-001 -2.677419e-002 5.882190e-002 6.491363e-002 7.559318e-002 1.274466e-001 -1.863639e-002 7.161004e-002 9.682659e-002 9.409195e-002 7.950976e-002 7.401619e-002 -1.572060e-002 -1.053059e-001 -1.088547e-001 -8.922863e-002 -9.240799e-002 -1.195037e-001 -4.307157e-002 3.717517e-002
<VARIANCE> 39
 2.290508e+000 3.815899e+000 9.575747e+000 1.386293e+001 1.407004e+001 2.052043e+001 1.961944e+001 2.337293e+001 2.825363e+001 2.619878e+001 2.109101e+001 1.921223e+001 2.367682e+000 3.604915e-001 6.193504e-001 9.905382e-001 1.506534e+000 1.499797e+000 1.932473e+000 2.479116e+000 2.842864e+000 3.018819e+000 2.390214e+000 2.839055e+000 2.096912e+000 8.646519e-002 6.884997e-002 1.155671e-001 1.916748e-001 2.846234e-001 2.819741e-001 3.905279e-001 5.151536e-001 5.371542e-001 6.279490e-001 4.800439e-001 5.099162e-001 4.449391e-001 1.998322e-002
<GCONST> 8.940177e+001
<STATE> 3
<NUMMIXES> 2
<MIXTURE> 1 5.185745e-001
<MEAN> 39
 -1.954744e+001 3.687649e+000 -9.257501e-001 3.511568e+000 -6.292684e+000 -6.747699e+000 -6.326030e+000 -6.680459e+000 -3.668710e+000 -4.026813e+000 -4.901599e+000 -6.856175e+000 6.791978e+001 -1.098400e+000 7.606655e-001 1.132028e+000 4.476306e-001 1.093725e+000 6.592912e-001 2.751538e-001 -3.500605e-001 9.001564e-001 1.418352e+000 5.183249e-001 2.309051e-001 -1.090451e+000 3.014937e-001 -3.377112e-001 -3.013883e-001 8.182128e-002 -3.623382e-001 2.065219e-001 -2.944213e-001 2.553767e-001 -2.782536e-001 2.228829e-002 -1.485135e-001 2.154919e-001 1.282073e-001
<VARIANCE> 39
 2.771172e+001 1.241546e+001 1.308802e+001 1.299955e+001 4.105249e+001 3.189991e+001 1.470229e+001 2.250447e+001 8.043264e+001 4.416485e+001 4.088274e+001 3.251376e+001 2.999000e+001 1.592381e+000 1.566756e+000 9.333555e-001 1.347662e+000 1.259790e+000 1.130754e+000 2.389890e+000 1.831690e+000 2.836398e+000 4.431762e+000 2.118048e+000 2.379610e+000 8.417189e-001 2.964467e-001 3.608738e-001 7.920675e-002 3.307121e-001 4.358124e-001 3.054972e-001 6.087137e-001 3.743203e-001 4.504794e-001 1.320647e+000 4.432926e-001 2.931535e-001 2.203812e-001
<GCONST> 1.079078e+002
<MIXTURE> 2 4.814258e-001
<MEAN> 39
 -1.453626e+001 -4.108819e+000 -6.331797e+000 -7.870871e-001 -1.084585e+001 -1.934827e+000 -4.861870e+000 -5.321390e+000 -1.120661e+001 -5.101442e+000 -9.896409e+000 -4.756110e+000 6.491062e+001 -9.354236e-001 6.035654e-001 3.688373e-001 5.142705e-001 1.293806e-001 1.481309e-001 1.322369e+000 1.102993e-001 -8.243321e-001 -1.014277e+000 4.744383e-001 -5.340666e-001 -2.330882e-001 3.401365e-001 2.282503e-001 1.313209e-001 -3.957271e-001 1.861873e-002 -5.038209e-001 -1.302935e-001 1.511944e-001 6.326786e-001 1.533392e-001 1.117762e-001 -1.327472e-001 1.110288e-001
<VARIANCE> 39
 4.758063e+001 3.570578e+001 3.749926e+001 5.005695e+001 5.462697e+001 5.987160e+001 3.883430e+001 3.281803e+001 6.678111e+001 4.060318e+001 4.529614e+001 2.289792e+001 2.253503e+002 2.515399e+000 2.753833e+000 1.821808e+000 2.156807e+000 1.292193e+000 5.846956e+000 2.347620e+000 3.669016e+000 2.463095e+000 3.841313e+000 3.308233e+000 1.763519e+000 7.323906e-001 4.047988e-001 3.011560e-001 3.738794e-001 4.902486e-001 4.564072e-001 5.965803e-001 4.954535e-001 1.105834e+000 9.276906e-001 1.032583e+000 7.224030e-001 4.331213e-001 3.685161e-001
<GCONST> 1.254347e+002
<STATE> 4
<NUMMIXES> 2
<MIXTURE> 1 4.050497e-001
<MEAN> 39
 -2.630996e+000 -5.127960e-001 -1.167877e+001 -1.590747e+001 -6.679103e+000 -9.209670e+000 -1.577131e+001 -8.668002e+000 -1.080704e+000 -5.818005e+000 2.066781e+000 -4.266273e+000 7.202596e+001 -9.843938e-001 3.648514e-002 5.243822e-001 2.297712e-001 7.130660e-001 5.392912e-001 -1.060231e-001 6.358998e-001 -7.671459e-002 4.244560e-001 -9.448534e-002 8.633561e-002 -4.095656e-002 -2.501058e-001 3.942553e-002 2.820353e-001 1.056086e-001 -8.417684e-002 -3.812948e-001 1.306230e-001 3.518046e-001 -6.522198e-002 2.217445e-001 -2.245776e-001 -2.545204e-003 -2.038751e-002
<VARIANCE> 39
 1.833048e+002 2.744155e+001 1.652904e+001 5.993945e+001 4.411003e+001 7.643461e+001 1.279439e+002 4.936790e+001 5.302974e+001 4.222716e+001 2.130386e+001 5.067797e+001 1.640033e+001 3.807589e+000 4.436261e+000 1.823575e+000 5.386303e+000 4.022499e+000 6.682875e+000 3.647195e+000 4.143713e+000 5.027037e+000 6.144536e+000 2.068766e+000 3.743609e+000 1.189087e+000 6.699417e-001 6.098326e-001 3.698159e-001 8.116725e-001 8.473935e-001 6.486298e-001 9.441993e-001 7.585740e-001 9.604898e-001 1.021399e+000 2.721503e-001 7.026474e-001 4.265431e-001
<GCONST> 1.326813e+002
<MIXTURE> 2 5.949500e-001
<MEAN> 39
 -1.204135e+001 -3.763892e+000 -7.841799e+000 -7.115539e+000 -4.730681e+000 -1.613844e+001 -8.904826e+000 -8.040237e-001 -1.380475e+000 -2.508372e+000 -1.423058e+000 -5.450166e+000 6.393664e+001 1.555914e+000 2.339047e-001 -3.984687e-001 -8.606410e-001 -1.369428e+000 -6.025107e-001 -7.636388e-002 2.993942e-001 -3.500987e-001 -3.113115e-001 -4.161409e-001 6.248635e-002 1.635737e+000 4.982715e-001 5.851230e-002 -5.503891e-002 -3.195640e-001 -1.442943e-001 1.029862e-001 -3.468413e-001 -5.060483e-001 7.353150e-002 -8.290392e-002 -1.189820e-001 -9.004747e-003 3.033161e-001
<VARIANCE> 39
 9.165413e+001 2.738812e+001 4.278249e+001 6.271286e+001 3.140211e+001 1.169909e+002 7.555659e+001 4.771002e+001 4.992159e+001 2.311092e+001 2.731570e+001 2.757264e+001 1.751047e+002 8.762624e+000 2.620543e+000 7.562829e+000 2.860023e+000 2.577685e+000 6.572070e+000 6.714723e+000 8.249164e+000 7.566538e+000 3.532461e+000 4.092238e+000 3.451170e+000 7.692576e+000 1.057973e+000 5.496865e-001 8.847486e-001 6.417689e-001 5.250926e-001 1.436327e+000 7.652295e-001 1.242599e+000 1.238151e+000 8.468139e-001 1.019655e+000 7.228473e-001 9.819983e-001
<GCONST> 1.419489e+002
<TRANSP> 5
 0.000000e+000 1.000000e+000 0.000000e+000 0.000000e+000 0.000000e+000
 0.000000e+000 9.709370e-001 2.906308e-002 0.000000e+000 0.000000e+000
 0.000000e+000 0.000000e+000 7.942249e-001 2.057751e-001 0.000000e+000
 0.000000e+000 0.000000e+000 0.000000e+000 8.970147e-001 1.029853e-001
 0.000000e+000 0.000000e+000 0.000000e+000 0.000000e+000 0.000000e+000
<ENDHMM>
~h "g"
<BEGINHMM>
<NUMSTATES> 5
<STATE> 2
<NUMMIXES> 2
<MIXTURE> 1 6.660699e-001
<MEAN> 39
 -1.102413e+001 -4.789248e+000 -3.089125e+000 -8.836519e+000 -2.283739e+000 -1.117154e+001 -9.558662e+000 -1.312238e+001 -1.927063e+000 -6.765363e-001 3.118885e-001 -4.425982e+000 5.279927e+001 5.966645e-001 -1.250215e-001 -7.038637e-001 -1.007670e-001 5.931191e-001 1.664174e-001 -5.394916e-001 -3.494132e-002 3.968031e-001 1.999635e-001 -1.550803e-001 3.537135e-002 2.692135e-001 3.868172e-001 2.673829e-001 -2.346722e-002 -4.756920e-001 -6.954203e-001 -5.580143e-001 7.713972e-003 6.350300e-001 1.861968e-002 -4.311904e-001 -1.829762e-001 -1.109289e-001 5.392163e-001
<VARIANCE> 39
 9.260645e+001 1.015550e+002 7.718215e+001 1.675661e+001 3.226704e+001 3.091138e+001 3.450747e+001 4.362662e+001 3.431462e+001 4.136744e+001 2.664052e+001 3.150556e+001 1.274887e+002 3.768484e+000 5.912182e+000 6.952777e+000 3.592867e+000 5.485798e+000 8.035867e+000 8.192442e+000 9.396613e+000 5.422978e+000 3.498916e+000 3.413438e+000 3.649880e+000 1.361179e+000 3.007844e-001 9.717587e-001 6.682277e-001 2.928396e-001 9.206501e-001 8.341907e-001 1.214150e+000 1.164673e+000 4.688700e-001 5.382457e-001 7.041757e-001 5.808350e-001 3.848082e-001
<GCONST> 1.352725e+002
<MIXTURE> 2 3.339302e-001
<MEAN> 39
 -2.025966e+000 -1.894621e+000 -3.558746e+000 -1.156585e+001 -7.856212e+000 -1.724747e+001 -7.727060e+000 -3.693066e+000 4.346991e-001 -9.825595e+000 -3.626781e+000 -5.431442e+000 6.018269e+001 1.717047e+000 9.412640e-001 -1.120893e+000 -2.161268e+000 -1.640174e+000 -3.517182e+000 -3.503245e-001 2.691510e+000 8.188768e-001 -1.194506e+000 -1.616375e+000 -6.657333e-001 3.601177e+000 -2.727672e-001 -5.804855e-001 -1.356857e-001 -8.696755e-001 2.411751e-002 6.102841e-001 5.095841e-001 -9.128269e-001 -2.194856e-002 7.821785e-001 -4.129710e-001 3.245138e-002 5.834618e-002
<VARIANCE> 39
 2.645432e+001 4.210574e+001 3.976932e+001 7.730315e+001 6.368297e+001 6.426746e+001 1.153052e+002 1.845289e+002 1.083668e+002 2.649302e+001 4.337141e+001 2.709885e+001 1.177644e+002 6.533311e+000 1.574175e+001 2.975692e+000 5.496498e+000 9.512107e+000 3.670386e+000 6.840949e+000 1.432750e+001 4.030494e+000 4.098683e+000 7.196655e+000 4.991385e+000 8.705907e+000 6.395516e-001 1.045780e+000 8.838776e-001 1.714434e+000 8.452937e-001 1.491244e+000 2.537237e+000 2.796487e+000 9.888460e-001 5.942842e-001 7.817373e-001 7.836710e-001 9.792664e-001
<GCONST> 1.500839e+002
<STATE> 3
<NUMMIXES> 2
<MIXTURE> 1 5.283302e-001
<MEAN> 39
 -2.955629e+000 1.869085e+000 5.308125e+000 -8.441004e+000 -1.257668e+001 -1.686300e+001 -4.903748e+000 -1.381243e+001 -8.737228e+000 1.111017e+001 6.046069e-001 -1.007282e+001 6.693423e+001 -2.360783e-001 2.235261e-001 1.705997e-001 -4.456814e-001 1.781468e-001 -4.437765e-001 4.804355e-001 2.877669e-001 -4.234893e-001 -4.614679e-001 4.541089e-002 -1.391676e-001 1.669878e-001 -7.549989e-002 -6.221411e-002 -8.992812e-002 8.105751e-002 1.572705e-001 1.267974e-001 2.216725e-001 2.250057e-002 1.803958e-001 7.719669e-003 -6.651289e-002 1.281050e-001 -7.350829e-002
<VARIANCE> 39
 7.357076e+000 2.573004e+000 3.800843e+001 5.418588e+001 5.185618e+001 1.507004e+001 8.051163e+001 5.167264e+001 5.361617e+001 4.374889e+001 1.957357e+001 1.501079e+001 7.704864e+000 4.827861e-001 1.565603e-001 2.354856e+000 2.263045e+000 3.444524e+000 1.461339e+000 1.204128e+000 3.146824e+000 4.083913e+000 2.437366e+000 2.797633e+000 1.280805e+000 5.925987e-001 1.522533e-001 4.661549e-002 2.172486e-001 4.149995e-001 4.871817e-001 2.348180e-001 4.394309e-001 4.281754e-001 8.042393e-001 4.329776e-001 5.631160e-001 1.991205e-001 1.347500e-001
<GCONST> 1.013776e+002
<MIXTURE> 2 4.716699e-001
<MEAN> 39
 -3.812597e+000 6.720012e-001 -5.435086e+000 -1.372675e+001 -5.894240e+000 -1.580057e+001 -1.007692e+001 -6.383872e+000 2.189153e+000 -3.634612e+000 -2.645695e+000 -5.981149e+000 6.323765e+001 6.252599e-001 -4.894006e-001 -6.256071e-001 -1.751400e+000 -1.143401e+000 -3.948303e-001 3.965628e-001 2.718870e-001 -1.037790e+000 -3.565699e-001 -1.372130e-001 1.326186e-001 8.255170e-001 -6.453101e-002 -1.359868e-001 -2.707530e-002 -7.779184e-002 -1.105908e-001 8.110045e-001 4.270520e-001 -4.515000e-001 -5.517188e-001 -1.437441e-001 -9.720334e-002 2.626643e-001 -2.244336e-002
<VARIANCE> 39
 5.490940e+001 4.377813e+001 3.430896e+001 6.792723e+001 8.165888e+001 6.568398e+001 7.171925e+001 6.369523e+001 9.326878e+001 8.423547e+001 4.761742e+001 2.541002e+001 6.580597e+001 1.150783e+000 1.981285e+000 3.174272e+000 6.577348e+000 7.942207e+000 4.399364e+000 1.293425e+001 4.067149e+000 8.313423e+000 7.085515e+000 3.471951e+000 2.607232e+000 1.458184e+000 4.793856e-001 5.829965e-001 1.154500e+000 7.486496e-001 1.089075e+000 1.146696e+000 7.852925e-001 5.429642e-001 1.340961e+000 1.050463e+000 6.888879e-001 5.863535e-001 5.458533e-001
<GCONST> 1.392997e+002
<STATE> 4
<NUMMIXES> 2
<MIXTURE> 1 4.108635e-001
<MEAN> 39
 9.301530e-001 -2.706721e+000 -1.415588e+001 -1.687289e+001 -9.891638e+000 -1.472095e+001 -4.382321e+000 -1.274855e+001 3.604990e+000 -7.874822e+000 -6.409884e+000 -1.235413e+001 6.168823e+001 -5.024384e-002 -8.253145e-001 -6.503007e-001 -9.700689e-001 7.122691e-001 1.614399e+000 5.290865e-001 -2.130860e-001 -5.430587e-001 9.282712e-001 2.510949e-001 7.865826e-001 2.260563e-001 -1.532890e-001 5.314171e-002 3.460233e-001 4.157835e-001 1.892425e-001 1.309011e-001 -2.645567e-001 3.111724e-002 -3.356446e-001 7.639195e-003 2.304082e-001 1.675421e-001 -4.686611e-002
<VARIANCE> 39
 3.766482e+001 5.429522e+001 1.219978e+002 6.039094e+001 6.138575e+001 9.692705e+001 7.498883e+001 9.090794e+001 7.644650e+001 9.993090e+001 8.980224e+001 1.952985e+002 7.251061e+001 1.888064e+000 1.995212e+000 6.344654e+000 6.317759e+000 4.759209e+000 2.483775e+000 9.778395e+000 5.030122e+000 4.263233e+000 6.054166e+000 3.695273e+000 4.109308e+000 1.676407e+000 7.947393e-002 2.310710e-001 4.835253e-001 9.245677e-001 7.302156e-001 9.782245e-001 1.221659e+000 1.234738e+000 8.061994e-001 1.194612e+000 1.136812e+000 6.159114e-001 2.454554e-001
<GCONST> 1.400645e+002
<MIXTURE> 2 5.891364e-001
<MEAN> 39
 -1.065494e+000 8.643639e+000 -5.560197e+000 -9.351084e+000 -2.118400e+001 -2.367859e+001 4.698893e-001 -1.182766e+001 -3.197977e+000 -1.331362e+001 -4.607678e+000 -1.470137e+001 5.336518e+001 -1.685930e-001 -6.544930e-002 -2.033201e-001 1.508420e-001 -2.981049e-002 -1.965917e-001 4.000003e-002 -8.534595e-002 -3.302102e-002 -3.003701e-001 -3.920546e-001 -8.329955e-002 -1.626300e-001 1.943158e-002 -1.690716e-001 -1.296739e-001 -1.092471e-001 2.361661e-002 -7.926145e-003 -9.809438e-003 9.276783e-002 2.076563e-001 3.113947e-002 -1.003319e-002 3.753902e-002 2.693242e-002
<VARIANCE> 39
 2.656960e+001 6.791660e+001 8.939726e+001 3.871374e+001 1.047563e+002 4.820665e+001 4.153004e+001 5.890070e+001 8.455114e+001 2.460041e+001 5.236639e+001 6.675372e+001 2.047095e+001 6.700822e-001 1.719524e+000 2.766825e+000 3.950310e+000 2.791696e+000 9.155253e-001 4.154638e+000 2.665363e+000 4.582459e+000 3.307300e+000 3.629471e+000 3.221490e+000 3.718600e-001 7.160456e-002 2.636363e-001 4.940755e-001 8.275899e-001 5.248681e-001 2.405202e-001 1.191628e+000 5.153652e-001 5.153875e-001 5.664006e-001 6.937565e-001 6.796167e-001 6.317783e-002
<GCONST> 1.203704e+002
<TRANSP> 5
 0.000000e+000 1.000000e+000 0.000000e+000 0.000000e+000 0.000000e+000
 0.000000e+000 6.579155e-001 3.420846e-001 0.000000e+000 0.000000e+000
 0.000000e+000 0.000000e+000 6.705754e-001 3.294246e-001 0.000000e+000
 0.000000e+000 0.000000e+000 0.000000e+000 8.274860e-001 1.725140e-001
 0.000000e+000 0.000000e+000 0.000000e+000 0.000000e+000 0.000000e+000
<ENDHMM>
~h "h"
<BEGINHMM>
<NUMSTATES> 5
<STATE> 2
<NUMMIXES> 2
<MIXTURE> 1 1.593654e-001
<MEAN> 39
 -1.405540e+001 -6.447633e+000 -5.191346e+000 -1.011041e+001 -2.665281e+000 -7.577396e+000 -2.459657e+000 -3.208338e+000 5.700181e-002 -2.094398e+000 -8.479949e-001 -3.094987e+000 5.306167e+001 -3.832285e-002 -1.001225e-001 -1.959239e-001 -3.011285e-001 -3.668785e-002 5.057149e-002 -2.208753e-001 -1.484927e-001 6.060217e-003 9.639802e-002 1.338365e-001 8.614346e-003 3.422909e-001 5.957166e-002 1.058971e-002 -7.985175e-003 5.019171e-002 7.042431e-002 -3.994790e-003 -1.091340e-001 -2.220090e-003 -7.797537e-003 -3.841919e-002 5.966657e-003 7.606118e-002 1.707383e-002
<VARIANCE> 39
 5.058810e+001 5.690551e+001 5.319406e+001 6.382771e+001 7.923239e+001 5.077829e+001 6.197899e+001 6.455705e+001 5.383249e+001 4.937891e+001 3.870702e+001 3.838889e+001 2.031730e+002 1.703377e+000 1.522435e+000 1.808670e+000 2.673576e+000 3.704903e+000 3.200346e+000 3.840966e+000 3.896171e+000 4.015673e+000 3.296842e+000 2.984345e+000 2.719938e+000 9.390063e-001 2.772942e-001 2.942718e-001 3.804903e-001 6.118375e-001 8.019002e-001 6.894005e-001 8.085573e-001 7.835377e-001 8.023869e-001 6.333495e-001 5.870142e-001 5.632604e-001 1.924515e-001
<GCONST> 1.287475e+002
<MIXTURE> 2 8.406392e-001
<MEAN> 39
 -1.801012e+001 -1.255556e+001 -6.581749e+000 -8.817843e+000 -1.557796e+000 -8.116937e+000 3.334812e-001 -5.161798e+000 1.352555e+000 -3.799241e+000 1.329583e+000 -2.954348e+000 4.052082e+001 -1.975349e-003 -1.647675e-003 -2.550705e-002 -8.195209e-003 7.834572e-003 -3.251187e-003 -9.275575e-003 2.630101e-003 -2.323736e-002 -5.355271e-003 -4.325578e-003 -4.086617e-003 -1.230714e-002 1.660906e-002 1.655392e-002 -3.945151e-003 -8.046682e-003 5.750549e-003 1.655237e-003 -1.184906e-002 3.507355e-003 -8.330327e-003 -1.066329e-003 -2.940088e-003 -5.767647e-003 1.445109e-002
<VARIANCE> 39
 2.046228e+000 4.691065e+000 6.021708e+000 9.037607e+000 1.305568e+001 1.471732e+001 1.898078e+001 2.116141e+001 2.270220e+001 1.863499e+001 2.040426e+001 1.693596e+001 2.352636e+000 1.792334e-001 4.211099e-001 7.093579e-001 1.168981e+000 1.637697e+000 2.076989e+000 2.127522e+000 2.862390e+000 3.240515e+000 2.362872e+000 2.538724e+000 2.224434e+000 4.969413e-002 3.941229e-002 8.992492e-002 1.493106e-001 2.481737e-001 3.519553e-001 4.431425e-001 4.509141e-001 6.138241e-001 7.074500e-001 4.973111e-001 5.290013e-001 4.863091e-001 1.077306e-002
<GCONST> 8.394878e+001
<STATE> 3
<NUMMIXES> 2
<MIXTURE> 1 5.020388e-001
<MEAN> 39
 -1.854644e+001 -8.450974e+000 -6.412593e+000 -8.048121e+000 2.477055e+000 -7.488905e+000 -1.756640e+000 6.405564e-001 2.878544e+000 -8.183644e-001 -1.133902e+000 -1.168442e+000 5.822730e+001 -4.056577e-002 -6.552571e-002 -1.009887e-001 -1.326591e-001 2.065117e-001 1.358138e-001 -4.383564e-002 -1.099493e-002 4.705605e-002 -1.009844e-001 8.524547e-002 5.519086e-002 1.790773e-001 5.281040e-001 2.985167e-001 7.374571e-002 -1.289693e-001 -3.238331e-001 -1.809680e-001 -3.078836e-001 -3.551881e-001 -3.783966e-001 -2.656547e-001 -2.130869e-001 -1.085377e-001 1.493327e-001
<VARIANCE> 39
 3.537649e+001 5.563544e+001 6.934225e+001 9.147261e+001 5.958356e+001 6.622681e+001 5.492756e+001 8.051475e+001 6.800214e+001 5.656785e+001 5.266470e+001 4.650026e+001 2.131989e+002 8.960420e-001 1.207211e+000 1.499896e+000 1.768272e+000 2.289876e+000 2.499650e+000 2.677185e+000 3.250155e+000 3.329270e+000 2.795248e+000 2.573694e+000 2.184261e+000 5.612600e-001 2.984629e-001 3.119580e-001 3.901978e-001 4.617142e-001 5.921447e-001 6.044501e-001 6.297742e-001 6.657643e-001 7.220523e-001 6.063954e-001 5.885440e-001 4.852648e-001 1.874981e-001
<GCONST> 1.247169e+002
<MIXTURE> 2 4.979579e-001
<MEAN> 39
 -1.064808e+001 -4.443160e+000 -6.534585e+000 -1.222043e+001 -6.366532e+000 -1.162772e+001 -6.304568e+000 -6.287020e+000 -4.000649e+000 -3.912500e+000 -1.266513e+000 -2.640140e+000 5.625552e+001 4.128089e-002 4.265741e-002 -2.463427e-001 -2.688993e-001 2.027368e-001 -1.342898e-001 -3.540143e-001 1.678005e-001 3.658614e-003 8.624535e-002 -8.611958e-002 -1.800714e-002 3.694565e-001 -8.792154e-002 -1.228073e-001 -4.801340e-002 6.221061e-002 2.410991e-001 1.540117e-001 1.167744e-001 2.501783e-001 2.111927e-001 8.139893e-002 9.969230e-003 1.749433e-002 -4.936520e-003
<VARIANCE> 39
 4.347533e+001 6.024842e+001 6.954737e+001 7.107691e+001 9.381624e+001 7.885256e+001 7.468739e+001 7.912044e+001 7.382788e+001 6.969593e+001 7.617303e+001 5.807730e+001 1.996362e+002 1.874247e+000 2.020286e+000 2.701867e+000 4.046122e+000 5.505991e+000 4.456189e+000 5.411588e+000 5.677688e+000 5.444533e+000 4.349212e+000 3.942402e+000 3.797748e+000 1.093823e+000 2.193874e-001 2.721587e-001 3.723115e-001 5.745320e-001 7.521548e-001 7.019655e-001 8.469598e-001 8.795278e-001 8.157583e-001 7.790704e-001 6.720972e-001 6.449991e-001 1.537373e-001
<GCONST> 1.357375e+002
<STATE> 4
<NUMMIXES> 2
<MIXTURE> 1 5.267327e-001
<MEAN> 39
 -1.153682e+001 -8.987897e+000 -1.238584e+001 -1.482564e+001 7.881988e+000 -8.320152e+000 -7.158950e+000 1.626341e+000 7.873365e-001 -6.849112e-001 -2.667691e+000 -5.502205e+000 5.367983e+001 6.860621e-001 1.690513e-001 -9.567854e-001 -1.109047e+000 9.508665e-001 2.458373e-001 -6.288782e-001 6.132576e-001 1.258689e-001 -1.115500e-001 2.203763e-002 -5.078321e-002 2.450298e+000 1.833534e-001 1.007022e-001 1.363085e-001 -3.244315e-002 -3.491677e-001 -5.756149e-002 -7.579539e-003 -2.684832e-001 -1.174891e-001 -2.415979e-001 6.734215e-003 1.252224e-001 2.803619e-001
<VARIANCE> 39
 6.828397e+001 8.481751e+001 1.366741e+002 1.731703e+002 2.154084e+002 1.540859e+002 1.632173e+002 1.659975e+002 1.297937e+002 1.000742e+002 7.647572e+001 1.108980e+002 1.385727e+002 6.478623e+000 4.849041e+000 7.792038e+000 9.446656e+000 1.271075e+001 8.220365e+000 1.020488e+001 9.819118e+000 7.167790e+000 7.147699e+000 5.272524e+000 6.056909e+000 6.843294e+000 8.034218e-001 7.769090e-001 1.279335e+000 1.668480e+000 1.919400e+000 1.468591e+000 1.759078e+000 1.773540e+000 1.345420e+000 1.222744e+000 1.051269e+000 1.078239e+000 1.195283e+000
<GCONST> 1.640674e+002
<MIXTURE> 2 4.732552e-001
<MEAN> 39
 -1.514478e+001 -6.954226e+000 -7.160863e+000 -1.355564e+001 4.539272e+000 -7.426955e+000 -5.291780e+000 -1.487421e+000 1.190096e+000 -3.078048e+000 -1.550592e+000 -2.454073e+000 6.244504e+001 2.648753e+000 1.408944e+000 4.155207e-001 -8.452326e-001 -1.892482e+000 -5.959574e-001 -1.232531e+000 -1.884105e+000 -1.504848e+000 -1.533550e+000 -1.055873e+000 -1.363694e-001 1.210682e+000 8.128474e-001 2.343649e-001 -1.141170e-001 -4.621487e-001 -6.828349e-001 -1.191025e-001 -2.721011e-001 -1.246078e-001 -2.375206e-001 -7.764877e-002 -4.236753e-001 -8.332986e-002 4.346904e-001
<VARIANCE> 39
 7.245174e+001 8.291434e+001 1.162291e+002 1.129815e+002 1.482045e+002 7.284996e+001 8.927607e+001 8.637817e+001 7.594861e+001 6.891738e+001 5.855394e+001 5.087276e+001 1.621418e+002 6.360195e+000 4.189634e+000 3.991026e+000 4.184947e+000 5.424673e+000 4.665119e+000 5.415511e+000 4.776769e+000 5.370786e+000 4.061332e+000 4.275226e+000 3.632563e+000 2.946831e+000 6.883375e-001 6.484225e-001 6.394682e-001 6.837054e-001 9.274572e-001 7.471508e-001 8.888863e-001 9.446619e-001 8.971558e-001 7.975556e-001 7.610817e-001 5.440053e-001 5.360243e-001
<GCONST> 1.452215e+002
<TRANSP> 5
 0.000000e+000 1.000000e+000 0.000000e+000 0.000000e+000 0.000000e+000
 0.000000e+000 8.907038e-001 1.092962e-001 0.000000e+000 0.000000e+000
 0.000000e+000 0.000000e+000 7.530785e-001 2.469216e-001 0.000000e+000
 0.000000e+000 0.000000e+000 0.000000e+000 7.618702e-001 2.381297e-001
 0.000000e+000 0.000000e+000 0.000000e+000 0.000000e+000 0.000000e+000
<ENDHMM>
~h "i"
<BEGINHMM>
<NUMSTATES> 5
<STATE> 2
<NUMMIXES> 2
<MIXTURE> 1 5.387269e-001
<MEAN> 39
 -4.027783e+000 1.035733e+000 9.782273e+000 -2.271436e+001 -1.853061e+001 -1.074760e+001 -9.153781e+000 -1.463475e+001 -4.833046e+000 1.328141e-001 -8.348782e+000 -2.316982e+000 7.344384e+001 -9.371312e-001 1.650219e-001 2.290558e+000 -3.227456e+000 -4.836963e-001 1.322195e+000 -6.604370e-001 -4.009875e-001 1.926697e-001 8.284366e-001 -1.134095e+000 1.066611e+000 1.246275e+000 -1.872595e-001 1.902465e-001 -6.482990e-001 3.616912e-001 7.293677e-001 1.839730e-001 1.950143e-001 3.071478e-001 1.984579e-001 -1.666981e-001 1.559775e-001 8.906867e-002 -5.765885e-001
<VARIANCE> 39
 6.245264e+001 5.416235e+001 9.641304e+001 1.443965e+002 7.689830e+001 9.824790e+001 9.074431e+001 8.361253e+001 7.363217e+001 7.294889e+001 8.306270e+001 5.605560e+001 2.297132e+001 2.812469e+000 3.062802e+000 6.633058e+000 8.448295e+000 5.827584e+000 5.946246e+000 6.566796e+000 6.650739e+000 4.978885e+000 5.319520e+000 5.463281e+000 4.892175e+000 2.058583e+000 5.239984e-001 5.465280e-001 1.222174e+000 1.691615e+000 1.303589e+000 1.175824e+000 1.183168e+000 1.232872e+000 9.523766e-001 9.231972e-001 1.030377e+000 7.675644e-001 5.629225e-001
<GCONST> 1.475065e+002
<MIXTURE> 2 4.612432e-001
<MEAN> 39
 -9.509090e+000 8.508945e+000 9.446247e+000 -2.028495e+001 -1.545295e+001 -1.227663e+001 -1.410151e+001 -1.463312e+001 4.976546e-001 -6.224343e+000 -5.163251e+000 -2.634713e+000 6.597808e+001 2.316237e+000 1.334913e+000 2.173406e+000 -2.999387e+000 -3.486500e+000 -1.190708e-001 -2.323346e+000 -1.941557e+000 7.057696e-002 2.323470e-002 -2.100406e+000 3.881757e-001 2.543396e+000 -6.967939e-001 -8.059143e-001 -6.070262e-001 1.525197e-001 8.006206e-001 6.216314e-001 9.389179e-001 6.812453e-001 1.077629e-001 4.428606e-001 1.718371e-001 1.826147e-001 -2.866711e-001
<VARIANCE> 39
 4.207707e+001 4.836785e+001 5.504390e+001 1.185082e+002 9.078273e+001 5.193481e+001 6.381536e+001 5.420795e+001 5.709893e+001 5.456916e+001 4.824394e+001 3.554309e+001 9.018325e+001 5.489051e+000 5.437889e+000 6.342896e+000 7.339876e+000 6.992249e+000 6.383047e+000 7.602873e+000 5.935840e+000 6.342514e+000 5.209371e+000 6.264564e+000 4.449759e+000 5.830957e+000 7.207280e-001 6.852423e-001 7.143858e-001 1.251774e+000 1.533039e+000 8.754131e-001 1.015986e+000 9.645669e-001 9.841611e-001 7.880552e-001 8.524942e-001 6.814806e-001 7.550128e-001
<GCONST> 1.464910e+002
<STATE> 3
<NUMMIXES> 2
<MIXTURE> 1 4.437534e-001
<MEAN> 39
 -3.885371e+000 6.600721e+000 1.673680e+001 -3.911035e+001 -1.620478e+001 -4.697531e+000 -9.655637e+000 -1.781177e+001 -3.092350e+000 1.568691e+000 -1.675201e+001 4.783394e+000 7.452690e+001 3.072260e-001 9.657364e-002 -6.460507e-001 3.064862e-001 5.184326e-001 4.163175e-001 2.231826e-001 2.727432e-002 -6.609162e-003 -2.288600e-001 2.769801e-001 -4.559075e-002 -4.198691e-001 8.516150e-002 -9.234408e-002 -6.106786e-001 1.033716e+000 2.031502e-001 -2.647139e-001 1.695736e-001 1.333916e-001 3.949571e-003 -3.155832e-001 6.032312e-001 -4.944351e-001 -3.265654e-001
<VARIANCE> 39
 2.719370e+001 4.636019e+001 4.957838e+001 8.238193e+001 6.737023e+001 8.350871e+001 6.896648e+001 5.949874e+001 5.550238e+001 5.430721e+001 5.337222e+001 4.129562e+001 1.240990e+001 1.316501e+000 2.261355e+000 2.551307e+000 5.459561e+000 3.215033e+000 3.508028e+000 3.783624e+000 3.395274e+000 2.939161e+000 2.968678e+000 3.464245e+000 3.240003e+000 9.278647e-001 3.009566e-001 3.223154e-001 5.419375e-001 7.612705e-001 7.120564e-001 7.108420e-001 7.921516e-001 7.947440e-001 5.867373e-001 5.758705e-001 6.086395e-001 5.051287e-001 2.002687e-001
<GCONST> 1.272896e+002
<MIXTURE> 2 5.562152e-001
<MEAN> 39
 -1.032631e+001 4.689367e+000 7.464312e+000 -2.140566e+001 -1.574490e+001 -9.498577e+000 -1.622200e+001 -1.179011e+001 -4.868148e-001 -3.522329e+000 -6.486149e+000 -3.221067e+000 7.262597e+001 8.945195e-002 8.736268e-002 -2.223162e-001 1.111250e-001 3.011914e-001 1.898466e-001 7.849012e-002 3.047116e-002 -5.330960e-003 -7.920486e-002 -1.403056e-001 -2.110624e-002 -1.771665e-001 9.872912e-002 -4.887793e-002 -2.127052e-001 5.537990e-001 1.683033e-001 -1.859118e-001 3.434563e-001 5.181529e-002 -1.897973e-001 -2.620544e-002 6.690663e-002 -4.336729e-002 -3.048018e-001
<VARIANCE> 39
 2.093339e+001 3.752098e+001 4.407882e+001 9.477831e+001 5.955818e+001 5.744377e+001 8.668102e+001 4.668783e+001 6.107239e+001 8.027646e+001 6.694067e+001 4.408739e+001 3.021177e+001 5.653253e-001 1.068218e+000 1.214941e+000 2.318591e+000 2.032054e+000 2.062725e+000 2.567105e+000 2.089190e+000 2.345296e+000 2.163268e+000 1.992945e+000 1.847539e+000 5.354941e-001 1.486234e-001 1.837730e-001 2.456812e-001 3.864234e-001 5.246721e-001 4.468449e-001 5.372980e-001 4.615125e-001 4.720179e-001 4.480675e-001 4.534393e-001 3.727803e-001 1.142651e-001
<GCONST> 1.146667e+002
<STATE> 4
<NUMMIXES> 2
<MIXTURE> 1 4.983438e-001
<MEAN> 39
 -5.104182e+000 8.607798e+000 9.332623e+000 -1.802075e+001 -1.369140e+001 -7.472026e+000 -1.132859e+001 -1.274349e+001 -3.996852e-001 -4.721212e+000 -6.128218e+000 -1.847867e+000 6.346600e+001 -2.213704e-001 3.562793e-001 -9.272851e-001 2.246017e+000 1.168506e+000 -2.935581e-002 6.225960e-001 5.627825e-001 7.163896e-002 -5.472772e-001 7.677860e-001 -1.989836e-001 -1.809936e+000 -2.860345e-001 -2.317208e-001 -9.795862e-002 -2.807479e-004 2.030248e-001 6.476308e-002 1.340081e-001 7.504290e-002 -4.136582e-002 1.230552e-001 5.721057e-002 3.098890e-002 3.843912e-002
<VARIANCE> 39
 4.637749e+001 4.164399e+001 5.083686e+001 1.487070e+002 6.270890e+001 1.144658e+002 6.257901e+001 5.763511e+001 4.995166e+001 5.932006e+001 5.083696e+001 4.317080e+001 5.376909e+001 1.703928e+000 2.039655e+000 2.696445e+000 3.189253e+000 3.944592e+000 4.076568e+000 4.619358e+000 3.718364e+000 3.715042e+000 3.446745e+000 3.807584e+000 3.097390e+000 1.870350e+000 2.164723e-001 3.262371e-001 3.331744e-001 5.096691e-001 5.879475e-001 6.606299e-001 6.972814e-001 6.338793e-001 5.915626e-001 5.673544e-001 5.542221e-001 4.990850e-001 2.480345e-001
<GCONST> 1.296209e+002
<MIXTURE> 2 5.016071e-001
<MEAN> 39
 -6.551493e+000 3.769555e+000 5.607964e+000 -2.019348e+001 -1.158646e+001 -7.612638e+000 -8.926517e+000 -1.445126e+001 -2.694889e+000 -5.719108e+000 -6.391022e+000 -3.578267e+000 6.774339e+001 2.197360e-001 -8.873991e-001 -1.926784e+000 2.762230e+000 8.212785e-001 -1.065468e+000 9.166917e-001 3.941145e-001 -4.658879e-001 -2.053989e-001 8.256700e-001 -7.985409e-001 -9.014528e-001 -1.364346e-002 5.896900e-003 -3.694138e-002 -8.216044e-002 -1.242961e-002 -6.787749e-002 -1.469571e-001 7.353724e-002 1.038290e-001 1.267900e-001 -3.278893e-002 1.685151e-001 -8.147453e-002
<VARIANCE> 39
 8.138176e+001 6.950504e+001 6.515279e+001 1.168378e+002 9.635274e+001 1.031535e+002 8.623003e+001 8.225896e+001 7.603072e+001 8.899710e+001 6.104872e+001 5.209990e+001 7.960987e+001 2.753026e+000 2.202537e+000 3.811569e+000 5.294645e+000 4.618400e+000 4.962353e+000 5.600278e+000 5.302968e+000 5.059890e+000 4.592064e+000 4.622992e+000 3.959486e+000 9.561938e-001 1.808452e-001 3.803426e-001 5.165336e-001 8.166797e-001 8.223622e-001 8.579919e-001 8.791228e-001 8.891307e-001 9.050745e-001 8.000426e-001 7.597278e-001 6.672815e-001 1.394913e-001
<GCONST> 1.388193e+002
<TRANSP> 5
 0.000000e+000 1.000000e+000 0.000000e+000 0.000000e+000 0.000000e+000
 0.000000e+000 6.275172e-001 3.724829e-001 0.000000e+000 0.000000e+000
 0.000000e+000 0.000000e+000 7.878356e-001 2.121644e-001 0.000000e+000
 0.000000e+000 0.000000e+000 0.000000e+000 7.239629e-001 2.760371e-001
 0.000000e+000 0.000000e+000 0.000000e+000 0.000000e+000 0.000000e+000
<ENDHMM>
~h "j"
<BEGINHMM>
<NUMSTATES> 5
<STATE> 2
<NUMMIXES> 2
<MIXTURE> 1 4.985990e-001
<MEAN> 39
 -1.368038e+001 -2.613593e+000 -5.866074e+000 -1.242256e+001 -2.300620e+000 -8.285467e+000 -4.704641e+000 1.852447e+000 -1.752228e+000 -2.441600e+000 -7.800778e-001 -5.030708e+000 6.596257e+001 -1.377727e+000 1.084601e-001 -8.028928e-002 -3.551953e-001 -3.744293e-001 8.965206e-001 1.519098e+000 -1.953102e-001 5.604543e-001 1.386662e+000 2.864845e-001 -1.341196e-001 -3.579113e-001 3.091485e-001 -5.658406e-002 4.734915e-002 -2.890203e-001 -1.969634e-001 5.023010e-002 -1.310788e-001 -2.746928e-001 -1.715224e-001 -2.160312e-001 -3.140577e-002 1.840449e-001 1.341959e-001
<VARIANCE> 39
 3.640639e+001 3.780421e+001 1.219759e+002 7.616427e+001 1.025330e+002 6.920746e+001 8.424597e+001 9.514545e+001 6.207452e+001 7.330183e+001 3.038158e+001 5.086262e+001 6.759824e+001 3.244736e+000 1.886986e+000 2.736578e+000 3.009466e+000 4.275105e+000 3.866395e+000 4.639157e+000 6.546152e+000 5.213390e+000 4.803762e+000 3.321249e+000 2.979612e+000 1.119285e+000 2.385902e-001 3.114200e-001 4.648576e-001 5.048470e-001 6.829745e-001 6.660952e-001 7.849424e-001 9.277128e-001 8.770519e-001 8.339683e-001 5.355238e-001 5.777735e-001 1.407439e-001
<GCONST> 1.330409e+002
<MIXTURE> 2 5.014011e-001
<MEAN> 39
 -1.364240e+001 -6.987318e+000 -9.374102e+000 -1.306113e+001 -6.819182e+000 -8.997779e+000 -5.730748e+000 -6.686202e+000 -2.954237e+000 -1.516147e+000 5.146506e+000 2.902398e-001 5.474000e+001 -2.826093e-001 -1.837394e-001 6.322491e-002 1.267512e-001 7.860369e-001 2.746674e-001 -6.064608e-001 -2.700960e-001 3.257916e-001 5.595137e-001 8.918166e-003 7.265516e-002 -4.669888e-001 1.254219e-001 1.084098e-001 3.454360e-002 8.746651e-002 7.688551e-002 -7.000653e-002 -4.814673e-002 1.552208e-001 8.420125e-002 -1.471569e-001 -3.362385e-001 -1.703295e-001 -2.488423e-002
<VARIANCE> 39
 4.633279e+001 4.931045e+001 4.050951e+001 4.932129e+001 1.003134e+002 9.512437e+001 1.365604e+002 5.058940e+001 4.718970e+001 6.781950e+001 5.735980e+001 4.939939e+001 1.792603e+002 7.732852e-001 1.994434e+000 1.604710e+000 1.895999e+000 2.737810e+000 3.210825e+000 3.514117e+000 4.059379e+000 3.997438e+000 4.955174e+000 3.026198e+000 3.333353e+000 1.524715e+000 9.998766e-002 1.863191e-001 2.639119e-001 2.637684e-001 4.364012e-001 5.887144e-001 6.357390e-001 6.616538e-001 7.194002e-001 9.609315e-001 4.716186e-001 5.588428e-001 1.209984e-001
<GCONST> 1.256334e+002
<STATE> 3
<NUMMIXES> 2
<MIXTURE> 1 3.928036e-001
<MEAN> 39
 -1.503012e+001 1.616420e+000 1.094740e+000 -2.361511e+001 -8.239537e+000 -3.861899e+000 2.561937e-001 -6.866838e+000 -1.300958e+000 1.992161e+000 -4.973478e+000 -7.251064e+000 6.233128e+001 -6.777038e-001 8.943688e-002 -1.278006e-001 -7.017556e-001 4.009648e-001 2.668841e-001 8.012348e-002 -4.473493e-001 5.880001e-001 -5.075047e-001 -6.119735e-001 2.758697e-001 -6.711783e-002 8.524378e-001 -8.927596e-002 -1.347095e-001 9.858365e-002 -1.769726e-002 -1.825216e-001 -3.702598e-001 4.093519e-002 -2.161494e-001 -3.641709e-001 1.502937e-001 3.871719e-001 1.589637e-001
<VARIANCE> 39
 3.921792e+001 7.645538e+001 1.205740e+002 1.567788e+002 8.459708e+001 5.680843e+001 9.306763e+001 8.410198e+001 7.714578e+001 4.959104e+001 6.376971e+001 4.002953e+001 1.541947e+002 4.983232e+000 2.067554e+000 2.711611e+000 4.484864e+000 4.744355e+000 3.755372e+000 4.298598e+000 4.376355e+000 5.739045e+000 6.632561e+000 3.388711e+000 2.342297e+000 2.033016e+000 7.618673e-001 5.718633e-001 7.039000e-001 1.006065e+000 8.867640e-001 7.225586e-001 1.000314e+000 1.106618e+000 7.932738e-001 1.239595e+000 5.580718e-001 4.372819e-001 4.539552e-001
<GCONST> 1.414350e+002
<MIXTURE> 2 6.071969e-001
<MEAN> 39
 -1.730017e+001 -4.264536e+000 -6.147827e+000 -1.276037e+001 -2.063425e+000 -5.616461e+000 -7.027122e-001 3.298925e-001 -6.499001e-001 7.595627e-001 -5.820228e-001 -2.542379e+000 6.240882e+001 4.642538e-001 7.575527e-001 1.055036e+000 -1.374540e-001 -7.017705e-001 5.826863e-002 -3.645853e-001 -1.128914e+000 -2.957299e-001 -6.733402e-001 -7.525450e-001 8.990898e-002 -2.459963e-001 1.107302e+000 5.982987e-001 3.845716e-001 -4.721913e-001 -8.392120e-001 -7.063980e-001 -8.576471e-001 -7.849282e-001 -4.424816e-001 -5.890000e-001 -3.566132e-001 -8.956555e-002 4.404285e-001
<VARIANCE> 39
 4.383139e+001 3.234916e+001 1.194088e+002 6.912707e+001 8.608099e+001 5.870242e+001 7.100321e+001 1.060233e+002 6.801343e+001 6.400878e+001 3.847160e+001 6.223684e+001 1.044582e+002 2.128402e+000 1.353804e+000 2.326588e+000 1.859285e+000 3.245955e+000 3.939024e+000 3.539288e+000 3.754367e+000 3.560585e+000 2.775426e+000 2.072476e+000 3.270391e+000 7.200044e-001 3.023240e-001 2.830161e-001 4.056594e-001 4.575176e-001 7.264181e-001 5.738004e-001 9.002143e-001 1.104100e+000 1.090125e+000 7.630950e-001 5.783311e-001 6.368757e-001 2.491813e-001
<GCONST> 1.301528e+002
<STATE> 4
<NUMMIXES> 2
<MIXTURE> 1 4.744121e-001
<MEAN> 39
 -7.387770e+000 -6.066684e+000 -2.092970e+001 -2.396045e+001 9.198415e+000 -2.320446e+000 -2.216809e+000 -8.618683e-001 -8.320289e+000 1.953819e-001 2.155169e+000 -1.951181e+000 5.519669e+001 8.852077e-001 5.770081e-001 -7.429182e-001 -1.094546e+000 1.249596e-001 -1.553725e-001 3.527088e-001 5.229310e-001 -2.005255e-001 7.552920e-002 -4.265167e-002 -1.752041e-001 1.600763e+000 2.744330e-001 2.443806e-001 4.573328e-001 2.887369e-001 -4.782830e-001 -3.068946e-001 -2.860786e-001 -3.483070e-001 1.706519e-001 -1.608478e-001 -2.078117e-001 -1.131668e-001 1.744340e-001
<VARIANCE> 39
 3.196539e+001 9.341771e+001 8.437475e+001 1.204424e+002 1.512426e+002 2.044232e+002 9.742155e+001 1.663754e+002 1.343636e+002 8.801192e+001 1.063396e+002 6.082512e+001 1.588993e+002 4.123359e+000 4.494315e+000 7.956659e+000 6.984838e+000 6.165080e+000 6.781012e+000 8.899124e+000 6.046339e+000 5.715232e+000 5.971035e+000 3.641296e+000 4.153140e+000 4.014262e+000 7.717814e-001 5.820818e-001 9.671447e-001 9.935045e-001 9.706898e-001 1.231903e+000 1.552988e+000 9.530758e-001 9.774292e-001 1.134847e+000 7.537044e-001 8.417213e-001 6.392869e-001
<GCONST> 1.533825e+002
<MIXTURE> 2 5.255871e-001
<MEAN> 39
 -1.274760e+001 -5.811380e-001 -3.285938e+000 -1.523372e+001 -2.296134e+000 -6.487642e+000 -3.910512e+000 -3.878644e+000 -2.847523e+000 -2.083051e+000 -2.903924e+000 -3.050576e+000 6.239544e+001 3.476510e+000 2.034499e+000 1.321331e+000 -1.458457e+000 -2.947622e+000 -1.529523e+000 -2.497893e+000 -2.829196e+000 -1.294777e+000 -1.583606e+000 -1.392739e+000 -1.052656e-002 1.519658e+000 6.134794e-001 -9.544139e-002 -3.439065e-001 -6.528890e-001 -7.029553e-001 -1.952613e-001 -3.265758e-001 -8.064802e-002 -4.515136e-002 9.686883e-002 -8.610538e-002 1.491239e-002 6.685076e-001
<VARIANCE> 39
 6.646308e+001 4.348118e+001 1.420243e+002 9.776052e+001 1.091965e+002 5.950002e+001 7.265358e+001 9.023008e+001 6.183879e+001 4.991509e+001 3.717602e+001 4.393872e+001 1.003057e+002 3.895559e+000 3.481347e+000 3.716994e+000 4.387872e+000 5.821225e+000 4.342767e+000 5.691174e+000 5.531266e+000 6.046410e+000 3.968978e+000 3.009897e+000 4.772247e+000 1.717423e+000 5.914325e-001 5.511926e-001 5.445979e-001 6.653166e-001 1.136382e+000 6.046672e-001 1.055456e+000 9.523274e-001 7.933661e-001 6.741799e-001 5.256572e-001 7.415352e-001 3.846437e-001
<GCONST> 1.402258e+002
<TRANSP> 5
 0.000000e+000 1.000000e+000 0.000000e+000 0.000000e+000 0.000000e+000
 0.000000e+000 7.349373e-001 2.650627e-001 0.000000e+000 0.000000e+000
 0.000000e+000 0.000000e+000 4.947771e-001 5.052229e-001 0.000000e+000
 0.000000e+000 0.000000e+000 0.000000e+000 6.441445e-001 3.558555e-001
 0.000000e+000 0.000000e+000 0.000000e+000 0.000000e+000 0.000000e+000
<ENDHMM>
~h "k"
<BEGINHMM>
<NUMSTATES> 5
<STATE> 2
<NUMMIXES> 2
<MIXTURE> 1 3.736002e-001
<MEAN> 39
 -1.077420e+001 2.784765e+000 -4.097411e-001 -1.555932e+000 -3.629907e+000 -5.336882e+000 -3.711464e+000 -3.206024e+000 -3.721878e-001 -6.531739e-001 -3.848815e-002 -4.915660e-001 5.311526e+001 -7.432035e-001 -6.512216e-001 -6.110060e-001 1.646520e-001 1.106930e+000 9.879481e-001 9.142674e-001 8.644615e-001 2.077728e-001 3.107873e-001 5.738082e-001 3.150517e-001 -4.530287e-001 1.043434e-001 -2.290046e-001 -3.780568e-001 -7.171232e-001 -2.254346e-001 -3.338160e-001 -2.016924e-001 2.475286e-002 -1.838280e-002 7.235523e-002 -3.013489e-001 -4.001203e-002 7.274011e-001
<VARIANCE> 39
 1.874699e+001 2.658533e+001 1.643414e+001 2.038422e+001 2.552955e+001 2.910888e+001 3.059513e+001 3.630147e+001 2.422437e+001 2.739150e+001 2.467482e+001 2.071470e+001 3.953920e+001 1.463512e+000 1.731374e+000 2.994677e+000 3.792253e+000 2.915021e+000 3.044770e+000 2.744359e+000 2.975435e+000 2.579332e+000 2.672733e+000 2.749857e+000 2.148559e+000 2.182189e+000 3.057021e-001 3.324481e-001 5.014010e-001 5.383923e-001 5.217081e-001 6.616399e-001 5.732625e-001 5.752834e-001 5.380737e-001 5.389116e-001 5.310938e-001 4.627589e-001 3.246714e-001
<GCONST> 1.163327e+002
<MIXTURE> 2 6.263739e-001
<MEAN> 39
 -1.277849e+001 -2.290573e+000 -5.038512e+000 -1.175441e+001 -7.311848e+000 -1.046203e+001 -2.905851e+000 -6.303404e+000 -3.841065e-001 -4.506520e+000 -1.644095e+000 -3.288901e+000 5.640863e+001 -2.947369e-001 -4.858881e-001 -2.543552e-001 2.670348e-001 1.626820e-001 1.312385e-001 2.861295e-001 3.662511e-001 1.494500e-001 2.637948e-001 4.142134e-001 1.774302e-001 -1.166371e+000 2.323582e-001 9.662759e-003 -4.965004e-002 -2.599460e-001 1.166509e-001 1.336773e-001 -1.173402e-001 6.355563e-002 -1.033538e-001 -3.675565e-002 -6.337787e-002 1.687657e-002 3.371160e-001
<VARIANCE> 39
 7.173698e+001 7.279134e+001 5.397555e+001 5.866011e+001 6.841204e+001 6.053237e+001 6.226828e+001 6.985750e+001 5.956606e+001 5.986680e+001 5.855490e+001 4.341558e+001 1.148866e+002 2.284007e+000 2.438151e+000 2.932631e+000 3.927966e+000 4.350168e+000 4.652020e+000 4.769892e+000 4.769922e+000 4.709446e+000 4.668259e+000 4.686795e+000 3.768847e+000 3.444088e+000 4.046425e-001 5.462937e-001 7.611791e-001 9.710699e-001 9.983677e-001 1.008725e+000 1.068543e+000 1.101326e+000 1.062021e+000 9.621352e-001 9.251390e-001 7.853548e-001 5.360598e-001
<GCONST> 1.406975e+002
<STATE> 3
<NUMMIXES> 2
<MIXTURE> 1 4.859454e-001
<MEAN> 39
 -9.720071e+000 -1.957916e+000 -1.726343e+000 -1.131742e+001 -4.273000e+000 -1.116520e+001 -3.065478e+000 -7.383221e+000 -1.558545e+000 -4.760717e+000 -3.511371e+000 -3.282962e+000 5.311010e+001 -5.113283e-002 -1.608810e+000 -1.500374e+000 -1.410877e+000 1.831966e+000 -7.706962e-002 -5.934508e-001 1.326164e+000 -1.534090e-001 5.846594e-001 2.276084e-001 2.426433e-001 2.243533e+000 4.292637e-001 -5.090871e-002 -5.134616e-001 -9.251160e-001 5.813432e-002 -4.409058e-002 -3.496280e-001 2.698485e-001 -1.505954e-001 1.162060e-001 -2.747896e-002 3.297937e-002 1.200632e+000
<VARIANCE> 39
 6.998035e+001 1.125094e+002 8.960979e+001 1.224942e+002 1.274454e+002 1.105048e+002 1.032644e+002 9.743087e+001 7.700849e+001 7.310303e+001 6.853816e+001 5.246289e+001 1.106694e+002 6.960078e+000 8.677280e+000 1.300423e+001 1.465829e+001 1.203587e+001 1.331288e+001 1.204969e+001 1.216543e+001 9.564707e+000 7.425907e+000 6.876258e+000 6.093893e+000 1.249826e+001 9.299110e-001 1.593081e+000 1.559899e+000 2.247571e+000 2.180381e+000 2.086554e+000 1.833883e+000 1.746367e+000 1.550957e+000 1.300889e+000 1.189961e+000 1.062010e+000 1.585690e+000
<GCONST> 1.659139e+002
<MIXTURE> 2 5.140307e-001
<MEAN> 39
 -1.238656e+001 -3.321824e+000 -6.062127e+000 -8.561548e+000 -3.904423e+000 -7.045807e+000 -1.023079e+000 -8.875844e-001 1.185563e+000 -1.028867e+000 1.461511e-002 -9.041609e-001 5.514333e+001 1.151406e+000 -3.310889e-001 -2.184868e+000 -2.722791e+000 -3.457756e-001 -3.888419e-001 -2.835172e-001 7.609898e-001 -7.875997e-001 9.056010e-002 -2.903393e-001 5.894554e-002 2.124371e+000 6.568151e-001 5.318329e-001 5.891382e-002 -4.417810e-001 -4.380707e-001 -3.370005e-001 -5.987790e-001 -6.172174e-001 -5.917478e-001 -3.200442e-001 -3.190407e-001 -1.863104e-001 7.143628e-001
<VARIANCE> 39
 4.432714e+001 5.545993e+001 4.722918e+001 7.156581e+001 6.198354e+001 6.560220e+001 4.622357e+001 5.812968e+001 4.365549e+001 4.874220e+001 4.072400e+001 3.191701e+001 1.004742e+002 4.587110e+000 4.954702e+000 8.880736e+000 8.423992e+000 8.322709e+000 9.742103e+000 7.209353e+000 7.452082e+000 7.379736e+000 5.149463e+000 5.209964e+000 4.348009e+000 4.561023e+000 4.247313e-001 5.161479e-001 7.517647e-001 9.368314e-001 9.939659e-001 1.087837e+000 9.170905e-001 9.328520e-001 8.358425e-001 7.495506e-001 7.853466e-001 5.821007e-001 6.584573e-001
<GCONST> 1.437384e+002
<STATE> 4
<NUMMIXES> 2
<MIXTURE> 1 4.040812e-001
<MEAN> 39
 -1.591977e+000 -1.572008e+000 -2.075498e+001 -2.523907e+001 1.831825e-001 -2.364167e+000 -5.641025e+000 -2.447053e+000 -9.988464e+000 5.887620e-001 -4.511063e-001 -3.185582e+000 6.238127e+001 1.918963e+000 8.195255e-001 -7.623095e-001 -1.344143e+000 8.092200e-002 -8.264408e-002 -1.603013e+000 -7.473795e-001 -1.826114e+000 2.456900e-001 3.665227e-001 -2.195313e-001 2.124947e+000 1.289200e-001 7.558781e-001 1.851845e+000 1.272907e+000 -1.042350e+000 -9.167456e-001 -2.994666e-001 -9.833273e-001 6.855346e-001 -5.654764e-001 -1.782337e-001 9.914011e-002 -3.196455e-001
<VARIANCE> 39
 5.323530e+001 6.563796e+001 7.627191e+001 1.291570e+002 1.078944e+002 6.859839e+001 1.071545e+002 9.186178e+001 8.011034e+001 7.426173e+001 5.255030e+001 6.151511e+001 3.680924e+001 3.190026e+000 5.142096e+000 1.326876e+001 1.172368e+001 8.849736e+000 7.605583e+000 6.996635e+000 9.072639e+000 7.201161e+000 5.920386e+000 4.436471e+000 4.454544e+000 4.190167e+000 5.297303e-001 8.278665e-001 1.316422e+000 1.784487e+000 1.837875e+000 1.361740e+000 1.922275e+000 1.647623e+000 1.564733e+000 1.209794e+000 9.481763e-001 1.145910e+000 6.145359e-001
<GCONST> 1.542211e+002
<MIXTURE> 2 5.959041e-001
<MEAN> 39
 -1.116389e+001 -5.326437e+000 -6.665979e+000 -1.418274e+001 -3.198614e+000 -1.405815e+001 -5.507447e+000 2.930430e-001 1.923038e-001 -2.784790e+000 -2.870920e+000 -1.339114e+000 6.559216e+001 1.957876e+000 1.336807e+000 2.484200e-001 -1.770221e+000 -1.552716e+000 -1.223457e+000 -1.316364e+000 -9.635356e-001 -9.093046e-001 -1.239599e+000 -1.406893e+000 -3.481156e-001 2.743573e+000 4.168649e-001 3.780263e-001 3.950354e-001 5.360313e-003 -4.597434e-001 5.704728e-001 -8.978717e-004 -6.877560e-001 -2.427223e-001 -1.206069e-001 -2.131919e-001 -3.734954e-002 -3.248479e-001
<VARIANCE> 39
 6.057566e+001 8.388813e+001 8.550052e+001 1.121076e+002 1.104651e+002 1.146605e+002 1.029178e+002 1.073096e+002 6.566103e+001 6.754482e+001 6.457410e+001 5.072900e+001 1.022379e+002 4.691642e+000 6.733495e+000 5.959882e+000 7.074419e+000 7.349450e+000 7.309998e+000 8.034011e+000 8.236714e+000 5.903738e+000 4.683971e+000 6.139782e+000 4.053497e+000 8.583890e+000 8.514519e-001 1.220962e+000 9.456100e-001 1.398440e+000 1.742536e+000 1.625549e+000 1.758602e+000 1.542215e+000 1.163891e+000 1.029737e+000 1.163031e+000 8.325253e-001 1.244020e+000
<GCONST> 1.560327e+002
<TRANSP> 5
 0.000000e+000 1.000000e+000 0.000000e+000 0.000000e+000 0.000000e+000
 0.000000e+000 7.447805e-001 2.552195e-001 0.000000e+000 0.000000e+000
 0.000000e+000 0.000000e+000 5.277550e-001 4.722451e-001 0.000000e+000
 0.000000e+000 0.000000e+000 0.000000e+000 5.459374e-001 4.540626e-001
 0.000000e+000 0.000000e+000 0.000000e+000 0.000000e+000 0.000000e+000
<ENDHMM>
~h "l"
<BEGINHMM>
<NUMSTATES> 5
<STATE> 2
<NUMMIXES> 2
<MIXTURE> 1 4.705658e-001
<MEAN> 39
 -4.644500e-001 -5.504838e+000 4.638414e-001 -1.173478e+001 -1.182154e+001 -1.890882e+001 -1.267003e+001 -7.864217e+000 -7.648044e-001 -6.556973e+000 -5.297520e+000 -1.030194e+000 6.940441e+001 3.502709e-001 8.485150e-001 6.036127e-001 1.154376e+000 -7.902042e-002 -1.319097e+000 -1.654762e-001 2.978382e-001 -8.950604e-002 -1.222524e+000 4.322330e-001 1.303947e+000 -5.246662e-001 -1.162289e-001 1.178488e-001 -1.530081e-001 -5.802509e-001 2.642052e-001 4.637629e-001 6.099137e-002 2.819349e-001 -2.168959e-002 2.677430e-001 8.945660e-002 8.747085e-002 -9.223003e-003
<VARIANCE> 39
 5.662244e+001 5.224747e+001 5.509134e+001 8.255496e+001 6.787300e+001 9.194205e+001 1.013274e+002 7.899127e+001 8.626057e+001 8.251371e+001 6.995629e+001 6.369059e+001 6.855228e+001 1.396683e+000 2.385861e+000 2.938973e+000 4.658911e+000 4.549247e+000 5.756141e+000 7.131389e+000 5.188259e+000 5.582817e+000 5.412764e+000 5.206191e+000 4.191656e+000 1.779741e+000 2.682108e-001 4.475882e-001 4.450312e-001 8.111495e-001 8.897466e-001 9.338235e-001 1.098570e+000 9.876444e-001 9.682453e-001 1.061769e+000 8.811743e-001 7.750815e-001 2.905393e-001
<GCONST> 1.402508e+002
<MIXTURE> 2 5.294335e-001
<MEAN> 39
 -7.303674e+000 -1.015074e+000 -3.223878e-001 -1.157563e+001 -1.364459e+001 -1.761729e+001 -1.152123e+001 -7.664834e+000 -3.322041e+000 -8.482325e+000 4.955368e-002 -8.380089e-001 7.254308e+001 -2.985470e-001 5.618049e-001 4.428218e-001 3.703162e-001 1.877442e-001 -4.427915e-001 4.678271e-002 2.762285e-001 -3.573386e-001 -3.283379e-001 8.919958e-002 4.513770e-001 -3.558314e-001 -6.721921e-003 -9.799759e-002 -1.324159e-001 -2.473749e-001 8.187664e-002 3.070687e-001 8.937517e-003 -1.507820e-002 1.607882e-001 1.459567e-001 -2.312816e-001 -6.426501e-002 7.214621e-002
<VARIANCE> 39
 2.807656e+001 3.069814e+001 4.329557e+001 5.931071e+001 3.694933e+001 4.778473e+001 5.406928e+001 4.770211e+001 5.537297e+001 4.736343e+001 3.066864e+001 5.225678e+001 3.627990e+001 4.643644e-001 9.083532e-001 1.391098e+000 1.509750e+000 1.620868e+000 2.512116e+000 2.234267e+000 2.644127e+000 2.803642e+000 2.356800e+000 2.237623e+000 2.469223e+000 2.758225e-001 6.157171e-002 1.306474e-001 2.199465e-001 3.353008e-001 2.617963e-001 4.886768e-001 4.291638e-001 5.230587e-001 5.277143e-001 4.651045e-001 4.272203e-001 3.548650e-001 4.788326e-002
<GCONST> 1.085197e+002
<STATE> 3
<NUMMIXES> 2
<MIXTURE> 1 4.252578e-001
<MEAN> 39
 -5.444232e+000 5.210955e-001 -1.545829e-001 -1.261065e+001 -9.763176e+000 -1.876567e+001 -1.100150e+001 -6.798022e+000 1.958343e+000 -9.466612e+000 -1.177449e+000 7.756221e-002 6.259859e+001 2.938828e-001 2.478959e-001 -1.891731e-001 -2.096619e-001 6.812917e-003 4.147119e-002 9.040257e-002 9.421736e-001 2.087188e-001 -5.765083e-001 1.413052e-001 5.035767e-001 1.822387e-002 -2.494644e-002 -2.596933e-001 -1.965947e-001 -3.301917e-001 5.845971e-002 2.407242e-001 2.296283e-001 1.731637e-001 -1.811232e-001 3.379760e-001 -1.776857e-001 -2.878823e-001 2.197497e-001
<VARIANCE> 39
 9.278297e+001 8.197836e+001 5.861180e+001 8.924911e+001 6.429765e+001 8.310526e+001 9.542100e+001 6.980389e+001 6.654618e+001 9.939508e+001 6.627873e+001 6.921381e+001 1.251717e+002 2.155261e+000 3.748711e+000 3.279904e+000 4.637391e+000 4.918174e+000 6.394864e+000 6.633404e+000 5.825200e+000 4.888401e+000 5.194491e+000 4.993168e+000 3.879088e+000 3.012027e+000 4.215167e-001 6.513216e-001 5.986469e-001 8.761011e-001 1.015409e+000 1.031860e+000 1.526633e+000 1.086266e+000 9.273500e-001 1.407627e+000 9.124332e-001 8.842895e-001 3.945441e-001
<GCONST> 1.455728e+002
<MIXTURE> 2 5.747417e-001
<MEAN> 39
 -2.049060e+000 -4.198030e+000 2.031703e+000 -1.072474e+001 -1.021798e+001 -2.220374e+001 -1.442748e+001 -4.938332e+000 -1.490010e+000 -8.334414e+000 -7.050098e+000 5.429734e+000 7.054517e+001 -2.529901e-001 -1.739379e-001 1.520921e-001 -5.891158e-001 -9.003603e-002 1.327031e-001 3.919043e-001 8.949335e-002 -1.498587e-002 3.415106e-001 -1.593991e-001 -1.008477e-001 3.196931e-001 -1.126760e-001 -3.558224e-001 -2.694752e-001 -4.527062e-001 -3.263057e-001 5.549998e-001 3.707030e-001 -3.411210e-002 1.335646e-001 2.575888e-001 1.128564e-001 -5.740797e-001 3.629081e-001
<VARIANCE> 39
 6.300313e+001 4.448407e+001 4.286633e+001 6.016556e+001 6.281114e+001 5.794875e+001 7.221023e+001 5.405205e+001 4.914597e+001 5.174260e+001 5.396445e+001 5.301547e+001 1.431665e+001 4.458849e-001 9.121713e-001 9.822376e-001 1.714766e+000 2.236430e+000 2.375793e+000 2.888249e+000 2.346967e+000 2.350078e+000 2.639165e+000 2.609974e+000 2.093065e+000 6.125507e-001 9.091048e-002 2.001514e-001 2.671929e-001 3.851137e-001 5.142722e-001 5.387083e-001 6.743861e-001 5.187721e-001 5.224362e-001 5.373478e-001 6.299471e-001 3.460119e-001 1.028112e-001
<GCONST> 1.149568e+002
<STATE> 4
<NUMMIXES> 2
<MIXTURE> 1 3.800220e-001
<MEAN> 39
 2.779360e+000 -8.495740e-001 3.496665e+000 -1.386290e+001 -1.045289e+001 -1.479880e+001 -1.320094e+001 -5.354294e+000 2.871654e-001 -9.115284e+000 -6.384463e+000 -3.274417e-001 6.595435e+001 -3.508379e-002 3.546439e-001 1.122018e-002 -6.719259e-001 1.597423e-001 1.215284e-001 1.752610e-001 1.911142e-001 -3.870215e-001 8.485225e-001 -5.233083e-003 2.284380e-001 4.018438e-001 -3.749860e-001 -2.887888e-001 -9.267838e-002 -2.611254e-001 1.344267e-001 3.139067e-002 1.770148e-001 -1.481954e-001 -1.165025e-002 4.724302e-001 5.891966e-002 1.328179e-001 1.116783e-001
<VARIANCE> 39
 5.367538e+001 7.226899e+001 6.192424e+001 1.221850e+002 8.686633e+001 1.359077e+002 1.344943e+002 1.761100e+002 1.068148e+002 1.176177e+002 8.995792e+001 1.034682e+002 6.652022e+001 4.763683e+000 5.247149e+000 4.486318e+000 7.410455e+000 7.395665e+000 9.222514e+000 8.986300e+000 8.489406e+000 1.005006e+001 8.001091e+000 7.934684e+000 8.735419e+000 6.255363e+000 4.194394e-001 8.855981e-001 4.783166e-001 1.012820e+000 1.406412e+000 1.495779e+000 1.463964e+000 1.761889e+000 1.822246e+000 1.204495e+000 1.320135e+000 1.379650e+000 4.624391e-001
<GCONST> 1.574252e+002
<MIXTURE> 2 6.199787e-001
<MEAN> 39
 -7.383981e-001 -4.793103e+000 3.207831e+000 -2.050156e+001 -8.071691e+000 -2.170519e+001 -1.443636e+001 -1.361090e+000 1.905260e+000 -8.421642e+000 -7.549214e+000 7.064658e+000 7.357372e+001 -2.138866e-001 -1.211528e+000 -9.956130e-001 -9.677713e-001 1.056639e-001 9.726349e-001 1.516536e+000 9.587995e-001 -2.682270e-001 3.274413e-001 -2.376606e-001 -9.952248e-001 8.914733e-001 -2.371755e-002 -1.311451e-001 -2.643615e-001 9.165931e-002 -1.800055e-002 4.453325e-001 3.967016e-001 -1.821213e-001 -2.914285e-001 5.708862e-002 -1.175851e-002 -2.635582e-001 1.071622e-002
<VARIANCE> 39
 5.320051e+001 4.198470e+001 8.512775e+001 1.125884e+002 7.178608e+001 8.861830e+001 9.577832e+001 1.193342e+002 9.552895e+001 8.557582e+001 6.992952e+001 9.157397e+001 2.341063e+001 6.986857e-001 2.735190e+000 2.750805e+000 3.274237e+000 4.342627e+000 4.909009e+000 7.414162e+000 6.775401e+000 5.087199e+000 5.920865e+000 4.153267e+000 3.488978e+000 1.133853e+000 9.048301e-002 3.307665e-001 3.044396e-001 4.005948e-001 4.754621e-001 5.638705e-001 8.674746e-001 6.866679e-001 7.174341e-001 8.221015e-001 6.524585e-001 6.817270e-001 1.329506e-001
<GCONST> 1.328080e+002
<TRANSP> 5
 0.000000e+000 1.000000e+000 0.000000e+000 0.000000e+000 0.000000e+000
 0.000000e+000 6.889055e-001 3.110945e-001 0.000000e+000 0.000000e+000
 0.000000e+000 0.000000e+000 5.860466e-001 4.139534e-001 0.000000e+000
 0.000000e+000 0.000000e+000 0.000000e+000 6.621177e-001 3.378823e-001
 0.000000e+000 0.000000e+000 0.000000e+000 0.000000e+000 0.000000e+000
<ENDHMM>
~h "m"
<BEGINHMM>
<NUMSTATES> 5
<STATE> 2
<NUMMIXES> 2
<MIXTURE> 1 2.926006e-001
<MEAN> 39
 -1.003351e+001 -2.437952e+000 -2.194875e+000 -5.742947e+000 -3.204508e+000 -9.186906e+000 -5.473155e+000 -7.780361e+000 -2.760149e+000 -5.149006e+000 -1.910932e+000 -3.699884e+000 5.138386e+001 2.488500e+000 2.372466e+000 1.094649e+000 3.612798e-001 -5.665829e-001 -1.210258e+000 -1.773911e+000 -1.997092e+000 -1.435640e+000 -6.694762e-001 -6.801522e-001 -6.557876e-001 1.416306e+000 5.835814e-001 1.461228e-001 -2.966459e-001 -3.975430e-001 -2.650036e-001 -1.810232e-001 -3.619835e-001 -4.019134e-001 -2.074588e-001 7.203484e-002 -1.133546e-001 -1.491623e-001 6.629448e-001
<VARIANCE> 39
 4.094402e+001 5.625003e+001 3.611161e+001 3.639438e+001 4.016512e+001 4.788515e+001 5.734826e+001 5.168073e+001 3.873648e+001 4.419607e+001 3.387361e+001 2.861301e+001 1.975956e+002 7.480062e+000 7.066888e+000 3.395590e+000 3.412514e+000 4.246501e+000 4.807756e+000 5.873610e+000 6.417181e+000 4.965499e+000 4.408862e+000 3.654426e+000 2.928355e+000 5.358906e+000 7.543980e-001 1.153486e+000 7.918133e-001 5.495431e-001 6.117899e-001 8.160587e-001 8.782063e-001 1.119830e+000 9.034215e-001 8.536416e-001 6.526493e-001 5.271105e-001 5.671375e-001
<GCONST> 1.383866e+002
<MIXTURE> 2 7.073967e-001
<MEAN> 39
 3.531251e+000 -4.746548e-001 -4.725350e+000 -1.159225e+001 -7.613664e+000 -1.173337e+001 -1.266947e+001 -1.561110e+001 -7.654566e+000 -4.254983e+000 -5.197592e+000 -7.576272e+000 6.664237e+001 1.021111e+000 -9.964008e-002 -4.766051e-001 6.899583e-001 -6.017418e-002 -3.121255e-001 -3.571482e-001 -1.975834e+000 -7.264995e-001 8.662121e-001 -5.081899e-001 -5.584151e-001 7.494865e-001 -6.281304e-001 -4.427681e-001 1.022766e-001 -1.393577e-001 2.062821e-001 2.349383e-001 3.710915e-001 5.946940e-001 3.561502e-001 1.361093e-001 -1.887756e-002 1.948621e-001 -5.141457e-002
<VARIANCE> 39
 6.004440e+001 8.413920e+001 6.041629e+001 6.985117e+001 6.990546e+001 6.844711e+001 6.905070e+001 8.428433e+001 5.573972e+001 7.181079e+001 5.386438e+001 3.732536e+001 5.641003e+001 3.392379e+000 4.854088e+000 6.017912e+000 6.788427e+000 5.529766e+000 5.603085e+000 6.287906e+000 7.914299e+000 6.040421e+000 5.519050e+000 4.362565e+000 3.853240e+000 5.389307e+000 4.440043e-001 8.536182e-001 8.436390e-001 7.500272e-001 7.321677e-001 8.855906e-001 8.749061e-001 1.096359e+000 8.159605e-001 9.100171e-001 7.097837e-001 5.594460e-001 3.642286e-001
<GCONST> 1.433593e+002
<STATE> 3
<NUMMIXES> 2
<MIXTURE> 1 4.878039e-001
<MEAN> 39
 3.172320e+000 -5.525404e+000 -2.615060e+000 -8.282654e+000 -7.096888e+000 -1.132566e+001 -1.212040e+001 -1.855544e+001 -8.398296e+000 1.239995e+000 -6.010263e+000 -7.502823e+000 7.015668e+001 -2.329426e-002 -1.107520e-001 3.504263e-002 3.447042e-001 1.578432e-001 -8.722856e-002 -6.361398e-003 -3.213173e-001 -1.073663e-001 3.819472e-001 2.340761e-002 -4.339591e-002 8.053241e-002 -1.443945e-001 -8.531072e-002 -1.681440e-001 -5.426036e-001 -3.782777e-002 9.177600e-002 4.683938e-002 8.666086e-001 3.185813e-001 -3.530100e-001 5.822078e-002 2.527535e-002 1.714701e-001
<VARIANCE> 39
 5.291932e+001 4.535831e+001 4.488068e+001 7.285262e+001 6.926779e+001 6.752560e+001 1.025321e+002 8.386223e+001 5.814092e+001 7.019321e+001 6.414726e+001 4.688816e+001 1.523370e+001 4.017898e-001 1.599476e+000 1.735124e+000 2.358554e+000 2.116734e+000 2.094058e+000 2.573546e+000 3.930881e+000 2.760825e+000 2.846120e+000 2.418890e+000 2.360816e+000 8.333653e-001 1.135947e-001 2.317076e-001 5.265234e-001 4.598388e-001 3.937924e-001 5.117494e-001 6.245798e-001 8.018389e-001 7.024175e-001 6.226874e-001 5.501700e-001 5.616703e-001 1.263223e-001
<GCONST> 1.210817e+002
<MIXTURE> 2 5.121716e-001
<MEAN> 39
 -1.024678e+000 -1.332081e+000 -3.896033e+000 -9.161324e+000 -7.014060e+000 -1.212020e+001 -1.284771e+001 -1.205507e+001 -7.610633e+000 -6.077457e+000 -6.761213e+000 -8.872303e+000 6.804116e+001 -7.096053e-002 1.664885e-001 1.288713e-001 1.926671e-001 8.033216e-002 -8.112959e-002 4.811979e-002 -1.575988e-002 -1.599853e-002 4.921519e-002 -1.630363e-002 -8.303808e-002 -1.392244e-001 -6.695845e-003 -6.100153e-002 -6.879205e-002 -1.375710e-001 -6.411336e-002 9.166684e-002 3.874230e-002 6.946442e-002 7.140189e-002 2.804064e-002 6.351420e-002 1.313216e-001 5.135268e-002
<VARIANCE> 39
 6.705415e+001 7.472249e+001 4.991147e+001 5.223532e+001 5.175555e+001 4.511348e+001 6.514413e+001 4.956245e+001 5.673278e+001 6.010324e+001 5.720830e+001 3.398948e+001 5.789363e+001 2.076040e-001 7.158155e-001 8.832367e-001 1.128866e+000 1.434329e+000 1.493631e+000 1.740647e+000 1.920632e+000 1.844976e+000 2.024515e+000 1.842875e+000 1.658443e+000 2.321528e-001 4.248536e-002 1.100980e-001 2.029443e-001 2.245414e-001 2.568971e-001 3.131078e-001 3.327995e-001 3.608051e-001 3.647269e-001 3.784059e-001 3.551491e-001 3.107969e-001 3.342918e-002
<GCONST> 1.040219e+002
<STATE> 4
<NUMMIXES> 2
<MIXTURE> 1 5.434951e-001
<MEAN> 39
 -1.447546e+000 5.252154e+000 -2.707204e+000 -6.655987e+000 -5.850744e+000 -1.177201e+001 -8.249482e+000 -1.150507e+001 -6.425820e+000 -8.580503e+000 -4.811306e+000 -7.969370e+000 6.042912e+001 -5.741844e-001 2.187335e-002 1.303614e-001 -1.995117e-002 6.790889e-002 4.118764e-001 4.080375e-001 5.073191e-001 3.986481e-001 -1.251461e-001 2.385354e-001 3.796146e-001 -4.560845e-001 -8.307680e-002 -2.608607e-001 -9.789292e-002 -1.928885e-001 5.263435e-002 1.728732e-001 6.011552e-003 9.518760e-002 9.276633e-002 9.891582e-002 1.016876e-001 1.122443e-001 6.347521e-002
<VARIANCE> 39
 7.509985e+001 6.622257e+001 5.911256e+001 6.029050e+001 6.033555e+001 5.638646e+001 7.215472e+001 7.177547e+001 6.423770e+001 6.646262e+001 5.488849e+001 4.871617e+001 7.699872e+001 9.960876e-001 2.597907e+000 3.024503e+000 3.388377e+000 3.424024e+000 3.574407e+000 3.952095e+000 4.075448e+000 3.911280e+000 4.244300e+000 3.713124e+000 3.232552e+000 1.197203e+000 1.360258e-001 3.354523e-001 5.109196e-001 5.534828e-001 6.036914e-001 6.946108e-001 7.064008e-001 7.482272e-001 7.028348e-001 8.162510e-001 6.737713e-001 6.416568e-001 1.475451e-001
<GCONST> 1.305180e+002
<MIXTURE> 2 4.564979e-001
<MEAN> 39
 2.771724e+000 -7.855706e+000 -6.542255e+000 -1.127048e+001 -5.154198e+000 -1.199639e+001 -1.395295e+001 -1.387276e+001 -5.056378e+000 1.665295e+000 -4.875515e+000 -1.000465e+001 7.325877e+001 -3.979928e-001 -1.783343e+000 -1.795445e+000 -2.276616e+000 6.848066e-001 3.653758e-001 -2.454102e-001 4.356089e+000 1.908314e+000 -1.579357e+000 -4.760885e-001 1.062998e-001 1.600485e+000 -2.969563e-001 -2.215783e-001 8.292890e-002 -1.374873e-001 2.728810e-001 5.058512e-002 7.471365e-002 8.078946e-001 2.422201e-002 -7.445182e-001 -2.000554e-001 5.451692e-001 9.862911e-002
<VARIANCE> 39
 5.420546e+001 4.536056e+001 5.920346e+001 6.323700e+001 5.058673e+001 5.218925e+001 7.407174e+001 9.906827e+001 6.250635e+001 6.308251e+001 5.684608e+001 3.448986e+001 1.950118e+001 8.663653e-001 1.728234e+000 3.753015e+000 2.890985e+000 3.665578e+000 4.429888e+000 5.188238e+000 7.611818e+000 6.709995e+000 5.580767e+000 3.891675e+000 5.031069e+000 5.844317e-001 9.052505e-002 2.573187e-001 6.200604e-001 9.098734e-001 4.577364e-001 4.996983e-001 6.119499e-001 1.301361e+000 9.250501e-001 6.824185e-001 5.476874e-001 5.881600e-001 1.470504e-001
<GCONST> 1.290900e+002
<TRANSP> 5
 0.000000e+000 1.000000e+000 0.000000e+000 0.000000e+000 0.000000e+000
 0.000000e+000 5.498754e-001 4.501246e-001 0.000000e+000 0.000000e+000
 0.000000e+000 0.000000e+000 8.003198e-001 1.996803e-001 0.000000e+000
 0.000000e+000 0.000000e+000 0.000000e+000 6.492562e-001 3.507438e-001
 0.000000e+000 0.000000e+000 0.000000e+000 0.000000e+000 0.000000e+000
<ENDHMM>
~h "n"
<BEGINHMM>
<NUMSTATES> 5
<STATE> 2
<NUMMIXES> 2
<MIXTURE> 1 5.715755e-001
<MEAN> 39
 4.188186e+000 -6.185288e+000 -2.161531e+000 -1.555940e+001 -7.993962e+000 -1.737028e+001 -6.820600e+000 -8.436701e+000 -8.790229e+000 -4.821761e-001 -5.837554e+000 -6.479567e+000 7.227200e+001 6.670697e-001 9.361391e-001 3.571184e-001 1.340709e+000 -1.152572e+000 3.153500e-002 9.555154e-001 -2.280114e+000 -3.674159e-001 4.525083e-001 -3.335001e-001 3.590051e-001 -1.044503e+000 -9.866496e-002 5.220786e-002 -1.591098e-001 -1.477520e-001 1.373307e-001 3.209390e-001 -2.400374e-001 2.984246e-001 3.079004e-001 -2.958045e-001 3.222358e-002 1.784735e-002 2.071005e-002
<VARIANCE> 39
