~o
<STREAMINFO> 1 39
<VECSIZE> 39<NULLD><MFCC_D_A_0><DIAGC>
~h "a"
<BEGINHMM>
<NUMSTATES> 5
<STATE> 2
<MEAN> 39
 -4.189476e+000 -1.162590e+001 -8.756019e+000 -1.536657e+001 -4.937913e+000 -1.212194e+001 -6.349282e+000 1.833261e+000 -2.043073e+000 -8.407731e+000 -6.641466e+000 -2.455835e+000 7.309086e+001 1.306525e-001 -4.406155e-001 -3.111888e-001 5.380536e-002 4.401790e-001 1.240754e-001 7.763764e-003 4.021583e-001 -2.083809e-001 -5.219269e-001 -1.467414e-001 1.132580e-001 4.167030e-001 -7.998601e-002 3.669935e-001 1.595188e-001 1.372212e-001 -9.674634e-002 -1.815917e-003 -4.375720e-002 -2.972370e-001 1.170047e-002 1.694466e-001 1.740319e-001 -6.701549e-002 -3.161691e-001
<VARIANCE> 39
 5.937494e+001 6.016104e+001 5.957523e+001 8.399421e+001 1.004060e+002 7.987392e+001 9.760537e+001 9.061697e+001 7.122388e+001 7.382022e+001 7.045243e+001 5.574899e+001 1.372111e+002 2.295560e+000 4.227889e+000 3.234169e+000 3.514686e+000 4.661209e+000 4.151301e+000 4.814215e+000 5.503665e+000 4.073437e+000 4.298073e+000 3.830379e+000 3.419238e+000 4.196261e+000 3.862483e-001 5.905114e-001 4.933618e-001 5.895569e-001 7.487416e-001 7.311279e-001 8.322666e-001 9.143844e-001 7.547573e-001 7.530426e-001 7.209449e-001 6.100899e-001 5.800685e-001
<GCONST> 1.405109e+002
<STATE> 3
<MEAN> 39
 -3.495190e+000 -1.127643e+001 -9.238119e+000 -1.489617e+001 -3.910511e+000 -1.197722e+001 -7.027660e+000 2.072896e+000 -2.388155e+000 -9.599318e+000 -6.457414e+000 -2.767277e+000 7.314731e+001 4.810303e-003 4.545817e-001 1.072289e-001 2.660809e-001 2.478193e-002 1.926254e-002 -8.968526e-002 -2.124772e-001 -9.528314e-002 -1.030386e-001 1.460918e-001 -1.374240e-001 -3.584091e-001 -6.577629e-002 3.047219e-001 1.583367e-001 7.483767e-002 -1.255606e-001 -1.476507e-002 -1.998193e-002 -2.231604e-001 4.306345e-002 1.861261e-001 1.066373e-001 -6.744293e-002 -2.754509e-001
<VARIANCE> 39
 6.133403e+001 6.195678e+001 5.892613e+001 8.148090e+001 1.044435e+002 7.653786e+001 1.025510e+002 9.282155e+001 7.406224e+001 7.782047e+001 6.714060e+001 5.767171e+001 1.047167e+002 1.990312e+000 3.779295e+000 2.864913e+000 3.059189e+000 4.200638e+000 3.651099e+000 4.616929e+000 4.676037e+000 3.719826e+000 3.989030e+000 3.483661e+000 3.203803e+000 4.065993e+000 3.097415e-001 5.340903e-001 4.464562e-001 4.998518e-001 6.620706e-001 6.450037e-001 8.030851e-001 8.476771e-001 6.969686e-001 7.028221e-001 6.349195e-001 5.790679e-001 4.193563e-001
<GCONST> 1.375017e+002
<STATE> 4
<MEAN> 39
 -3.586265e+000 -8.611607e+000 -8.523458e+000 -1.353849e+001 -3.886462e+000 -1.183934e+001 -7.193921e+000 1.049549e+000 -2.322331e+000 -9.807602e+000 -5.672837e+000 -3.528549e+000 7.028923e+001 -2.710685e-001 9.625756e-001 4.274665e-001 4.116847e-001 -2.362329e-001 5.124371e-002 6.837840e-002 -6.019695e-001 1.922498e-002 3.562239e-001 3.121860e-001 -1.865452e-001 -9.576094e-001 -1.103607e-001 1.016966e-001 7.700660e-002 2.956376e-002 -3.752440e-002 2.787022e-002 3.823682e-002 -1.165216e-001 4.191470e-002 1.598846e-001 5.224853e-002 3.634115e-004 -1.096739e-001
<VARIANCE> 39
 6.769899e+001 6.938652e+001 6.278727e+001 8.899638e+001 1.065493e+002 7.448619e+001 1.034858e+002 9.527277e+001 7.590622e+001 8.505738e+001 6.283059e+001 5.739635e+001 1.125221e+002 2.241626e+000 3.521738e+000 2.904965e+000 3.361855e+000 4.366976e+000 3.829683e+000 4.995710e+000 4.980091e+000 3.981979e+000 4.169942e+000 3.679824e+000 3.378166e+000 3.331604e+000 3.331265e-001 5.201890e-001 4.598656e-001 5.287347e-001 6.650077e-001 6.606124e-001 8.584159e-001 8.577401e-001 7.110886e-001 7.298304e-001 6.409488e-001 5.972573e-001 4.110801e-001
<GCONST> 1.387308e+002
<TRANSP> 5
 0.000000e+000 1.000000e+000 0.000000e+000 0.000000e+000 0.000000e+000
 0.000000e+000 5.992005e-001 4.007995e-001 0.000000e+000 0.000000e+000
 0.000000e+000 0.000000e+000 6.290053e-001 3.709948e-001 0.000000e+000
 0.000000e+000 0.000000e+000 0.000000e+000 6.592726e-001 3.407274e-001
 0.000000e+000 0.000000e+000 0.000000e+000 0.000000e+000 0.000000e+000
<ENDHMM>
~h "b"
<BEGINHMM>
<NUMSTATES> 5
<STATE> 2
<MEAN> 39
 -1.020824e+001 -1.182697e+001 -8.744648e+000 -1.285910e+001 -3.047490e+000 -6.632820e+000 -4.530349e+000 -3.814759e+000 -4.143180e-001 -3.319940e+000 -7.259605e+000 -4.372463e+000 5.812819e+001 -3.584464e-001 -7.375212e-001 -2.847142e-001 -1.323003e-001 4.719010e-001 3.128827e-001 5.022682e-001 6.301315e-001 -2.284994e-001 -7.328649e-001 -5.933908e-001 3.867070e-001 5.616077e-001 2.205634e-002 2.633612e-001 2.124569e-001 2.723201e-001 3.157270e-002 -2.740904e-002 -5.603970e-002 -1.870856e-001 -1.952397e-001 -8.049740e-003 1.210217e-001 9.092823e-003 -2.639580e-001
<VARIANCE> 39
 3.640235e+001 4.971265e+001 4.442082e+001 5.120439e+001 2.705112e+001 5.480705e+001 7.359850e+001 5.364014e+001 2.831820e+001 3.638310e+001 9.943954e+001 4.282247e+001 3.233606e+002 7.858489e-001 2.287387e+000 1.505692e+000 3.138385e+000 2.032012e+000 3.017541e+000 3.061238e+000 4.615016e+000 2.968315e+000 3.657291e+000 3.346134e+000 3.009301e+000 1.753669e+000 1.158286e-001 3.249036e-001 2.766813e-001 6.473315e-001 3.519935e-001 6.073610e-001 6.135366e-001 8.160222e-001 5.701265e-001 7.358686e-001 6.784772e-001 4.312630e-001 2.477662e-001
<GCONST> 1.246929e+002
<STATE> 3
<MEAN> 39
 -1.506436e+001 -1.154780e+001 -6.326693e+000 -9.424982e+000 -2.149668e+000 -7.174048e+000 -2.091387e+000 -4.379817e+000 -7.618443e-001 -4.485357e+000 -3.164299e+000 -3.170183e+000 4.740821e+001 3.018441e-002 1.304308e-001 1.366457e-001 -6.182977e-003 5.503677e-002 -1.530576e-001 -6.722782e-002 -5.568363e-002 -1.778583e-001 7.552477e-002 -5.159548e-002 -3.678995e-002 -1.273229e-001 4.083029e-002 7.064762e-002 2.644437e-002 -1.109409e-002 -4.659020e-002 -6.022175e-002 -3.899162e-002 -4.955574e-002 4.018210e-002 7.879562e-002 1.981572e-002 -4.453943e-002 -4.366349e-002
<VARIANCE> 39
 2.472748e+001 2.218127e+001 1.922677e+001 2.267717e+001 1.885959e+001 2.474431e+001 3.334454e+001 3.113184e+001 3.291904e+001 2.305807e+001 7.426308e+001 2.727664e+001 2.573864e+002 2.709863e-001 6.215527e-001 8.310171e-001 1.246477e+000 1.451363e+000 2.031832e+000 1.908491e+000 2.329642e+000 2.462608e+000 2.346592e+000 2.033131e+000 2.030962e+000 1.746636e-001 5.373711e-002 1.095799e-001 1.547627e-001 2.653690e-001 3.020503e-001 3.955742e-001 3.943838e-001 4.749174e-001 5.027071e-001 4.907551e-001 4.276132e-001 4.204376e-001 2.989294e-002
<GCONST> 1.004513e+002
<STATE> 4
<MEAN> 39
 -7.186618e+000 -7.860736e+000 -4.413421e+000 -1.157599e+001 -3.214242e+000 -1.108422e+001 -9.286676e+000 -6.762423e+000 -5.234301e+000 -1.771257e+000 -1.099045e+001 -4.751201e+000 6.300861e+001 4.339680e-001 1.181255e+000 6.584868e-001 2.520633e-001 -6.966214e-001 -6.993793e-001 -5.305450e-001 -1.157554e+000 5.607694e-001 6.074244e-001 4.654728e-001 -1.714082e-001 -7.887124e-001 4.666634e-002 1.206348e-001 2.126731e-002 1.688442e-001 -8.609085e-002 1.533470e-001 -1.062179e-001 -4.536998e-002 1.175860e-001 -1.868932e-001 1.471850e-001 9.673332e-002 -2.032532e-002
<VARIANCE> 39
 3.680183e+001 3.848199e+001 2.782506e+001 4.157248e+001 3.359391e+001 3.655275e+001 5.450709e+001 5.250266e+001 5.511938e+001 4.456449e+001 1.135573e+002 3.895583e+001 2.388242e+002 5.488956e-001 1.430267e+000 1.251599e+000 1.634105e+000 2.042194e+000 2.306002e+000 2.382792e+000 4.118824e+000 4.168907e+000 3.345749e+000 2.779093e+000 2.162951e+000 7.335318e-001 1.150285e-001 1.937852e-001 2.082797e-001 2.837773e-001 3.507653e-001 3.715672e-001 4.370674e-001 6.495553e-001 6.819701e-001 6.262465e-001 4.933843e-001 3.787364e-001 6.073667e-002
<GCONST> 1.159033e+002
<TRANSP> 5
 0.000000e+000 1.000000e+000 0.000000e+000 0.000000e+000 0.000000e+000
 0.000000e+000 7.938784e-001 2.061215e-001 0.000000e+000 0.000000e+000
 0.000000e+000 0.000000e+000 9.345461e-001 6.545389e-002 0.000000e+000
 0.000000e+000 0.000000e+000 0.000000e+000 7.773647e-001 2.226353e-001
 0.000000e+000 0.000000e+000 0.000000e+000 0.000000e+000 0.000000e+000
<ENDHMM>
~h "c"
<BEGINHMM>
<NUMSTATES> 5
<STATE> 2
<MEAN> 39
 -1.133750e+001 -4.185047e+000 -6.362473e+000 -8.964912e+000 -4.088895e+000 -8.554294e+000 -2.397615e+000 -4.659593e+000 -1.286011e+000 -2.559860e+000 -1.302442e-001 -1.977338e+000 5.329054e+001 9.835897e-002 -7.278286e-001 -9.939756e-001 -6.154746e-001 4.922861e-001 3.968158e-002 7.694370e-003 5.339367e-001 -2.503891e-001 3.153704e-001 1.754716e-001 1.878052e-001 4.654256e-001 2.555360e-001 1.684965e-002 -6.639632e-002 -3.164316e-001 -1.264245e-001 -1.228859e-001 -1.940612e-001 -5.241771e-002 -1.048346e-001 -9.713838e-003 -1.252323e-001 -4.574201e-002 3.766086e-001
<VARIANCE> 39
 5.356253e+001 7.926610e+001 5.427182e+001 8.152885e+001 7.689491e+001 8.891929e+001 6.459126e+001 6.289821e+001 5.733836e+001 5.620450e+001 4.872142e+001 4.571322e+001 1.332449e+002 2.425075e+000 3.675274e+000 5.318234e+000 5.678646e+000 6.053227e+000 7.652084e+000 5.767843e+000 5.876837e+000 5.426542e+000 4.323879e+000 4.392642e+000 3.461059e+000 4.982083e+000 3.647622e-001 6.149887e-001 9.450842e-001 9.942753e-001 1.101696e+000 1.261422e+000 1.128093e+000 1.077181e+000 9.766576e-001 8.167498e-001 8.316146e-001 6.865599e-001 6.395730e-001
<GCONST> 1.444149e+002
<STATE> 3
<MEAN> 39
 -9.119190e+000 -5.442052e+000 -1.016478e+001 -1.266683e+001 -4.103012e+000 -9.039808e+000 -3.643323e+000 -3.259168e+000 -2.715009e+000 -1.509991e+000 -2.713813e-001 -1.701980e+000 5.693561e+001 6.906999e-001 -3.202147e-001 -7.643883e-001 -1.077193e+000 -8.221190e-002 -3.571653e-001 -4.718748e-001 2.911920e-001 -3.832144e-001 1.560141e-001 -1.800292e-001 -1.007091e-003 1.184891e+000 1.731236e-001 1.983176e-001 2.550994e-001 -6.278008e-002 -2.415802e-001 -9.071226e-002 -9.672233e-002 -1.605587e-001 1.597621e-002 -1.225571e-001 -1.076651e-001 -5.337729e-002 1.648660e-001
<VARIANCE> 39
 6.484286e+001 7.319642e+001 7.878365e+001 9.960018e+001 1.066211e+002 1.249469e+002 8.354474e+001 7.803823e+001 8.514530e+001 6.999715e+001 5.847967e+001 6.005096e+001 1.551788e+002 3.221121e+000 4.563923e+000 6.872535e+000 7.112773e+000 7.523858e+000 8.685464e+000 7.174773e+000 7.050745e+000 6.708580e+000 5.140434e+000 4.887114e+000 4.103822e+000 6.825248e+000 4.764707e-001 7.660293e-001 1.166803e+000 1.117809e+000 1.357352e+000 1.452460e+000 1.289336e+000 1.288531e+000 1.132232e+000 9.714851e-001 8.626893e-001 7.723414e-001 7.785138e-001
<GCONST> 1.523147e+002
<STATE> 4
<MEAN> 39
 -6.430512e+000 -5.422503e+000 -1.149511e+001 -1.615940e+001 -4.659974e+000 -1.100671e+001 -4.651054e+000 -2.760439e+000 -3.435173e+000 -2.013093e+000 -1.914294e+000 -2.242517e+000 6.038188e+001 8.482109e-001 1.414018e-001 5.710761e-002 -9.042183e-001 -5.338110e-001 -4.380852e-001 -4.451261e-001 -1.127696e-001 -1.423863e-001 -2.137683e-001 -3.100833e-001 -4.281246e-002 1.329055e+000 -1.006339e-002 8.152279e-002 2.749087e-001 8.951328e-002 -1.213105e-001 7.765382e-002 3.842213e-002 -1.624615e-001 9.454159e-002 -1.130138e-001 -1.359805e-002 1.849005e-002 -8.793231e-002
<VARIANCE> 39
 7.929234e+001 7.642815e+001 8.215518e+001 1.117417e+002 1.142889e+002 1.471978e+002 1.037609e+002 8.258858e+001 1.006941e+002 7.173968e+001 6.400577e+001 6.376608e+001 1.670427e+002 4.265829e+000 4.985445e+000 5.542387e+000 7.146663e+000 7.610804e+000 7.904035e+000 7.511932e+000 7.131484e+000 6.711924e+000 5.694493e+000 4.836715e+000 4.362861e+000 7.840953e+000 6.198022e-001 8.674893e-001 1.063395e+000 1.208594e+000 1.465288e+000 1.603883e+000 1.419612e+000 1.316366e+000 1.296515e+000 1.066837e+000 9.011731e-001 8.156145e-001 1.018402e+000
<GCONST> 1.553267e+002
<TRANSP> 5
 0.000000e+000 1.000000e+000 0.000000e+000 0.000000e+000 0.000000e+000
 0.000000e+000 6.700990e-001 3.299010e-001 0.000000e+000 0.000000e+000
 0.000000e+000 0.000000e+000 6.219854e-001 3.780146e-001 0.000000e+000
 0.000000e+000 0.000000e+000 0.000000e+000 6.607161e-001 3.392839e-001
 0.000000e+000 0.000000e+000 0.000000e+000 0.000000e+000 0.000000e+000
<ENDHMM>
~h "d"
<BEGINHMM>
<NUMSTATES> 5
<STATE> 2
<MEAN> 39
 -1.087850e+001 -3.709402e+000 6.810851e-001 -1.078291e+001 -9.453868e+000 -1.496950e+001 -5.631349e+000 -6.559793e+000 -2.678445e+000 -2.289327e+000 -4.324692e+000 -1.669513e+000 5.944020e+001 4.427640e-001 8.439428e-001 3.807283e-001 1.641782e-001 -4.333252e-001 -4.366408e-001 -4.896384e-001 -5.732236e-001 -1.858348e-001 1.462802e-001 -1.358236e-001 -5.983740e-002 -8.024804e-002 1.218329e-001 1.350631e-001 2.324377e-002 1.106587e-002 -2.609058e-002 -1.515067e-003 -3.770513e-002 9.954344e-003 3.234137e-002 -3.883740e-002 -3.958698e-002 -3.108841e-002 3.193192e-002
<VARIANCE> 39
 6.795991e+001 5.541640e+001 3.715445e+001 6.505596e+001 1.440756e+002 9.168057e+001 7.297709e+001 5.702411e+001 4.190405e+001 6.031953e+001 5.150359e+001 2.853883e+001 2.781571e+002 2.562663e+000 4.247705e+000 2.801129e+000 4.110003e+000 5.683812e+000 5.352773e+000 3.992784e+000 4.313516e+000 3.763000e+000 4.498687e+000 3.790678e+000 2.879234e+000 3.318321e+000 4.249791e-001 6.669638e-001 3.909999e-001 6.811713e-001 8.997228e-001 8.761651e-001 7.362441e-001 7.292212e-001 6.644191e-001 7.225539e-001 5.966778e-001 5.822282e-001 4.609002e-001
<GCONST> 1.377814e+002
<STATE> 3
<MEAN> 39
 -6.301094e+000 4.937021e-001 2.223411e+000 -1.055269e+001 -1.394444e+001 -1.474875e+001 -8.213573e+000 -9.145561e+000 -2.622411e+000 -3.388527e+000 -4.962780e+000 -1.636307e+000 6.177795e+001 6.611755e-001 9.841178e-001 2.719376e-001 1.771966e-001 -2.586350e-001 -3.216113e-001 -1.941173e-001 -4.218220e-001 -1.570520e-001 -2.330159e-002 -2.132402e-001 -1.850444e-001 -4.774855e-002 -1.531536e-002 -7.814910e-002 -1.367385e-001 -5.904153e-002 5.706982e-002 1.170536e-001 9.879791e-002 1.168163e-001 2.940344e-002 -3.150908e-002 -3.061947e-002 -6.955862e-002 6.090229e-002
<VARIANCE> 39
 5.417249e+001 6.491923e+001 4.382980e+001 5.601842e+001 7.255157e+001 6.221654e+001 5.750676e+001 6.774800e+001 3.847465e+001 6.276191e+001 4.628632e+001 3.893965e+001 2.010744e+002 3.319823e+000 5.557353e+000 2.788031e+000 3.533494e+000 5.475871e+000 4.955105e+000 4.661691e+000 4.089887e+000 2.878457e+000 4.435370e+000 3.174808e+000 3.716721e+000 3.793863e+000 4.761486e-001 7.616042e-001 4.580192e-001 5.519847e-001 8.457956e-001 8.842187e-001 7.558478e-001 7.323352e-001 5.697306e-001 7.540081e-001 5.924047e-001 7.022606e-001 4.808545e-001
<GCONST> 1.369951e+002
<STATE> 4
<MEAN> 39
 -2.485488e+000 2.226928e+000 4.019437e+000 -1.225442e+001 -1.532690e+001 -1.430037e+001 -7.542233e+000 -1.129820e+001 -3.485564e+000 -3.094533e+000 -7.214554e+000 -1.724240e+000 6.230675e+001 2.874931e-001 1.789529e-001 -2.557772e-001 -2.025038e-001 1.201222e-001 2.969916e-001 -1.788837e-001 8.602831e-002 -6.171570e-002 1.475600e-001 -2.079797e-001 -2.441041e-001 3.178482e-001 -1.106425e-001 -2.123419e-001 -1.282234e-001 -1.200308e-001 7.167735e-002 1.508489e-001 -5.603767e-003 9.482599e-002 5.760097e-002 9.303367e-002 9.490591e-002 4.656989e-003 1.128030e-001
<VARIANCE> 39
 6.207188e+001 8.919028e+001 5.121663e+001 8.050714e+001 6.917054e+001 8.347789e+001 7.573976e+001 8.279543e+001 4.920868e+001 7.745105e+001 5.928880e+001 6.232950e+001 1.568397e+002 3.309986e+000 6.173723e+000 4.055230e+000 5.080695e+000 6.028290e+000 6.091576e+000 4.926984e+000 4.378157e+000 3.486643e+000 4.349007e+000 3.639329e+000 5.397359e+000 5.136645e+000 5.372772e-001 1.016607e+000 7.264987e-001 7.799280e-001 1.064617e+000 1.190484e+000 8.423880e-001 7.541053e-001 6.638871e-001 7.537889e-001 7.778233e-001 9.673750e-001 7.548450e-001
<GCONST> 1.449442e+002
<TRANSP> 5
 0.000000e+000 1.000000e+000 0.000000e+000 0.000000e+000 0.000000e+000
 0.000000e+000 7.048129e-001 2.951872e-001 0.000000e+000 0.000000e+000
 0.000000e+000 0.000000e+000 6.886476e-001 3.113524e-001 0.000000e+000
 0.000000e+000 0.000000e+000 0.000000e+000 7.998314e-001 2.001686e-001
 0.000000e+000 0.000000e+000 0.000000e+000 0.000000e+000 0.000000e+000
<ENDHMM>
~h "e"
<BEGINHMM>
<NUMSTATES> 5
<STATE> 2
<MEAN> 39
 -9.137049e+000 -2.388178e+000 1.028340e+000 -1.353610e+001 -1.301049e+001 -1.418574e+001 -5.543482e+000 -5.712551e+000 -2.250765e+000 -2.773137e+000 -1.690394e+000 -2.374875e+000 6.480749e+001 4.040329e-001 1.947569e-001 4.987555e-001 -4.695844e-001 -9.697190e-001 -2.274334e-001 1.274125e-001 -2.371372e-001 -1.233288e-001 2.123022e-001 3.406889e-002 5.319314e-002 7.127554e-001 -1.232969e-002 3.459737e-002 -2.700356e-002 -2.521927e-002 3.261064e-002 9.606573e-002 -8.725418e-002 -5.368747e-002 5.538791e-002 8.449295e-003 -5.442325e-002 2.035881e-002 3.012909e-002
<VARIANCE> 39
 7.921075e+001 5.842094e+001 5.636106e+001 9.363154e+001 1.241647e+002 8.258998e+001 6.690778e+001 7.217410e+001 5.974456e+001 6.171800e+001 5.014883e+001 4.071003e+001 1.918237e+002 4.877238e+000 4.460972e+000 3.421917e+000 5.838605e+000 7.112289e+000 5.983144e+000 5.787154e+000 5.298257e+000 5.030076e+000 5.034996e+000 4.067794e+000 3.759514e+000 6.664347e+000 7.050821e-001 6.870434e-001 5.229036e-001 8.790363e-001 1.217693e+000 1.122897e+000 9.895951e-001 9.563631e-001 9.673296e-001 8.903227e-001 7.726671e-001 6.848952e-001 9.044343e-001
<GCONST> 1.464706e+002
<STATE> 3
<MEAN> 39
 -7.318089e+000 -1.453423e+000 2.574650e+000 -1.560681e+001 -1.643898e+001 -1.417350e+001 -5.140906e+000 -6.954978e+000 -2.258338e+000 -1.959813e+000 -2.148569e+000 -2.015622e+000 6.823819e+001 3.032514e-001 1.696212e-001 3.831130e-001 -4.980480e-001 -6.992952e-001 -8.310331e-003 1.490757e-002 -2.922475e-001 -2.950956e-002 2.166169e-001 -1.445010e-001 7.639751e-002 7.116940e-001 -9.970272e-002 -2.618060e-002 -1.312357e-001 7.396049e-002 2.653072e-001 9.110538e-002 -2.075990e-002 8.304933e-003 4.758965e-002 -3.413719e-002 -3.667884e-002 -1.480552e-002 -1.241871e-001
<VARIANCE> 39
 8.013554e+001 6.705515e+001 6.715044e+001 1.128646e+002 1.230873e+002 8.719441e+001 7.320976e+001 7.842767e+001 7.012517e+001 7.112828e+001 5.331268e+001 4.327285e+001 1.353447e+002 4.875524e+000 5.047275e+000 4.017874e+000 6.645447e+000 8.042774e+000 5.970033e+000 5.859365e+000 5.603898e+000 5.094687e+000 5.620073e+000 4.214713e+000 3.862009e+000 7.923563e+000 7.253014e-001 8.052463e-001 6.225825e-001 1.013672e+000 1.289363e+000 1.086733e+000 1.021012e+000 9.899749e-001 9.279594e-001 9.884481e-001 7.799305e-001 6.913212e-001 9.349989e-001
<GCONST> 1.489460e+002
<STATE> 4
<MEAN> 39
 -5.723086e+000 -8.519601e-001 4.559965e+000 -1.981357e+001 -1.586002e+001 -1.457223e+001 -3.421604e+000 -9.296861e+000 -2.378172e+000 -1.169549e+000 -3.522252e+000 -1.520569e+000 6.978551e+001 -2.030627e-002 1.929889e-002 -1.536288e-001 4.231907e-002 1.967368e-001 8.160462e-002 2.880391e-002 -1.050478e-001 3.609062e-002 -1.038220e-001 -1.164217e-002 -5.790751e-002 1.036380e-001 -5.411755e-002 -3.345436e-002 -1.381044e-001 1.262873e-001 2.007260e-001 3.668456e-002 -2.387895e-002 6.963422e-002 2.079663e-002 -6.590942e-002 1.755988e-002 -2.693477e-002 -1.453871e-001
<VARIANCE> 39
 8.159973e+001 8.135040e+001 9.109708e+001 1.524924e+002 1.484170e+002 1.087704e+002 8.637820e+001 8.890607e+001 7.808014e+001 8.732729e+001 6.618136e+001 5.116193e+001 1.121612e+002 4.232408e+000 4.870167e+000 4.859674e+000 8.585049e+000 8.180867e+000 5.953799e+000 5.846631e+000 5.956498e+000 5.097044e+000 6.263300e+000 4.368639e+000 3.961657e+000 7.019661e+000 6.352026e-001 8.237234e-001 6.978567e-001 1.296310e+000 1.387910e+000 1.053109e+000 1.077375e+000 1.066067e+000 9.345860e-001 1.090701e+000 8.073122e-001 7.372824e-001 9.653621e-001
<GCONST> 1.520186e+002
<TRANSP> 5
 0.000000e+000 1.000000e+000 0.000000e+000 0.000000e+000 0.000000e+000
 0.000000e+000 5.677687e-001 4.322313e-001 0.000000e+000 0.000000e+000
 0.000000e+000 0.000000e+000 6.421158e-001 3.578843e-001 0.000000e+000
 0.000000e+000 0.000000e+000 0.000000e+000 8.644595e-001 1.355406e-001
 0.000000e+000 0.000000e+000 0.000000e+000 0.000000e+000 0.000000e+000
<ENDHMM>
~h "f"
<BEGINHMM>
<NUMSTATES> 5
<STATE> 2
<MEAN> 39
 -1.545690e+001 -9.044926e+000 -5.818107e+000 -7.933143e+000 -2.582031e+000 -8.212775e+000 -9.409930e-001 -5.910006e+000 -4.794314e-001 -5.409021e+000 -1.306785e+000 -3.604196e+000 4.265324e+001 -2.544084e-002 1.979192e-002 4.006227e-002 5.518547e-002 1.571824e-003 -3.539265e-002 -9.528179e-003 -1.501785e-002 -3.132664e-002 -6.484577e-003 3.872941e-002 -8.120004e-003 -1.399599e-002 -8.457297e-003 9.502449e-003 7.581361e-003 -1.404239e-002 1.124819e-002 -2.860078e-003 1.432715e-002 -8.726151e-003 1.703489e-002 1.486744e-002 2.823264e-002 6.767253e-003 -1.182924e-002
<VARIANCE> 39
 7.432257e+000 7.814355e+000 1.326531e+001 2.039340e+001 2.189888e+001 2.315329e+001 2.734717e+001 2.666496e+001 3.260247e+001 3.077876e+001 2.808844e+001 2.059080e+001 4.738821e+001 6.351008e-001 7.440799e-001 1.253558e+000 1.932343e+000 2.203935e+000 2.174630e+000 2.505450e+000 2.885868e+000 3.204992e+000 2.514718e+000 2.841522e+000 2.028760e+000 1.907132e-001 1.189249e-001 1.494219e-001 2.496923e-001 3.859400e-001 4.311527e-001 4.387626e-001 5.355684e-001 5.875831e-001 6.474789e-001 5.179325e-001 5.870652e-001 4.221291e-001 3.742913e-002
<GCONST> 1.021878e+002
<STATE> 3
<MEAN> 39
 -1.456104e+001 -2.926138e+000 -5.491582e+000 -1.547748e+000 -5.574314e+000 -7.902617e+000 -6.607144e+000 -5.041278e+000 -3.953168e+000 -4.656055e+000 -3.654434e+000 -4.330028e+000 6.013491e+001 -9.365798e-001 6.148031e-001 4.318048e-001 1.455045e-001 7.561004e-001 3.646526e-001 7.309438e-001 1.935620e-002 3.486422e-001 3.717245e-001 7.081713e-001 -1.783783e-002 -5.929211e-001 3.096294e-001 3.188030e-002 -2.150762e-001 -1.644199e-001 -1.574493e-001 6.248442e-003 -1.722365e-001 2.981599e-001 3.165143e-001 1.905934e-001 -2.038261e-001 -3.175324e-002 2.025781e-001
<VARIANCE> 39
 4.063840e+001 3.633339e+001 2.272878e+001 3.672938e+001 4.734024e+001 3.733367e+001 3.668490e+001 2.218844e+001 7.197279e+001 3.919193e+001 4.018933e+001 2.259623e+001 2.073596e+002 2.624159e+000 1.863483e+000 2.419849e+000 2.270787e+000 1.939889e+000 2.399263e+000 2.698921e+000 2.509727e+000 3.712502e+000 4.318293e+000 3.464075e+000 1.631708e+000 1.488746e+000 5.316205e-001 3.328153e-001 2.690363e-001 4.322420e-001 5.102157e-001 5.893725e-001 4.622137e-001 5.781674e-001 9.749306e-001 8.611725e-001 7.087069e-001 2.453458e-001 3.854093e-001
<GCONST> 1.223355e+002
<STATE> 4
<MEAN> 39
 -1.489754e+001 -2.493917e+000 -8.323239e+000 -5.701875e+000 -5.613843e+000 -1.475869e+001 -8.282210e+000 -4.201946e+000 -4.895846e-001 -3.309116e+000 3.887561e-001 -6.597571e+000 6.650282e+001 -2.780469e-001 -2.204970e-002 1.528652e-002 -7.701295e-002 -1.484671e-001 3.210301e-001 2.538777e-001 4.037852e-001 -5.419237e-002 2.608221e-001 5.850457e-002 8.615880e-002 3.720344e-001 2.432197e-001 -1.538821e-002 -4.518742e-002 -5.136294e-002 -1.673019e-001 9.776440e-003 -1.019926e-001 -2.344965e-002 -1.068091e-001 -8.888176e-002 -1.401438e-001 -7.482506e-003 2.047064e-001
<VARIANCE> 39
 5.075108e+001 3.783789e+001 4.707777e+001 7.618076e+001 2.994033e+001 1.219362e+002 4.529123e+001 5.254114e+001 4.493490e+001 3.070651e+001 3.012331e+001 3.276714e+001 1.231763e+002 3.936837e+000 2.338893e+000 3.301073e+000 2.785455e+000 3.263868e+000 5.894789e+000 3.549522e+000 5.348210e+000 5.944940e+000 4.574286e+000 2.664371e+000 3.208477e+000 3.214764e+000 7.003011e-001 3.905458e-001 5.163622e-001 4.593008e-001 5.959416e-001 8.907731e-001 5.192143e-001 8.366345e-001 1.070487e+000 9.641484e-001 6.997561e-001 6.718556e-001 4.980572e-001
<GCONST> 1.336709e+002
<TRANSP> 5
 0.000000e+000 1.000000e+000 0.000000e+000 0.000000e+000 0.000000e+000
 0.000000e+000 9.752129e-001 2.478707e-002 0.000000e+000 0.000000e+000
 0.000000e+000 0.000000e+000 6.039494e-001 3.960506e-001 0.000000e+000
 0.000000e+000 0.000000e+000 0.000000e+000 8.434643e-001 1.565358e-001
 0.000000e+000 0.000000e+000 0.000000e+000 0.000000e+000 0.000000e+000
<ENDHMM>
~h "g"
<BEGINHMM>
<NUMSTATES> 5
<STATE> 2
<MEAN> 39
 -3.321521e+000 -1.727164e+000 -1.289065e+000 -8.583758e+000 -7.554075e+000 -1.791549e+001 -1.027877e+001 -1.415752e+001 -3.640314e+000 -3.144285e-003 -2.972583e+000 -8.960069e+000 5.526287e+001 2.968754e-001 9.827893e-002 2.331141e-002 -2.872972e-001 -3.809485e-001 -2.233275e-001 3.031351e-001 1.890076e-001 -1.529031e-001 -2.114786e-001 -1.695519e-001 -2.793259e-001 6.830541e-001 -4.286910e-002 -1.287925e-001 -3.185440e-002 -1.502866e-001 -2.721691e-002 4.635314e-002 1.561804e-001 1.021376e-001 -1.103597e-002 -6.018647e-003 -3.855792e-002 2.536106e-002 1.119664e-001
<VARIANCE> 39
 5.835042e+001 4.955214e+001 6.414426e+001 9.555696e+001 7.811472e+001 5.916444e+001 9.882388e+001 1.129548e+002 7.293629e+001 1.201042e+002 5.871906e+001 1.100285e+002 1.588482e+002 3.015950e+000 5.469612e+000 4.778220e+000 5.650115e+000 5.530174e+000 5.116863e+000 6.755126e+000 1.233851e+001 5.364211e+000 5.828387e+000 4.826680e+000 6.210202e+000 7.438497e+000 2.843915e-001 8.038171e-001 7.245943e-001 8.551872e-001 6.278810e-001 8.047236e-001 1.064953e+000 2.102259e+000 1.014382e+000 1.072307e+000 7.814447e-001 1.010387e+000 8.553948e-001
<GCONST> 1.496205e+002
<STATE> 3
<MEAN> 39
 -2.668948e-001 -8.044510e-001 -5.663528e-001 -1.158200e+001 -9.868395e+000 -1.671945e+001 -5.756027e+000 -1.040198e+001 -4.133267e+000 -1.646962e+000 -3.353438e+000 -9.496282e+000 6.476820e+001 8.622277e-002 2.143242e-001 5.353054e-002 -1.791989e-001 -3.463594e-001 -1.573871e-001 6.207539e-001 -2.064689e-002 -3.154542e-001 -2.126620e-001 -7.611664e-003 -8.079463e-003 8.845785e-002 -1.068543e-001 -4.410100e-002 -1.366992e-001 7.965545e-002 1.282740e-001 1.680853e-001 3.560955e-002 6.724030e-002 -3.297603e-003 -8.014496e-002 4.244485e-002 1.579806e-001 -1.019046e-001
<VARIANCE> 39
 5.000742e+001 5.904653e+001 1.444780e+002 1.482951e+002 1.404922e+002 4.905652e+001 9.987990e+001 8.340823e+001 9.461130e+001 1.174572e+002 6.432597e+001 5.904592e+001 1.048767e+002 1.208618e+000 2.450655e+000 2.793152e+000 4.742279e+000 4.864384e+000 3.127005e+000 5.724265e+000 5.966047e+000 5.197614e+000 5.350339e+000 3.366513e+000 3.799227e+000 1.338985e+000 2.298813e-001 3.721920e-001 4.967223e-001 8.681644e-001 8.098544e-001 5.849597e-001 9.209965e-001 9.682899e-001 9.846773e-001 1.025956e+000 5.950615e-001 7.448575e-001 2.898140e-001
<GCONST> 1.396018e+002
<STATE> 4
<MEAN> 39
 -1.655194e-001 2.695331e+000 -5.215927e+000 -1.359101e+001 -1.087749e+001 -1.783231e+001 -3.755129e+000 -1.214024e+001 -2.394456e+000 -7.104956e+000 -4.595937e+000 -1.072129e+001 6.129728e+001 -1.047271e-001 6.182113e-002 -8.376405e-002 -1.661674e-002 1.545836e-001 1.957587e-001 8.740526e-002 -3.581112e-002 1.312177e-001 -1.191369e-001 -1.132056e-001 1.147783e-001 -1.763539e-001 -2.970913e-002 -6.721514e-002 -1.286655e-002 4.470784e-002 1.493958e-002 8.737993e-003 -2.050591e-002 7.195987e-002 2.028718e-002 -3.185926e-003 1.786258e-002 4.977149e-002 -1.166115e-002
<VARIANCE> 39
 5.104210e+001 1.074686e+002 1.575709e+002 8.713525e+001 1.622955e+002 7.343285e+001 7.878746e+001 8.221937e+001 9.978549e+001 8.593783e+001 6.369234e+001 8.807758e+001 9.235886e+001 1.205561e+000 2.211700e+000 2.828810e+000 4.402440e+000 6.044285e+000 3.279391e+000 5.105071e+000 5.205261e+000 4.312891e+000 4.080644e+000 3.601118e+000 3.327989e+000 8.674868e-001 1.775516e-001 2.933409e-001 4.413872e-001 8.120846e-001 9.278264e-001 5.974857e-001 1.028320e+000 7.114351e-001 7.232798e-001 7.153977e-001 6.115901e-001 6.567370e-001 1.403855e-001
<GCONST> 1.367519e+002
<TRANSP> 5
 0.000000e+000 1.000000e+000 0.000000e+000 0.000000e+000 0.000000e+000
 0.000000e+000 8.215729e-001 1.784271e-001 0.000000e+000 0.000000e+000
 0.000000e+000 0.000000e+000 6.846226e-001 3.153773e-001 0.000000e+000
 0.000000e+000 0.000000e+000 0.000000e+000 9.219896e-001 7.801038e-002
 0.000000e+000 0.000000e+000 0.000000e+000 0.000000e+000 0.000000e+000
<ENDHMM>
~h "h"
<BEGINHMM>
<NUMSTATES> 5
<STATE> 2
<MEAN> 39
 -1.641103e+001 -1.049070e+001 -5.790325e+000 -8.829907e+000 -2.779527e+000 -8.327745e+000 -1.259348e+000 -4.976330e+000 4.914257e-001 -3.605930e+000 4.345551e-001 -2.813947e+000 4.195375e+001 7.478354e-003 -1.142435e-002 -2.439187e-002 -4.171331e-002 -1.569106e-002 -2.040031e-003 -4.613642e-002 -3.930259e-002 -1.282507e-002 6.812306e-003 -7.731938e-003 -7.786300e-003 2.274412e-002 5.803586e-003 5.116583e-003 5.049251e-003 1.038662e-002 8.535224e-003 2.858676e-003 -8.942926e-003 1.248019e-003 -4.689566e-003 -8.177928e-003 -5.684893e-003 -1.087439e-003 -1.702237e-003
<VARIANCE> 39
 1.379005e+001 1.974760e+001 1.602312e+001 2.208826e+001 3.038760e+001 2.613165e+001 3.089193e+001 3.497045e+001 3.212090e+001 2.731492e+001 2.639536e+001 2.227674e+001 6.916131e+001 4.630601e-001 6.892775e-001 1.023725e+000 1.765412e+000 2.272507e+000 2.507088e+000 2.721832e+000 3.169007e+000 3.482123e+000 2.755874e+000 2.637005e+000 2.296102e+000 2.472602e-001 8.634067e-002 1.347491e-001 2.031808e-001 3.573531e-001 4.607386e-001 5.188466e-001 5.591195e-001 6.595393e-001 7.399418e-001 5.731189e-001 5.475303e-001 4.886577e-001 3.968203e-002
<GCONST> 1.053067e+002
<STATE> 3
<MEAN> 39
 -1.372953e+001 -8.056162e+000 -5.700808e+000 -9.696198e+000 -3.492476e+000 -8.479386e+000 -3.033743e+000 -4.226618e+000 -8.156637e-001 -3.160829e+000 -9.710727e-001 -2.709756e+000 5.176641e+001 5.991736e-002 5.671623e-004 -7.600728e-002 -1.739071e-001 -1.199948e-002 -3.514876e-003 -1.962503e-001 -5.685171e-002 -5.965715e-002 -1.147801e-002 -5.075153e-002 -3.302015e-002 1.540940e-001 5.822014e-002 3.518379e-002 -5.895884e-003 9.060199e-003 2.324115e-002 -1.006978e-002 -3.074167e-002 3.865076e-002 -1.945436e-002 -1.704822e-002 -2.400168e-002 -3.574193e-003 6.286019e-003
<VARIANCE> 39
 4.795111e+001 5.066011e+001 4.530942e+001 5.348288e+001 7.581202e+001 4.812997e+001 6.133969e+001 5.926466e+001 5.627549e+001 4.683296e+001 4.459474e+001 3.668742e+001 2.440076e+002 1.097195e+000 1.243644e+000 1.649507e+000 2.419724e+000 3.197179e+000 2.822004e+000 3.581012e+000 3.657709e+000 3.795686e+000 3.111225e+000 2.990576e+000 2.604734e+000 6.830221e-001 2.078773e-001 2.255047e-001 2.946924e-001 4.566102e-001 5.979966e-001 5.424287e-001 6.650788e-001 6.999046e-001 7.502472e-001 6.177309e-001 5.853347e-001 5.108364e-001 1.092368e-001
<GCONST> 1.239006e+002
<STATE> 4
<MEAN> 39
 -1.253710e+001 -6.911254e+000 -6.578104e+000 -1.104068e+001 -3.660237e+000 -8.522033e+000 -4.171751e+000 -3.959873e+000 -6.172445e-001 -2.321240e+000 -8.326052e-001 -2.518379e+000 5.389563e+001 2.112664e-001 8.384657e-002 -1.222156e-001 -1.994584e-001 4.520372e-002 -3.449629e-002 -3.035143e-001 4.220541e-002 -1.104553e-001 -5.238310e-002 -1.216063e-001 -7.177763e-002 2.319009e-001 2.056197e-001 1.155731e-001 -2.230332e-002 -4.317436e-002 -3.573282e-002 -2.842871e-002 -8.121654e-002 1.313772e-002 -6.973134e-002 -7.860991e-002 -6.966397e-002 -8.410878e-003 1.142775e-001
<VARIANCE> 39
 5.907580e+001 5.895668e+001 6.116435e+001 7.375323e+001 1.032234e+002 6.171034e+001 7.774013e+001 6.961613e+001 7.101488e+001 5.823222e+001 6.327930e+001 4.834270e+001 2.401711e+002 1.577606e+000 1.620968e+000 2.093385e+000 3.044788e+000 4.072647e+000 3.302154e+000 4.063981e+000 4.422076e+000 4.444273e+000 3.320372e+000 3.373100e+000 3.044351e+000 9.254717e-001 3.485246e-001 3.227910e-001 3.987854e-001 5.559373e-001 7.534561e-001 6.539274e-001 7.580721e-001 8.195328e-001 8.212190e-001 6.480361e-001 6.449515e-001 5.678232e-001 1.969225e-001
<GCONST> 1.325242e+002
<TRANSP> 5
 0.000000e+000 1.000000e+000 0.000000e+000 0.000000e+000 0.000000e+000
 0.000000e+000 9.340455e-001 6.595453e-002 0.000000e+000 0.000000e+000
 0.000000e+000 0.000000e+000 6.695159e-001 3.304841e-001 0.000000e+000
 0.000000e+000 0.000000e+000 0.000000e+000 5.846657e-001 4.153344e-001
 0.000000e+000 0.000000e+000 0.000000e+000 0.000000e+000 0.000000e+000
<ENDHMM>
~h "i"
<BEGINHMM>
<NUMSTATES> 5
<STATE> 2
<MEAN> 39
 -8.043584e+000 3.493011e+000 6.871408e+000 -1.931812e+001 -1.455239e+001 -1.073959e+001 -9.618546e+000 -1.225729e+001 -1.986315e+000 -2.585314e+000 -5.773067e+000 -2.306700e+000 6.745708e+001 2.868163e-001 6.436268e-001 1.152721e+000 -1.460210e+000 -8.115439e-001 2.259087e-001 -7.617863e-001 -6.910314e-001 3.566944e-002 1.623447e-001 -6.937124e-001 2.983725e-001 9.127023e-001 -1.233658e-001 -1.177088e-001 -2.550442e-001 1.581357e-001 2.936765e-001 1.131287e-001 1.890678e-001 2.013368e-001 4.560062e-002 -7.504419e-004 6.620198e-002 3.427767e-002 -1.830307e-001
<VARIANCE> 39
 8.032751e+001 6.390459e+001 8.997835e+001 1.617021e+002 1.059189e+002 8.243023e+001 9.644019e+001 7.395193e+001 6.426839e+001 7.006124e+001 7.508864e+001 4.829193e+001 1.066562e+002 4.536306e+000 3.866294e+000 5.712173e+000 8.361974e+000 7.855547e+000 5.622914e+000 6.569413e+000 5.754139e+000 4.631078e+000 4.503133e+000 5.075274e+000 3.850210e+000 4.653091e+000 6.715677e-001 6.677599e-001 8.786293e-001 1.308112e+000 1.352470e+000 1.007236e+000 1.136336e+000 1.007736e+000 8.502498e-001 8.281734e-001 8.724384e-001 6.700562e-001 6.244485e-001
<GCONST> 1.491531e+002
<STATE> 3
<MEAN> 39
 -7.273750e+000 5.433794e+000 9.649788e+000 -2.416151e+001 -1.496593e+001 -8.908254e+000 -1.070354e+001 -1.397318e+001 -1.731521e+000 -2.412443e+000 -8.168267e+000 -9.630733e-001 6.945954e+001 2.919734e-002 1.676854e-001 2.147613e-002 -9.212624e-002 1.560018e-001 2.190401e-001 -1.972069e-002 -6.761119e-002 1.014098e-002 -3.704831e-002 -1.148396e-001 7.663414e-002 -9.488453e-003 -4.172744e-002 -1.186972e-001 -2.951589e-001 3.671097e-001 2.204648e-001 -3.081375e-002 1.763024e-001 1.404983e-001 -1.582871e-002 -4.487263e-002 1.566677e-001 -7.226969e-002 -2.128090e-001
<VARIANCE> 39
 6.516825e+001 5.858335e+001 8.653582e+001 1.876693e+002 8.935966e+001 9.141682e+001 9.277766e+001 7.066428e+001 6.488473e+001 7.583179e+001 8.487240e+001 5.491087e+001 7.259810e+001 2.761517e+000 2.806265e+000 4.810357e+000 7.996144e+000 5.620552e+000 4.498278e+000 5.407234e+000 4.541423e+000 3.985182e+000 3.940450e+000 4.519287e+000 3.479406e+000 3.200066e+000 4.236782e-001 4.737629e-001 7.067227e-001 1.103052e+000 1.017550e+000 8.361485e-001 9.690436e-001 8.608309e-001 7.569224e-001 7.456135e-001 7.867416e-001 6.277293e-001 3.815903e-001
<GCONST> 1.430111e+002
<STATE> 4
<MEAN> 39
 -7.057590e+000 5.566734e+000 7.654748e+000 -2.150617e+001 -1.268533e+001 -8.241834e+000 -9.311750e+000 -1.386237e+001 -1.707128e+000 -3.539279e+000 -7.055840e+000 -1.611604e+000 6.720939e+001 -4.124817e-002 -3.663608e-001 -9.303193e-001 1.172818e+000 6.206176e-001 -9.093904e-002 4.374587e-001 3.514085e-001 -6.111780e-002 -1.166072e-001 4.585349e-001 -2.283796e-001 -6.148105e-001 -2.414578e-002 -1.152757e-001 -1.365892e-001 1.002222e-001 7.872128e-002 -3.855784e-002 4.992162e-002 9.634098e-002 1.482156e-003 1.309130e-002 5.209753e-002 -1.286451e-002 -4.510360e-002
<VARIANCE> 39
 7.387766e+001 6.524456e+001 8.595310e+001 2.008843e+002 8.867979e+001 9.658074e+001 9.361049e+001 7.857334e+001 6.543789e+001 7.782902e+001 8.121606e+001 5.731890e+001 8.686906e+001 2.560567e+000 2.889255e+000 4.383648e+000 7.131318e+000 4.927622e+000 4.783538e+000 5.231237e+000 4.814227e+000 4.157586e+000 4.113093e+000 4.384572e+000 3.638997e+000 2.530642e+000 3.316506e-001 4.448635e-001 6.321242e-001 1.092262e+000 8.613119e-001 8.328196e-001 9.210858e-001 8.378264e-001 7.726572e-001 7.526064e-001 7.588597e-001 6.535167e-001 3.416536e-001
<GCONST> 1.424930e+002
<TRANSP> 5
 0.000000e+000 1.000000e+000 0.000000e+000 0.000000e+000 0.000000e+000
 0.000000e+000 7.021869e-001 2.978131e-001 0.000000e+000 0.000000e+000
 0.000000e+000 0.000000e+000 7.723679e-001 2.276321e-001 0.000000e+000
 0.000000e+000 0.000000e+000 0.000000e+000 8.188946e-001 1.811055e-001
 0.000000e+000 0.000000e+000 0.000000e+000 0.000000e+000 0.000000e+000
<ENDHMM>
~h "j"
<BEGINHMM>
<NUMSTATES> 5
<STATE> 2
<MEAN> 39
 -1.376806e+001 -5.662269e+000 -7.753967e+000 -1.159511e+001 -4.361240e+000 -7.838157e+000 -2.851920e+000 -1.816009e+000 -1.156821e+000 -3.818142e+000 -1.269091e+000 -2.690373e+000 5.519400e+001 -1.125697e-001 -4.609634e-003 -1.260663e-001 -3.266620e-001 -1.789570e-001 1.173661e-001 -5.594370e-003 -1.645180e-001 1.538167e-001 4.049886e-001 1.379582e-001 1.648709e-002 -7.296958e-002 1.202112e-001 -4.092766e-003 2.692191e-002 -3.525717e-003 -3.262051e-002 -6.418726e-002 -2.401154e-002 7.107946e-003 -1.149655e-002 -3.506622e-002 -8.366232e-002 -4.222616e-002 6.118712e-002
<VARIANCE> 39
 4.577991e+001 3.920274e+001 7.031818e+001 6.374549e+001 6.164706e+001 6.208447e+001 5.130210e+001 8.284564e+001 6.016365e+001 5.212260e+001 4.217230e+001 5.214554e+001 2.560253e+002 1.734538e+000 1.753546e+000 2.530979e+000 3.999827e+000 3.117466e+000 4.238146e+000 3.870149e+000 4.091734e+000 4.108288e+000 4.326353e+000 2.550061e+000 3.415546e+000 1.878867e+000 2.506881e-001 2.479855e-001 4.106321e-001 6.239821e-001 5.736160e-001 8.167560e-001 6.810566e-001 7.069471e-001 7.516446e-001 7.314302e-001 4.922760e-001 6.330527e-001 2.172566e-001
<GCONST> 1.309980e+002
<STATE> 3
<MEAN> 39
 -1.194359e+001 -4.437507e+000 -7.323425e+000 -1.361949e+001 -5.318530e+000 -8.399138e+000 -4.415227e+000 -2.533800e+000 -2.280973e+000 -1.766214e+000 1.573461e-001 -3.608904e+000 5.990710e+001 2.736565e-001 1.798279e-001 3.500330e-002 -3.898245e-001 -2.889101e-001 -9.197123e-002 -4.409573e-002 -1.759280e-001 4.867541e-002 2.799598e-001 -1.082548e-001 -2.278691e-001 1.356880e-001 1.668285e-001 9.277605e-002 1.319663e-001 3.604070e-002 -2.559128e-002 -8.997690e-002 -5.680515e-002 -3.372270e-002 -4.206234e-002 -1.222745e-001 -1.164782e-001 -3.073259e-002 6.855793e-002
<VARIANCE> 39
 6.551767e+001 4.127498e+001 8.455286e+001 8.479549e+001 7.120702e+001 7.917958e+001 6.537222e+001 8.076141e+001 6.901948e+001 5.418761e+001 5.275912e+001 6.292139e+001 1.824622e+002 2.310516e+000 2.375587e+000 2.756411e+000 3.790637e+000 4.285015e+000 4.500212e+000 4.499160e+000 4.629405e+000 4.502702e+000 4.736276e+000 3.097850e+000 3.397036e+000 2.289730e+000 3.600375e-001 3.724395e-001 4.814154e-001 7.092404e-001 6.441686e-001 8.598977e-001 7.904121e-001 8.239437e-001 8.418402e-001 8.161814e-001 5.750831e-001 5.835461e-001 3.443449e-001
<GCONST> 1.368574e+002
<STATE> 4
<MEAN> 39
 -9.730554e+000 -3.671855e+000 -7.901298e+000 -1.492193e+001 -4.688550e+000 -7.741062e+000 -4.399307e+000 -2.521904e+000 -3.144168e+000 -1.269215e+000 9.398268e-001 -4.363407e+000 6.114942e+001 4.993457e-001 4.161870e-001 3.001503e-001 -2.780168e-001 -3.115480e-001 -2.785923e-001 -3.834639e-001 -2.547929e-001 -1.390929e-002 -9.688793e-002 -2.813186e-001 -1.557336e-001 2.962204e-001 1.664501e-001 1.242053e-001 9.902852e-002 -4.639467e-002 -1.052139e-001 -6.300069e-002 -1.389970e-001 -1.469982e-001 -1.005339e-001 -1.457136e-001 -1.202639e-001 5.813191e-002 1.134957e-001
<VARIANCE> 39
 7.274217e+001 4.321450e+001 1.116281e+002 1.034385e+002 9.720661e+001 9.115297e+001 8.570171e+001 7.702517e+001 8.020084e+001 5.721352e+001 7.723878e+001 8.276433e+001 1.817991e+002 2.752477e+000 3.028749e+000 3.078354e+000 4.149230e+000 4.878090e+000 4.941761e+000 5.079351e+000 5.505731e+000 5.420201e+000 4.709900e+000 3.420326e+000 3.727078e+000 3.025236e+000 4.851969e-001 4.688194e-001 5.035309e-001 7.388617e-001 8.417221e-001 8.794498e-001 9.137206e-001 8.064138e-001 9.672830e-001 9.952153e-001 6.372264e-001 6.628355e-001 4.384522e-001
<GCONST> 1.426395e+002
<TRANSP> 5
 0.000000e+000 1.000000e+000 0.000000e+000 0.000000e+000 0.000000e+000
 0.000000e+000 6.525770e-001 3.474230e-001 0.000000e+000 0.000000e+000
 0.000000e+000 0.000000e+000 4.732172e-001 5.267828e-001 0.000000e+000
 0.000000e+000 0.000000e+000 0.000000e+000 4.796861e-001 5.203139e-001
 0.000000e+000 0.000000e+000 0.000000e+000 0.000000e+000 0.000000e+000
<ENDHMM>
~h "k"
<BEGINHMM>
<NUMSTATES> 5
<STATE> 2
<MEAN> 39
 -9.636318e+000 -1.306555e+000 -4.123459e+000 -1.091093e+001 -5.701857e+000 -1.004519e+001 -3.306305e+000 -5.086040e+000 -9.092590e-001 -3.139367e+000 -2.340778e+000 -2.112495e+000 5.625344e+001 1.622693e-001 -2.985335e-001 -7.880760e-001 -3.429439e-001 2.467256e-001 2.468197e-002 1.901014e-001 4.254111e-001 -1.417668e-001 1.428445e-001 1.772220e-001 1.099357e-001 1.506707e-001 1.685904e-001 -2.212694e-002 -1.123524e-001 -3.494568e-001 -2.766983e-002 1.084775e-002 -1.652212e-001 -3.561303e-002 -1.132177e-001 -3.627063e-002 -8.297360e-002 -2.965304e-002 4.463530e-001
<VARIANCE> 39
 7.393872e+001 8.713834e+001 7.471326e+001 1.056226e+002 9.217233e+001 8.382780e+001 7.522027e+001 8.041824e+001 6.251022e+001 6.339135e+001 6.224785e+001 4.334944e+001 1.231654e+002 4.357344e+000 5.020101e+000 6.086302e+000 7.830278e+000 7.300693e+000 7.162595e+000 6.751394e+000 6.626354e+000 5.764854e+000 5.119052e+000 5.439442e+000 4.017416e+000 7.950716e+000 6.168246e-001 8.422940e-001 1.045045e+000 1.303982e+000 1.273967e+000 1.307810e+000 1.202122e+000 1.211112e+000 1.093642e+000 9.677224e-001 9.606642e-001 7.525739e-001 9.274869e-001
<GCONST> 1.515273e+002
<STATE> 3
<MEAN> 39
 -7.509401e+000 -1.469543e+000 -6.728941e+000 -1.396764e+001 -5.442932e+000 -9.799343e+000 -3.995869e+000 -4.576139e+000 -2.134020e+000 -2.994019e+000 -2.435896e+000 -2.073870e+000 5.923431e+001 6.093004e-001 -1.281163e-001 -8.671595e-001 -1.095499e+000 1.126189e-001 5.674459e-003 -3.659155e-001 1.321663e-001 -4.764465e-001 -7.901029e-003 -4.409171e-002 6.850779e-003 1.253083e+000 1.264066e-001 9.346303e-002 1.442674e-001 -1.204195e-001 -1.131194e-001 -9.186534e-003 -1.781018e-001 -1.864744e-001 -5.316576e-002 -6.142807e-002 -8.305089e-002 -3.741099e-002 2.533985e-001
<VARIANCE> 39
 8.116647e+001 8.961108e+001 1.055214e+002 1.341945e+002 1.058685e+002 9.717398e+001 8.752223e+001 9.515002e+001 7.757770e+001 7.033678e+001 6.565070e+001 4.793386e+001 1.194916e+002 5.075098e+000 6.333100e+000 8.740111e+000 9.965422e+000 8.864485e+000 8.154165e+000 8.232935e+000 8.394105e+000 7.154648e+000 5.797804e+000 5.925854e+000 4.403457e+000 8.626521e+000 7.315222e-001 1.061064e+000 1.485912e+000 1.769188e+000 1.583932e+000 1.505111e+000 1.445922e+000 1.479416e+000 1.305473e+000 1.081565e+000 1.023896e+000 8.354985e-001 1.088706e+000
<GCONST> 1.580469e+002
<STATE> 4
<MEAN> 39
 -4.644911e+000 -1.199508e+000 -8.387280e+000 -1.774993e+001 -5.480915e+000 -1.006854e+001 -5.890126e+000 -5.474911e+000 -3.915355e+000 -3.434917e+000 -2.945851e+000 -2.294195e+000 6.380467e+001 7.129607e-001 1.328898e-001 -8.619119e-002 -8.196771e-001 -2.685806e-001 -9.858936e-002 -6.432570e-001 -4.242683e-001 -3.334346e-001 -1.858094e-001 -2.346262e-001 -3.555374e-002 1.378851e+000 -3.438625e-002 2.301512e-002 2.938228e-001 1.857015e-001 -1.243930e-001 1.636724e-002 -1.167898e-002 -1.616420e-001 1.177315e-001 -2.541866e-002 -5.063961e-002 -9.347114e-003 -1.167754e-001
<VARIANCE> 39
 9.390354e+001 9.755891e+001 1.229154e+002 1.373686e+002 1.146733e+002 1.094399e+002 1.062248e+002 1.151691e+002 9.126247e+001 7.913730e+001 7.399154e+001 5.248693e+001 1.079812e+002 4.702975e+000 6.458161e+000 8.446096e+000 9.588671e+000 9.053090e+000 7.899673e+000 8.910835e+000 9.129424e+000 7.456521e+000 6.067332e+000 6.142252e+000 4.549775e+000 6.979588e+000 7.525254e-001 1.129273e+000 1.499289e+000 1.718545e+000 1.700577e+000 1.559916e+000 1.596878e+000 1.657519e+000 1.429992e+000 1.164841e+000 1.076754e+000 8.923761e-001 9.776873e-001
<GCONST> 1.599572e+002
<TRANSP> 5
 0.000000e+000 1.000000e+000 0.000000e+000 0.000000e+000 0.000000e+000
 0.000000e+000 6.371076e-001 3.628924e-001 0.000000e+000 0.000000e+000
 0.000000e+000 0.000000e+000 6.463379e-001 3.536622e-001 0.000000e+000
 0.000000e+000 0.000000e+000 0.000000e+000 6.897215e-001 3.102784e-001
 0.000000e+000 0.000000e+000 0.000000e+000 0.000000e+000 0.000000e+000
<ENDHMM>
~h "l"
<BEGINHMM>
<NUMSTATES> 5
<STATE> 2
<MEAN> 39
 -5.937207e+000 -4.903812e+000 -1.158833e+000 -1.291216e+001 -9.983783e+000 -1.731394e+001 -1.059624e+001 -5.860275e+000 -1.124472e-001 -5.511579e+000 -3.093870e+000 6.245013e-001 6.671568e+001 2.393025e-002 2.597895e-001 3.557361e-001 1.484212e-001 -2.662454e-001 -4.822613e-001 1.040499e-001 1.340437e-001 -1.345137e-001 -3.412234e-001 1.340009e-001 5.260994e-001 1.485595e-002 9.132990e-003 1.773678e-002 -1.039530e-001 -2.110936e-001 -1.085194e-002 2.380324e-001 2.121372e-002 -1.471676e-002 3.177771e-002 1.101031e-001 1.905187e-002 -8.540140e-002 4.758353e-002
<VARIANCE> 39
 6.035064e+001 6.221824e+001 5.055566e+001 8.300809e+001 6.800729e+001 8.744272e+001 9.699076e+001 6.434298e+001 6.531475e+001 7.116468e+001 6.216952e+001 5.993180e+001 1.397247e+002 1.633604e+000 2.298545e+000 2.204962e+000 3.618746e+000 3.467341e+000 4.763484e+000 5.204994e+000 4.075403e+000 3.868310e+000 4.462643e+000 3.446537e+000 3.380284e+000 1.761211e+000 2.222660e-001 3.643813e-001 3.147881e-001 6.310806e-001 6.443419e-001 8.453130e-001 8.791705e-001 7.147911e-001 7.008879e-001 7.457505e-001 7.122821e-001 6.256060e-001 2.311028e-001
<GCONST> 1.342915e+002
<STATE> 3
<MEAN> 39
 -4.644605e+000 -4.439285e+000 -2.871142e-003 -1.389359e+001 -1.059228e+001 -1.788975e+001 -1.132837e+001 -5.549250e+000 -3.250628e-001 -6.791662e+000 -3.934701e+000 1.772034e+000 6.877081e+001 4.695353e-002 2.167442e-001 1.056803e-001 -1.747585e-001 -3.139959e-001 1.840897e-002 1.579260e-001 1.668219e-001 6.110368e-003 -1.549513e-001 8.492918e-002 2.047966e-001 1.311713e-001 -1.419037e-002 -1.673782e-002 -1.398150e-001 -1.503946e-001 2.193665e-003 2.327688e-001 7.933933e-002 1.099379e-003 -4.781862e-004 1.324054e-001 -2.254448e-002 -1.803686e-001 5.751334e-002
<VARIANCE> 39
 6.777503e+001 6.188393e+001 5.389086e+001 8.729568e+001 6.756833e+001 8.719530e+001 8.950195e+001 7.521854e+001 7.363197e+001 7.939938e+001 6.346565e+001 6.968780e+001 1.060074e+002 1.781323e+000 2.549775e+000 2.408426e+000 3.779725e+000 3.841558e+000 5.245119e+000 5.750122e+000 4.588147e+000 4.096215e+000 5.292138e+000 3.576443e+000 3.721915e+000 2.187904e+000 2.358256e-001 4.210841e-001 3.644893e-001 6.092299e-001 6.621356e-001 8.098264e-001 9.610469e-001 7.787852e-001 7.943534e-001 9.194071e-001 7.041807e-001 7.183058e-001 2.847942e-001
<GCONST> 1.371690e+002
<STATE> 4
<MEAN> 39
 -1.581987e+000 -4.795333e+000 9.644023e-001 -1.726602e+001 -9.400349e+000 -1.860977e+001 -1.141570e+001 -3.125896e+000 9.714977e-001 -8.491244e+000 -5.830417e+000 4.386098e+000 7.056433e+001 -4.655068e-002 -1.377985e-001 -3.181227e-001 -3.040548e-001 -2.950040e-003 4.616508e-001 5.081097e-001 1.373187e-001 -2.586102e-001 1.411757e-001 -7.934811e-002 -2.619884e-001 3.985536e-001 -7.464309e-002 -6.303089e-002 -1.209409e-001 -3.566013e-003 7.828224e-002 1.975556e-001 1.212631e-001 -5.842540e-002 -1.026999e-001 1.125361e-001 -1.386880e-002 -1.599407e-001 -1.343682e-002
<VARIANCE> 39
 7.199080e+001 7.058981e+001 6.768264e+001 1.108131e+002 1.005108e+002 1.006509e+002 1.007111e+002 1.208727e+002 9.494298e+001 9.765015e+001 8.094938e+001 9.678304e+001 9.014202e+001 1.844408e+000 3.817859e+000 2.736205e+000 4.114502e+000 4.416533e+000 5.652748e+000 6.715684e+000 5.510127e+000 5.552617e+000 6.112698e+000 4.172598e+000 4.802920e+000 3.099713e+000 2.826995e-001 5.667660e-001 3.749325e-001 6.846769e-001 6.955194e-001 8.157914e-001 1.095170e+000 8.869660e-001 9.813410e-001 1.034230e+000 7.119808e-001 8.333600e-001 4.091884e-001
<GCONST> 1.440323e+002
<TRANSP> 5
 0.000000e+000 1.000000e+000 0.000000e+000 0.000000e+000 0.000000e+000
 0.000000e+000 5.937489e-001 4.062511e-001 0.000000e+000 0.000000e+000
 0.000000e+000 0.000000e+000 5.568036e-001 4.431964e-001 0.000000e+000
 0.000000e+000 0.000000e+000 0.000000e+000 7.141492e-001 2.858508e-001
 0.000000e+000 0.000000e+000 0.000000e+000 0.000000e+000 0.000000e+000
<ENDHMM>
~h "m"
<BEGINHMM>
<NUMSTATES> 5
<STATE> 2
<MEAN> 39
 -8.647151e-001 -5.384364e+000 -4.541008e+000 -1.107306e+001 -6.402612e+000 -1.105652e+001 -1.235237e+001 -1.122365e+001 -5.759074e+000 -3.162019e+000 -5.461959e+000 -6.987540e+000 6.881171e+001 2.907456e-001 1.093137e-001 1.146102e-001 4.934833e-001 9.954198e-002 -2.314257e-001 -2.676910e-001 -7.816692e-001 -4.150092e-001 2.675677e-001 -8.394687e-002 -3.646423e-001 -3.016663e-002 -1.256233e-001 -3.834091e-002 9.444711e-003 -1.308091e-001 2.472444e-003 3.667816e-002 1.247331e-001 2.427827e-001 8.851778e-002 -5.802413e-002 -1.826358e-004 9.035505e-002 4.832365e-002
<VARIANCE> 39
 6.919947e+001 7.072146e+001 5.501354e+001 7.822015e+001 7.007666e+001 5.927678e+001 9.968005e+001 1.139333e+002 6.124042e+001 7.399552e+001 5.719566e+001 4.294614e+001 9.966686e+001 1.256789e+000 2.442967e+000 2.772305e+000 3.399394e+000 2.897158e+000 3.187873e+000 4.037368e+000 6.569521e+000 4.026707e+000 3.687390e+000 2.908530e+000 2.815691e+000 1.616670e+000 1.746145e-001 3.011039e-001 4.318659e-001 5.233622e-001 4.500975e-001 5.387017e-001 6.504877e-001 9.840754e-001 6.770577e-001 6.294367e-001 5.098224e-001 4.790081e-001 1.414678e-001
<GCONST> 1.306699e+002
<STATE> 3
<MEAN> 39
 -2.517888e-001 -5.321217e+000 -4.539756e+000 -1.062691e+001 -5.900620e+000 -1.144665e+001 -1.248318e+001 -1.125083e+001 -6.907023e+000 -3.475863e+000 -5.886572e+000 -7.896906e+000 6.944453e+001 -4.261653e-002 1.600579e-002 -5.584508e-002 8.499579e-002 7.825257e-002 -8.382774e-002 6.033077e-002 1.852354e-001 3.524758e-003 -4.943057e-002 -5.783898e-002 -4.414782e-002 2.656222e-002 -5.995350e-002 -3.073988e-002 -3.948258e-002 -1.090569e-001 -6.698164e-003 2.960745e-002 5.770659e-002 2.365305e-001 9.562606e-002 -9.477517e-002 9.045433e-003 9.553427e-002 3.870445e-002
<VARIANCE> 39
 6.865283e+001 7.926400e+001 5.273944e+001 7.164581e+001 6.395189e+001 5.848082e+001 9.288382e+001 1.112027e+002 6.634740e+001 7.608453e+001 5.992586e+001 4.438348e+001 8.218478e+001 7.293140e-001 1.900640e+000 2.396714e+000 2.945906e+000 2.401453e+000 2.688607e+000 3.082844e+000 6.466521e+000 3.722689e+000 3.551496e+000 2.608288e+000 2.632370e+000 1.053218e+000 1.176919e-001 2.417943e-001 3.858336e-001 4.929570e-001 3.927130e-001 4.651398e-001 5.258624e-001 9.610060e-001 6.412509e-001 6.180310e-001 4.752520e-001 4.756412e-001 1.117982e-001
<GCONST> 1.263010e+002
<STATE> 4
<MEAN> 39
 -8.197056e-001 -3.727257e+000 -4.679049e+000 -1.023005e+001 -5.723021e+000 -1.173557e+001 -1.126040e+001 -9.227827e+000 -6.517061e+000 -5.089878e+000 -5.922763e+000 -7.655272e+000 6.810057e+001 -2.600792e-001 -3.905039e-002 -1.085836e-001 -1.093362e-001 4.461736e-002 2.213818e-002 2.163742e-001 6.876584e-001 2.883808e-001 -2.639057e-001 8.282010e-003 2.720116e-001 -3.446312e-002 -3.903667e-002 -2.209716e-002 2.031108e-002 -6.504178e-002 -1.472622e-002 2.679552e-002 4.288460e-002 8.816218e-002 2.623002e-002 -4.934319e-002 3.328173e-002 9.457911e-002 6.351899e-003
<VARIANCE> 39
 7.262355e+001 1.037829e+002 5.996753e+001 7.509407e+001 6.714135e+001 6.014098e+001 9.318233e+001 1.093933e+002 7.416634e+001 7.540910e+001 6.076536e+001 4.879431e+001 1.027446e+002 8.753338e-001 2.159124e+000 2.561924e+000 3.060495e+000 2.664878e+000 2.923046e+000 3.316975e+000 6.366189e+000 3.887577e+000 3.889811e+000 2.865809e+000 2.868863e+000 1.154477e+000 1.396411e-001 2.913074e-001 4.202960e-001 5.209911e-001 4.422227e-001 5.065787e-001 5.494900e-001 9.424450e-001 6.710082e-001 6.680967e-001 5.082847e-001 5.294617e-001 1.353328e-001
<GCONST> 1.295819e+002
<TRANSP> 5
 0.000000e+000 1.000000e+000 0.000000e+000 0.000000e+000 0.000000e+000
 0.000000e+000 7.034338e-001 2.965662e-001 0.000000e+000 0.000000e+000
 0.000000e+000 0.000000e+000 7.669688e-001 2.330312e-001 0.000000e+000
 0.000000e+000 0.000000e+000 0.000000e+000 7.977552e-001 2.022448e-001
 0.000000e+000 0.000000e+000 0.000000e+000 0.000000e+000 0.000000e+000
<ENDHMM>
~h "n"
<BEGINHMM>
<NUMSTATES> 5
<STATE> 2
<MEAN> 39
 1.429731e+000 -3.052904e+000 -4.801693e+000 -1.610382e+001 -9.479383e+000 -1.267739e+001 -1.006881e+001 -8.293375e+000 -5.253072e+000 -5.087276e+000 -6.155947e+000 -5.015831e+000 7.059180e+001 2.517227e-001 3.702873e-001 2.636990e-001 5.814077e-001 -3.118055e-001 -3.968578e-001 1.977312e-001 -4.195206e-001 -1.964939e-001 -5.912506e-003 -1.326381e-001 -1.815832e-001 -3.146379e-001 -9.028484e-002 -2.323460e-003 -9.081527e-003 -4.080314e-002 7.654364e-002 7.961952e-002 3.904366e-002 8.349694e-002 1.696030e-002 -3.227940e-002 5.356637e-002 5.658416e-002 -1.928793e-002
<VARIANCE> 39
 7.108488e+001 7.842972e+001 7.106426e+001 9.961089e+001 9.229240e+001 9.309938e+001 1.018458e+002 1.417573e+002 7.738090e+001 9.116723e+001 7.474197e+001 6.206750e+001 5.029350e+001 1.456835e+000 2.838114e+000 3.332249e+000 3.941833e+000 4.002866e+000 4.303259e+000 4.953982e+000 6.859188e+000 4.430464e+000 4.397526e+000 4.005276e+000 3.428773e+000 1.551468e+000 1.941120e-001 3.379623e-001 4.664578e-001 6.007327e-001 6.157644e-001 6.825367e-001 8.056831e-001 1.027792e+000 7.401460e-001 7.325996e-001 6.670918e-001 5.809498e-001 1.634771e-001
<GCONST> 1.369985e+002
<STATE> 3
<MEAN> 39
 1.533291e+000 -1.059044e+000 -4.110904e+000 -1.382785e+001 -9.829499e+000 -1.368262e+001 -9.503029e+000 -8.517994e+000 -5.705138e+000 -6.180325e+000 -5.900068e+000 -5.697041e+000 6.917214e+001 -1.005777e-001 3.644742e-001 1.317455e-001 3.836299e-001 7.696880e-002 -5.865673e-002 2.310606e-001 -1.410003e-003 -9.220321e-002 -1.680159e-001 4.348459e-002 -3.339153e-002 -3.919341e-001 -1.136704e-001 -6.705960e-002 -4.978732e-002 -8.361181e-002 1.300053e-001 1.101515e-001 2.728969e-003 1.518407e-001 3.279556e-002 -2.384125e-002 7.083572e-002 4.425109e-002 1.714993e-002
<VARIANCE> 39
 7.285600e+001 8.126633e+001 6.008128e+001 8.694382e+001 8.049194e+001 8.011254e+001 9.573711e+001 1.290101e+002 7.318513e+001 9.110221e+001 7.065308e+001 6.431254e+001 5.039729e+001 1.071398e+000 2.481922e+000 2.591933e+000 3.190104e+000 3.580090e+000 3.704929e+000 4.213479e+000 6.214516e+000 3.768268e+000 3.850734e+000 3.422894e+000 3.049848e+000 1.256144e+000 1.471539e-001 3.020045e-001 4.136362e-001 5.119874e-001 5.500438e-001 6.003069e-001 7.151686e-001 9.298921e-001 6.581339e-001 6.751144e-001 6.122716e-001 5.411031e-001 1.331839e-001
<GCONST> 1.323393e+002
<STATE> 4
<MEAN> 39
 -4.052722e-001 1.643190e+000 -3.416162e+000 -1.125809e+001 -8.471947e+000 -1.316136e+001 -8.294305e+000 -7.766994e+000 -5.604748e+000 -7.976539e+000 -5.179730e+000 -6.072623e+000 6.594247e+001 -6.171126e-001 -5.382038e-003 2.689069e-002 2.309916e-001 4.869793e-001 3.066729e-001 2.895463e-001 4.131292e-001 1.124407e-001 -9.833422e-002 2.412737e-001 1.537692e-001 -4.715047e-001 -1.173982e-001 -1.520935e-001 -4.421962e-002 -8.756541e-002 7.503343e-002 8.013903e-002 1.203096e-003 9.906537e-002 6.507606e-002 5.256886e-002 6.394988e-002 5.116184e-002 3.081902e-002
<VARIANCE> 39
 8.206416e+001 9.230180e+001 5.592745e+001 8.407494e+001 7.702917e+001 7.084716e+001 8.869663e+001 1.186861e+002 6.708321e+001 8.665556e+001 6.157468e+001 6.125795e+001 7.895913e+001 1.298288e+000 2.903302e+000 2.640151e+000 3.281333e+000 3.674192e+000 3.638226e+000 4.249745e+000 5.631185e+000 3.950896e+000 3.967754e+000 3.483512e+000 3.151274e+000 1.601081e+000 1.763573e-001 3.486143e-001 4.225635e-001 5.305356e-001 5.736967e-001 6.074690e-001 7.084459e-001 8.722230e-001 6.753221e-001 6.821827e-001 6.075683e-001 5.590067e-001 1.686686e-001
<GCONST> 1.336222e+002
<TRANSP> 5
 0.000000e+000 1.000000e+000 0.000000e+000 0.000000e+000 0.000000e+000
 0.000000e+000 7.345501e-001 2.654499e-001 0.000000e+000 0.000000e+000
 0.000000e+000 0.000000e+000 7.598191e-001 2.401809e-001 0.000000e+000
 0.000000e+000 0.000000e+000 0.000000e+000 7.859066e-001 2.140934e-001
 0.000000e+000 0.000000e+000 0.000000e+000 0.000000e+000 0.000000e+000
<ENDHMM>
~h "o"
<BEGINHMM>
<NUMSTATES> 5
<STATE> 2
<MEAN> 39
 -3.056004e+000 -2.985636e+000 -9.596936e+000 -1.924199e+001 -4.551513e+000 -8.335912e+000 -1.179376e+001 -6.610915e+000 -1.999180e+000 -1.441005e+000 -2.316592e+000 -2.374583e+000 6.487225e+001 7.349389e-001 1.375095e-001 -1.791589e-001 -6.227770e-001 -9.110875e-002 2.944189e-001 -5.736780e-001 -3.457886e-001 -8.280250e-002 3.771618e-002 8.802570e-003 -1.678050e-001 4.076449e-001 -1.327394e-001 5.463434e-002 6.828678e-002 3.004470e-001 3.207594e-002 -5.179749e-004 2.449681e-001 4.655639e-002 -3.039540e-002 -1.024937e-001 -2.927042e-002 2.642069e-002 -1.306311e-001
<VARIANCE> 39
 7.859084e+001 5.211475e+001 5.980235e+001 1.172066e+002 6.978539e+001 7.214799e+001 1.188935e+002 5.947362e+001 8.787688e+001 6.172538e+001 5.249077e+001 3.878592e+001 1.617997e+002 3.179297e+000 2.705343e+000 3.637982e+000 7.195242e+000 4.880672e+000 5.287806e+000 6.067418e+000 4.359490e+000 4.730321e+000 3.863206e+000 3.850634e+000 2.834840e+000 3.102489e+000 5.857822e-001 4.614057e-001 6.130661e-001 1.123839e+000 8.002823e-001 9.606721e-001 1.191543e+000 8.366508e-001 8.860019e-001 7.238252e-001 7.072483e-001 5.306036e-001 5.587139e-001
<GCONST> 1.419588e+002
<STATE> 3
<MEAN> 39
 -3.277102e-001 -2.044221e+000 -1.069929e+001 -2.067278e+001 -4.883614e+000 -7.318632e+000 -1.277391e+001 -7.437160e+000 -2.136277e+000 -2.316219e+000 -2.131315e+000 -3.082112e+000 6.602310e+001 2.829372e-001 2.189015e-001 6.186420e-002 3.345439e-001 -8.037451e-002 3.213986e-002 1.163221e-002 -1.735754e-001 -6.331721e-002 -3.081210e-001 -7.130712e-002 -1.143932e-001 8.095255e-002 -2.013709e-001 2.252899e-002 1.390218e-001 3.014492e-001 -3.314947e-002 -1.225768e-001 1.956040e-001 6.808697e-002 -1.831653e-002 -9.958679e-002 -3.898538e-002 2.676662e-002 -1.080999e-001
<VARIANCE> 39
 7.581011e+001 4.979612e+001 6.787889e+001 1.221833e+002 7.529893e+001 7.790446e+001 1.222499e+002 6.544384e+001 8.679382e+001 6.557201e+001 5.769184e+001 4.056767e+001 1.196373e+002 3.201986e+000 2.658935e+000 3.954859e+000 7.131696e+000 4.578633e+000 5.146556e+000 6.017357e+000 4.529922e+000 5.264585e+000 3.977128e+000 3.822962e+000 2.982365e+000 4.191399e+000 4.118984e-001 4.272076e-001 5.831650e-001 1.066896e+000 8.141767e-001 9.036714e-001 1.086224e+000 8.437144e-001 8.975458e-001 7.734407e-001 7.023327e-001 5.606747e-001 4.827752e-001
<GCONST> 1.420134e+002
<STATE> 4
<MEAN> 39
 2.373120e-001 -1.068864e+000 -1.048516e+001 -1.990849e+001 -4.530636e+000 -6.780129e+000 -1.136201e+001 -7.886596e+000 -2.186614e+000 -4.052835e+000 -1.567304e+000 -3.864602e+000 6.543645e+001 -2.809100e-001 1.386936e-001 3.759796e-001 6.501969e-001 -1.448048e-001 -2.560353e-001 2.778163e-001 3.972249e-002 -4.880210e-002 -3.163204e-001 -8.626204e-002 2.453102e-002 -1.432407e-002 -1.647956e-001 -3.245723e-002 1.167074e-001 9.178168e-002 -2.452462e-002 -6.487864e-002 1.028307e-001 4.975549e-002 -1.040044e-002 2.623124e-002 -4.464642e-003 2.425995e-002 -7.629011e-002
<VARIANCE> 39
 8.292633e+001 6.700199e+001 8.557475e+001 1.401562e+002 1.034100e+002 9.125114e+001 1.270784e+002 8.138650e+001 9.094205e+001 6.498335e+001 6.523712e+001 4.560379e+001 1.037815e+002 3.328827e+000 3.276385e+000 4.986180e+000 7.584060e+000 5.939675e+000 5.614055e+000 7.078100e+000 5.808893e+000 6.126880e+000 5.035700e+000 4.378870e+000 3.575610e+000 5.533026e+000 4.710780e-001 5.023031e-001 7.446291e-001 1.064489e+000 9.788433e-001 9.744284e-001 1.205382e+000 1.057967e+000 1.019655e+000 9.335964e-001 7.653418e-001 6.714755e-001 5.744244e-001
<GCONST> 1.478022e+002
<TRANSP> 5
 0.000000e+000 1.000000e+000 0.000000e+000 0.000000e+000 0.000000e+000
 0.000000e+000 6.188121e-001 3.811879e-001 0.000000e+000 0.000000e+000
 0.000000e+000 0.000000e+000 6.645504e-001 3.354496e-001 0.000000e+000
 0.000000e+000 0.000000e+000 0.000000e+000 7.705852e-001 2.294148e-001
 0.000000e+000 0.000000e+000 0.000000e+000 0.000000e+000 0.000000e+000
<ENDHMM>
~h "p"
<BEGINHMM>
<NUMSTATES> 5
<STATE> 2
<MEAN> 39
 -8.513568e+000 -1.834291e+000 -5.837085e+000 -9.151854e+000 -5.039826e+000 -8.107596e+000 -3.980179e+000 -4.861980e+000 -2.323305e-001 -4.702214e+000 -2.678276e+000 -3.086287e+000 5.601717e+001 -4.389089e-002 -1.079341e-001 -1.904957e-001 1.449280e-001 1.008097e-001 1.707703e-001 2.134754e-001 2.765361e-001 3.071333e-001 1.287040e-001 1.140343e-001 1.231699e-001 -4.641296e-001 1.748163e-001 -2.003678e-001 -9.364501e-002 -2.425331e-001 -8.256754e-002 -1.287519e-001 -1.712581e-001 5.057175e-002 -1.482640e-003 -1.235385e-002 -1.231800e-001 -7.894306e-002 5.561342e-001
<VARIANCE> 39
 7.681260e+001 7.782632e+001 6.550132e+001 7.789120e+001 6.595746e+001 6.062086e+001 6.328623e+001 6.690773e+001 5.327551e+001 5.498662e+001 5.601059e+001 4.029461e+001 1.261590e+002 3.824914e+000 4.737207e+000 3.994707e+000 4.664616e+000 4.746648e+000 4.742980e+000 5.520584e+000 5.009604e+000 4.348968e+000 3.999822e+000 4.517994e+000 3.690722e+000 7.771843e+000 6.283112e-001 7.349474e-001 7.643639e-001 8.538086e-001 8.842820e-001 9.521688e-001 1.041719e+000 9.443442e-001 8.574404e-001 7.738963e-001 8.806275e-001 7.486635e-001 1.028358e+000
<GCONST> 1.438869e+002
<STATE> 3
<MEAN> 39
 -7.520839e+000 -3.030753e+000 -7.043809e+000 -1.013773e+001 -4.666068e+000 -8.178461e+000 -4.174180e+000 -4.113971e+000 5.355738e-001 -4.660448e+000 -3.063083e+000 -3.186513e+000 5.733531e+001 6.926712e-001 -7.656576e-001 -5.565378e-001 -7.278711e-001 -1.435910e-001 -2.622797e-001 -5.581723e-001 3.275124e-001 2.632897e-001 1.583683e-002 -4.404026e-001 -2.399107e-001 1.543393e+000 2.054355e-001 -1.785068e-001 -1.682330e-002 -2.969677e-001 -1.020988e-001 -9.825324e-002 -2.325561e-001 -1.417668e-002 -6.661794e-002 -6.358960e-002 -2.121784e-001 -6.143587e-002 5.924453e-001
<VARIANCE> 39
 7.638151e+001 7.895455e+001 8.092709e+001 8.800286e+001 7.297833e+001 6.696017e+001 7.173312e+001 6.737411e+001 5.601723e+001 5.643225e+001 5.731837e+001 4.190218e+001 1.400017e+002 6.159546e+000 6.728164e+000 7.201073e+000 7.045773e+000 6.436798e+000 6.327960e+000 7.542188e+000 6.262032e+000 5.389585e+000 4.704001e+000 6.119637e+000 4.503103e+000 1.340556e+001 9.131503e-001 9.556934e-001 1.178892e+000 1.210469e+000 1.121442e+000 1.157789e+000 1.318866e+000 1.110106e+000 9.831190e-001 8.692573e-001 1.059418e+000 8.522665e-001 1.635947e+000
<GCONST> 1.524670e+002
<STATE> 4
<MEAN> 39
 -3.716998e+000 -6.671722e+000 -9.839677e+000 -1.453138e+001 -4.121250e+000 -9.016387e+000 -6.952998e+000 -3.283323e+000 1.223736e+000 -5.496851e+000 -5.668629e+000 -4.120222e+000 6.469658e+001 8.158190e-001 -9.394528e-001 -1.866309e-001 -1.118632e+000 -2.040681e-001 -1.982487e-001 -8.421173e-001 2.660815e-001 -7.460165e-002 -3.300188e-001 -8.500641e-001 -1.973549e-002 2.431086e+000 -2.318859e-001 1.511154e-001 3.004635e-001 7.684832e-002 -9.646783e-003 7.170953e-002 1.629382e-001 -8.096582e-002 -1.579384e-001 -6.070183e-002 5.873158e-002 1.557158e-001 -2.493155e-001
<VARIANCE> 39
 8.613813e+001 9.027260e+001 1.338688e+002 1.041266e+002 9.856254e+001 8.181924e+001 9.758533e+001 8.444065e+001 6.876296e+001 6.536882e+001 7.194535e+001 5.187267e+001 1.604513e+002 6.850758e+000 7.487800e+000 1.056757e+001 8.510870e+000 8.108452e+000 6.932827e+000 9.045088e+000 7.738316e+000 6.207448e+000 5.564109e+000 6.868334e+000 5.097628e+000 1.298352e+001 1.238622e+000 1.133370e+000 1.552887e+000 1.607194e+000 1.265264e+000 1.282367e+000 1.658365e+000 1.264671e+000 1.119720e+000 9.887505e-001 1.243857e+000 9.627209e-001 2.172710e+000
<GCONST> 1.598161e+002
<TRANSP> 5
 0.000000e+000 1.000000e+000 0.000000e+000 0.000000e+000 0.000000e+000
 0.000000e+000 6.116300e-001 3.883700e-001 0.000000e+000 0.000000e+000
 0.000000e+000 0.000000e+000 6.506984e-001 3.493016e-001 0.000000e+000
 0.000000e+000 0.000000e+000 0.000000e+000 7.653477e-001 2.346523e-001
 0.000000e+000 0.000000e+000 0.000000e+000 0.000000e+000 0.000000e+000
<ENDHMM>
~h "q"
<BEGINHMM>
<NUMSTATES> 5
<STATE> 2
<MEAN> 39
 -1.097781e+001 -7.932880e+000 -1.023179e+001 -1.128306e+001 3.106498e+000 -9.053337e+000 -8.307090e+000 8.465533e-001 1.341259e+000 -6.387795e+000 -2.514289e+000 -5.652194e+000 6.486980e+001 -8.488092e-001 5.249592e-002 -2.209109e-001 2.084531e-001 5.786396e-001 -1.015666e-001 2.013929e-001 3.217924e-001 2.888796e-001 4.858382e-001 3.371743e-001 -1.463218e-001 -4.080645e-001 1.116346e-001 -8.938367e-003 8.075827e-002 -8.882011e-002 -1.712390e-001 -2.286152e-002 1.101852e-002 -9.243459e-002 -1.583917e-002 3.183064e-002 -3.977546e-002 7.378199e-002 3.234168e-002
<VARIANCE> 39
 7.043410e+001 6.298891e+001 9.532768e+001 8.136623e+001 1.251156e+002 8.266736e+001 1.266690e+002 1.092760e+002 7.860474e+001 8.814935e+001 6.506979e+001 8.050496e+001 1.300849e+002 3.666328e+000 2.997202e+000 4.025598e+000 4.567304e+000 5.868875e+000 4.693722e+000 5.223643e+000 5.489724e+000 4.625427e+000 4.460894e+000 3.899125e+000 3.712827e+000 3.166576e+000 4.921010e-001 5.162768e-001 6.217594e-001 7.245361e-001 9.087121e-001 7.849108e-001 9.019883e-001 9.697567e-001 8.432886e-001 8.097595e-001 6.845224e-001 6.348956e-001 3.924447e-001
<GCONST> 1.441291e+002
<STATE> 3
<MEAN> 39
 -1.316079e+001 -8.086517e+000 -1.030227e+001 -1.083239e+001 4.208695e+000 -9.895759e+000 -7.707884e+000 1.558980e+000 2.112562e+000 -5.018827e+000 -2.085352e+000 -5.452217e+000 6.363587e+001 -2.930089e-001 1.663322e-001 2.216526e-001 9.937203e-002 3.023027e-002 -3.417028e-002 2.206582e-001 -6.975278e-002 8.662178e-002 3.417172e-001 1.968899e-001 1.195553e-001 -6.014854e-001 2.107330e-001 7.075597e-002 1.051488e-001 -5.752422e-002 -2.280264e-001 1.458348e-003 -2.596837e-002 -1.619911e-001 -9.287535e-002 -4.956519e-002 -4.808997e-002 3.470706e-002 3.561007e-002
<VARIANCE> 39
 6.289614e+001 6.203231e+001 9.259510e+001 9.066499e+001 1.269318e+002 8.785668e+001 1.117762e+002 1.132576e+002 8.375380e+001 8.201527e+001 6.399156e+001 7.862840e+001 1.116425e+002 3.215518e+000 2.534644e+000 3.163276e+000 3.751102e+000 4.945727e+000 4.258782e+000 4.913267e+000 5.387898e+000 4.693855e+000 4.366569e+000 3.724367e+000 3.371388e+000 2.486282e+000 4.220275e-001 4.298001e-001 5.161130e-001 6.366131e-001 8.240435e-001 7.516766e-001 8.546177e-001 9.566889e-001 8.516399e-001 7.996828e-001 6.861945e-001 6.263284e-001 3.243581e-001
<GCONST> 1.413224e+002
<STATE> 4
<MEAN> 39
 -1.376142e+001 -7.035776e+000 -8.035674e+000 -9.914364e+000 3.234364e+000 -1.021079e+001 -5.953582e+000 -6.943621e-002 1.520176e+000 -3.362321e+000 -1.837444e+000 -3.831465e+000 6.016515e+001 2.683213e-001 4.189114e-001 4.291424e-001 -1.194256e-003 -6.171476e-001 3.199571e-002 1.661850e-001 -5.182399e-001 -2.437214e-001 1.486490e-001 9.769012e-002 1.501592e-001 -4.876080e-001 1.980393e-001 7.074172e-002 3.904946e-002 -9.995538e-002 -2.417852e-001 -3.833102e-002 -6.591693e-002 -1.568832e-001 -9.320870e-002 -6.652028e-002 -6.108265e-002 -1.870345e-002 1.261535e-001
<VARIANCE> 39
 6.842007e+001 6.611235e+001 8.451722e+001 1.048285e+002 1.341242e+002 1.007310e+002 9.817282e+001 1.046331e+002 8.779984e+001 7.603797e+001 6.150050e+001 6.045797e+001 1.245317e+002 3.541041e+000 2.765621e+000 3.072337e+000 3.960028e+000 5.438990e+000 4.637094e+000 5.410907e+000 5.873573e+000 5.070910e+000 4.541974e+000 3.908053e+000 3.512635e+000 2.958279e+000 4.601858e-001 4.470734e-001 5.181991e-001 6.712325e-001 8.979224e-001 8.359679e-001 9.296331e-001 1.001799e+000 9.206841e-001 8.458210e-001 7.283037e-001 6.453534e-001 3.571846e-001
<GCONST> 1.430618e+002
<TRANSP> 5
 0.000000e+000 1.000000e+000 0.000000e+000 0.000000e+000 0.000000e+000
 0.000000e+000 6.635930e-001 3.364070e-001 0.000000e+000 0.000000e+000
 0.000000e+000 0.000000e+000 6.651256e-001 3.348744e-001 0.000000e+000
 0.000000e+000 0.000000e+000 0.000000e+000 6.776171e-001 3.223828e-001
 0.000000e+000 0.000000e+000 0.000000e+000 0.000000e+000 0.000000e+000
<ENDHMM>
~h "r"
<BEGINHMM>
<NUMSTATES> 5
<STATE> 2
<MEAN> 39
 -7.175399e+000 -7.594132e+000 -4.134025e+000 -1.241097e+001 -9.251192e+000 -1.140825e+001 -6.717752e+000 -3.190297e+000 -1.709303e-001 -4.046594e+000 -2.661531e+000 -2.240107e+000 6.386139e+001 3.021086e-002 6.051080e-002 2.070921e-001 -7.983256e-002 -2.751627e-001 -8.848358e-002 -1.252365e-001 -4.893034e-002 2.935714e-002 -1.181233e-002 5.771183e-002 3.055222e-002 -2.196158e-002 7.962183e-002 1.348293e-001 -3.532373e-005 -5.110805e-002 1.305546e-002 3.008670e-002 -4.470996e-002 -5.337395e-002 -4.022019e-002 -9.629854e-003 -3.111687e-002 -1.487081e-002 2.916112e-002
<VARIANCE> 39
 7.154297e+001 6.331704e+001 6.618066e+001 8.102986e+001 9.957995e+001 8.065906e+001 1.240471e+002 9.648793e+001 6.454636e+001 6.774012e+001 6.599782e+001 4.333369e+001 2.491476e+002 1.723426e+000 2.693151e+000 2.601086e+000 3.322802e+000 4.604576e+000 4.102746e+000 5.148168e+000 4.593410e+000 4.217376e+000 3.984040e+000 3.559248e+000 2.823225e+000 1.709543e+000 3.336165e-001 4.274186e-001 4.020775e-001 6.337897e-001 8.251824e-001 7.852242e-001 8.855812e-001 7.545687e-001 7.700503e-001 7.270598e-001 6.723623e-001 5.544178e-001 3.291719e-001
<GCONST> 1.375527e+002
<STATE> 3
<MEAN> 39
 -5.713988e+000 -7.193376e+000 -3.446982e+000 -1.316867e+001 -1.054840e+001 -1.198162e+001 -8.134058e+000 -3.461388e+000 -2.877486e-001 -4.259822e+000 -3.137287e+000 -2.014764e+000 6.656257e+001 1.790581e-001 3.204958e-001 2.273051e-001 -1.159714e-001 -1.901350e-001 -1.895940e-002 -1.848643e-001 -1.048097e-001 -4.987027e-002 -8.074377e-002 -4.564711e-004 -2.835514e-002 4.492666e-002 6.586350e-002 1.267346e-001 -3.298598e-002 -4.059248e-002 7.861075e-002 2.891904e-002 -1.025020e-002 -3.428206e-002 -5.272023e-002 -7.440373e-003 -4.471727e-002 -3.589623e-002 6.729782e-002
<VARIANCE> 39
 7.176953e+001 6.300314e+001 7.004561e+001 8.612437e+001 1.010434e+002 8.470892e+001 1.261343e+002 1.031178e+002 6.903708e+001 7.701269e+001 6.773597e+001 4.573943e+001 1.945303e+002 2.252658e+000 3.314648e+000 2.761113e+000 3.626028e+000 5.081162e+000 4.444917e+000 5.332251e+000 4.903811e+000 4.394610e+000 4.206895e+000 3.683835e+000 2.960968e+000 2.328536e+000 4.189213e-001 4.716595e-001 4.340120e-001 7.178142e-001 8.994545e-001 8.126910e-001 9.243042e-001 8.085890e-001 8.066673e-001 7.931812e-001 7.070142e-001 5.730522e-001 4.600026e-001
<GCONST> 1.405428e+002
<STATE> 4
<MEAN> 39
 -4.404196e+000 -6.770752e+000 -2.977952e+000 -1.387051e+001 -1.135997e+001 -1.197999e+001 -8.869751e+000 -3.543669e+000 -3.723870e-001 -4.692216e+000 -3.323036e+000 -2.009092e+000 6.691211e+001 2.069144e-001 4.688780e-001 1.131762e-001 -1.391096e-001 5.411265e-002 3.748377e-002 -1.114656e-001 -1.311240e-001 -1.617522e-001 -1.032209e-001 -7.443022e-002 -1.332657e-001 1.522602e-001 -3.518797e-003 5.232523e-002 -5.289854e-002 -4.800591e-002 8.638308e-002 1.266377e-002 3.757279e-002 -3.859035e-002 -4.487190e-002 3.494077e-002 -4.458068e-002 -2.832026e-002 9.356388e-002
<VARIANCE> 39
 7.252209e+001 7.109622e+001 7.902080e+001 9.514980e+001 1.102043e+002 9.374706e+001 1.333338e+002 1.152852e+002 7.748112e+001 8.779399e+001 7.361959e+001 5.036938e+001 1.693597e+002 3.267224e+000 3.952946e+000 3.182436e+000 4.499815e+000 5.849178e+000 4.782063e+000 5.877789e+000 5.649838e+000 4.787074e+000 4.773762e+000 4.094261e+000 3.221283e+000 3.684967e+000 4.178813e-001 4.950211e-001 4.880785e-001 8.422402e-001 9.511253e-001 8.374434e-001 9.846506e-001 9.053774e-001 8.886071e-001 8.913928e-001 7.691823e-001 6.052653e-001 5.448559e-001
<GCONST> 1.448637e+002
<TRANSP> 5
 0.000000e+000 1.000000e+000 0.000000e+000 0.000000e+000 0.000000e+000
 0.000000e+000 5.154960e-001 4.845040e-001 0.000000e+000 0.000000e+000
 0.000000e+000 0.000000e+000 4.647047e-001 5.352952e-001 0.000000e+000
 0.000000e+000 0.000000e+000 0.000000e+000 5.188284e-001 4.811716e-001
 0.000000e+000 0.000000e+000 0.000000e+000 0.000000e+000 0.000000e+000
<ENDHMM>
~h "s"
<BEGINHMM>
<NUMSTATES> 5
<STATE> 2
<MEAN> 39
 -1.823238e+001 1.506991e+000 -7.139201e+000 -6.551391e+000 -4.336790e+000 -1.051410e+001 -2.662220e+000 -2.392696e+000 1.345899e-001 -5.342168e+000 -1.872073e-001 -3.026888e+000 6.486247e+001 -1.648444e+000 3.111392e-001 -2.274268e-001 7.661953e-001 3.015584e-001 4.007895e-001 9.528162e-001 2.175281e-001 3.413779e-001 5.468335e-001 5.850591e-001 4.239362e-002 -4.071212e-001 2.368478e-001 -2.058485e-001 -2.375481e-002 -2.034545e-001 -3.443539e-002 2.002381e-002 -1.136168e-001 -3.061619e-002 -5.111858e-003 3.981977e-002 -1.032637e-001 2.014742e-002 4.393419e-002
<VARIANCE> 39
 8.631612e+001 5.727077e+001 6.093895e+001 9.646733e+001 7.106829e+001 7.724506e+001 8.750629e+001 7.712395e+001 5.876591e+001 7.513477e+001 4.924365e+001 3.937878e+001 1.224116e+002 5.560751e+000 4.205457e+000 3.056000e+000 4.495913e+000 4.047580e+000 5.032446e+000 6.134136e+000 5.244942e+000 4.265172e+000 4.849947e+000 3.996674e+000 3.532027e+000 2.196395e+000 7.000840e-001 5.726215e-001 5.163053e-001 6.755931e-001 6.904434e-001 8.886510e-001 1.051626e+000 9.092981e-001 7.999023e-001 8.843834e-001 7.234437e-001 6.450598e-001 2.906615e-001
<GCONST> 1.409368e+002
<STATE> 3
<MEAN> 39
 -2.129352e+001 9.804276e-001 -7.932976e+000 -5.940578e+000 -3.046724e+000 -9.855811e+000 -7.245176e-001 -1.512962e+000 1.087283e+000 -3.784678e+000 9.457846e-001 -2.834501e+000 6.376341e+001 -8.154044e-002 -2.639648e-001 -5.316169e-002 -3.729423e-003 1.534373e-001 3.283161e-002 1.273623e-001 8.478870e-002 1.559928e-001 2.326484e-001 5.616919e-002 2.884990e-002 -2.837493e-001 4.424307e-001 -1.083516e-001 4.529732e-002 -2.079684e-001 -7.715619e-002 -1.071544e-001 -2.441530e-001 -7.291958e-002 -6.494856e-002 -9.357145e-002 -1.645721e-001 -2.090016e-002 8.839227e-002
<VARIANCE> 39
 6.326077e+001 6.367628e+001 7.037138e+001 9.714493e+001 8.061430e+001 8.690726e+001 8.380449e+001 8.503286e+001 6.300051e+001 6.829893e+001 5.071165e+001 4.261607e+001 1.088628e+002 6.666489e+000 3.354291e+000 3.067035e+000 4.391111e+000 4.460938e+000 5.446057e+000 6.056676e+000 5.262897e+000 4.538177e+000 4.818008e+000 4.232187e+000 3.406569e+000 3.160925e+000 7.153602e-001 5.609179e-001 5.379403e-001 7.255093e-001 7.884679e-001 9.670987e-001 1.028115e+000 9.793299e-001 8.664029e-001 8.639005e-001 7.850040e-001 6.590496e-001 4.261913e-001
<GCONST> 1.426138e+002
<STATE> 4
<MEAN> 39
 -1.728759e+001 -8.858155e-001 -7.772583e+000 -8.243300e+000 -2.408767e+000 -1.153164e+001 -2.167568e+000 -1.380483e+000 9.362674e-001 -4.333137e+000 -2.352273e-001 -3.053617e+000 6.333433e+001 1.636570e+000 -4.920863e-001 7.176291e-002 -8.003774e-001 -2.534293e-001 -3.523662e-001 -8.385738e-001 -1.868474e-001 -1.255449e-001 -2.942047e-001 -5.453416e-001 -2.918462e-002 4.092342e-001 1.524129e-001 -9.011549e-002 3.411122e-002 -1.261012e-001 -6.716742e-002 4.660840e-002 -1.108404e-001 -4.746348e-002 -5.185917e-002 -3.489975e-002 -1.024211e-001 9.352293e-003 1.408017e-001
<VARIANCE> 39
 1.123901e+002 7.509097e+001 8.113776e+001 1.037241e+002 1.032491e+002 1.018875e+002 1.161204e+002 9.695602e+001 6.942896e+001 7.905712e+001 5.896559e+001 4.722042e+001 1.154480e+002 9.148504e+000 4.632938e+000 4.408771e+000 5.968288e+000 6.672672e+000 7.015443e+000 7.693341e+000 6.932857e+000 5.250818e+000 5.783083e+000 5.159533e+000 3.973926e+000 6.067054e+000 1.361868e+000 7.063533e-001 6.794536e-001 9.136016e-001 1.030005e+000 1.262671e+000 1.310068e+000 1.107278e+000 9.543613e-001 1.024014e+000 9.019669e-001 7.311784e-001 7.219126e-001
<GCONST> 1.520672e+002
<TRANSP> 5
 0.000000e+000 1.000000e+000 0.000000e+000 0.000000e+000 0.000000e+000
 0.000000e+000 7.622189e-001 2.377811e-001 0.000000e+000 0.000000e+000
 0.000000e+000 0.000000e+000 7.525723e-001 2.474276e-001 0.000000e+000
 0.000000e+000 0.000000e+000 0.000000e+000 7.708597e-001 2.291403e-001
 0.000000e+000 0.000000e+000 0.000000e+000 0.000000e+000 0.000000e+000
<ENDHMM>
~h "t"
<BEGINHMM>
<NUMSTATES> 5
<STATE> 2
<MEAN> 39
 -8.241217e+000 -1.052202e+000 -4.642128e+000 -9.177355e+000 -6.276084e+000 -1.055612e+001 -4.082105e+000 -3.891011e+000 -1.030557e+000 -6.282323e+000 -2.476308e+000 -2.204294e+000 5.785772e+001 -2.513253e-001 -1.769686e-001 -2.225685e-001 6.690717e-002 1.374971e-001 2.316772e-001 4.201342e-001 4.138555e-001 2.085553e-001 5.134986e-002 4.110788e-001 1.961885e-001 -3.152899e-001 8.134483e-002 -2.164917e-001 -9.631143e-002 -2.738991e-001 -8.189643e-002 -9.519280e-002 -3.832200e-002 9.333652e-002 -1.061433e-002 -4.776045e-002 -6.183685e-002 6.579433e-003 5.494232e-001
<VARIANCE> 39
 6.754070e+001 7.884558e+001 5.487695e+001 7.782087e+001 6.985668e+001 7.253570e+001 6.860730e+001 8.140927e+001 5.147533e+001 6.744123e+001 5.359343e+001 3.857493e+001 1.327323e+002 3.307308e+000 5.034974e+000 3.699363e+000 4.833462e+000 5.718017e+000 5.981930e+000 5.535439e+000 5.840314e+000 4.528316e+000 5.062001e+000 4.647621e+000 3.475978e+000 9.778933e+000 5.393172e-001 7.249043e-001 6.338077e-001 8.310819e-001 1.021886e+000 1.174113e+000 1.002501e+000 1.047809e+000 8.743980e-001 9.915909e-001 8.892283e-001 6.785938e-001 1.314670e+000
<GCONST> 1.456262e+002
<STATE> 3
<MEAN> 39
 -8.159275e+000 -2.826937e+000 -6.033514e+000 -1.050819e+001 -5.906959e+000 -1.050435e+001 -3.162108e+000 -1.906876e+000 -6.106289e-001 -6.904145e+000 -1.781433e+000 -1.631058e+000 5.986480e+001 1.896284e-001 -8.810813e-001 -5.195220e-001 -8.012344e-001 -1.450494e-001 -3.374381e-001 5.089062e-002 7.171485e-001 9.784862e-002 -3.089119e-001 -5.593924e-002 1.732762e-001 1.738737e+000 1.650046e-001 -1.708766e-001 -2.496940e-002 -2.217059e-001 -7.029729e-002 -1.226858e-001 -1.523062e-001 2.220795e-002 -6.966043e-002 -1.067832e-001 -2.168081e-001 -1.259167e-002 4.916070e-001
<VARIANCE> 39
 6.255480e+001 7.549409e+001 5.896396e+001 9.080528e+001 7.776745e+001 7.672133e+001 6.924403e+001 8.442805e+001 5.176497e+001 7.328611e+001 5.263615e+001 4.112602e+001 1.579968e+002 4.810730e+000 5.976257e+000 4.676220e+000 6.385231e+000 7.281675e+000 7.433070e+000 6.352753e+000 7.246366e+000 5.125200e+000 6.460969e+000 5.728052e+000 4.194863e+000 1.551303e+001 7.282153e-001 8.571582e-001 8.108106e-001 1.076672e+000 1.288608e+000 1.404391e+000 1.074448e+000 1.218362e+000 9.429772e-001 1.164499e+000 1.044514e+000 7.837428e-001 2.028433e+000
<GCONST> 1.519268e+002
<STATE> 4
<MEAN> 39
 -6.390847e+000 -6.699570e+000 -8.018776e+000 -1.370507e+001 -5.721761e+000 -1.207663e+001 -3.874139e+000 1.146686e+000 -8.558398e-001 -9.573876e+000 -2.703170e+000 -1.183736e+000 6.717805e+001 5.500215e-001 -1.033113e+000 -3.412094e-001 -9.393278e-001 -5.086165e-002 -3.002106e-001 -4.254735e-001 4.605651e-001 -2.042163e-001 -4.903723e-001 -6.678944e-001 1.170645e-001 2.239116e+000 -9.065667e-003 1.354857e-001 1.684062e-001 1.302758e-001 1.061498e-001 1.749338e-001 -9.935842e-002 -2.079156e-001 -7.452808e-002 9.500701e-002 -7.767114e-002 -6.874265e-002 -3.313692e-001
<VARIANCE> 39
 6.183557e+001 7.232090e+001 6.487726e+001 9.286775e+001 9.642590e+001 8.058730e+001 8.587250e+001 1.056129e+002 5.756497e+001 8.909976e+001 5.879021e+001 5.473658e+001 1.710189e+002 4.748960e+000 5.848198e+000 5.086985e+000 6.429249e+000 7.916929e+000 7.191770e+000 6.483044e+000 8.233712e+000 5.326979e+000 6.920246e+000 5.827476e+000 4.788537e+000 1.360159e+001 8.280067e-001 8.409184e-001 8.437877e-001 1.141856e+000 1.332264e+000 1.417271e+000 1.080100e+000 1.299508e+000 9.526184e-001 1.259535e+000 1.091680e+000 8.838434e-001 2.342554e+000
<GCONST> 1.545685e+002
<TRANSP> 5
 0.000000e+000 1.000000e+000 0.000000e+000 0.000000e+000 0.000000e+000
 0.000000e+000 6.586739e-001 3.413261e-001 0.000000e+000 0.000000e+000
 0.000000e+000 0.000000e+000 6.984563e-001 3.015437e-001 0.000000e+000
 0.000000e+000 0.000000e+000 0.000000e+000 7.565867e-001 2.434133e-001
 0.000000e+000 0.000000e+000 0.000000e+000 0.000000e+000 0.000000e+000
<ENDHMM>
~h "u"
<BEGINHMM>
<NUMSTATES> 5
<STATE> 2
<MEAN> 39
 -1.005480e+000 1.127678e+000 -8.764277e+000 -1.664742e+001 -7.832309e+000 -8.396399e+000 -1.003999e+001 -8.786700e+000 -4.339407e+000 -2.792837e+000 -1.177860e+000 -3.128039e+000 6.335148e+001 7.852488e-001 3.742475e-001 -4.020718e-003 -3.313256e-001 -3.774785e-001 -5.480481e-002 -5.880083e-001 -6.666088e-001 -8.330596e-002 5.008220e-002 -8.983530e-002 -8.297767e-002 6.491599e-001 -2.340965e-001 -9.660766e-002 1.315713e-001 1.638499e-001 3.133718e-002 -1.077152e-002 1.631342e-001 1.432434e-001 1.072738e-001 -4.854609e-002 -5.285766e-002 -1.674659e-002 -7.555547e-002
<VARIANCE> 39
 1.013957e+002 6.137774e+001 7.171866e+001 9.733685e+001 7.244172e+001 7.406983e+001 1.111897e+002 7.409704e+001 7.956005e+001 6.914318e+001 5.823639e+001 4.453306e+001 1.183725e+002 4.400075e+000 3.838727e+000 4.516973e+000 6.134694e+000 5.783274e+000 5.795825e+000 6.940146e+000 5.875643e+000 6.227732e+000 5.017013e+000 4.433987e+000 3.702333e+000 3.533457e+000 6.548733e-001 6.132590e-001 7.475135e-001 1.011151e+000 9.632874e-001 1.020060e+000 1.240505e+000 1.071995e+000 1.148724e+000 9.501150e-001 8.232131e-001 7.001832e-001 4.269909e-001
<GCONST> 1.467479e+002
<STATE> 3
<MEAN> 39
 9.003320e-001 2.010148e+000 -8.569799e+000 -1.710182e+001 -8.352464e+000 -8.506047e+000 -1.129584e+001 -1.034004e+001 -4.412575e+000 -3.049599e+000 -1.626209e+000 -3.595320e+000 6.526025e+001 5.381541e-002 3.956201e-002 3.992250e-001 2.327639e-001 -1.854680e-001 -1.853912e-001 -2.074713e-001 -1.935857e-001 1.945752e-001 -1.122571e-001 -2.185367e-001 -1.321173e-001 3.285979e-001 -2.630600e-001 -1.002323e-001 1.502369e-001 1.757937e-001 4.131117e-002 -4.236079e-002 2.074371e-001 1.877190e-001 5.129339e-002 -7.241044e-002 -3.581722e-002 1.418383e-002 -1.324349e-001
<VARIANCE> 39
 9.908195e+001 5.900855e+001 7.291723e+001 9.608235e+001 7.135453e+001 7.717826e+001 1.143481e+002 7.520612e+001 8.104783e+001 7.486985e+001 6.166904e+001 4.631398e+001 8.629414e+001 3.595535e+000 3.324394e+000 4.333849e+000 5.713044e+000 5.292108e+000 5.781270e+000 7.289382e+000 5.808604e+000 6.405549e+000 5.202738e+000 4.529078e+000 3.719707e+000 3.237504e+000 4.972271e-001 5.348938e-001 6.848206e-001 9.090697e-001 9.225554e-001 1.021393e+000 1.261028e+000 1.043952e+000 1.167637e+000 1.000446e+000 8.343581e-001 7.053000e-001 3.273894e-001
<GCONST> 1.452923e+002
<STATE> 4
<MEAN> 39
 1.609900e-001 1.724628e+000 -6.630861e+000 -1.579244e+001 -8.413878e+000 -9.273191e+000 -1.119964e+001 -1.037587e+001 -3.802062e+000 -3.874956e+000 -2.246952e+000 -3.979997e+000 6.541426e+001 -5.770214e-001 -1.893123e-001 7.556856e-001 5.492675e-001 -1.378721e-001 -3.173255e-001 3.400949e-001 2.764779e-001 1.849629e-001 -2.639794e-001 -2.140099e-001 -1.911874e-002 -1.880138e-002 -1.561618e-001 -4.221113e-002 4.334955e-002 2.958201e-002 1.252597e-002 1.644171e-002 1.932845e-001 1.018434e-001 -3.444712e-002 -6.411514e-003 1.667207e-002 4.560497e-002 -9.251036e-002
<VARIANCE> 39
 9.949472e+001 6.489616e+001 8.528588e+001 1.027472e+002 8.561053e+001 9.072198e+001 1.225203e+002 8.585954e+001 8.584433e+001 8.053637e+001 6.659729e+001 5.041208e+001 8.691094e+001 3.067419e+000 3.052877e+000 4.705037e+000 5.205028e+000 5.700510e+000 6.318235e+000 7.680311e+000 6.378743e+000 6.304901e+000 5.488417e+000 4.842168e+000 3.970883e+000 2.671389e+000 4.322847e-001 4.999823e-001 7.083123e-001 8.703297e-001 9.558618e-001 1.098178e+000 1.345800e+000 1.126887e+000 1.187775e+000 1.047995e+000 8.708792e-001 7.492751e-001 3.136959e-001
<GCONST> 1.466478e+002
<TRANSP> 5
 0.000000e+000 1.000000e+000 0.000000e+000 0.000000e+000 0.000000e+000
 0.000000e+000 6.169249e-001 3.830751e-001 0.000000e+000 0.000000e+000
 0.000000e+000 0.000000e+000 6.539260e-001 3.460740e-001 0.000000e+000
 0.000000e+000 0.000000e+000 0.000000e+000 7.023262e-001 2.976738e-001
 0.000000e+000 0.000000e+000 0.000000e+000 0.000000e+000 0.000000e+000
<ENDHMM>
~h "v"
<BEGINHMM>
<NUMSTATES> 5
<STATE> 2
<MEAN> 39
 -8.729106e+000 -4.222178e+000 -3.550669e+000 -1.279871e+001 -9.228716e+000 -1.159008e+001 -5.966790e+000 -6.196834e+000 -1.699889e+000 -3.103553e+000 -2.235802e+000 -2.477829e+000 5.679961e+001 -7.915413e-002 2.883140e-001 3.644713e-001 -3.621381e-002 -3.202949e-001 -2.968437e-001 2.203214e-001 -7.704399e-002 -1.281368e-001 1.503112e-001 1.884708e-001 -1.864924e-001 1.474004e-002 5.319769e-002 8.514676e-002 -2.201569e-003 5.299092e-002 2.618304e-002 2.563083e-002 -5.502331e-002 -3.361545e-003 -2.459719e-002 7.261252e-003 -1.068113e-002 -1.082863e-001 1.230825e-001
<VARIANCE> 39
 6.959705e+001 5.983812e+001 4.321061e+001 6.831961e+001 5.112624e+001 5.421978e+001 9.133023e+001 5.692233e+001 4.531596e+001 5.393946e+001 4.461268e+001 3.737479e+001 2.216331e+002 1.343468e+000 2.568630e+000 2.745621e+000 3.537002e+000 3.440534e+000 3.301906e+000 4.340952e+000 4.123921e+000 4.338486e+000 5.067185e+000 3.692207e+000 3.271699e+000 1.927533e+000 2.703338e-001 5.152985e-001 4.760080e-001 5.593466e-001 5.438651e-001 7.336529e-001 7.453246e-001 8.106495e-001 8.822848e-001 9.565278e-001 5.902360e-001 6.944537e-001 2.587231e-001
<GCONST> 1.330414e+002
<STATE> 3
<MEAN> 39
 -6.941370e+000 -2.519202e+000 -2.273905e+000 -1.406553e+001 -1.010692e+001 -1.158821e+001 -6.851328e+000 -7.210832e+000 -2.185738e+000 -2.038974e+000 -2.720440e+000 -2.993338e+000 6.113051e+001 1.110075e-001 7.620893e-001 5.060700e-001 1.345081e-001 -2.777030e-001 -2.168430e-001 1.478303e-002 -2.384392e-001 -1.291491e-001 1.641994e-001 -1.016095e-001 -4.217267e-001 1.653935e-001 1.157651e-001 9.780424e-002 8.239535e-003 1.281091e-001 1.578791e-002 -2.377211e-002 -1.273928e-001 -5.550908e-002 -6.979224e-002 -2.954807e-002 -6.409167e-002 -4.075817e-002 1.307284e-001
<VARIANCE> 39
 7.283096e+001 6.185610e+001 5.796953e+001 8.733004e+001 7.151085e+001 5.821780e+001 1.248340e+002 6.156777e+001 4.583045e+001 7.221318e+001 4.919613e+001 3.696819e+001 2.107126e+002 2.163503e+000 3.602203e+000 2.860904e+000 5.005816e+000 3.454900e+000 4.293283e+000 4.786602e+000 4.195949e+000 4.143043e+000 4.326699e+000 2.900315e+000 2.971021e+000 2.639461e+000 3.880595e-001 6.771036e-001 4.128708e-001 6.592720e-001 6.845134e-001 8.912744e-001 8.920655e-001 9.300107e-001 8.355176e-001 8.082619e-001 5.845815e-001 5.789259e-001 4.203116e-001
<GCONST> 1.376227e+002
<STATE> 4
<MEAN> 39
 -6.175198e+000 -9.351866e-002 -1.270780e+000 -1.393594e+001 -9.885920e+000 -1.212337e+001 -6.687364e+000 -7.725213e+000 -2.178540e+000 -1.889329e+000 -3.528406e+000 -3.780308e+000 6.049887e+001 3.126698e-001 8.498305e-001 3.179959e-001 4.665114e-001 -1.535102e-001 -2.939647e-001 -1.254527e-001 -2.464548e-001 -3.816401e-001 -7.839936e-003 -2.031974e-001 -3.809380e-001 2.056198e-001 4.451945e-002 -1.082663e-001 -6.000045e-003 1.582140e-002 -5.021574e-002 -6.220328e-002 -8.109209e-002 4.605766e-002 -5.333398e-002 -5.837826e-002 -4.426377e-002 9.621867e-002 1.895332e-001
<VARIANCE> 39
 7.519651e+001 7.259856e+001 6.356110e+001 9.894593e+001 8.001488e+001 6.425711e+001 1.604410e+002 6.082001e+001 5.113448e+001 8.079464e+001 4.310402e+001 3.981501e+001 1.889793e+002 3.090567e+000 5.223943e+000 3.403357e+000 5.209449e+000 4.429744e+000 5.407709e+000 5.454021e+000 5.123231e+000 4.924289e+000 3.953170e+000 3.010999e+000 2.930952e+000 3.404572e+000 4.486905e-001 7.736792e-001 5.287568e-001 8.202691e-001 7.916997e-001 9.778904e-001 9.848393e-001 1.035837e+000 8.831835e-001 8.088844e-001 6.734387e-001 6.399781e-001 5.529864e-001
<GCONST> 1.424104e+002
<TRANSP> 5
 0.000000e+000 1.000000e+000 0.000000e+000 0.000000e+000 0.000000e+000
 0.000000e+000 5.504423e-001 4.495577e-001 0.000000e+000 0.000000e+000
 0.000000e+000 0.000000e+000 4.226816e-001 5.773184e-001 0.000000e+000
 0.000000e+000 0.000000e+000 0.000000e+000 4.837169e-001 5.162830e-001
 0.000000e+000 0.000000e+000 0.000000e+000 0.000000e+000 0.000000e+000
<ENDHMM>
~h "w"
<BEGINHMM>
<NUMSTATES> 5
<STATE> 2
<MEAN> 39
 -3.940090e+000 -4.141751e+000 -1.034955e+001 -1.822055e+001 -6.597971e+000 -7.677000e+000 -6.093567e+000 -5.774384e+000 -1.941197e+000 -1.654595e+000 -2.715126e+000 -3.448887e+000 6.318128e+001 3.446693e-001 2.453714e-001 -2.591366e-001 -5.593153e-001 -1.943410e-001 1.495158e-001 1.781791e-002 -7.385968e-002 -7.578351e-002 1.364878e-001 -7.828663e-003 -9.312228e-002 1.071529e-001 -1.834418e-002 5.622380e-003 6.568130e-002 1.023683e-001 -1.641664e-002 -9.869803e-002 -4.978554e-002 8.437111e-002 3.785691e-002 -6.445100e-002 -4.863252e-002 -1.794719e-002 4.064608e-002
<VARIANCE> 39
 9.575664e+001 8.384428e+001 5.567529e+001 9.576482e+001 8.737153e+001 6.678115e+001 7.981261e+001 6.042024e+001 5.897836e+001 5.643702e+001 7.211716e+001 4.491187e+001 2.225612e+002 1.718120e+000 3.311437e+000 2.020661e+000 3.869424e+000 4.897845e+000 4.066251e+000 4.033513e+000 3.668784e+000 4.086495e+000 3.563377e+000 3.985302e+000 3.198741e+000 1.668232e+000 2.815088e-001 4.325142e-001 3.372768e-001 6.137417e-001 8.162863e-001 7.092453e-001 7.102635e-001 6.526337e-001 7.498338e-001 6.935062e-001 6.997124e-001 5.953964e-001 1.926633e-001
<GCONST> 1.350447e+002
<STATE> 3
<MEAN> 39
 -3.108356e-001 -2.865952e+000 -1.228144e+001 -2.144997e+001 -7.060144e+000 -6.676802e+000 -7.433225e+000 -5.713249e+000 -2.460896e+000 -1.306387e+000 -3.704084e+000 -3.889765e+000 6.689565e+001 2.338195e-001 4.393255e-002 -2.131750e-001 -1.825731e-001 -7.992200e-003 5.667022e-003 -1.262138e-001 1.387982e-001 7.136077e-002 3.840283e-002 -1.216866e-001 -1.949799e-001 2.668471e-001 -5.411888e-002 -8.247558e-002 6.217326e-002 1.722971e-001 6.120352e-002 -8.957352e-002 -6.512371e-002 8.972152e-002 5.776028e-002 -7.347225e-002 -6.002135e-002 -8.356237e-003 5.085397e-002
<VARIANCE> 39
 8.623329e+001 8.636674e+001 5.734232e+001 8.812093e+001 9.037891e+001 6.658188e+001 7.636997e+001 5.452030e+001 6.088656e+001 5.680892e+001 7.625850e+001 4.560623e+001 1.501138e+002 2.067890e+000 4.635679e+000 2.196441e+000 4.022401e+000 5.684842e+000 4.089498e+000 4.071633e+000 3.497033e+000 4.107493e+000 3.608110e+000 4.466277e+000 3.357705e+000 1.941631e+000 2.767101e-001 4.960002e-001 3.591892e-001 5.938302e-001 8.691691e-001 7.259133e-001 7.131717e-001 6.154003e-001 7.566952e-001 6.946375e-001 7.894963e-001 6.442416e-001 2.001973e-001
<GCONST> 1.360373e+002
<STATE> 4
<MEAN> 39
 3.164063e+000 -3.731230e+000 -1.441832e+001 -2.377137e+001 -5.352725e+000 -5.572016e+000 -9.320240e+000 -4.418089e+000 -1.386510e+000 -1.855408e+000 -4.465241e+000 -4.895606e+000 6.893248e+001 -1.767953e-001 -6.815226e-001 5.513481e-002 4.223606e-001 5.096896e-001 -1.915322e-001 -3.611260e-001 4.033059e-001 3.357464e-001 -2.029824e-001 -4.754927e-001 -1.400224e-001 4.165811e-001 -7.307098e-002 -1.339679e-002 1.483274e-001 1.465696e-001 -5.771948e-002 -1.495939e-001 2.858202e-002 8.068027e-002 -1.548457e-002 -1.354398e-001 -3.137713e-002 7.214185e-002 -1.108105e-002
<VARIANCE> 39
 8.826491e+001 9.877034e+001 5.792165e+001 9.054221e+001 1.056282e+002 7.084052e+001 8.206966e+001 5.500859e+001 6.255537e+001 5.722706e+001 8.316669e+001 4.686855e+001 1.068396e+002 1.926100e+000 5.178605e+000 2.712678e+000 3.937887e+000 6.617018e+000 5.056815e+000 5.222805e+000 3.935687e+000 4.749095e+000 4.295705e+000 5.813171e+000 3.806313e+000 1.823792e+000 2.530328e-001 5.502133e-001 4.270416e-001 5.932239e-001 1.004588e+000 8.479080e-001 9.270455e-001 6.728916e-001 9.069004e-001 7.975964e-001 1.077954e+000 7.631328e-001 2.116188e-001
<GCONST> 1.396395e+002
<TRANSP> 5
 0.000000e+000 1.000000e+000 0.000000e+000 0.000000e+000 0.000000e+000
 0.000000e+000 6.626739e-001 3.373261e-001 0.000000e+000 0.000000e+000
 0.000000e+000 0.000000e+000 6.694804e-001 3.305196e-001 0.000000e+000
 0.000000e+000 0.000000e+000 0.000000e+000 8.101841e-001 1.898160e-001
 0.000000e+000 0.000000e+000 0.000000e+000 0.000000e+000 0.000000e+000
<ENDHMM>
~h "x"
<BEGINHMM>
<NUMSTATES> 5
<STATE> 2
<MEAN> 39
 -3.328408e+000 -2.903677e-001 -1.733053e+000 -1.550325e+001 -1.101493e+001 -1.186885e+001 -9.318393e+000 -9.378298e+000 -5.810289e+000 -3.411064e+000 -5.973942e+000 -6.297284e+000 6.817691e+001 3.032323e-001 3.668318e-001 1.414179e-001 -1.087116e-001 -3.531325e-001 -9.036625e-002 -1.117804e-001 -4.603452e-001 -3.262708e-001 1.877440e-001 -2.369809e-001 -3.228329e-001 1.865027e-001 -9.134752e-002 -8.969562e-002 -5.424859e-002 -5.618874e-002 1.011304e-001 7.736962e-002 2.903035e-002 1.212462e-001 7.351819e-002 -1.057892e-002 4.792736e-002 6.708790e-002 2.843052e-002
<VARIANCE> 39
 6.203592e+001 7.680870e+001 4.973450e+001 1.110097e+002 6.894946e+001 6.299411e+001 9.262486e+001 9.272309e+001 5.755846e+001 7.404089e+001 6.387282e+001 4.123656e+001 1.108975e+002 2.388613e+000 3.660596e+000 3.297677e+000 4.672189e+000 4.016065e+000 4.224189e+000 4.819337e+000 5.792631e+000 3.452129e+000 3.951158e+000 3.312543e+000 2.739351e+000 1.842932e+000 3.185278e-001 4.306187e-001 5.985153e-001 7.695495e-001 7.028028e-001 7.174079e-001 8.426549e-001 9.046475e-001 6.289033e-001 7.093155e-001 5.685640e-001 4.816728e-001 1.714620e-001
<GCONST> 1.360489e+002
<STATE> 3
<MEAN> 39
 -2.545156e+000 6.590833e-002 -1.028561e+000 -1.794076e+001 -1.202953e+001 -1.096810e+001 -8.546165e+000 -1.020024e+001 -6.947330e+000 -2.999182e+000 -6.051412e+000 -6.948314e+000 7.003933e+001 -1.695648e-001 -1.712492e-001 2.051718e-001 -4.047976e-001 -1.325709e-001 2.724116e-001 1.599651e-001 1.225147e-001 -1.088327e-001 -1.255312e-003 8.832471e-002 -1.879469e-002 3.121758e-001 -6.082097e-002 -1.264846e-001 -1.024950e-002 -1.384658e-003 4.947843e-002 3.000741e-002 3.233295e-002 1.402295e-001 5.071155e-002 -8.018435e-002 6.588347e-002 7.075761e-002 2.484801e-002
<VARIANCE> 39
 6.586781e+001 7.426160e+001 5.884733e+001 1.207971e+002 7.023977e+001 6.860770e+001 9.027578e+001 9.694975e+001 6.159251e+001 7.937421e+001 6.301899e+001 4.168208e+001 8.530408e+001 1.754132e+000 3.222164e+000 3.880224e+000 6.157822e+000 3.871705e+000 4.423264e+000 4.594051e+000 5.959944e+000 3.676671e+000 4.077266e+000 3.115631e+000 2.750626e+000 1.342271e+000 2.644331e-001 3.944184e-001 6.805197e-001 1.048297e+000 7.118756e-001 7.981822e-001 8.486769e-001 9.213411e-001 6.670731e-001 7.129678e-001 5.498688e-001 4.982765e-001 1.369864e-001
<GCONST> 1.361842e+002
<STATE> 4
<MEAN> 39
 -3.163715e+000 -2.206376e+000 4.544474e-001 -2.091137e+001 -1.253005e+001 -8.897858e+000 -6.401910e+000 -8.112873e+000 -7.845758e+000 -4.490724e+000 -4.319285e+000 -6.557346e+000 7.173956e+001 -1.867475e-001 -6.726099e-001 -8.559158e-002 1.614686e-001 2.135109e-001 1.464763e-002 1.628849e-001 7.355897e-001 7.496344e-002 -5.143012e-001 2.496577e-001 2.539749e-001 2.220307e-001 4.944786e-002 1.074464e-002 -1.339272e-001 1.743050e-001 1.328624e-001 -1.065672e-001 -8.046882e-002 4.342076e-002 9.236304e-002 -7.832702e-002 -2.690972e-002 5.382529e-002 -7.578888e-002
<VARIANCE> 39
 6.585394e+001 7.789324e+001 7.345242e+001 1.428937e+002 8.531557e+001 8.545990e+001 9.228871e+001 1.100077e+002 7.519370e+001 8.823730e+001 6.328278e+001 4.525212e+001 8.970427e+001 1.401914e+000 3.335578e+000 4.620458e+000 6.942318e+000 4.929073e+000 5.442857e+000 5.358054e+000 6.271398e+000 4.366952e+000 5.108525e+000 3.242165e+000 3.053097e+000 1.227358e+000 2.065703e-001 4.096594e-001 7.136294e-001 1.090001e+000 8.480715e-001 9.341803e-001 9.803263e-001 9.846507e-001 7.734053e-001 8.327076e-001 5.694906e-001 5.565583e-001 1.294854e-001
<GCONST> 1.396498e+002
<TRANSP> 5
 0.000000e+000 1.000000e+000 0.000000e+000 0.000000e+000 0.000000e+000
 0.000000e+000 7.311456e-001 2.688544e-001 0.000000e+000 0.000000e+000
 0.000000e+000 0.000000e+000 7.782825e-001 2.217176e-001 0.000000e+000
 0.000000e+000 0.000000e+000 0.000000e+000 8.349028e-001 1.650972e-001
 0.000000e+000 0.000000e+000 0.000000e+000 0.000000e+000 0.000000e+000
<ENDHMM>
~h "y"
<BEGINHMM>
<NUMSTATES> 5
<STATE> 2
<MEAN> 39
 -7.424540e+000 -3.031095e+000 4.660606e+000 -1.986836e+001 -1.767792e+001 -1.142371e+001 -7.064222e+000 -6.691422e+000 -2.980981e+000 -1.567700e+000 -5.102099e+000 -3.039884e+000 7.311231e+001 -1.961071e-001 1.235896e+000 1.354736e+000 -5.321792e-001 -6.837344e-001 1.475767e-001 -7.041189e-001 -1.149233e+000 1.882156e-001 5.451007e-001 -3.232686e-002 -2.113893e-002 -3.482164e-001 6.096652e-002 5.114176e-002 -1.822223e-001 9.330292e-002 3.013123e-001 1.725333e-002 -1.148560e-001 2.457995e-002 2.224410e-002 -1.468757e-001 -6.667867e-002 6.531740e-002 -1.054800e-001
<VARIANCE> 39
 4.669672e+001 7.207410e+001 7.424490e+001 1.066206e+002 8.219478e+001 7.463936e+001 9.002980e+001 7.927130e+001 6.175134e+001 6.313527e+001 6.519502e+001 4.054678e+001 9.959848e+001 1.144491e+000 2.733160e+000 3.096656e+000 2.910730e+000 4.098200e+000 3.177908e+000 5.258002e+000 4.482121e+000 3.597974e+000 3.730873e+000 2.858212e+000 2.544525e+000 1.284872e+000 1.537726e-001 3.283126e-001 3.785635e-001 4.514079e-001 6.031919e-001 5.542458e-001 8.320085e-001 7.295337e-001 6.210577e-001 6.367785e-001 5.253984e-001 4.749584e-001 1.486212e-001
<GCONST> 1.304471e+002
<STATE> 3
<MEAN> 39
 -7.140641e+000 1.543663e+000 8.474077e+000 -2.170200e+001 -1.736591e+001 -1.049642e+001 -9.627400e+000 -1.001609e+001 -2.516355e+000 -1.267217e+000 -6.267350e+000 -2.442848e+000 7.090051e+001 -4.369769e-003 7.736242e-001 3.059629e-001 9.936485e-002 2.653587e-001 1.181830e-001 -2.626643e-001 -4.139661e-001 6.957185e-002 -7.458406e-002 -1.124167e-001 5.450116e-002 -5.837500e-001 4.513035e-002 -1.759228e-001 -3.162795e-001 1.978083e-001 2.233449e-001 -1.694314e-002 1.574517e-001 2.074477e-001 -2.053824e-002 -1.102278e-001 3.100527e-002 -6.045293e-003 -5.999568e-002
<VARIANCE> 39
 4.733044e+001 6.886040e+001 7.736751e+001 1.416977e+002 7.997611e+001 7.543476e+001 8.202665e+001 6.851275e+001 6.259379e+001 7.128400e+001 7.056646e+001 4.541774e+001 8.133975e+001 1.311861e+000 3.327252e+000 3.429050e+000 4.064766e+000 4.081605e+000 3.463257e+000 4.977183e+000 4.573181e+000 3.392862e+000 3.618043e+000 3.240977e+000 2.633228e+000 2.068735e+000 1.860988e-001 3.321669e-001 3.990937e-001 5.772506e-001 6.657459e-001 5.991216e-001 8.115522e-001 7.080162e-001 6.365827e-001 6.819226e-001 5.905109e-001 4.975755e-001 1.767372e-001
<GCONST> 1.330256e+002
<STATE> 4
<MEAN> 39
 -6.024300e+000 3.564801e+000 8.015647e+000 -2.119773e+001 -1.453092e+001 -9.876912e+000 -8.561775e+000 -1.032290e+001 -2.180585e+000 -2.250908e+000 -6.654777e+000 -2.202657e+000 6.752421e+001 2.452272e-002 -2.644508e-001 -9.490879e-001 9.468084e-001 7.296887e-001 -5.069102e-003 4.487912e-001 3.813278e-001 6.166392e-002 -2.171655e-001 2.812791e-001 -8.329090e-002 -6.349667e-001 -2.023167e-002 -1.882302e-001 -2.251834e-001 1.297697e-001 1.270826e-001 -1.579911e-002 6.372776e-002 1.187470e-001 6.026809e-003 -1.729451e-002 6.079653e-002 -4.906449e-003 -1.127801e-002
<VARIANCE> 39
 5.269720e+001 8.199804e+001 8.842812e+001 1.801046e+002 8.733428e+001 8.503869e+001 8.303185e+001 7.320970e+001 6.311932e+001 7.339243e+001 7.264063e+001 4.813795e+001 9.252601e+001 1.759429e+000 3.945972e+000 4.184059e+000 5.801264e+000 5.256618e+000 4.412692e+000 5.462278e+000 5.160982e+000 4.159312e+000 4.414802e+000 4.030169e+000 3.228013e+000 3.240413e+000 2.558335e-001 4.569327e-001 5.472614e-001 8.365720e-001 8.659834e-001 7.644189e-001 9.602448e-001 8.642997e-001 7.687779e-001 7.967612e-001 7.112911e-001 5.973783e-001 2.828453e-001
<GCONST> 1.406037e+002
<TRANSP> 5
 0.000000e+000 1.000000e+000 0.000000e+000 0.000000e+000 0.000000e+000
 0.000000e+000 7.239493e-001 2.760507e-001 0.000000e+000 0.000000e+000
 0.000000e+000 0.000000e+000 7.517748e-001 2.482252e-001 0.000000e+000
 0.000000e+000 0.000000e+000 0.000000e+000 8.082547e-001 1.917453e-001
 0.000000e+000 0.000000e+000 0.000000e+000 0.000000e+000 0.000000e+000
<ENDHMM>
~h "z"
<BEGINHMM>
<NUMSTATES> 5
<STATE> 2
<MEAN> 39
 -1.442656e+001 -1.956974e+000 -6.439384e+000 -9.513907e+000 -1.100171e+000 -8.609766e+000 -3.727780e+000 -4.175755e+000 1.282244e+000 2.765850e+000 3.363628e+000 -4.189682e+000 6.617719e+001 -5.784436e-001 -1.468121e-001 2.284760e-001 2.284768e-001 1.852404e-001 5.624993e-001 -1.473997e-001 1.539581e-001 -4.718687e-003 4.308470e-001 2.060334e-001 6.285633e-001 -4.562931e-001 2.627537e-001 2.415599e-002 -6.991960e-002 -9.699228e-002 -2.269933e-002 -1.191147e-001 -1.422830e-001 -9.892286e-002 -1.345258e-001 -1.084179e-001 -1.932434e-001 -1.082674e-001 5.922852e-002
<VARIANCE> 39
 9.462955e+001 4.710934e+001 3.770132e+001 1.302285e+002 5.276641e+001 1.008236e+002 6.126385e+001 1.081501e+002 3.593204e+001 6.986247e+001 6.599647e+001 6.031581e+001 6.151464e+001 3.855586e+000 2.491349e+000 2.524455e+000 3.320006e+000 2.944138e+000 4.825155e+000 5.038000e+000 4.780132e+000 4.033947e+000 4.882305e+000 5.404090e+000 5.271303e+000 9.897465e-001 5.185061e-001 4.112025e-001 4.062132e-001 5.262977e-001 4.191990e-001 9.066219e-001 8.432862e-001 8.514272e-001 6.674247e-001 8.942797e-001 7.847518e-001 9.147828e-001 1.590643e-001
<GCONST> 1.356633e+002
<STATE> 3
<MEAN> 39
