~o
<STREAMINFO> 1 39
<VECSIZE> 39<NULLD><MFCC_D_A_0><DIAGC>
~h "a"
<BEGINHMM>
<NUMSTATES> 5
<STATE> 2
<NUMMIXES> 2
<MIXTURE> 1 6.889978e-001
<MEAN> 39
 -2.256978e+000 -1.308458e+001 -8.348419e+000 -1.890186e+001 -6.352167e+000 -1.339260e+001 -7.862879e+000 4.161890e+000 -1.494229e+000 -7.667918e+000 -8.920964e+000 -2.380420e+000 7.874530e+001 -2.624170e-001 -1.848839e+000 -4.704957e-001 -3.351145e-001 1.282898e+000 6.095884e-001 6.185455e-001 1.724423e+000 -6.114396e-001 -1.003480e+000 -6.380639e-001 6.148835e-001 1.047267e+000 -3.137190e-001 6.601583e-001 3.134691e-001 6.329853e-001 6.393822e-002 1.398423e-001 1.145303e-001 -7.670725e-001 -1.423167e-001 3.160693e-001 4.856859e-001 -9.537594e-003 -7.797254e-001
<VARIANCE> 39
 4.201613e+001 2.943327e+001 6.428979e+001 7.366585e+001 1.061801e+002 8.074603e+001 9.670963e+001 7.720992e+001 7.397035e+001 7.274416e+001 6.871113e+001 5.757289e+001 9.490656e+000 1.554757e+000 2.378052e+000 3.937433e+000 3.820686e+000 4.917521e+000 4.606302e+000 5.176425e+000 6.079957e+000 4.529151e+000 4.791820e+000 4.254778e+000 3.731050e+000 1.209314e+000 3.921091e-001 4.221337e-001 4.889326e-001 5.668250e-001 9.227921e-001 8.271111e-001 9.344835e-001 9.614111e-001 8.796692e-001 7.947055e-001 8.776209e-001 6.901081e-001 4.189564e-001
<GCONST> 1.357904e+002
<MIXTURE> 2 3.109497e-001
<MEAN> 39
 -3.148173e+000 -9.190176e+000 -1.184160e+001 -1.363892e+001 -5.554479e+000 -1.084238e+001 -6.158957e+000 -1.828810e+000 -1.878653e+000 -1.192407e+001 -3.464624e+000 3.724668e-001 6.695172e+001 9.450100e-001 -1.758409e+000 -7.537159e-001 -1.011989e+000 3.333589e-001 1.900641e-001 -3.797221e-001 7.558868e-001 -3.131272e-001 -1.243427e+000 -5.537154e-001 5.798326e-001 3.132854e+000 -5.023391e-001 6.835422e-002 3.883984e-001 9.152570e-002 1.863219e-001 9.579630e-002 1.343223e-001 -1.487754e-001 1.163356e-002 4.640718e-001 4.104121e-002 -2.551748e-001 -4.142939e-001
<VARIANCE> 39
 6.264986e+001 7.855787e+001 1.005290e+002 7.899337e+001 1.045959e+002 8.772823e+001 8.904228e+001 7.602963e+001 6.877874e+001 8.477840e+001 6.330538e+001 5.316144e+001 1.727372e+002 6.522727e+000 6.595729e+000 7.003837e+000 7.107825e+000 8.572532e+000 7.176262e+000 7.568992e+000 8.942312e+000 6.402335e+000 6.618839e+000 6.405295e+000 5.217790e+000 1.034822e+001 1.003141e+000 1.213836e+000 1.171925e+000 1.017210e+000 1.293746e+000 1.142640e+000 1.207946e+000 1.264973e+000 1.102262e+000 1.223312e+000 9.597907e-001 9.121368e-001 2.036161e+000
<GCONST> 1.567076e+002
<STATE> 3
<NUMMIXES> 2
<MIXTURE> 1 5.387580e-001
<MEAN> 39
 -3.724244e-001 -1.527884e+001 -6.748974e+000 -2.105786e+001 -5.557003e-001 -1.546101e+001 -7.215207e+000 5.596201e+000 -1.556257e+000 -7.207201e+000 -8.777148e+000 -3.345587e+000 7.893362e+001 1.604237e-001 3.427255e-001 2.738165e-002 3.450297e-001 -3.426997e-002 -9.798805e-002 -2.831573e-001 -1.586000e-001 -1.468314e-001 -9.959870e-002 3.530043e-001 -1.754745e-001 -3.164845e-001 8.633573e-002 5.304351e-001 1.070230e-001 2.241554e-001 -3.600850e-001 4.371534e-002 -1.853211e-001 -4.343622e-001 5.685063e-003 1.677766e-001 2.729103e-001 -1.088532e-001 -3.361879e-001
<VARIANCE> 39
 3.826529e+001 2.643707e+001 3.719123e+001 7.297754e+001 1.025185e+002 7.103301e+001 1.155487e+002 8.155606e+001 6.795796e+001 5.475378e+001 5.353907e+001 6.431767e+001 7.469659e+000 5.699088e-001 1.388487e+000 1.617472e+000 1.312879e+000 2.879881e+000 2.416419e+000 3.437753e+000 2.782990e+000 2.458766e+000 2.739423e+000 2.271647e+000 2.374516e+000 4.524606e-001 1.039515e-001 2.061630e-001 2.298092e-001 3.004740e-001 3.709045e-001 3.857049e-001 5.850339e-001 6.369359e-001 5.063310e-001 4.868969e-001 4.047055e-001 4.252544e-001 1.125868e-001
<GCONST> 1.156493e+002
<MIXTURE> 2 4.611262e-001
<MEAN> 39
 -6.151471e+000 -1.507272e+001 -1.243065e+001 -1.146309e+001 -5.305378e+000 -6.989788e+000 -8.078590e+000 1.203663e+000 -6.018447e+000 -1.220613e+001 -7.074847e+000 -6.212560e-002 7.838076e+001 1.280051e-002 4.548327e-001 7.253255e-002 3.146233e-001 -1.808941e-003 -1.229362e-001 -2.212851e-001 -3.438826e-001 -6.877723e-002 -7.591072e-002 1.657059e-002 -2.416937e-001 -4.229779e-001 6.450066e-002 5.749080e-001 2.873987e-001 -1.100972e-001 -2.384804e-001 -3.557716e-001 -1.281077e-001 -2.785816e-001 1.939243e-001 2.957669e-001 -5.304296e-003 -2.584126e-001 -4.094346e-001
<VARIANCE> 39
 3.622617e+001 2.808852e+001 3.802114e+001 4.187330e+001 6.024619e+001 3.858632e+001 7.966949e+001 5.422323e+001 6.619788e+001 5.377063e+001 6.956881e+001 3.556860e+001 2.847730e+001 6.578710e-001 1.683395e+000 1.429496e+000 1.723022e+000 2.913472e+000 2.249937e+000 2.905070e+000 2.167124e+000 2.418805e+000 2.360605e+000 2.095091e+000 1.995171e+000 6.912545e-001 1.339688e-001 2.422255e-001 2.467286e-001 2.540185e-001 3.745615e-001 3.676057e-001 4.529361e-001 4.324249e-001 4.456051e-001 4.277229e-001 4.188496e-001 3.407769e-001 1.565867e-001
<GCONST> 1.136951e+002
<STATE> 4
<NUMMIXES> 2
<MIXTURE> 1 4.827680e-001
<MEAN> 39
 -2.255200e-001 -6.916602e+000 -7.003286e+000 -1.442972e+001 -4.808179e+000 -1.433782e+001 -1.107244e+001 1.690409e+000 -1.261378e+000 -8.613522e+000 -6.892403e+000 -4.160215e+000 7.198380e+001 -1.187797e-001 2.371516e+000 6.418816e-001 1.667701e+000 3.034264e-002 3.397684e-001 -9.614685e-002 -9.636956e-001 8.299280e-002 -1.075708e-001 8.790257e-001 -2.712249e-001 -2.503041e+000 -4.180854e-001 -6.634772e-002 -9.330105e-002 2.075771e-001 2.069043e-001 3.459740e-001 5.638174e-001 8.066016e-002 -2.331247e-002 1.756299e-002 7.455190e-002 9.539746e-002 -1.732316e-001
<VARIANCE> 39
 4.881797e+001 3.917374e+001 4.563535e+001 8.398167e+001 1.079981e+002 6.886079e+001 1.031629e+002 8.536024e+001 6.355134e+001 9.145740e+001 5.777987e+001 5.304139e+001 3.267624e+001 2.015087e+000 2.018412e+000 2.324363e+000 2.405301e+000 4.257628e+000 4.089502e+000 6.049005e+000 5.110511e+000 3.831840e+000 4.068890e+000 3.572028e+000 3.431306e+000 2.027337e+000 2.787764e-001 4.279616e-001 4.219944e-001 5.084783e-001 6.584371e-001 6.456319e-001 8.466316e-001 8.096215e-001 6.454229e-001 7.567384e-001 6.594170e-001 5.837073e-001 3.231415e-001
<GCONST> 1.333367e+002
<MIXTURE> 2 5.171400e-001
<MEAN> 39
 -2.029162e+000 -6.476902e+000 -1.031826e+001 -1.227679e+001 -3.555025e+000 -1.058529e+001 -7.173787e+000 1.220448e+000 -2.614081e+000 -1.333844e+001 -4.348568e+000 -5.064597e+000 6.703825e+001 -5.688425e-001 1.172550e+000 6.614490e-001 2.977262e-001 -6.878142e-001 -1.971509e-001 5.946279e-001 -1.058198e+000 -2.371831e-001 7.294688e-001 -5.094285e-002 -4.723521e-001 -1.343027e+000 -7.917820e-002 -3.742371e-003 2.083704e-001 -4.524144e-002 -1.586506e-002 -5.336906e-002 -8.047826e-002 -1.675123e-001 4.566589e-003 2.475040e-001 5.630984e-003 7.198976e-002 -1.100545e-002
<VARIANCE> 39
 6.286799e+001 5.995359e+001 7.524129e+001 8.036915e+001 9.467475e+001 6.222234e+001 9.998111e+001 1.082277e+002 8.552553e+001 7.827857e+001 5.570275e+001 5.908092e+001 9.995417e+001 1.362119e+000 2.233797e+000 3.115788e+000 2.733146e+000 3.768533e+000 3.569980e+000 4.578022e+000 4.766338e+000 4.305296e+000 3.878828e+000 3.500873e+000 3.467868e+000 9.373892e-001 1.287894e-001 3.113936e-001 3.926714e-001 4.475522e-001 5.472621e-001 5.673245e-001 7.540544e-001 8.047756e-001 7.637479e-001 6.377095e-001 6.180081e-001 5.944938e-001 1.637886e-001
<GCONST> 1.321323e+002
<TRANSP> 5
 0.000000e+000 1.000000e+000 0.000000e+000 0.000000e+000 0.000000e+000
 0.000000e+000 5.509602e-001 4.490398e-001 0.000000e+000 0.000000e+000
 0.000000e+000 0.000000e+000 7.709316e-001 2.290684e-001 0.000000e+000
 0.000000e+000 0.000000e+000 0.000000e+000 6.904680e-001 3.095321e-001
 0.000000e+000 0.000000e+000 0.000000e+000 0.000000e+000 0.000000e+000
<ENDHMM>
~h "b"
<BEGINHMM>
<NUMSTATES> 5
<STATE> 2
<NUMMIXES> 2
<MIXTURE> 1 5.190848e-001
<MEAN> 39
 -5.433573e+000 -9.502179e+000 -1.129330e+001 -1.515706e+001 -5.107784e+000 -9.048738e+000 -8.981963e+000 -3.486296e+000 1.647618e+000 -2.945293e-001 -1.042119e+001 -7.562152e+000 6.467593e+001 -6.565775e-001 -1.787713e+000 -9.989330e-001 -8.064491e-001 5.777899e-001 5.593482e-001 1.213405e+000 1.702597e+000 4.169542e-001 -8.981479e-001 -1.216268e+000 5.822759e-001 1.601708e+000 -1.819299e-001 2.546125e-001 3.978397e-001 7.423677e-001 2.131752e-001 3.571430e-001 2.780942e-001 -2.330166e-001 -4.885041e-001 -4.371606e-001 1.836223e-001 3.408049e-001 -4.324735e-001
<VARIANCE> 39
 3.630021e+001 4.593110e+001 4.717276e+001 5.126613e+001 2.687187e+001 5.469786e+001 7.263081e+001 5.925809e+001 3.203357e+001 3.327110e+001 9.621260e+001 6.152342e+001 2.221514e+002 1.129677e+000 3.719092e+000 2.214132e+000 5.741459e+000 2.000867e+000 3.215110e+000 2.960483e+000 4.378858e+000 3.534045e+000 4.904756e+000 4.244319e+000 3.947771e+000 3.476569e+000 1.577378e-001 4.700360e-001 3.092072e-001 7.102753e-001 3.476672e-001 6.069599e-001 5.965217e-001 8.786624e-001 5.482284e-001 8.013426e-001 8.351266e-001 4.841743e-001 3.481658e-001
<GCONST> 1.298245e+002
<MIXTURE> 2 4.809151e-001
<MEAN> 39
 -9.504230e+000 -1.065541e+001 -8.733619e+000 -1.352757e+001 -1.703024e+000 -6.463204e+000 -1.947830e+000 -4.103827e+000 -2.319210e+000 -4.136948e+000 -4.838723e+000 -3.466111e+000 5.426009e+001 -6.754861e-002 1.383186e-001 2.418392e-001 4.957114e-001 2.228787e-001 1.499745e-001 -3.780411e-002 -3.753930e-001 -6.114040e-001 -8.039121e-001 -3.558672e-001 1.271254e-001 2.180153e-002 8.249564e-002 3.095187e-002 -2.482589e-002 -6.859473e-002 -5.604397e-002 -1.809318e-001 -2.139210e-001 -3.901682e-002 -3.394245e-002 6.972214e-002 -1.967920e-002 -1.323421e-001 1.499417e-002
<VARIANCE> 39
 4.332835e+001 1.336187e+002 7.412771e+001 9.064881e+001 4.205969e+001 7.023716e+001 8.818459e+001 7.880988e+001 3.140411e+001 4.697401e+001 7.559300e+001 4.501090e+001 2.127869e+002 9.007669e-001 2.525553e+000 2.093399e+000 2.212656e+000 2.108344e+000 2.897744e+000 3.674388e+000 4.775878e+000 2.568349e+000 2.863102e+000 3.450788e+000 3.001294e+000 1.531409e+000 1.222745e-001 5.687414e-001 4.770263e-001 5.108269e-001 3.939416e-001 4.585674e-001 7.583479e-001 1.048655e+000 5.693125e-001 5.883341e-001 7.089472e-001 4.878222e-001 3.444474e-001
<GCONST> 1.293297e+002
<STATE> 3
<NUMMIXES> 2
<MIXTURE> 1 8.528355e-001
<MEAN> 39
 -1.764220e+001 -1.250030e+001 -6.261939e+000 -8.931847e+000 -1.858179e+000 -8.071445e+000 -1.537343e-001 -5.529714e+000 1.324755e+000 -3.605878e+000 9.395160e-001 -2.950262e+000 4.023517e+001 -9.025828e-005 -5.239056e-005 -9.418464e-003 4.267468e-002 2.410568e-002 3.026913e-002 -4.007316e-003 3.658748e-002 1.974970e-002 2.388443e-002 7.659800e-003 -3.999999e-002 -3.273620e-002 2.894157e-002 1.978476e-002 9.670942e-004 -1.969595e-002 -2.675213e-002 -3.588562e-002 7.612820e-004 5.015488e-002 1.719027e-002 -6.313500e-003 -1.676956e-002 -9.515135e-003 1.660363e-002
<VARIANCE> 39
 3.083475e+000 4.102113e+000 6.716439e+000 9.461710e+000 1.116768e+001 1.221351e+001 1.763241e+001 1.749841e+001 2.143250e+001 1.629742e+001 1.584379e+001 1.564240e+001 2.687465e+000 2.145150e-001 4.190364e-001 7.143683e-001 1.315156e+000 1.511035e+000 1.826683e+000 1.900183e+000 2.304726e+000 2.867095e+000 2.194966e+000 2.012144e+000 2.055072e+000 4.137508e-002 4.608315e-002 8.879592e-002 1.543809e-001 2.925177e-001 3.238703e-001 4.066697e-001 4.067036e-001 4.723721e-001 6.195696e-001 4.707542e-001 4.092927e-001 4.523855e-001 8.665511e-003
<GCONST> 8.152560e+001
<MIXTURE> 2 1.471629e-001
<MEAN> 39
 -1.115331e+001 -1.074724e+001 -9.011219e+000 -1.209111e+001 -3.591369e+000 -7.176413e+000 -3.046882e+000 -2.085805e+000 1.321432e+000 -4.436426e+000 -7.648487e+000 -4.325850e+000 5.763102e+001 -2.976825e-001 -1.349631e-001 2.858699e-001 3.971971e-001 1.841434e-001 -3.360367e-004 1.475607e-001 -4.241497e-002 -7.632021e-001 -7.216865e-001 4.422292e-002 6.136955e-001 -3.863777e-003 1.125614e-001 1.890131e-001 1.609143e-001 8.268863e-002 6.411076e-002 -5.597966e-002 -3.205292e-001 -3.635980e-001 -2.684245e-001 1.749266e-001 1.222575e-001 -1.739637e-001 -1.831150e-001
<VARIANCE> 39
 4.038237e+001 4.991724e+001 2.883751e+001 4.083986e+001 3.185552e+001 5.007671e+001 5.946618e+001 4.393422e+001 4.893225e+001 3.562140e+001 9.104028e+001 4.977860e+001 3.672580e+002 3.093867e-001 5.235404e-001 1.041068e+000 1.261323e+000 2.034016e+000 2.239979e+000 2.469362e+000 2.589281e+000 2.447357e+000 2.279541e+000 2.101799e+000 2.175028e+000 1.553953e-001 1.331755e-001 2.375720e-001 2.216163e-001 3.093281e-001 3.173487e-001 5.041128e-001 4.630267e-001 5.256318e-001 4.965627e-001 5.769491e-001 5.685260e-001 4.040625e-001 1.195845e-001
<GCONST> 1.123654e+002
<STATE> 4
<NUMMIXES> 2
<MIXTURE> 1 3.099774e-001
<MEAN> 39
 -1.208455e+001 -4.110473e+000 -3.686178e+000 -6.819370e+000 -4.027075e+000 -1.016709e+001 -4.816855e+000 -7.404514e+000 -3.165088e+000 -5.550682e+000 -1.590052e+000 -4.120920e+000 4.476626e+001 1.105506e+000 1.433962e+000 1.003795e+000 6.804306e-001 -4.610032e-002 -4.080649e-001 -6.883587e-001 -5.686631e-001 -1.226669e+000 -8.361785e-001 -4.060864e-001 -4.194718e-001 5.487573e-001 5.846264e-001 3.690335e-001 1.858329e-002 -4.237501e-003 7.838926e-002 1.054185e-001 -1.060855e-001 -9.302099e-002 -7.174727e-002 -1.040599e-001 -1.503055e-001 -1.359134e-001 4.774100e-001
<VARIANCE> 39
 5.083945e+001 7.647768e+001 4.633531e+001 6.578720e+001 3.065248e+001 4.054997e+001 5.563607e+001 4.835383e+001 4.594458e+001 4.664465e+001 4.813471e+001 3.503079e+001 1.619100e+002 1.991969e+000 3.346727e+000 2.132933e+000 1.963675e+000 2.000930e+000 2.922250e+000 4.013498e+000 5.278080e+000 4.562631e+000 3.826890e+000 2.977929e+000 1.995339e+000 5.465661e-001 6.304705e-001 1.308874e+000 9.217393e-001 5.771053e-001 4.407780e-001 7.184446e-001 1.107449e+000 1.284179e+000 1.159718e+000 7.869797e-001 7.047310e-001 4.544375e-001 2.525467e-001
<GCONST> 1.311344e+002
<MIXTURE> 2 6.900222e-001
<MEAN> 39
 -7.522776e+000 -1.543506e+001 -9.345332e+000 -1.359771e+001 -2.350257e-001 -4.486846e+000 -8.987489e+000 -8.041477e-001 -6.803635e+000 -7.081297e+000 -1.953712e+001 -1.241419e+000 7.825128e+001 2.520592e-001 7.914364e-001 8.058252e-001 -3.956473e-001 4.596314e-001 -1.035081e+000 -2.835272e-001 -3.015445e-001 -8.711552e-001 6.134707e-001 -3.303273e-001 -5.452650e-001 -6.296202e-001 2.060586e-001 3.426478e-001 8.070555e-002 -1.262288e-001 -2.609696e-001 -3.161812e-001 -1.443569e-001 -2.895277e-001 3.060825e-001 5.096779e-001 7.302766e-002 -2.798625e-001 -2.362822e-001
<VARIANCE> 39
 5.753293e+000 9.737396e+000 1.180261e+001 1.407836e+001 2.548937e+001 3.221884e+001 2.327883e+001 2.847708e+001 3.190715e+001 2.008267e+001 1.393146e+001 2.931212e+001 5.938663e+000 2.498918e-001 6.694608e-001 2.755696e-001 7.922236e-001 1.038558e+000 1.879622e+000 9.102695e-001 1.577178e+000 1.528961e+000 1.773699e+000 1.095019e+000 1.609280e+000 2.267652e-001 2.154570e-002 4.569215e-002 4.762498e-002 1.691516e-001 2.118730e-001 2.429516e-001 1.538595e-001 2.873759e-001 2.550446e-001 2.122377e-001 1.932367e-001 2.066372e-001 1.202234e-002
<GCONST> 7.769267e+001
<TRANSP> 5
 0.000000e+000 1.000000e+000 0.000000e+000 0.000000e+000 0.000000e+000
 0.000000e+000 7.595323e-001 2.404677e-001 0.000000e+000 0.000000e+000
 0.000000e+000 0.000000e+000 8.958840e-001 1.041159e-001 0.000000e+000
 0.000000e+000 0.000000e+000 0.000000e+000 7.515816e-001 2.484184e-001
 0.000000e+000 0.000000e+000 0.000000e+000 0.000000e+000 0.000000e+000
<ENDHMM>
~h "c"
<BEGINHMM>
<NUMSTATES> 5
<STATE> 2
<NUMMIXES> 2
<MIXTURE> 1 3.250789e-001
<MEAN> 39
 -1.033752e+001 3.734922e+000 -7.863942e-001 -2.396055e+000 -6.029438e+000 -7.224483e+000 -4.787199e+000 -4.767879e+000 -7.672176e-001 -1.245357e+000 6.346684e-001 -2.285548e-001 5.273300e+001 -1.136076e+000 -1.185720e+000 -1.036722e+000 4.470744e-001 1.889767e+000 1.372764e+000 1.186248e+000 1.240397e+000 4.552635e-002 3.296291e-001 6.860862e-001 3.342470e-001 -4.043830e-001 2.927086e-001 -4.878414e-001 -6.298205e-001 -8.364110e-001 -7.157531e-002 -1.118149e-001 -2.031082e-001 -1.163304e-001 -1.901736e-001 2.439300e-001 -3.400618e-001 -1.332491e-001 8.618238e-001
<VARIANCE> 39
 2.402689e+001 4.076550e+001 1.840217e+001 3.391385e+001 4.315092e+001 3.631793e+001 3.359436e+001 2.915400e+001 2.367523e+001 3.146789e+001 2.772114e+001 2.238289e+001 6.557452e+001 1.548425e+000 2.956120e+000 3.354140e+000 3.369444e+000 3.199582e+000 3.226911e+000 3.397475e+000 3.143137e+000 3.215176e+000 3.330749e+000 3.844388e+000 2.569921e+000 2.349656e+000 3.169054e-001 5.072194e-001 7.098351e-001 6.415157e-001 7.619212e-001 7.610615e-001 6.985907e-001 7.045508e-001 5.973449e-001 6.669596e-001 7.558730e-001 4.789318e-001 3.840873e-001
<GCONST> 1.238745e+002
<MIXTURE> 2 6.749187e-001
<MEAN> 39
 -1.240457e+001 -2.486056e+000 -7.956282e+000 -1.199551e+001 -8.519641e+000 -1.097732e+001 -5.292225e+000 -7.947058e+000 -1.176228e+000 -3.574169e+000 1.495636e+000 -3.180249e+000 5.440281e+001 -3.984206e-001 -2.401352e-001 -1.668861e-001 5.101426e-002 3.318737e-002 -3.643515e-002 1.496118e-001 1.137450e-001 5.296978e-002 3.049920e-001 2.645332e-001 1.223444e-001 -5.647660e-001 1.931480e-001 -2.802920e-002 1.333322e-002 -6.656644e-002 1.105589e-001 2.120878e-002 -6.484341e-002 7.025427e-002 -8.247061e-002 -2.886841e-002 -8.812649e-002 9.422417e-003 1.807894e-001
<VARIANCE> 39
 5.670139e+001 8.718113e+001 4.284843e+001 4.359273e+001 9.791486e+001 8.552374e+001 8.984274e+001 7.941564e+001 6.380455e+001 5.342815e+001 6.642863e+001 9.315360e+001 1.254688e+002 1.894422e+000 1.639270e+000 2.142149e+000 3.189865e+000 3.735456e+000 4.263201e+000 4.203914e+000 4.079888e+000 4.169331e+000 4.350233e+000 4.015833e+000 4.267022e+000 1.696049e+000 2.784196e-001 3.733598e-001 4.434509e-001 6.275606e-001 7.861973e-001 8.865488e-001 9.243315e-001 9.139562e-001 8.924765e-001 8.736779e-001 7.375621e-001 8.870252e-001 2.763840e-001
<GCONST> 1.362186e+002
<STATE> 3
<NUMMIXES> 2
<MIXTURE> 1 5.195621e-001
<MEAN> 39
 -1.074528e+001 -3.660209e+000 -7.461032e+000 -9.385081e+000 -1.577129e+000 -5.350282e+000 -1.324382e+000 -2.450402e+000 -1.274853e+000 -3.880559e+000 -1.843158e+000 -1.382017e+000 5.012185e+001 1.377156e+000 -1.000462e+000 -2.744880e+000 -2.451864e+000 6.243789e-001 -1.281195e-001 -4.587775e-001 1.306778e+000 -1.246500e+000 7.452037e-001 3.405890e-001 4.461032e-001 3.049163e+000 5.819642e-001 2.550170e-001 -1.424898e-001 -5.529640e-001 -4.321722e-001 -5.072464e-001 -5.561684e-001 -2.654170e-001 -2.806347e-001 1.808851e-001 -4.275332e-002 -5.469706e-002 1.077300e+000
<VARIANCE> 39
 3.602079e+001 6.982751e+001 5.511334e+001 7.239065e+001 6.306107e+001 6.285464e+001 3.938230e+001 5.330349e+001 5.277169e+001 4.753806e+001 4.043314e+001 2.568891e+001 8.886008e+001 4.650381e+000 8.356808e+000 9.170157e+000 1.001977e+001 1.108764e+001 1.384552e+001 8.227394e+000 7.238712e+000 8.449580e+000 5.806808e+000 5.264919e+000 4.393069e+000 7.285088e+000 4.099106e-001 9.634361e-001 1.108172e+000 1.116232e+000 1.227036e+000 1.303268e+000 1.039569e+000 1.108216e+000 1.104490e+000 7.437164e-001 7.778021e-001 5.261844e-001 9.707901e-001
<GCONST> 1.480895e+002
<MIXTURE> 2 4.804368e-001
<MEAN> 39
 -1.257357e+001 -4.185577e+000 -1.109737e+001 -9.433185e+000 2.501496e-001 -5.075680e+000 -3.458894e+000 -3.599041e+000 -1.836047e+000 3.447213e+000 4.271512e-001 -8.726932e-001 6.077990e+001 1.005822e+000 1.932682e-002 -2.670323e-001 -1.282506e+000 -6.231912e-001 -7.708287e-001 -9.819633e-001 -3.759182e-001 -7.792363e-001 7.265196e-002 -5.828100e-001 -2.030330e-001 1.269076e+000 7.825886e-001 5.834237e-001 7.146262e-001 -4.351627e-001 -1.052393e+000 -7.536415e-001 -5.733246e-001 -2.718426e-001 -2.143891e-001 -5.890742e-001 -3.316761e-001 -8.356353e-002 3.366205e-001
<VARIANCE> 39
 6.280386e+001 4.839705e+001 7.257673e+001 1.023293e+002 1.130098e+002 8.131057e+001 7.873775e+001 9.494976e+001 7.912939e+001 6.159176e+001 4.202641e+001 5.871067e+001 8.382960e+001 2.992834e+000 4.552182e+000 6.909766e+000 5.444593e+000 8.486156e+000 7.557719e+000 7.365570e+000 6.506324e+000 4.930040e+000 4.834492e+000 4.212296e+000 3.513019e+000 3.301517e+000 5.764419e-001 7.751209e-001 1.260745e+000 1.338174e+000 1.645548e+000 1.318087e+000 1.570920e+000 1.415729e+000 1.198145e+000 9.528007e-001 8.854817e-001 9.847596e-001 6.249149e-001
<GCONST> 1.495323e+002
<STATE> 4
<NUMMIXES> 2
<MIXTURE> 1 4.439564e-001
<MEAN> 39
 -2.800008e+000 -5.216963e+000 -1.493394e+001 -1.803709e+001 6.991607e-002 -1.359611e+001 -8.455188e+000 1.334334e+000 -6.169140e+000 -2.300265e-001 -2.887294e+000 -5.913016e+000 6.510076e+001 1.353039e+000 -4.920889e-001 -5.876641e-001 -1.374507e+000 8.842969e-002 -1.496116e+000 -7.665883e-001 1.232776e+000 -5.620588e-001 -1.817039e-001 -3.243686e-001 4.000387e-001 3.626155e+000 -5.797214e-002 2.340823e-001 8.936196e-001 1.258368e-001 -7.143786e-001 3.317482e-001 4.367377e-001 -7.664727e-001 4.763436e-001 -4.249577e-001 -6.170452e-002 4.179762e-001 -4.115349e-001
<VARIANCE> 39
 5.417934e+001 7.304112e+001 1.624024e+002 1.737760e+002 1.512721e+002 2.508335e+002 1.641974e+002 1.458973e+002 1.719303e+002 1.100721e+002 8.336942e+001 7.469590e+001 7.825986e+001 6.093788e+000 7.700562e+000 1.093003e+001 1.015455e+001 1.210714e+001 1.327325e+001 1.523920e+001 1.287308e+001 1.293052e+001 9.522797e+000 7.189903e+000 7.074303e+000 8.308473e+000 9.720115e-001 1.469598e+000 1.916471e+000 2.331433e+000 2.498963e+000 3.025408e+000 2.847070e+000 2.093722e+000 2.366885e+000 1.499172e+000 1.335422e+000 1.312542e+000 1.239375e+000
<GCONST> 1.712615e+002
<MIXTURE> 2 5.560427e-001
<MEAN> 39
 -5.997883e+000 -1.167253e+000 -1.040957e+001 -1.621388e+001 -6.781570e+000 -9.949721e+000 -6.350204e+000 -4.471355e+000 -6.251868e+000 -8.880407e-001 -8.561968e-001 -1.071804e+000 6.455064e+001 2.494055e+000 1.394457e+000 6.415471e-001 -2.058772e+000 -2.528320e+000 -1.425555e+000 -1.606632e+000 -1.572412e+000 -7.794093e-001 -5.783736e-001 -5.678442e-001 -1.057524e-001 2.392495e+000 -2.929760e-002 -1.181134e-001 2.931355e-001 1.031060e-001 9.484585e-002 2.251416e-001 1.053651e-001 2.249037e-002 4.036666e-001 -9.780137e-002 -1.122881e-001 -5.494101e-002 -2.660607e-001
<VARIANCE> 39
 7.131332e+001 7.627522e+001 9.348701e+001 8.263951e+001 9.177975e+001 9.367262e+001 7.831287e+001 7.153741e+001 7.499840e+001 5.721713e+001 4.694794e+001 3.711621e+001 7.806682e+001 4.431808e+000 4.640347e+000 6.575867e+000 7.809114e+000 6.411938e+000 6.450929e+000 7.282166e+000 6.334743e+000 5.822182e+000 4.834794e+000 4.421580e+000 3.842836e+000 6.555836e+000 6.178831e-001 9.836400e-001 1.195942e+000 1.107696e+000 1.412490e+000 1.089184e+000 1.085300e+000 1.349336e+000 1.018328e+000 9.880704e-001 8.849887e-001 6.385772e-001 1.123962e+000
<GCONST> 1.498206e+002
<TRANSP> 5
 0.000000e+000 1.000000e+000 0.000000e+000 0.000000e+000 0.000000e+000
 0.000000e+000 7.814082e-001 2.185919e-001 0.000000e+000 0.000000e+000
 0.000000e+000 0.000000e+000 5.896354e-001 4.103646e-001 0.000000e+000
 0.000000e+000 0.000000e+000 0.000000e+000 5.431474e-001 4.568526e-001
 0.000000e+000 0.000000e+000 0.000000e+000 0.000000e+000 0.000000e+000
<ENDHMM>
~h "d"
<BEGINHMM>
<NUMSTATES> 5
<STATE> 2
<NUMMIXES> 2
<MIXTURE> 1 4.873269e-001
<MEAN> 39
 -9.320920e+000 -1.774473e+000 -7.632133e-001 -1.245381e+001 -1.069710e+001 -1.518971e+001 -5.061483e+000 -6.451279e+000 -2.025586e+000 -2.765855e+000 -4.188698e+000 -1.639913e+000 5.930993e+001 4.404812e-001 8.238490e-001 -1.085854e-001 1.763866e+000 5.298768e-001 6.854957e-001 3.031443e-002 -2.694745e-001 -1.860526e-001 -6.190379e-001 4.414373e-001 1.161684e-001 -1.812058e+000 2.882021e-001 1.665200e-001 7.076040e-002 -1.601191e-001 -7.272817e-002 1.657438e-001 -2.367404e-002 -1.013322e-001 8.263438e-002 -3.503139e-002 -2.105811e-001 -1.043998e-001 1.906623e-001
<VARIANCE> 39
 6.868465e+001 2.500173e+001 3.614171e+001 5.990281e+001 9.885379e+001 6.059460e+001 3.155092e+001 5.461032e+001 4.957024e+001 5.629203e+001 5.466790e+001 2.907370e+001 2.661187e+002 2.754277e+000 3.879180e+000 3.031674e+000 3.047528e+000 6.181129e+000 4.787167e+000 3.075821e+000 3.939058e+000 2.455853e+000 5.441792e+000 4.342534e+000 3.991107e+000 5.006472e+000 6.241577e-001 5.063308e-001 2.191824e-001 3.244134e-001 9.715814e-001 9.102373e-001 4.602022e-001 6.781405e-001 5.162829e-001 6.166043e-001 8.483099e-001 7.355878e-001 5.651702e-001
<GCONST> 1.341048e+002
<MIXTURE> 2 5.126736e-001
<MEAN> 39
 -1.430356e+001 -5.792826e+000 -3.742811e+000 -7.639063e+000 -1.499408e+000 -9.658849e+000 -4.394409e+000 -6.778656e+000 -1.979109e+000 -3.426232e+000 -1.771301e+000 -2.663107e+000 4.445187e+001 1.851452e+000 2.221041e+000 1.015895e+000 -1.460948e-001 -1.183020e+000 -1.498585e+000 -1.534470e+000 -1.057743e+000 -1.367743e+000 -7.173085e-001 -7.686443e-001 -5.571184e-001 7.187951e-001 6.841974e-001 9.415513e-001 3.814355e-001 -2.863762e-001 -6.648704e-001 -5.795786e-001 -3.825644e-001 -6.976098e-002 -1.777436e-001 -1.661642e-001 -3.034166e-001 -2.290829e-001 4.696250e-001
<VARIANCE> 39
 2.089597e+001 5.322863e+001 3.400642e+001 9.553224e+001 4.465344e+001 5.908947e+001 5.771555e+001 3.848917e+001 4.042610e+001 4.743469e+001 2.476518e+001 2.806100e+001 1.178452e+002 4.032838e+000 5.498365e+000 2.918061e+000 5.634169e+000 5.835909e+000 3.977409e+000 4.519945e+000 5.956505e+000 4.682366e+000 5.769321e+000 1.414939e+000 2.009419e+000 1.250890e+000 6.234524e-001 9.234716e-001 5.016441e-001 7.497678e-001 8.085712e-001 7.902886e-001 1.009035e+000 9.995987e-001 7.624292e-001 9.871704e-001 4.441484e-001 5.387456e-001 2.220981e-001
<GCONST> 1.329467e+002
<STATE> 3
<NUMMIXES> 2
<MIXTURE> 1 6.757846e-001
<MEAN> 39
 -2.155623e+000 7.469817e+000 2.479913e-001 -8.229162e+000 -1.362115e+001 -1.351810e+001 -6.791675e+000 -7.201123e+000 -3.428675e+000 -8.436848e+000 -6.204104e+000 -3.091665e+000 5.540113e+001 -2.286799e-001 3.833662e-001 6.616594e-002 5.304501e-001 5.671662e-001 6.410875e-001 2.834680e-001 -6.147387e-002 1.591571e-001 5.261868e-002 -1.484293e-001 -3.837150e-001 -4.582103e-001 -3.469649e-001 -4.193887e-001 1.330090e-002 -1.849761e-001 7.555680e-002 1.095147e-002 -5.367867e-002 -6.017515e-002 5.624611e-002 3.210603e-001 1.322637e-001 1.393932e-001 3.651560e-001
<VARIANCE> 39
 4.759028e+001 3.751136e+001 2.935524e+001 5.131984e+001 3.589733e+001 4.262003e+001 5.538910e+001 4.321079e+001 2.823686e+001 4.225546e+001 3.085021e+001 3.045506e+001 1.368028e+002 1.337681e+000 1.839714e+000 1.948042e+000 1.893720e+000 3.073104e+000 3.010649e+000 3.301874e+000 3.408666e+000 2.072108e+000 2.698888e+000 3.137528e+000 2.969608e+000 2.356757e+000 2.186617e-001 2.915421e-001 2.812592e-001 5.553503e-001 6.539517e-001 6.715416e-001 6.484872e-001 7.222338e-001 4.007111e-001 7.527521e-001 5.224664e-001 6.366813e-001 4.362207e-001
<GCONST> 1.227862e+002
<MIXTURE> 2 3.242154e-001
<MEAN> 39
 -2.216777e+000 7.730256e+000 3.228543e+000 -5.900941e+000 -1.058320e+001 -1.420016e+001 -9.771688e+000 -1.194188e+001 -6.385185e+000 -8.671136e+000 -4.452452e+000 -5.281252e+000 4.926841e+001 3.382157e+000 3.750304e+000 6.392837e-001 -1.558165e+000 -3.072346e+000 -2.127115e+000 -8.488411e-001 -6.138039e-001 -7.877114e-001 -6.327380e-001 -1.071251e+000 -1.011734e+000 2.361478e+000 -7.456034e-001 -1.034620e+000 -7.483876e-001 -3.955901e-001 3.015251e-001 5.333139e-001 8.943545e-001 5.469952e-001 4.116156e-001 5.143521e-001 2.508432e-001 1.727549e-001 1.709342e-001
<VARIANCE> 39
 4.603818e+001 5.551276e+001 3.894762e+001 3.402354e+001 6.667716e+001 3.448671e+001 2.867808e+001 2.770849e+001 2.932207e+001 3.458214e+001 3.396104e+001 2.894743e+001 8.069601e+001 5.757059e+000 8.323691e+000 4.431111e+000 4.001638e+000 4.732286e+000 3.562884e+000 6.515418e+000 6.326538e+000 4.115242e+000 5.237551e+000 3.712944e+000 3.735862e+000 3.939494e+000 7.345058e-001 1.045604e+000 4.133722e-001 7.900205e-001 1.361761e+000 8.458395e-001 7.490428e-001 8.212140e-001 8.200272e-001 7.534384e-001 7.066496e-001 5.889001e-001 5.229380e-001
<GCONST> 1.359599e+002
<STATE> 4
<NUMMIXES> 2
<MIXTURE> 1 4.245136e-001
<MEAN> 39
 2.668324e-001 8.046996e+000 5.068768e-001 -1.264940e+001 -8.892537e+000 -1.411829e+001 -4.394202e+000 -1.111698e+001 -5.000431e+000 -7.411063e+000 -5.821857e+000 -5.949174e+000 6.018990e+001 -7.418841e-001 -9.548636e-001 8.093305e-003 -1.097090e+000 5.783967e-001 -8.403004e-001 -4.690039e-001 7.879741e-001 1.505819e-001 5.094190e-001 1.976030e-001 4.731326e-001 2.237588e+000 -1.430257e-001 -6.955412e-001 7.189822e-002 -3.121636e-001 -2.834924e-001 -1.915119e-001 -1.966605e-001 -2.580218e-002 7.540566e-002 6.113178e-001 1.996460e-001 1.872714e-001 4.898836e-001
<VARIANCE> 39
 7.452402e+001 4.652834e+001 1.456927e+002 1.026042e+002 8.182803e+001 7.390906e+001 1.056447e+002 1.127438e+002 6.674894e+001 6.902847e+001 6.959137e+001 5.783181e+001 9.380441e+001 7.103357e+000 7.276631e+000 8.848848e+000 9.380244e+000 9.669742e+000 9.709569e+000 1.388424e+001 1.042525e+001 5.685808e+000 8.532713e+000 7.391268e+000 8.262888e+000 8.100614e+000 1.247930e+000 1.100775e+000 1.561341e+000 1.582694e+000 2.081524e+000 1.613853e+000 2.381915e+000 1.468125e+000 1.081092e+000 1.188829e+000 1.186240e+000 1.260538e+000 1.475807e+000
<GCONST> 1.615057e+002
<MIXTURE> 2 5.754854e-001
<MEAN> 39
 -1.287665e+000 1.003326e+000 3.799176e+000 -1.598148e+001 -1.336090e+001 -1.591393e+001 -4.749257e+000 -1.285991e+001 -4.514410e+000 9.300520e-001 -6.816551e+000 -6.388908e+000 6.421419e+001 2.220854e-001 9.525109e-002 -2.871467e-002 -7.510483e-002 -2.160817e-001 3.664674e-001 4.551807e-001 -4.816383e-001 -2.696472e-001 3.468651e-002 -4.028730e-002 -1.004262e-001 -6.401993e-002 2.875984e-002 1.518981e-001 -2.421722e-002 1.365841e-002 1.380948e-001 1.361888e-001 -7.864556e-002 -7.485339e-002 2.369783e-002 -2.601116e-001 -7.920553e-002 4.471861e-002 -6.188439e-002
<VARIANCE> 39
 8.429458e+001 6.920288e+001 1.239637e+002 1.887631e+002 9.081689e+001 1.028118e+002 1.103864e+002 1.314720e+002 8.121012e+001 9.193534e+001 6.970979e+001 1.032048e+002 1.496248e+002 2.280509e+000 2.896201e+000 4.250053e+000 5.088501e+000 4.070883e+000 4.825274e+000 4.610912e+000 4.865731e+000 4.444277e+000 4.485242e+000 2.818339e+000 3.898048e+000 1.988818e+000 4.378426e-001 6.285992e-001 6.858971e-001 9.847960e-001 8.917325e-001 1.211995e+000 9.185047e-001 1.065660e+000 8.429344e-001 7.726070e-001 6.153695e-001 8.119150e-001 4.494780e-001
<GCONST> 1.455189e+002
<TRANSP> 5
 0.000000e+000 1.000000e+000 0.000000e+000 0.000000e+000 0.000000e+000
 0.000000e+000 6.042665e-001 3.957335e-001 0.000000e+000 0.000000e+000
 0.000000e+000 0.000000e+000 7.296167e-001 2.703833e-001 0.000000e+000
 0.000000e+000 0.000000e+000 0.000000e+000 8.647504e-001 1.352496e-001
 0.000000e+000 0.000000e+000 0.000000e+000 0.000000e+000 0.000000e+000
<ENDHMM>
~h "e"
<BEGINHMM>
<NUMSTATES> 5
<STATE> 2
<NUMMIXES> 2
<MIXTURE> 1 3.571942e-001
<MEAN> 39
 -5.995762e+000 -1.467319e-001 5.348881e-002 -1.209131e+001 -1.432959e+001 -1.370089e+001 -4.837723e+000 -6.018837e+000 -2.732063e+000 -4.416343e+000 1.245770e+000 -4.177608e+000 6.554121e+001 1.389568e+000 -1.418404e+000 2.516562e+000 -4.110533e+000 -3.989122e+000 -1.057443e+000 -1.119147e-001 -1.901648e-001 -4.755493e-004 1.996570e+000 4.908094e-001 1.205027e+000 5.026728e+000 -7.303323e-002 -1.750619e-001 3.351334e-001 -6.454334e-001 -5.846070e-002 2.646730e-001 1.277470e-001 -2.785658e-001 9.316324e-002 4.414367e-001 -6.933727e-001 3.004384e-001 -1.335802e-001
<VARIANCE> 39
 6.810297e+001 8.781378e+001 7.463997e+001 9.801599e+001 1.163167e+002 8.674509e+001 6.566586e+001 7.687438e+001 5.811529e+001 5.556741e+001 4.213601e+001 4.513475e+001 1.548474e+002 1.049621e+001 1.320632e+001 1.104969e+001 1.060864e+001 1.306113e+001 9.869337e+000 8.158638e+000 9.841879e+000 9.050674e+000 8.298265e+000 6.567694e+000 5.231389e+000 1.062218e+001 1.421260e+000 1.578267e+000 1.308344e+000 1.740928e+000 1.908229e+000 1.382447e+000 1.201274e+000 1.566057e+000 1.088068e+000 1.079999e+000 9.692805e-001 8.256137e-001 2.178530e+000
<GCONST> 1.607998e+002
<MIXTURE> 2 6.428055e-001
<MEAN> 39
 -5.554104e+000 -1.789909e+000 3.422495e+000 -1.565656e+001 -1.788796e+001 -1.702743e+001 -8.613796e+000 -6.528702e+000 -2.867548e+000 -3.420152e+000 -3.206585e+000 -1.899403e+000 7.291314e+001 1.552675e+000 -6.851162e-001 9.648055e-001 -1.895127e+000 -2.951584e+000 -5.597706e-001 3.124942e-001 -4.002811e-001 -4.610644e-001 6.432710e-001 -4.306338e-002 4.158947e-001 1.737848e+000 -4.502608e-001 -1.443552e-001 -2.077492e-001 2.279643e-002 3.856613e-001 6.251997e-001 3.791780e-001 -2.785362e-002 1.455992e-001 4.394857e-001 -5.789347e-002 -1.457548e-002 -2.418218e-001
<VARIANCE> 39
 4.114735e+001 5.633347e+001 4.555597e+001 8.749046e+001 4.762452e+001 5.086298e+001 5.884264e+001 8.321022e+001 4.754354e+001 4.969524e+001 5.283838e+001 3.990626e+001 3.188385e+001 7.081285e+000 3.052567e+000 4.587256e+000 4.887951e+000 5.418519e+000 7.748416e+000 8.709805e+000 5.709025e+000 4.763244e+000 6.591278e+000 4.724237e+000 4.239940e+000 2.486474e+000 6.588141e-001 7.479090e-001 3.626202e-001 5.462134e-001 7.891650e-001 8.883864e-001 9.363483e-001 1.235162e+000 7.273549e-001 8.355466e-001 7.841777e-001 6.704997e-001 2.530538e-001
<GCONST> 1.390187e+002
<STATE> 3
<NUMMIXES> 2
<MIXTURE> 1 6.212557e-001
<MEAN> 39
 -4.046228e+000 -7.177639e+000 8.153723e+000 -2.228026e+001 -2.054711e+001 -1.868719e+001 -4.841299e+000 -4.106177e+000 -4.729649e+000 3.262726e+000 -4.192952e+000 -5.249591e-001 7.814509e+001 -3.776561e-001 -7.698245e-001 1.134495e+000 -2.013440e+000 -8.090422e-001 6.655263e-001 1.213945e+000 -5.528854e-001 -2.669249e-001 2.068772e+000 -7.658811e-001 3.582534e-001 8.896466e-001 -1.952493e-001 7.629787e-001 -6.163453e-001 7.701532e-001 8.584519e-001 5.774585e-001 -1.624456e-001 -3.309743e-001 2.824963e-001 -5.760761e-001 -9.226675e-002 -2.904104e-001 -8.762352e-001
<VARIANCE> 39
 2.871035e+001 2.876797e+001 5.613152e+001 9.573425e+001 5.006970e+001 5.439569e+001 5.314279e+001 7.360274e+001 4.932765e+001 5.900351e+001 5.482224e+001 4.214896e+001 8.858567e+000 1.930315e+000 3.305360e+000 3.365577e+000 5.017866e+000 5.216625e+000 5.081738e+000 5.464585e+000 5.604266e+000 3.816938e+000 6.515553e+000 4.231137e+000 3.690373e+000 1.744651e+000 5.403413e-001 4.656779e-001 6.415757e-001 7.932696e-001 7.511899e-001 8.398650e-001 9.093019e-001 8.873896e-001 6.680872e-001 1.140143e+000 8.126102e-001 6.554597e-001 3.796719e-001
<GCONST> 1.343637e+002
<MIXTURE> 2 3.787440e-001
<MEAN> 39
 -4.045501e+000 8.296889e-001 4.661389e+000 -2.244292e+001 -2.421397e+001 -1.086305e+001 -6.219790e+000 -1.283862e+001 9.710672e-001 -3.176219e+000 -2.724957e+000 4.362214e-001 7.220172e+001 2.453645e-001 -5.221158e-001 3.367350e-001 -1.031405e+000 -9.431506e-001 9.949663e-001 1.631448e-001 -9.527717e-001 7.399848e-003 2.408890e-001 -4.821326e-001 3.954588e-001 1.490209e+000 -7.574617e-001 -1.223159e-001 -5.059085e-001 9.446058e-001 1.458650e+000 1.012096e-001 2.197075e-001 4.553015e-001 -2.070981e-001 -2.277176e-002 -3.684670e-002 -4.031827e-001 -9.708005e-001
<VARIANCE> 39
 3.930027e+001 6.928175e+001 6.692022e+001 1.362562e+002 7.445731e+001 6.731754e+001 8.417280e+001 7.315430e+001 8.017081e+001 5.619746e+001 6.016806e+001 4.425542e+001 5.527530e+001 3.432243e+000 4.178865e+000 5.577482e+000 9.448476e+000 8.372772e+000 5.780832e+000 4.590561e+000 5.023791e+000 4.772059e+000 5.207241e+000 3.865766e+000 4.341316e+000 7.675885e+000 7.077389e-001 8.333374e-001 8.260927e-001 1.079443e+000 1.380265e+000 1.288650e+000 1.371030e+000 1.021417e+000 1.067013e+000 8.170215e-001 8.464631e-001 6.492388e-001 8.397159e-001
<GCONST> 1.473385e+002
<STATE> 4
<NUMMIXES> 2
<MIXTURE> 1 4.708211e-001
<MEAN> 39
 -3.888102e+000 -4.892586e+000 9.853881e+000 -2.725805e+001 -1.966379e+001 -1.466174e+001 -3.388148e+000 -8.903020e+000 -3.742823e+000 6.372478e+000 -7.168204e+000 -5.739544e-004 7.732330e+001 2.601722e-001 6.159247e-001 -3.815135e-001 6.968719e-001 3.107887e-001 3.973887e-001 -5.785974e-002 -5.385958e-001 1.077719e-001 -5.452572e-001 9.501781e-002 -1.606745e-001 -7.116063e-001 1.128949e-001 1.857174e-001 -2.944905e-001 5.810064e-001 1.368122e-001 5.051773e-002 -1.578814e-001 9.394924e-002 3.420204e-002 -5.504625e-001 2.687827e-001 -1.639089e-001 -3.590848e-001
<VARIANCE> 39
 3.157775e+001 3.835668e+001 4.520898e+001 1.133291e+002 5.232143e+001 8.216977e+001 5.886474e+001 8.297156e+001 6.210711e+001 4.738090e+001 5.164859e+001 4.628876e+001 1.309275e+001 9.467078e-001 1.610379e+000 1.642540e+000 3.451677e+000 2.475846e+000 2.938152e+000 2.690397e+000 3.150988e+000 2.324672e+000 3.441422e+000 2.414513e+000 2.352957e+000 1.610326e+000 1.744398e-001 2.641620e-001 2.706152e-001 4.525732e-001 4.817862e-001 5.942069e-001 6.066541e-001 6.239585e-001 4.678039e-001 5.641054e-001 4.935315e-001 4.472321e-001 1.930496e-001
<GCONST> 1.212009e+002
<MIXTURE> 2 5.291764e-001
<MEAN> 39
 -5.958287e+000 -2.173820e+000 2.686731e+000 -1.878958e+001 -2.173157e+001 -8.963912e+000 -5.794050e+000 -1.065181e+001 -2.524998e+000 -2.918965e+000 -3.136390e+000 -2.393330e+000 7.331435e+001 -9.383035e-002 4.633075e-001 -4.896890e-001 1.110416e+000 7.126322e-001 -1.197664e-001 -1.042034e-001 1.662230e-001 -3.036453e-001 -7.864753e-001 8.923709e-002 -3.877412e-001 -8.337653e-001 -7.074265e-002 7.421230e-002 -2.947536e-002 2.155542e-001 3.612187e-001 -3.355649e-001 -5.929967e-002 1.258277e-001 2.639702e-002 4.882633e-002 -6.710858e-002 3.591775e-002 -2.238646e-001
<VARIANCE> 39
 4.933761e+001 7.352355e+001 4.585971e+001 8.204860e+001 6.471080e+001 7.182544e+001 5.808657e+001 8.522430e+001 7.642176e+001 5.584502e+001 3.872628e+001 4.224593e+001 5.308792e+001 9.836737e-001 1.909967e+000 1.955637e+000 3.546628e+000 3.796503e+000 4.128961e+000 3.061773e+000 3.490216e+000 3.602303e+000 3.291692e+000 3.270159e+000 2.611438e+000 1.396229e+000 1.849559e-001 2.773852e-001 2.510811e-001 4.965481e-001 5.550306e-001 6.541116e-001 6.284387e-001 6.085178e-001 6.633464e-001 5.941264e-001 5.391759e-001 4.844655e-001 1.690315e-001
<GCONST> 1.263508e+002
<TRANSP> 5
 0.000000e+000 1.000000e+000 0.000000e+000 0.000000e+000 0.000000e+000
 0.000000e+000 3.156190e-001 6.843810e-001 0.000000e+000 0.000000e+000
 0.000000e+000 0.000000e+000 4.916190e-001 5.083809e-001 0.000000e+000
 0.000000e+000 0.000000e+000 0.000000e+000 8.284494e-001 1.715506e-001
 0.000000e+000 0.000000e+000 0.000000e+000 0.000000e+000 0.000000e+000
<ENDHMM>
~h "f"
<BEGINHMM>
<NUMSTATES> 5
<STATE> 2
<NUMMIXES> 2
<MIXTURE> 1 2.698247e-001
<MEAN> 39
 -1.430408e+001 -7.836326e+000 -3.541832e+000 -5.141679e+000 -1.183305e+000 -8.781397e+000 -3.380493e+000 -7.326417e+000 -6.286530e-001 -6.519674e+000 -3.100365e+000 -4.266409e+000 4.327860e+001 2.072631e-002 2.153267e-001 4.308204e-001 6.588781e-001 5.469009e-001 4.714543e-001 3.410052e-001 -8.630127e-002 -1.486260e-001 -2.630968e-001 -1.490362e-001 -3.929208e-001 3.467983e-002 -1.713642e-001 -1.952250e-001 -2.948394e-001 -3.039533e-001 -1.525341e-001 7.548679e-002 4.152322e-001 3.276701e-001 2.174329e-001 2.588693e-001 3.625636e-001 9.152574e-002 -8.626489e-002
<VARIANCE> 39
 7.557225e+000 7.041662e+000 1.207907e+001 1.717371e+001 2.137045e+001 2.124121e+001 2.427589e+001 2.362144e+001 2.578213e+001 2.732685e+001 2.763655e+001 1.710211e+001 5.480152e+001 8.512692e-001 8.687922e-001 1.192899e+000 1.918966e+000 2.448336e+000 2.410175e+000 2.244699e+000 3.378507e+000 3.223248e+000 2.099468e+000 2.293118e+000 1.887400e+000 1.609797e-001 1.250506e-001 1.984145e-001 2.045610e-001 3.342996e-001 4.721465e-001 4.650016e-001 3.689777e-001 6.798025e-001 4.668024e-001 3.197940e-001 5.389032e-001 4.334454e-001 3.798688e-002
<GCONST> 1.001491e+002
<MIXTURE> 2 7.301752e-001
<MEAN> 39
 -1.620354e+001 -1.016410e+001 -5.939203e+000 -8.891495e+000 -2.725064e+000 -8.014043e+000 5.915828e-001 -4.869981e+000 3.365185e-001 -5.726693e+000 -6.700666e-001 -3.117458e+000 4.028034e+001 -3.616627e-002 -8.431626e-002 -1.346984e-001 -1.618891e-001 -2.021607e-001 -1.715034e-001 -1.396208e-001 -2.273749e-002 6.969032e-002 1.213596e-001 1.482234e-001 1.622821e-001 -3.916783e-002 6.925863e-002 9.158552e-002 8.719441e-002 6.998682e-002 6.750929e-002 -2.373693e-002 -1.349027e-001 -1.222761e-001 -8.360002e-002 -9.468128e-002 -1.308095e-001 -3.506901e-002 3.520903e-002
<VARIANCE> 39
 2.326406e+000 3.930547e+000 9.939222e+000 1.427311e+001 1.457747e+001 2.093526e+001 1.945349e+001 2.325627e+001 2.833540e+001 2.669188e+001 2.180732e+001 1.962351e+001 2.352636e+000 3.638457e-001 6.226399e-001 9.777907e-001 1.525301e+000 1.448158e+000 1.853201e+000 2.464133e+000 2.808703e+000 3.038534e+000 2.360068e+000 2.899260e+000 2.083500e+000 8.937225e-002 7.044002e-002 1.187073e-001 1.963541e-001 2.950848e-001 2.856066e-001 4.031693e-001 5.058324e-001 5.395823e-001 6.410768e-001 4.854162e-001 5.052994e-001 4.577582e-001 2.051946e-002
<GCONST> 8.980376e+001
<STATE> 3
<NUMMIXES> 2
<MIXTURE> 1 5.655696e-001
<MEAN> 39
 -1.879918e+001 3.626245e+000 -9.298847e-001 3.599246e+000 -6.081394e+000 -6.398103e+000 -5.926208e+000 -6.025877e+000 -4.856759e+000 -4.774297e+000 -4.523817e+000 -5.684196e+000 6.767522e+001 -1.167586e+000 8.527446e-001 1.208015e+000 5.401016e-001 1.013716e+000 6.294794e-001 2.537568e-001 -3.414010e-001 1.007311e+000 1.510807e+000 6.282363e-001 1.836581e-001 -1.171836e+000 2.436559e-001 -3.271530e-001 -2.906052e-001 7.385387e-002 -3.099173e-001 2.116852e-001 -2.662981e-001 2.360211e-001 -1.956520e-001 7.537017e-002 -1.840098e-001 1.932499e-001 1.275659e-001
<VARIANCE> 39
 3.144305e+001 1.301610e+001 1.371973e+001 1.275609e+001 3.891890e+001 2.990315e+001 1.407207e+001 2.345880e+001 7.913109e+001 4.764534e+001 4.092291e+001 3.764894e+001 3.037634e+001 1.598964e+000 1.434381e+000 1.012516e+000 1.227521e+000 1.116517e+000 1.433623e+000 2.089537e+000 1.758164e+000 2.712318e+000 4.193192e+000 2.244298e+000 2.090232e+000 8.140285e-001 3.024868e-001 3.362516e-001 9.742054e-002 2.885368e-001 3.969273e-001 2.823746e-001 5.893196e-001 3.555997e-001 4.717327e-001 1.244536e+000 4.247683e-001 2.700767e-001 2.182101e-001
<GCONST> 1.074655e+002
<MIXTURE> 2 4.344302e-001
<MEAN> 39
 -1.461491e+001 -3.829699e+000 -6.216530e+000 -7.965910e-001 -1.078031e+001 -1.884506e+000 -4.995965e+000 -5.372736e+000 -1.120863e+001 -4.798857e+000 -9.885347e+000 -4.756697e+000 6.520579e+001 -1.004590e+000 5.720115e-001 3.719299e-001 6.074739e-001 1.679797e-001 2.423407e-001 1.434848e+000 1.829616e-001 -8.757579e-001 -1.104543e+000 4.858752e-001 -5.991777e-001 -2.630222e-001 3.553676e-001 2.086720e-001 1.271289e-001 -3.750673e-001 -2.595268e-002 -5.179774e-001 -1.368528e-001 1.300950e-001 6.362328e-001 1.300846e-001 9.751730e-002 -1.431925e-001 1.049585e-001
<VARIANCE> 39
 4.744006e+001 3.425478e+001 3.843988e+001 5.029976e+001 5.485493e+001 6.090401e+001 3.935771e+001 3.150819e+001 6.914108e+001 4.061372e+001 4.573371e+001 2.040505e+001 2.187985e+002 2.478420e+000 2.853378e+000 1.886647e+000 2.144888e+000 1.307559e+000 5.887498e+000 2.179923e+000 3.710582e+000 2.450426e+000 3.790719e+000 3.423396e+000 1.701549e+000 7.277103e-001 4.082794e-001 2.908772e-001 3.824977e-001 5.135987e-001 4.235100e-001 6.213163e-001 5.012076e-001 1.064969e+000 9.036727e-001 1.040292e+000 7.202229e-001 4.456977e-001 3.556023e-001
<GCONST> 1.252472e+002
<STATE> 4
<NUMMIXES> 2
<MIXTURE> 1 4.410643e-001
<MEAN> 39
 -4.284230e+000 -1.040989e+000 -1.112977e+001 -1.519762e+001 -6.342881e+000 -8.724730e+000 -1.433759e+001 -8.079922e+000 -8.657046e-001 -5.780662e+000 1.812261e+000 -3.678638e+000 6.929661e+001 -7.299854e-001 9.379478e-002 4.898386e-001 1.898244e-001 6.774551e-001 5.343253e-001 -1.123417e-001 7.363704e-001 -5.053340e-002 4.551255e-001 -1.687980e-001 1.470372e-001 7.704723e-002 -8.329371e-002 6.420755e-002 2.306795e-001 7.319323e-002 -1.145955e-001 -4.355969e-001 5.787350e-002 3.263944e-001 -6.214290e-002 2.521418e-001 -1.935714e-001 -9.644752e-002 1.271803e-001
<VARIANCE> 39
 1.951578e+002 3.402098e+001 2.027255e+001 6.723291e+001 4.345045e+001 7.307416e+001 1.396736e+002 5.418777e+001 4.913207e+001 4.167365e+001 2.083786e+001 4.527709e+001 8.769471e+001 4.349947e+000 4.677629e+000 2.126467e+000 5.091630e+000 3.788936e+000 6.089578e+000 3.784004e+000 4.089017e+000 4.985119e+000 5.775047e+000 2.215533e+000 3.730339e+000 1.434931e+000 8.902581e-001 6.307400e-001 4.077724e-001 7.759447e-001 7.944431e-001 6.438911e-001 9.429608e-001 8.817658e-001 9.886501e-001 9.979171e-001 3.462705e-001 6.825777e-001 5.635647e-001
<GCONST> 1.361319e+002
<MIXTURE> 2 5.589360e-001
<MEAN> 39
 -1.140341e+001 -3.509284e+000 -8.119647e+000 -6.972217e+000 -4.680189e+000 -1.680092e+001 -9.693156e+000 -1.061704e+000 -1.346523e+000 -2.168638e+000 -1.391631e+000 -6.099088e+000 6.538205e+001 1.479449e+000 1.421179e-001 -5.414710e-001 -8.705469e-001 -1.451518e+000 -5.671765e-001 -1.581375e-001 2.536943e-001 -3.388773e-001 -4.301495e-001 -4.433438e-001 3.747636e-002 1.686186e+000 4.110242e-001 1.953083e-002 -3.986705e-002 -3.060946e-001 -1.432626e-001 1.793375e-001 -3.067236e-001 -4.877455e-001 8.330753e-002 -1.324665e-001 -1.195884e-001 6.099235e-002 2.052733e-001
<VARIANCE> 39
 9.520273e+001 2.467026e+001 3.942665e+001 6.422398e+001 3.127262e+001 1.163535e+002 7.198934e+001 4.536704e+001 5.019351e+001 2.068134e+001 2.819953e+001 2.763887e+001 1.527156e+002 9.169110e+000 2.227675e+000 7.005757e+000 2.923465e+000 2.570710e+000 7.006886e+000 6.775359e+000 8.270467e+000 7.674107e+000 3.253571e+000 4.144630e+000 3.448261e+000 8.277505e+000 1.058410e+000 5.497215e-001 9.031644e-001 6.290099e-001 5.377102e-001 1.434285e+000 7.872351e-001 1.162733e+000 1.249611e+000 8.185928e-001 1.053370e+000 7.311026e-001 9.395393e-001
<GCONST> 1.413866e+002
<TRANSP> 5
 0.000000e+000 1.000000e+000 0.000000e+000 0.000000e+000 0.000000e+000
 0.000000e+000 9.710429e-001 2.895713e-002 0.000000e+000 0.000000e+000
 0.000000e+000 0.000000e+000 8.058708e-001 1.941292e-001 0.000000e+000
 0.000000e+000 0.000000e+000 0.000000e+000 8.967879e-001 1.032121e-001
 0.000000e+000 0.000000e+000 0.000000e+000 0.000000e+000 0.000000e+000
<ENDHMM>
~h "g"
<BEGINHMM>
<NUMSTATES> 5
<STATE> 2
<NUMMIXES> 2
<MIXTURE> 1 6.852933e-001
<MEAN> 39
 -1.035502e+001 -4.583391e+000 -2.929602e+000 -9.247843e+000 -2.681981e+000 -1.132070e+001 -9.379518e+000 -1.317107e+001 -1.684160e+000 -1.173131e+000 -2.896398e-002 -4.231485e+000 5.364852e+001 6.149091e-001 2.321848e-003 -6.645221e-001 6.970953e-002 6.003029e-001 -1.104035e-001 -7.840790e-001 2.348467e-001 5.021255e-001 -7.788788e-002 -2.327632e-001 -1.565554e-002 3.359419e-001 3.802525e-001 1.845714e-001 -1.227938e-001 -4.696140e-001 -6.191396e-001 -5.285499e-001 2.184319e-002 6.899664e-001 2.412040e-003 -4.121859e-001 -1.880535e-001 -1.444231e-001 5.886216e-001
<VARIANCE> 39
 1.025666e+002 1.008149e+002 7.603342e+001 2.258491e+001 3.417353e+001 3.009537e+001 3.380466e+001 4.552042e+001 3.525970e+001 4.336849e+001 2.923290e+001 3.065874e+001 1.367353e+002 3.756638e+000 5.971277e+000 6.404802e+000 3.610688e+000 5.574243e+000 7.821008e+000 7.526610e+000 1.058218e+001 5.001614e+000 3.971039e+000 3.329090e+000 3.646144e+000 1.980945e+000 3.124583e-001 1.122583e+000 7.235962e-001 3.249967e-001 1.014593e+000 1.002102e+000 1.299563e+000 1.209066e+000 5.145081e-001 5.076438e-001 7.017011e-001 5.583611e-001 4.532516e-001
<GCONST> 1.371680e+002
<MIXTURE> 2 3.147069e-001
<MEAN> 39
 -1.694577e+000 -1.645299e+000 -3.988160e+000 -1.131536e+001 -8.122355e+000 -1.779330e+001 -7.915807e+000 -2.274555e+000 5.871168e-001 -9.779611e+000 -3.742222e+000 -5.556385e+000 6.069884e+001 1.719562e+000 8.053960e-001 -1.039926e+000 -2.505805e+000 -1.807677e+000 -3.491988e+000 -1.777292e-001 2.406226e+000 8.663983e-001 -1.045197e+000 -1.630106e+000 -6.607845e-001 3.662643e+000 -2.819609e-001 -5.699319e-001 -8.746256e-002 -8.629859e-001 3.799813e-002 7.368216e-001 5.861790e-001 -1.057205e+000 -5.116581e-002 8.148676e-001 -3.925854e-001 -2.558992e-003 -5.543498e-002
<VARIANCE> 39
 2.387401e+001 3.904778e+001 3.886401e+001 7.048077e+001 6.457430e+001 6.568595e+001 1.228841e+002 1.851762e+002 1.093966e+002 2.497054e+001 4.605470e+001 2.780681e+001 1.088993e+002 6.579605e+000 1.572446e+001 3.018713e+000 5.410378e+000 9.499220e+000 4.349660e+000 7.172393e+000 1.465176e+001 4.140519e+000 4.344327e+000 7.196465e+000 5.239702e+000 7.915597e+000 6.878511e-001 1.123843e+000 8.797296e-001 1.768418e+000 9.023174e-001 1.198434e+000 2.540544e+000 2.522967e+000 1.008902e+000 5.996359e-001 8.188593e-001 7.883373e-001 8.018467e-001
<GCONST> 1.499300e+002
<STATE> 3
<NUMMIXES> 2
<MIXTURE> 1 5.643043e-001
<MEAN> 39
 -3.074515e+000 1.969576e+000 4.698461e+000 -8.916130e+000 -1.191823e+001 -1.668910e+001 -6.032387e+000 -1.365387e+001 -7.985188e+000 1.016288e+001 2.855832e-001 -9.421272e+000 6.687603e+001 -1.557897e-001 1.277703e-001 -9.710194e-002 -3.494669e-001 2.870648e-001 -2.986688e-001 4.508853e-001 4.275060e-001 -5.492162e-001 -6.068582e-001 5.904829e-002 -8.687654e-002 1.641395e-001 -1.088973e-001 -7.709868e-002 -7.683480e-002 9.187184e-002 2.005574e-001 1.457833e-001 2.727668e-001 5.753201e-002 1.822170e-001 6.119601e-002 -6.092265e-002 1.476011e-001 -7.161727e-002
<VARIANCE> 39
 7.376064e+000 5.123641e+000 3.837746e+001 5.136885e+001 5.494176e+001 1.555142e+001 9.283330e+001 5.244835e+001 5.541791e+001 5.434165e+001 2.542182e+001 1.716919e+001 7.664181e+000 6.621166e-001 3.873382e-001 3.377590e+000 2.307705e+000 3.896053e+000 2.124484e+000 1.704368e+000 3.343777e+000 4.278293e+000 2.703327e+000 2.615267e+000 1.267369e+000 5.975337e-001 1.605790e-001 4.964313e-002 2.063098e-001 4.387776e-001 5.262570e-001 2.684393e-001 4.743278e-001 3.707858e-001 7.712001e-001 4.430059e-001 5.618202e-001 2.252635e-001 1.321269e-001
<GCONST> 1.058461e+002
<MIXTURE> 2 4.356956e-001
<MEAN> 39
 -3.689252e+000 1.003826e+000 -4.851870e+000 -1.394934e+001 -6.896484e+000 -1.622061e+001 -8.838238e+000 -6.591631e+000 2.517776e+000 -3.161446e+000 -2.811953e+000 -6.475218e+000 6.277098e+001 6.211854e-001 -4.417867e-001 -4.682826e-001 -1.801502e+000 -1.283314e+000 -4.396457e-001 3.401338e-001 4.928025e-002 -8.289427e-001 -1.878467e-001 -2.790553e-001 -4.445813e-002 8.502750e-001 -2.986026e-002 -1.875997e-001 -9.333121e-002 -1.307566e-002 -1.031172e-001 8.662245e-001 3.582626e-001 -4.534757e-001 -6.681235e-001 -2.718668e-001 -7.968314e-002 2.628728e-001 -1.914682e-002
<VARIANCE> 39
 5.945111e+001 4.646309e+001 3.628962e+001 7.352793e+001 8.727917e+001 5.462856e+001 6.499007e+001 6.296517e+001 1.005148e+002 9.377741e+001 4.615372e+001 2.781419e+001 7.265009e+001 1.066297e+000 2.157554e+000 3.139429e+000 6.573289e+000 7.116082e+000 4.345813e+000 1.320171e+001 3.712183e+000 8.831300e+000 6.852304e+000 3.672468e+000 2.576784e+000 1.393700e+000 4.602033e-001 5.679430e-001 1.009668e+000 7.271268e-001 1.054727e+000 9.083139e-001 7.632607e-001 5.392293e-001 1.294713e+000 1.058077e+000 6.732447e-001 5.690694e-001 5.775312e-001
<GCONST> 1.389620e+002
<STATE> 4
<NUMMIXES> 2
<MIXTURE> 1 3.940971e-001
<MEAN> 39
 5.917966e-001 -2.352603e+000 -1.328297e+001 -1.652338e+001 -1.031844e+001 -1.490420e+001 -4.346517e+000 -1.218687e+001 3.156279e+000 -8.225643e+000 -6.302085e+000 -1.188278e+001 6.120870e+001 -7.522774e-002 -9.167360e-001 -8.262757e-001 -9.515428e-001 7.779573e-001 1.730830e+000 7.427466e-001 -1.450574e-001 -5.583227e-001 7.814694e-001 2.733357e-001 7.553281e-001 2.085816e-001 -1.554250e-001 2.868526e-002 3.081876e-001 4.130108e-001 2.146613e-001 1.823122e-001 -2.524996e-001 3.832238e-002 -3.249966e-001 6.123499e-002 2.124987e-001 1.859413e-001 -1.714935e-002
<VARIANCE> 39
 3.944046e+001 5.712333e+001 1.114986e+002 5.874513e+001 6.316505e+001 1.023210e+002 7.879974e+001 9.273219e+001 6.227417e+001 9.753229e+001 8.916975e+001 1.843491e+002 7.942825e+001 1.909621e+000 2.052538e+000 6.692677e+000 6.468878e+000 5.096545e+000 2.249593e+000 9.719168e+000 5.257377e+000 4.335863e+000 5.884702e+000 3.654090e+000 3.716816e+000 1.609150e+000 8.671702e-002 2.370556e-001 4.543980e-001 1.048715e+000 7.068624e-001 1.015234e+000 1.264645e+000 1.182359e+000 7.406073e-001 1.186305e+000 1.090757e+000 6.182547e-001 2.651044e-001
<GCONST> 1.400733e+002
<MIXTURE> 2 6.059026e-001
<MEAN> 39
 -9.119861e-001 8.189506e+000 -6.246170e+000 -9.295843e+000 -2.070500e+001 -2.348519e+001 3.695581e-001 -1.196475e+001 -2.539486e+000 -1.329334e+001 -4.587881e+000 -1.517374e+001 5.363380e+001 -1.592664e-001 -5.838128e-002 -1.538590e-001 1.601719e-001 -4.556415e-002 -1.781093e-001 1.676318e-002 -6.803598e-002 -4.304906e-002 -2.592421e-001 -3.918492e-001 -1.035460e-001 -1.731489e-001 2.205234e-002 -1.506486e-001 -1.243326e-001 -1.188284e-001 8.359714e-003 -1.993059e-002 -3.527029e-002 6.863120e-002 1.688241e-001 2.180586e-002 5.856302e-003 4.481319e-002 2.043000e-002
<VARIANCE> 39
 2.618460e+001 7.362149e+001 1.040637e+002 3.792252e+001 1.108248e+002 4.876390e+001 4.051921e+001 5.903954e+001 9.700020e+001 2.420685e+001 5.134620e+001 7.179243e+001 2.050043e+001 6.553500e-001 1.700805e+000 2.685722e+000 3.761742e+000 2.755890e+000 9.370212e-001 4.156683e+000 2.694209e+000 4.642428e+000 3.352488e+000 3.623233e+000 3.272063e+000 3.568906e-001 6.762117e-002 2.655205e-001 4.867910e-001 7.865041e-001 5.117588e-001 2.380023e-001 1.185009e+000 5.312483e-001 5.799050e-001 5.913697e-001 6.925064e-001 6.993545e-001 5.986457e-002
<GCONST> 1.207052e+002
<TRANSP> 5
 0.000000e+000 1.000000e+000 0.000000e+000 0.000000e+000 0.000000e+000
 0.000000e+000 6.624566e-001 3.375433e-001 0.000000e+000 0.000000e+000
 0.000000e+000 0.000000e+000 6.730061e-001 3.269939e-001 0.000000e+000
 0.000000e+000 0.000000e+000 0.000000e+000 8.260947e-001 1.739053e-001
 0.000000e+000 0.000000e+000 0.000000e+000 0.000000e+000 0.000000e+000
<ENDHMM>
~h "h"
<BEGINHMM>
<NUMSTATES> 5
<STATE> 2
<NUMMIXES> 2
<MIXTURE> 1 1.769329e-001
<MEAN> 39
 -1.505896e+001 -7.726830e+000 -5.323476e+000 -8.947786e+000 -2.413023e+000 -6.875297e+000 -1.687816e+000 -3.456080e+000 6.672349e-001 -2.604790e+000 -7.987224e-001 -3.225600e+000 4.920074e+001 -1.188854e-002 -3.925699e-002 -3.684945e-002 -7.839333e-002 7.835907e-002 6.681025e-002 -1.559576e-001 -1.073638e-001 -2.767041e-002 4.171511e-002 8.238878e-002 3.764912e-002 1.750295e-001 6.779089e-002 2.597726e-002 2.696662e-003 1.741767e-002 2.037389e-003 -7.833313e-002 -1.285300e-001 -2.988035e-002 -3.769585e-002 -3.587715e-002 1.071269e-002 7.420843e-002 1.554986e-002
<VARIANCE> 39
 4.023847e+001 4.700328e+001 4.084589e+001 5.247257e+001 6.364653e+001 4.438387e+001 5.416346e+001 5.524643e+001 4.727669e+001 4.371620e+001 3.536003e+001 3.462843e+001 1.899165e+002 1.028884e+000 1.101281e+000 1.402352e+000 2.111181e+000 2.763949e+000 2.634977e+000 3.153749e+000 3.241153e+000 3.462800e+000 2.822181e+000 2.627189e+000 2.378193e+000 4.989800e-001 1.941347e-001 2.277899e-001 3.275711e-001 5.087894e-001 6.476730e-001 6.062847e-001 6.789649e-001 6.919705e-001 7.306614e-001 5.836705e-001 5.476413e-001 5.262451e-001 1.280320e-001
<GCONST> 1.210177e+002
<MIXTURE> 2 8.230705e-001
<MEAN> 39
 -1.773247e+001 -1.206650e+001 -6.300950e+000 -8.642602e+000 -1.903373e+000 -8.096776e+000 -1.416067e-001 -5.290705e+000 1.081719e+000 -3.795704e+000 1.050569e+000 -2.844822e+000 3.992679e+001 -3.284835e-003 -3.463527e-003 -2.616414e-002 -1.433529e-002 6.915198e-003 -5.111067e-003 -1.366921e-002 4.726098e-003 -1.791530e-002 -3.751496e-004 -6.462164e-003 -6.278651e-003 -1.397292e-002 1.299874e-002 1.078716e-002 -6.418818e-003 -8.534745e-003 1.003745e-002 7.657988e-003 -1.999204e-003 9.228240e-003 -2.789944e-003 2.259884e-003 -7.609873e-003 -1.155045e-002 1.197227e-002
<VARIANCE> 39
 2.351368e+000 5.260214e+000 6.053605e+000 9.028721e+000 1.306918e+001 1.467857e+001 1.927150e+001 2.110122e+001 2.229280e+001 1.850025e+001 1.979624e+001 1.656048e+001 3.287928e+000 1.696188e-001 4.133335e-001 7.084739e-001 1.162583e+000 1.606275e+000 2.019952e+000 2.112118e+000 2.780156e+000 3.102468e+000 2.347981e+000 2.475390e+000 2.208140e+000 4.581119e-002 3.643549e-002 8.670542e-002 1.458269e-001 2.404462e-001 3.355507e-001 4.225695e-001 4.398865e-001 5.870235e-001 6.738522e-001 4.926793e-001 5.166506e-001 4.775026e-001 9.549176e-003
<GCONST> 8.359055e+001
<STATE> 3
<NUMMIXES> 2
<MIXTURE> 1 4.982645e-001
<MEAN> 39
 -1.809622e+001 -8.681618e+000 -6.398515e+000 -8.302485e+000 1.771198e+000 -7.388544e+000 -1.743764e+000 -8.176004e-002 2.443335e+000 -1.169626e+000 -9.763748e-001 -1.169824e+000 5.685774e+001 -3.385310e-002 -8.963616e-002 -1.551874e-001 -1.632911e-001 2.536217e-001 1.428045e-001 -3.229165e-002 7.229748e-002 8.766022e-002 -1.686934e-002 1.058820e-001 6.366223e-002 1.826172e-001 4.891731e-001 2.804032e-001 5.575714e-002 -1.207673e-001 -2.843991e-001 -1.824538e-001 -2.859694e-001 -3.135447e-001 -3.458542e-001 -2.454492e-001 -1.892086e-001 -1.090878e-001 1.628067e-001
<VARIANCE> 39
 3.649925e+001 5.725313e+001 6.840952e+001 8.852025e+001 6.438095e+001 6.679508e+001 5.519770e+001 7.952359e+001 6.950922e+001 5.644128e+001 5.222195e+001 4.661584e+001 2.250700e+002 8.957903e-001 1.254624e+000 1.646464e+000 1.934210e+000 2.439255e+000 2.693539e+000 2.810097e+000 3.364070e+000 3.441240e+000 2.854766e+000 2.625349e+000 2.312098e+000 5.628250e-001 3.058973e-001 3.164389e-001 4.025657e-001 4.786707e-001 6.138355e-001 6.250200e-001 6.522884e-001 6.910720e-001 7.380130e-001 6.196599e-001 5.967033e-001 5.010048e-001 1.821706e-001
<GCONST> 1.257609e+002
<MIXTURE> 2 5.017323e-001
<MEAN> 39
 -1.081718e+001 -5.358274e+000 -6.485752e+000 -1.172955e+001 -6.176637e+000 -1.164657e+001 -5.676706e+000 -6.162450e+000 -3.866992e+000 -4.095673e+000 -9.915529e-001 -2.686697e+000 5.567807e+001 6.237852e-002 7.823480e-002 -1.876038e-001 -2.340131e-001 1.475988e-001 -1.826300e-001 -3.786431e-001 1.185034e-001 -6.026788e-002 2.399402e-002 -1.309827e-001 -1.539052e-002 3.114203e-001 -6.924638e-002 -9.840699e-002 -5.183607e-002 3.283633e-002 1.952352e-001 1.317439e-001 8.931901e-002 2.173984e-001 1.966762e-001 8.298334e-002 3.796307e-003 3.825802e-002 1.076236e-003
<VARIANCE> 39
 4.222705e+001 6.610537e+001 6.915375e+001 6.971920e+001 9.397048e+001 8.168989e+001 7.683096e+001 7.980399e+001 7.788525e+001 7.094784e+001 7.508890e+001 6.224379e+001 2.039817e+002 1.753606e+000 1.899792e+000 2.563259e+000 3.791504e+000 5.174801e+000 4.328640e+000 5.230544e+000 5.409582e+000 5.309788e+000 4.294284e+000 3.965654e+000 3.707857e+000 9.622608e-001 1.978914e-001 2.670833e-001 3.562443e-001 5.450001e-001 7.355359e-001 7.014133e-001 8.297343e-001 8.424063e-001 7.857069e-001 7.571659e-001 6.759164e-001 6.548196e-001 1.311410e-001
<GCONST> 1.348849e+002
<STATE> 4
<NUMMIXES> 2
<MIXTURE> 1 5.297078e-001
<MEAN> 39
 -1.165109e+001 -9.008754e+000 -1.201277e+001 -1.441108e+001 7.155138e+000 -7.994468e+000 -6.285734e+000 8.753698e-001 6.323318e-001 -1.081588e+000 -2.285250e+000 -4.917397e+000 5.261156e+001 8.532432e-001 2.606247e-001 -9.782695e-001 -1.118992e+000 8.906695e-001 2.013473e-001 -6.911699e-001 6.345825e-001 1.207826e-001 -1.192728e-001 4.956082e-003 -5.322135e-002 2.500917e+000 1.991905e-001 1.207976e-001 1.124629e-001 -6.821617e-002 -3.424187e-001 -7.410876e-002 -4.822926e-002 -2.378892e-001 -1.093825e-001 -2.289645e-001 -1.310648e-002 9.344548e-002 3.464170e-001
<VARIANCE> 39
 6.841001e+001 8.326706e+001 1.355436e+002 1.674226e+002 2.019522e+002 1.527586e+002 1.559315e+002 1.594838e+002 1.251444e+002 9.857675e+001 7.748335e+001 1.058027e+002 1.345372e+002 6.913296e+000 5.490768e+000 7.903094e+000 9.559215e+000 1.260818e+001 8.406949e+000 9.983184e+000 9.683176e+000 7.023920e+000 7.248590e+000 5.378260e+000 5.993477e+000 7.407777e+000 8.539051e-001 8.541144e-001 1.284719e+000 1.663305e+000 1.888936e+000 1.487355e+000 1.721853e+000 1.733743e+000 1.324511e+000 1.232931e+000 1.050587e+000 1.080606e+000 1.255656e+000
<GCONST> 1.641637e+002
<MIXTURE> 2 4.702800e-001
<MEAN> 39
 -1.486447e+001 -7.365096e+000 -7.938795e+000 -1.341454e+001 5.230272e+000 -7.950305e+000 -6.079361e+000 -5.956592e-001 1.638840e+000 -3.217139e+000 -1.694806e+000 -2.839495e+000 6.312640e+001 2.459993e+000 1.200003e+000 3.595574e-001 -8.409055e-001 -1.801760e+000 -5.129580e-001 -1.143277e+000 -1.847976e+000 -1.491751e+000 -1.540372e+000 -1.030139e+000 -7.930345e-002 1.153883e+000 7.381673e-001 1.739957e-001 -9.191757e-002 -4.214426e-001 -6.441009e-001 -8.156937e-002 -2.121872e-001 -1.285172e-001 -2.332443e-001 -6.500319e-002 -3.955327e-001 -6.548897e-002 3.548440e-001
<VARIANCE> 39
 7.335804e+001 8.199062e+001 1.141387e+002 1.151789e+002 1.574895e+002 7.540181e+001 9.801945e+001 9.166378e+001 7.838594e+001 7.713923e+001 6.045423e+001 5.694320e+001 1.551733e+002 6.384953e+000 3.796697e+000 4.065788e+000 4.243424e+000 5.691323e+000 4.621896e+000 5.498831e+000 4.975054e+000 5.478705e+000 4.183693e+000 4.330431e+000 3.835568e+000 2.964790e+000 7.173585e-001 6.242520e-001 6.205838e-001 6.756616e-001 9.454908e-001 7.346271e-001 9.131743e-001 1.004471e+000 9.276277e-001 8.341387e-001 7.752469e-001 5.544077e-001 4.969353e-001
<GCONST> 1.459644e+002
<TRANSP> 5
 0.000000e+000 1.000000e+000 0.000000e+000 0.000000e+000 0.000000e+000
 0.000000e+000 9.106594e-001 8.934064e-002 0.000000e+000 0.000000e+000
 0.000000e+000 0.000000e+000 7.625692e-001 2.374308e-001 0.000000e+000
 0.000000e+000 0.000000e+000 0.000000e+000 7.725527e-001 2.274474e-001
 0.000000e+000 0.000000e+000 0.000000e+000 0.000000e+000 0.000000e+000
<ENDHMM>
~h "i"
<BEGINHMM>
<NUMSTATES> 5
<STATE> 2
<NUMMIXES> 2
<MIXTURE> 1 5.320925e-001
<MEAN> 39
 -3.596054e+000 1.092161e+000 9.436473e+000 -2.257896e+001 -1.830502e+001 -1.084208e+001 -8.691134e+000 -1.477467e+001 -4.929274e+000 7.167279e-002 -8.337378e+000 -2.403759e+000 7.294407e+001 -9.020383e-001 1.389769e-001 2.385952e+000 -3.254789e+000 -5.587813e-001 1.302986e+000 -6.546473e-001 -4.390970e-001 1.717968e-001 8.470356e-001 -1.158928e+000 1.093197e+000 1.305257e+000 -2.147183e-001 1.825990e-001 -5.942471e-001 2.884413e-001 7.042611e-001 2.117735e-001 1.632964e-001 3.013356e-001 2.075485e-001 -1.539333e-001 1.400736e-001 1.117508e-001 -5.484591e-001
<VARIANCE> 39
 6.593099e+001 5.645965e+001 1.012796e+002 1.454751e+002 7.987438e+001 9.879583e+001 9.121638e+001 8.608836e+001 7.379485e+001 7.290411e+001 8.360734e+001 5.680195e+001 3.093720e+001 3.073333e+000 3.174107e+000 6.803042e+000 8.800596e+000 6.040174e+000 6.149112e+000 6.726581e+000 6.868725e+000 5.097630e+000 5.527975e+000 5.649304e+000 4.964151e+000 2.248531e+000 5.592857e-001 6.023263e-001 1.318496e+000 1.779914e+000 1.368757e+000 1.188642e+000 1.215741e+000 1.266970e+000 9.589553e-001 9.414528e-001 1.057970e+000 7.895678e-001 6.382056e-001
<GCONST> 1.491803e+002
<MIXTURE> 2 4.678746e-001
<MEAN> 39
 -9.565118e+000 8.319067e+000 9.126375e+000 -1.991125e+001 -1.525198e+001 -1.227668e+001 -1.388050e+001 -1.444028e+001 4.423855e-001 -6.279537e+000 -5.005037e+000 -2.763526e+000 6.588644e+001 2.310892e+000 1.381746e+000 2.150581e+000 -2.966761e+000 -3.459730e+000 -1.477892e-001 -2.319637e+000 -1.958559e+000 4.783173e-002 1.109086e-003 -2.060646e+000 3.368130e-001 2.572047e+000 -6.610279e-001 -7.894300e-001 -5.842090e-001 1.289582e-001 7.591286e-001 6.124181e-001 9.080390e-001 6.564744e-001 1.023065e-001 4.481249e-001 1.488419e-001 1.905586e-001 -2.761820e-001
<VARIANCE> 39
 4.354276e+001 4.985383e+001 5.539870e+001 1.180581e+002 9.300208e+001 5.262202e+001 6.529355e+001 5.440358e+001 5.780706e+001 5.405970e+001 4.712377e+001 3.509602e+001 9.238982e+001 5.669493e+000 5.539475e+000 6.320666e+000 7.269148e+000 7.039566e+000 6.453688e+000 7.574622e+000 5.933181e+000 6.390818e+000 5.213638e+000 6.270469e+000 4.385688e+000 5.893242e+000 7.710451e-001 7.248539e-001 7.099130e-001 1.243979e+000 1.577124e+000 8.978751e-001 1.044286e+000 9.817284e-001 9.971675e-001 7.884723e-001 8.497903e-001 6.793665e-001 7.626083e-001
<GCONST> 1.468969e+002
<STATE> 3
<NUMMIXES> 2
<MIXTURE> 1 4.440584e-001
<MEAN> 39
 -3.988747e+000 6.296085e+000 1.670891e+001 -3.857967e+001 -1.634723e+001 -4.993248e+000 -9.548243e+000 -1.766929e+001 -3.348351e+000 1.838472e+000 -1.654330e+001 4.612692e+000 7.459756e+001 2.891099e-001 1.158426e-001 -5.980098e-001 2.086771e-001 5.284238e-001 4.521373e-001 1.851545e-001 2.794412e-002 1.070879e-002 -1.979236e-001 2.231501e-001 1.810107e-002 -4.013266e-001 8.158585e-002 -7.681166e-002 -6.314173e-001 1.037888e+000 2.282806e-001 -2.525590e-001 1.645885e-001 1.411186e-001 2.773177e-002 -3.360577e-001 6.028767e-001 -4.882369e-001 -3.381633e-001
<VARIANCE> 39
 2.713262e+001 4.752035e+001 4.980381e+001 9.353368e+001 6.674708e+001 8.593605e+001 6.996107e+001 6.165498e+001 5.483184e+001 5.358092e+001 5.655725e+001 4.342843e+001 1.209158e+001 1.328121e+000 2.280775e+000 2.589553e+000 5.525780e+000 3.210707e+000 3.520391e+000 3.825715e+000 3.418422e+000 2.938350e+000 2.998946e+000 3.499985e+000 3.269125e+000 9.284443e-001 3.095584e-001 3.241064e-001 5.529021e-001 7.705811e-001 7.231265e-001 7.202324e-001 8.074899e-001 8.081350e-001 5.834822e-001 5.832040e-001 6.253549e-001 5.160659e-001 2.027061e-001
<GCONST> 1.278616e+002
<MIXTURE> 2 5.558970e-001
<MEAN> 39
 -1.019401e+001 4.832122e+000 7.556583e+000 -2.187009e+001 -1.586423e+001 -9.160010e+000 -1.636250e+001 -1.198052e+001 -2.931007e-001 -3.614506e+000 -6.654941e+000 -2.950882e+000 7.261610e+001 9.084839e-002 7.057074e-002 -2.301074e-001 1.072044e-001 2.913159e-001 1.979948e-001 8.589132e-002 3.235826e-002 -8.990616e-003 -7.821660e-002 -1.356703e-001 -3.185270e-002 -1.610975e-001 9.804335e-002 -5.732339e-002 -2.214354e-001 5.750395e-001 1.792175e-001 -2.033363e-001 3.655604e-001 6.151190e-002 -2.073987e-001 -2.275938e-002 8.045666e-002 -5.702124e-002 -3.117367e-001
<VARIANCE> 39
 2.284322e+001 3.739900e+001 4.410746e+001 9.870745e+001 6.025484e+001 5.829004e+001 8.405177e+001 4.676307e+001 6.114777e+001 7.902802e+001 6.639413e+001 4.479984e+001 2.987013e+001 5.890786e-001 1.097098e+000 1.254545e+000 2.414485e+000 2.092458e+000 2.123795e+000 2.639404e+000 2.114160e+000 2.398011e+000 2.204703e+000 2.037145e+000 1.873771e+000 5.664371e-001 1.529867e-001 1.878431e-001 2.507999e-001 3.944683e-001 5.419555e-001 4.559923e-001 5.432205e-001 4.716388e-001 4.851694e-001 4.573298e-001 4.585544e-001 3.788739e-001 1.191177e-001
<GCONST> 1.154375e+002
<STATE> 4
<NUMMIXES> 2
<MIXTURE> 1 4.947476e-001
<MEAN> 39
 -5.209156e+000 8.101170e+000 9.094994e+000 -1.795188e+001 -1.351371e+001 -7.901155e+000 -1.114623e+001 -1.271317e+001 -9.094712e-001 -4.404720e+000 -6.132124e+000 -1.919273e+000 6.411783e+001 -1.877311e-001 3.281819e-001 -9.683632e-001 2.236038e+000 1.190429e+000 -4.426134e-003 6.239505e-001 5.637626e-001 1.199082e-001 -5.555071e-001 7.849236e-001 -2.044136e-001 -1.772783e+000 -2.840202e-001 -2.106686e-001 -9.663375e-002 -3.775957e-003 1.870675e-001 8.693159e-002 1.254921e-001 7.490323e-002 -7.057699e-003 1.151512e-001 5.240340e-002 3.660185e-002 2.302587e-002
<VARIANCE> 39
 4.796199e+001 4.536148e+001 5.318571e+001 1.509836e+002 6.669168e+001 1.166883e+002 6.533294e+001 6.130117e+001 5.104103e+001 5.989978e+001 5.295391e+001 4.431017e+001 5.391737e+001 1.794222e+000 2.144155e+000 2.800310e+000 3.299776e+000 4.001691e+000 4.112524e+000 4.747499e+000 3.857328e+000 3.740145e+000 3.568686e+000 3.892053e+000 3.172490e+000 1.930856e+000 2.238528e-001 3.436853e-001 3.439666e-001 5.190578e-001 6.068269e-001 6.762953e-001 7.111624e-001 6.576097e-001 5.971934e-001 5.804901e-001 5.635571e-001 5.080044e-001 2.463550e-001
<GCONST> 1.307740e+002
<MIXTURE> 2 5.052080e-001
<MEAN> 39
 -6.665504e+000 4.368280e+000 5.818167e+000 -1.995800e+001 -1.150823e+001 -7.292527e+000 -8.954918e+000 -1.431152e+001 -2.108086e+000 -6.216096e+000 -6.331160e+000 -3.577402e+000 6.669661e+001 1.324769e-001 -8.839229e-001 -1.860852e+000 2.713172e+000 7.779605e-001 -1.075387e+000 9.126292e-001 4.050384e-001 -5.032907e-001 -1.761736e-001 8.045331e-001 -7.852474e-001 -9.343795e-001 -1.295095e-002 -2.151525e-002 -4.248648e-002 -7.733057e-002 -3.904316e-003 -8.568667e-002 -1.354133e-001 7.186079e-002 7.347397e-002 1.345878e-001 -2.394276e-002 1.616599e-001 -6.387987e-002
<VARIANCE> 39
 7.956456e+001 6.949780e+001 6.447572e+001 1.167929e+002 9.305959e+001 9.925504e+001 8.272590e+001 7.856139e+001 7.491902e+001 8.666696e+001 5.987793e+001 5.114599e+001 8.958031e+001 2.695725e+000 2.190734e+000 3.779958e+000 5.362538e+000 4.496765e+000 4.855671e+000 5.396985e+000 5.130002e+000 4.970205e+000 4.501833e+000 4.577459e+000 3.903284e+000 9.787250e-001 1.766855e-001 3.690889e-001 5.040991e-001 8.020273e-001 8.070105e-001 8.250634e-001 8.633813e-001 8.561752e-001 8.989838e-001 7.798156e-001 7.541577e-001 6.597266e-001 1.402427e-001
<GCONST> 1.382294e+002
<TRANSP> 5
 0.000000e+000 1.000000e+000 0.000000e+000 0.000000e+000 0.000000e+000
 0.000000e+000 6.284248e-001 3.715752e-001 0.000000e+000 0.000000e+000
 0.000000e+000 0.000000e+000 7.877924e-001 2.122076e-001 0.000000e+000
 0.000000e+000 0.000000e+000 0.000000e+000 7.275444e-001 2.724556e-001
 0.000000e+000 0.000000e+000 0.000000e+000 0.000000e+000 0.000000e+000
<ENDHMM>
~h "j"
<BEGINHMM>
<NUMSTATES> 5
<STATE> 2
<NUMMIXES> 2
<MIXTURE> 1 4.789149e-001
<MEAN> 39
 -1.397154e+001 -2.252282e+000 -5.868446e+000 -1.194836e+001 -2.538046e+000 -7.727587e+000 -4.970553e+000 7.313599e-001 -9.112619e-001 -1.964605e+000 -2.275365e-001 -4.537700e+000 6.394044e+001 -1.108539e+000 1.127535e-001 -1.483605e-001 -4.523337e-001 -2.591942e-001 9.519025e-001 1.383177e+000 -1.969592e-002 4.733729e-001 1.289596e+000 2.244235e-001 -7.167587e-002 -3.109556e-001 3.037648e-001 -6.659815e-002 3.541189e-002 -2.428430e-001 -1.718086e-001 3.633103e-002 -7.080506e-002 -2.393284e-001 -2.434442e-001 -2.715828e-001 -5.735482e-002 1.702523e-001 1.472736e-001
<VARIANCE> 39
 3.507164e+001 3.822871e+001 1.102249e+002 6.820771e+001 1.006856e+002 6.319370e+001 7.341633e+001 8.027168e+001 5.679106e+001 6.766341e+001 3.285975e+001 4.973339e+001 8.914989e+001 3.525679e+000 1.809531e+000 2.813468e+000 3.098602e+000 4.027138e+000 3.883604e+000 4.839349e+000 6.106423e+000 5.503361e+000 4.786905e+000 3.202833e+000 3.034578e+000 1.171868e+000 2.247280e-001 3.009881e-001 4.561765e-001 4.940215e-001 6.462667e-001 6.142912e-001 7.574805e-001 9.050446e-001 8.170528e-001 7.942373e-001 5.380737e-001 6.031018e-001 1.309240e-001
<GCONST> 1.321687e+002
<MIXTURE> 2 5.210853e-001
<MEAN> 39
 -1.310558e+001 -6.300810e+000 -8.802374e+000 -1.314375e+001 -7.158862e+000 -9.210733e+000 -6.228803e+000 -6.581658e+000 -3.410581e+000 -2.337283e+000 4.331624e+000 -3.833517e-001 5.583631e+001 -3.166924e-001 -1.899655e-001 1.158747e-001 1.654056e-001 7.040951e-001 2.052610e-001 -5.040178e-001 -2.388919e-001 3.498794e-001 5.157141e-001 -1.163048e-002 1.948314e-002 -4.413578e-001 1.219811e-001 7.332115e-002 1.306760e-002 7.565262e-002 8.525055e-002 -8.924574e-002 -9.172888e-002 1.519335e-001 1.292687e-001 -1.011159e-001 -2.697113e-001 -1.552057e-001 -2.948268e-002
<VARIANCE> 39
 4.613184e+001 5.677795e+001 4.950396e+001 5.336659e+001 1.023947e+002 9.227882e+001 1.413584e+002 4.965014e+001 4.654954e+001 6.982638e+001 6.019132e+001 5.202968e+001 1.809096e+002 8.372334e-001 2.042691e+000 1.720000e+000 1.899835e+000 2.734459e+000 3.158412e+000 3.456573e+000 4.061762e+000 3.918143e+000 5.120408e+000 2.949359e+000 3.304787e+000 1.468544e+000 1.110201e-001 1.993779e-001 2.753524e-001 2.618077e-001 4.432312e-001 6.152282e-001 6.280342e-001 6.552818e-001 7.129960e-001 9.710777e-001 5.038507e-001 5.906567e-001 1.123639e-001
<GCONST> 1.265562e+002
<STATE> 3
<NUMMIXES> 2
<MIXTURE> 1 3.986698e-001
<MEAN> 39
 -1.530097e+001 9.138647e-001 -8.419098e-001 -2.244461e+001 -7.212328e+000 -3.803955e+000 2.284150e-001 -5.586476e+000 -3.565728e-001 1.500353e+000 -4.597668e+000 -6.268538e+000 6.114051e+001 -5.222401e-001 -1.871794e-002 -1.097896e-001 -6.264092e-001 4.878643e-001 2.781939e-001 1.995354e-001 -2.696743e-001 3.808644e-001 -4.991963e-001 -5.532492e-001 3.331323e-001 -3.985849e-002 8.820407e-001 1.520886e-002 -2.879688e-002 7.829652e-002 -1.083202e-001 -2.165007e-001 -3.643526e-001 -7.318757e-002 -2.639319e-001 -3.539598e-001 1.434905e-001 3.535447e-001 2.154285e-001
<VARIANCE> 39
 3.694572e+001 8.643311e+001 1.187416e+002 1.707503e+002 9.607701e+001 6.134406e+001 8.053077e+001 9.443718e+001 7.356721e+001 5.262365e+001 6.073391e+001 4.032699e+001 1.664534e+002 4.318676e+000 1.917795e+000 2.548783e+000 4.577624e+000 4.572444e+000 3.845577e+000 4.230814e+000 4.690577e+000 6.023592e+000 5.917252e+000 2.911169e+000 2.177277e+000 2.078164e+000 6.810792e-001 5.828606e-001 7.359496e-001 1.010042e+000 9.333753e-001 7.389585e-001 1.119490e+000 1.263510e+000 8.245180e-001 1.141743e+000 4.897766e-001 4.431564e-001 4.829772e-001
<GCONST> 1.414775e+002
<MIXTURE> 2 6.013303e-001
<MEAN> 39
 -1.716314e+001 -4.119718e+000 -4.705277e+000 -1.340780e+001 -2.722024e+000 -5.417029e+000 -1.124626e+000 -3.281608e-001 -8.499071e-001 8.474694e-001 -1.031330e+000 -2.986245e+000 6.310031e+001 3.366885e-001 7.787092e-001 9.844863e-001 -1.677354e-001 -7.719251e-001 -3.767564e-002 -4.722491e-001 -1.087710e+000 -1.185382e-001 -6.452377e-001 -7.920477e-001 7.771834e-002 -2.765538e-001 1.085404e+000 5.687381e-001 3.414055e-001 -4.419805e-001 -7.878273e-001 -7.179250e-001 -8.277256e-001 -7.196873e-001 -4.145092e-001 -5.793730e-001 -3.088556e-001 -7.368428e-002 4.013285e-001
<VARIANCE> 39
 4.684114e+001 3.096511e+001 1.260948e+002 7.496980e+001 8.828954e+001 5.324206e+001 7.048477e+001 1.099668e+002 6.588360e+001 6.240762e+001 3.757779e+001 6.638411e+001 9.233340e+001 2.532674e+000 1.359730e+000 2.343937e+000 1.951044e+000 3.017591e+000 3.958692e+000 3.415261e+000 3.709307e+000 3.535396e+000 2.820315e+000 2.149536e+000 3.255339e+000 7.520071e-001 3.276753e-001 2.943020e-001 4.152110e-001 4.523879e-001 7.020960e-001 5.403482e-001 8.583669e-001 1.068093e+000 1.088650e+000 7.534159e-001 6.001655e-001 6.543703e-001 2.568211e-001
<GCONST> 1.303679e+002
<STATE> 4
<NUMMIXES> 2
<MIXTURE> 1 4.861418e-001
<MEAN> 39
 -8.429032e+000 -6.320381e+000 -2.049587e+001 -2.261004e+001 8.195350e+000 -3.885197e+000 -1.565080e+000 4.223345e-002 -7.847751e+000 -2.894723e-001 2.054708e+000 -2.262714e+000 5.455444e+001 1.048066e+000 7.541452e-001 -8.641632e-001 -1.253274e+000 6.305149e-002 -2.994151e-001 4.106947e-001 4.381795e-001 -2.166390e-001 1.205901e-001 1.338387e-001 -1.566183e-001 1.834755e+000 2.916953e-001 2.527900e-001 4.081083e-001 1.995543e-001 -4.413056e-001 -2.200921e-001 -2.777835e-001 -3.794339e-001 1.380309e-001 -1.415351e-001 -1.824845e-001 -1.115364e-001 2.328796e-001
<VARIANCE> 39
 2.910134e+001 9.041601e+001 9.824375e+001 1.316415e+002 1.585761e+002 2.240376e+002 1.012913e+002 1.640127e+002 1.348168e+002 8.740076e+001 1.066333e+002 6.098138e+001 1.679053e+002 4.263536e+000 5.438771e+000 8.731970e+000 7.386205e+000 6.720409e+000 7.329620e+000 9.153978e+000 7.130910e+000 5.918821e+000 6.146982e+000 3.658466e+000 4.304720e+000 5.182265e+000 7.161129e-001 7.806864e-001 1.180060e+000 1.156457e+000 1.031671e+000 1.354522e+000 1.606779e+000 1.001498e+000 1.021746e+000 1.047974e+000 7.462276e-001 8.314766e-001 9.173865e-001
<GCONST> 1.559204e+002
<MIXTURE> 2 5.138588e-001
<MEAN> 39
 -1.274328e+001 -7.762085e-001 -3.677710e+000 -1.573385e+001 -1.465058e+000 -6.638780e+000 -3.908421e+000 -3.463439e+000 -2.683629e+000 -1.639169e+000 -2.778717e+000 -3.083027e+000 6.307893e+001 3.390435e+000 1.923989e+000 1.376898e+000 -1.356376e+000 -2.945796e+000 -1.459883e+000 -2.424114e+000 -2.870674e+000 -1.306675e+000 -1.604439e+000 -1.396781e+000 -2.501477e-002 1.415146e+000 6.371695e-001 -8.234174e-002 -3.122492e-001 -6.216791e-001 -7.540233e-001 -2.021657e-001 -3.450408e-001 -1.263171e-001 -8.213463e-002 6.789210e-002 -1.260723e-001 1.204988e-002 6.338146e-001
<VARIANCE> 39
 6.784307e+001 4.201402e+001 1.486369e+002 1.033024e+002 1.143658e+002 6.299442e+001 7.653042e+001 8.811579e+001 6.207852e+001 4.920085e+001 3.981573e+001 4.594784e+001 9.550919e+001 3.876061e+000 3.518906e+000 3.620761e+000 4.537388e+000 5.947364e+000 4.211930e+000 5.486729e+000 5.397365e+000 5.883724e+000 3.756178e+000 2.903497e+000 4.796166e+000 1.665696e+000 5.877240e-001 5.356807e-001 5.527099e-001 6.894723e-001 1.152604e+000 6.164428e-001 1.048860e+000 9.482214e-001 8.357295e-001 6.679372e-001 5.428106e-001 7.562907e-001 3.877279e-001
<GCONST> 1.404379e+002
<TRANSP> 5
 0.000000e+000 1.000000e+000 0.000000e+000 0.000000e+000 0.000000e+000
 0.000000e+000 7.406678e-001 2.593322e-001 0.000000e+000 0.000000e+000
 0.000000e+000 0.000000e+000 4.866577e-001 5.133423e-001 0.000000e+000
 0.000000e+000 0.000000e+000 0.000000e+000 6.435642e-001 3.564359e-001
 0.000000e+000 0.000000e+000 0.000000e+000 0.000000e+000 0.000000e+000
<ENDHMM>
~h "k"
<BEGINHMM>
<NUMSTATES> 5
<STATE> 2
<NUMMIXES> 2
<MIXTURE> 1 4.115796e-001
<MEAN> 39
 -1.098796e+001 2.454058e+000 -5.908456e-001 -1.972479e+000 -3.727676e+000 -5.532418e+000 -3.626136e+000 -3.312539e+000 -3.120978e-001 -7.661644e-001 -2.553253e-002 -6.162202e-001 5.316942e+001 -7.181401e-001 -6.405493e-001 -6.006985e-001 1.622276e-001 1.065159e+000 9.495419e-001 8.849213e-001 8.427910e-001 2.027383e-001 3.088201e-001 5.747246e-001 3.191879e-001 -4.971561e-001 1.088511e-001 -2.074423e-001 -3.513599e-001 -6.929686e-001 -2.228697e-001 -3.183019e-001 -2.045172e-001 9.131029e-003 -2.979193e-002 5.311619e-002 -2.952827e-001 -4.447492e-002 7.067867e-001
<VARIANCE> 39
 2.221989e+001 3.064596e+001 1.862647e+001 2.336221e+001 2.735810e+001 3.044578e+001 3.153094e+001 3.739864e+001 2.515354e+001 2.887251e+001 2.508926e+001 2.120464e+001 4.468361e+001 1.562365e+000 1.791507e+000 3.048600e+000 3.918791e+000 3.001454e+000 3.141616e+000 2.823018e+000 3.041503e+000 2.661076e+000 2.739105e+000 2.812496e+000 2.209571e+000 2.370977e+000 3.207756e-001 3.517754e-001 5.105403e-001 5.533125e-001 5.378932e-001 6.712564e-001 5.856061e-001 5.921382e-001 5.511335e-001 5.497165e-001 5.362031e-001 4.667207e-001 3.397543e-001
<GCONST> 1.181357e+002
<MIXTURE> 2 5.883872e-001
<MEAN> 39
 -1.304789e+001 -2.569416e+000 -5.082139e+000 -1.182732e+001 -7.377211e+000 -1.058532e+001 -2.918752e+000 -6.342175e+000 -3.823520e-001 -4.534547e+000 -1.557087e+000 -3.288268e+000 5.623454e+001 -2.258025e-001 -4.915841e-001 -2.851584e-001 2.115733e-001 1.401679e-001 9.202524e-002 2.393671e-001 3.500596e-001 1.389090e-001 2.543356e-001 3.729150e-001 1.574813e-001 -1.084260e+000 2.523573e-001 3.155134e-002 -5.436099e-002 -2.629515e-001 1.257819e-001 1.472185e-001 -1.137429e-001 6.880069e-002 -1.116162e-001 -3.603353e-002 -6.337517e-002 1.546608e-002 3.378751e-001
<VARIANCE> 39
 6.889276e+001 7.252227e+001 5.362220e+001 5.819114e+001 6.864779e+001 6.126836e+001 6.252797e+001 7.106038e+001 6.011793e+001 5.993781e+001 5.920644e+001 4.373901e+001 1.179374e+002 2.254124e+000 2.445986e+000 2.936975e+000 3.974349e+000 4.413884e+000 4.688541e+000 4.782498e+000 4.833941e+000 4.767713e+000 4.691830e+000 4.695324e+000 3.782955e+000 3.507676e+000 4.127682e-001 5.629990e-001 7.877471e-001 1.014240e+000 1.020599e+000 1.028615e+000 1.089729e+000 1.133250e+000 1.091173e+000 9.789742e-001 9.336978e-001 7.950596e-001 5.523804e-001
<GCONST> 1.411268e+002
<STATE> 3
<NUMMIXES> 2
<MIXTURE> 1 4.941146e-001
<MEAN> 39
 -1.049755e+001 -2.711296e+000 -2.302480e+000 -1.034641e+001 -3.483028e+000 -1.015400e+001 -2.373479e+000 -6.503465e+000 -1.412626e+000 -4.535865e+000 -3.036032e+000 -3.282663e+000 5.231690e+001 1.650744e-001 -1.483355e+000 -1.553397e+000 -1.490421e+000 1.547850e+000 -2.351727e-001 -5.625425e-001 1.389969e+000 -9.357207e-002 5.448691e-001 2.281405e-001 3.778469e-001 2.395676e+000 4.630965e-001 9.521084e-003 -4.655403e-001 -9.243848e-001 -6.713960e-002 -1.671965e-001 -4.101907e-001 1.875346e-001 -1.492312e-001 7.376884e-002 -5.713439e-002 5.427158e-002 1.248312e+000
<VARIANCE> 39
 6.780048e+001 1.047191e+002 8.362038e+001 1.085303e+002 1.145276e+002 1.022127e+002 9.249816e+001 9.000499e+001 6.982754e+001 6.643484e+001 6.298890e+001 4.723454e+001 1.124699e+002 7.437193e+000 9.048778e+000 1.267831e+001 1.399714e+001 1.211446e+001 1.297750e+001 1.155669e+001 1.174862e+001 9.164622e+000 7.217131e+000 6.526565e+000 5.878680e+000 1.259625e+001 9.050372e-001 1.592970e+000 1.502123e+000 2.030330e+000 2.046362e+000 1.956055e+000 1.719268e+000 1.702259e+000 1.430449e+000 1.227636e+000 1.128032e+000 9.896938e-001 1.596991e+000
<GCONST> 1.640283e+002
<MIXTURE> 2 5.058650e-001
<MEAN> 39
 -1.159016e+001 -2.836390e+000 -5.797664e+000 -9.233341e+000 -4.654166e+000 -8.352302e+000 -1.572194e+000 -1.469652e+000 1.110682e+000 -1.451169e+000 -3.587196e-001 -9.409969e-001 5.592324e+001 1.106483e+000 -4.671131e-001 -2.252649e+000 -2.767027e+000 -8.725237e-002 -2.484947e-001 -3.150381e-001 7.772618e-001 -9.092723e-001 1.057970e-001 -3.229199e-001 -5.021375e-002 2.183405e+000 6.149966e-001 4.525451e-001 1.627656e-002 -4.714840e-001 -3.120550e-001 -1.903052e-001 -5.346229e-001 -5.474528e-001 -5.888329e-001 -2.649734e-001 -3.029360e-001 -2.065982e-001 7.041906e-001
<VARIANCE> 39
 5.026310e+001 6.386650e+001 5.386586e+001 8.206515e+001 7.385043e+001 8.105428e+001 5.603873e+001 7.213196e+001 5.103325e+001 5.561766e+001 4.942128e+001 3.675418e+001 9.701919e+001 4.803096e+000 5.170828e+000 9.576141e+000 9.173514e+000 9.647692e+000 1.071652e+001 7.955887e+000 8.114189e+000 7.971413e+000 5.641870e+000 5.813693e+000 4.679558e+000 5.045522e+000 4.695048e-001 5.814359e-001 8.174794e-001 1.062987e+000 1.189299e+000 1.255273e+000 1.014204e+000 1.072057e+000 9.433460e-001 8.434141e-001 8.781471e-001 6.408802e-001 6.569342e-001
<GCONST> 1.482214e+002
<STATE> 4
<NUMMIXES> 2
<MIXTURE> 1 4.276729e-001
<MEAN> 39
 -2.166207e+000 -1.822249e+000 -1.939277e+001 -2.515564e+001 1.336132e-001 -2.995348e+000 -5.887799e+000 -2.914863e+000 -9.633045e+000 4.507515e-001 -7.523768e-001 -3.500469e+000 6.270797e+001 1.730763e+000 7.552684e-001 -6.413109e-001 -1.225859e+000 1.646270e-001 -4.966843e-002 -1.491573e+000 -6.336772e-001 -1.649738e+000 2.477487e-001 3.950332e-001 -2.017261e-001 2.049473e+000 1.503775e-001 7.413859e-001 1.720135e+000 1.227112e+000 -1.024757e+000 -8.726426e-001 -2.510445e-001 -9.154169e-001 6.634947e-001 -5.695704e-001 -1.671990e-001 1.345588e-001 -3.238589e-001
<VARIANCE> 39
 6.008135e+001 6.826923e+001 1.038905e+002 1.359297e+002 1.126092e+002 7.958823e+001 1.113522e+002 9.942186e+001 8.715517e+001 7.655022e+001 5.737345e+001 6.268355e+001 4.118576e+001 3.615369e+000 5.245495e+000 1.301841e+001 1.178020e+001 8.981948e+000 7.709758e+000 7.284830e+000 9.099298e+000 7.493912e+000 5.986396e+000 4.479588e+000 4.577361e+000 4.474685e+000 5.749245e-001 8.652307e-001 1.554443e+000 1.878624e+000 1.895840e+000 1.435959e+000 1.950524e+000 1.729642e+000 1.605445e+000 1.235419e+000 9.818235e-001 1.161139e+000 6.473376e-001
<GCONST> 1.563777e+002
<MIXTURE> 2 5.723011e-001
<MEAN> 39
 -1.088968e+001 -5.415364e+000 -7.357316e+000 -1.420738e+001 -3.226407e+000 -1.389020e+001 -5.361477e+000 7.748868e-001 3.468105e-001 -2.717188e+000 -2.772362e+000 -9.184587e-001 6.559223e+001 2.022017e+000 1.317402e+000 1.625829e-001 -1.900727e+000 -1.617682e+000 -1.233841e+000 -1.373277e+000 -1.025425e+000 -9.960172e-001 -1.254433e+000 -1.486738e+000 -3.484600e-001 2.857405e+000 3.866935e-001 3.948896e-001 4.813949e-001 3.611923e-002 -4.568532e-001 5.714347e-001 -2.380419e-002 -7.470494e-001 -2.707637e-001 -1.173420e-001 -2.230160e-001 -8.602321e-002 -3.584884e-001
<VARIANCE> 39
 6.157480e+001 8.209765e+001 8.947453e+001 1.071737e+002 1.091972e+002 1.160872e+002 1.038020e+002 1.039752e+002 6.387710e+001 6.907542e+001 6.157354e+001 4.949561e+001 9.851561e+001 4.483650e+000 6.727725e+000 6.084637e+000 6.928840e+000 7.120572e+000 7.078332e+000 7.829657e+000 8.023727e+000 5.814171e+000 4.655055e+000 5.951706e+000 3.936145e+000 8.760838e+000 9.097149e-001 1.263340e+000 9.829633e-001 1.390467e+000 1.754300e+000 1.668156e+000 1.817576e+000 1.543054e+000 1.158802e+000 1.039015e+000 1.139521e+000 8.215761e-001 1.215500e+000
<GCONST> 1.558148e+002
<TRANSP> 5
 0.000000e+000 1.000000e+000 0.000000e+000 0.000000e+000 0.000000e+000
 0.000000e+000 7.475322e-001 2.524678e-001 0.000000e+000 0.000000e+000
 0.000000e+000 0.000000e+000 5.094889e-001 4.905111e-001 0.000000e+000
 0.000000e+000 0.000000e+000 0.000000e+000 5.414854e-001 4.585147e-001
 0.000000e+000 0.000000e+000 0.000000e+000 0.000000e+000 0.000000e+000
<ENDHMM>
~h "l"
<BEGINHMM>
<NUMSTATES> 5
<STATE> 2
<NUMMIXES> 2
<MIXTURE> 1 4.626478e-001
<MEAN> 39
 -1.253849e+000 -5.041497e+000 6.487650e-001 -1.180535e+001 -1.149860e+001 -1.904503e+001 -1.212024e+001 -7.654591e+000 -1.002156e+000 -6.217607e+000 -5.112266e+000 -1.401691e+000 6.901932e+001 3.971674e-001 8.393241e-001 6.235135e-001 1.057425e+000 -1.060773e-001 -1.334808e+000 -2.716800e-001 3.136778e-001 -8.061317e-002 -1.093912e+000 4.178309e-001 1.288760e+000 -4.822356e-001 -1.055839e-001 9.313951e-002 -1.469934e-001 -5.369121e-001 2.236636e-001 4.555110e-001 8.405988e-002 2.589383e-001 -1.310702e-002 2.231110e-001 1.103617e-001 1.094771e-001 -9.006387e-003
<VARIANCE> 39
 5.756527e+001 5.398598e+001 5.619643e+001 8.754848e+001 6.751613e+001 9.035229e+001 1.024783e+002 7.548774e+001 8.003768e+001 7.689162e+001 6.637132e+001 6.452773e+001 7.971046e+001 1.397247e+000 2.486614e+000 2.686985e+000 4.421195e+000 4.620146e+000 5.459460e+000 7.148706e+000 5.188663e+000 5.616108e+000 5.296185e+000 4.951287e+000 4.018954e+000 1.752009e+000 2.795475e-001 4.370050e-001 4.311781e-001 8.005808e-001 8.469168e-001 9.153032e-001 1.019581e+000 9.437194e-001 8.875679e-001 1.048320e+000 8.525584e-001 7.547652e-001 2.849707e-001
<GCONST> 1.396332e+002
<MIXTURE> 2 5.373517e-001
<MEAN> 39
 -7.429282e+000 -9.185359e-001 -1.648563e-001 -1.150944e+001 -1.376172e+001 -1.776478e+001 -1.176252e+001 -7.794910e+000 -3.048120e+000 -8.298372e+000 -6.224427e-002 -6.088138e-001 7.211973e+001 -2.802909e-001 5.402859e-001 4.339027e-001 3.865978e-001 1.443003e-001 -4.387499e-001 6.195378e-002 2.232381e-001 -3.960235e-001 -3.134755e-001 8.924778e-002 4.770966e-001 -3.601061e-001 -7.089312e-003 -1.083752e-001 -1.424760e-001 -2.314872e-001 7.817341e-002 3.081840e-001 2.402245e-002 8.772582e-004 1.562598e-001 1.312027e-001 -2.301246e-001 -8.260278e-002 7.942272e-002
<VARIANCE> 39
 3.092815e+001 3.304920e+001 4.403867e+001 5.662611e+001 3.359890e+001 4.856115e+001 5.448734e+001 4.718574e+001 5.715662e+001 4.702666e+001 3.106129e+001 5.051121e+001 3.670395e+001 5.180793e-001 9.867772e-001 1.412855e+000 1.535719e+000 1.543939e+000 2.469998e+000 2.273924e+000 2.649070e+000 2.878019e+000 2.369140e+000 2.285001e+000 2.474709e+000 2.921359e-001 6.226716e-002 1.346210e-001 2.149662e-001 3.291462e-001 2.519650e-001 4.913864e-001 4.323189e-001 5.052655e-001 5.440488e-001 4.639954e-001 4.277745e-001 3.510626e-001 4.981549e-002
<GCONST> 1.088825e+002
<STATE> 3
<NUMMIXES> 2
<MIXTURE> 1 4.230123e-001
<MEAN> 39
 -5.177133e+000 -1.569611e-001 4.045900e-001 -1.307407e+001 -9.961121e+000 -1.858661e+001 -1.157780e+001 -6.862440e+000 2.040074e+000 -9.497057e+000 -1.613155e+000 7.862840e-001 6.349878e+001 3.087471e-001 1.884055e-001 -1.243141e-001 -1.948790e-001 -2.160825e-002 -3.454744e-002 1.243105e-001 9.269404e-001 1.517243e-001 -6.662683e-001 1.625302e-001 5.664951e-001 5.286432e-002 -1.495836e-002 -2.167489e-001 -2.279624e-001 -3.510660e-001 3.049817e-002 2.507794e-001 2.528248e-001 2.213941e-001 -1.687518e-001 3.426093e-001 -1.379216e-001 -3.099004e-001 2.173162e-001
<VARIANCE> 39
 9.331530e+001 8.075785e+001 6.211425e+001 9.272700e+001 6.260735e+001 8.069494e+001 9.238853e+001 7.002987e+001 6.941847e+001 9.571590e+001 6.984382e+001 7.750372e+001 1.267487e+002 2.037453e+000 3.570606e+000 3.167475e+000 4.624131e+000 4.779176e+000 6.323905e+000 6.615004e+000 5.834195e+000 4.743564e+000 5.123587e+000 4.750910e+000 3.900554e+000 2.738667e+000 4.086340e-001 6.724786e-001 5.942023e-001 8.907390e-001 9.724041e-001 1.039890e+000 1.442167e+000 1.129493e+000 9.181440e-001 1.367661e+000 8.950356e-001 9.070728e-001 3.885395e-001
<GCONST> 1.452990e+002
<MIXTURE> 2 5.769865e-001
<MEAN> 39
 -1.975639e+000 -4.143047e+000 1.784814e+000 -1.069232e+001 -1.034123e+001 -2.199116e+001 -1.438960e+001 -4.957199e+000 -1.381315e+000 -8.407190e+000 -6.963704e+000 5.329625e+000 7.055096e+001 -2.477439e-001 -2.366649e-001 8.533906e-002 -5.965592e-001 -1.239829e-001 2.147783e-001 4.291031e-001 1.393389e-001 -1.099831e-002 3.336731e-001 -1.313820e-001 -1.959301e-001 3.567525e-001 -1.109199e-001 -3.516517e-001 -2.666955e-001 -4.260223e-001 -3.193052e-001 5.510992e-001 3.644119e-001 -3.309154e-002 1.239487e-001 2.434587e-001 1.160444e-001 -5.726188e-001 3.524334e-001
<VARIANCE> 39
 6.562392e+001 4.633290e+001 4.075614e+001 5.884745e+001 6.311451e+001 5.941977e+001 7.263678e+001 5.553511e+001 5.050181e+001 5.456874e+001 5.418588e+001 5.320509e+001 1.494195e+001 4.545538e-001 9.510247e-001 1.065678e+000 1.777639e+000 2.247431e+000 2.361222e+000 3.031144e+000 2.498177e+000 2.357832e+000 2.599375e+000 2.694512e+000 2.003621e+000 6.474954e-001 9.036528e-002 2.109327e-001 2.673771e-001 4.132216e-001 5.269532e-001 5.359753e-001 6.909714e-001 5.290212e-001 5.272506e-001 5.510924e-001 6.338768e-001 3.529369e-001 1.052508e-001
<GCONST> 1.157437e+002
<STATE> 4
<NUMMIXES> 2
<MIXTURE> 1 4.085338e-001
<MEAN> 39
 2.584338e+000 -1.082877e+000 3.875119e+000 -1.537687e+001 -9.994775e+000 -1.512502e+001 -1.384788e+001 -4.807843e+000 5.715719e-001 -9.394469e+000 -7.049321e+000 1.361354e+000 6.666123e+001 -6.619287e-002 3.333558e-001 -7.908767e-004 -5.528795e-001 1.516549e-001 9.288897e-004 2.411783e-001 3.327367e-001 -3.551402e-001 6.093622e-001 1.014076e-001 2.356546e-001 3.550956e-001 -3.171767e-001 -2.687402e-001 -9.485482e-002 -2.369407e-001 1.047602e-001 5.108791e-002 2.319476e-001 -1.822900e-001 -6.618538e-002 4.913711e-001 9.777948e-002 2.277938e-002 1.055444e-001
<VARIANCE> 39
 5.093808e+001 7.003822e+001 6.638153e+001 1.354039e+002 8.516006e+001 1.441350e+002 1.471609e+002 1.731519e+002 1.174484e+002 1.233428e+002 8.761782e+001 1.211995e+002 6.463433e+001 4.444479e+000 4.884498e+000 4.099583e+000 6.873782e+000 6.858855e+000 9.055471e+000 8.720699e+000 8.453455e+000 9.272288e+000 8.004873e+000 7.780934e+000 8.260129e+000 5.520493e+000 3.882213e-001 7.960181e-001 4.907795e-001 1.002710e+000 1.317825e+000 1.478531e+000 1.522119e+000 1.697365e+000 1.780442e+000 1.204699e+000 1.305219e+000 1.459127e+000 4.199148e-001
<GCONST> 1.568383e+002
<MIXTURE> 2 5.914651e-001
<MEAN> 39
 -8.894798e-001 -5.161672e+000 2.254876e+000 -1.975382e+001 -8.584238e+000 -2.116304e+001 -1.378833e+001 -9.048741e-001 1.081970e+000 -8.088732e+000 -7.004197e+000 6.053519e+000 7.345200e+001 -2.220944e-001 -1.193207e+000 -1.044434e+000 -9.632614e-001 5.941315e-002 1.064657e+000 1.536325e+000 7.966297e-001 -2.674382e-001 3.786997e-001 -2.557923e-001 -1.088747e+000 8.569594e-001 -3.877692e-002 -9.068420e-002 -2.431973e-001 9.700224e-002 2.182544e-002 4.213892e-001 3.447954e-001 -2.093050e-001 -2.545851e-001 2.102740e-002 -3.602651e-002 -1.753165e-001 -5.268250e-003
<VARIANCE> 39
 5.363471e+001 4.486995e+001 7.475677e+001 1.166166e+002 7.495500e+001 8.487910e+001 8.983513e+001 1.177268e+002 9.245144e+001 7.778050e+001 7.178036e+001 8.923859e+001 2.648580e+001 7.442220e-001 2.951704e+000 2.981797e+000 3.596781e+000 4.422996e+000 4.766666e+000 7.464258e+000 7.001105e+000 5.305606e+000 5.806118e+000 4.507346e+000 3.676264e+000 1.367184e+000 9.268514e-002 3.572845e-001 3.006613e-001 4.134719e-001 5.144686e-001 5.622612e-001 8.802447e-001 6.889266e-001 7.280167e-001 7.736514e-001 6.866114e-001 6.920828e-001 1.378411e-001
<GCONST> 1.336620e+002
<TRANSP> 5
 0.000000e+000 1.000000e+000 0.000000e+000 0.000000e+000 0.000000e+000
 0.000000e+000 6.926212e-001 3.073788e-001 0.000000e+000 0.000000e+000
 0.000000e+000 0.000000e+000 5.888280e-001 4.111720e-001 0.000000e+000
 0.000000e+000 0.000000e+000 0.000000e+000 6.742024e-001 3.257977e-001
 0.000000e+000 0.000000e+000 0.000000e+000 0.000000e+000 0.000000e+000
<ENDHMM>
~h "m"
<BEGINHMM>
<NUMSTATES> 5
<STATE> 2
<NUMMIXES> 2
<MIXTURE> 1 3.484521e-001
<MEAN> 39
 -8.754763e+000 -2.986187e+000 -2.426326e+000 -6.566699e+000 -4.012161e+000 -9.911668e+000 -6.300327e+000 -8.502853e+000 -3.058211e+000 -4.573279e+000 -2.387548e+000 -3.993553e+000 5.473933e+001 1.933344e+000 1.944217e+000 9.567330e-001 5.760995e-001 -2.685726e-001 -9.848052e-001 -1.485732e+000 -1.851457e+000 -1.182554e+000 -4.220540e-001 -5.117670e-001 -4.659240e-001 9.711490e-001 4.760698e-001 1.661327e-001 -2.029265e-001 -3.415893e-001 -2.101802e-001 -1.355593e-001 -3.195065e-001 -3.266009e-001 -1.922306e-001 3.996681e-002 -8.871612e-002 -1.410257e-001 5.395408e-001
<VARIANCE> 39
 4.835147e+001 5.497157e+001 3.724555e+001 4.487921e+001 5.192258e+001 5.444310e+001 7.125637e+001 6.161048e+001 4.223502e+001 5.255772e+001 4.036744e+001 3.231714e+001 2.279540e+002 6.915628e+000 6.637877e+000 3.752976e+000 3.405555e+000 4.221412e+000 4.584845e+000 5.807570e+000 6.311328e+000 5.061972e+000 4.480532e+000 3.648408e+000 3.093108e+000 4.849499e+000 7.208492e-001 9.607873e-001 7.441006e-001 5.563780e-001 6.073824e-001 8.106556e-001 8.787432e-001 1.128129e+000 8.816863e-001 8.324154e-001 6.620401e-001 5.195236e-001 5.784387e-001
<GCONST> 1.397983e+002
<MIXTURE> 2 6.515374e-001
<MEAN> 39
 3.917312e+000 -2.770597e-001 -4.713645e+000 -1.167050e+001 -7.546250e+000 -1.158301e+001 -1.277810e+001 -1.593960e+001 -7.970814e+000 -4.245428e+000 -5.232705e+000 -7.711210e+000 6.625218e+001 1.097512e+000 -1.172475e-001 -5.199062e-001 6.154370e-001 -1.234448e-001 -3.431550e-001 -3.605397e-001 -1.971042e+000 -7.642064e-001 8.636835e-001 -5.610678e-001 -6.298479e-001 8.975877e-001 -6.614362e-001 -4.780264e-001 8.864897e-002 -1.464134e-001 2.176168e-001 2.483539e-001 3.972497e-001 6.410941e-001 3.911944e-001 1.356562e-001 -1.444558e-002 2.166014e-001 -5.813597e-002
<VARIANCE> 39
 5.994726e+001 8.567131e+001 6.267544e+001 7.248969e+001 7.030430e+001 6.831400e+001 6.643252e+001 8.338786e+001 5.581670e+001 7.168116e+001 5.410778e+001 3.710160e+001 5.786806e+001 3.760830e+000 5.220026e+000 6.090995e+000 7.073087e+000 5.676147e+000 5.841094e+000 6.546551e+000 8.189075e+000 6.180721e+000 5.717086e+000 4.443830e+000 3.853117e+000 5.704644e+000 4.413769e-001 8.908475e-001 9.077951e-001 7.792439e-001 7.443110e-001 9.015162e-001 8.818554e-001 1.101949e+000 8.304845e-001 9.357579e-001 7.255822e-001 5.617687e-001 3.802014e-001
<GCONST> 1.442422e+002
<STATE> 3
<NUMMIXES> 2
<MIXTURE> 1 4.896843e-001
<MEAN> 39
 2.967855e+000 -5.358605e+000 -2.559437e+000 -8.287298e+000 -7.203482e+000 -1.119521e+001 -1.185020e+001 -1.807522e+001 -8.442384e+000 7.339126e-001 -5.858099e+000 -7.223672e+000 7.010349e+001 -1.392338e-002 -3.262540e-002 5.024417e-002 3.631306e-001 1.495832e-001 -7.164840e-002 -1.129932e-002 -3.720874e-001 -9.664056e-002 3.700465e-001 7.251024e-002 1.997330e-002 1.249079e-002 -1.221236e-001 -7.009830e-002 -1.613476e-001 -4.932241e-001 -4.309364e-002 7.457998e-002 3.605921e-002 7.759566e-001 2.954630e-001 -2.953014e-001 5.890232e-002 -5.970622e-003 1.511501e-001
<VARIANCE> 39
 5.462654e+001 4.669748e+001 4.561115e+001 7.590507e+001 7.033806e+001 6.611060e+001 1.062626e+002 8.788987e+001 5.873743e+001 7.327892e+001 6.439885e+001 4.688937e+001 1.568038e+001 3.728690e-001 1.490144e+000 1.534466e+000 2.134356e+000 2.014258e+000 1.958499e+000 2.440532e+000 3.604423e+000 2.592001e+000 2.709887e+000 2.296906e+000 2.240551e+000 7.482404e-001 1.037095e-001 2.126816e-001 4.769919e-001 4.440621e-001 3.714683e-001 4.739813e-001 5.895895e-001 8.072348e-001 6.681425e-001 6.095707e-001 5.192801e-001 5.323043e-001 1.139555e-001
<GCONST> 1.196319e+002
<MIXTURE> 2 5.102876e-001
<MEAN> 39
 -1.059970e+000 -9.650366e-001 -4.139877e+000 -9.272862e+000 -6.814529e+000 -1.220423e+001 -1.287201e+001 -1.223592e+001 -7.571072e+000 -6.062407e+000 -6.812742e+000 -9.117039e+000 6.774796e+001 -8.620517e-002 1.440080e-001 1.216123e-001 1.739310e-001 7.966264e-002 -7.668640e-002 7.115962e-002 2.855542e-002 -2.700355e-002 3.619827e-002 -5.647919e-002 -1.271762e-001 -1.199236e-001 -1.504359e-002 -7.474043e-002 -6.819181e-002 -1.506849e-001 -6.391769e-002 1.065579e-001 5.020007e-002 9.417488e-002 7.436999e-002 8.242978e-003 6.629911e-002 1.578772e-001 5.907803e-002
<VARIANCE> 39
 6.833997e+001 7.623289e+001 5.049966e+001 5.115905e+001 5.054733e+001 4.450144e+001 6.198021e+001 4.838982e+001 5.640925e+001 6.081696e+001 5.763826e+001 3.258551e+001 5.912173e+001 2.253983e-001 7.965391e-001 9.842257e-001 1.221610e+000 1.514682e+000 1.586438e+000 1.840727e+000 2.006753e+000 1.932085e+000 2.140904e+000 1.940376e+000 1.727536e+000 2.688769e-001 4.809178e-002 1.219041e-001 2.280755e-001 2.419358e-001 2.703506e-001 3.389169e-001 3.494613e-001 3.911423e-001 3.856517e-001 4.039705e-001 3.773292e-001 3.245206e-001 3.883676e-002
<GCONST> 1.059172e+002
<STATE> 4
<NUMMIXES> 2
<MIXTURE> 1 5.227810e-001
<MEAN> 39
 -1.505895e+000 4.816978e+000 -2.557630e+000 -6.565855e+000 -5.787395e+000 -1.166615e+001 -7.961242e+000 -1.148057e+001 -6.376529e+000 -8.231565e+000 -4.645025e+000 -7.834174e+000 6.025811e+001 -5.898759e-001 -1.841119e-002 8.923749e-002 -4.549048e-002 4.966361e-002 3.985989e-001 4.013717e-001 5.136458e-001 3.978057e-001 -7.091559e-002 2.713754e-001 3.891561e-001 -4.548316e-001 -7.740237e-002 -2.525442e-001 -1.144903e-001 -2.103279e-001 5.569480e-002 1.658214e-001 6.655059e-004 1.027641e-001 1.018865e-001 9.389964e-002 9.155037e-002 9.800968e-002 7.296391e-002
<VARIANCE> 39
 7.342266e+001 7.215301e+001 6.190707e+001 6.451678e+001 6.300786e+001 5.679288e+001 7.693141e+001 7.693501e+001 6.587226e+001 6.814697e+001 5.492217e+001 4.981696e+001 8.131273e+001 1.043989e+000 2.592144e+000 3.082676e+000 3.458860e+000 3.442390e+000 3.535754e+000 3.984751e+000 4.123002e+000 3.944136e+000 4.192206e+000 3.694898e+000 3.236003e+000 1.320579e+000 1.467307e-001 3.556059e-001 5.292645e-001 5.794044e-001 6.152068e-001 7.070326e-001 7.195631e-001 7.813625e-001 7.237546e-001 8.239520e-001 6.782593e-001 6.487780e-001 1.718203e-001
<GCONST> 1.317180e+002
<MIXTURE> 2 4.772086e-001
<MEAN> 39
 2.766235e+000 -7.411165e+000 -6.473237e+000 -1.100811e+001 -5.214352e+000 -1.203543e+001 -1.379188e+001 -1.428426e+001 -5.233146e+000 1.539792e+000 -4.801100e+000 -9.926823e+000 7.269888e+001 -3.557956e-001 -1.738470e+000 -1.743765e+000 -2.173916e+000 6.321037e-001 3.723927e-001 -2.333166e-001 4.113037e+000 1.825991e+000 -1.483301e+000 -4.325654e-001 9.723214e-002 1.537747e+000 -2.887780e-001 -2.432489e-001 6.496508e-002 -1.798197e-001 2.596677e-001 6.325983e-002 6.152371e-002 8.482221e-001 5.776003e-002 -7.514290e-001 -1.945310e-001 5.219190e-001 1.206108e-001
<VARIANCE> 39
 5.447499e+001 4.866680e+001 5.889986e+001 6.301226e+001 5.122556e+001 5.401181e+001 7.410600e+001 9.882417e+001 6.190094e+001 6.563096e+001 5.671947e+001 3.496668e+001 2.693359e+001 8.335310e-001 1.798680e+000 3.822078e+000 3.032788e+000 3.680285e+000 4.470612e+000 5.069911e+000 8.015705e+000 6.650405e+000 5.636411e+000 3.857038e+000 4.968359e+000 6.543853e-001 8.810394e-002 2.548128e-001 6.199799e-001 8.945175e-001 4.675559e-001 5.192963e-001 6.159880e-001 1.279714e+000 9.177219e-001 6.948225e-001 5.529907e-001 6.013736e-001 1.425467e-001
<GCONST> 1.297738e+002
<TRANSP> 5
 0.000000e+000 1.000000e+000 0.000000e+000 0.000000e+000 0.000000e+000
 0.000000e+000 5.617341e-001 4.382659e-001 0.000000e+000 0.000000e+000
 0.000000e+000 0.000000e+000 7.991906e-001 2.008093e-001 0.000000e+000
 0.000000e+000 0.000000e+000 0.000000e+000 6.553280e-001 3.446720e-001
 0.000000e+000 0.000000e+000 0.000000e+000 0.000000e+000 0.000000e+000
<ENDHMM>
~h "n"
<BEGINHMM>
<NUMSTATES> 5
<STATE> 2
<NUMMIXES> 2
<MIXTURE> 1 5.742127e-001
<MEAN> 39
 3.983198e+000 -5.927724e+000 -2.008512e+000 -1.535010e+001 -8.509089e+000 -1.715279e+001 -7.063087e+000 -8.782589e+000 -8.254355e+000 -7.878875e-001 -6.066372e+000 -5.925678e+000 7.227056e+001 6.760992e-001 8.969756e-001 3.303788e-001 1.406924e+000 -1.142703e+000 -2.614034e-002 9.724221e-001 -2.231822e+000 -3.749851e-001 4.111333e-001 -3.344240e-001 3.772413e-001 -1.034330e+000 -1.110226e-001 5.285770e-002 -1.508979e-001 -1.795022e-001 1.481657e-001 3.182927e-001 -2.200436e-001 3.110124e-001 2.666406e-001 -2.659646e-001 3.627706e-002 1.015407e-002 2.835773e-002
<VARIANCE> 39
