~o
<STREAMINFO> 1 39
<VECSIZE> 39<NULLD><MFCC_D_A_0><DIAGC>
~h "a"
<BEGINHMM>
<NUMSTATES> 5
<STATE> 2
<NUMMIXES> 2
<MIXTURE> 1 5.108758e-001
<MEAN> 39
 -1.967785e+000 -1.197711e+001 -9.133393e+000 -1.818629e+001 -6.529424e+000 -1.350165e+001 -7.651369e+000 2.843903e+000 -1.116869e+000 -8.567135e+000 -8.138449e+000 -2.066242e+000 7.656004e+001 -2.809516e-002 -1.936511e+000 -4.612550e-001 -4.648350e-001 1.190051e+000 6.239159e-001 4.189804e-001 1.664313e+000 -3.557279e-001 -9.536015e-001 -6.144776e-001 7.307387e-001 1.352613e+000 -4.479755e-001 5.122214e-001 3.503573e-001 5.650256e-001 1.767785e-001 2.243726e-001 1.919567e-001 -5.876396e-001 -1.419733e-001 3.567038e-001 4.770653e-001 -8.178116e-003 -7.628186e-001
<VARIANCE> 39
 4.702026e+001 4.049241e+001 7.428314e+001 7.751460e+001 1.057789e+002 8.372171e+001 9.453060e+001 8.103204e+001 7.136800e+001 7.978959e+001 7.167757e+001 5.955808e+001 5.135731e+001 2.441715e+000 3.271054e+000 4.416847e+000 4.440013e+000 5.572582e+000 4.967331e+000 5.714487e+000 6.762244e+000 4.846776e+000 5.068843e+000 4.690973e+000 4.049018e+000 2.609237e+000 5.491641e-001 6.234210e-001 6.196630e-001 7.182187e-001 1.056446e+000 8.870629e-001 1.006011e+000 1.078780e+000 9.307667e-001 9.002340e-001 9.252676e-001 7.562839e-001 7.385721e-001
<GCONST> 1.432972e+002
<MIXTURE> 2 4.890595e-001
<MEAN> 39
 -2.799171e+000 -1.160341e+001 -9.467329e+000 -1.630439e+001 -5.880460e+000 -1.194065e+001 -7.398276e+000 1.049442e+000 -1.902715e+000 -9.269526e+000 -6.366348e+000 -1.102710e+000 7.334959e+001 1.603186e-001 -1.757834e+000 -7.114795e-001 -6.800995e-001 8.991992e-001 3.152070e-001 9.854840e-002 1.526523e+000 -5.959454e-001 -1.272973e+000 -5.688802e-001 4.707707e-001 1.913637e+000 -3.054464e-001 4.116059e-001 2.991793e-001 3.307060e-001 6.970442e-002 5.941562e-002 9.476730e-002 -4.778180e-001 -1.094283e-001 3.181809e-001 2.293959e-001 -1.295183e-001 -5.462789e-001
<VARIANCE> 39
 5.312785e+001 5.135092e+001 8.503877e+001 8.499616e+001 1.048568e+002 8.706380e+001 9.582419e+001 8.718791e+001 7.369794e+001 8.458694e+001 7.470992e+001 5.760159e+001 1.221631e+002 3.740546e+000 4.123938e+000 5.362489e+000 5.280725e+000 6.654786e+000 5.795682e+000 6.612062e+000 8.513579e+000 5.668715e+000 5.724883e+000 5.401757e+000 4.390391e+000 6.022312e+000 6.067925e-001 7.831792e-001 7.933518e-001 8.350538e-001 1.035735e+000 9.410262e-001 1.049084e+000 1.214114e+000 9.878095e-001 9.944991e-001 9.481410e-001 8.047462e-001 1.126260e+000
<GCONST> 1.496295e+002
<STATE> 3
<NUMMIXES> 2
<MIXTURE> 1 5.304430e-001
<MEAN> 39
 -1.857710e+000 -1.477825e+001 -7.772790e+000 -1.867966e+001 -2.240276e+000 -1.378329e+001 -7.295203e+000 4.493502e+000 -2.406865e+000 -7.883145e+000 -8.564283e+000 -3.122284e+000 7.886134e+001 1.237945e-001 3.172237e-001 5.828955e-002 4.223847e-001 5.450122e-002 1.556376e-002 -2.133629e-001 -7.440532e-002 -7.780605e-002 -8.304220e-002 3.585337e-001 -1.964140e-002 -3.105175e-001 6.760445e-002 5.346389e-001 1.703507e-001 1.862051e-001 -2.858322e-001 -2.209945e-002 -1.628361e-001 -3.915739e-001 5.535418e-002 2.153670e-001 2.497731e-001 -8.746719e-002 -3.647037e-001
<VARIANCE> 39
 4.502071e+001 2.645571e+001 4.150890e+001 8.367338e+001 1.022113e+002 7.614848e+001 1.088559e+002 7.902615e+001 7.344221e+001 5.886292e+001 5.683231e+001 6.079198e+001 9.180859e+000 5.941598e-001 1.566630e+000 1.581680e+000 1.412441e+000 2.910866e+000 2.416007e+000 3.338456e+000 2.653868e+000 2.423186e+000 2.730120e+000 2.234975e+000 2.299592e+000 5.667977e-001 1.151003e-001 2.122272e-001 2.338728e-001 3.047669e-001 3.872658e-001 4.021854e-001 5.579076e-001 5.921075e-001 4.996000e-001 4.728293e-001 4.247039e-001 4.079553e-001 1.296758e-001
<GCONST> 1.169324e+002
<MIXTURE> 2 4.694538e-001
<MEAN> 39
 -4.198879e+000 -1.533322e+001 -1.110818e+001 -1.458389e+001 -3.408036e+000 -8.971556e+000 -8.181521e+000 2.508121e+000 -4.780210e+000 -1.101408e+001 -7.374068e+000 -7.003973e-001 7.837546e+001 4.939649e-002 4.413084e-001 2.002542e-002 2.321573e-001 -6.731388e-002 -2.166293e-001 -2.681929e-001 -3.805040e-001 -1.782064e-001 -1.239088e-001 1.199286e-002 -3.624549e-001 -4.152347e-001 6.751210e-002 5.531143e-001 2.113951e-001 -3.104768e-002 -2.954611e-001 -2.663190e-001 -1.338723e-001 -3.333189e-001 1.176669e-001 2.189548e-001 4.264198e-002 -2.541390e-001 -3.685404e-001
<VARIANCE> 39
 4.652867e+001 2.842476e+001 4.487421e+001 7.141888e+001 7.593341e+001 5.909611e+001 8.925308e+001 6.786935e+001 6.897691e+001 5.885022e+001 6.668610e+001 4.343159e+001 2.538796e+001 6.548623e-001 1.626419e+000 1.487898e+000 1.628703e+000 2.868118e+000 2.289184e+000 3.063740e+000 2.406766e+000 2.508547e+000 2.481176e+000 2.190403e+000 2.085685e+000 6.042950e-001 1.249420e-001 2.389551e-001 2.582674e-001 2.931556e-001 3.800904e-001 4.042755e-001 4.921915e-001 5.100053e-001 4.800805e-001 4.584217e-001 4.286623e-001 3.684922e-001 1.386798e-001
<GCONST> 1.165590e+002
<STATE> 4
<NUMMIXES> 2
<MIXTURE> 1 4.995635e-001
<MEAN> 39
 -1.082747e+000 -5.939551e+000 -7.213681e+000 -1.271423e+001 -4.230793e+000 -1.333145e+001 -1.012473e+001 1.732853e+000 -1.780803e+000 -9.871092e+000 -6.003098e+000 -4.756155e+000 6.993380e+001 -3.578583e-001 1.915981e+000 7.305739e-001 1.346115e+000 4.248623e-002 3.629131e-001 2.000431e-001 -7.783323e-001 1.087287e-001 2.037770e-001 7.672369e-001 -1.385202e-001 -2.118965e+000 -3.343729e-001 -9.644832e-002 -4.216696e-002 1.199480e-001 1.497020e-001 2.550877e-001 3.931526e-001 4.190351e-002 2.148747e-002 1.209035e-001 7.830204e-002 1.087339e-001 -8.688104e-002
<VARIANCE> 39
 5.607910e+001 4.341473e+001 5.248432e+001 8.935293e+001 1.096254e+002 6.871636e+001 1.086799e+002 9.603053e+001 7.165227e+001 1.002673e+002 5.946172e+001 5.643283e+001 5.410202e+001 1.855587e+000 2.499736e+000 2.243868e+000 2.744737e+000 4.137338e+000 3.845892e+000 5.631214e+000 4.847076e+000 3.828981e+000 4.143335e+000 3.657186e+000 3.316244e+000 2.118632e+000 2.779539e-001 3.733900e-001 4.001103e-001 4.764888e-001 6.312069e-001 6.421604e-001 9.100702e-001 8.073383e-001 6.617245e-001 7.534598e-001 6.395519e-001 5.838671e-001 2.769418e-001
<GCONST> 1.344343e+002
<MIXTURE> 2 5.003667e-001
<MEAN> 39
 -2.189850e+000 -6.742466e+000 -9.944571e+000 -1.321052e+001 -4.060103e+000 -1.129919e+001 -7.423205e+000 6.647266e-001 -2.235303e+000 -1.217400e+001 -4.884398e+000 -4.329648e+000 6.787156e+001 -5.273870e-001 1.420671e+000 5.358078e-001 5.292778e-001 -6.294349e-001 -2.040860e-001 4.356248e-001 -1.156463e+000 -2.267134e-001 4.811365e-001 4.663966e-002 -5.575712e-001 -1.601510e+000 -1.371340e-001 -2.643470e-002 1.284757e-001 -1.503638e-004 2.524289e-002 2.068076e-002 5.600822e-002 -1.023931e-001 -2.324723e-002 1.608776e-001 -4.358259e-003 4.667615e-002 -3.462500e-002
<VARIANCE> 39
 6.176229e+001 5.791283e+001 7.356373e+001 8.452827e+001 9.275546e+001 6.903101e+001 9.776355e+001 9.618594e+001 7.983414e+001 7.796910e+001 5.645354e+001 5.650848e+001 9.688900e+001 1.747122e+000 2.713264e+000 3.257113e+000 3.112183e+000 4.018644e+000 3.856240e+000 5.087537e+000 4.986566e+000 4.318715e+000 4.149917e+000 3.695243e+000 3.604573e+000 1.365239e+000 1.909953e-001 3.595093e-001 4.567442e-001 5.151763e-001 6.033922e-001 6.379871e-001 8.497947e-001 8.471634e-001 7.638471e-001 6.907158e-001 6.468763e-001 6.146926e-001 2.133522e-001
<GCONST> 1.350037e+002
<TRANSP> 5
 0.000000e+000 1.000000e+000 0.000000e+000 0.000000e+000 0.000000e+000
 0.000000e+000 5.596436e-001 4.403565e-001 0.000000e+000 0.000000e+000
 0.000000e+000 0.000000e+000 7.795244e-001 2.204756e-001 0.000000e+000
 0.000000e+000 0.000000e+000 0.000000e+000 7.088442e-001 2.911558e-001
 0.000000e+000 0.000000e+000 0.000000e+000 0.000000e+000 0.000000e+000
<ENDHMM>
~h "b"
<BEGINHMM>
<NUMSTATES> 5
<STATE> 2
<NUMMIXES> 2
<MIXTURE> 1 4.935328e-001
<MEAN> 39
 -7.825978e+000 -1.002018e+001 -1.048528e+001 -1.445824e+001 -3.674005e+000 -7.853505e+000 -5.250900e+000 -3.072687e+000 3.950889e-001 -1.622792e+000 -8.142240e+000 -6.327083e+000 5.816749e+001 -3.728002e-001 -8.650848e-001 -4.247806e-001 -2.178113e-002 6.044312e-001 6.630965e-001 7.613339e-001 8.070112e-001 2.631452e-001 -4.148201e-001 -4.557557e-001 4.795217e-001 6.070920e-001 -8.689643e-002 8.003449e-002 2.225716e-001 3.420393e-001 1.454703e-001 1.571172e-001 1.100409e-001 -1.883307e-001 -2.422420e-001 -9.584312e-002 2.234217e-001 1.749062e-001 -2.073057e-001
<VARIANCE> 39
 4.361388e+001 7.744671e+001 5.811429e+001 7.044041e+001 3.424846e+001 5.924285e+001 9.396602e+001 6.654600e+001 3.514496e+001 3.299788e+001 8.510384e+001 6.111629e+001 2.522829e+002 7.952452e-001 2.666158e+000 2.165799e+000 5.135987e+000 2.235915e+000 2.900993e+000 3.126244e+000 4.543493e+000 3.402417e+000 3.899864e+000 3.678853e+000 3.128322e+000 2.280736e+000 1.347788e-001 3.682688e-001 3.038951e-001 7.437419e-001 4.179693e-001 6.090932e-001 7.165946e-001 8.173943e-001 5.340000e-001 7.085977e-001 5.888087e-001 4.844173e-001 2.498903e-001
<GCONST> 1.291492e+002
<MIXTURE> 2 5.064676e-001
<MEAN> 39
 -8.512130e+000 -1.098766e+001 -1.038468e+001 -1.392764e+001 -3.396482e+000 -6.327505e+000 -3.954043e+000 -3.537705e+000 -9.891017e-001 -2.429299e+000 -6.301257e+000 -4.972012e+000 5.914513e+001 -2.981579e-001 -5.146063e-001 -8.053645e-002 -1.397206e-001 1.717577e-001 1.172695e-001 2.699026e-001 1.425588e-001 -6.410798e-001 -9.403087e-001 -6.156787e-001 2.075008e-001 5.036644e-001 9.183864e-002 1.318413e-001 7.444064e-002 6.494576e-002 4.779795e-002 -1.445789e-001 -2.237417e-001 -1.038792e-001 -1.319212e-001 -4.045377e-002 -1.115081e-001 -8.230621e-002 -1.022614e-001
<VARIANCE> 39
 4.218166e+001 7.983881e+001 5.807526e+001 6.436567e+001 4.301421e+001 6.651496e+001 8.255224e+001 6.543784e+001 4.122516e+001 3.873564e+001 1.038553e+002 6.471494e+001 2.751328e+002 9.774381e-001 2.863625e+000 2.397339e+000 3.062478e+000 2.063914e+000 2.689822e+000 3.627752e+000 5.650947e+000 2.949568e+000 2.700354e+000 3.461621e+000 3.308340e+000 2.326586e+000 1.225679e-001 4.042256e-001 4.007766e-001 5.866293e-001 3.674464e-001 4.454682e-001 7.352591e-001 9.132354e-001 6.093641e-001 6.507249e-001 6.861032e-001 4.857104e-001 3.092491e-001
<GCONST> 1.296419e+002
<STATE> 3
<NUMMIXES> 2
<MIXTURE> 1 5.698729e-001
<MEAN> 39
 -1.747436e+001 -1.210140e+001 -5.945712e+000 -8.539519e+000 -1.925373e+000 -7.854671e+000 -2.986298e-001 -5.545929e+000 1.144696e+000 -3.374864e+000 7.465221e-001 -2.882587e+000 3.988525e+001 6.823878e-002 1.025684e-001 8.477949e-002 1.538683e-001 1.308915e-001 1.242587e-001 1.163572e-001 8.239528e-002 6.427229e-004 1.044166e-001 1.337762e-001 -3.108763e-002 -7.373303e-003 5.256692e-002 4.539352e-002 2.300408e-002 -3.309921e-002 -4.494363e-002 -1.726789e-002 -7.139422e-003 7.135122e-002 1.847224e-002 -1.373291e-002 -1.206759e-002 -1.695975e-002 2.709414e-002
<VARIANCE> 39
 3.977174e+000 6.794538e+000 7.449922e+000 1.050314e+001 1.212589e+001 1.324997e+001 1.919304e+001 1.852079e+001 2.134400e+001 1.742101e+001 1.531819e+001 1.627156e+001 8.520444e+000 2.026701e-001 4.277833e-001 7.727277e-001 1.262676e+000 1.506474e+000 1.889933e+000 1.976865e+000 2.275244e+000 2.653956e+000 2.165626e+000 1.843072e+000 1.992622e+000 4.409855e-002 5.747860e-002 1.086433e-001 1.713728e-001 2.789154e-001 3.264632e-001 3.889544e-001 4.402182e-001 5.010382e-001 5.965714e-001 4.894745e-001 3.952881e-001 4.326920e-001 1.092983e-002
<GCONST> 8.466907e+001
<MIXTURE> 2 4.301245e-001
<MEAN> 39
 -1.588328e+001 -1.244229e+001 -6.699117e+000 -9.801380e+000 -2.452282e+000 -7.687651e+000 -1.197748e+000 -4.474586e+000 9.893599e-001 -4.049978e+000 -1.313641e+000 -3.008567e+000 4.485423e+001 -1.390906e-001 -1.422643e-001 -2.284006e-002 -6.220716e-002 -5.458764e-002 -1.748757e-001 -2.390574e-001 -1.318383e-001 -2.148191e-001 -2.171704e-001 -1.945955e-001 9.259951e-002 -7.806943e-002 2.008101e-002 2.674464e-002 1.317610e-003 6.363127e-004 2.130288e-002 -7.304458e-002 -8.716248e-002 -9.091856e-002 -7.436553e-002 4.804623e-002 1.343642e-002 -3.892753e-002 -3.590384e-002
<VARIANCE> 39
 1.768643e+001 1.121875e+001 1.282584e+001 1.868324e+001 1.565448e+001 2.347615e+001 2.680215e+001 2.659634e+001 2.726471e+001 2.327231e+001 5.237120e+001 2.069781e+001 1.654944e+002 2.190507e-001 3.798778e-001 7.592388e-001 1.259514e+000 1.471539e+000 1.711649e+000 1.786564e+000 2.474657e+000 2.789123e+000 2.252039e+000 2.214999e+000 1.958128e+000 5.412663e-002 5.530066e-002 9.973990e-002 1.492512e-001 2.887934e-001 2.937947e-001 4.057321e-001 3.772331e-001 4.669937e-001 5.804468e-001 5.283377e-001 4.943005e-001 4.084965e-001 2.176784e-002
<GCONST> 9.492355e+001
<STATE> 4
<NUMMIXES> 2
<MIXTURE> 1 3.047620e-001
<MEAN> 39
 -9.300015e+000 -8.436350e+000 -5.293577e+000 -1.301455e+001 -2.054673e+000 -1.135484e+001 -7.025342e+000 -4.242257e+000 -4.335113e+000 -2.531908e+000 -1.014306e+001 -4.149316e+000 6.112462e+001 6.919825e-001 1.237901e+000 7.994801e-001 2.194899e-001 -4.068131e-001 -7.273452e-001 -3.481179e-001 -1.294737e+000 1.553122e-002 7.957570e-001 1.887522e-001 -1.937734e-001 -6.167509e-001 3.639660e-001 2.946209e-001 1.550992e-001 2.333852e-001 -2.477433e-001 2.320199e-001 -2.375559e-001 -3.613843e-001 2.018855e-001 -2.432746e-001 1.387276e-001 6.708651e-002 1.093872e-001
<VARIANCE> 39
 3.881430e+001 3.700100e+001 2.506104e+001 5.222965e+001 2.088840e+001 3.293726e+001 4.816194e+001 4.814688e+001 4.248984e+001 4.366393e+001 1.255457e+002 4.983333e+001 2.871881e+002 4.135276e-001 1.189129e+000 1.135652e+000 1.254068e+000 1.704513e+000 2.274501e+000 2.284608e+000 5.472255e+000 3.805019e+000 4.214182e+000 2.124828e+000 1.805400e+000 6.446164e-001 2.816766e-001 5.101971e-001 2.871157e-001 3.517524e-001 2.891244e-001 3.611283e-001 4.480165e-001 6.590924e-001 7.383602e-001 5.881227e-001 5.233148e-001 3.777836e-001 1.197576e-001
<GCONST> 1.172494e+002
<MIXTURE> 2 6.952381e-001
<MEAN> 39
 -7.279840e+000 -1.511556e+001 -8.868674e+000 -1.414055e+001 1.255533e-001 -5.031935e+000 -9.610661e+000 -1.491526e+000 -7.445713e+000 -6.522782e+000 -1.917223e+001 -1.819753e+000 7.785413e+001 3.841750e-001 9.688274e-001 8.178217e-001 -5.006827e-001 3.135494e-001 -1.248652e+000 -4.174628e-001 -4.610013e-001 -8.409991e-001 8.234270e-001 -2.697254e-001 -8.392118e-001 -7.659829e-001 1.771397e-001 3.235213e-001 6.147756e-002 -2.902324e-002 -2.905414e-001 -2.769769e-001 -7.279721e-002 -2.642992e-001 3.197701e-001 4.260607e-001 7.830884e-002 -2.203649e-001 -2.111687e-001
<VARIANCE> 39
 6.056468e+000 1.258105e+001 1.174280e+001 1.550418e+001 3.025584e+001 3.283965e+001 2.580313e+001 3.213055e+001 3.046753e+001 2.186821e+001 2.156315e+001 3.353609e+001 8.815787e+000 2.217625e-001 6.078528e-001 3.609556e-001 6.691753e-001 1.201818e+000 1.592558e+000 1.057935e+000 1.698674e+000 1.735006e+000 1.546416e+000 1.385841e+000 1.488008e+000 2.144285e-001 2.223629e-002 5.225386e-002 5.312635e-002 1.879496e-001 2.309867e-001 2.609185e-001 1.652040e-001 3.153434e-001 2.669315e-001 2.329751e-001 2.167897e-001 2.449535e-001 1.312995e-002
<GCONST> 8.090603e+001
<TRANSP> 5
 0.000000e+000 1.000000e+000 0.000000e+000 0.000000e+000 0.000000e+000
 0.000000e+000 7.485291e-001 2.514710e-001 0.000000e+000 0.000000e+000
 0.000000e+000 0.000000e+000 9.120507e-001 8.794928e-002 0.000000e+000
 0.000000e+000 0.000000e+000 0.000000e+000 7.206735e-001 2.793265e-001
 0.000000e+000 0.000000e+000 0.000000e+000 0.000000e+000 0.000000e+000
<ENDHMM>
~h "c"
<BEGINHMM>
<NUMSTATES> 5
<STATE> 2
<NUMMIXES> 2
<MIXTURE> 1 4.215705e-001
<MEAN> 39
 -1.147587e+001 2.053082e+000 -2.301639e+000 -4.361107e+000 -6.262389e+000 -7.886672e+000 -4.742474e+000 -4.918080e+000 -7.526308e-001 -1.428381e+000 1.215056e+000 -5.759693e-001 5.332756e+001 -8.644959e-001 -8.971490e-001 -8.767222e-001 2.218019e-001 1.499498e+000 1.255989e+000 1.078164e+000 1.043253e+000 1.369843e-001 4.082636e-001 6.520191e-001 3.565458e-001 -3.330095e-001 2.769254e-001 -3.568802e-001 -4.434667e-001 -6.330918e-001 -4.945680e-002 -1.454382e-001 -1.952132e-001 -9.907050e-002 -1.913979e-001 1.577557e-001 -2.952786e-001 -6.906568e-002 6.996962e-001
<VARIANCE> 39
 3.721601e+001 5.904869e+001 2.658853e+001 5.257995e+001 6.161959e+001 5.442923e+001 4.859948e+001 3.964877e+001 2.948427e+001 3.339872e+001 3.574286e+001 3.469657e+001 9.087218e+001 1.707396e+000 2.726831e+000 3.692518e+000 3.810187e+000 3.866575e+000 3.967178e+000 3.325908e+000 3.240486e+000 3.611915e+000 3.542806e+000 3.755419e+000 2.666023e+000 2.139573e+000 3.143187e-001 5.370209e-001 7.047589e-001 7.086715e-001 7.294773e-001 7.784114e-001 7.070258e-001 6.902157e-001 6.540932e-001 6.839708e-001 7.233518e-001 5.335947e-001 4.504960e-001
<GCONST> 1.294146e+002
<MIXTURE> 2 5.784290e-001
<MEAN> 39
 -1.290493e+001 -2.402624e+000 -6.380531e+000 -1.125510e+001 -8.445811e+000 -1.111817e+001 -4.153864e+000 -7.455481e+000 -8.312872e-001 -4.335309e+000 1.198612e-001 -3.443728e+000 5.335494e+001 -3.403775e-001 -3.494270e-001 -2.799797e-001 2.140985e-002 1.875723e-001 -3.769466e-002 5.497615e-002 4.694146e-002 -5.055080e-002 2.664114e-001 2.475279e-001 -1.920542e-002 -4.171201e-001 2.511196e-001 -4.746836e-002 -8.297189e-002 -1.938445e-001 1.059101e-001 3.786557e-002 -1.109700e-001 7.525561e-002 -1.078048e-001 7.301896e-004 -7.609420e-002 2.788482e-002 2.790389e-001
<VARIANCE> 39
 5.971893e+001 9.304646e+001 3.954964e+001 4.240136e+001 6.838962e+001 6.752903e+001 8.124105e+001 6.897363e+001 5.765709e+001 5.203807e+001 5.955912e+001 7.317658e+001 1.295594e+002 2.161890e+000 2.123065e+000 2.733295e+000 3.444701e+000 4.038465e+000 3.890543e+000 4.261029e+000 4.437579e+000 4.539359e+000 4.635035e+000 4.038303e+000 4.030393e+000 2.265632e+000 3.421695e-001 4.411432e-001 6.111075e-001 7.760653e-001 8.211411e-001 8.856936e-001 9.693987e-001 9.349996e-001 1.006555e+000 9.666064e-001 7.630398e-001 8.234315e-001 4.494267e-001
<GCONST> 1.378128e+002
<STATE> 3
<NUMMIXES> 2
<MIXTURE> 1 5.182260e-001
<MEAN> 39
 -1.115573e+001 -4.906073e+000 -9.241592e+000 -9.557105e+000 2.841084e-001 -5.474946e+000 -2.183695e+000 -2.296192e+000 -2.486757e+000 -1.345938e+000 -1.028936e+000 -5.932589e-001 5.447539e+001 1.289901e+000 -5.828856e-001 -1.980107e+000 -1.934316e+000 1.177889e-001 -4.802220e-001 -4.557763e-001 7.564230e-001 -1.043690e+000 7.667367e-001 1.694801e-001 3.396136e-001 2.526729e+000 6.248220e-001 4.640506e-001 2.643403e-001 -4.016736e-001 -7.766044e-001 -6.284889e-001 -5.029563e-001 -3.495379e-001 -1.102927e-001 -5.725472e-002 -1.062204e-001 -1.154410e-001 7.326290e-001
<VARIANCE> 39
 3.836888e+001 5.589128e+001 5.929605e+001 8.290076e+001 8.075484e+001 7.655885e+001 5.412254e+001 7.041367e+001 6.328631e+001 7.036021e+001 3.873608e+001 3.224027e+001 1.183251e+002 4.284181e+000 7.658198e+000 9.713605e+000 8.166641e+000 1.047753e+001 1.193063e+001 7.773190e+000 6.831169e+000 6.525771e+000 5.605945e+000 4.567873e+000 4.523013e+000 6.910548e+000 5.100813e-001 8.654400e-001 1.277697e+000 1.142000e+000 1.402909e+000 1.236081e+000 1.188521e+000 1.157114e+000 1.131670e+000 8.906226e-001 7.638862e-001 6.431333e-001 1.042010e+000
<GCONST> 1.501211e+002
<MIXTURE> 2 4.817737e-001
<MEAN> 39
 -1.142657e+001 -4.073505e+000 -1.013881e+001 -9.780057e+000 -7.349892e-001 -5.215285e+000 -2.631819e+000 -3.058300e+000 -1.268702e+000 9.518507e-001 -4.741021e-002 -9.230494e-001 5.724658e+001 1.327488e+000 -3.639372e-001 -1.230794e+000 -2.047394e+000 -2.832211e-001 -8.363310e-001 -1.317039e+000 1.186016e-001 -1.204451e+000 1.139405e-001 -5.504540e-001 -1.381501e-001 2.159459e+000 7.137691e-001 4.757675e-001 4.486083e-001 -5.132297e-001 -8.340350e-001 -6.887043e-001 -6.310722e-001 -2.977924e-001 -2.884271e-001 -3.695081e-001 -3.447318e-001 -9.562163e-002 5.934350e-001
<VARIANCE> 39
 5.199243e+001 5.949974e+001 7.047614e+001 8.734788e+001 9.771262e+001 8.260562e+001 6.802115e+001 8.271906e+001 7.099267e+001 7.027541e+001 4.430186e+001 4.832449e+001 1.033867e+002 3.617142e+000 6.808728e+000 9.333970e+000 8.069820e+000 1.079687e+001 9.817336e+000 8.841673e+000 8.247185e+000 6.924237e+000 5.274565e+000 5.070125e+000 4.136359e+000 5.503075e+000 4.992497e-001 8.513607e-001 1.316282e+000 1.245021e+000 1.640647e+000 1.320878e+000 1.341219e+000 1.329799e+000 1.150347e+000 1.030021e+000 8.240994e-001 8.623066e-001 7.921553e-001
<GCONST> 1.523035e+002
<STATE> 4
<NUMMIXES> 2
<MIXTURE> 1 4.983546e-001
<MEAN> 39
 -4.034887e+000 -4.532168e+000 -1.101024e+001 -1.697746e+001 -3.709936e+000 -1.320935e+001 -7.939071e+000 -2.312708e+000 -5.647481e+000 -5.065871e-001 -2.329068e+000 -3.941980e+000 6.528260e+001 1.538030e+000 2.386083e-001 2.021472e-001 -1.271609e+000 -8.146254e-001 -1.453910e+000 -4.791524e-001 1.952035e-001 -1.788876e-001 -1.911945e-001 -4.302703e-001 4.339217e-001 2.764068e+000 -1.229448e-001 1.867840e-002 5.367731e-001 1.184534e-001 -2.588497e-001 3.243216e-001 3.506999e-001 -3.450880e-001 4.198325e-001 -2.350089e-001 5.350731e-003 2.499494e-001 -3.550110e-001
<VARIANCE> 39
 6.279595e+001 7.036365e+001 1.563077e+002 1.338651e+002 1.376037e+002 1.824021e+002 1.413643e+002 1.284357e+002 1.268138e+002 9.381985e+001 7.102927e+001 6.377325e+001 8.592033e+001 5.993585e+000 8.168756e+000 9.127792e+000 9.383187e+000 1.076421e+001 1.011466e+001 1.188285e+001 1.148996e+001 9.493145e+000 7.375343e+000 6.458591e+000 5.871634e+000 8.687657e+000 8.410205e-001 1.107068e+000 1.704648e+000 1.783238e+000 2.224419e+000 2.067892e+000 2.085794e+000 1.843013e+000 1.780583e+000 1.313065e+000 1.160930e+000 1.141356e+000 1.100790e+000
<GCONST> 1.653466e+002
<MIXTURE> 2 5.016456e-001
<MEAN> 39
 -5.519054e+000 -4.522611e+000 -1.035119e+001 -1.702694e+001 -4.757403e+000 -1.069430e+001 -6.956393e+000 -4.015616e+000 -5.501175e+000 -1.580958e-001 -1.526657e+000 -2.403325e+000 6.468607e+001 2.012678e+000 7.388971e-001 1.149745e-001 -2.030989e+000 -1.598687e+000 -1.102997e+000 -1.428353e+000 -6.823441e-001 -7.594718e-001 -6.297585e-001 -7.249256e-001 1.501135e-002 2.595584e+000 -7.640844e-003 6.463555e-002 4.643203e-001 9.431315e-002 -1.549904e-001 1.845560e-001 8.957881e-002 -1.639485e-001 2.849739e-001 -1.983248e-001 -9.861162e-002 6.273355e-003 -3.226341e-001
<VARIANCE> 39
 7.164872e+001 1.021830e+002 1.522257e+002 1.202640e+002 1.122691e+002 1.428492e+002 1.205007e+002 1.195305e+002 1.005496e+002 7.603294e+001 7.562651e+001 5.700643e+001 8.843261e+001 5.541414e+000 6.280221e+000 8.778814e+000 8.361722e+000 9.005187e+000 7.834855e+000 9.011122e+000 9.648477e+000 7.707502e+000 5.631919e+000 5.379113e+000 4.890057e+000 8.717896e+000 7.795451e-001 1.434577e+000 1.723698e+000 1.626256e+000 1.821091e+000 1.637916e+000 1.523971e+000 1.935894e+000 1.409358e+000 1.152950e+000 1.199991e+000 9.516934e-001 1.234776e+000
<GCONST> 1.613613e+002
<TRANSP> 5
 0.000000e+000 1.000000e+000 0.000000e+000 0.000000e+000 0.000000e+000
 0.000000e+000 7.789679e-001 2.210322e-001 0.000000e+000 0.000000e+000
 0.000000e+000 0.000000e+000 5.589753e-001 4.410248e-001 0.000000e+000
 0.000000e+000 0.000000e+000 0.000000e+000 5.721657e-001 4.278343e-001
 0.000000e+000 0.000000e+000 0.000000e+000 0.000000e+000 0.000000e+000
<ENDHMM>
~h "d"
<BEGINHMM>
<NUMSTATES> 5
<STATE> 2
<NUMMIXES> 2
<MIXTURE> 1 4.813093e-001
<MEAN> 39
 -1.171276e+001 -4.536752e+000 -2.329534e+000 -1.072838e+001 -7.924850e+000 -1.277702e+001 -4.109296e+000 -5.326511e+000 -1.151617e+000 -2.404760e+000 -3.887120e+000 -1.931341e+000 5.533573e+001 7.405248e-001 1.242081e+000 3.863739e-001 1.167005e+000 -1.085281e-001 1.103631e-001 -2.136772e-001 -4.634070e-001 -4.901646e-001 -4.296024e-001 5.696526e-001 4.184252e-001 -5.804850e-001 6.014816e-001 5.274691e-001 2.477017e-001 -8.779058e-002 -2.457730e-001 -2.067983e-001 -2.099701e-001 -1.648655e-001 -8.696584e-002 -2.211644e-001 -1.099749e-001 -2.113800e-002 3.259496e-001
<VARIANCE> 39
 5.418987e+001 3.668192e+001 2.460337e+001 6.767706e+001 1.144611e+002 6.711458e+001 3.279893e+001 4.829082e+001 3.527100e+001 4.554986e+001 3.765467e+001 2.458920e+001 3.121136e+002 3.634138e+000 4.443397e+000 3.072327e+000 3.055758e+000 4.145234e+000 4.310998e+000 3.075989e+000 2.797311e+000 2.700990e+000 4.029150e+000 3.001769e+000 2.898279e+000 3.859307e+000 7.037690e-001 9.065143e-001 2.492117e-001 3.785793e-001 1.070253e+000 9.241421e-001 4.936707e-001 6.962915e-001 4.091915e-001 6.378578e-001 5.967209e-001 6.163523e-001 6.639630e-001
<GCONST> 1.322755e+002
<MIXTURE> 2 5.186906e-001
<MEAN> 39
 -1.287731e+001 -4.456090e+000 -2.967504e+000 -9.121451e+000 -4.550624e+000 -1.181153e+001 -6.178235e+000 -6.875029e+000 -2.136254e+000 -3.423145e+000 -2.344589e+000 -1.974915e+000 5.279849e+001 1.156918e+000 1.373346e+000 3.185384e-001 2.300891e-001 -7.128004e-001 -9.652599e-001 -1.153999e+000 -9.142281e-001 -1.089582e+000 -6.760864e-001 -7.411380e-001 -6.385360e-001 -2.978240e-002 4.598128e-001 5.262783e-001 2.674641e-001 -1.815512e-001 -3.113247e-001 -2.771748e-001 -2.900922e-001 -2.053438e-002 -8.767198e-002 -1.509461e-001 -3.397029e-001 -2.290958e-001 2.309734e-001
<VARIANCE> 39
 3.651606e+001 5.264648e+001 3.974659e+001 1.048720e+002 9.907721e+001 6.381821e+001 7.729906e+001 4.751683e+001 4.390049e+001 4.919415e+001 2.968763e+001 2.753755e+001 2.493014e+002 3.585518e+000 5.106605e+000 3.162237e+000 5.396985e+000 5.944290e+000 4.715849e+000 4.893699e+000 5.941626e+000 4.408933e+000 5.706983e+000 1.731939e+000 2.252598e+000 2.413102e+000 4.546958e-001 7.993784e-001 4.652918e-001 6.470129e-001 9.439040e-001 9.701561e-001 9.901283e-001 8.744715e-001 7.390655e-001 9.721089e-001 4.596342e-001 5.165973e-001 2.566366e-001
<GCONST> 1.367794e+002
<STATE> 3
<NUMMIXES> 2
<MIXTURE> 1 5.638718e-001
<MEAN> 39
 -2.435505e+000 6.707436e+000 6.264206e-001 -7.595277e+000 -1.308975e+001 -1.327438e+001 -7.052797e+000 -7.021725e+000 -4.372129e+000 -7.949302e+000 -5.212223e+000 -2.598495e+000 5.500766e+001 9.381194e-002 6.259823e-001 2.720012e-001 5.859421e-001 4.941958e-001 4.582172e-001 3.070482e-001 -3.098574e-003 1.796958e-001 -4.239437e-002 -4.154541e-002 -3.132747e-001 -4.642628e-001 -3.064889e-001 -3.925430e-001 -4.057980e-002 -1.795210e-001 5.036630e-002 7.091317e-002 2.757858e-002 9.743185e-002 9.710667e-002 3.154063e-001 5.925591e-002 4.834226e-002 3.295740e-001
<VARIANCE> 39
 3.594547e+001 4.328093e+001 2.679319e+001 5.153544e+001 4.556536e+001 4.365239e+001 5.774364e+001 4.700871e+001 2.528260e+001 3.557940e+001 3.087885e+001 2.871205e+001 1.484316e+002 2.519418e+000 3.165895e+000 2.006620e+000 2.528724e+000 4.147010e+000 3.682066e+000 3.596342e+000 3.438465e+000 1.945895e+000 3.212768e+000 3.117108e+000 3.199974e+000 4.053487e+000 2.268774e-001 3.292739e-001 2.731369e-001 5.797443e-001 7.044911e-001 7.491149e-001 7.266640e-001 7.023531e-001 4.588954e-001 6.979946e-001 5.662336e-001 6.989323e-001 4.942339e-001
<GCONST> 1.263033e+002
<MIXTURE> 2 4.361277e-001
<MEAN> 39
 -4.025269e+000 6.051188e+000 1.976707e+000 -5.970230e+000 -1.098660e+001 -1.394498e+001 -9.873805e+000 -1.043357e+001 -5.762988e+000 -7.886531e+000 -3.862589e+000 -4.553453e+000 5.098920e+001 2.213778e+000 2.899356e+000 6.722755e-001 -5.412868e-001 -1.916808e+000 -1.658571e+000 -8.698320e-001 -6.168659e-001 -7.056416e-001 -7.492594e-001 -1.090789e+000 -1.016017e+000 1.099632e+000 -4.359149e-001 -5.956150e-001 -4.592240e-001 -3.490158e-001 1.690653e-001 2.736833e-001 6.056634e-001 3.475331e-001 3.327578e-001 3.006497e-001 5.219548e-002 7.355387e-002 2.180286e-001
<VARIANCE> 39
 3.671085e+001 5.397482e+001 3.360126e+001 3.154091e+001 5.855761e+001 4.071156e+001 4.476155e+001 3.673145e+001 3.403013e+001 4.949579e+001 2.908421e+001 2.705248e+001 1.161324e+002 7.199891e+000 8.453683e+000 3.388060e+000 3.983623e+000 7.170187e+000 5.051655e+000 5.779072e+000 5.324324e+000 3.367634e+000 4.771645e+000 3.649330e+000 3.556765e+000 4.838805e+000 4.834778e-001 6.533577e-001 5.288814e-001 5.500194e-001 8.780186e-001 7.611156e-001 8.722895e-001 8.424034e-001 7.805184e-001 7.778983e-001 5.170997e-001 5.653978e-001 3.730816e-001
<GCONST> 1.350992e+002
<STATE> 4
<NUMMIXES> 2
<MIXTURE> 1 4.565245e-001
<MEAN> 39
 7.341624e-003 6.948961e+000 2.174320e+000 -1.459896e+001 -1.056242e+001 -1.487978e+001 -4.491711e+000 -1.192016e+001 -4.130154e+000 -4.965501e+000 -6.867111e+000 -5.813885e+000 6.171985e+001 -4.895826e-001 -4.025101e-001 1.126686e-001 -8.489994e-001 4.908161e-001 -3.514387e-001 -1.114579e-001 6.787279e-001 2.452108e-001 2.913560e-001 2.007606e-001 4.159552e-001 1.233241e+000 -1.685624e-001 -4.936765e-001 5.804311e-002 -1.930328e-001 -7.648952e-002 -9.833806e-002 -1.273484e-001 3.669691e-002 4.222967e-002 3.652537e-001 1.733622e-001 1.554666e-001 3.285007e-001
<VARIANCE> 39
 7.493372e+001 6.674223e+001 1.539819e+002 1.322346e+002 8.359245e+001 7.438613e+001 1.025166e+002 1.074809e+002 7.023074e+001 8.649542e+001 7.820924e+001 6.602414e+001 1.041582e+002 5.205132e+000 5.795747e+000 6.024484e+000 8.863125e+000 8.252159e+000 8.270068e+000 1.045533e+001 8.023633e+000 4.820002e+000 6.617863e+000 6.040729e+000 7.076204e+000 6.603273e+000 9.784088e-001 1.092672e+000 1.247289e+000 1.462090e+000 1.732196e+000 1.486817e+000 1.954465e+000 1.250778e+000 9.686809e-001 1.228136e+000 1.097790e+000 1.162303e+000 1.154220e+000
<GCONST> 1.582767e+002
<MIXTURE> 2 5.434743e-001
<MEAN> 39
 -7.759052e-001 2.364744e+000 2.521390e+000 -1.346021e+001 -1.201616e+001 -1.600821e+001 -4.878531e+000 -1.229449e+001 -5.012694e+000 -1.335199e+000 -5.611000e+000 -7.585835e+000 6.184909e+001 3.205862e-001 -6.619360e-002 -1.985490e-001 -3.299782e-001 -2.767610e-001 -1.955996e-002 2.081900e-001 -4.335504e-001 -3.456585e-001 1.020505e-001 -5.263293e-002 -1.507712e-001 7.273675e-001 -6.376124e-002 -9.045863e-002 -5.332457e-002 -9.649470e-002 4.215234e-002 1.620652e-001 -7.565174e-002 -1.193695e-001 5.171112e-002 -3.749721e-002 -5.296884e-003 1.393840e-001 5.268614e-002
<VARIANCE> 39
 8.606892e+001 7.198668e+001 1.177254e+002 1.598087e+002 9.052455e+001 9.921230e+001 1.023244e+002 1.319715e+002 7.898800e+001 1.036108e+002 5.845620e+001 9.019671e+001 1.554361e+002 4.340502e+000 5.340895e+000 6.083436e+000 5.806769e+000 5.436206e+000 6.036856e+000 7.346574e+000 6.772092e+000 5.190889e+000 5.697887e+000 3.722654e+000 4.646245e+000 4.907662e+000 7.573611e-001 1.120718e+000 9.136783e-001 1.131328e+000 1.269000e+000 1.357098e+000 1.252952e+000 1.226202e+000 9.257845e-001 1.061278e+000 7.582964e-001 8.772213e-001 7.688590e-001
<GCONST> 1.535795e+002
<TRANSP> 5
 0.000000e+000 1.000000e+000 0.000000e+000 0.000000e+000 0.000000e+000
 0.000000e+000 6.355795e-001 3.644205e-001 0.000000e+000 0.000000e+000
 0.000000e+000 0.000000e+000 6.957860e-001 3.042140e-001 0.000000e+000
 0.000000e+000 0.000000e+000 0.000000e+000 8.637125e-001 1.362875e-001
 0.000000e+000 0.000000e+000 0.000000e+000 0.000000e+000 0.000000e+000
<ENDHMM>
~h "e"
<BEGINHMM>
<NUMSTATES> 5
<STATE> 2
<NUMMIXES> 2
<MIXTURE> 1 4.810950e-001
<MEAN> 39
 -6.850166e+000 -8.007137e-001 9.245120e-001 -1.223802e+001 -1.406189e+001 -1.573179e+001 -6.275789e+000 -5.125304e+000 -2.339734e+000 -4.210731e+000 -1.417693e-001 -2.812375e+000 6.681351e+001 1.230317e+000 -8.623588e-001 1.753382e+000 -2.587476e+000 -3.310073e+000 -1.035797e+000 1.270715e-001 -1.583333e-001 3.053412e-003 1.339299e+000 4.519791e-001 1.105260e+000 3.313437e+000 -8.527697e-002 -1.750271e-001 1.843909e-001 -5.064572e-001 -8.465837e-002 2.917172e-001 2.005348e-001 -2.614627e-001 1.172421e-001 3.966235e-001 -3.829948e-001 1.798928e-001 4.944653e-002
<VARIANCE> 39
 6.582055e+001 6.678381e+001 6.444296e+001 9.554610e+001 8.653928e+001 1.230838e+002 6.894601e+001 7.510317e+001 4.757685e+001 4.971436e+001 6.686414e+001 5.188894e+001 1.439438e+002 8.699385e+000 1.009803e+001 8.562830e+000 9.452628e+000 9.479946e+000 9.936078e+000 7.594147e+000 8.523865e+000 6.809434e+000 7.381624e+000 5.698522e+000 5.183223e+000 1.008355e+001 1.029721e+000 1.194825e+000 9.234175e-001 1.348687e+000 1.391486e+000 1.283390e+000 9.919785e-001 1.271751e+000 9.525393e-001 8.953092e-001 9.722484e-001 8.446597e-001 1.249776e+000
<GCONST> 1.558110e+002
<MIXTURE> 2 5.189052e-001
<MEAN> 39
 -6.367959e+000 -6.002730e-001 2.149495e+000 -1.462842e+001 -1.593902e+001 -1.563922e+001 -7.206847e+000 -6.719831e+000 -2.609641e+000 -4.374039e+000 -2.277248e+000 -2.807838e+000 7.085532e+001 1.772797e+000 -5.254449e-001 1.361042e+000 -2.201245e+000 -3.300684e+000 -9.619430e-001 -9.322532e-002 -5.928412e-001 -6.615447e-001 5.380217e-001 -1.753253e-001 4.530796e-001 2.473062e+000 -2.580360e-001 -2.601363e-001 -8.608963e-002 -1.360841e-001 1.769153e-001 4.673625e-001 2.457764e-001 -6.453812e-002 9.018613e-002 4.485031e-001 -1.873636e-001 1.127763e-001 -1.933357e-001
<VARIANCE> 39
 5.697333e+001 6.691099e+001 5.256266e+001 8.180878e+001 6.052448e+001 6.116797e+001 6.717977e+001 7.896648e+001 5.098251e+001 4.848049e+001 5.440706e+001 4.213863e+001 6.465886e+001 9.059700e+000 5.552846e+000 6.230019e+000 7.073178e+000 7.448276e+000 8.026931e+000 9.572632e+000 6.305486e+000 6.143475e+000 7.661352e+000 4.819123e+000 4.485342e+000 6.502180e+000 9.394356e-001 9.827687e-001 5.513560e-001 8.121907e-001 1.061527e+000 1.070904e+000 1.034992e+000 1.368044e+000 8.374413e-001 8.938852e-001 9.056699e-001 7.580398e-001 5.634486e-001
<GCONST> 1.478473e+002
<STATE> 3
<NUMMIXES> 2
<MIXTURE> 1 5.408822e-001
<MEAN> 39
 -3.568286e+000 -5.268452e+000 7.027341e+000 -2.094646e+001 -2.129899e+001 -1.784435e+001 -5.817704e+000 -5.295376e+000 -3.969529e+000 1.485606e+000 -3.106464e+000 -6.237806e-001 7.685376e+001 2.062229e-001 -1.052166e+000 1.243897e+000 -1.927811e+000 -1.101843e+000 3.660063e-001 7.209251e-001 -4.621989e-001 6.275297e-002 1.943426e+000 -7.484087e-001 7.886165e-001 1.108277e+000 -4.547501e-001 4.886944e-001 -5.478776e-001 7.140167e-001 1.005441e+000 6.184748e-001 1.098025e-001 -1.578844e-001 2.585123e-001 -3.326015e-001 -7.107101e-002 -2.362098e-001 -8.774157e-001
<VARIANCE> 39
 3.288193e+001 4.488068e+001 6.121812e+001 1.133534e+002 6.094884e+001 6.519259e+001 6.001612e+001 7.615470e+001 5.397852e+001 6.682001e+001 5.462712e+001 4.666668e+001 1.526770e+001 3.092946e+000 3.466882e+000 4.184600e+000 6.687311e+000 6.239876e+000 5.750431e+000 5.937407e+000 5.775770e+000 3.880775e+000 6.839096e+000 4.284563e+000 3.677078e+000 3.448557e+000 6.985502e-001 7.341394e-001 6.953456e-001 8.272531e-001 9.004239e-001 9.144698e-001 9.387898e-001 9.946861e-001 7.431446e-001 1.203347e+000 7.456604e-001 7.181838e-001 4.733512e-001
<GCONST> 1.404189e+002
<MIXTURE> 2 4.591188e-001
<MEAN> 39
 -4.229513e+000 -2.711633e+000 4.962966e+000 -2.105421e+001 -2.311566e+001 -1.431646e+001 -6.030891e+000 -8.367265e+000 -2.238311e+000 -1.852016e+000 -2.978921e+000 -2.029462e-001 7.430813e+001 4.058145e-002 -6.613662e-001 7.317055e-001 -1.743221e+000 -1.415349e+000 9.260004e-001 7.509101e-001 -9.555348e-001 -4.196933e-001 1.036396e+000 -6.335929e-001 9.003912e-002 1.528678e+000 -5.197709e-001 2.330325e-001 -4.943554e-001 7.573357e-001 1.249283e+000 3.785815e-001 2.189054e-002 2.662633e-002 3.762941e-002 -8.515694e-002 -1.565516e-001 -3.606963e-001 -9.356059e-001
<VARIANCE> 39
 3.598634e+001 7.312144e+001 6.138694e+001 1.016876e+002 5.862274e+001 6.863147e+001 7.022964e+001 9.308471e+001 7.790353e+001 6.115844e+001 5.251408e+001 4.327560e+001 4.671578e+001 3.484843e+000 3.656671e+000 4.506442e+000 7.527252e+000 6.767104e+000 5.963607e+000 5.953233e+000 5.366857e+000 4.747732e+000 6.284245e+000 4.235258e+000 4.344425e+000 4.915057e+000 7.307817e-001 1.000617e+000 7.574715e-001 9.748648e-001 1.107797e+000 1.128953e+000 1.320515e+000 1.189556e+000 1.072758e+000 1.051144e+000 8.510676e-001 6.981552e-001 6.761265e-001
<GCONST> 1.458169e+002
<STATE> 4
<NUMMIXES> 2
<MIXTURE> 1 4.906124e-001
<MEAN> 39
 -3.902257e+000 -3.584123e+000 8.740449e+000 -2.535088e+001 -1.988901e+001 -1.377034e+001 -3.922167e+000 -1.011787e+001 -2.702104e+000 4.011694e+000 -6.605951e+000 -2.829261e-001 7.571627e+001 1.143964e-001 6.907526e-001 -3.932489e-001 7.835066e-001 5.253365e-001 3.985332e-001 1.234286e-001 -3.748892e-001 1.676424e-001 -5.916405e-001 2.171852e-001 -1.174270e-001 -8.290886e-001 -1.760649e-003 1.604456e-001 -2.603356e-001 4.600075e-001 1.827120e-001 2.697699e-002 -8.847136e-002 1.490011e-001 8.686824e-003 -3.636448e-001 2.449647e-001 -1.139652e-001 -3.019150e-001
<VARIANCE> 39
 3.641916e+001 5.281986e+001 5.380791e+001 1.304850e+002 6.341155e+001 8.952982e+001 6.469032e+001 8.026987e+001 7.215617e+001 6.932610e+001 5.407404e+001 4.698941e+001 2.952396e+001 1.127382e+000 2.101517e+000 2.056140e+000 4.451828e+000 3.325689e+000 3.446680e+000 2.914698e+000 3.577701e+000 2.828453e+000 3.822626e+000 2.953348e+000 2.538142e+000 2.184688e+000 2.338034e-001 3.005391e-001 3.213968e-001 6.271600e-001 5.689994e-001 6.378092e-001 6.544980e-001 6.438072e-001 5.228853e-001 7.383338e-001 5.683716e-001 4.786733e-001 2.356624e-001
<GCONST> 1.282413e+002
<MIXTURE> 2 5.093840e-001
<MEAN> 39
 -5.313200e+000 -2.758727e+000 5.273998e+000 -2.148003e+001 -2.158510e+001 -1.039919e+001 -4.711388e+000 -1.122073e+001 -2.501612e+000 -3.515949e-001 -4.353826e+000 -1.184809e+000 7.372745e+001 -6.592312e-002 4.473870e-001 -5.187851e-001 9.791580e-001 5.445282e-001 7.714894e-002 -8.928750e-002 -9.443135e-002 -3.324908e-001 -6.713867e-001 3.846482e-003 -5.204394e-001 -7.564348e-001 -4.866484e-002 8.875430e-002 -1.434891e-001 3.209234e-001 3.416837e-001 -2.707315e-001 -1.033390e-001 1.564094e-001 1.818021e-002 -1.358256e-001 2.935719e-002 -7.710190e-002 -2.293934e-001
<VARIANCE> 39
 4.744936e+001 6.478658e+001 5.352679e+001 1.126757e+002 7.019335e+001 1.032040e+002 6.341257e+001 8.940636e+001 8.383157e+001 7.145240e+001 4.675993e+001 4.695297e+001 5.470748e+001 1.140192e+000 1.983325e+000 2.172213e+000 4.010692e+000 3.785700e+000 3.905023e+000 3.318734e+000 3.905901e+000 3.697098e+000 3.694384e+000 3.299025e+000 2.668246e+000 1.411970e+000 1.986008e-001 2.938556e-001 3.076542e-001 5.871213e-001 6.206668e-001 7.266276e-001 6.983280e-001 6.548950e-001 6.529300e-001 6.828364e-001 5.860109e-001 5.054771e-001 2.141431e-001
<GCONST> 1.300115e+002
<TRANSP> 5
 0.000000e+000 1.000000e+000 0.000000e+000 0.000000e+000 0.000000e+000
 0.000000e+000 3.154019e-001 6.845981e-001 0.000000e+000 0.000000e+000
 0.000000e+000 0.000000e+000 4.915463e-001 5.084537e-001 0.000000e+000
 0.000000e+000 0.000000e+000 0.000000e+000 8.326403e-001 1.673597e-001
 0.000000e+000 0.000000e+000 0.000000e+000 0.000000e+000 0.000000e+000
<ENDHMM>
~h "f"
<BEGINHMM>
<NUMSTATES> 5
<STATE> 2
<NUMMIXES> 2
<MIXTURE> 1 4.119475e-001
<MEAN> 39
 -1.547061e+001 -9.043938e+000 -5.272961e+000 -7.209567e+000 -1.768076e+000 -8.531007e+000 -1.802556e+000 -6.416438e+000 1.033455e-001 -5.292910e+000 -1.829157e+000 -3.922368e+000 4.239624e+001 1.737312e-001 2.885222e-001 2.724983e-001 4.009056e-001 5.302234e-001 3.285797e-001 3.413155e-001 2.108735e-001 5.078289e-002 -9.150325e-002 -1.532184e-001 -1.537715e-001 9.999778e-002 -7.016857e-003 -6.293812e-003 -4.087571e-002 -7.189976e-002 -5.776202e-002 1.327682e-002 1.910471e-001 1.238521e-001 3.376926e-002 1.113590e-001 1.621931e-001 2.919204e-002 -1.291862e-002
<VARIANCE> 39
 6.755265e+000 7.846931e+000 1.174338e+001 2.075014e+001 2.014031e+001 1.596347e+001 2.305654e+001 2.377866e+001 2.634847e+001 2.882598e+001 2.490921e+001 1.948031e+001 3.842469e+001 5.703354e-001 6.710457e-001 1.035124e+000 1.720149e+000 2.023749e+000 2.179886e+000 2.258951e+000 2.832947e+000 2.810838e+000 2.513040e+000 2.129333e+000 1.941879e+000 1.198087e-001 1.121562e-001 1.802441e-001 2.110995e-001 4.028054e-001 4.438693e-001 3.333997e-001 4.100882e-001 5.943522e-001 5.182823e-001 4.453178e-001 5.140494e-001 4.030678e-001 3.679998e-002
<GCONST> 9.786791e+001
<MIXTURE> 2 5.880504e-001
<MEAN> 39
 -1.598975e+001 -9.685105e+000 -5.622216e+000 -8.538527e+000 -2.551109e+000 -7.973290e+000 4.853427e-001 -5.291397e+000 -2.177779e-001 -5.753888e+000 -8.084866e-001 -3.215518e+000 4.057113e+001 -1.438541e-001 -1.860652e-001 -1.852939e-001 -2.275893e-001 -3.609823e-001 -2.780473e-001 -2.234876e-001 -1.553526e-001 -5.233929e-002 7.205821e-002 1.636214e-001 1.604974e-001 -1.040019e-001 2.284588e-002 2.028814e-002 7.148337e-003 4.600653e-003 3.240976e-002 -1.732265e-002 -1.316681e-001 -9.020559e-002 -1.281014e-002 -6.820365e-002 -8.640153e-002 -2.598538e-002 8.814052e-003
<VARIANCE> 39
 2.951455e+000 4.846563e+000 1.238845e+001 1.730282e+001 1.698115e+001 2.349789e+001 2.261191e+001 2.563786e+001 2.813526e+001 2.844466e+001 2.554300e+001 1.935640e+001 3.260063e+000 3.833300e-001 6.591035e-001 1.093076e+000 1.919077e+000 1.615945e+000 1.711993e+000 2.429618e+000 2.899726e+000 3.066012e+000 2.294096e+000 3.160790e+000 2.107217e+000 1.056287e-001 8.630984e-002 1.389585e-001 2.387328e-001 3.673953e-001 3.645612e-001 4.662077e-001 5.582279e-001 6.000138e-001 6.395055e-001 4.912149e-001 5.950473e-001 4.697504e-001 2.378912e-002
<GCONST> 9.416698e+001
<STATE> 3
<NUMMIXES> 2
<MIXTURE> 1 5.497826e-001
<MEAN> 39
 -1.786505e+001 3.375448e+000 -1.222013e+000 3.483491e+000 -6.467987e+000 -6.136494e+000 -6.215801e+000 -5.521217e+000 -5.760105e+000 -5.049330e+000 -4.851426e+000 -5.241267e+000 6.772614e+001 -1.154584e+000 8.781961e-001 1.261677e+000 6.115110e-001 1.064458e+000 5.268717e-001 5.231494e-001 -1.933140e-001 8.729745e-001 1.322289e+000 8.404928e-001 2.681946e-002 -1.256668e+000 1.846093e-001 -3.157383e-001 -2.511232e-001 2.547058e-002 -2.488296e-001 1.874112e-001 -1.931740e-001 1.950157e-001 -7.067327e-002 9.725020e-002 -1.249920e-001 1.768021e-001 9.842696e-002
<VARIANCE> 39
 3.754480e+001 1.447111e+001 1.839307e+001 1.769576e+001 3.573553e+001 3.112663e+001 1.375315e+001 2.326777e+001 7.665447e+001 5.185799e+001 3.989450e+001 3.818633e+001 2.930592e+001 1.627700e+000 1.689198e+000 1.020143e+000 1.224209e+000 1.163416e+000 1.809947e+000 2.375583e+000 2.526454e+000 2.864297e+000 4.907388e+000 2.413964e+000 2.012580e+000 7.180004e-001 3.107313e-001 2.993072e-001 1.245985e-001 2.886556e-001 3.114397e-001 2.571234e-001 5.664422e-001 3.673173e-001 6.179408e-001 1.237000e+000 4.108406e-001 2.990639e-001 2.097849e-001
<GCONST> 1.094780e+002
<MIXTURE> 2 4.502177e-001
<MEAN> 39
 -1.412147e+001 -3.554772e+000 -6.042167e+000 -2.485442e+000 -1.064873e+001 -3.546315e+000 -6.077541e+000 -6.130269e+000 -9.288108e+000 -2.369277e+000 -8.768698e+000 -5.171458e+000 6.602247e+001 -1.100419e+000 3.594497e-001 2.431742e-001 7.691330e-001 1.593821e-001 6.071340e-001 1.233768e+000 -2.754988e-002 -8.081900e-001 -7.295502e-001 1.813331e-001 -4.721679e-001 -1.861284e-001 2.581450e-001 1.195761e-001 7.011104e-002 -1.736887e-001 -1.517827e-001 -3.170165e-001 -1.340514e-001 2.287814e-001 3.588373e-001 4.103633e-002 -8.145235e-002 -1.155162e-001 1.722009e-001
<VARIANCE> 39
 6.634611e+001 3.284662e+001 2.932143e+001 5.894394e+001 5.822713e+001 7.135180e+001 4.378727e+001 2.685834e+001 8.118414e+001 4.701940e+001 4.870092e+001 1.946202e+001 2.032555e+002 2.303007e+000 2.261417e+000 1.674494e+000 1.997324e+000 9.590871e-001 5.260944e+000 2.231445e+000 2.691092e+000 3.087241e+000 4.112011e+000 2.992233e+000 2.006131e+000 5.570830e-001 5.332241e-001 3.109422e-001 3.631129e-001 5.281329e-001 4.729208e-001 8.831785e-001 4.200779e-001 7.878922e-001 9.982000e-001 1.032312e+000 7.933300e-001 3.834568e-001 3.098168e-001
<GCONST> 1.248947e+002
<STATE> 4
<NUMMIXES> 2
<MIXTURE> 1 5.076177e-001
<MEAN> 39
 -6.343854e+000 -1.926729e+000 -9.996279e+000 -1.342516e+001 -5.641017e+000 -8.977072e+000 -1.246322e+001 -6.028896e+000 -8.880443e-001 -5.489016e+000 5.059628e-001 -3.704665e+000 6.571098e+001 -6.068090e-002 1.876932e-001 2.916345e-001 -1.409907e-002 3.389533e-001 2.099262e-001 8.382529e-002 9.558803e-001 9.056921e-002 3.005404e-001 -2.079989e-001 2.302425e-001 4.793147e-001 1.265086e-001 4.779803e-002 1.493423e-001 -2.706704e-002 -1.070237e-001 -4.179318e-001 -8.134519e-002 1.441680e-001 -4.951863e-002 3.022700e-001 -9.018628e-002 -5.949841e-002 3.249470e-001
<VARIANCE> 39
 1.912642e+002 3.885898e+001 2.868708e+001 7.585973e+001 4.218734e+001 8.300765e+001 1.450537e+002 6.489854e+001 5.375950e+001 3.898549e+001 2.249140e+001 4.177694e+001 1.548341e+002 6.741664e+000 4.606209e+000 3.528752e+000 4.784609e+000 3.905805e+000 5.927208e+000 4.542278e+000 4.644931e+000 5.186759e+000 5.708269e+000 2.488603e+000 3.628279e+000 3.000105e+000 1.000373e+000 5.944390e-001 5.628145e-001 7.220384e-001 7.132599e-001 7.929493e-001 9.866701e-001 1.137317e+000 1.063102e+000 9.674216e-001 5.274873e-001 7.042196e-001 7.376166e-001
<GCONST> 1.411216e+002
<MIXTURE> 2 4.923822e-001
<MEAN> 39
 -1.027881e+001 -3.200364e+000 -9.232356e+000 -7.698252e+000 -5.034365e+000 -1.730799e+001 -1.069840e+001 -2.247875e+000 -1.239791e+000 -2.006418e+000 -5.486224e-001 -6.416527e+000 6.787585e+001 1.123060e+000 -1.517768e-002 -5.875840e-001 -7.815939e-001 -1.345394e+000 -4.347058e-001 -3.778831e-001 6.152178e-002 -4.475748e-001 -4.642293e-001 -4.280788e-001 -4.783802e-002 1.557292e+000 2.579023e-001 2.133650e-002 2.732777e-002 -2.252917e-001 -1.384507e-001 2.326133e-001 -2.155529e-001 -3.999454e-001 7.535390e-002 -2.426526e-001 -2.050498e-001 5.900407e-002 2.123800e-002
<VARIANCE> 39
 1.004205e+002 2.289118e+001 3.950705e+001 7.248899e+001 3.339464e+001 1.105294e+002 6.745504e+001 4.869557e+001 4.681020e+001 1.964834e+001 3.241574e+001 2.697908e+001 1.145950e+002 9.038653e+000 1.988523e+000 6.270381e+000 3.028796e+000 2.990919e+000 7.669724e+000 6.250970e+000 7.898767e+000 7.687380e+000 2.885210e+000 4.141507e+000 3.391220e+000 8.481535e+000 1.070247e+000 5.655253e-001 8.396851e-001 7.152255e-001 5.863767e-001 1.343942e+000 7.393081e-001 1.116041e+000 1.230991e+000 7.225167e-001 9.415697e-001 7.155330e-001 7.538059e-001
<GCONST> 1.405345e+002
<TRANSP> 5
 0.000000e+000 1.000000e+000 0.000000e+000 0.000000e+000 0.000000e+000
 0.000000e+000 9.725460e-001 2.745398e-002 0.000000e+000 0.000000e+000
 0.000000e+000 0.000000e+000 8.126541e-001 1.873459e-001 0.000000e+000
 0.000000e+000 0.000000e+000 0.000000e+000 8.980041e-001 1.019960e-001
 0.000000e+000 0.000000e+000 0.000000e+000 0.000000e+000 0.000000e+000
<ENDHMM>
~h "g"
<BEGINHMM>
<NUMSTATES> 5
<STATE> 2
<NUMMIXES> 2
<MIXTURE> 1 5.548907e-001
<MEAN> 39
 -7.529737e+000 -4.090130e+000 -3.003619e+000 -9.732873e+000 -3.942290e+000 -1.107134e+001 -8.087046e+000 -1.177864e+001 -8.609854e-001 -2.672193e+000 -1.645320e+000 -4.850110e+000 5.583116e+001 9.134219e-001 2.798224e-001 -9.126464e-001 6.446305e-002 4.752277e-001 -3.123298e-001 -8.304520e-001 8.779490e-001 6.947931e-001 -3.984722e-001 -1.344080e-001 -1.912941e-001 7.917069e-001 4.244030e-001 2.487040e-001 -2.785032e-001 -6.391276e-001 -5.342781e-001 -4.730303e-001 1.681080e-001 6.582845e-001 -3.615854e-002 -2.742106e-001 -6.963825e-002 7.326861e-003 6.662977e-001
<VARIANCE> 39
 1.190006e+002 1.045936e+002 4.918996e+001 3.880328e+001 4.386424e+001 3.353803e+001 4.474648e+001 9.670798e+001 3.902716e+001 6.285176e+001 3.255661e+001 2.475676e+001 1.422803e+002 3.539708e+000 7.690450e+000 5.891105e+000 4.430542e+000 6.776239e+000 8.004089e+000 7.466432e+000 1.351143e+001 5.840694e+000 4.068727e+000 3.253882e+000 3.352002e+000 3.793365e+000 4.457506e-001 1.403884e+000 6.944399e-001 5.320117e-001 1.053550e+000 1.504051e+000 1.540566e+000 1.828952e+000 5.895095e-001 6.616101e-001 7.458994e-001 5.919797e-001 5.501389e-001
<GCONST> 1.435213e+002
<MIXTURE> 2 4.451092e-001
<MEAN> 39
 -3.633062e+000 -1.120492e+000 -4.649509e+000 -1.125908e+001 -6.637559e+000 -1.762759e+001 -9.089218e+000 -3.946744e+000 1.149739e+000 -7.885626e+000 -3.523116e+000 -4.448202e+000 6.132804e+001 1.751715e+000 5.677830e-001 -6.122805e-001 -2.439141e+000 -1.904603e+000 -2.730103e+000 -1.417001e-001 9.565121e-001 4.105620e-001 -7.494130e-001 -1.301055e+000 -4.181444e-001 2.866445e+000 -1.726905e-001 -4.779872e-001 -9.311290e-002 -6.596321e-001 -1.788921e-001 7.455969e-001 5.462450e-001 -6.900317e-001 -2.406006e-001 4.029292e-001 -3.233466e-001 -2.021964e-001 -2.256456e-002
<VARIANCE> 39
 4.591879e+001 3.738493e+001 5.607433e+001 7.635284e+001 6.190619e+001 7.392302e+001 1.045432e+002 1.524626e+002 8.411581e+001 3.660004e+001 5.496845e+001 3.731964e+001 1.102906e+002 5.412838e+000 1.228946e+001 3.385991e+000 7.513687e+000 8.464985e+000 5.826171e+000 9.943858e+000 1.685606e+001 4.951612e+000 5.228686e+000 6.128360e+000 5.086473e+000 7.362397e+000 6.511112e-001 1.050284e+000 1.145864e+000 1.457645e+000 1.178530e+000 1.206706e+000 2.215011e+000 2.546172e+000 1.063831e+000 1.002976e+000 8.961908e-001 9.580895e-001 1.042876e+000
<GCONST> 1.532672e+002
<STATE> 3
<NUMMIXES> 2
<MIXTURE> 1 5.945683e-001
<MEAN> 39
 -1.972084e+000 1.352525e+000 2.242465e+000 -1.047383e+001 -9.871748e+000 -1.548296e+001 -9.269032e+000 -1.322369e+001 -4.930412e+000 6.136994e+000 -1.390941e+000 -7.677960e+000 6.680208e+001 -1.317769e-002 1.346623e-001 -1.892598e-001 -6.849907e-001 1.217786e-001 1.723462e-002 4.379719e-001 5.793111e-001 -4.839215e-001 -4.470781e-001 2.609937e-002 1.133355e-001 2.055376e-001 -1.423210e-001 -6.612154e-002 -7.191817e-002 1.334099e-001 2.340263e-001 2.482454e-001 3.384130e-001 8.437777e-002 1.357539e-002 1.843490e-001 9.451742e-002 2.332765e-001 -6.916147e-002
<VARIANCE> 39
 2.047743e+001 1.696152e+001 4.063610e+001 5.987132e+001 5.073765e+001 1.645358e+001 9.720222e+001 7.158990e+001 5.134547e+001 9.032098e+001 5.037493e+001 2.115091e+001 1.136026e+001 9.442976e-001 7.039583e-001 3.761489e+000 3.814909e+000 4.717636e+000 3.312598e+000 3.306260e+000 3.337133e+000 4.856961e+000 4.670333e+000 3.385318e+000 1.702926e+000 7.331476e-001 1.875511e-001 1.069111e-001 2.741393e-001 6.681650e-001 5.405310e-001 3.653266e-001 6.182281e-001 3.969944e-001 8.151933e-001 5.913327e-001 7.394714e-001 2.885150e-001 2.823067e-001
<GCONST> 1.185379e+002
<MIXTURE> 2 4.054319e-001
<MEAN> 39
 -4.472239e+000 1.421512e+000 -8.951191e-001 -1.291530e+001 -1.006388e+001 -1.694472e+001 -4.783256e+000 -7.878235e+000 -4.004547e-001 1.811443e+000 -1.990959e+000 -7.938351e+000 6.286506e+001 3.400816e-001 -4.363350e-001 -4.190153e-001 -1.133955e+000 -5.383580e-001 -4.193109e-001 1.343668e-001 -4.019718e-001 -7.747130e-001 -3.155914e-001 -4.640885e-001 -3.165394e-001 6.887410e-001 -9.129050e-002 -2.021376e-001 -8.345183e-002 2.247476e-001 1.078252e-001 4.903538e-001 2.864993e-002 -2.262261e-001 -4.849053e-001 -5.370874e-001 -1.301465e-001 2.518214e-001 -8.181577e-002
<VARIANCE> 39
 3.764233e+001 3.173141e+001 6.653215e+001 7.238076e+001 1.145006e+002 4.802415e+001 5.394366e+001 3.876219e+001 1.639856e+002 1.235614e+002 4.991615e+001 3.528683e+001 8.064902e+001 1.038301e+000 2.210733e+000 2.985160e+000 3.904038e+000 6.057006e+000 3.042214e+000 1.177162e+001 2.592326e+000 7.852229e+000 4.940691e+000 2.492576e+000 2.334327e+000 9.775956e-001 3.249197e-001 4.126132e-001 6.261364e-001 8.441261e-001 8.691021e-001 7.430582e-001 5.740635e-001 6.855258e-001 1.520285e+000 8.105512e-001 6.049911e-001 4.866803e-001 2.904096e-001
<GCONST> 1.340285e+002
<STATE> 4
<NUMMIXES> 2
<MIXTURE> 1 4.227766e-001
<MEAN> 39
 2.013534e-001 1.415666e+000 -1.075412e+001 -1.412823e+001 -1.359113e+001 -1.822387e+001 -3.351976e+000 -1.150822e+001 1.199132e+000 -1.027091e+001 -5.372462e+000 -1.266501e+001 5.956562e+001 -5.328478e-002 -8.663614e-001 -7.302296e-001 -5.975948e-001 7.505147e-001 1.375884e+000 8.755515e-001 -1.893457e-003 -4.719801e-001 5.165042e-001 4.076701e-001 4.666781e-001 1.205489e-001 -6.857189e-002 -6.471421e-002 1.746530e-001 1.300524e-001 1.008056e-001 2.013295e-001 -2.925117e-002 1.447053e-001 -1.493581e-001 1.977503e-001 2.445499e-002 2.478486e-001 5.755057e-002
<VARIANCE> 39
 3.858059e+001 8.338114e+001 1.076139e+002 6.510616e+001 9.792120e+001 1.010059e+002 7.524580e+001 9.654110e+001 7.327198e+001 8.466937e+001 7.725993e+001 1.474600e+002 7.754623e+001 1.329012e+000 2.139289e+000 5.315471e+000 5.692199e+000 5.096102e+000 3.084802e+000 7.216240e+000 4.057840e+000 4.574515e+000 5.776634e+000 4.030345e+000 3.774005e+000 1.017013e+000 1.163142e-001 3.484938e-001 5.478036e-001 1.121417e+000 7.166991e-001 8.428588e-001 1.248466e+000 9.597822e-001 7.883738e-001 1.007949e+000 8.951743e-001 6.365119e-001 2.735968e-001
<GCONST> 1.396178e+002
<MIXTURE> 2 5.772234e-001
<MEAN> 39
 -7.827750e-001 6.704751e+000 -7.567698e+000 -9.763200e+000 -1.948926e+001 -2.254600e+001 2.607361e-001 -1.200031e+001 -1.476559e+000 -1.319045e+001 -4.675794e+000 -1.563493e+001 5.389796e+001 -1.530620e-001 -9.426747e-002 -2.276438e-001 5.303509e-002 3.390105e-002 -9.888244e-002 -9.190718e-002 -4.063760e-002 -1.260073e-001 -2.691824e-001 -5.128704e-001 -8.699266e-002 -2.008417e-001 -2.597574e-003 -1.081052e-001 -9.966677e-002 -6.866720e-002 3.815572e-002 -3.858309e-002 -1.246862e-001 -1.905079e-002 1.045438e-001 -6.636788e-003 5.846999e-002 -2.111755e-003 9.263479e-003
<VARIANCE> 39
 2.625453e+001 8.818518e+001 1.233173e+002 4.082101e+001 1.183368e+002 5.704458e+001 3.949394e+001 5.510497e+001 1.049021e+002 2.588015e+001 4.705677e+001 8.397258e+001 2.626633e+001 7.767496e-001 1.853289e+000 3.223827e+000 3.857128e+000 2.900745e+000 1.104185e+000 5.195052e+000 3.200496e+000 4.695249e+000 3.081275e+000 3.192780e+000 3.264950e+000 5.277330e-001 6.088785e-002 2.407360e-001 4.662244e-001 7.632638e-001 5.028588e-001 2.611136e-001 1.197748e+000 4.815371e-001 5.775517e-001 6.306289e-001 6.663038e-001 6.862918e-001 5.141457e-002
<GCONST> 1.225477e+002
<TRANSP> 5
 0.000000e+000 1.000000e+000 0.000000e+000 0.000000e+000 0.000000e+000
 0.000000e+000 6.254920e-001 3.745079e-001 0.000000e+000 0.000000e+000
 0.000000e+000 0.000000e+000 6.688634e-001 3.311366e-001 0.000000e+000
 0.000000e+000 0.000000e+000 0.000000e+000 8.184406e-001 1.815593e-001
 0.000000e+000 0.000000e+000 0.000000e+000 0.000000e+000 0.000000e+000
<ENDHMM>
~h "h"
<BEGINHMM>
<NUMSTATES> 5
<STATE> 2
<NUMMIXES> 2
<MIXTURE> 1 3.824369e-001
<MEAN> 39
 -1.660510e+001 -9.530165e+000 -4.885750e+000 -7.771506e+000 -1.960789e+000 -6.848567e+000 -7.419494e-001 -4.548418e+000 7.317054e-001 -3.334464e+000 -8.475202e-002 -3.007953e+000 4.115534e+001 4.893805e-002 8.346443e-002 1.439380e-001 1.660793e-001 1.980605e-001 1.767601e-001 1.364707e-001 1.067874e-001 7.133573e-002 1.403438e-001 1.504769e-001 6.387065e-002 4.111198e-002 5.318779e-002 4.701655e-002 2.356431e-002 5.469198e-004 -2.349476e-002 -4.708586e-002 -4.524501e-002 -1.929666e-002 -3.912625e-002 -3.221779e-002 -5.081926e-004 9.674590e-003 1.688579e-002
<VARIANCE> 39
 1.584408e+001 2.423211e+001 1.827329e+001 2.383444e+001 2.616490e+001 2.586338e+001 2.980438e+001 3.121213e+001 2.804875e+001 2.551022e+001 2.424657e+001 2.071633e+001 8.662855e+001 3.604945e-001 5.803663e-001 8.534676e-001 1.403203e+000 1.786985e+000 2.057140e+000 2.314571e+000 2.694206e+000 2.880802e+000 2.361806e+000 2.289390e+000 2.008346e+000 1.294931e-001 7.572851e-002 1.215364e-001 1.909134e-001 3.089186e-001 3.977934e-001 4.472976e-001 4.978774e-001 5.665603e-001 6.110023e-001 4.902667e-001 4.681382e-001 4.447155e-001 3.288027e-002
<GCONST> 1.007576e+002
<MIXTURE> 2 6.175507e-001
<MEAN> 39
 -1.710652e+001 -1.119015e+001 -5.560540e+000 -8.343431e+000 -2.283834e+000 -8.099325e+000 -7.674851e-001 -5.490850e+000 4.944923e-001 -4.069447e+000 6.285414e-001 -2.888441e+000 3.963940e+001 -3.476805e-002 -6.452377e-002 -1.131964e-001 -1.138434e-001 -9.427030e-002 -1.030605e-001 -1.288154e-001 -8.367512e-002 -6.819844e-002 -8.458105e-002 -8.965751e-002 -4.112645e-002 -2.840457e-002 -6.163938e-003 -1.255688e-002 -2.000406e-002 -7.507161e-003 2.048760e-002 2.524751e-002 8.482302e-003 1.530529e-002 1.529445e-002 1.668902e-002 -9.599100e-003 -6.263064e-003 3.363862e-003
<VARIANCE> 39
 3.816046e+000 7.962583e+000 7.692516e+000 1.047167e+001 1.359877e+001 1.676993e+001 1.997458e+001 2.177120e+001 2.299267e+001 1.941929e+001 2.054056e+001 1.675856e+001 8.636482e+000 1.746374e-001 4.152570e-001 7.049874e-001 1.193613e+000 1.583496e+000 2.039746e+000 2.166690e+000 2.703974e+000 3.022012e+000 2.342160e+000 2.366296e+000 2.158628e+000 4.631332e-002 3.709562e-002 8.798396e-002 1.482650e-001 2.534572e-001 3.343072e-001 4.314702e-001 4.575062e-001 5.754232e-001 6.594825e-001 4.986947e-001 4.989817e-001 4.628668e-001 9.590522e-003
<GCONST> 8.624124e+001
<STATE> 3
<NUMMIXES> 2
<MIXTURE> 1 4.909627e-001
<MEAN> 39
 -1.592344e+001 -7.686656e+000 -5.735466e+000 -9.003211e+000 -1.018610e+000 -8.284410e+000 -2.797313e+000 -2.146852e+000 4.286357e-001 -2.068455e+000 -4.753753e-001 -1.119096e+000 5.510711e+001 -9.214401e-002 -4.747242e-002 -1.207489e-001 -1.271964e-001 3.470089e-001 1.659839e-001 7.386735e-003 2.758231e-001 2.361294e-001 1.800201e-001 1.877429e-001 1.661984e-001 2.382229e-001 2.834537e-001 1.528200e-001 1.802020e-002 -5.130880e-002 -8.675002e-002 -7.328664e-002 -1.286532e-001 -9.486483e-002 -1.448916e-001 -1.342331e-001 -7.939032e-002 -5.212706e-002 1.120394e-001
<VARIANCE> 39
 4.883671e+001 5.840570e+001 6.601130e+001 7.716004e+001 7.914167e+001 7.128583e+001 6.294428e+001 8.568736e+001 7.469542e+001 5.981260e+001 5.741969e+001 4.739807e+001 2.255142e+002 1.027431e+000 1.416874e+000 1.966497e+000 2.525670e+000 2.924518e+000 3.213570e+000 3.270642e+000 3.683293e+000 3.746102e+000 3.121611e+000 2.853871e+000 2.704202e+000 6.321979e-001 2.970565e-001 3.155919e-001 3.721724e-001 4.700570e-001 6.358361e-001 6.550929e-001 7.133232e-001 7.392174e-001 7.626622e-001 6.495172e-001 6.009113e-001 5.318680e-001 1.637817e-001
<GCONST> 1.286047e+002
<MIXTURE> 2 5.090334e-001
<MEAN> 39
 -1.237925e+001 -6.543697e+000 -6.094035e+000 -1.043427e+001 -4.328070e+000 -1.054930e+001 -4.385027e+000 -4.793425e+000 -2.662631e+000 -4.175379e+000 -1.051418e+000 -2.305674e+000 5.457012e+001 1.172292e-001 7.972053e-002 -1.495324e-001 -2.281113e-001 -2.858277e-002 -2.526691e-001 -4.481135e-001 -1.099635e-001 -2.344602e-001 -2.033693e-001 -2.316762e-001 -1.059244e-001 1.871436e-001 7.648820e-002 2.997617e-003 -2.683652e-002 -3.855293e-002 -1.148733e-002 7.562730e-004 -5.112173e-002 3.712160e-002 1.761601e-002 -1.435150e-002 -6.360922e-002 7.049017e-003 3.810718e-002
<VARIANCE> 39
 4.575363e+001 6.668191e+001 6.469598e+001 7.071476e+001 9.214246e+001 7.991257e+001 7.072948e+001 8.406741e+001 7.425025e+001 6.622033e+001 6.710044e+001 5.355945e+001 2.132874e+002 1.409594e+000 1.583737e+000 2.124808e+000 3.002247e+000 4.019728e+000 3.725758e+000 4.596105e+000 4.738923e+000 4.697236e+000 3.817056e+000 3.622160e+000 3.131311e+000 7.368574e-001 2.417330e-001 2.689607e-001 3.454176e-001 5.197154e-001 7.135903e-001 6.965973e-001 8.025315e-001 8.628467e-001 8.196332e-001 7.401057e-001 6.779906e-001 6.099404e-001 1.143822e-001
<GCONST> 1.321586e+002
<STATE> 4
<NUMMIXES> 2
<MIXTURE> 1 5.329716e-001
<MEAN> 39
 -1.254638e+001 -8.873522e+000 -1.048622e+001 -1.448494e+001 5.048008e+000 -7.810478e+000 -5.331816e+000 -3.548333e-001 5.668797e-001 -1.763238e+000 -1.491022e+000 -4.102602e+000 5.300191e+001 1.150322e+000 5.270485e-001 -5.363724e-001 -8.820148e-001 4.485799e-001 1.327641e-001 -5.117397e-001 2.686783e-001 -3.351322e-002 -2.035264e-001 -4.241209e-002 1.363836e-001 2.141860e+000 3.441831e-001 2.053774e-001 8.054980e-002 -1.254417e-001 -3.334097e-001 -1.065651e-001 -1.057845e-001 -1.859015e-001 -9.342029e-002 -1.772168e-001 -1.235730e-001 6.905222e-002 4.179890e-001
<VARIANCE> 39
 7.226495e+001 7.650536e+001 1.341699e+002 1.435618e+002 1.942921e+002 1.230572e+002 1.374618e+002 1.389399e+002 1.068157e+002 8.998640e+001 7.122814e+001 8.966058e+001 1.583964e+002 6.885028e+000 5.587542e+000 7.420158e+000 8.284341e+000 1.136969e+001 7.736032e+000 8.718249e+000 8.783241e+000 6.354524e+000 6.366121e+000 4.915200e+000 5.284800e+000 7.104298e+000 9.671397e-001 8.660107e-001 1.111236e+000 1.393123e+000 1.635581e+000 1.278886e+000 1.495942e+000 1.502419e+000 1.195411e+000 1.074384e+000 9.763351e-001 9.413831e-001 1.146557e+000
<GCONST> 1.607098e+002
<MIXTURE> 2 4.670210e-001
<MEAN> 39
 -1.380737e+001 -8.450067e+000 -9.262527e+000 -1.243134e+001 6.179381e+000 -8.634830e+000 -6.555130e+000 1.037140e+000 1.972110e+000 -2.894807e+000 -2.245454e+000 -3.382215e+000 6.082396e+001 1.952906e+000 6.469674e-001 -2.066429e-001 -9.858559e-001 -1.100833e+000 -3.238593e-001 -1.168390e+000 -1.198109e+000 -1.188664e+000 -1.336324e+000 -9.254980e-001 -2.011002e-001 1.423086e+000 5.174031e-001 7.479237e-002 -6.069322e-002 -3.426538e-001 -5.561793e-001 -2.838837e-002 -1.452301e-001 -1.719353e-001 -2.344507e-001 -1.095239e-001 -2.788413e-001 -4.869198e-002 2.725939e-001
<VARIANCE> 39
 7.158054e+001 7.850793e+001 1.121395e+002 1.301310e+002 1.726370e+002 1.023139e+002 1.163187e+002 1.135267e+002 9.082780e+001 9.154104e+001 6.721877e+001 7.527348e+001 1.630462e+002 6.855012e+000 3.571117e+000 5.147220e+000 5.420090e+000 8.810978e+000 5.296938e+000 6.378812e+000 7.891117e+000 6.732306e+000 5.319241e+000 4.930332e+000 4.524885e+000 4.187066e+000 7.791898e-001 6.341551e-001 7.763683e-001 8.909254e-001 1.174105e+000 9.350293e-001 1.156445e+000 1.319733e+000 1.088846e+000 9.756612e-001 8.924518e-001 7.003176e-001 5.255826e-001
<GCONST> 1.526093e+002
<TRANSP> 5
 0.000000e+000 1.000000e+000 0.000000e+000 0.000000e+000 0.000000e+000
 0.000000e+000 9.432738e-001 5.672615e-002 0.000000e+000 0.000000e+000
 0.000000e+000 0.000000e+000 7.661888e-001 2.338112e-001 0.000000e+000
 0.000000e+000 0.000000e+000 0.000000e+000 7.862548e-001 2.137452e-001
 0.000000e+000 0.000000e+000 0.000000e+000 0.000000e+000 0.000000e+000
<ENDHMM>
~h "i"
<BEGINHMM>
<NUMSTATES> 5
<STATE> 2
<NUMMIXES> 2
<MIXTURE> 1 5.148221e-001
<MEAN> 39
 -4.796521e+000 2.926654e+000 8.981216e+000 -2.134361e+001 -1.700565e+001 -1.157559e+001 -9.473234e+000 -1.432878e+001 -3.499871e+000 -1.573678e+000 -7.195937e+000 -2.507455e+000 6.996799e+001 -9.952230e-003 5.125597e-001 2.513391e+000 -3.233108e+000 -1.381332e+000 8.889313e-001 -1.039866e+000 -8.483446e-001 2.572991e-001 7.631413e-001 -1.318713e+000 1.108279e+000 1.655433e+000 -3.478728e-001 -4.929430e-002 -5.117155e-001 1.133186e-001 6.595730e-001 3.703536e-001 3.205692e-001 3.337094e-001 1.955019e-001 1.450022e-002 1.015100e-001 1.753461e-001 -4.028618e-001
<VARIANCE> 39
 7.014658e+001 6.828826e+001 9.620596e+001 1.477335e+002 9.106445e+001 8.726605e+001 9.107224e+001 8.113810e+001 7.175665e+001 7.135712e+001 7.660638e+001 5.168089e+001 7.655839e+001 6.067502e+000 4.495416e+000 7.025908e+000 9.212663e+000 7.913488e+000 6.785426e+000 7.437071e+000 7.221477e+000 5.539492e+000 5.580153e+000 5.964903e+000 5.014379e+000 3.679479e+000 7.457611e-001 8.816929e-001 1.287457e+000 1.767294e+000 1.550414e+000 1.142623e+000 1.347740e+000 1.294311e+000 9.333324e-001 9.529067e-001 1.034278e+000 7.913620e-001 8.086783e-001
<GCONST> 1.533410e+002
<MIXTURE> 2 4.851448e-001
<MEAN> 39
 -8.058802e+000 6.107409e+000 8.376762e+000 -1.987829e+001 -1.552383e+001 -1.181850e+001 -1.180224e+001 -1.446249e+001 -1.223652e+000 -4.952600e+000 -5.752577e+000 -2.988375e+000 6.757425e+001 1.430200e+000 1.069423e+000 2.259436e+000 -2.974783e+000 -2.700704e+000 1.672977e-001 -1.925829e+000 -1.712619e+000 -1.282403e-001 8.569720e-002 -1.909192e+000 3.081650e-001 2.338443e+000 -4.643058e-001 -5.069928e-001 -5.141615e-001 1.068682e-001 6.547886e-001 4.810892e-001 5.992808e-001 5.433436e-001 1.099864e-001 2.967134e-001 9.266201e-002 1.738445e-001 -3.522839e-001
<VARIANCE> 39
 6.203090e+001 6.621157e+001 7.357932e+001 1.278755e+002 9.627499e+001 6.957906e+001 8.222407e+001 6.504688e+001 7.142899e+001 6.661763e+001 5.815008e+001 4.085587e+001 8.624029e+001 7.367963e+000 5.451756e+000 6.808511e+000 7.646132e+000 8.724267e+000 7.268022e+000 8.258273e+000 6.827986e+000 6.326496e+000 5.701369e+000 6.466551e+000 4.478707e+000 5.540970e+000 8.062698e-001 9.643575e-001 9.492970e-001 1.430912e+000 1.628193e+000 1.125540e+000 1.299896e+000 1.125093e+000 1.064184e+000 9.431537e-001 9.466960e-001 7.353832e-001 7.832676e-001
<GCONST> 1.521679e+002
<STATE> 3
<NUMMIXES> 2
<MIXTURE> 1 4.909399e-001
<MEAN> 39
 -5.422221e+000 5.717348e+000 1.500538e+001 -3.352422e+001 -1.666204e+001 -6.927862e+000 -1.075560e+001 -1.588517e+001 -3.057437e+000 1.192311e+000 -1.368378e+001 2.604028e+000 7.418815e+001 1.760703e-001 1.833962e-001 -3.126972e-001 -1.325520e-001 4.779942e-001 5.504095e-001 8.573686e-002 6.840990e-002 1.339914e-001 -2.447203e-002 6.556956e-002 2.633439e-001 -2.932268e-001 4.889129e-002 -4.092730e-002 -5.570887e-001 8.967258e-001 2.734635e-001 -1.564611e-001 2.150467e-001 1.388837e-001 2.569582e-002 -2.609781e-001 4.785546e-001 -3.434380e-001 -3.499808e-001
<VARIANCE> 39
 3.180228e+001 4.664139e+001 5.864700e+001 1.693636e+002 6.392323e+001 8.694212e+001 8.387584e+001 6.818636e+001 5.342967e+001 5.753460e+001 8.729748e+001 5.737867e+001 1.304003e+001 1.082653e+000 1.914110e+000 2.232736e+000 4.598218e+000 2.855790e+000 3.071510e+000 3.470228e+000 2.994274e+000 2.604096e+000 2.793712e+000 3.015749e+000 2.801637e+000 8.903983e-001 2.998280e-001 2.914746e-001 5.212948e-001 7.337244e-001 7.023106e-001 6.337981e-001 7.645721e-001 7.254773e-001 5.282580e-001 5.561249e-001 6.537535e-001 5.322887e-001 1.879358e-001
<GCONST> 1.273982e+002
<MIXTURE> 2 5.090118e-001
<MEAN> 39
 -8.951711e+000 5.011964e+000 9.451216e+000 -2.610939e+001 -1.636020e+001 -7.386592e+000 -1.520674e+001 -1.369622e+001 -7.100335e-001 -2.618922e+000 -9.141024e+000 -9.294710e-001 7.320111e+001 1.232754e-001 2.317110e-002 -3.487750e-001 9.679070e-002 2.961127e-001 2.496723e-001 1.091388e-001 -5.725130e-003 -5.185365e-002 -1.531971e-001 -1.189728e-001 -1.318249e-001 -1.392239e-001 1.134270e-001 -8.129285e-002 -3.440386e-001 7.358229e-001 2.272260e-001 -2.959914e-001 3.725657e-001 1.060712e-001 -2.074966e-001 -1.154628e-001 2.216065e-001 -1.925854e-001 -3.463266e-001
<VARIANCE> 39
 3.309404e+001 4.006352e+001 5.615361e+001 1.365063e+002 6.241483e+001 6.840270e+001 8.220767e+001 5.268272e+001 6.765195e+001 7.909194e+001 7.392202e+001 5.105451e+001 2.952983e+001 8.642280e-001 1.478262e+000 1.714876e+000 3.223925e+000 2.531184e+000 2.581770e+000 3.099548e+000 2.538414e+000 2.698805e+000 2.510348e+000 2.496293e+000 2.203259e+000 7.550794e-001 1.930441e-001 2.389423e-001 3.581465e-001 5.318709e-001 6.375445e-001 5.647755e-001 6.344177e-001 5.792122e-001 5.797797e-001 5.510275e-001 5.421576e-001 4.500152e-001 1.576031e-001
<GCONST> 1.228259e+002
<STATE> 4
<NUMMIXES> 2
<MIXTURE> 1 4.990723e-001
<MEAN> 39
 -5.703454e+000 6.789591e+000 8.084867e+000 -1.830810e+001 -1.264298e+001 -7.945603e+000 -1.064977e+001 -1.287603e+001 -1.466185e+000 -4.530822e+000 -5.921266e+000 -2.189654e+000 6.528654e+001 -1.219932e-001 -8.859626e-003 -1.114359e+000 2.287910e+000 1.163524e+000 -1.533558e-001 7.395067e-001 6.023823e-001 6.179038e-002 -3.839640e-001 8.928102e-001 -3.210185e-001 -1.446289e+000 -2.038568e-001 -1.430036e-001 -8.421034e-002 7.435902e-003 1.221254e-001 6.728054e-002 7.890078e-002 8.150294e-002 3.716899e-002 1.199090e-001 3.406307e-002 6.998438e-002 -1.561079e-002
<VARIANCE> 39
 5.970967e+001 5.420544e+001 5.922891e+001 1.511194e+002 8.006212e+001 1.149800e+002 7.511823e+001 7.125146e+001 5.874037e+001 6.800092e+001 5.790242e+001 4.808609e+001 6.118064e+001 2.074313e+000 2.373035e+000 3.151237e+000 3.877121e+000 4.011129e+000 4.417827e+000 4.969079e+000 4.218219e+000 3.968467e+000 3.884608e+000 3.988664e+000 3.371099e+000 1.755555e+000 2.309672e-001 3.479539e-001 3.878850e-001 5.899388e-001 6.571057e-001 7.111901e-001 7.552225e-001 7.175608e-001 6.742058e-001 6.332749e-001 6.077439e-001 5.455757e-001 2.058759e-001
<GCONST> 1.339162e+002
<MIXTURE> 2 5.008811e-001
<MEAN> 39
 -7.038533e+000 5.615466e+000 6.406888e+000 -1.943412e+001 -1.197472e+001 -7.516728e+000 -9.641087e+000 -1.386038e+001 -1.180034e+000 -6.423599e+000 -6.169147e+000 -3.353485e+000 6.536446e+001 -6.506868e-003 -6.272490e-001 -1.622871e+000 2.454825e+000 7.478949e-001 -8.612169e-001 7.806681e-001 3.669540e-001 -4.806115e-001 -2.895533e-001 6.705683e-001 -7.112259e-001 -1.098411e+000 -5.233174e-002 -8.352339e-002 -6.611905e-002 -2.752095e-002 4.108318e-002 -8.003968e-002 -6.685307e-002 5.347191e-002 1.683586e-003 1.134690e-001 -1.671202e-002 1.009241e-001 -3.907130e-002
<VARIANCE> 39
 6.816846e+001 6.469610e+001 6.207833e+001 1.184100e+002 8.377564e+001 9.371124e+001 7.993275e+001 6.988083e+001 6.738212e+001 7.998162e+001 5.798857e+001 4.853861e+001 9.243512e+001 2.411065e+000 2.341198e+000 3.542459e+000 5.016370e+000 4.255087e+000 4.539799e+000 4.955211e+000 4.575992e+000 4.662078e+000 4.165590e+000 4.396153e+000 3.681224e+000 1.326520e+000 1.897957e-001 3.506278e-001 4.528057e-001 7.503591e-001 7.520089e-001 7.570868e-001 8.244758e-001 7.695320e-001 8.179526e-001 7.162053e-001 7.015307e-001 6.249533e-001 1.659205e-001
<GCONST> 1.363893e+002
<TRANSP> 5
 0.000000e+000 1.000000e+000 0.000000e+000 0.000000e+000 0.000000e+000
 0.000000e+000 6.261109e-001 3.738892e-001 0.000000e+000 0.000000e+000
 0.000000e+000 0.000000e+000 7.747523e-001 2.252477e-001 0.000000e+000
 0.000000e+000 0.000000e+000 0.000000e+000 7.495264e-001 2.504736e-001
 0.000000e+000 0.000000e+000 0.000000e+000 0.000000e+000 0.000000e+000
<ENDHMM>
~h "j"
<BEGINHMM>
<NUMSTATES> 5
<STATE> 2
<NUMMIXES> 2
<MIXTURE> 1 4.769420e-001
<MEAN> 39
 -1.429325e+001 -3.072675e+000 -6.567333e+000 -1.082183e+001 -3.224423e+000 -7.489124e+000 -4.915413e+000 -1.479508e+000 -7.215822e-001 -1.326850e+000 1.498648e+000 -2.546722e+000 6.010549e+001 -6.281086e-001 -4.765288e-002 -2.333882e-001 -2.021375e-001 1.903937e-001 8.940579e-001 8.529143e-001 2.085369e-001 5.121635e-001 1.063309e+000 2.848743e-001 -3.687417e-003 -2.926802e-001 2.340524e-001 -2.095801e-002 3.571348e-002 -1.368735e-001 -1.300028e-001 -3.736800e-003 -4.433166e-002 -1.193734e-001 -2.023744e-001 -1.553415e-001 -1.184022e-001 7.452405e-002 1.187963e-001
<VARIANCE> 39
 3.693127e+001 4.041632e+001 8.587881e+001 6.265958e+001 9.868900e+001 7.107355e+001 7.506098e+001 8.128689e+001 5.364477e+001 5.869740e+001 4.187115e+001 4.974215e+001 1.346723e+002 2.589633e+000 1.663460e+000 2.486770e+000 2.727906e+000 3.774628e+000 3.484039e+000 4.685353e+000 4.717970e+000 4.728306e+000 4.713799e+000 2.961545e+000 2.802855e+000 1.262673e+000 1.969274e-001 2.629528e-001 3.983608e-001 4.332256e-001 5.680583e-001 5.776762e-001 7.882161e-001 8.339567e-001 7.809157e-001 7.534901e-001 5.058172e-001 5.891561e-001 1.276688e-001
<GCONST> 1.301974e+002
<MIXTURE> 2 5.230585e-001
<MEAN> 39
 -1.346250e+001 -6.013210e+000 -7.636636e+000 -1.275097e+001 -6.349254e+000 -8.775888e+000 -5.756524e+000 -5.165956e+000 -3.659272e+000 -2.988141e+000 2.061090e+000 -2.105470e+000 5.820311e+001 -4.798442e-001 -2.259686e-001 2.892988e-002 -2.895797e-002 3.690657e-001 1.350422e-001 -1.651903e-001 -2.177791e-001 3.362609e-001 6.232611e-001 9.706177e-002 -2.831703e-002 -3.454218e-001 1.709687e-001 2.081609e-002 -2.989541e-002 -5.617152e-003 2.292808e-002 -8.083693e-002 -1.147477e-001 7.335925e-002 7.337045e-002 -9.825706e-002 -1.541669e-001 -3.438003e-002 -1.240468e-002
<VARIANCE> 39
 4.073462e+001 5.549472e+001 7.233277e+001 6.611882e+001 1.083250e+002 7.615071e+001 1.377289e+002 5.955360e+001 4.902978e+001 6.793439e+001 6.742190e+001 5.669972e+001 1.921778e+002 1.652564e+000 1.917161e+000 2.022564e+000 2.125722e+000 3.559384e+000 3.467251e+000 4.198293e+000 4.276903e+000 3.996341e+000 5.561155e+000 3.015897e+000 3.234644e+000 1.525527e+000 1.496143e-001 2.713214e-001 3.511905e-001 3.200477e-001 5.623624e-001 7.026141e-001 6.369863e-001 7.021969e-001 7.059996e-001 9.562780e-001 5.739159e-001 6.403766e-001 1.357696e-001
<GCONST> 1.308217e+002
<STATE> 3
<NUMMIXES> 2
<MIXTURE> 1 4.470049e-001
<MEAN> 39
 -1.624587e+001 -1.582491e+000 -4.819372e+000 -1.811797e+001 -4.491792e+000 -3.552086e+000 -5.705634e-001 -2.824825e+000 -7.048666e-002 1.213400e+000 -1.708306e+000 -4.656256e+000 6.061831e+001 -1.510718e-002 7.307597e-002 3.608486e-002 -5.433545e-001 2.387636e-001 3.761853e-001 1.785848e-001 -2.420734e-001 5.101883e-002 -2.057825e-001 -4.034401e-001 3.185276e-001 -8.454271e-002 9.645595e-001 2.955400e-001 2.580917e-001 -5.522797e-002 -3.356668e-001 -4.021168e-001 -4.492932e-001 -3.068437e-001 -3.358467e-001 -3.886938e-001 -1.183744e-001 2.179679e-001 2.972663e-001
<VARIANCE> 39
 3.788356e+001 6.532278e+001 1.058134e+002 1.633828e+002 1.126877e+002 6.856300e+001 7.270007e+001 1.237689e+002 6.692120e+001 5.415181e+001 5.264433e+001 4.262908e+001 1.568279e+002 2.386418e+000 2.056583e+000 3.706878e+000 3.827146e+000 4.756405e+000 4.356191e+000 4.787064e+000 4.986116e+000 5.291817e+000 4.677620e+000 3.130282e+000 2.363618e+000 1.542146e+000 5.665378e-001 4.143574e-001 5.393630e-001 8.853170e-001 8.550139e-001 7.717546e-001 1.154392e+000 1.391612e+000 9.149900e-001 8.543026e-001 4.894365e-001 5.044896e-001 3.478149e-001
<GCONST> 1.395316e+002
<MIXTURE> 2 5.529948e-001
<MEAN> 39
 -1.596214e+001 -3.329760e+000 -3.811126e+000 -1.501558e+001 -3.402016e+000 -5.202923e+000 -2.182992e+000 -1.688356e+000 -1.544498e+000 8.163702e-001 -1.192232e+000 -4.488196e+000 6.303292e+001 -4.446028e-002 4.993884e-001 5.111357e-001 -4.525199e-001 -6.193419e-001 -7.455264e-002 -3.894067e-001 -8.190122e-001 -1.058533e-001 -4.477206e-001 -8.598598e-001 7.437014e-002 -2.111445e-001 9.485707e-001 4.526504e-001 2.247162e-001 -3.426442e-001 -6.186686e-001 -6.428053e-001 -6.333600e-001 -4.606492e-001 -3.202300e-001 -5.451518e-001 -2.935949e-001 7.154968e-002 2.921769e-001
<VARIANCE> 39
 5.023184e+001 3.744444e+001 1.291358e+002 1.002394e+002 9.228797e+001 5.783358e+001 8.829230e+001 1.140108e+002 7.123238e+001 6.097460e+001 5.146824e+001 7.160524e+001 1.096468e+002 3.256000e+000 1.899356e+000 2.995827e+000 3.016918e+000 3.746094e+000 4.703619e+000 3.977717e+000 4.898311e+000 5.115070e+000 3.842094e+000 2.564306e+000 3.324134e+000 1.023257e+000 3.825219e-001 3.402296e-001 4.629304e-001 5.297627e-001 7.319415e-001 5.525747e-001 9.101031e-001 1.079314e+000 1.072513e+000 8.143446e-001 7.126408e-001 8.291349e-001 2.719420e-001
<GCONST> 1.364452e+002
<STATE> 4
<NUMMIXES> 2
<MIXTURE> 1 5.163338e-001
<MEAN> 39
 -1.014247e+001 -8.476950e+000 -1.562270e+001 -1.920437e+001 6.140839e+000 -2.963619e+000 -2.701734e+000 8.345979e-001 -3.638476e+000 -1.405347e+000 3.639224e-001 -1.915225e+000 5.292719e+001 1.856058e+000 1.174908e+000 -4.011329e-001 -1.239595e+000 -6.243404e-001 -6.165909e-001 -1.405185e-001 -1.062591e-002 -6.415872e-002 -2.387748e-001 1.045655e-001 3.430841e-001 1.944332e+000 4.467885e-001 4.304492e-001 2.778474e-001 -1.323935e-002 -5.697361e-001 -2.727856e-001 -3.457569e-001 -4.653305e-001 7.955926e-002 7.958946e-003 -8.030960e-002 -9.535475e-002 5.297962e-001
<VARIANCE> 39
 4.367154e+001 6.927758e+001 1.735526e+002 1.758826e+002 1.879974e+002 1.876655e+002 8.847672e+001 1.569903e+002 1.346414e+002 9.110410e+001 1.097463e+002 5.252058e+001 1.582905e+002 5.350011e+000 5.449965e+000 8.602574e+000 7.561333e+000 6.565017e+000 7.009361e+000 9.766505e+000 9.655269e+000 5.718520e+000 5.438581e+000 3.678128e+000 4.615462e+000 4.085915e+000 7.622142e-001 6.116728e-001 1.172637e+000 1.333457e+000 1.075268e+000 1.359669e+000 1.618560e+000 1.060588e+000 1.010059e+000 1.025090e+000 7.509041e-001 8.896757e-001 7.653959e-001
<GCONST> 1.567348e+002
<MIXTURE> 2 4.836662e-001
<MEAN> 39
 -1.204135e+001 -2.108610e+000 -7.507407e+000 -1.589059e+001 1.196566e+000 -6.246002e+000 -4.391922e+000 -1.082234e+000 -2.303746e+000 -2.063376e-001 -1.884747e+000 -2.867699e+000 6.341615e+001 2.868119e+000 1.607938e+000 1.245653e+000 -1.029013e+000 -2.725940e+000 -1.476053e+000 -2.037290e+000 -2.513549e+000 -1.443047e+000 -1.755234e+000 -1.424239e+000 -3.591895e-001 1.221351e+000 6.377051e-001 -2.072693e-002 -1.641008e-001 -5.511461e-001 -8.389189e-001 -2.410275e-001 -3.494628e-001 -3.380135e-001 -1.671841e-001 -1.176169e-001 -2.291879e-001 -6.380340e-002 5.267814e-001
<VARIANCE> 39
 7.131961e+001 4.145432e+001 1.483981e+002 1.106743e+002 1.362081e+002 8.079997e+001 7.380234e+001 8.844611e+001 6.024078e+001 5.575275e+001 4.818560e+001 5.271807e+001 9.360937e+001 3.960461e+000 3.450257e+000 3.985847e+000 4.483257e+000 6.420778e+000 4.509242e+000 5.969917e+000 5.933258e+000 5.229861e+000 4.127703e+000 2.966108e+000 4.641971e+000 2.006868e+000 5.535755e-001 5.165790e-001 7.028959e-001 7.075338e-001 1.211531e+000 6.902766e-001 1.071290e+000 1.119377e+000 9.710479e-001 6.956810e-001 6.149700e-001 7.561384e-001 4.209864e-001
<GCONST> 1.428151e+002
<TRANSP> 5
 0.000000e+000 1.000000e+000 0.000000e+000 0.000000e+000 0.000000e+000
 0.000000e+000 7.417872e-001 2.582129e-001 0.000000e+000 0.000000e+000
 0.000000e+000 0.000000e+000 4.743348e-001 5.256652e-001 0.000000e+000
 0.000000e+000 0.000000e+000 0.000000e+000 6.022754e-001 3.977246e-001
 0.000000e+000 0.000000e+000 0.000000e+000 0.000000e+000 0.000000e+000
<ENDHMM>
~h "k"
<BEGINHMM>
<NUMSTATES> 5
<STATE> 2
<NUMMIXES> 2
<MIXTURE> 1 4.922418e-001
<MEAN> 39
 -1.167526e+001 1.423833e+000 -1.384756e+000 -3.404583e+000 -4.175694e+000 -6.291160e+000 -3.458355e+000 -3.465288e+000 -1.086383e-001 -9.827659e-001 -5.070874e-002 -1.080469e+000 5.428373e+001 -6.098200e-001 -5.338733e-001 -4.747491e-001 2.045329e-001 9.574000e-001 8.952551e-001 8.082144e-001 8.274319e-001 2.736773e-001 3.683308e-001 6.484646e-001 3.862080e-001 -6.606954e-001 1.337066e-001 -1.535753e-001 -2.775094e-001 -6.083414e-001 -1.735360e-001 -2.479111e-001 -1.780538e-001 -1.116185e-003 -5.991804e-002 1.072231e-002 -2.475081e-001 -3.537302e-002 6.275975e-001
<VARIANCE> 39
 3.261678e+001 4.032263e+001 2.860356e+001 3.979472e+001 3.787443e+001 3.976132e+001 3.722203e+001 4.339789e+001 3.174746e+001 3.629499e+001 2.996595e+001 2.605990e+001 5.927129e+001 1.852116e+000 1.980486e+000 3.132528e+000 3.910878e+000 3.371136e+000 3.583990e+000 3.209983e+000 3.374093e+000 3.064333e+000 3.089129e+000 3.090352e+000 2.482264e+000 2.857851e+000 3.823982e-001 4.410287e-001 6.088765e-001 7.048502e-001 6.508820e-001 7.927728e-001 6.777146e-001 7.058859e-001 6.463757e-001 6.317563e-001 6.094113e-001 5.250602e-001 4.670070e-001
<GCONST> 1.255860e+002
<MIXTURE> 2 5.077187e-001
<MEAN> 39
 -1.315001e+001 -2.570440e+000 -4.555399e+000 -1.063998e+001 -6.755189e+000 -1.014544e+001 -2.953738e+000 -6.607554e+000 -6.185107e-001 -4.526851e+000 -1.356503e+000 -3.131788e+000 5.432337e+001 -1.799630e-001 -5.979861e-001 -4.489382e-001 3.498403e-002 1.281722e-001 1.614211e-002 1.882661e-001 3.248703e-001 3.935165e-002 1.602335e-001 2.127125e-001 8.342205e-002 -8.355897e-001 2.787558e-001 2.120617e-002 -1.336093e-001 -3.656194e-001 6.530518e-002 8.973039e-002 -1.310818e-001 1.005601e-001 -1.038410e-001 -3.148856e-002 -1.014315e-001 -7.809582e-003 4.223229e-001
<VARIANCE> 39
 6.193469e+001 7.227612e+001 4.777290e+001 5.855702e+001 6.326344e+001 5.810950e+001 5.663617e+001 6.473465e+001 5.407235e+001 5.363490e+001 5.439054e+001 3.998359e+001 1.244034e+002 2.221201e+000 2.508767e+000 3.164938e+000 4.172074e+000 4.446860e+000 4.651068e+000 4.731847e+000 4.774354e+000 4.600706e+000 4.480360e+000 4.427583e+000 3.599718e+000 3.570358e+000 4.150088e-001 5.606245e-001 7.994570e-001 1.039051e+000 1.006239e+000 1.023824e+000 1.055569e+000 1.078692e+000 1.050606e+000 9.295203e-001 8.890208e-001 7.503670e-001 5.682949e-001
<GCONST> 1.399523e+002
<STATE> 3
<NUMMIXES> 2
<MIXTURE> 1 5.119398e-001
<MEAN> 39
 -1.102619e+001 -3.681130e+000 -4.623963e+000 -1.003548e+001 -3.435760e+000 -9.303138e+000 -1.677265e+000 -3.857541e+000 -4.911259e-001 -3.168475e+000 -1.946170e+000 -2.302649e+000 5.375224e+001 7.167458e-001 -9.798545e-001 -1.910191e+000 -2.046203e+000 7.979630e-001 -2.996241e-001 -3.741025e-001 1.220500e+000 -3.673118e-001 4.522733e-001 1.355306e-001 3.831894e-001 2.462443e+000 4.989305e-001 2.234254e-001 -1.627470e-001 -6.497155e-001 -2.085337e-001 -2.008211e-001 -4.677680e-001 -1.907111e-001 -2.966774e-001 -6.563807e-002 -1.365514e-001 -3.105988e-002 9.886502e-001
<VARIANCE> 39
 6.100436e+001 8.361933e+001 7.545357e+001 9.294299e+001 1.017978e+002 9.717120e+001 7.802338e+001 8.795967e+001 6.370450e+001 6.537280e+001 5.854102e+001 4.349358e+001 1.170017e+002 6.729771e+000 7.828899e+000 1.157145e+001 1.204123e+001 1.192931e+001 1.233178e+001 1.006960e+001 1.041888e+001 8.843895e+000 6.799502e+000 6.231544e+000 5.531061e+000 1.057551e+001 7.369602e-001 1.214086e+000 1.279847e+000 1.601352e+000 1.689362e+000 1.637538e+000 1.444020e+000 1.586851e+000 1.238963e+000 1.082451e+000 1.035303e+000 8.468363e-001 1.432082e+000
<GCONST> 1.595570e+002
<MIXTURE> 2 4.880440e-001
<MEAN> 39
 -1.083362e+001 -2.921310e+000 -5.029904e+000 -1.033261e+001 -4.664478e+000 -9.796415e+000 -2.023562e+000 -3.260959e+000 3.127934e-001 -2.834803e+000 -1.373995e+000 -1.659988e+000 5.558804e+001 9.207630e-001 -7.860809e-001 -1.986653e+000 -2.403153e+000 3.692544e-001 -3.772500e-001 -6.719474e-001 8.414661e-001 -8.139613e-001 1.664439e-002 -3.997356e-001 -1.182341e-001 2.392740e+000 5.387153e-001 2.878987e-001 -7.745862e-002 -5.847506e-001 -1.707920e-001 -7.100978e-002 -4.842304e-001 -3.123942e-001 -4.555488e-001 -1.390975e-001 -2.482177e-001 -1.506630e-001 8.045266e-001
<VARIANCE> 39
 6.189938e+001 8.506007e+001 7.121480e+001 9.655997e+001 9.704800e+001 9.545918e+001 7.628469e+001 9.626563e+001 6.343951e+001 6.719984e+001 5.977535e+001 4.463991e+001 1.025532e+002 5.935681e+000 7.183087e+000 1.096681e+001 1.169928e+001 1.185030e+001 1.196915e+001 9.561834e+000 9.786307e+000 8.602050e+000 6.714070e+000 6.618332e+000 5.143589e+000 8.338360e+000 6.246327e-001 1.002340e+000 1.111482e+000 1.510469e+000 1.622260e+000 1.577916e+000 1.327245e+000 1.500472e+000 1.198299e+000 1.065195e+000 1.049116e+000 7.991734e-001 9.621864e-001
<GCONST> 1.575080e+002
<STATE> 4
<NUMMIXES> 2
<MIXTURE> 1 4.947884e-001
<MEAN> 39
 -4.788172e+000 -3.019679e+000 -1.434302e+001 -2.193046e+001 -1.163638e+000 -7.459673e+000 -6.170259e+000 -2.224722e+000 -6.635141e+000 -1.026544e+000 -1.931128e+000 -3.500679e+000 6.430614e+001 1.543696e+000 8.667421e-001 -9.057368e-002 -1.093728e+000 -2.335815e-001 -2.072925e-001 -1.086448e+000 -5.966934e-001 -1.027103e+000 -8.720629e-002 6.488546e-002 -8.023687e-002 1.979292e+000 1.878291e-001 5.669103e-001 1.190996e+000 8.242529e-001 -7.917846e-001 -3.620882e-001 -8.493206e-002 -7.895917e-001 4.245377e-001 -3.747599e-001 -1.207263e-001 1.735873e-001 -3.667968e-001
<VARIANCE> 39
 7.550594e+001 7.630797e+001 1.517462e+002 1.535779e+002 1.232911e+002 1.317286e+002 1.155647e+002 1.084800e+002 1.050650e+002 7.990079e+001 6.440355e+001 6.263562e+001 6.507619e+001 4.420975e+000 5.850817e+000 1.036950e+001 1.029472e+001 8.879984e+000 7.743288e+000 7.795846e+000 8.590729e+000 7.278070e+000 5.924776e+000 5.243213e+000 4.525377e+000 6.203058e+000 7.569485e-001 1.078282e+000 1.890358e+000 2.056704e+000 2.036429e+000 1.976395e+000 1.940885e+000 1.728119e+000 1.671274e+000 1.276864e+000 1.039264e+000 1.095947e+000 8.201290e-001
<GCONST> 1.605990e+002
<MIXTURE> 2 5.051944e-001
<MEAN> 39
 -8.521004e+000 -4.968093e+000 -1.070051e+001 -1.752271e+001 -2.666240e+000 -1.118491e+001 -5.416922e+000 4.571185e-002 -1.746976e+000 -2.188150e+000 -2.477165e+000 -1.008342e+000 6.509296e+001 1.990454e+000 1.181499e+000 -1.271211e-001 -1.958748e+000 -1.267773e+000 -9.903125e-001 -1.605954e+000 -1.107893e+000 -1.370399e+000 -1.012761e+000 -1.263980e+000 -4.415824e-001 2.872360e+000 2.572359e-001 4.912383e-001 8.390869e-001 3.990611e-001 -5.353606e-001 2.409065e-001 -1.049081e-001 -8.078325e-001 -1.085259e-001 -2.017663e-001 -2.136378e-001 -1.152367e-001 -4.130087e-001
<VARIANCE> 39
 7.409797e+001 8.489688e+001 1.269873e+002 1.308228e+002 1.180797e+002 1.283929e+002 1.104678e+002 1.106089e+002 8.664359e+001 7.837666e+001 6.289114e+001 5.401752e+001 8.351391e+001 4.240898e+000 6.549174e+000 7.495717e+000 8.092359e+000 7.926340e+000 7.007976e+000 7.676161e+000 8.248794e+000 6.365245e+000 5.376494e+000 6.249574e+000 3.960482e+000 8.093555e+000 9.258174e-001 1.289345e+000 1.465827e+000 1.772664e+000 1.933674e+000 2.034376e+000 1.948332e+000 1.682543e+000 1.408466e+000 1.211487e+000 1.142013e+000 9.195945e-001 1.106040e+000
<GCONST> 1.593588e+002
<TRANSP> 5
 0.000000e+000 1.000000e+000 0.000000e+000 0.000000e+000 0.000000e+000
 0.000000e+000 7.493899e-001 2.506101e-001 0.000000e+000 0.000000e+000
 0.000000e+000 0.000000e+000 5.197533e-001 4.802467e-001 0.000000e+000
 0.000000e+000 0.000000e+000 0.000000e+000 5.163170e-001 4.836830e-001
 0.000000e+000 0.000000e+000 0.000000e+000 0.000000e+000 0.000000e+000
<ENDHMM>
~h "l"
<BEGINHMM>
<NUMSTATES> 5
<STATE> 2
<NUMMIXES> 2
<MIXTURE> 1 4.840229e-001
<MEAN> 39
 -3.891592e+000 -3.473062e+000 8.906156e-001 -1.131213e+001 -1.195409e+001 -1.857520e+001 -1.163937e+001 -6.930351e+000 -1.848271e+000 -6.059805e+000 -3.358623e+000 -7.542871e-001 6.918511e+001 2.077678e-001 7.076818e-001 6.324183e-001 6.798463e-001 -4.248613e-002 -9.868273e-001 -2.204166e-001 4.352756e-001 -1.574693e-001 -5.771199e-001 3.932251e-001 1.050652e+000 -3.391629e-001 -5.571276e-002 7.125347e-003 -1.244799e-001 -3.840797e-001 1.202849e-001 3.449044e-001 1.127135e-001 1.644313e-001 5.421312e-002 1.281650e-001 5.465662e-002 2.865054e-002 6.931513e-002
<VARIANCE> 39
 5.342811e+001 4.991108e+001 5.516106e+001 8.589187e+001 5.869013e+001 8.118701e+001 9.279662e+001 6.131030e+001 7.122202e+001 5.988265e+001 5.695540e+001 6.284301e+001 8.263976e+001 1.206949e+000 2.061005e+000 1.932198e+000 3.153119e+000 3.553291e+000 4.058908e+000 5.436097e+000 3.930327e+000 4.443992e+000 4.181876e+000 3.509624e+000 3.279370e+000 1.319838e+000 2.330416e-001 3.186204e-001 3.306437e-001 6.295834e-001 5.972347e-001 8.420349e-001 7.645598e-001 7.340234e-001 7.264325e-001 8.251471e-001 6.981418e-001 5.983618e-001 2.032582e-001
<GCONST> 1.317793e+002
<MIXTURE> 2 5.159764e-001
<MEAN> 39
 -6.546260e+000 -1.542305e+000 -4.878313e-001 -1.222234e+001 -1.316827e+001 -1.796212e+001 -1.221892e+001 -8.091230e+000 -2.061411e+000 -7.989195e+000 -1.272118e+000 -7.543287e-001 7.083243e+001 -2.311846e-001 5.262903e-001 4.504979e-001 4.601212e-001 7.688942e-002 -5.218500e-001 3.752143e-002 -6.420309e-003 -5.012212e-001 -3.219692e-001 -2.636460e-002 3.843661e-001 -3.534110e-001 -4.025459e-002 -8.527222e-002 -1.441779e-001 -1.932159e-001 6.507699e-002 3.124634e-001 9.887325e-002 2.989964e-002 5.360014e-002 8.080012e-002 -1.184153e-001 -8.529351e-002 6.746628e-002
<VARIANCE> 39
 3.763668e+001 4.165675e+001 4.253165e+001 6.643801e+001 3.740648e+001 5.977564e+001 6.688050e+001 5.100452e+001 6.346679e+001 5.043750e+001 4.499810e+001 4.490388e+001 5.112888e+001 6.594031e-001 1.188070e+000 1.566380e+000 1.989236e+000 1.750259e+000 3.089708e+000 3.215629e+000 3.172603e+000 3.424076e+000 2.825292e+000 2.686870e+000 2.686115e+000 5.384852e-001 8.701471e-002 1.641061e-001 2.249566e-001 4.073434e-001 3.136751e-001 5.555105e-001 4.988282e-001 5.350451e-001 6.345040e-001 5.733331e-001 5.526533e-001 4.014466e-001 8.131867e-002
<GCONST> 1.162416e+002
<STATE> 3
<NUMMIXES> 2
<MIXTURE> 1 4.367823e-001
<MEAN> 39
 -2.968038e+000 -1.252959e+000 1.543789e+000 -1.211857e+001 -1.114397e+001 -1.930199e+001 -1.309486e+001 -6.432831e+000 -2.746987e-001 -8.608785e+000 -4.557100e+000 3.611059e+000 6.835973e+001 1.545926e-001 1.182062e-001 1.052904e-003 -1.929575e-001 -1.537429e-002 8.813368e-002 1.613816e-001 7.328360e-001 2.170823e-001 -6.244573e-001 2.457712e-001 4.114144e-001 1.692305e-001 -2.411664e-004 -2.343223e-001 -2.926244e-001 -4.192301e-001 -7.980523e-002 4.208584e-001 3.452681e-001 1.401619e-001 -8.469542e-003 2.915623e-001 -1.158236e-002 -4.258634e-001 2.962799e-001
<VARIANCE> 39
 7.233961e+001 5.995158e+001 6.036023e+001 8.061934e+001 6.364110e+001 8.007986e+001 8.133984e+001 6.237532e+001 7.279237e+001 7.594814e+001 6.623338e+001 7.136611e+001 7.374277e+001 1.438209e+000 2.504510e+000 2.296463e+000 3.300720e+000 3.742964e+000 4.316857e+000 4.946177e+000 4.634694e+000 4.089128e+000 4.653137e+000 4.163124e+000 3.633175e+000 1.871138e+000 2.408614e-001 5.071930e-001 4.521455e-001 6.868834e-001 6.708576e-001 8.117694e-001 1.010580e+000 9.510115e-001 8.131475e-001 9.427533e-001 7.915232e-001 7.281756e-001 2.942457e-001
<GCONST> 1.365406e+002
<MIXTURE> 2 5.632181e-001
<MEAN> 39
 -2.240675e+000 -3.291416e+000 1.096328e+000 -1.073181e+001 -1.139055e+001 -2.057103e+001 -1.365828e+001 -5.567582e+000 -1.415650e+000 -8.850504e+000 -5.805120e+000 4.256678e+000 7.039822e+001 -2.131354e-001 -3.727409e-001 -9.201374e-002 -6.476755e-001 -1.329618e-001 3.277249e-001 4.614938e-001 3.723491e-001 -4.703988e-002 5.039601e-002 -1.277143e-001 -3.428259e-001 4.336988e-001 -1.214605e-001 -3.194736e-001 -2.698069e-001 -3.430836e-001 -1.971280e-001 4.726695e-001 3.330791e-001 1.249741e-002 4.831620e-002 2.160800e-001 8.648404e-002 -5.289012e-001 2.916382e-001
<VARIANCE> 39
 7.276469e+001 6.423419e+001 3.699958e+001 6.001984e+001 6.071112e+001 7.034084e+001 6.822386e+001 6.856890e+001 5.908504e+001 5.998836e+001 6.100616e+001 5.223750e+001 2.498923e+001 6.099728e-001 1.306440e+000 1.553209e+000 2.405305e+000 2.620036e+000 2.434846e+000 4.080936e+000 3.327401e+000 2.961867e+000 3.263137e+000 3.348979e+000 2.232639e+000 9.537376e-001 1.050938e-001 2.910413e-001 3.103929e-001 5.371959e-001 5.613496e-001 5.782020e-001 8.293254e-001 6.797302e-001 6.815774e-001 6.885971e-001 7.032326e-001 4.767878e-001 1.545167e-001
<GCONST> 1.231930e+002
<STATE> 4
<NUMMIXES> 2
<MIXTURE> 1 4.978166e-001
<MEAN> 39
 1.565552e+000 -3.348931e+000 3.611460e+000 -1.880957e+001 -7.905659e+000 -1.840618e+001 -1.463296e+001 -1.713502e+000 1.995039e+000 -1.006347e+001 -8.092004e+000 4.947532e+000 7.006855e+001 3.060877e-002 -8.954643e-002 -3.092555e-001 -6.030179e-001 1.775755e-001 2.289664e-001 7.186069e-001 6.506620e-001 -3.182798e-001 2.890865e-001 2.398282e-001 -1.574168e-001 5.183313e-001 -1.261318e-001 -1.462402e-001 -1.401086e-001 -1.318848e-001 -1.481747e-002 1.835140e-001 3.598212e-001 -1.918689e-001 -2.022368e-001 3.262288e-001 7.107670e-002 -8.492484e-002 1.006414e-001
<VARIANCE> 39
 5.359185e+001 6.255086e+001 6.713521e+001 1.377207e+002 8.338984e+001 1.431615e+002 1.244027e+002 1.332733e+002 1.194684e+002 1.005537e+002 7.334387e+001 1.296840e+002 6.612194e+001 3.158784e+000 4.468500e+000 3.188919e+000 5.742066e+000 5.369270e+000 8.143295e+000 8.400374e+000 7.593444e+000 7.319283e+000 7.023366e+000 6.230156e+000 6.205736e+000 3.312849e+000 2.375012e-001 5.382332e-001 4.524062e-001 7.665770e-001 9.321921e-001 1.100674e+000 1.204010e+000 1.226264e+000 1.344987e+000 1.076242e+000 1.003323e+000 1.254461e+000 2.939114e-001
<GCONST> 1.497308e+002
<MIXTURE> 2 5.021834e-001
<MEAN> 39
 1.449801e-001 -5.051882e+000 2.027198e+000 -1.772093e+001 -9.734833e+000 -1.925433e+001 -1.342088e+001 -2.131380e+000 6.320316e-001 -9.022208e+000 -7.084433e+000 3.692823e+000 7.209643e+001 -2.733489e-001 -8.262013e-001 -8.838132e-001 -7.801756e-001 7.669456e-002 1.065896e+000 1.244908e+000 5.941897e-001 -1.857173e-001 3.923911e-001 -3.571600e-001 -9.101475e-001 6.441145e-001 -1.367870e-001 -9.263229e-002 -2.005278e-001 1.353803e-002 8.775917e-002 3.134795e-001 3.386401e-001 -1.993669e-001 -2.350091e-001 1.651784e-001 -2.671286e-002 -1.278437e-001 -1.753106e-002
<VARIANCE> 39
 6.412043e+001 6.585191e+001 6.292754e+001 1.204437e+002 7.356529e+001 9.465772e+001 1.069417e+002 1.133830e+002 8.249496e+001 8.065834e+001 7.498798e+001 9.245658e+001 4.177000e+001 1.290128e+000 3.902495e+000 3.635667e+000 4.599362e+000 4.860487e+000 5.043143e+000 8.621892e+000 7.967630e+000 6.245857e+000 6.720704e+000 4.772258e+000 5.576757e+000 2.673657e+000 2.001998e-001 5.786969e-001 3.606264e-001 5.665497e-001 7.489249e-001 7.767292e-001 1.118189e+000 9.563246e-001 8.917035e-001 9.494261e-001 8.088104e-001 8.537921e-001 2.347196e-001
<GCONST> 1.422488e+002
<TRANSP> 5
 0.000000e+000 1.000000e+000 0.000000e+000 0.000000e+000 0.000000e+000
 0.000000e+000 7.101766e-001 2.898234e-001 0.000000e+000 0.000000e+000
 0.000000e+000 0.000000e+000 5.614973e-001 4.385027e-001 0.000000e+000
 0.000000e+000 0.000000e+000 0.000000e+000 6.544358e-001 3.455642e-001
 0.000000e+000 0.000000e+000 0.000000e+000 0.000000e+000 0.000000e+000
<ENDHMM>
~h "m"
<BEGINHMM>
<NUMSTATES> 5
<STATE> 2
<NUMMIXES> 2
<MIXTURE> 1 4.843295e-001
<MEAN> 39
 -2.952438e+000 -3.035853e+000 -3.077397e+000 -8.404730e+000 -5.959807e+000 -1.093653e+001 -9.111179e+000 -1.225509e+001 -4.629496e+000 -3.051608e+000 -3.501102e+000 -5.612798e+000 6.025319e+001 1.288764e+000 1.021653e+000 3.569138e-001 9.037914e-001 -2.135537e-002 -5.084558e-001 -7.929962e-001 -1.888103e+000 -7.739675e-001 4.169324e-001 -2.242818e-001 -1.941420e-001 5.334703e-001 2.591297e-002 1.766903e-003 -1.582483e-002 -2.875174e-001 -1.615394e-002 -1.169041e-003 -4.074236e-002 1.166503e-001 -1.351770e-002 -4.275241e-003 -3.744128e-002 9.274998e-003 3.052078e-001
<VARIANCE> 39
 9.363886e+001 6.129954e+001 4.565909e+001 5.980843e+001 6.650777e+001 5.917675e+001 8.538699e+001 8.868686e+001 4.906560e+001 6.356591e+001 4.722766e+001 3.893027e+001 1.974835e+002 4.963078e+000 6.240669e+000 4.836840e+000 4.200758e+000 4.262718e+000 4.417556e+000 5.848598e+000 7.022533e+000 5.155538e+000 4.797453e+000 3.572667e+000 3.335545e+000 4.048673e+000 8.479798e-001 8.517044e-001 7.979335e-001 6.453485e-001 6.632365e-001 8.000319e-001 9.626749e-001 1.363689e+000 8.862510e-001 8.278884e-001 6.573354e-001 5.719433e-001 5.481141e-001
<GCONST> 1.432427e+002
<MIXTURE> 2 5.156626e-001
<MEAN> 39
 2.075324e+000 -7.258104e-001 -4.693494e+000 -1.093488e+001 -6.880714e+000 -1.169138e+001 -1.247941e+001 -1.465856e+001 -7.728589e+000 -4.881131e+000 -5.059718e+000 -7.527314e+000 6.523820e+001 1.148978e+000 2.039377e-001 -2.229966e-001 6.144192e-001 -2.082012e-001 -6.419234e-001 -6.460585e-001 -1.927916e+000 -9.623142e-001 5.898840e-001 -6.551859e-001 -8.366597e-001 8.124977e-001 -5.205739e-001 -4.539205e-001 3.312003e-003 -1.741741e-001 1.641555e-001 2.276344e-001 3.000637e-001 5.221771e-001 3.590463e-001 1.333030e-001 -3.607820e-002 1.717945e-001 1.697392e-002
<VARIANCE> 39
 7.170897e+001 8.590002e+001 5.988077e+001 6.963457e+001 6.602494e+001 6.246732e+001 6.578438e+001 8.396540e+001 5.615180e+001 6.788476e+001 5.263571e+001 3.613676e+001 8.587817e+001 4.000981e+000 5.516204e+000 5.952402e+000 6.418543e+000 5.526218e+000 5.777489e+000 6.961000e+000 7.786551e+000 6.150873e+000 5.928069e+000 4.322054e+000 3.615961e+000 5.591208e+000 4.650253e-001 8.611789e-001 8.420869e-001 7.187080e-001 7.009302e-001 8.325217e-001 8.806036e-001 1.100657e+000 8.183219e-001 8.955244e-001 6.892670e-001 5.594373e-001 3.282028e-001
<GCONST> 1.438245e+002
<STATE> 3
<NUMMIXES> 2
<MIXTURE> 1 5.008928e-001
<MEAN> 39
 1.434528e+000 -3.686752e+000 -2.802673e+000 -8.480839e+000 -7.217229e+000 -1.151501e+001 -1.178919e+001 -1.568723e+001 -8.018137e+000 -1.782278e+000 -5.859878e+000 -7.416949e+000 6.943069e+001 -1.957919e-002 1.165468e-001 9.068667e-002 2.952864e-001 1.298545e-001 -1.667640e-002 2.644785e-002 -2.311895e-001 8.597755e-003 2.874869e-001 1.969855e-001 1.430430e-001 -9.610303e-002 -5.512740e-002 -6.328081e-002 -1.401814e-001 -3.383819e-001 -3.965285e-002 7.486621e-002 3.735314e-002 4.798075e-001 2.158336e-001 -1.327032e-001 7.468306e-002 2.221921e-002 1.088186e-001
<VARIANCE> 39
 6.527291e+001 5.919187e+001 4.884343e+001 7.087074e+001 6.428107e+001 5.758103e+001 9.520755e+001 8.600404e+001 5.781636e+001 7.875519e+001 6.133100e+001 4.279309e+001 2.753637e+001 3.057989e-001 1.143287e+000 1.212552e+000 1.683270e+000 1.782698e+000 1.701559e+000 2.127395e+000 2.815876e+000 2.244338e+000 2.362487e+000 2.029891e+000 1.904163e+000 5.098250e-001 7.744877e-002 1.709664e-001 3.525802e-001 3.860300e-001 3.188490e-001 3.905225e-001 4.747092e-001 7.457176e-001 5.667132e-001 5.334657e-001 4.346799e-001 4.406921e-001 7.676340e-002
<GCONST> 1.149772e+002
<MIXTURE> 2 4.990780e-001
<MEAN> 39
 3.130143e-002 -2.571056e+000 -3.863575e+000 -9.283138e+000 -6.813351e+000 -1.175246e+001 -1.293278e+001 -1.390181e+001 -7.986473e+000 -3.979185e+000 -6.818371e+000 -8.762195e+000 6.873064e+001 -9.475990e-002 8.692232e-003 5.488933e-002 1.420824e-001 6.822892e-002 -9.522758e-002 5.642334e-002 -7.321812e-005 -1.107953e-001 5.681797e-002 -1.406088e-001 -2.373406e-001 -2.105879e-002 -5.453477e-002 -7.977500e-002 -1.055381e-001 -2.578985e-001 -6.601401e-002 9.915134e-002 5.655289e-002 3.159294e-001 1.320547e-001 -1.233000e-001 3.470760e-002 1.289069e-001 9.438994e-002
<VARIANCE> 39
 6.877386e+001 7.263822e+001 4.949108e+001 5.835237e+001 5.515812e+001 5.132794e+001 7.375954e+001 6.239861e+001 5.854681e+001 7.208786e+001 6.107912e+001 3.626485e+001 4.444881e+001 2.644971e-001 1.015888e+000 1.213892e+000 1.544617e+000 1.655077e+000 1.731458e+000 2.011740e+000 2.455867e+000 2.095910e+000 2.349213e+000 2.039772e+000 1.841870e+000 4.403007e-001 6.672911e-002 1.501845e-001 3.157090e-001 3.265170e-001 3.011249e-001 3.929694e-001 4.234952e-001 6.052465e-001 4.741285e-001 4.965230e-001 4.357592e-001 3.895493e-001 6.490108e-002
<GCONST> 1.121263e+002
<STATE> 4
<NUMMIXES> 2
<MIXTURE> 1 4.789305e-001
<MEAN> 39
 -3.793907e-001 1.315099e+000 -3.230206e+000 -7.087599e+000 -5.765543e+000 -1.165074e+001 -9.041885e+000 -1.230349e+001 -6.108646e+000 -4.870163e+000 -3.965224e+000 -8.071420e+000 6.302567e+001 -4.576679e-001 -3.247736e-001 -3.799941e-001 -4.883510e-001 2.018777e-001 4.155218e-001 2.663692e-001 1.210825e+000 7.649627e-001 -2.479430e-001 2.608253e-001 3.232974e-001 1.223980e-002 -1.109624e-001 -2.400237e-001 -8.733834e-002 -2.492823e-001 1.181140e-001 1.348470e-001 -1.207274e-003 3.358876e-001 1.359338e-001 -1.489761e-001 -5.204057e-003 1.511435e-001 1.385206e-001
<VARIANCE> 39
 7.183698e+001 9.402537e+001 6.515713e+001 6.799490e+001 6.140819e+001 5.600899e+001 8.411948e+001 8.768233e+001 6.606554e+001 8.049606e+001 5.486628e+001 4.779276e+001 9.992390e+001 1.050466e+000 2.861460e+000 3.910458e+000 4.019714e+000 3.294373e+000 3.521423e+000 4.192324e+000 5.982797e+000 4.872892e+000 4.452031e+000 3.663606e+000 3.646367e+000 1.938057e+000 1.699028e-001 3.773236e-001 5.712203e-001 6.822739e-001 5.693368e-001 6.430282e-001 6.858034e-001 1.059029e+000 7.853158e-001 8.891885e-001 6.475662e-001 6.688474e-001 1.978182e-001
<GCONST> 1.350246e+002
<MIXTURE> 2 5.210510e-001
<MEAN> 39
 1.033327e+000 -2.816336e+000 -5.381469e+000 -9.523915e+000 -5.681933e+000 -1.208684e+001 -1.142639e+001 -1.322449e+001 -5.391744e+000 -2.033643e+000 -4.838652e+000 -9.527336e+000 6.786556e+001 -4.078191e-001 -1.219787e+000 -1.144289e+000 -1.499784e+000 3.320156e-001 3.545926e-001 -4.143939e-002 2.794022e+000 1.267805e+000 -1.002760e+000 -3.118087e-001 1.283309e-001 8.681614e-001 -2.102468e-001 -2.514947e-001 1.371980e-002 -2.080039e-001 1.809165e-001 1.111624e-001 1.172451e-002 5.913733e-001 5.090323e-002 -4.849626e-001 -9.131557e-002 3.861358e-001 1.053736e-001
<VARIANCE> 39
 6.496433e+001 8.813084e+001 5.926154e+001 6.524387e+001 5.915714e+001 5.932741e+001 8.322593e+001 9.550500e+001 6.333084e+001 9.281911e+001 5.610226e+001 3.965860e+001 8.866623e+001 8.697454e-001 2.430475e+000 4.418067e+000 4.022504e+000 3.719170e+000 4.306794e+000 4.717350e+000 9.977517e+000 6.247147e+000 5.507123e+000 3.801940e+000 4.342039e+000 1.601270e+000 1.058539e-001 2.656716e-001 5.498408e-001 7.434484e-001 5.491653e-001 6.097367e-001 6.522439e-001 1.248801e+000 8.063197e-001 9.245084e-001 6.277860e-001 6.357145e-001 1.187996e-001
<GCONST> 1.345619e+002
<TRANSP> 5
 0.000000e+000 1.000000e+000 0.000000e+000 0.000000e+000 0.000000e+000
 0.000000e+000 5.783464e-001 4.216537e-001 0.000000e+000 0.000000e+000
 0.000000e+000 0.000000e+000 7.953985e-001 2.046016e-001 0.000000e+000
 0.000000e+000 0.000000e+000 0.000000e+000 6.566542e-001 3.433458e-001
 0.000000e+000 0.000000e+000 0.000000e+000 0.000000e+000 0.000000e+000
<ENDHMM>
~h "n"
<BEGINHMM>
<NUMSTATES> 5
<STATE> 2
<NUMMIXES> 2
<MIXTURE> 1 5.271301e-001
<MEAN> 39
 2.882667e+000 -5.036276e+000 -2.524410e+000 -1.470412e+001 -9.342379e+000 -1.595477e+001 -8.171685e+000 -8.785254e+000 -6.972229e+000 -2.365873e+000 -5.541711e+000 -5.515822e+000 7.216095e+001 6.091690e-001 8.331585e-001 2.810145e-001 1.360385e+000 -9.721411e-001 -1.907735e-001 8.935002e-001 -1.863041e+000 -3.764903e-001 3.402840e-001 -2.186114e-001 3.386065e-001 -9.526780e-001 -1.181772e-001 4.955664e-002 -8.291424e-002 -2.032184e-001 1.406005e-001 2.600752e-001 -1.064704e-001 2.486103e-001 1.690848e-001 -1.468273e-001 -5.084657e-003 6.833982e-002 2.859064e-002
<VARIANCE> 39
