~o
<STREAMINFO> 1 39
<VECSIZE> 39<NULLD><MFCC_D_A_0><DIAGC>
~h "a"
<BEGINHMM>
<NUMSTATES> 5
<STATE> 2
<MEAN> 39
 -3.443402e+000 -1.261622e+001 -9.107921e+000 -1.667500e+001 -4.887249e+000 -1.234456e+001 -6.799134e+000 2.441520e+000 -1.865118e+000 -8.492187e+000 -7.465888e+000 -1.768265e+000 7.506477e+001 7.326974e-002 -1.425279e+000 -6.466315e-001 -2.455291e-001 1.043919e+000 4.106064e-001 1.455638e-001 1.132047e+000 -4.490452e-001 -1.002243e+000 -4.122660e-001 5.470769e-001 1.236694e+000 -2.009012e-001 5.099449e-001 2.903883e-001 3.344439e-001 -7.685583e-002 2.390597e-002 -8.142623e-003 -5.287769e-001 -3.785016e-002 2.995327e-001 3.151247e-001 -9.879766e-002 -5.297492e-001
<VARIANCE> 39
 5.168670e+001 4.763031e+001 6.777682e+001 8.354794e+001 1.067582e+002 8.373586e+001 9.800391e+001 8.794477e+001 7.393866e+001 7.298994e+001 7.352378e+001 6.058728e+001 9.675194e+001 2.716385e+000 3.685649e+000 4.065435e+000 4.213994e+000 5.448351e+000 4.868355e+000 5.489216e+000 6.642003e+000 4.686179e+000 4.790456e+000 4.181381e+000 3.812065e+000 4.402300e+000 4.913873e-001 6.412431e-001 6.019332e-001 6.858754e-001 8.794529e-001 8.083286e-001 9.388498e-001 1.050295e+000 8.752804e-001 8.255726e-001 8.495209e-001 6.925908e-001 7.344561e-001
<GCONST> 1.436773e+002
<STATE> 3
<MEAN> 39
 -2.741314e+000 -1.495470e+001 -1.001064e+001 -1.650063e+001 -2.343408e+000 -1.164232e+001 -7.866989e+000 3.791662e+000 -3.106366e+000 -1.021521e+001 -7.946322e+000 -1.455809e+000 7.767401e+001 1.067910e-001 5.682356e-001 1.142539e-001 3.522192e-001 -7.539095e-002 -1.166649e-001 -3.158042e-001 -2.909351e-001 -7.593434e-002 -9.382003e-002 2.587887e-001 -2.826307e-001 -5.028358e-001 2.166509e-002 5.199173e-001 1.873148e-001 8.291698e-002 -2.519687e-001 -9.907328e-002 -7.698254e-002 -3.133222e-001 7.580543e-002 2.216038e-001 1.457697e-001 -1.833803e-001 -3.697478e-001
<VARIANCE> 39
 4.925133e+001 3.301353e+001 4.642453e+001 7.830353e+001 9.312913e+001 7.410316e+001 9.993758e+001 7.563947e+001 7.148071e+001 6.319173e+001 6.279970e+001 5.326628e+001 3.140258e+001 8.536826e-001 1.973501e+000 1.665748e+000 1.743354e+000 2.968475e+000 2.570184e+000 3.523253e+000 2.823686e+000 2.699065e+000 2.725656e+000 2.441514e+000 2.350224e+000 1.121246e+000 1.680568e-001 2.758364e-001 2.869360e-001 3.406923e-001 4.557384e-001 4.767092e-001 6.013884e-001 6.118967e-001 5.327402e-001 5.273069e-001 4.689049e-001 4.276332e-001 1.855564e-001
<GCONST> 1.223075e+002
<STATE> 4
<MEAN> 39
 -2.617155e+000 -6.818418e+000 -8.493814e+000 -1.264395e+001 -3.937892e+000 -1.217422e+001 -8.005301e+000 1.484323e+000 -2.107048e+000 -1.101453e+001 -5.269517e+000 -4.449206e+000 6.895599e+001 -4.832689e-001 1.450218e+000 6.180385e-001 7.747321e-001 -3.133536e-001 8.246647e-002 3.318746e-001 -8.894684e-001 -1.893706e-002 4.746511e-001 4.369364e-001 -3.367651e-001 -1.620644e+000 -1.777180e-001 -2.830882e-002 4.884116e-002 3.238581e-002 3.597452e-002 9.544913e-002 1.484833e-001 -6.183790e-002 1.991965e-002 1.814141e-001 3.163557e-002 6.719004e-002 -5.121239e-002
<VARIANCE> 39
 6.479965e+001 5.398017e+001 6.139395e+001 8.483003e+001 1.027822e+002 7.169518e+001 1.132110e+002 9.558916e+001 7.865343e+001 8.774500e+001 5.727987e+001 5.672398e+001 8.759736e+001 1.776247e+000 2.723616e+000 2.617009e+000 3.092669e+000 4.124066e+000 3.752330e+000 5.107702e+000 4.687019e+000 3.919384e+000 3.971532e+000 3.653132e+000 3.405482e+000 1.937198e+000 2.643984e-001 3.839367e-001 4.135741e-001 4.806099e-001 6.052070e-001 6.324595e-001 8.963023e-001 8.241506e-001 6.981979e-001 6.982989e-001 6.154071e-001 5.834497e-001 2.547601e-001
<GCONST> 1.352209e+002
<TRANSP> 5
 0.000000e+000 1.000000e+000 0.000000e+000 0.000000e+000 0.000000e+000
 0.000000e+000 5.922129e-001 4.077871e-001 0.000000e+000 0.000000e+000
 0.000000e+000 0.000000e+000 7.256520e-001 2.743480e-001 0.000000e+000
 0.000000e+000 0.000000e+000 0.000000e+000 7.005527e-001 2.994473e-001
 0.000000e+000 0.000000e+000 0.000000e+000 0.000000e+000 0.000000e+000
<ENDHMM>
~h "b"
<BEGINHMM>
<NUMSTATES> 5
<STATE> 2
<MEAN> 39
 -7.664057e+000 -1.250271e+001 -1.054101e+001 -1.483394e+001 -3.046225e+000 -5.967708e+000 -5.783908e+000 -2.810452e+000 -1.443593e-001 -2.650330e+000 -1.044874e+001 -4.665188e+000 6.476209e+001 -5.382400e-001 -1.073879e+000 -3.670655e-001 -1.020764e-001 6.589502e-001 5.380272e-001 7.655565e-001 8.657365e-001 -2.956097e-001 -1.010776e+000 -7.907375e-001 5.927433e-001 8.481171e-001 2.426278e-002 3.502676e-001 3.248105e-001 4.137293e-001 6.717703e-002 -1.833876e-002 -8.080906e-002 -2.749261e-001 -3.263322e-001 -3.490736e-002 1.663992e-001 9.172675e-003 -3.858912e-001
<VARIANCE> 39
 2.520783e+001 6.069570e+001 4.482201e+001 5.401648e+001 3.610202e+001 6.592630e+001 9.433749e+001 5.898285e+001 3.220316e+001 3.739412e+001 9.785067e+001 6.016455e+001 2.812559e+002 9.046721e-001 2.540277e+000 1.778017e+000 4.034857e+000 2.195270e+000 2.992415e+000 2.895349e+000 5.127724e+000 3.524486e+000 3.411119e+000 3.732054e+000 3.149380e+000 2.547756e+000 1.503891e-001 3.452752e-001 2.669497e-001 7.121310e-001 3.795564e-001 6.340299e-001 6.452920e-001 8.198926e-001 5.242389e-001 7.693415e-001 6.931089e-001 4.708404e-001 2.905239e-001
<GCONST> 1.279404e+002
<STATE> 3
<MEAN> 39
 -1.640230e+001 -1.170211e+001 -6.100884e+000 -8.833855e+000 -2.244457e+000 -7.246718e+000 -1.097314e+000 -4.897615e+000 3.931901e-001 -3.984961e+000 -1.465553e+000 -2.937021e+000 4.342867e+001 -3.372437e-003 3.813895e-002 7.544202e-002 1.961005e-002 5.626097e-002 -6.809641e-002 -4.546881e-002 -2.344628e-003 -1.360976e-001 -1.508808e-002 -5.621644e-002 1.387700e-003 -6.484680e-002 3.389931e-002 4.304360e-002 1.270432e-002 -2.876650e-002 -1.362978e-002 -5.622661e-002 -4.225120e-002 -2.482694e-003 6.142403e-003 4.336381e-002 -5.560367e-003 -4.538586e-002 -1.479979e-002
<VARIANCE> 39
 1.318411e+001 1.327064e+001 1.314207e+001 1.576863e+001 1.378200e+001 2.002796e+001 2.453420e+001 2.468794e+001 2.686816e+001 2.050198e+001 4.810947e+001 2.044575e+001 1.545853e+002 2.239833e-001 4.170859e-001 7.865410e-001 1.205289e+000 1.449039e+000 1.886584e+000 1.943131e+000 2.235828e+000 2.478211e+000 2.129562e+000 2.003027e+000 1.907091e+000 7.496902e-002 5.166929e-002 9.452593e-002 1.505997e-001 2.642451e-001 3.071637e-001 4.040968e-001 4.159267e-001 4.773335e-001 5.249233e-001 4.865397e-001 4.177203e-001 4.117264e-001 1.834518e-002
<GCONST> 9.353680e+001
<STATE> 4
<MEAN> 39
 -6.438638e+000 -9.552923e+000 -5.050461e+000 -1.306461e+001 -1.875433e+000 -1.022854e+001 -1.070950e+001 -5.439662e+000 -6.661262e+000 -2.469060e+000 -1.551615e+001 -4.188704e+000 6.978712e+001 6.347282e-001 1.410745e+000 8.617557e-001 5.853440e-002 -6.738703e-001 -1.045734e+000 -6.367027e-001 -1.354326e+000 4.098074e-001 8.817571e-001 4.019559e-001 -4.876897e-001 -9.459613e-001 1.045045e-001 1.724851e-001 1.450128e-002 1.630827e-001 -2.114277e-001 1.225296e-001 -1.058717e-001 -1.472227e-001 2.851694e-001 -1.313498e-001 2.476736e-001 1.003391e-001 -5.846699e-002
<VARIANCE> 39
 1.936470e+001 3.921266e+001 3.192607e+001 3.897795e+001 2.670312e+001 3.394678e+001 4.141520e+001 5.872969e+001 4.982224e+001 3.891933e+001 7.782381e+001 4.293939e+001 1.627297e+002 3.642695e-001 9.197916e-001 9.274703e-001 1.432682e+000 2.085667e+000 2.086909e+000 2.213291e+000 3.855624e+000 4.134603e+000 3.157772e+000 2.429331e+000 2.028057e+000 4.780149e-001 9.523468e-002 1.738692e-001 1.856291e-001 2.369012e-001 2.926112e-001 3.511678e-001 3.620330e-001 5.875688e-001 5.781198e-001 6.160533e-001 4.203891e-001 3.074558e-001 5.219710e-002
<GCONST> 1.099706e+002
<TRANSP> 5
 0.000000e+000 1.000000e+000 0.000000e+000 0.000000e+000 0.000000e+000
 0.000000e+000 7.479523e-001 2.520477e-001 0.000000e+000 0.000000e+000
 0.000000e+000 0.000000e+000 9.301955e-001 6.980448e-002 0.000000e+000
 0.000000e+000 0.000000e+000 0.000000e+000 7.671385e-001 2.328615e-001
 0.000000e+000 0.000000e+000 0.000000e+000 0.000000e+000 0.000000e+000
<ENDHMM>
~h "c"
<BEGINHMM>
<NUMSTATES> 5
<STATE> 2
<MEAN> 39
 -1.252261e+001 -1.863541e+000 -4.552460e+000 -6.901693e+000 -4.887012e+000 -7.534601e+000 -2.472543e+000 -4.974189e+000 -3.568256e-001 -2.791118e+000 -2.128944e-001 -2.419969e+000 5.233718e+001 -3.051887e-001 -9.463009e-001 -1.051304e+000 -3.151133e-001 8.118973e-001 4.624555e-001 4.021363e-001 6.425474e-001 -1.124405e-001 4.751370e-001 3.378941e-001 2.208034e-001 5.941238e-002 3.801410e-001 -9.444717e-002 -2.684885e-001 -5.247048e-001 -9.536901e-002 -1.545147e-001 -2.541456e-001 -5.165073e-002 -1.866952e-001 5.005405e-002 -1.826471e-001 -3.674152e-002 6.181480e-001
<VARIANCE> 39
 4.671077e+001 8.338562e+001 4.080837e+001 6.598586e+001 6.146327e+001 6.004683e+001 4.841705e+001 5.147686e+001 4.198343e+001 4.844922e+001 4.412597e+001 4.189283e+001 1.079491e+002 2.408565e+000 3.363307e+000 4.903642e+000 5.125387e+000 5.234880e+000 5.864763e+000 4.657263e+000 4.903041e+000 4.289927e+000 4.471189e+000 4.447486e+000 3.350980e+000 3.693517e+000 3.782609e-001 6.423761e-001 8.422047e-001 8.830514e-001 1.002315e+000 1.085700e+000 9.883848e-001 9.384924e-001 8.523946e-001 8.459272e-001 8.662487e-001 6.789213e-001 5.951529e-001
<GCONST> 1.394517e+002
<STATE> 3
<MEAN> 39
 -1.056343e+001 -5.690012e+000 -1.087726e+001 -1.168200e+001 -1.942897e+000 -7.392232e+000 -2.998165e+000 -2.740058e+000 -1.880333e+000 1.853786e-001 -4.452633e-002 -1.473721e+000 5.735322e+001 1.245919e+000 -4.525448e-001 -1.442133e+000 -1.803477e+000 -5.575904e-002 -6.414070e-001 -8.871036e-001 4.749784e-001 -8.547423e-001 4.451302e-001 -2.499833e-001 -4.107596e-002 2.198356e+000 4.797189e-001 4.522739e-001 4.757801e-001 -2.035019e-001 -6.265409e-001 -4.156834e-001 -3.515140e-001 -2.727631e-001 -4.029986e-002 -2.669523e-001 -2.567441e-001 -9.412816e-002 3.955242e-001
<VARIANCE> 39
 5.617175e+001 6.858099e+001 8.080607e+001 8.627387e+001 1.166798e+002 1.020499e+002 7.436427e+001 8.845991e+001 8.249994e+001 7.459100e+001 5.526905e+001 6.206361e+001 1.264067e+002 3.934245e+000 6.373486e+000 9.030600e+000 8.391339e+000 1.020055e+001 1.079939e+001 8.508329e+000 8.554226e+000 8.008249e+000 6.024473e+000 5.408072e+000 5.252269e+000 7.797387e+000 5.565166e-001 8.991573e-001 1.289602e+000 1.213764e+000 1.612620e+000 1.354447e+000 1.360671e+000 1.435120e+000 1.173601e+000 1.057059e+000 8.928915e-001 8.993829e-001 8.770664e-001
<GCONST> 1.555513e+002
<STATE> 4
<MEAN> 39
 -4.466723e+000 -6.082389e+000 -1.121392e+001 -1.698877e+001 -4.073314e+000 -1.205460e+001 -5.789341e+000 -3.048596e+000 -4.131221e+000 -1.299328e+000 -2.535211e+000 -2.686463e+000 6.472989e+001 1.453011e+000 3.390557e-001 2.603582e-001 -1.259942e+000 -9.332392e-001 -7.553050e-001 -7.195866e-001 -2.995783e-001 -3.044576e-001 -4.011108e-001 -6.493991e-001 1.591142e-001 2.244461e+000 -1.093078e-001 2.743868e-002 4.443857e-001 1.418739e-001 -1.333132e-001 1.885770e-001 1.221603e-001 -2.550536e-001 1.574207e-001 -1.534713e-001 3.244263e-002 6.689499e-002 -2.977097e-001
<VARIANCE> 39
 8.295840e+001 8.546182e+001 1.172900e+002 1.262282e+002 1.294410e+002 1.523563e+002 1.270250e+002 1.090348e+002 1.077295e+002 8.454184e+001 7.092773e+001 6.358378e+001 1.097023e+002 6.350373e+000 7.621957e+000 7.274066e+000 8.325489e+000 9.060720e+000 8.986516e+000 1.011951e+001 8.909720e+000 8.249462e+000 6.358863e+000 5.786624e+000 5.077343e+000 9.744582e+000 9.315165e-001 1.252520e+000 1.404955e+000 1.540702e+000 1.848340e+000 1.851427e+000 1.849382e+000 1.641561e+000 1.622993e+000 1.248125e+000 1.088573e+000 9.887974e-001 1.322313e+000
<GCONST> 1.626281e+002
<TRANSP> 5
 0.000000e+000 1.000000e+000 0.000000e+000 0.000000e+000 0.000000e+000
 0.000000e+000 7.303620e-001 2.696380e-001 0.000000e+000 0.000000e+000
 0.000000e+000 0.000000e+000 4.950755e-001 5.049245e-001 0.000000e+000
 0.000000e+000 0.000000e+000 0.000000e+000 6.833420e-001 3.166581e-001
 0.000000e+000 0.000000e+000 0.000000e+000 0.000000e+000 0.000000e+000
<ENDHMM>
~h "d"
<BEGINHMM>
<NUMSTATES> 5
<STATE> 2
<MEAN> 39
 -1.145635e+001 -4.595525e+000 -8.973212e-001 -1.109626e+001 -9.512576e+000 -1.552788e+001 -5.292654e+000 -5.225485e+000 -2.224427e+000 -2.397827e+000 -3.605412e+000 -1.129522e+000 6.093890e+001 7.062811e-001 1.148194e+000 6.912858e-001 4.450011e-001 -5.704162e-001 -4.787322e-001 -5.040658e-001 -8.315886e-001 -6.495005e-001 -1.829634e-001 -1.327905e-001 -1.298391e-001 -5.483874e-002 3.562456e-001 3.952720e-001 1.307859e-001 -1.572233e-002 -1.605517e-001 -9.662592e-002 -2.230318e-001 -1.721766e-003 4.672963e-002 -1.700651e-001 -1.468312e-001 -7.213612e-002 9.316036e-003
<VARIANCE> 39
 4.594326e+001 3.920029e+001 3.150254e+001 8.903480e+001 1.364368e+002 7.647481e+001 5.066466e+001 6.045309e+001 3.810360e+001 5.333674e+001 3.460929e+001 2.787454e+001 3.297127e+002 3.209018e+000 4.495829e+000 2.512921e+000 4.577429e+000 4.957355e+000 4.835750e+000 4.569742e+000 4.324212e+000 3.407264e+000 4.981363e+000 2.795655e+000 2.368003e+000 2.785028e+000 4.813395e-001 7.724021e-001 3.400271e-001 6.256078e-001 1.014996e+000 9.457203e-001 7.144492e-001 7.438817e-001 4.986904e-001 7.867424e-001 5.656796e-001 4.922873e-001 4.400842e-001
<GCONST> 1.354525e+002
<STATE> 3
<MEAN> 39
 -5.644713e+000 2.728207e+000 2.160573e+000 -7.482451e+000 -1.329862e+001 -1.535256e+001 -9.959078e+000 -9.484604e+000 -3.383618e+000 -5.306724e+000 -4.057130e+000 -1.929158e+000 6.101237e+001 1.079565e+000 1.779958e+000 5.708435e-001 3.257286e-001 -4.708022e-001 -4.327295e-001 -3.308136e-001 -4.121876e-001 -2.609602e-001 -4.684230e-001 -5.054095e-001 -5.646982e-001 -2.657549e-001 -1.918605e-001 -2.548597e-001 -2.346876e-001 -1.891461e-001 5.521623e-002 1.560046e-001 3.500400e-001 2.805967e-001 1.175627e-001 5.962083e-002 -3.240226e-003 -5.743879e-002 1.607123e-001
<VARIANCE> 39
 3.000495e+001 5.709840e+001 3.046073e+001 4.902219e+001 6.651200e+001 4.441745e+001 5.047285e+001 5.569044e+001 3.897433e+001 5.121609e+001 3.433949e+001 2.984676e+001 1.571029e+002 4.393440e+000 5.918819e+000 2.088836e+000 3.322505e+000 5.975153e+000 5.029859e+000 5.020185e+000 4.441098e+000 2.705179e+000 4.547779e+000 3.047635e+000 3.568408e+000 5.238492e+000 4.301047e-001 6.485575e-001 3.370783e-001 5.414274e-001 7.687479e-001 6.874370e-001 7.553467e-001 7.326299e-001 5.138833e-001 7.416350e-001 4.969367e-001 6.993138e-001 5.241044e-001
<GCONST> 1.333330e+002
<STATE> 4
<MEAN> 39
 -1.773559e-001 6.695430e+000 3.085073e+000 -1.029839e+001 -1.453274e+001 -1.571904e+001 -4.969381e+000 -1.170553e+001 -3.675313e+000 -7.152758e+000 -7.892015e+000 -3.783746e+000 5.869076e+001 3.044653e-001 -6.403646e-003 -5.210130e-001 -5.143743e-001 -9.943395e-002 2.111690e-001 2.480896e-002 4.508773e-001 3.079654e-002 1.976331e-001 3.028540e-002 -2.634507e-001 1.048622e+000 -2.821227e-001 -5.802544e-001 -1.830126e-001 -3.036576e-001 2.003164e-002 1.879317e-001 -8.035116e-002 8.704244e-002 1.542385e-001 3.795037e-001 2.972091e-001 1.754262e-001 4.037481e-001
<VARIANCE> 39
 6.452699e+001 6.564579e+001 6.663496e+001 7.531377e+001 6.791095e+001 6.152654e+001 8.115337e+001 9.649290e+001 5.576855e+001 6.237320e+001 5.470441e+001 7.646149e+001 1.202508e+002 4.700874e+000 8.624187e+000 4.484723e+000 5.605328e+000 7.199428e+000 6.350867e+000 5.857729e+000 5.414444e+000 4.506678e+000 5.280243e+000 4.025370e+000 6.443398e+000 6.642017e+000 8.076811e-001 1.430647e+000 9.047800e-001 9.750809e-001 1.440333e+000 1.295234e+000 1.041011e+000 9.888130e-001 8.742340e-001 1.124593e+000 8.820108e-001 1.159729e+000 1.154160e+000
<GCONST> 1.504811e+002
<TRANSP> 5
 0.000000e+000 1.000000e+000 0.000000e+000 0.000000e+000 0.000000e+000
 0.000000e+000 6.327190e-001 3.672811e-001 0.000000e+000 0.000000e+000
 0.000000e+000 0.000000e+000 6.455719e-001 3.544281e-001 0.000000e+000
 0.000000e+000 0.000000e+000 0.000000e+000 7.141371e-001 2.858629e-001
 0.000000e+000 0.000000e+000 0.000000e+000 0.000000e+000 0.000000e+000
<ENDHMM>
~h "e"
<BEGINHMM>
<NUMSTATES> 5
<STATE> 2
<MEAN> 39
 -8.101583e+000 -1.437793e+000 8.540087e-001 -1.278462e+001 -1.370502e+001 -1.486208e+001 -6.405365e+000 -5.768776e+000 -2.586554e+000 -3.721116e+000 -1.664886e+000 -2.754441e+000 6.660270e+001 7.053092e-001 -2.937161e-002 9.142923e-001 -1.065733e+000 -1.935902e+000 -4.615724e-001 1.647377e-001 -3.044806e-001 -3.261058e-001 3.997793e-001 1.949740e-001 1.519071e-001 1.474532e+000 -3.849897e-002 -1.632410e-002 3.392162e-002 -1.749249e-001 -4.777038e-002 2.010088e-001 4.713847e-002 -1.570299e-001 6.251612e-002 2.000784e-001 -9.611937e-002 8.449230e-002 4.883067e-002
<VARIANCE> 39
 7.108495e+001 5.753465e+001 5.100946e+001 8.102191e+001 1.003235e+002 7.229563e+001 6.011006e+001 6.960365e+001 5.334052e+001 5.576886e+001 5.029702e+001 4.160614e+001 1.579698e+002 6.775273e+000 6.280621e+000 4.838999e+000 6.066408e+000 7.968826e+000 7.112691e+000 7.384637e+000 6.394242e+000 5.790524e+000 5.836805e+000 4.531118e+000 4.820619e+000 7.324274e+000 8.278568e-001 8.308406e-001 6.338920e-001 1.002024e+000 1.406322e+000 1.351356e+000 9.775795e-001 1.142359e+000 9.652658e-001 9.328598e-001 8.199605e-001 7.719800e-001 1.008583e+000
<GCONST> 1.492436e+002
<STATE> 3
<MEAN> 39
 -4.538547e+000 -2.051945e+000 3.394314e+000 -1.649916e+001 -1.980951e+001 -1.465123e+001 -6.368680e+000 -7.155303e+000 -2.890955e+000 -2.188151e+000 -2.122741e+000 -2.026338e+000 7.188261e+001 3.844270e-001 -2.270579e-001 8.693597e-001 -1.250878e+000 -1.318186e+000 1.090178e-001 2.591684e-001 -5.169644e-001 -1.323796e-001 7.541889e-001 -3.431921e-001 3.007999e-001 1.273939e+000 -3.466140e-001 5.001152e-002 -2.494569e-001 2.274555e-001 7.218851e-001 2.689111e-001 1.167898e-001 3.511947e-002 7.646507e-002 8.311707e-003 -1.283584e-001 -4.369614e-002 -4.663140e-001
<VARIANCE> 39
 6.652997e+001 6.720309e+001 5.523053e+001 8.152373e+001 8.788132e+001 6.768354e+001 6.254840e+001 7.998071e+001 6.143167e+001 6.717648e+001 4.365831e+001 3.875745e+001 8.262194e+001 4.974231e+000 5.926616e+000 4.480040e+000 7.223054e+000 8.667518e+000 6.199101e+000 6.162980e+000 6.301815e+000 5.134434e+000 6.651818e+000 4.349459e+000 4.414353e+000 8.158484e+000 8.837941e-001 9.759356e-001 6.288103e-001 8.750544e-001 1.177539e+000 1.068380e+000 1.053310e+000 1.120806e+000 8.980594e-001 1.039498e+000 7.518315e-001 7.313787e-001 8.039119e-001
<GCONST> 1.477308e+002
<STATE> 4
<MEAN> 39
 -4.501228e+000 -4.674683e-001 7.250684e+000 -2.344984e+001 -1.681584e+001 -1.401868e+001 -2.554407e+000 -1.071667e+001 -3.042934e+000 1.160892e+000 -5.660406e+000 -1.507518e+000 7.136199e+001 -1.955293e-001 2.019265e-001 -3.573984e-001 4.144958e-001 5.183604e-001 2.081839e-001 1.801660e-001 -9.537555e-002 2.219467e-002 -2.581331e-001 7.816084e-002 -1.892189e-001 -3.445752e-001 -8.113518e-002 1.158815e-002 -2.421667e-001 2.930728e-001 2.651739e-001 1.156607e-002 -6.614166e-002 1.212279e-001 4.751709e-002 -1.660901e-001 1.062712e-001 -7.299127e-002 -2.164960e-001
<VARIANCE> 39
 6.737254e+001 8.071966e+001 8.467287e+001 1.519507e+002 1.479717e+002 1.206072e+002 7.448869e+001 9.174410e+001 7.207887e+001 8.419547e+001 6.674350e+001 5.251871e+001 8.792137e+001 3.358244e+000 3.621771e+000 4.208666e+000 7.974192e+000 6.146457e+000 5.431326e+000 5.099508e+000 5.294801e+000 4.269233e+000 6.117553e+000 4.332021e+000 3.667228e+000 4.000514e+000 4.921221e-001 6.355005e-001 6.387154e-001 1.223697e+000 1.142705e+000 9.927648e-001 9.784485e-001 9.325505e-001 8.037628e-001 1.114011e+000 7.819064e-001 6.700932e-001 5.971624e-001
<GCONST> 1.472928e+002
<TRANSP> 5
 0.000000e+000 1.000000e+000 0.000000e+000 0.000000e+000 0.000000e+000
 0.000000e+000 4.336276e-001 5.663723e-001 0.000000e+000 0.000000e+000
 0.000000e+000 0.000000e+000 5.193679e-001 4.806320e-001 0.000000e+000
 0.000000e+000 0.000000e+000 0.000000e+000 8.282446e-001 1.717554e-001
 0.000000e+000 0.000000e+000 0.000000e+000 0.000000e+000 0.000000e+000
<ENDHMM>
~h "f"
<BEGINHMM>
<NUMSTATES> 5
<STATE> 2
<MEAN> 39
 -1.566316e+001 -9.168585e+000 -5.606529e+000 -8.041347e+000 -2.244064e+000 -8.288931e+000 -6.329614e-001 -6.128558e+000 -1.289744e-001 -5.135375e+000 -8.870860e-001 -3.542331e+000 4.179402e+001 -2.005249e-002 -6.451694e-003 -4.605670e-003 2.209322e-002 3.975095e-006 -3.253279e-002 -1.937485e-002 -2.647923e-002 -1.423922e-002 4.539976e-003 2.973921e-002 -1.063523e-003 -2.150941e-002 7.540049e-003 7.895592e-003 -1.059158e-002 -1.875712e-002 -3.248268e-003 -2.144702e-003 5.821010e-003 -3.797327e-004 9.401623e-003 -8.932540e-004 1.070051e-002 -5.893229e-003 -1.905525e-003
<VARIANCE> 39
 4.805106e+000 6.698711e+000 1.223615e+001 1.879688e+001 2.046454e+001 2.186986e+001 2.436679e+001 2.613449e+001 2.850669e+001 3.118975e+001 2.665112e+001 2.003178e+001 1.943047e+001 4.913799e-001 7.088016e-001 1.149572e+000 1.911492e+000 2.141795e+000 2.131507e+000 2.476156e+000 2.917262e+000 3.267657e+000 2.476880e+000 2.825564e+000 2.111754e+000 1.258900e-001 9.495249e-002 1.499913e-001 2.375709e-001 3.806248e-001 4.232820e-001 4.356194e-001 5.381766e-001 6.027523e-001 6.578205e-001 5.077345e-001 5.930105e-001 4.438179e-001 2.912377e-002
<GCONST> 9.877871e+001
<STATE> 3
<MEAN> 39
 -1.477751e+001 -1.370841e+000 -4.975367e+000 -8.444008e-001 -7.412313e+000 -6.062683e+000 -6.315401e+000 -4.964517e+000 -6.809978e+000 -4.253558e+000 -5.589200e+000 -4.680508e+000 6.505466e+001 -1.188325e+000 8.758072e-001 7.682882e-001 5.835998e-001 7.526465e-001 6.443735e-001 7.792946e-001 -2.816012e-001 1.705662e-001 4.035743e-001 5.398598e-001 -3.584780e-001 -6.703287e-001 2.520744e-001 -2.443556e-002 -1.357175e-001 -4.742820e-002 -1.704631e-001 -2.170111e-003 -2.518370e-001 2.245101e-001 2.105666e-001 9.045000e-002 -1.535496e-001 5.596719e-002 1.945236e-001
<VARIANCE> 39
 5.043055e+001 3.329587e+001 2.095369e+001 4.266064e+001 5.190551e+001 4.551831e+001 2.836710e+001 1.847178e+001 8.422733e+001 5.553154e+001 4.358311e+001 2.769500e+001 1.450135e+002 2.198063e+000 1.514940e+000 1.868347e+000 1.989744e+000 1.174360e+000 3.364880e+000 2.315269e+000 1.727169e+000 3.966996e+000 6.073720e+000 3.048048e+000 1.537097e+000 1.203768e+000 5.091067e-001 3.381419e-001 2.969205e-001 3.835108e-001 3.960875e-001 6.668681e-001 3.875679e-001 4.564962e-001 9.140679e-001 1.205676e+000 6.749613e-001 2.557676e-001 3.481348e-001
<GCONST> 1.209291e+002
<STATE> 4
<MEAN> 39
 -1.434024e+001 -3.985223e+000 -9.757150e+000 -7.874381e+000 -5.545856e+000 -1.559900e+001 -7.774237e+000 -3.762841e+000 -2.159705e-001 -3.707053e+000 9.533093e-001 -6.836119e+000 6.572953e+001 5.793951e-001 -1.600243e-002 -3.876001e-001 -3.753768e-001 -5.364559e-001 3.542752e-002 -9.968741e-002 6.530537e-001 -1.135151e-001 -1.332645e-001 -3.047833e-001 1.653878e-001 1.063339e+000 3.004082e-001 3.804882e-002 -4.634666e-003 -7.413729e-002 -1.623452e-001 -6.381200e-002 -2.053090e-001 -1.186666e-001 -5.354802e-002 -7.156920e-002 -2.257604e-001 -1.974423e-002 2.836493e-001
<VARIANCE> 39
 5.521143e+001 3.342591e+001 4.236785e+001 7.534167e+001 3.152256e+001 1.265056e+002 6.189200e+001 5.766128e+001 3.893257e+001 2.488194e+001 2.723455e+001 3.294445e+001 1.572310e+002 5.874824e+000 2.809067e+000 5.327214e+000 3.273235e+000 3.589363e+000 6.697969e+000 4.066944e+000 6.170899e+000 6.782698e+000 3.172011e+000 3.428852e+000 3.541875e+000 5.134234e+000 8.043697e-001 4.462387e-001 6.504167e-001 5.214848e-001 6.386976e-001 1.079689e+000 6.739274e-001 8.954095e-001 1.079770e+000 7.372976e-001 8.045003e-001 8.462280e-001 6.699817e-001
<GCONST> 1.377407e+002
<TRANSP> 5
 0.000000e+000 1.000000e+000 0.000000e+000 0.000000e+000 0.000000e+000
 0.000000e+000 9.749895e-001 2.501045e-002 0.000000e+000 0.000000e+000
 0.000000e+000 0.000000e+000 7.957268e-001 2.042732e-001 0.000000e+000
 0.000000e+000 0.000000e+000 0.000000e+000 8.299060e-001 1.700940e-001
 0.000000e+000 0.000000e+000 0.000000e+000 0.000000e+000 0.000000e+000
<ENDHMM>
~h "g"
<BEGINHMM>
<NUMSTATES> 5
<STATE> 2
<MEAN> 39
 -3.540995e+000 -1.942953e+000 -2.009900e+000 -6.831189e+000 -7.324227e+000 -1.710052e+001 -1.137865e+001 -1.229150e+001 -1.855627e+000 -8.316363e-001 -3.951710e+000 -8.894882e+000 5.348282e+001 5.861953e-001 -9.094727e-003 -2.930487e-001 -5.073107e-001 -3.908044e-001 -5.545190e-001 -7.159842e-003 9.181221e-001 1.754262e-001 -3.973352e-001 -1.935517e-001 -6.685829e-001 1.268787e+000 1.657620e-002 -1.520456e-001 -1.076573e-001 -3.511265e-001 -1.731196e-001 8.251374e-002 2.681944e-001 -4.506063e-002 -4.850427e-002 1.273756e-001 -1.174980e-001 -1.101881e-001 2.505382e-001
<VARIANCE> 39
 7.310727e+001 6.040231e+001 4.728797e+001 9.245055e+001 5.350037e+001 5.658463e+001 9.729127e+001 1.407864e+002 8.576467e+001 1.215599e+002 6.898717e+001 1.318583e+002 1.437317e+002 4.643395e+000 9.040789e+000 5.531069e+000 8.163107e+000 7.174771e+000 7.618416e+000 9.486322e+000 1.588713e+001 6.708403e+000 6.465074e+000 7.357810e+000 6.639241e+000 9.410121e+000 4.619830e-001 1.239822e+000 9.352407e-001 1.196612e+000 8.090856e-001 1.288349e+000 1.512739e+000 2.745377e+000 1.138644e+000 1.043336e+000 1.209870e+000 1.131075e+000 1.170928e+000
<GCONST> 1.574575e+002
<STATE> 3
<MEAN> 39
 -1.693347e+000 6.368992e-001 3.986542e+000 -7.097239e+000 -1.264534e+001 -1.683227e+001 -5.961197e+000 -1.191123e+001 -5.288583e+000 3.732658e+000 -1.857665e+000 -1.010198e+001 6.358131e+001 1.140692e-001 9.959184e-002 -2.952581e-002 -5.181620e-001 -2.859171e-001 -3.594970e-001 4.253509e-001 1.623584e-001 -7.843162e-001 -3.315196e-001 1.412499e-001 -6.975006e-002 3.715656e-001 -1.142071e-001 -2.279892e-002 -1.723883e-001 5.183269e-002 2.697380e-001 2.373369e-001 1.066576e-001 1.438165e-002 -8.329537e-002 -1.639235e-001 3.209845e-002 2.713647e-001 -1.344185e-001
<VARIANCE> 39
 3.119982e+001 3.194313e+001 1.227166e+002 1.588204e+002 1.554565e+002 2.823172e+001 9.249586e+001 9.117513e+001 1.277565e+002 1.033553e+002 4.930271e+001 6.371710e+001 6.590104e+001 8.545686e-001 1.412859e+000 2.553343e+000 4.609713e+000 5.049895e+000 2.465942e+000 5.976853e+000 2.911018e+000 6.174782e+000 5.696891e+000 3.000202e+000 3.189018e+000 9.758819e-001 2.194375e-001 3.071966e-001 4.767709e-001 7.857293e-001 7.652093e-001 4.900955e-001 7.012255e-001 8.424968e-001 1.407739e+000 9.453297e-001 6.525430e-001 5.132536e-001 2.983776e-001
<GCONST> 1.342382e+002
<STATE> 4
<MEAN> 39
 -6.888280e-001 2.781237e+000 -8.441970e+000 -1.312122e+001 -1.441365e+001 -1.935084e+001 -2.782798e+000 -1.075232e+001 -3.299938e-001 -1.133529e+001 -4.867141e+000 -1.380904e+001 5.931436e+001 -1.041909e-001 -3.384233e-001 -3.945140e-001 -3.162069e-002 1.990222e-001 3.902130e-001 1.957339e-001 -2.106722e-001 -1.864614e-003 -4.059136e-002 -2.225579e-001 1.907943e-001 -8.524323e-002 -4.731566e-002 -1.058041e-001 -1.810486e-002 1.318541e-002 6.566043e-002 3.656963e-002 3.837714e-003 7.115360e-002 6.664547e-002 2.885381e-002 -1.167066e-002 8.487030e-002 -2.682563e-003
<VARIANCE> 39
 2.992846e+001 1.162611e+002 1.176177e+002 9.032420e+001 1.947570e+002 8.543033e+001 8.043952e+001 7.080303e+001 1.061718e+002 6.895967e+001 5.495890e+001 1.001885e+002 1.031116e+002 8.222300e-001 1.853448e+000 3.472570e+000 4.659318e+000 4.877120e+000 2.477855e+000 5.766695e+000 3.900363e+000 4.120856e+000 3.734836e+000 3.498420e+000 3.014371e+000 5.981321e-001 1.058222e-001 2.731178e-001 4.466604e-001 8.205448e-001 6.637508e-001 3.696694e-001 1.105879e+000 5.520932e-001 6.961235e-001 6.587918e-001 6.405279e-001 5.824718e-001 1.210989e-001
<GCONST> 1.326807e+002
<TRANSP> 5
 0.000000e+000 1.000000e+000 0.000000e+000 0.000000e+000 0.000000e+000
 0.000000e+000 7.842333e-001 2.157667e-001 0.000000e+000 0.000000e+000
 0.000000e+000 0.000000e+000 7.015820e-001 2.984181e-001 0.000000e+000
 0.000000e+000 0.000000e+000 0.000000e+000 8.413247e-001 1.586752e-001
 0.000000e+000 0.000000e+000 0.000000e+000 0.000000e+000 0.000000e+000
<ENDHMM>
~h "h"
<BEGINHMM>
<NUMSTATES> 5
<STATE> 2
<MEAN> 39
 -1.675879e+001 -1.051877e+001 -5.293364e+000 -8.236790e+000 -2.342414e+000 -7.865152e+000 -9.323082e-001 -5.251293e+000 4.949786e-001 -3.910754e+000 3.618103e-001 -2.909008e+000 4.044725e+001 -5.239446e-004 -1.010460e-002 -2.176010e-002 -1.960080e-002 9.327983e-003 2.713234e-003 -2.505382e-002 -1.096603e-002 -1.733689e-002 4.178621e-003 -5.656228e-004 -2.889859e-003 -2.109690e-004 1.152927e-002 9.215346e-003 -2.690900e-003 6.183030e-004 7.860722e-003 -3.140146e-004 -1.078469e-002 2.484046e-003 -2.323837e-003 1.381877e-003 -1.870465e-003 -2.005476e-004 8.542615e-003
<VARIANCE> 39
 8.797303e+000 1.416569e+001 1.209650e+001 1.599181e+001 1.952987e+001 2.178987e+001 2.435115e+001 2.660373e+001 2.597679e+001 2.253175e+001 2.255561e+001 1.868949e+001 3.443901e+001 2.897070e-001 5.360451e-001 8.360872e-001 1.392849e+000 1.785105e+000 2.216094e+000 2.361203e+000 2.820338e+000 3.086100e+000 2.445561e+000 2.438298e+000 2.131205e+000 1.129343e-001 5.931577e-002 1.110259e-001 1.746860e-001 2.934513e-001 3.746587e-001 4.664350e-001 4.943500e-001 5.957744e-001 6.624191e-001 5.106694e-001 5.048910e-001 4.587311e-001 2.315402e-002
<GCONST> 9.602649e+001
<STATE> 3
<MEAN> 39
 -1.398681e+001 -7.147385e+000 -5.594693e+000 -9.169301e+000 -2.879188e+000 -8.484911e+000 -3.268094e+000 -3.127253e+000 -9.296867e-001 -3.089668e+000 -1.510539e+000 -2.298218e+000 5.715668e+001 2.473600e-002 -1.549592e-002 -1.013497e-001 -1.718015e-001 5.454952e-002 -5.098270e-002 -2.573240e-001 -2.101357e-002 -1.332212e-002 2.545517e-002 -1.978217e-002 -1.135446e-002 2.199244e-001 1.482701e-001 7.097032e-002 1.196810e-003 -1.821782e-002 -1.987949e-002 -3.190420e-002 -7.768760e-002 -9.750621e-004 -3.075578e-002 -5.014244e-002 -6.083247e-002 3.016196e-003 5.539561e-002
<VARIANCE> 39
 5.528939e+001 6.162451e+001 5.299865e+001 6.036004e+001 8.395991e+001 5.759318e+001 6.782683e+001 7.812495e+001 6.919048e+001 5.906730e+001 5.148817e+001 4.455567e+001 2.288847e+002 1.176091e+000 1.367047e+000 1.780492e+000 2.510209e+000 3.316016e+000 2.963444e+000 3.791833e+000 3.806119e+000 3.998041e+000 3.392129e+000 3.202230e+000 2.832135e+000 6.899548e-001 2.491432e-001 2.811109e-001 3.353590e-001 4.573250e-001 6.161041e-001 5.781690e-001 6.969094e-001 7.214704e-001 7.379004e-001 6.682140e-001 5.908195e-001 5.457544e-001 1.385490e-001
<GCONST> 1.277261e+002
<STATE> 4
<MEAN> 39
 -1.322167e+001 -6.871131e+000 -6.807913e+000 -1.114900e+001 -1.428358e+000 -9.477520e+000 -4.121685e+000 -2.578692e+000 3.201194e-001 -1.789297e+000 -8.982887e-001 -2.340003e+000 5.394266e+001 4.676270e-001 1.844134e-001 -1.966754e-001 -3.441126e-001 4.897420e-002 -3.614553e-002 -4.882402e-001 -5.686406e-002 -2.552277e-001 -2.367299e-001 -2.096884e-001 -1.259932e-001 4.320266e-001 3.496452e-001 1.522723e-001 -4.878822e-002 -1.355246e-001 -2.020727e-001 -3.454526e-002 -1.389237e-001 -7.838083e-002 -1.447888e-001 -1.802310e-001 -1.525644e-001 -3.952073e-002 2.121907e-001
<VARIANCE> 39
 7.308385e+001 7.104029e+001 8.614010e+001 1.069882e+002 1.372935e+002 8.979578e+001 9.706046e+001 9.302859e+001 9.286776e+001 7.551254e+001 7.349611e+001 6.401583e+001 2.115309e+002 2.649515e+000 2.358192e+000 2.976358e+000 4.071403e+000 5.688890e+000 4.087936e+000 5.288050e+000 5.635270e+000 5.524682e+000 4.259365e+000 3.852128e+000 3.634811e+000 1.371333e+000 5.346301e-001 4.705932e-001 5.393524e-001 7.370384e-001 9.901497e-001 8.005574e-001 9.520835e-001 9.844925e-001 9.758660e-001 7.980739e-001 7.506556e-001 6.666721e-001 3.244844e-001
<GCONST> 1.428689e+002
<TRANSP> 5
 0.000000e+000 1.000000e+000 0.000000e+000 0.000000e+000 0.000000e+000
 0.000000e+000 9.520891e-001 4.791087e-002 0.000000e+000 0.000000e+000
 0.000000e+000 0.000000e+000 5.970425e-001 4.029575e-001 0.000000e+000
 0.000000e+000 0.000000e+000 0.000000e+000 6.898358e-001 3.101642e-001
 0.000000e+000 0.000000e+000 0.000000e+000 0.000000e+000 0.000000e+000
<ENDHMM>
~h "i"
<BEGINHMM>
<NUMSTATES> 5
<STATE> 2
<MEAN> 39
 -6.636723e+000 3.868791e+000 6.800293e+000 -1.888641e+001 -1.465989e+001 -1.198782e+001 -9.558522e+000 -1.320815e+001 -2.414252e+000 -3.215289e+000 -5.581892e+000 -2.962961e+000 6.697666e+001 7.138408e-001 8.378359e-001 2.069547e+000 -2.630769e+000 -1.819133e+000 3.063243e-001 -1.370175e+000 -1.249488e+000 5.562202e-002 3.400848e-001 -1.376679e+000 5.261091e-001 1.876687e+000 -3.215599e-001 -2.418701e-001 -3.395307e-001 9.488815e-003 4.693289e-001 3.569369e-001 3.270125e-001 3.348518e-001 1.384180e-001 1.297191e-001 2.658846e-002 1.709670e-001 -2.416200e-001
<VARIANCE> 39
 9.119569e+001 7.096329e+001 9.252500e+001 1.321615e+002 1.129766e+002 8.093903e+001 9.284313e+001 7.530734e+001 7.119865e+001 6.935894e+001 6.557873e+001 4.618596e+001 1.031552e+002 7.356732e+000 5.421145e+000 6.972087e+000 9.114753e+000 9.227958e+000 7.483313e+000 7.937349e+000 7.009556e+000 5.845582e+000 5.651525e+000 6.192835e+000 4.788984e+000 5.527675e+000 9.011340e-001 9.711788e-001 1.177816e+000 1.539841e+000 1.748594e+000 1.197403e+000 1.384754e+000 1.237566e+000 1.003306e+000 9.828445e-001 9.788216e-001 7.568501e-001 8.945409e-001
<GCONST> 1.549969e+002
<STATE> 3
<MEAN> 39
 -7.133434e+000 5.610814e+000 1.299271e+001 -2.933274e+001 -1.726446e+001 -7.704003e+000 -1.244991e+001 -1.519624e+001 -1.717266e+000 -6.750462e-001 -1.157564e+001 8.772613e-001 7.311579e+001 2.001100e-002 2.058607e-001 -1.330046e-001 -3.055698e-001 3.351705e-001 5.001312e-001 8.487041e-002 2.257231e-002 9.204453e-002 -3.176519e-002 -1.560752e-001 2.116955e-001 -1.285302e-001 1.898744e-002 -8.942600e-002 -5.164436e-001 7.897061e-001 3.458624e-001 -1.697738e-001 3.309108e-001 1.765493e-001 -8.767884e-002 -1.720283e-001 3.885691e-001 -2.533094e-001 -3.664290e-001
<VARIANCE> 39
 3.991519e+001 4.543558e+001 6.610468e+001 1.680564e+002 6.377671e+001 7.664811e+001 8.609599e+001 6.380949e+001 6.376955e+001 7.380254e+001 8.590665e+001 5.477970e+001 2.955272e+001 1.448995e+000 1.979234e+000 2.659248e+000 4.907432e+000 3.463269e+000 3.214031e+000 3.845281e+000 3.199715e+000 3.015302e+000 3.101261e+000 3.325445e+000 2.877280e+000 1.411434e+000 3.337136e-001 3.391046e-001 5.367839e-001 8.002498e-001 7.986279e-001 6.867293e-001 8.052073e-001 7.462391e-001 6.391622e-001 6.394060e-001 6.904317e-001 5.476859e-001 2.449827e-001
<GCONST> 1.318740e+002
<STATE> 4
<MEAN> 39
 -6.805797e+000 6.121747e+000 7.437759e+000 -2.052089e+001 -1.253097e+001 -7.278186e+000 -9.884126e+000 -1.395518e+001 -1.470499e+000 -4.625419e+000 -6.427808e+000 -2.067187e+000 6.657732e+001 -5.746477e-002 -4.045536e-001 -1.311226e+000 2.034086e+000 8.956733e-001 -3.437225e-001 6.578804e-001 4.626470e-001 -1.866831e-001 -2.545335e-001 7.704986e-001 -4.795798e-001 -1.045530e+000 -6.474934e-002 -1.224979e-001 -9.079193e-002 6.496916e-002 5.679414e-002 -5.579958e-002 1.450540e-002 9.579828e-002 7.845546e-003 6.887768e-002 2.137497e-002 2.978428e-002 -3.897533e-002
<VARIANCE> 39
 6.925656e+001 5.926484e+001 6.094711e+001 1.683634e+002 7.981557e+001 1.034048e+002 8.469864e+001 7.081292e+001 6.341431e+001 7.539119e+001 6.548759e+001 5.395710e+001 7.667606e+001 2.215785e+000 2.312903e+000 3.314073e+000 4.868229e+000 4.011605e+000 4.469063e+000 4.779166e+000 4.319351e+000 4.047610e+000 3.868564e+000 3.936599e+000 3.433467e+000 1.577077e+000 2.305013e-001 3.497915e-001 4.475482e-001 8.134802e-001 6.872713e-001 7.538761e-001 7.898939e-001 7.404585e-001 7.198153e-001 6.810996e-001 6.645551e-001 6.081635e-001 2.124079e-001
<GCONST> 1.361817e+002
<TRANSP> 5
 0.000000e+000 1.000000e+000 0.000000e+000 0.000000e+000 0.000000e+000
 0.000000e+000 6.750615e-001 3.249384e-001 0.000000e+000 0.000000e+000
 0.000000e+000 0.000000e+000 7.396701e-001 2.603300e-001 0.000000e+000
 0.000000e+000 0.000000e+000 0.000000e+000 7.923144e-001 2.076856e-001
 0.000000e+000 0.000000e+000 0.000000e+000 0.000000e+000 0.000000e+000
<ENDHMM>
~h "j"
<BEGINHMM>
<NUMSTATES> 5
<STATE> 2
<MEAN> 39
 -1.456082e+001 -4.435213e+000 -6.781474e+000 -1.114622e+001 -4.231909e+000 -7.063920e+000 -2.738884e+000 -1.563186e+000 -1.575161e+000 -3.992143e+000 -1.455546e+000 -2.207040e+000 5.735207e+001 -4.178207e-001 -9.931144e-002 -1.270856e-001 -2.771369e-001 8.868069e-002 3.699957e-001 2.832557e-001 -7.331717e-002 1.940890e-001 6.143287e-001 2.232581e-001 1.236081e-001 -2.260058e-001 1.800103e-001 -1.641952e-002 -2.234170e-002 -5.698851e-002 -6.502061e-002 -5.016341e-002 -8.870731e-002 -3.416603e-002 -1.302489e-002 -2.716052e-002 -6.375314e-002 -3.640879e-002 8.443751e-002
<VARIANCE> 39
 4.405568e+001 3.797442e+001 7.973719e+001 5.339806e+001 6.448596e+001 5.504095e+001 5.470152e+001 7.850598e+001 5.244536e+001 5.539661e+001 3.919816e+001 4.853313e+001 2.193476e+002 1.849517e+000 1.519994e+000 2.742232e+000 3.597404e+000 3.241288e+000 4.045425e+000 4.324857e+000 4.108471e+000 4.545385e+000 4.674636e+000 2.329835e+000 3.543000e+000 1.670352e+000 2.270840e-001 2.204538e-001 4.262172e-001 5.806068e-001 5.770766e-001 7.608168e-001 6.995520e-001 7.267711e-001 8.023713e-001 7.967896e-001 4.680176e-001 7.304598e-001 1.872642e-001
<GCONST> 1.302787e+002
<STATE> 3
<MEAN> 39
 -1.297369e+001 -3.655281e+000 -7.589753e+000 -1.339675e+001 -3.521520e+000 -5.912786e+000 -4.417273e+000 -6.314620e-001 -3.084133e+000 -9.230245e-001 -1.939815e-001 -2.474888e+000 6.096519e+001 1.749725e-001 1.095726e-001 -1.914046e-001 -5.378417e-001 -2.090758e-001 2.672694e-001 2.112439e-003 -2.198353e-001 -6.896401e-002 3.907772e-001 -1.224103e-001 -3.475170e-001 1.226472e-001 4.734714e-001 2.689543e-001 2.302925e-001 -1.041887e-001 -2.142577e-001 -2.532835e-001 -2.146876e-001 -2.394736e-001 -1.120649e-001 -1.787561e-001 -2.358950e-001 -9.248754e-002 1.883078e-001
<VARIANCE> 39
 6.027317e+001 3.698008e+001 9.534081e+001 7.551865e+001 8.080108e+001 7.761750e+001 7.425595e+001 1.005910e+002 6.620451e+001 6.304285e+001 4.930299e+001 5.020273e+001 1.445370e+002 2.454707e+000 2.250614e+000 3.460374e+000 3.433485e+000 4.747158e+000 5.444295e+000 5.060103e+000 5.322218e+000 4.868048e+000 5.221008e+000 3.073655e+000 3.211739e+000 1.978246e+000 3.996229e-001 3.909049e-001 5.592188e-001 7.365389e-001 7.088405e-001 9.732510e-001 1.084384e+000 1.154130e+000 9.489188e-001 8.031124e-001 6.553010e-001 6.399038e-001 3.553028e-001
<GCONST> 1.389257e+002
<STATE> 4
<MEAN> 39
 -1.134535e+001 -4.813929e+000 -1.192014e+001 -1.659757e+001 1.549998e+000 -3.036609e+000 -4.361038e+000 -2.971266e-001 -4.268273e+000 -6.034911e-001 1.387996e+000 -3.315067e+000 5.907858e+001 1.286364e+000 7.704327e-001 4.875770e-001 -7.704472e-001 -8.472037e-001 -7.943038e-001 -6.685813e-001 -7.109306e-001 -3.620104e-001 -6.674867e-001 -6.635069e-001 -2.001522e-001 8.563108e-001 5.587044e-001 3.325535e-001 2.511228e-001 -2.156298e-001 -6.013578e-001 -3.693445e-001 -3.456702e-001 -4.432466e-001 -1.287045e-001 -2.855166e-001 -2.971525e-001 -2.140000e-002 4.253554e-001
<VARIANCE> 39
 6.514712e+001 3.831778e+001 1.405977e+002 1.242014e+002 1.354181e+002 1.408657e+002 8.399687e+001 9.929130e+001 1.002714e+002 6.112940e+001 7.470731e+001 6.557696e+001 1.483209e+002 3.812804e+000 4.048862e+000 5.152477e+000 4.679756e+000 6.572911e+000 6.269069e+000 5.939613e+000 8.628365e+000 5.655571e+000 5.339049e+000 3.445287e+000 4.140721e+000 2.727783e+000 5.859635e-001 5.296934e-001 7.094824e-001 8.819350e-001 9.957871e-001 1.009938e+000 1.289194e+000 1.206101e+000 1.152146e+000 9.979061e-001 6.285521e-001 8.363295e-001 4.560077e-001
<GCONST> 1.485330e+002
<TRANSP> 5
 0.000000e+000 1.000000e+000 0.000000e+000 0.000000e+000 0.000000e+000
 0.000000e+000 7.128384e-001 2.871616e-001 0.000000e+000 0.000000e+000
 0.000000e+000 0.000000e+000 3.541838e-001 6.458162e-001 0.000000e+000
 0.000000e+000 0.000000e+000 0.000000e+000 5.318310e-001 4.681690e-001
 0.000000e+000 0.000000e+000 0.000000e+000 0.000000e+000 0.000000e+000
<ENDHMM>
~h "k"
<BEGINHMM>
<NUMSTATES> 5
<STATE> 2
<MEAN> 39
 -1.230422e+001 -1.311349e+000 -2.820568e+000 -7.710248e+000 -4.919371e+000 -9.148090e+000 -2.524441e+000 -4.945215e+000 -1.313783e-001 -2.698719e+000 -9.373226e-001 -2.064589e+000 5.310683e+001 -1.659116e-001 -5.634986e-001 -7.241715e-001 -1.703485e-001 4.494586e-001 2.361415e-001 4.065419e-001 6.742034e-001 6.705698e-002 2.098583e-001 3.045585e-001 2.209236e-001 -3.278430e-001 2.677824e-001 -3.579501e-002 -2.604435e-001 -5.661979e-001 -6.118781e-002 -6.888632e-002 -1.934905e-001 2.229492e-002 -1.621109e-001 -3.807368e-002 -1.646800e-001 -3.467990e-002 6.439069e-001
<VARIANCE> 39
 5.439401e+001 7.091816e+001 4.727916e+001 7.429747e+001 7.466163e+001 6.933737e+001 5.911430e+001 6.530270e+001 5.024260e+001 5.497040e+001 5.079208e+001 3.812621e+001 9.735490e+001 3.187722e+000 3.674577e+000 4.533897e+000 5.826414e+000 5.768044e+000 6.120160e+000 5.362355e+000 5.375872e+000 4.811042e+000 4.500052e+000 4.605305e+000 3.605706e+000 5.617551e+000 5.229768e-001 7.021616e-001 8.542368e-001 1.084680e+000 1.082695e+000 1.165132e+000 1.051326e+000 1.068887e+000 9.848570e-001 8.867209e-001 8.769097e-001 7.129919e-001 8.119726e-001
<GCONST> 1.437083e+002
<STATE> 3
<MEAN> 39
 -9.921307e+000 -3.466893e+000 -6.716285e+000 -1.216563e+001 -3.896985e+000 -9.821515e+000 -1.946022e+000 -2.845571e+000 -6.581723e-001 -2.653392e+000 -1.740780e+000 -1.797795e+000 5.665822e+001 1.110759e+000 -3.951393e-001 -1.764696e+000 -2.242060e+000 2.794391e-001 -2.350157e-001 -6.821679e-001 5.357898e-001 -8.952405e-001 2.239999e-002 -2.126672e-001 2.143076e-002 2.498553e+000 3.891033e-001 3.181259e-001 1.722677e-001 -3.036892e-001 -2.238839e-001 -6.692125e-002 -4.409483e-001 -4.210138e-001 -2.846635e-001 -1.330457e-001 -1.653530e-001 -1.008762e-001 5.478187e-001
<VARIANCE> 39
 6.469886e+001 8.587288e+001 9.566303e+001 1.108298e+002 1.139600e+002 1.080791e+002 8.394295e+001 9.634922e+001 7.194400e+001 7.128589e+001 5.923077e+001 4.765441e+001 1.104389e+002 6.439944e+000 8.135197e+000 1.142684e+001 1.174625e+001 1.143770e+001 1.118927e+001 9.300497e+000 9.976222e+000 8.522316e+000 6.679214e+000 6.546360e+000 5.167968e+000 1.028833e+001 7.689533e-001 1.173004e+000 1.446797e+000 1.796336e+000 1.739228e+000 1.698519e+000 1.459203e+000 1.567961e+000 1.297097e+000 1.106021e+000 1.040191e+000 8.421260e-001 1.217582e+000
<GCONST> 1.605005e+002
<STATE> 4
<MEAN> 39
 -4.419632e+000 -3.628090e+000 -1.060382e+001 -2.018301e+001 -3.380609e+000 -1.061428e+001 -6.259742e+000 -3.575766e+000 -4.675917e+000 -3.115572e+000 -3.328166e+000 -2.535923e+000 6.589011e+001 1.311105e+000 5.949523e-001 4.278703e-002 -1.217248e+000 -5.728614e-001 -2.876891e-001 -1.032066e+000 -8.215750e-001 -7.700161e-001 -3.990416e-001 -5.208440e-001 -1.285766e-001 2.052242e+000 -5.003223e-002 1.769903e-001 6.603217e-001 4.831165e-001 -3.072109e-001 4.854863e-002 3.512401e-002 -4.335122e-001 2.285017e-001 -8.211488e-002 -5.805622e-002 3.301097e-002 -3.919779e-001
<VARIANCE> 39
 8.417910e+001 9.861634e+001 1.511890e+002 1.357950e+002 1.379627e+002 1.388644e+002 1.197531e+002 1.382275e+002 1.052739e+002 8.771795e+001 7.827327e+001 6.152459e+001 8.302176e+001 5.201584e+000 7.275542e+000 8.699280e+000 9.705242e+000 9.968005e+000 8.470027e+000 9.732946e+000 9.912906e+000 7.938149e+000 6.748371e+000 6.952920e+000 4.827599e+000 7.656116e+000 9.269488e-001 1.359541e+000 1.805514e+000 1.878510e+000 2.168995e+000 1.978162e+000 1.896033e+000 1.918206e+000 1.609443e+000 1.371934e+000 1.196102e+000 1.032812e+000 1.010494e+000
<GCONST> 1.640541e+002
<TRANSP> 5
 0.000000e+000 1.000000e+000 0.000000e+000 0.000000e+000 0.000000e+000
 0.000000e+000 7.345803e-001 2.654198e-001 0.000000e+000 0.000000e+000
 0.000000e+000 0.000000e+000 5.074528e-001 4.925471e-001 0.000000e+000
 0.000000e+000 0.000000e+000 0.000000e+000 6.171818e-001 3.828181e-001
 0.000000e+000 0.000000e+000 0.000000e+000 0.000000e+000 0.000000e+000
<ENDHMM>
~h "l"
<BEGINHMM>
<NUMSTATES> 5
<STATE> 2
<MEAN> 39
 -5.209914e+000 -3.030255e+000 -5.478219e-001 -1.223215e+001 -1.221774e+001 -1.776051e+001 -1.256890e+001 -7.106540e+000 -1.182243e+000 -6.070679e+000 -2.362213e+000 -4.210387e-001 6.885556e+001 -2.780484e-002 5.050855e-001 5.978838e-001 4.994407e-001 -1.612450e-001 -7.252308e-001 -4.356943e-002 8.120529e-002 -2.821435e-001 -4.953460e-001 2.094156e-001 6.868045e-001 -2.118313e-001 -3.107788e-002 4.914409e-003 -1.226999e-001 -2.694620e-001 4.887050e-002 2.687204e-001 9.739456e-002 2.686489e-002 1.881191e-002 1.187902e-001 1.649545e-002 -3.123774e-002 6.256299e-002
<VARIANCE> 39
 4.371838e+001 5.255994e+001 4.304965e+001 7.276440e+001 6.123823e+001 7.857784e+001 7.601378e+001 5.636210e+001 6.776015e+001 6.966428e+001 5.732643e+001 5.292699e+001 9.804768e+001 1.289034e+000 1.761432e+000 1.890776e+000 2.931465e+000 2.868476e+000 4.119594e+000 4.332978e+000 3.715394e+000 3.523983e+000 3.890190e+000 3.100150e+000 2.955449e+000 1.364795e+000 1.636730e-001 2.815288e-001 2.708093e-001 5.644090e-001 5.153781e-001 7.330566e-001 7.270301e-001 6.578080e-001 6.800732e-001 6.563896e-001 6.694416e-001 4.846895e-001 1.718563e-001
<GCONST> 1.279359e+002
<STATE> 3
<MEAN> 39
 -3.793962e+000 -2.915759e+000 1.343703e+000 -1.231555e+001 -1.266460e+001 -1.836938e+001 -1.260743e+001 -7.019989e+000 -1.375455e+000 -8.357301e+000 -4.192891e+000 2.266018e+000 7.013944e+001 3.569102e-002 8.384584e-002 5.586069e-002 -3.898812e-001 -3.613615e-001 2.830470e-001 3.067355e-001 2.447033e-001 1.095023e-001 -1.190605e-001 1.421787e-001 1.319997e-001 2.193491e-001 -3.175364e-002 -1.135662e-001 -2.293539e-001 -2.410457e-001 -1.482737e-002 3.240936e-001 2.018910e-001 7.364284e-002 3.760020e-002 1.985371e-001 -4.087742e-002 -3.080140e-001 1.277985e-001
<VARIANCE> 39
 6.369176e+001 6.256224e+001 4.795003e+001 6.874517e+001 5.895641e+001 8.167525e+001 6.830235e+001 6.856225e+001 6.912518e+001 8.053515e+001 5.980435e+001 5.880973e+001 5.795712e+001 1.454574e+000 2.268879e+000 2.065919e+000 3.491898e+000 3.791859e+000 4.496899e+000 4.946877e+000 4.285941e+000 3.748777e+000 4.989784e+000 3.705319e+000 3.334815e+000 2.099317e+000 1.710884e-001 4.076272e-001 3.855511e-001 5.682321e-001 6.062442e-001 7.743772e-001 8.297144e-001 7.365993e-001 7.681820e-001 8.694038e-001 7.084607e-001 6.310692e-001 2.542323e-001
<GCONST> 1.330859e+002
<STATE> 4
<MEAN> 39
 4.535277e-001 -4.306443e+000 3.064552e+000 -1.891248e+001 -1.001872e+001 -1.971726e+001 -1.312300e+001 -1.991077e+000 1.979165e+000 -9.298822e+000 -6.924948e+000 5.362535e+000 7.157335e+001 -1.099097e-001 -4.351820e-001 -5.262377e-001 -5.828694e-001 8.856972e-002 6.432490e-001 9.471791e-001 4.500670e-001 -2.844924e-001 3.277206e-001 -1.327132e-001 -5.301037e-001 5.397252e-001 -1.480371e-001 -1.110957e-001 -1.844182e-001 6.621248e-003 1.043485e-001 2.779459e-001 2.841005e-001 -1.224165e-001 -2.428961e-001 1.813384e-001 -7.062955e-003 -1.994314e-001 -1.576396e-002
<VARIANCE> 39
 6.509067e+001 6.670531e+001 6.523745e+001 1.203966e+002 8.914738e+001 1.084295e+002 1.249643e+002 1.220612e+002 9.282195e+001 8.969896e+001 8.561593e+001 9.703662e+001 5.352957e+001 1.738256e+000 4.002437e+000 3.290793e+000 4.768231e+000 4.724740e+000 6.449686e+000 7.630285e+000 6.965177e+000 6.074359e+000 6.035552e+000 4.783967e+000 5.505612e+000 3.242795e+000 2.521116e-001 5.825477e-001 3.912414e-001 7.159920e-001 7.756927e-001 8.917949e-001 1.117092e+000 9.922456e-001 9.590743e-001 9.826404e-001 7.628326e-001 9.503539e-001 3.989942e-001
<GCONST> 1.452393e+002
<TRANSP> 5
 0.000000e+000 1.000000e+000 0.000000e+000 0.000000e+000 0.000000e+000
 0.000000e+000 7.463999e-001 2.536001e-001 0.000000e+000 0.000000e+000
 0.000000e+000 0.000000e+000 5.747804e-001 4.252196e-001 0.000000e+000
 0.000000e+000 0.000000e+000 0.000000e+000 7.143589e-001 2.856410e-001
 0.000000e+000 0.000000e+000 0.000000e+000 0.000000e+000 0.000000e+000
<ENDHMM>
~h "m"
<BEGINHMM>
<NUMSTATES> 5
<STATE> 2
<MEAN> 39
 2.987781e-001 -3.734595e+000 -4.401469e+000 -1.034206e+001 -7.042627e+000 -1.168789e+001 -1.288487e+001 -1.298239e+001 -5.879154e+000 -2.801695e+000 -5.030145e+000 -7.205060e+000 6.763768e+001 5.897712e-001 3.724048e-001 2.378491e-001 1.072730e+000 9.046422e-002 -4.574404e-001 -4.612811e-001 -1.778413e+000 -8.092560e-001 7.392656e-001 -1.533768e-001 -5.122247e-001 -1.015167e-001 -2.781926e-001 -1.686357e-001 4.723195e-002 -2.188245e-001 8.829442e-002 1.171743e-001 2.081477e-001 3.963022e-001 1.414409e-001 -6.359488e-002 -3.056547e-002 1.378592e-001 9.648991e-002
<VARIANCE> 39
 6.767125e+001 6.352635e+001 5.344953e+001 7.214088e+001 6.464448e+001 5.643946e+001 8.469935e+001 9.609941e+001 5.322509e+001 6.924345e+001 5.282473e+001 3.872026e+001 8.754477e+001 1.817980e+000 3.348744e+000 3.822661e+000 3.873419e+000 3.492655e+000 3.866865e+000 5.336589e+000 6.376700e+000 4.772251e+000 4.147230e+000 3.295398e+000 3.151104e+000 2.468021e+000 2.333510e-001 4.016652e-001 5.558926e-001 5.748102e-001 5.173435e-001 6.150224e-001 7.395942e-001 9.903269e-001 7.106983e-001 6.733354e-001 5.641379e-001 4.968692e-001 1.744210e-001
<GCONST> 1.339556e+002
<STATE> 3
<MEAN> 39
 3.775521e-001 -4.768925e+000 -3.724969e+000 -9.784233e+000 -6.534029e+000 -1.135035e+001 -1.279269e+001 -1.353006e+001 -7.931437e+000 -2.188684e+000 -6.121131e+000 -8.077125e+000 7.024494e+001 -3.986382e-002 -1.334730e-003 -5.638867e-002 4.720302e-002 7.696410e-002 -4.420538e-002 4.544750e-002 1.377108e-001 5.377888e-002 5.580197e-002 -2.813236e-002 -8.720915e-002 2.786922e-002 -4.836362e-002 -5.906174e-002 -1.188117e-001 -2.163997e-001 -1.421618e-002 5.821316e-002 3.266160e-002 3.770560e-001 1.711677e-001 -1.602466e-001 3.082993e-003 8.081772e-002 7.982048e-002
<VARIANCE> 39
 6.425944e+001 6.096993e+001 4.960267e+001 6.320749e+001 5.611917e+001 5.290675e+001 8.463583e+001 9.056401e+001 5.833793e+001 7.272749e+001 6.012778e+001 4.021270e+001 4.201408e+001 3.438312e-001 1.172835e+000 1.713040e+000 2.116219e+000 1.760793e+000 1.908030e+000 2.172981e+000 4.043031e+000 2.741105e+000 2.519027e+000 2.119869e+000 2.034993e+000 6.226662e-001 6.909935e-002 1.593658e-001 3.151644e-001 3.942136e-001 3.099655e-001 3.692583e-001 4.243222e-001 7.994413e-001 5.285390e-001 5.277250e-001 4.126884e-001 4.018801e-001 7.370321e-002
<GCONST> 1.159839e+002
<STATE> 4
<MEAN> 39
 -1.401379e+000 -6.564934e-001 -4.901032e+000 -8.946307e+000 -6.036601e+000 -1.200094e+001 -9.782010e+000 -9.370069e+000 -5.479679e+000 -6.013875e+000 -5.035205e+000 -8.349174e+000 6.576355e+001 -4.209400e-001 -3.142071e-001 -3.151051e-001 -4.075025e-001 1.824597e-001 2.196715e-001 2.330311e-001 1.262956e+000 5.839256e-001 -5.206084e-001 -4.114344e-002 3.603414e-001 5.929442e-002 -7.165492e-002 -1.050386e-001 4.320008e-002 -6.596409e-002 5.292625e-002 6.687529e-002 2.206687e-002 1.032678e-001 -1.516382e-002 -9.514214e-002 2.935981e-002 1.868792e-001 2.612156e-002
<VARIANCE> 39
 7.388634e+001 1.101244e+002 6.431418e+001 7.378547e+001 6.544827e+001 5.836232e+001 8.832413e+001 8.686749e+001 7.519938e+001 8.009768e+001 5.593700e+001 4.769984e+001 1.123152e+002 7.854822e-001 2.238462e+000 3.052041e+000 3.519155e+000 2.899482e+000 3.189276e+000 3.705230e+000 7.272630e+000 4.531909e+000 4.296106e+000 3.276907e+000 3.158239e+000 1.310980e+000 1.336069e-001 2.922607e-001 4.387456e-001 5.601166e-001 4.890272e-001 5.393332e-001 5.893602e-001 8.687471e-001 6.937196e-001 7.547282e-001 5.605764e-001 5.947430e-001 1.166590e-001
<GCONST> 1.311440e+002
<TRANSP> 5
 0.000000e+000 1.000000e+000 0.000000e+000 0.000000e+000 0.000000e+000
 0.000000e+000 5.763295e-001 4.236706e-001 0.000000e+000 0.000000e+000
 0.000000e+000 0.000000e+000 8.223526e-001 1.776474e-001 0.000000e+000
 0.000000e+000 0.000000e+000 0.000000e+000 7.211985e-001 2.788015e-001
 0.000000e+000 0.000000e+000 0.000000e+000 0.000000e+000 0.000000e+000
<ENDHMM>
~h "n"
<BEGINHMM>
<NUMSTATES> 5
<STATE> 2
<MEAN> 39
 1.405654e+000 -4.634412e+000 -4.461016e+000 -1.627038e+001 -9.458225e+000 -1.286206e+001 -1.017736e+001 -8.346723e+000 -5.587093e+000 -3.971118e+000 -5.917175e+000 -5.205618e+000 7.195014e+001 4.275326e-001 5.429682e-001 3.983158e-001 1.062506e+000 -7.301116e-001 -5.744541e-001 5.390772e-001 -1.086387e+000 -3.179025e-001 2.103010e-001 -2.655546e-001 -1.376374e-001 -6.372018e-001 -9.016661e-002 3.979986e-002 -7.159065e-003 -6.831333e-002 7.723092e-002 1.214165e-001 4.459478e-002 8.395518e-002 3.196279e-002 -8.574197e-002 1.711380e-002 9.785321e-002 -1.526785e-002
<VARIANCE> 39
 6.272682e+001 6.066704e+001 6.320576e+001 9.066984e+001 8.201985e+001 9.795043e+001 9.843975e+001 1.431687e+002 7.887411e+001 8.586727e+001 7.713221e+001 6.025867e+001 3.356591e+001 1.095436e+000 2.360579e+000 3.560972e+000 3.543417e+000 3.679766e+000 4.665585e+000 5.496228e+000 6.927045e+000 4.795017e+000 4.724734e+000 4.404054e+000 3.634391e+000 1.061637e+000 1.478420e-001 2.608728e-001 4.359856e-001 5.571744e-001 5.602905e-001 6.941954e-001 7.831169e-001 9.870247e-001 7.239860e-001 7.182633e-001 6.931230e-001 5.715889e-001 1.118652e-001
<GCONST> 1.341767e+002
<STATE> 3
<MEAN> 39
 1.483727e+000 -6.716961e-001 -3.660677e+000 -1.202162e+001 -1.158374e+001 -1.397672e+001 -9.681250e+000 -1.019384e+001 -5.594838e+000 -4.942873e+000 -5.846162e+000 -6.155586e+000 6.945538e+001 1.564710e-003 6.171343e-001 1.913629e-001 4.042860e-001 -9.436242e-002 -9.319290e-002 2.554886e-001 -1.468981e-001 -1.068014e-001 -1.922935e-001 -3.605329e-002 -3.650909e-003 -5.089486e-001 -1.247148e-001 -3.413607e-002 -5.882080e-002 -1.528429e-001 1.973767e-001 1.185261e-001 -6.283388e-002 2.578706e-001 3.950817e-002 -6.869428e-002 8.853633e-002 2.754529e-002 4.420261e-002
<VARIANCE> 39
 7.214903e+001 5.574538e+001 5.274247e+001 6.253504e+001 6.120217e+001 6.632999e+001 9.269859e+001 9.241358e+001 6.775420e+001 8.794302e+001 7.221657e+001 5.910808e+001 2.599168e+001 4.712108e-001 1.479079e+000 1.627830e+000 1.834642e+000 2.191979e+000 2.640038e+000 2.927025e+000 3.830022e+000 2.742976e+000 2.909516e+000 2.632463e+000 2.391564e+000 6.243398e-001 8.816940e-002 1.834813e-001 3.182173e-001 3.618349e-001 3.976763e-001 4.563757e-001 5.723732e-001 6.858705e-001 5.255268e-001 5.493768e-001 5.105795e-001 4.482425e-001 7.957231e-002
<GCONST> 1.199277e+002
<STATE> 4
<MEAN> 39
 -2.413865e+000 5.139476e+000 -2.083355e+000 -8.366608e+000 -8.761930e+000 -1.267610e+001 -7.096855e+000 -9.128198e+000 -5.003600e+000 -8.284095e+000 -5.059342e+000 -6.610008e+000 6.216920e+001 -9.146173e-001 -1.372958e-001 1.417236e-001 2.424933e-001 7.279944e-001 3.782072e-001 3.086004e-001 6.644923e-001 1.530172e-001 -9.862363e-002 3.174824e-001 2.245319e-001 -5.831284e-001 -1.468502e-001 -3.144594e-001 -1.087943e-001 -1.545788e-001 1.273041e-001 1.219362e-001 -2.707290e-002 1.688488e-001 7.014783e-002 6.474623e-002 1.169583e-001 8.333153e-002 1.071590e-001
<VARIANCE> 39
 8.117990e+001 6.756054e+001 4.758411e+001 6.277013e+001 6.141983e+001 5.793103e+001 7.635725e+001 7.184278e+001 5.527198e+001 7.781145e+001 5.253263e+001 5.403399e+001 7.681840e+001 1.028393e+000 2.575222e+000 2.492314e+000 3.051111e+000 3.289937e+000 3.427260e+000 4.196313e+000 5.240506e+000 3.906812e+000 4.052764e+000 3.526372e+000 3.131791e+000 1.502961e+000 1.682990e-001 3.079398e-001 3.931059e-001 4.888079e-001 5.611475e-001 5.957696e-001 6.972907e-001 7.503741e-001 6.748182e-001 6.823374e-001 6.083403e-001 5.695659e-001 1.337765e-001
<GCONST> 1.296224e+002
<TRANSP> 5
 0.000000e+000 1.000000e+000 0.000000e+000 0.000000e+000 0.000000e+000
 0.000000e+000 6.272669e-001 3.727331e-001 0.000000e+000 0.000000e+000
 0.000000e+000 0.000000e+000 7.990350e-001 2.009650e-001 0.000000e+000
 0.000000e+000 0.000000e+000 0.000000e+000 7.654111e-001 2.345889e-001
 0.000000e+000 0.000000e+000 0.000000e+000 0.000000e+000 0.000000e+000
<ENDHMM>
~h "o"
<BEGINHMM>
<NUMSTATES> 5
<STATE> 2
<MEAN> 39
 -1.364466e+000 -2.897763e+000 -9.571265e+000 -2.160760e+001 -4.532221e+000 -9.800221e+000 -1.465052e+001 -6.297560e+000 -1.999956e+000 -7.322935e-001 -2.874241e+000 -1.805052e+000 6.778126e+001 1.398839e+000 1.090723e-003 -5.601392e-001 -1.751825e+000 1.928564e-002 7.253795e-001 -1.208001e+000 -4.578354e-001 3.250401e-003 2.790248e-001 2.401351e-002 -1.225285e-001 1.142721e+000 -3.953570e-001 -8.747384e-003 1.028225e-001 5.355417e-001 1.246943e-001 2.307765e-001 5.950038e-001 9.204163e-002 -7.576793e-002 -9.820023e-002 7.018520e-002 1.732492e-002 -3.104756e-001
<VARIANCE> 39
 5.204740e+001 5.318401e+001 5.157628e+001 1.047885e+002 6.430676e+001 6.856469e+001 1.012040e+002 5.314458e+001 1.002128e+002 5.694537e+001 4.912084e+001 3.888694e+001 1.333474e+002 3.933740e+000 3.133983e+000 4.536363e+000 7.003349e+000 6.051694e+000 5.635959e+000 6.289886e+000 4.840633e+000 4.741557e+000 4.306174e+000 4.156240e+000 2.880670e+000 4.107111e+000 8.433022e-001 5.523539e-001 7.178857e-001 1.276234e+000 8.378635e-001 9.954859e-001 1.335975e+000 9.369230e-001 1.066205e+000 7.740940e-001 6.944553e-001 5.459216e-001 8.464552e-001
<GCONST> 1.439677e+002
<STATE> 3
<MEAN> 39
 3.160936e+000 -1.619082e+000 -1.276125e+001 -2.509929e+001 -5.404884e+000 -5.532402e+000 -1.463818e+001 -7.721205e+000 -2.562265e+000 -1.751157e+000 -2.155062e+000 -2.931112e+000 6.893823e+001 1.675087e-001 2.479180e-001 8.822312e-002 7.208529e-001 -5.827337e-002 1.660425e-002 2.273641e-001 -3.076039e-001 -3.309801e-003 -5.169595e-001 -5.362519e-002 -1.995168e-001 -2.403160e-001 -2.713232e-001 8.898526e-002 2.619620e-001 5.328524e-001 -6.194046e-002 -2.597822e-001 2.581894e-001 4.668078e-002 -3.094602e-002 -1.679937e-001 -8.490489e-002 -1.984306e-003 -2.379887e-001
<VARIANCE> 39
 5.717373e+001 4.445024e+001 5.690862e+001 8.635970e+001 5.843645e+001 6.167894e+001 8.874928e+001 5.469889e+001 8.661049e+001 6.192253e+001 5.260967e+001 3.920261e+001 7.094614e+001 1.703360e+000 2.073612e+000 2.650320e+000 5.080435e+000 3.374777e+000 3.873636e+000 4.180913e+000 3.538496e+000 4.669272e+000 3.115865e+000 3.169967e+000 2.584480e+000 2.743539e+000 2.495487e-001 3.447097e-001 3.817986e-001 7.486423e-001 6.372740e-001 6.790004e-001 8.335792e-001 6.804199e-001 7.916117e-001 6.344987e-001 5.935023e-001 4.851334e-001 2.886566e-001
<GCONST> 1.318063e+002
<STATE> 4
<MEAN> 39
 1.356967e+000 -6.699289e-001 -1.005780e+001 -1.929513e+001 -4.190788e+000 -7.539024e+000 -1.053587e+001 -9.143489e+000 -2.364897e+000 -4.970605e+000 -1.568102e+000 -4.451998e+000 6.534133e+001 -4.634840e-001 1.319268e-001 4.374582e-001 7.095636e-001 -6.713195e-002 -3.773566e-001 3.382004e-001 8.560769e-002 4.881734e-003 -3.024546e-001 -1.770297e-001 3.102414e-003 -3.822114e-002 -2.023109e-001 -5.705846e-002 1.194342e-001 2.734004e-002 -4.874055e-002 -5.844235e-002 9.083317e-002 9.318757e-002 -8.351167e-003 1.223806e-001 2.765195e-002 3.582742e-002 -7.896070e-002
<VARIANCE> 39
 6.647672e+001 8.647906e+001 1.057169e+002 1.367213e+002 1.232753e+002 1.046520e+002 1.150760e+002 9.093057e+001 9.577940e+001 6.369593e+001 7.057745e+001 5.295830e+001 9.230219e+001 3.493816e+000 4.333990e+000 5.719254e+000 8.079844e+000 7.154771e+000 6.066764e+000 7.193130e+000 6.522889e+000 6.830389e+000 5.370149e+000 5.145078e+000 4.015672e+000 6.448284e+000 5.182517e-001 6.063423e-001 8.595046e-001 1.046188e+000 1.143002e+000 1.032316e+000 1.206903e+000 1.221474e+000 1.169333e+000 9.849962e-001 8.948540e-001 7.316042e-001 5.798177e-001
<GCONST> 1.512273e+002
<TRANSP> 5
 0.000000e+000 1.000000e+000 0.000000e+000 0.000000e+000 0.000000e+000
 0.000000e+000 5.397936e-001 4.602064e-001 0.000000e+000 0.000000e+000
 0.000000e+000 0.000000e+000 7.145747e-001 2.854252e-001 0.000000e+000
 0.000000e+000 0.000000e+000 0.000000e+000 7.563919e-001 2.436080e-001
 0.000000e+000 0.000000e+000 0.000000e+000 0.000000e+000 0.000000e+000
<ENDHMM>
~h "p"
<BEGINHMM>
<NUMSTATES> 5
<STATE> 2
<MEAN> 39
 -1.061711e+001 -4.433729e-001 -4.395872e+000 -7.086710e+000 -4.677918e+000 -7.257971e+000 -2.948673e+000 -5.199551e+000 -6.066995e-001 -4.065573e+000 -1.441929e+000 -2.891010e+000 5.319811e+001 -5.618795e-001 -3.016065e-001 1.150539e-001 4.559600e-001 3.789437e-001 3.465588e-001 4.433994e-001 3.997689e-001 2.804388e-001 3.035704e-001 3.997056e-001 3.103992e-001 -9.790109e-001 2.361750e-001 -2.209202e-001 -1.294483e-001 -2.796719e-001 -1.226363e-001 -1.841642e-001 -2.432808e-001 1.841857e-002 4.340296e-002 -2.572466e-003 -1.404098e-001 -1.270454e-001 6.242312e-001
<VARIANCE> 39
 5.747863e+001 6.156112e+001 4.530024e+001 5.898396e+001 5.249423e+001 4.990861e+001 4.532799e+001 5.327160e+001 4.389403e+001 4.582739e+001 4.253991e+001 3.408942e+001 8.596183e+001 2.250372e+000 2.793009e+000 2.415354e+000 2.839478e+000 3.507526e+000 3.673621e+000 3.919453e+000 3.841151e+000 3.667827e+000 3.299351e+000 3.583466e+000 2.967845e+000 3.399777e+000 4.773207e-001 5.696013e-001 5.843446e-001 6.253046e-001 7.598184e-001 8.298665e-001 8.352118e-001 8.309853e-001 7.731189e-001 6.828914e-001 7.293931e-001 6.511016e-001 6.334565e-001
<GCONST> 1.328767e+002
<STATE> 3
<MEAN> 39
 -1.059301e+001 -2.258145e+000 -4.872396e+000 -7.615758e+000 -3.891537e+000 -7.930924e+000 -2.334809e+000 -4.422768e+000 3.733503e-001 -3.471105e+000 -9.848544e-001 -2.709049e+000 5.329092e+001 1.920528e+000 -1.079521e+000 -1.266735e+000 -1.620055e+000 -5.934604e-001 -9.625400e-001 -1.428750e+000 2.868048e-001 4.561464e-001 1.122197e-001 -7.526767e-001 -7.802485e-001 3.284449e+000 7.098968e-001 -3.097696e-001 -3.269612e-001 -7.649149e-001 -2.474586e-001 -1.420811e-001 -6.208715e-001 -2.973065e-003 -1.653143e-002 -1.749994e-001 -5.789188e-001 -1.751475e-001 1.298821e+000
<VARIANCE> 39
 5.110452e+001 6.049395e+001 5.562045e+001 6.895277e+001 6.610278e+001 6.384645e+001 5.592783e+001 5.987716e+001 4.823815e+001 4.845659e+001 4.376878e+001 3.550629e+001 1.139610e+002 7.049010e+000 7.574863e+000 8.830300e+000 6.992049e+000 7.458412e+000 7.793920e+000 7.450410e+000 7.049144e+000 6.168852e+000 5.152481e+000 5.825030e+000 4.783525e+000 1.006462e+001 7.759662e-001 1.037957e+000 1.404352e+000 1.090726e+000 1.332347e+000 1.224959e+000 1.243880e+000 1.231925e+000 1.048251e+000 9.029561e-001 1.048591e+000 8.028951e-001 1.364383e+000
<GCONST> 1.507012e+002
<STATE> 4
<MEAN> 39
 -1.218448e+000 -7.830253e+000 -1.131693e+001 -1.627386e+001 -4.418140e+000 -1.050949e+001 -8.834848e+000 -3.306305e+000 1.958325e+000 -4.843659e+000 -6.354051e+000 -5.306067e+000 6.760458e+001 1.445499e+000 -1.537036e+000 -5.157315e-001 -1.797974e+000 -2.506191e-001 -1.564424e-001 -1.449909e+000 5.062841e-001 6.797684e-003 -5.841551e-001 -1.591889e+000 -8.678477e-002 3.734058e+000 -6.102113e-001 2.401886e-001 6.653212e-001 3.026661e-001 5.411318e-002 2.557512e-001 4.695010e-001 -6.294677e-002 -3.075320e-001 -1.418067e-001 1.239287e-001 4.046713e-001 -6.760698e-001
<VARIANCE> 39
 7.167823e+001 8.010902e+001 1.415735e+002 9.786631e+001 1.012876e+002 9.522522e+001 9.678350e+001 8.878854e+001 7.609265e+001 6.841122e+001 6.806361e+001 5.497181e+001 1.133710e+002 7.084361e+000 8.807171e+000 1.331131e+001 9.029965e+000 1.056156e+001 8.222434e+000 1.011347e+001 9.703660e+000 7.520955e+000 6.501553e+000 7.620455e+000 5.728117e+000 1.221963e+001 1.241685e+000 1.205393e+000 1.515291e+000 1.860736e+000 1.397707e+000 1.483195e+000 1.707975e+000 1.473494e+000 1.253091e+000 1.139482e+000 1.288410e+000 1.015634e+000 1.756063e+000
<GCONST> 1.620397e+002
<TRANSP> 5
 0.000000e+000 1.000000e+000 0.000000e+000 0.000000e+000 0.000000e+000
 0.000000e+000 7.747308e-001 2.252692e-001 0.000000e+000 0.000000e+000
 0.000000e+000 0.000000e+000 5.216319e-001 4.783682e-001 0.000000e+000
 0.000000e+000 0.000000e+000 0.000000e+000 6.553887e-001 3.446113e-001
 0.000000e+000 0.000000e+000 0.000000e+000 0.000000e+000 0.000000e+000
<ENDHMM>
~h "q"
<BEGINHMM>
<NUMSTATES> 5
<STATE> 2
<MEAN> 39
 -9.242041e+000 -6.278924e+000 -9.408405e+000 -1.082788e+001 3.791604e+000 -7.981146e+000 -1.049226e+001 3.104266e-001 6.902713e-001 -7.540967e+000 -3.080126e+000 -6.349345e+000 6.577115e+001 -1.718299e+000 -8.031066e-002 -6.249365e-001 4.444347e-001 1.231720e+000 -1.779433e-001 4.487707e-001 8.932294e-001 5.142346e-001 8.656256e-001 5.846110e-001 -3.868482e-001 -3.654969e-001 1.024821e-001 -1.673396e-001 -2.801112e-002 -2.183698e-001 -2.980313e-001 -7.916372e-002 7.253873e-002 -3.629619e-002 4.982813e-002 1.140449e-001 -3.830007e-003 1.793684e-001 9.796194e-002
<VARIANCE> 39
 7.143399e+001 5.385322e+001 9.503140e+001 8.157136e+001 1.171064e+002 8.517903e+001 1.320028e+002 1.016885e+002 8.026491e+001 9.627235e+001 6.514709e+001 7.420859e+001 1.013430e+002 3.699550e+000 2.956265e+000 4.944013e+000 5.157807e+000 6.057274e+000 5.298604e+000 5.648438e+000 5.821445e+000 4.706201e+000 4.698270e+000 4.046514e+000 4.200174e+000 2.883257e+000 4.896951e-001 5.245039e-001 7.513616e-001 7.426448e-001 8.817301e-001 8.218201e-001 9.355437e-001 1.014133e+000 8.199205e-001 8.179175e-001 6.729720e-001 6.488510e-001 3.641527e-001
<GCONST> 1.446798e+002
<STATE> 3
<MEAN> 39
 -1.499205e+001 -9.257565e+000 -1.206903e+001 -1.052238e+001 5.823748e+000 -1.054576e+001 -8.032526e+000 3.976035e+000 3.345246e+000 -5.339903e+000 -2.093117e+000 -6.337644e+000 6.503529e+001 -3.116300e-001 -6.008229e-002 1.521461e-001 4.802650e-002 -4.095929e-002 -3.082827e-002 3.848885e-001 1.135700e-001 1.905122e-001 3.785529e-001 2.542693e-001 2.791533e-001 -7.501737e-001 3.017409e-001 1.155778e-001 1.687818e-001 -4.546798e-002 -2.597852e-001 5.585849e-002 -3.354330e-002 -2.551886e-001 -1.492212e-001 -9.841739e-002 -5.986277e-002 5.626696e-002 -1.837531e-002
<VARIANCE> 39
 4.740454e+001 5.717001e+001 8.502639e+001 8.962057e+001 1.085557e+002 8.047664e+001 1.028697e+002 1.128959e+002 7.871018e+001 8.380960e+001 6.261690e+001 8.457738e+001 8.099094e+001 1.876107e+000 1.668116e+000 2.469110e+000 2.892033e+000 3.571455e+000 3.480422e+000 4.204292e+000 4.565901e+000 4.055962e+000 3.968656e+000 3.360165e+000 3.065698e+000 1.588239e+000 3.042797e-001 3.257513e-001 4.287253e-001 5.180957e-001 6.805037e-001 6.575660e-001 7.717908e-001 8.592678e-001 7.666484e-001 7.402372e-001 6.461950e-001 6.021823e-001 2.160959e-001
<GCONST> 1.348009e+002
<STATE> 4
<MEAN> 39
 -1.503960e+001 -5.843000e+000 -5.776845e+000 -9.784716e+000 1.968598e+000 -9.666243e+000 -3.519459e+000 -1.499874e+000 9.243218e-001 -2.315381e+000 -9.876182e-001 -2.356983e+000 5.769897e+001 6.418796e-001 6.311980e-001 5.820678e-001 -1.689912e-001 -9.529548e-001 4.749158e-002 4.618168e-002 -8.345384e-001 -4.723904e-001 -8.533485e-002 -1.833164e-002 1.287464e-001 -3.529604e-001 2.967430e-001 1.230210e-001 2.510557e-002 -1.587978e-001 -3.095860e-001 -1.265592e-001 -1.983763e-001 -1.977290e-001 -1.014163e-001 -1.036609e-001 -1.290506e-001 -9.902932e-002 2.302084e-001
<VARIANCE> 39
 6.603593e+001 6.628384e+001 8.952612e+001 1.126289e+002 1.216110e+002 1.130607e+002 8.754899e+001 9.458489e+001 8.267052e+001 7.208331e+001 6.372593e+001 5.011955e+001 1.186933e+002 3.847425e+000 3.364569e+000 3.488586e+000 4.323989e+000 5.879217e+000 5.527671e+000 6.071428e+000 6.217627e+000 5.358191e+000 4.784530e+000 4.359613e+000 3.688451e+000 3.500770e+000 5.690632e-001 5.632569e-001 5.934480e-001 7.813501e-001 1.051188e+000 1.006789e+000 1.054830e+000 1.071797e+000 9.849005e-001 9.127231e-001 8.263986e-001 6.635277e-001 4.435580e-001
<GCONST> 1.457825e+002
<TRANSP> 5
 0.000000e+000 1.000000e+000 0.000000e+000 0.000000e+000 0.000000e+000
 0.000000e+000 6.089701e-001 3.910298e-001 0.000000e+000 0.000000e+000
 0.000000e+000 0.000000e+000 7.415289e-001 2.584711e-001 0.000000e+000
 0.000000e+000 0.000000e+000 0.000000e+000 7.201622e-001 2.798378e-001
 0.000000e+000 0.000000e+000 0.000000e+000 0.000000e+000 0.000000e+000
<ENDHMM>
~h "r"
<BEGINHMM>
<NUMSTATES> 5
<STATE> 2
<MEAN> 39
 -6.930821e+000 -6.775868e+000 -3.632386e+000 -1.134910e+001 -1.057441e+001 -1.268092e+001 -6.810102e+000 -3.145242e+000 -2.379327e-001 -3.717452e+000 -2.024480e+000 -2.721088e+000 6.447485e+001 -7.704161e-003 4.817275e-002 3.365843e-001 1.111635e-001 -2.981624e-001 -1.827878e-001 -1.720731e-001 -1.490644e-002 5.563794e-002 -6.504550e-002 2.105170e-001 5.369983e-002 -1.767052e-001 1.316669e-001 1.118914e-001 -2.771487e-002 -1.058202e-001 2.442560e-002 7.354571e-002 -8.412495e-002 -6.136419e-002 -5.403635e-002 -2.146887e-002 -4.838151e-002 6.675351e-004 5.465388e-002
<VARIANCE> 39
 6.512622e+001 6.355299e+001 6.711079e+001 8.149844e+001 9.795265e+001 8.788765e+001 1.301863e+002 1.057191e+002 6.776207e+001 7.283077e+001 6.475972e+001 4.767072e+001 2.131474e+002 1.433526e+000 2.331094e+000 2.466898e+000 2.955609e+000 4.193288e+000 3.921535e+000 5.209906e+000 4.748459e+000 4.148447e+000 4.073568e+000 3.446010e+000 2.795127e+000 1.353298e+000 3.376480e-001 4.330983e-001 3.866089e-001 6.589026e-001 8.019489e-001 7.911966e-001 8.838552e-001 7.583308e-001 7.584131e-001 7.383162e-001 6.585870e-001 5.542275e-001 3.237177e-001
<GCONST> 1.368394e+002
<STATE> 3
<MEAN> 39
 -5.414443e+000 -6.199503e+000 -1.687341e+000 -1.211144e+001 -1.208300e+001 -1.323557e+001 -9.486835e+000 -3.925484e+000 1.574837e-001 -4.333637e+000 -2.830202e+000 -2.123319e+000 6.671692e+001 4.125432e-001 4.960534e-001 4.163599e-001 -1.950209e-002 -3.011474e-001 -6.397729e-002 -4.177010e-001 -1.427604e-001 -5.919343e-002 -2.753151e-001 1.390272e-001 -2.952548e-002 -7.235925e-002 1.388324e-001 1.376642e-001 -1.533948e-001 -2.048735e-001 1.758637e-001 1.348806e-001 2.525554e-002 -8.142898e-003 -1.041505e-001 3.095395e-002 -1.439618e-001 -6.091278e-002 2.118557e-001
<VARIANCE> 39
 7.051299e+001 4.917088e+001 6.473697e+001 8.345162e+001 9.348106e+001 8.347356e+001 1.087341e+002 8.707189e+001 6.625098e+001 7.630509e+001 5.783168e+001 4.394141e+001 1.676766e+002 2.510397e+000 3.940725e+000 2.844852e+000 3.818401e+000 5.059224e+000 4.855382e+000 5.672946e+000 5.360831e+000 4.416375e+000 4.402474e+000 3.757013e+000 3.066794e+000 2.485510e+000 5.915176e-001 6.101071e-001 4.914045e-001 8.976346e-001 1.088355e+000 9.671653e-001 1.034700e+000 8.762060e-001 8.464333e-001 8.895708e-001 7.695222e-001 6.270793e-001 6.457572e-001
<GCONST> 1.423128e+002
<STATE> 4
<MEAN> 39
 -3.857052e+000 -5.767211e+000 -1.239314e+000 -1.306512e+001 -1.240808e+001 -1.395051e+001 -8.922340e+000 -3.267180e+000 -5.672211e-002 -5.596245e+000 -2.547903e+000 -2.011571e+000 6.427905e+001 3.646781e-001 4.108606e-001 1.336176e-002 -3.601246e-001 1.870812e-001 9.212961e-002 -9.415895e-002 1.979123e-002 -2.131576e-001 -1.268866e-001 -1.125435e-001 -1.742289e-001 4.799151e-001 -8.600333e-002 -8.139946e-002 -1.373136e-001 -2.265314e-001 1.363165e-001 6.891614e-002 1.230851e-001 -2.276177e-002 -6.036882e-002 1.855114e-001 -1.302418e-001 6.838428e-003 2.334859e-001
<VARIANCE> 39
 7.604951e+001 6.631050e+001 7.824821e+001 1.013628e+002 1.185369e+002 1.039452e+002 1.248405e+002 1.094501e+002 9.104070e+001 9.775809e+001 6.939828e+001 5.576693e+001 1.735195e+002 4.828006e+000 5.713151e+000 4.186464e+000 6.267528e+000 7.588573e+000 6.326063e+000 6.950193e+000 7.696403e+000 5.673982e+000 6.066798e+000 4.967484e+000 4.001537e+000 6.444925e+000 5.903261e-001 6.946340e-001 6.855440e-001 1.108876e+000 1.243653e+000 1.101094e+000 1.219722e+000 1.170640e+000 1.088392e+000 1.150665e+000 9.429338e-001 7.315885e-001 8.080140e-001
<GCONST> 1.526066e+002
<TRANSP> 5
 0.000000e+000 1.000000e+000 0.000000e+000 0.000000e+000 0.000000e+000
 0.000000e+000 5.479233e-001 4.520767e-001 0.000000e+000 0.000000e+000
 0.000000e+000 0.000000e+000 2.971699e-001 7.028301e-001 0.000000e+000
 0.000000e+000 0.000000e+000 0.000000e+000 5.909767e-001 4.090233e-001
 0.000000e+000 0.000000e+000 0.000000e+000 0.000000e+000 0.000000e+000
<ENDHMM>
~h "s"
<BEGINHMM>
<NUMSTATES> 5
<STATE> 2
<MEAN> 39
 -1.810740e+001 3.659169e+000 -6.723122e+000 -6.379586e+000 -5.544269e+000 -1.160057e+001 -3.791754e+000 -3.379073e+000 -9.094397e-001 -6.868099e+000 -9.389495e-001 -3.817946e+000 6.777065e+001 -2.359218e+000 3.975729e-001 -4.654436e-001 1.065968e+000 3.878823e-001 7.826052e-001 1.411794e+000 1.651446e-001 3.935572e-001 8.924981e-001 8.496502e-001 5.396336e-002 -5.230359e-001 3.073539e-001 -3.598994e-001 -5.680612e-002 -3.010854e-001 -1.390374e-003 7.264817e-002 -1.534265e-001 5.164987e-002 8.117963e-002 1.170128e-001 -7.483583e-002 1.088098e-001 6.042315e-004
<VARIANCE> 39
 6.090314e+001 4.185575e+001 6.044953e+001 8.421152e+001 6.522382e+001 7.123580e+001 7.458703e+001 7.066305e+001 5.310831e+001 7.306596e+001 4.178518e+001 3.753764e+001 8.345013e+001 4.113653e+000 3.816522e+000 2.864981e+000 3.879798e+000 3.734646e+000 4.253194e+000 5.513397e+000 4.837764e+000 3.888446e+000 4.604534e+000 3.610013e+000 3.550054e+000 1.439762e+000 5.361269e-001 5.188341e-001 4.643397e-001 5.925179e-001 6.120582e-001 7.903724e-001 9.293327e-001 8.268920e-001 7.077554e-001 8.335103e-001 6.485637e-001 6.216934e-001 1.971194e-001
<GCONST> 1.355069e+002
<STATE> 3
<MEAN> 39
 -2.396842e+001 1.159846e+000 -8.440058e+000 -4.328875e+000 -2.738090e+000 -8.206465e+000 9.561444e-001 -1.041195e+000 1.681001e+000 -2.061116e+000 2.159989e+000 -2.579358e+000 6.364847e+001 9.013967e-002 -5.256034e-001 7.684968e-002 -1.100777e-001 3.120954e-001 6.304520e-003 3.434303e-002 2.258849e-001 2.094237e-001 2.373704e-001 6.911656e-002 1.171558e-001 -5.347331e-001 4.819393e-001 -2.398541e-002 1.275612e-001 -1.887281e-001 -1.003599e-001 -2.253388e-001 -2.870652e-001 -1.009400e-001 -1.020231e-001 -1.814018e-001 -2.149957e-001 -6.351747e-002 5.891330e-002
<VARIANCE> 39
 3.291800e+001 5.475615e+001 6.789091e+001 9.354941e+001 8.006462e+001 8.248755e+001 6.891066e+001 8.594496e+001 6.255340e+001 5.668382e+001 4.605172e+001 4.355471e+001 9.017112e+001 2.409972e+000 2.244945e+000 2.338950e+000 2.995578e+000 3.664001e+000 4.258787e+000 3.884523e+000 4.181387e+000 4.063743e+000 3.765838e+000 3.360268e+000 2.878624e+000 2.029277e+000 4.724247e-001 3.959188e-001 4.351354e-001 5.876049e-001 6.978543e-001 7.998297e-001 8.075730e-001 8.335220e-001 8.006639e-001 7.407408e-001 7.003610e-001 5.963847e-001 3.145826e-001
<GCONST> 1.339958e+002
<STATE> 4
<MEAN> 39
 -1.649306e+001 -1.463639e+000 -6.888984e+000 -9.100418e+000 -2.745793e+000 -1.272751e+001 -1.724923e+000 -1.640800e+000 7.394577e-001 -4.437158e+000 -1.956390e-001 -3.075381e+000 6.199192e+001 2.465158e+000 -4.399538e-001 1.359511e-001 -1.149206e+000 -5.359085e-001 -8.568119e-001 -1.421504e+000 -3.089636e-001 -2.400959e-001 -6.719733e-001 -9.104189e-001 -1.059494e-001 7.822255e-001 1.829700e-001 -1.000128e-001 -2.415892e-002 -1.392975e-001 -8.438735e-002 1.340356e-001 -1.672831e-001 -7.974660e-002 -5.070852e-002 -4.182981e-002 -1.408647e-001 1.693453e-002 2.351518e-001
<VARIANCE> 39
 1.068595e+002 8.028969e+001 8.911015e+001 1.000048e+002 1.118206e+002 1.128980e+002 1.188610e+002 1.058173e+002 7.971709e+001 8.485751e+001 6.192663e+001 5.078650e+001 1.192650e+002 9.706063e+000 5.811839e+000 5.631095e+000 6.956903e+000 8.204226e+000 8.319276e+000 8.636995e+000 8.666034e+000 6.252494e+000 6.527012e+000 5.874563e+000 4.551394e+000 7.744227e+000 1.468749e+000 8.537880e-001 8.312008e-001 1.072002e+000 1.255603e+000 1.508978e+000 1.443981e+000 1.288398e+000 1.109136e+000 1.142269e+000 1.012052e+000 8.014116e-001 8.983538e-001
<GCONST> 1.569390e+002
<TRANSP> 5
 0.000000e+000 1.000000e+000 0.000000e+000 0.000000e+000 0.000000e+000
 0.000000e+000 7.835546e-001 2.164454e-001 0.000000e+000 0.000000e+000
 0.000000e+000 0.000000e+000 8.118544e-001 1.881457e-001 0.000000e+000
 0.000000e+000 0.000000e+000 0.000000e+000 7.094582e-001 2.905418e-001
 0.000000e+000 0.000000e+000 0.000000e+000 0.000000e+000 0.000000e+000
<ENDHMM>
~h "t"
<BEGINHMM>
<NUMSTATES> 5
<STATE> 2
<MEAN> 39
 -9.839243e+000 9.678215e-001 -3.230914e+000 -6.895487e+000 -5.910847e+000 -9.083334e+000 -3.674038e+000 -5.103158e+000 -1.100806e+000 -4.890483e+000 -1.526243e+000 -2.470923e+000 5.424972e+001 -7.718866e-001 -4.017106e-001 -6.165348e-002 4.146796e-001 5.024565e-001 5.859962e-001 5.760634e-001 2.571903e-001 2.733629e-001 4.491328e-001 6.440281e-001 2.204090e-001 -8.859488e-001 9.118149e-002 -2.994801e-001 -1.720787e-001 -3.871056e-001 -1.602544e-001 -2.190437e-001 -7.936288e-002 1.114242e-001 4.342670e-002 -6.800014e-002 -5.556276e-002 -1.108142e-002 7.694862e-001
<VARIANCE> 39
 5.465522e+001 6.289857e+001 4.094319e+001 5.918603e+001 5.936199e+001 6.188715e+001 5.376378e+001 6.325157e+001 4.685053e+001 5.425138e+001 4.530590e+001 3.304015e+001 8.443690e+001 2.145500e+000 3.294502e+000 2.579701e+000 3.168330e+000 4.212900e+000 4.353929e+000 4.349994e+000 4.294566e+000 4.000964e+000 4.141249e+000 3.944137e+000 3.109183e+000 4.542048e+000 4.283020e-001 6.155113e-001 5.385268e-001 6.787133e-001 9.058311e-001 9.906766e-001 8.819792e-001 9.100806e-001 8.195814e-001 8.812065e-001 8.065270e-001 6.515312e-001 8.811017e-001
<GCONST> 1.364986e+002
<STATE> 3
<MEAN> 39
 -1.167353e+001 -2.191091e+000 -4.697962e+000 -8.387618e+000 -4.461045e+000 -8.712196e+000 -1.470825e+000 -4.136905e+000 -2.353672e-002 -3.952222e+000 2.842369e-001 -2.396677e+000 5.543855e+001 5.485025e-001 -1.244223e+000 -1.147264e+000 -1.935245e+000 -9.805509e-001 -1.323588e+000 -1.128556e-001 1.046237e+000 2.433372e-001 -4.788546e-001 1.986634e-002 1.211577e-001 4.019743e+000 6.693978e-001 -2.416501e-001 -1.462068e-001 -6.571422e-001 -4.019770e-001 -4.603945e-001 -3.879707e-001 2.826652e-001 -1.757250e-001 -5.102000e-001 -5.673252e-001 1.066359e-001 1.213501e+000
<VARIANCE> 39
 4.594323e+001 6.274524e+001 5.288306e+001 7.809106e+001 7.561702e+001 7.170276e+001 5.908144e+001 6.702944e+001 4.962017e+001 5.571677e+001 4.640103e+001 3.679094e+001 1.285090e+002 6.565445e+000 7.015740e+000 6.259697e+000 6.799914e+000 8.994479e+000 9.115602e+000 7.794408e+000 8.750418e+000 6.482659e+000 7.461002e+000 6.245617e+000 5.093502e+000 1.262963e+001 7.205132e-001 9.784276e-001 1.024113e+000 1.100487e+000 1.423201e+000 1.415601e+000 1.212845e+000 1.374502e+000 1.098731e+000 1.207235e+000 1.103749e+000 8.900065e-001 1.714005e+000
<GCONST> 1.529450e+002
<STATE> 4
<MEAN> 39
 -5.591555e+000 -7.293080e+000 -9.164713e+000 -1.677481e+001 -8.676296e+000 -1.479059e+001 -3.550983e+000 1.047766e+000 -4.819556e-001 -9.328442e+000 -2.501951e+000 -9.399944e-001 7.126489e+001 1.545665e+000 -1.640503e+000 -5.399085e-001 -1.866999e+000 -3.876369e-001 -8.909131e-001 -9.366231e-001 1.248956e+000 -4.195418e-001 -1.367847e+000 -1.577996e+000 5.108405e-001 3.893874e+000 -1.688345e-001 1.502615e-001 4.326531e-001 5.037498e-001 5.228379e-001 6.487258e-001 -7.426903e-002 -3.755752e-001 -1.512421e-001 2.152773e-001 -1.628382e-001 -4.392948e-002 -1.019367e+000
<VARIANCE> 39
 5.512991e+001 6.125792e+001 7.798882e+001 8.174661e+001 1.011369e+002 9.294760e+001 9.251624e+001 1.004977e+002 6.388610e+001 8.854672e+001 6.294582e+001 5.892006e+001 1.011561e+002 5.278808e+000 6.941819e+000 7.104467e+000 6.944257e+000 1.058663e+001 8.366052e+000 8.190362e+000 1.109214e+001 6.566960e+000 8.211879e+000 6.520113e+000 5.713058e+000 1.142590e+001 1.088490e+000 9.392463e-001 1.069404e+000 1.207955e+000 1.538080e+000 1.602547e+000 1.315639e+000 1.480818e+000 1.133978e+000 1.419700e+000 1.242289e+000 9.961646e-001 1.701383e+000
<GCONST> 1.579259e+002
<TRANSP> 5
 0.000000e+000 1.000000e+000 0.000000e+000 0.000000e+000 0.000000e+000
 0.000000e+000 7.518151e-001 2.481849e-001 0.000000e+000 0.000000e+000
 0.000000e+000 0.000000e+000 5.744688e-001 4.255311e-001 0.000000e+000
 0.000000e+000 0.000000e+000 0.000000e+000 6.172137e-001 3.827863e-001
 0.000000e+000 0.000000e+000 0.000000e+000 0.000000e+000 0.000000e+000
<ENDHMM>
~h "u"
<BEGINHMM>
<NUMSTATES> 5
<STATE> 2
<MEAN> 39
 -3.189680e-001 2.544366e+000 -9.385791e+000 -1.756886e+001 -8.009389e+000 -9.183526e+000 -9.322138e+000 -8.523179e+000 -5.981498e+000 -3.605691e+000 -1.234268e+000 -2.763211e+000 6.240076e+001 1.932843e+000 1.071543e+000 -3.303171e-001 -1.236949e+000 -9.234294e-001 -1.509919e-001 -1.319182e+000 -1.431562e+000 -4.325678e-001 6.916731e-002 -1.383942e-001 -1.242428e-002 1.766237e+000 -4.904517e-001 -3.661652e-001 1.104868e-001 2.013612e-001 1.840547e-001 1.858182e-001 2.255273e-001 1.855072e-001 3.210589e-001 9.728913e-002 -1.586070e-002 -9.156575e-003 -1.180186e-001
<VARIANCE> 39
 7.867007e+001 6.148352e+001 7.763057e+001 9.757080e+001 8.007529e+001 7.525441e+001 1.012243e+002 6.888557e+001 7.871361e+001 6.682584e+001 5.595514e+001 4.317587e+001 1.101268e+002 5.608604e+000 5.536033e+000 5.924569e+000 7.207298e+000 7.605451e+000 7.018607e+000 7.312696e+000 6.586701e+000 6.686475e+000 5.921108e+000 5.040692e+000 4.127211e+000 5.593595e+000 1.010449e+000 9.168311e-001 9.079555e-001 1.256439e+000 1.162468e+000 1.142527e+000 1.343010e+000 1.149900e+000 1.259088e+000 1.030071e+000 8.922866e-001 7.367318e-001 7.317550e-001
<GCONST> 1.514859e+002
<STATE> 3
<MEAN> 39
 4.937420e+000 3.585649e+000 -1.139999e+001 -2.152969e+001 -9.017326e+000 -6.887854e+000 -1.286171e+001 -1.196995e+001 -6.086215e+000 -2.463670e+000 -1.346940e+000 -2.881553e+000 6.827399e+001 -8.205251e-002 -3.047735e-001 3.424112e-001 3.781372e-001 1.654658e-001 8.371062e-002 -5.291633e-001 -3.437819e-001 7.650716e-001 2.017508e-001 -2.257887e-001 -3.260841e-001 2.806562e-001 -4.354202e-001 -1.680154e-001 3.287527e-001 4.707200e-001 7.964565e-002 -1.788828e-001 3.102790e-001 3.893336e-001 1.688931e-001 -1.848808e-001 -1.397468e-001 -7.019099e-002 -2.761326e-001
<VARIANCE> 39
 7.054822e+001 4.278637e+001 5.577711e+001 7.772018e+001 5.410214e+001 6.139721e+001 9.196383e+001 6.647684e+001 7.703526e+001 7.371747e+001 6.119128e+001 4.405407e+001 3.446710e+001 1.655222e+000 2.544196e+000 2.927495e+000 4.363678e+000 4.037382e+000 4.751499e+000 6.218032e+000 4.477188e+000 5.905705e+000 4.580045e+000 4.066080e+000 3.404813e+000 1.903849e+000 3.399411e-001 4.083070e-001 5.540275e-001 7.049326e-001 8.173639e-001 8.856140e-001 1.085700e+000 9.059108e-001 1.006249e+000 9.242753e-001 7.985045e-001 6.560447e-001 2.269115e-001
<GCONST> 1.363528e+002
<STATE> 4
<MEAN> 39
 7.000043e-001 1.593536e+000 -5.356641e+000 -1.595467e+001 -8.335658e+000 -9.949981e+000 -1.246667e+001 -1.101671e+001 -2.742599e+000 -4.283582e+000 -3.256790e+000 -4.631858e+000 6.676476e+001 -1.010521e+000 -2.803525e-001 1.219365e+000 1.091327e+000 -2.656906e-001 -5.976353e-001 7.639698e-001 5.727763e-001 1.659677e-001 -5.735385e-001 -2.851987e-001 8.905172e-004 -3.472727e-001 -1.351375e-001 5.636636e-002 9.604417e-004 -1.925530e-002 -5.941226e-002 5.430704e-002 3.364280e-001 4.885625e-002 -2.248128e-001 1.907957e-003 1.147354e-001 1.268325e-001 -1.298857e-001
<VARIANCE> 39
 7.728384e+001 7.026945e+001 8.436665e+001 9.952456e+001 8.688980e+001 9.613095e+001 1.323758e+002 9.194197e+001 8.875202e+001 8.806741e+001 7.154478e+001 5.559887e+001 7.112873e+001 2.156373e+000 2.676581e+000 4.818435e+000 4.707823e+000 5.970176e+000 6.556682e+000 7.337058e+000 6.263175e+000 6.288540e+000 5.569582e+000 5.039486e+000 4.150780e+000 1.788211e+000 2.960248e-001 4.313459e-001 6.897904e-001 8.173305e-001 9.833775e-001 1.128209e+000 1.424928e+000 1.144462e+000 1.217831e+000 1.104289e+000 8.802748e-001 7.957793e-001 2.325829e-001
<GCONST> 1.452576e+002
<TRANSP> 5
 0.000000e+000 1.000000e+000 0.000000e+000 0.000000e+000 0.000000e+000
 0.000000e+000 5.994769e-001 4.005231e-001 0.000000e+000 0.000000e+000
 0.000000e+000 0.000000e+000 6.665962e-001 3.334038e-001 0.000000e+000
 0.000000e+000 0.000000e+000 0.000000e+000 7.271833e-001 2.728167e-001
 0.000000e+000 0.000000e+000 0.000000e+000 0.000000e+000 0.000000e+000
<ENDHMM>
~h "v"
<BEGINHMM>
<NUMSTATES> 5
<STATE> 2
<MEAN> 39
 -7.142498e+000 -3.047281e+000 -3.582631e+000 -1.186204e+001 -8.953827e+000 -1.197008e+001 -5.478281e+000 -7.357831e+000 -2.509067e+000 -3.147037e+000 -3.157247e+000 -3.847730e+000 5.856588e+001 -8.127367e-003 5.833936e-001 5.095790e-001 2.603579e-001 -2.412344e-001 6.158741e-002 3.569013e-001 -1.270466e-001 -4.086463e-001 -5.223095e-002 2.540855e-002 -4.058730e-001 -3.113812e-001 6.685288e-002 7.417450e-002 9.169552e-002 -1.036346e-002 -4.940026e-002 1.741701e-002 -8.975550e-002 2.551801e-002 8.695526e-003 -6.713497e-003 6.547973e-002 -3.373119e-002 2.288568e-001
<VARIANCE> 39
 7.874725e+001 6.255007e+001 3.696571e+001 6.288731e+001 4.426737e+001 4.190957e+001 7.549943e+001 5.262743e+001 4.435876e+001 5.748808e+001 3.562494e+001 2.896418e+001 1.950547e+002 1.262497e+000 2.102824e+000 2.307677e+000 3.580344e+000 2.477135e+000 2.799280e+000 3.789591e+000 3.716675e+000 3.790549e+000 4.956290e+000 3.975546e+000 3.191184e+000 1.950484e+000 3.340670e-001 5.792173e-001 4.831758e-001 5.486813e-001 4.842914e-001 6.435105e-001 6.838540e-001 8.223878e-001 8.479704e-001 9.137947e-001 5.835518e-001 6.174877e-001 2.599842e-001
<GCONST> 1.302771e+002
<STATE> 3
<MEAN> 39
 -5.774222e+000 -1.273462e+000 -2.133445e+000 -1.264130e+001 -9.957832e+000 -1.066700e+001 -7.047973e+000 -8.064073e+000 -2.462462e+000 -2.141295e+000 -3.950831e+000 -4.560637e+000 6.113371e+001 3.175404e-001 1.260256e+000 9.182181e-001 5.473700e-001 -1.892224e-001 -2.106914e-002 -8.907033e-002 -5.261411e-001 -3.052871e-001 -1.265641e-001 -1.436272e-001 -7.626206e-001 6.812485e-002 1.696004e-001 6.373992e-002 1.561109e-001 5.054707e-002 -1.578366e-001 -2.914066e-001 -3.210047e-001 -5.563263e-002 -1.197166e-001 -2.146748e-002 2.597375e-002 7.548250e-002 4.441912e-001
<VARIANCE> 39
 8.078134e+001 6.567999e+001 5.063234e+001 8.226581e+001 6.522588e+001 4.083814e+001 9.482071e+001 5.831487e+001 4.201210e+001 6.721883e+001 4.280452e+001 3.132201e+001 1.753677e+002 2.617413e+000 3.080655e+000 2.370235e+000 3.928246e+000 3.070801e+000 3.631436e+000 4.299273e+000 3.968839e+000 3.684056e+000 3.506206e+000 3.031981e+000 2.967357e+000 2.498001e+000 6.463724e-001 9.996308e-001 4.725803e-001 6.888929e-001 6.867546e-001 9.126089e-001 1.063135e+000 1.048397e+000 8.454106e-001 8.081418e-001 6.654125e-001 6.493151e-001 5.572059e-001
<GCONST> 1.369226e+002
<STATE> 4
<MEAN> 39
 -5.249402e+000 2.680936e+000 -1.928195e+000 -9.912995e+000 -9.183267e+000 -1.254495e+001 -5.251562e+000 -9.238169e+000 -2.411057e+000 -3.375726e+000 -4.744895e+000 -6.838660e+000 5.507180e+001 6.414477e-001 7.036962e-001 3.173933e-001 4.744209e-001 -3.125911e-001 -9.687200e-001 -9.387276e-001 1.633383e-002 -3.615555e-001 -2.253362e-001 -9.596758e-002 -1.542494e-001 9.707115e-001 -1.245229e-001 -5.084270e-001 -7.636879e-002 -3.376170e-001 -1.973994e-001 -1.609685e-001 2.764592e-002 2.812561e-001 6.056673e-002 9.093822e-002 2.041959e-002 3.315040e-001 4.249344e-001
<VARIANCE> 39
 7.034267e+001 7.367659e+001 6.231156e+001 1.033269e+002 7.787445e+001 5.468656e+001 2.621118e+002 6.018993e+001 5.675264e+001 6.963239e+001 3.958917e+001 3.905003e+001 1.234510e+002 5.826416e+000 7.765187e+000 5.319407e+000 4.418824e+000 5.705967e+000 6.442747e+000 7.262297e+000 6.869524e+000 6.170493e+000 3.789765e+000 3.574441e+000 3.487577e+000 4.320387e+000 7.526546e-001 8.826797e-001 1.056032e+000 9.831223e-001 1.238065e+000 1.175131e+000 1.292988e+000 1.353796e+000 9.882534e-001 9.445208e-001 8.174190e-001 7.871022e-001 7.158696e-001
<GCONST> 1.488057e+002
<TRANSP> 5
 0.000000e+000 1.000000e+000 0.000000e+000 0.000000e+000 0.000000e+000
 0.000000e+000 5.232252e-001 4.767748e-001 0.000000e+000 0.000000e+000
 0.000000e+000 0.000000e+000 2.774323e-001 7.225677e-001 0.000000e+000
 0.000000e+000 0.000000e+000 0.000000e+000 6.549056e-001 3.450944e-001
 0.000000e+000 0.000000e+000 0.000000e+000 0.000000e+000 0.000000e+000
<ENDHMM>
~h "w"
<BEGINHMM>
<NUMSTATES> 5
<STATE> 2
<MEAN> 39
 -3.853942e+000 -2.769078e+000 -9.144141e+000 -1.721509e+001 -8.376151e+000 -9.454359e+000 -6.477324e+000 -6.983032e+000 -1.333591e+000 -1.892075e+000 -1.922367e+000 -3.084977e+000 6.275857e+001 6.882520e-001 8.505538e-001 -2.860620e-001 -9.049338e-001 -6.220409e-001 1.676967e-001 2.184666e-001 -1.851444e-001 -4.236943e-001 3.987500e-002 2.426265e-001 1.776822e-001 4.891912e-002 3.638255e-002 3.113957e-002 2.938532e-002 -2.563099e-002 -9.557408e-002 -7.563485e-002 2.267474e-002 1.403458e-001 6.517509e-003 -8.821393e-002 -7.903692e-002 4.332798e-003 9.473345e-002
<VARIANCE> 39
 7.767924e+001 9.135899e+001 6.212999e+001 9.008253e+001 1.016942e+002 7.926693e+001 9.428995e+001 7.403672e+001 6.766864e+001 6.820779e+001 6.835104e+001 5.905124e+001 2.097845e+002 2.146181e+000 2.915084e+000 2.247993e+000 3.662133e+000 4.546818e+000 4.445385e+000 4.655258e+000 4.031247e+000 4.246183e+000 3.534104e+000 3.857171e+000 3.092168e+000 1.713491e+000 3.784148e-001 4.299958e-001 4.018663e-001 6.434497e-001 8.450994e-001 7.454314e-001 7.616318e-001 7.274835e-001 7.534847e-001 7.082862e-001 6.332670e-001 5.821520e-001 2.633353e-001
<GCONST> 1.375314e+002
<STATE> 3
<MEAN> 39
 4.305660e+000 3.574922e+000 -1.222800e+001 -2.405528e+001 -1.211952e+001 -8.229326e+000 -6.201050e+000 -6.385949e+000 -4.569462e+000 -2.666408e+000 -3.098785e+000 -3.253592e+000 6.620198e+001 6.516711e-001 4.859175e-001 -5.632372e-001 -7.539881e-001 -3.711148e-001 1.268077e-001 2.391226e-001 7.734124e-002 -2.840428e-001 2.302678e-002 1.220557e-001 -1.315517e-002 5.416287e-001 -2.255600e-001 -4.648705e-001 -8.881122e-002 2.264400e-001 4.579292e-001 1.319932e-001 -2.064340e-001 2.255295e-002 1.714447e-001 1.059721e-001 -4.844883e-002 -1.172489e-001 1.298355e-001
<VARIANCE> 39
 6.849676e+001 6.254239e+001 4.642720e+001 5.838093e+001 7.009298e+001 5.997273e+001 5.251507e+001 4.407092e+001 4.764676e+001 5.258598e+001 5.434129e+001 3.590379e+001 7.490469e+001 3.426585e+000 4.812823e+000 2.738248e+000 4.358041e+000 5.808245e+000 4.164137e+000 3.390762e+000 2.879919e+000 3.250366e+000 3.056360e+000 3.273783e+000 2.837969e+000 3.825636e+000 3.506515e-001 4.657446e-001 3.962870e-001 6.332117e-001 8.098684e-001 7.294063e-001 6.545405e-001 5.473678e-001 6.577489e-001 6.005450e-001 6.338493e-001 5.662539e-001 2.832768e-001
<GCONST> 1.324051e+002
<STATE> 4
<MEAN> 39
 4.546917e+000 -4.157614e+000 -1.674951e+001 -2.642854e+001 -3.314034e+000 -3.415553e+000 -1.117010e+001 -5.284481e+000 -1.538413e+000 -3.945792e-001 -3.803315e+000 -5.492739e+000 7.160676e+001 -6.393761e-001 -1.932667e+000 4.896862e-002 8.805607e-001 1.582035e+000 -1.575125e-001 -1.051139e+000 7.464845e-001 1.077440e+000 -1.104751e-001 -1.257372e+000 -5.587457e-001 9.550150e-001 -1.698818e-001 3.075583e-002 4.362247e-001 3.555612e-001 -2.890169e-001 -4.598753e-001 1.711353e-001 2.532744e-001 -1.858897e-002 -3.918244e-001 -1.888792e-001 1.935749e-001 -9.507092e-002
<VARIANCE> 39
 6.296603e+001 7.390580e+001 4.991542e+001 7.492305e+001 8.588493e+001 6.568744e+001 8.403606e+001 6.018697e+001 7.439762e+001 6.166745e+001 8.810753e+001 5.255376e+001 5.001862e+001 1.330655e+000 4.339081e+000 3.647478e+000 4.587381e+000 6.827056e+000 6.720900e+000 6.320227e+000 5.215585e+000 5.680388e+000 5.775815e+000 7.266996e+000 4.965280e+000 1.701801e+000 2.314382e-001 5.993870e-001 5.053277e-001 6.963831e-001 1.245117e+000 9.429277e-001 1.280033e+000 8.172557e-001 1.267788e+000 9.906375e-001 1.433428e+000 1.035315e+000 2.021289e-001
<GCONST> 1.420100e+002
<TRANSP> 5
 0.000000e+000 1.000000e+000 0.000000e+000 0.000000e+000 0.000000e+000
 0.000000e+000 6.956287e-001 3.043714e-001 0.000000e+000 0.000000e+000
 0.000000e+000 0.000000e+000 7.684006e-001 2.315994e-001 0.000000e+000
 0.000000e+000 0.000000e+000 0.000000e+000 8.019170e-001 1.980830e-001
 0.000000e+000 0.000000e+000 0.000000e+000 0.000000e+000 0.000000e+000
<ENDHMM>
~h "x"
<BEGINHMM>
<NUMSTATES> 5
<STATE> 2
<MEAN> 39
 -2.444318e+000 2.583845e+000 -1.641424e+000 -1.303408e+001 -1.163449e+001 -1.312551e+001 -1.008827e+001 -1.074413e+001 -5.716311e+000 -4.075014e+000 -5.630226e+000 -6.786083e+000 6.602417e+001 8.569661e-001 9.905921e-001 -1.996825e-001 5.551298e-002 -4.992391e-001 -2.681530e-001 -2.215244e-001 -1.066346e+000 -3.014022e-001 3.536026e-001 -5.014917e-001 -5.812215e-001 2.044875e-001 -2.082086e-001 -2.567351e-001 -9.681133e-002 -1.561685e-001 1.596285e-001 1.823896e-001 8.312399e-002 1.974509e-001 8.373445e-002 1.820027e-002 5.610932e-002 1.059813e-001 1.121657e-001
<VARIANCE> 39
 6.200505e+001 6.218014e+001 4.091042e+001 8.909152e+001 5.596845e+001 5.210632e+001 8.569341e+001 7.163729e+001 4.731847e+001 6.213404e+001 5.872937e+001 3.791404e+001 1.035294e+002 3.563564e+000 4.125319e+000 3.232910e+000 4.229132e+000 4.155499e+000 4.126209e+000 5.296654e+000 5.746641e+000 3.628463e+000 3.931880e+000 3.533411e+000 2.539049e+000 3.242497e+000 4.950871e-001 5.615060e-001 6.623874e-001 7.202933e-001 7.080582e-001 6.922390e-001 8.650451e-001 8.800293e-001 6.064575e-001 7.163622e-001 5.980159e-001 4.669262e-001 2.491993e-001
<GCONST> 1.362545e+002
<STATE> 3
<MEAN> 39
 -6.905704e-001 3.920737e+000 -2.626436e+000 -1.695757e+001 -1.228064e+001 -1.113433e+001 -8.896268e+000 -1.404927e+001 -7.057053e+000 -2.184980e+000 -7.174428e+000 -7.941691e+000 6.991053e+001 -7.371602e-001 -3.016974e-001 8.503464e-001 -1.501737e+000 -9.758706e-002 8.378336e-001 1.364400e-001 2.157698e-001 -5.320102e-002 2.600206e-001 1.251865e-001 1.073218e-001 6.811484e-001 -1.595467e-001 -2.870184e-001 3.110586e-001 -2.749121e-001 -1.303400e-001 1.813150e-001 1.968540e-002 2.966027e-001 5.219966e-003 -9.064485e-002 1.498816e-001 1.331056e-001 1.363126e-001
<VARIANCE> 39
 7.878655e+001 4.590243e+001 5.870808e+001 8.576208e+001 5.344497e+001 5.952012e+001 8.190225e+001 8.015837e+001 5.229243e+001 7.647927e+001 5.900946e+001 3.876449e+001 3.506735e+001 1.621660e+000 2.157870e+000 4.370261e+000 6.875146e+000 3.407423e+000 4.146848e+000 4.038604e+000 4.913337e+000 3.265626e+000 3.477818e+000 2.965231e+000 2.481925e+000 9.990348e-001 2.787860e-001 3.394004e-001 7.732040e-001 1.253683e+000 6.746495e-001 7.459490e-001 7.838230e-001 8.728262e-001 6.188952e-001 6.593967e-001 5.321210e-001 4.732499e-001 1.237072e-001
<GCONST> 1.317314e+002
<STATE> 4
<MEAN> 39
 -3.180365e+000 -3.642883e+000 4.842181e+000 -2.612503e+001 -1.557251e+001 -6.254301e+000 -5.260644e+000 -7.931884e+000 -8.421082e+000 -2.491355e+000 -3.887497e+000 -5.971688e+000 7.482347e+001 -1.327063e-001 -1.488099e+000 -2.681785e-001 5.431307e-001 1.296252e-001 -3.682558e-001 3.866321e-001 1.597967e+000 1.498555e-002 -1.003394e+000 4.613415e-001 5.285671e-001 4.778106e-001 2.096956e-001 7.704310e-002 -5.104737e-001 5.442695e-001 4.238088e-001 -3.596894e-001 -2.221142e-001 3.374393e-002 1.769639e-001 -2.288156e-001 -1.299896e-001 8.299863e-002 -1.900309e-001
<VARIANCE> 39
 5.348273e+001 5.869157e+001 7.248817e+001 1.492696e+002 9.245673e+001 9.617126e+001 8.825841e+001 1.105331e+002 7.574547e+001 8.736984e+001 6.082717e+001 4.709310e+001 4.522227e+001 1.200010e+000 2.904974e+000 5.910274e+000 7.829770e+000 6.399554e+000 7.031451e+000 6.645915e+000 6.451682e+000 5.189624e+000 5.667770e+000 3.658253e+000 3.504505e+000 9.985610e-001 1.693936e-001 3.842375e-001 7.249618e-001 1.172355e+000 1.025294e+000 1.146661e+000 1.253870e+000 1.120077e+000 9.002376e-001 9.472637e-001 6.454698e-001 6.290904e-001 1.002459e-001
<GCONST> 1.406913e+002
<TRANSP> 5
 0.000000e+000 1.000000e+000 0.000000e+000 0.000000e+000 0.000000e+000
 0.000000e+000 7.587816e-001 2.412184e-001 0.000000e+000 0.000000e+000
 0.000000e+000 0.000000e+000 7.735023e-001 2.264977e-001 0.000000e+000
 0.000000e+000 0.000000e+000 0.000000e+000 8.175297e-001 1.824702e-001
 0.000000e+000 0.000000e+000 0.000000e+000 0.000000e+000 0.000000e+000
<ENDHMM>
~h "y"
<BEGINHMM>
<NUMSTATES> 5
<STATE> 2
<MEAN> 39
 -7.010021e+000 -5.485228e+000 4.152070e+000 -2.046749e+001 -1.898698e+001 -1.195834e+001 -5.272497e+000 -5.016498e+000 -3.690038e+000 -1.016116e+000 -4.875688e+000 -3.746921e+000 7.611957e+001 -3.156726e-001 1.555251e+000 1.689404e+000 -8.235893e-001 -8.899243e-001 3.112541e-001 -9.973499e-001 -1.688497e+000 3.743538e-001 8.996595e-001 -8.709047e-003 -1.060683e-002 -4.584803e-001 7.483756e-002 1.406187e-001 -1.542417e-001 8.765389e-002 3.965095e-001 1.385955e-002 -2.951767e-001 -4.625778e-002 5.126514e-002 -2.171737e-001 -1.339827e-001 1.468011e-001 -1.479435e-001
<VARIANCE> 39
 4.063258e+001 5.159101e+001 6.557925e+001 1.005907e+002 6.228859e+001 7.882721e+001 8.000072e+001 7.608425e+001 6.271625e+001 6.152947e+001 6.182558e+001 3.918661e+001 5.067501e+001 5.920682e-001 1.762150e+000 2.053931e+000 1.976885e+000 2.989916e+000 2.579395e+000 4.457660e+000 3.575282e+000 3.312750e+000 3.176825e+000 2.448425e+000 2.390113e+000 5.491375e-001 8.110501e-002 2.062941e-001 2.991863e-001 3.096904e-001 4.555140e-001 4.177776e-001 6.672692e-001 6.045529e-001 5.548531e-001 5.516983e-001 4.349402e-001 4.218622e-001 7.479549e-002
<GCONST> 1.205760e+002
<STATE> 3
<MEAN> 39
 -8.147453e+000 4.119125e+000 1.045863e+001 -2.402254e+001 -1.752221e+001 -9.342752e+000 -1.252342e+001 -1.227373e+001 -1.744436e+000 -1.730689e+000 -7.389731e+000 -1.957789e+000 7.168501e+001 4.384651e-002 8.316355e-001 1.879222e-001 2.076910e-001 5.368568e-001 1.088936e-001 -2.940532e-001 -2.614115e-001 1.644562e-002 -3.902546e-001 -2.950142e-001 6.419651e-002 -6.967683e-001 1.011892e-001 -2.404977e-001 -3.680505e-001 3.164915e-001 1.384693e-001 -7.975437e-002 3.369440e-001 2.927272e-001 -6.285293e-002 -7.545161e-002 9.082714e-002 -7.604839e-002 -6.678772e-002
<VARIANCE> 39
 4.166906e+001 4.712625e+001 6.565614e+001 1.374826e+002 5.860774e+001 6.506435e+001 7.115868e+001 5.369159e+001 5.815097e+001 7.401750e+001 7.329713e+001 4.848653e+001 4.500464e+001 8.267298e-001 2.230714e+000 1.806260e+000 2.613580e+000 2.673107e+000 2.706526e+000 3.504732e+000 3.052553e+000 2.628730e+000 2.702062e+000 2.621034e+000 2.210901e+000 1.068683e+000 1.162858e-001 2.140159e-001 3.023553e-001 4.233124e-001 4.865642e-001 4.837840e-001 6.215144e-001 5.678546e-001 5.050794e-001 5.388144e-001 4.982512e-001 4.265320e-001 1.154975e-001
<GCONST> 1.222631e+002
<STATE> 4
<MEAN> 39
 -5.874382e+000 5.243492e+000 8.088639e+000 -1.981385e+001 -1.365596e+001 -9.776112e+000 -8.476365e+000 -1.103057e+001 -2.088287e+000 -3.134802e+000 -6.718836e+000 -2.439832e+000 6.538472e+001 5.115414e-002 -5.164269e-001 -1.375395e+000 1.448808e+000 7.736366e-001 -1.524282e-001 8.157700e-001 6.726485e-001 3.445495e-002 -1.828148e-001 5.923881e-001 -2.324285e-001 -7.718996e-001 -7.995996e-002 -2.575381e-001 -2.416900e-001 9.093297e-002 1.240980e-001 1.077253e-003 4.350956e-002 1.345619e-001 1.433657e-002 3.167520e-002 9.423983e-002 3.100237e-002 2.950377e-002
<VARIANCE> 39
 5.297718e+001 7.444242e+001 7.336239e+001 1.786663e+002 8.160582e+001 8.520583e+001 7.612727e+001 6.442924e+001 6.244083e+001 7.200150e+001 6.834892e+001 4.645897e+001 8.771590e+001 2.178655e+000 3.905953e+000 3.951840e+000 6.568665e+000 5.680387e+000 4.874572e+000 5.552442e+000 5.093266e+000 4.554298e+000 4.704676e+000 4.342864e+000 3.544351e+000 4.022516e+000 2.978960e-001 4.682305e-001 5.620754e-001 9.251285e-001 9.318287e-001 8.353518e-001 9.779652e-001 8.762498e-001 8.190778e-001 8.528211e-001 7.738331e-001 6.450695e-001 2.967008e-001
<GCONST> 1.416853e+002
<TRANSP> 5
 0.000000e+000 1.000000e+000 0.000000e+000 0.000000e+000 0.000000e+000
 0.000000e+000 7.671434e-001 2.328566e-001 0.000000e+000 0.000000e+000
 0.000000e+000 0.000000e+000 7.777371e-001 2.222629e-001 0.000000e+000
 0.000000e+000 0.000000e+000 0.000000e+000 7.859616e-001 2.140383e-001
 0.000000e+000 0.000000e+000 0.000000e+000 0.000000e+000 0.000000e+000
<ENDHMM>
~h "z"
<BEGINHMM>
<NUMSTATES> 5
<STATE> 2
<MEAN> 39
 -1.636726e+001 1.267880e-001 -6.412305e+000 -9.614239e+000 -1.185836e+000 -1.002485e+001 -2.358335e+000 -2.678808e+000 4.146031e-001 3.221886e+000 4.195590e+000 -4.375929e+000 6.846293e+001 -9.674624e-001 -1.466092e-001 1.176692e-001 1.892922e-001 3.224270e-001 6.457014e-001 1.737468e-001 4.310575e-001 -1.013249e-002 4.433310e-001 4.236907e-001 6.745389e-001 -5.331904e-001 2.934687e-001 -3.052570e-002 -4.102477e-002 -5.105257e-002 -2.143618e-002 -7.568567e-002 -1.995035e-001 -2.376035e-002 -3.593432e-002 -1.181745e-001 -1.944985e-001 -8.342189e-002 -2.549494e-002
<VARIANCE> 39
 1.007687e+002 5.010635e+001 2.908936e+001 1.193173e+002 5.239875e+001 1.044104e+002 4.975126e+001 1.292082e+002 3.128434e+001 6.911980e+001 5.747289e+001 5.122800e+001 4.031800e+001 2.953977e+000 2.172911e+000 2.322077e+000 2.171433e+000 2.704319e+000 3.771336e+000 5.202200e+000 4.594351e+000 3.977347e+000 4.366574e+000 4.462830e+000 3.547378e+000 8.876441e-001 4.506290e-001 3.292280e-001 3.680377e-001 4.017606e-001 3.790452e-001 7.164877e-001 8.377542e-001 7.540969e-001 7.117267e-001 7.194676e-001 7.576277e-001 7.265994e-001 9.729378e-002
<GCONST> 1.303874e+002
<STATE> 3
<MEAN> 39
