~o
<STREAMINFO> 1 39
<VECSIZE> 39<NULLD><MFCC_D_A_0><DIAGC>
~h "a"
<BEGINHMM>
<NUMSTATES> 5
<STATE> 2
<MEAN> 39
 -7.924494e+000 -6.000063e+000 -5.388003e+000 -1.270616e+001 -5.335859e+000 -1.040900e+001 -5.590100e+000 -3.799398e+000 -1.711821e+000 -5.640631e+000 -3.477338e+000 -3.493722e+000 6.138131e+001 2.560380e-002 6.914326e-003 -2.303707e-002 -6.647891e-004 1.798885e-002 -2.864889e-004 -1.994362e-002 1.757997e-002 -1.227506e-002 -3.737475e-002 -9.393292e-003 -7.523896e-003 7.625516e-002 -3.578071e-003 1.093588e-002 6.811029e-003 7.316360e-003 9.062223e-004 5.216876e-003 -1.845599e-003 -6.598448e-003 1.501121e-003 5.987041e-003 4.265241e-003 3.515690e-003 -1.475271e-002
<VARIANCE> 39
 9.833102e+001 8.240118e+001 7.843496e+001 1.021243e+002 9.522218e+001 7.096064e+001 8.961841e+001 9.792359e+001 6.398249e+001 6.960304e+001 6.273218e+001 4.684875e+001 2.512819e+002 2.768282e+000 3.415207e+000 3.263112e+000 4.048529e+000 4.522382e+000 4.142972e+000 4.781421e+000 5.279221e+000 4.161154e+000 4.139805e+000 3.842592e+000 3.149153e+000 3.922863e+000 4.049909e-001 4.779547e-001 5.122188e-001 6.628681e-001 7.591855e-001 7.521384e-001 8.412354e-001 8.966231e-001 7.755558e-001 7.514720e-001 6.983055e-001 5.902544e-001 4.830099e-001
<GCONST> 1.414519e+002
<STATE> 3
<MEAN> 39
 -7.790530e+000 -5.934997e+000 -5.475798e+000 -1.269759e+001 -5.250000e+000 -1.041204e+001 -5.667510e+000 -3.737076e+000 -1.756067e+000 -5.782887e+000 -3.507325e+000 -3.532351e+000 6.174978e+001 1.366601e-002 2.982807e-002 -6.170319e-003 1.832428e-002 2.037482e-002 1.146451e-002 -2.050348e-002 -1.786630e-003 -6.901519e-003 -2.122407e-002 1.110745e-003 1.528841e-003 3.519811e-002 -2.987141e-003 1.057691e-002 7.151722e-003 6.770694e-003 1.031222e-003 4.051246e-003 -1.213992e-003 -6.126896e-003 2.305295e-003 6.319022e-003 4.271545e-003 3.307149e-003 -1.524324e-002
<VARIANCE> 39
 9.825462e+001 8.297375e+001 7.976904e+001 1.033586e+002 9.602036e+001 7.067384e+001 8.966906e+001 9.802485e+001 6.482683e+001 7.048367e+001 6.231771e+001 4.745272e+001 2.439377e+002 2.805382e+000 3.436562e+000 3.284924e+000 4.050553e+000 4.535959e+000 4.129284e+000 4.785533e+000 5.275845e+000 4.155642e+000 4.156270e+000 3.830292e+000 3.165180e+000 3.955085e+000 4.083419e-001 4.816894e-001 5.155640e-001 6.616324e-001 7.600179e-001 7.478917e-001 8.416811e-001 8.953218e-001 7.731567e-001 7.528613e-001 6.961555e-001 5.920516e-001 4.860365e-001
<GCONST> 1.415545e+002
<STATE> 4
<MEAN> 39
 -7.715335e+000 -5.821408e+000 -5.512011e+000 -1.263227e+001 -5.166406e+000 -1.038150e+001 -5.724007e+000 -3.748771e+000 -1.783755e+000 -5.869612e+000 -3.507596e+000 -3.541124e+000 6.196834e+001 2.625052e-003 5.286166e-002 1.252623e-002 3.411346e-002 2.160621e-002 2.045326e-002 -1.864212e-002 -1.876851e-002 3.875486e-004 -4.266297e-003 1.245750e-002 9.867888e-003 -6.750211e-003 -2.942922e-003 8.944084e-003 6.448228e-003 4.911640e-003 1.157532e-003 2.959533e-003 7.507877e-004 -3.775212e-003 2.879770e-003 5.982443e-003 4.589444e-003 2.537630e-003 -1.401087e-002
<VARIANCE> 39
 9.815292e+001 8.356001e+001 8.132363e+001 1.051260e+002 9.665429e+001 7.044270e+001 8.978674e+001 9.763017e+001 6.541896e+001 7.115023e+001 6.188505e+001 4.786635e+001 2.358380e+002 2.841710e+000 3.454991e+000 3.306276e+000 4.057855e+000 4.549142e+000 4.122424e+000 4.799809e+000 5.267964e+000 4.153211e+000 4.166849e+000 3.819582e+000 3.182159e+000 3.991607e+000 4.124420e-001 4.862380e-001 5.193630e-001 6.607264e-001 7.611690e-001 7.449912e-001 8.441521e-001 8.948330e-001 7.716572e-001 7.539243e-001 6.944553e-001 5.943444e-001 4.900000e-001
<GCONST> 1.416611e+002
<TRANSP> 5
 0.000000e+000 1.000000e+000 0.000000e+000 0.000000e+000 0.000000e+000
 0.000000e+000 7.756038e-001 2.243962e-001 0.000000e+000 0.000000e+000
 0.000000e+000 0.000000e+000 7.755882e-001 2.244118e-001 0.000000e+000
 0.000000e+000 0.000000e+000 0.000000e+000 7.755876e-001 2.244124e-001
 0.000000e+000 0.000000e+000 0.000000e+000 0.000000e+000 0.000000e+000
<ENDHMM>
~h "b"
<BEGINHMM>
<NUMSTATES> 5
<STATE> 2
<MEAN> 39
 -1.029819e+001 -9.592880e+000 -5.718276e+000 -1.079803e+001 -2.624308e+000 -8.429206e+000 -4.914124e+000 -4.594543e+000 -1.561302e+000 -4.045498e+000 -5.277384e+000 -4.273538e+000 5.573502e+001 1.048629e-002 -1.489629e-001 -3.152959e-002 -8.592175e-002 1.604784e-001 -1.015558e-001 -1.698436e-003 8.979067e-002 -1.544776e-001 -1.210425e-001 -1.729886e-001 9.491532e-003 1.730239e-001 1.339007e-002 8.112121e-002 5.192577e-002 3.952574e-002 -1.989681e-002 -1.184705e-002 -1.108937e-002 -4.615490e-002 1.657347e-003 5.822139e-002 5.102192e-002 -8.735905e-003 -8.739724e-002
<VARIANCE> 39
 5.598323e+001 6.839819e+001 4.577369e+001 5.378811e+001 4.850341e+001 6.397275e+001 6.929575e+001 5.971770e+001 4.178786e+001 4.583795e+001 9.794315e+001 4.151166e+001 2.967296e+002 1.135464e+000 2.711876e+000 1.900721e+000 2.840298e+000 2.484315e+000 3.530564e+000 3.217460e+000 4.309976e+000 3.171986e+000 3.825706e+000 3.158408e+000 2.802569e+000 1.997462e+000 1.794110e-001 3.486315e-001 3.180855e-001 5.194025e-001 4.318115e-001 6.241854e-001 6.070448e-001 8.035412e-001 5.989822e-001 7.195899e-001 5.650693e-001 5.096720e-001 2.302315e-001
<GCONST> 1.284894e+002
<STATE> 3
<MEAN> 39
 -9.868469e+000 -9.542349e+000 -5.710788e+000 -1.081249e+001 -2.328432e+000 -8.655411e+000 -5.308272e+000 -4.619006e+000 -2.017974e+000 -4.084498e+000 -5.404521e+000 -4.269362e+000 5.594586e+001 8.210264e-002 7.020720e-002 7.843723e-002 -1.975367e-002 5.575145e-002 -1.328393e-001 -7.220015e-002 -5.941547e-002 -1.228638e-001 4.608905e-002 -4.035059e-002 -2.077710e-002 -8.278402e-003 2.399185e-002 7.849151e-002 3.832160e-002 2.245974e-002 -4.344843e-002 -1.291251e-002 -2.733101e-002 -5.416584e-002 2.215923e-002 6.001331e-002 4.870555e-002 -1.449959e-002 -6.979419e-002
<VARIANCE> 39
 6.203762e+001 6.792987e+001 4.159047e+001 5.278339e+001 4.760466e+001 6.119373e+001 6.604158e+001 6.000308e+001 4.681156e+001 4.745969e+001 1.033240e+002 4.292146e+001 2.984213e+002 1.141607e+000 2.671701e+000 1.897328e+000 2.588960e+000 2.424264e+000 3.150248e+000 3.030702e+000 4.214549e+000 3.256477e+000 3.601306e+000 2.947040e+000 2.703942e+000 1.777580e+000 1.724271e-001 3.201909e-001 3.155601e-001 4.757684e-001 4.301923e-001 5.628381e-001 5.771377e-001 7.464381e-001 5.981591e-001 6.693150e-001 5.260999e-001 5.054389e-001 2.016370e-001
<GCONST> 1.272863e+002
<STATE> 4
<MEAN> 39
 -9.181417e+000 -8.937318e+000 -5.515114e+000 -1.072337e+001 -2.382909e+000 -8.963516e+000 -5.896601e+000 -5.014442e+000 -2.373402e+000 -3.786093e+000 -5.266122e+000 -4.346775e+000 5.591712e+001 1.483884e-001 2.395172e-001 1.340106e-001 2.191284e-002 -5.776504e-002 -1.419297e-001 -1.364646e-001 -1.716429e-001 -5.811676e-002 1.505830e-001 6.859278e-002 -4.733071e-002 -1.140719e-001 1.768360e-002 5.591843e-002 1.474477e-002 2.060886e-002 -3.922492e-002 4.731253e-003 -2.205115e-002 -3.298569e-002 2.895718e-002 2.909631e-002 4.632684e-002 -4.397713e-003 -4.376618e-002
<VARIANCE> 39
 7.180734e+001 7.232196e+001 4.108804e+001 5.426633e+001 4.712000e+001 5.815206e+001 6.601507e+001 6.474454e+001 5.317477e+001 4.953358e+001 1.050024e+002 4.353531e+001 2.864744e+002 1.281642e+000 2.850542e+000 2.014402e+000 2.567956e+000 2.535713e+000 3.043642e+000 3.202413e+000 4.486341e+000 3.556560e+000 3.529338e+000 3.056417e+000 2.740067e+000 1.858611e+000 1.861656e-001 3.396059e-001 3.367208e-001 4.656438e-001 4.526809e-001 5.466714e-001 6.054861e-001 7.595215e-001 6.477928e-001 6.550163e-001 5.283965e-001 5.127199e-001 2.052457e-001
<GCONST> 1.285680e+002
<TRANSP> 5
 0.000000e+000 1.000000e+000 0.000000e+000 0.000000e+000 0.000000e+000
 0.000000e+000 7.607962e-001 2.392039e-001 0.000000e+000 0.000000e+000
 0.000000e+000 0.000000e+000 7.607959e-001 2.392041e-001 0.000000e+000
 0.000000e+000 0.000000e+000 0.000000e+000 7.607977e-001 2.392023e-001
 0.000000e+000 0.000000e+000 0.000000e+000 0.000000e+000 0.000000e+000
<ENDHMM>
~h "c"
<BEGINHMM>
<NUMSTATES> 5
<STATE> 2
<MEAN> 39
 -8.724055e+000 -5.263195e+000 -6.085048e+000 -1.308293e+001 -4.782046e+000 -9.552752e+000 -4.905144e+000 -5.046414e+000 -1.490600e+000 -3.434561e+000 -1.910513e+000 -2.737720e+000 5.626357e+001 7.382016e-002 -1.086088e-002 -3.771643e-002 -1.764501e-001 -7.799839e-002 -4.223740e-002 -4.065843e-002 2.411582e-002 -6.332881e-002 -4.626112e-002 -1.985899e-002 8.186128e-003 2.090322e-001 -4.902284e-003 3.995389e-003 9.101460e-003 8.436303e-003 -7.582223e-003 9.492146e-003 3.644377e-004 -1.420013e-003 4.155684e-003 -5.490374e-003 -2.898588e-004 -2.955411e-003 -3.445710e-003
<VARIANCE> 39
 9.217130e+001 7.913258e+001 7.572408e+001 1.060926e+002 8.673902e+001 7.914268e+001 8.360178e+001 7.887898e+001 6.246342e+001 6.043459e+001 5.870020e+001 4.454085e+001 2.231457e+002 2.356302e+000 3.248996e+000 3.658867e+000 4.733376e+000 4.627056e+000 4.911099e+000 4.933430e+000 5.173867e+000 4.523533e+000 3.914440e+000 3.912242e+000 3.181445e+000 3.535229e+000 3.506220e-001 5.107196e-001 6.006818e-001 7.584766e-001 8.202170e-001 8.904911e-001 9.017527e-001 9.562151e-001 8.654286e-001 7.501926e-001 7.114251e-001 6.156974e-001 4.335029e-001
<GCONST> 1.415511e+002
<STATE> 3
<MEAN> 39
 -8.453325e+000 -5.167398e+000 -6.155731e+000 -1.356235e+001 -5.076398e+000 -9.662864e+000 -5.049060e+000 -5.011477e+000 -1.651497e+000 -3.605100e+000 -1.953258e+000 -2.728653e+000 5.700389e+001 6.573597e-002 1.179409e-002 -1.486071e-002 -1.297923e-001 -9.249185e-002 -2.930246e-002 -3.833031e-002 7.056309e-003 -5.204154e-002 -5.546761e-002 -1.602167e-002 -2.295783e-003 1.821778e-001 -4.495898e-003 1.132018e-002 1.221485e-002 1.921252e-002 -4.233583e-003 7.878887e-003 5.092454e-004 -7.307915e-003 6.867650e-003 -3.830626e-003 2.022034e-003 -3.346136e-003 -1.553172e-002
<VARIANCE> 39
 9.285905e+001 7.868159e+001 7.805074e+001 1.051621e+002 9.047276e+001 8.149299e+001 8.554119e+001 8.065272e+001 6.402486e+001 6.091211e+001 5.948749e+001 4.673519e+001 2.247351e+002 2.428467e+000 3.200472e+000 3.662057e+000 4.754263e+000 4.697453e+000 4.894454e+000 4.895266e+000 5.145720e+000 4.483212e+000 3.971321e+000 3.851839e+000 3.200506e+000 3.592173e+000 3.592150e-001 5.086707e-001 5.948123e-001 7.508695e-001 8.288241e-001 8.925542e-001 8.991818e-001 9.432123e-001 8.528526e-001 7.540828e-001 7.062979e-001 6.188092e-001 4.447416e-001
<GCONST> 1.418331e+002
<STATE> 4
<MEAN> 39
 -8.186146e+000 -5.011612e+000 -6.153649e+000 -1.384058e+001 -5.366810e+000 -9.788904e+000 -5.201543e+000 -5.037904e+000 -1.779605e+000 -3.780048e+000 -1.989610e+000 -2.756623e+000 5.766451e+001 5.718351e-002 3.894250e-002 1.528712e-002 -7.020196e-002 -8.799354e-002 -1.752794e-002 -3.795820e-002 -1.621591e-002 -3.441372e-002 -6.089245e-002 -1.188109e-002 -1.132478e-002 1.395889e-001 -5.974697e-003 1.086669e-002 1.378499e-002 2.381006e-002 3.635367e-003 7.437945e-003 -1.432254e-004 -8.445206e-003 9.451130e-003 -2.958396e-004 1.115917e-003 -3.516234e-003 -2.151605e-002
<VARIANCE> 39
 9.358852e+001 7.859754e+001 7.997267e+001 1.043416e+002 9.359727e+001 8.235409e+001 8.667816e+001 8.275011e+001 6.578410e+001 6.111448e+001 6.020013e+001 4.845422e+001 2.242440e+002 2.526866e+000 3.160213e+000 3.639945e+000 4.719023e+000 4.747280e+000 4.854111e+000 4.881184e+000 5.154348e+000 4.501470e+000 4.027808e+000 3.791107e+000 3.225692e+000 3.724707e+000 3.716594e-001 5.038078e-001 5.874116e-001 7.393821e-001 8.325784e-001 8.865113e-001 8.961626e-001 9.371667e-001 8.548443e-001 7.602468e-001 6.963410e-001 6.193582e-001 4.666369e-001
<GCONST> 1.421066e+002
<TRANSP> 5
 0.000000e+000 1.000000e+000 0.000000e+000 0.000000e+000 0.000000e+000
 0.000000e+000 7.768626e-001 2.231375e-001 0.000000e+000 0.000000e+000
 0.000000e+000 0.000000e+000 7.768621e-001 2.231379e-001 0.000000e+000
 0.000000e+000 0.000000e+000 0.000000e+000 7.768645e-001 2.231355e-001
 0.000000e+000 0.000000e+000 0.000000e+000 0.000000e+000 0.000000e+000
<ENDHMM>
~h "d"
<BEGINHMM>
<NUMSTATES> 5
<STATE> 2
<MEAN> 39
 -8.835646e+000 -5.506075e+000 -1.288656e+000 -1.158953e+001 -8.117395e+000 -1.141822e+001 -5.524734e+000 -7.551734e+000 -1.139638e+000 -3.140822e+000 -3.179495e+000 -2.398543e+000 5.635575e+001 1.432619e-001 1.329994e-001 5.329565e-002 -8.620302e-002 -9.254731e-002 -8.373120e-002 -6.463895e-002 -8.182394e-002 -1.724898e-002 8.035369e-002 -9.304864e-002 2.069009e-003 1.258479e-001 3.736807e-003 7.714015e-003 -2.408083e-003 9.837383e-003 1.253964e-002 1.648934e-002 6.005865e-003 6.544607e-003 -3.043521e-003 -7.868588e-003 -1.492738e-003 5.827890e-003 -1.123953e-002
<VARIANCE> 39
 9.297038e+001 7.721238e+001 6.376640e+001 7.864527e+001 1.120712e+002 7.454126e+001 7.918797e+001 7.688892e+001 5.184270e+001 6.174714e+001 5.961061e+001 4.215265e+001 2.612229e+002 2.318333e+000 3.555687e+000 3.019690e+000 4.009850e+000 4.397597e+000 4.577073e+000 4.147604e+000 4.567461e+000 3.723174e+000 4.198163e+000 3.547155e+000 3.448856e+000 3.616214e+000 3.651130e-001 5.838540e-001 5.312836e-001 6.888071e-001 7.721775e-001 8.259982e-001 7.491325e-001 8.440748e-001 7.166954e-001 7.538192e-001 6.678830e-001 6.661223e-001 5.114763e-001
<GCONST> 1.398174e+002
<STATE> 3
<MEAN> 39
 -7.955672e+000 -4.750865e+000 -1.098180e+000 -1.197326e+001 -8.636446e+000 -1.156981e+001 -5.734960e+000 -7.902237e+000 -1.267512e+000 -2.945669e+000 -3.643746e+000 -2.363217e+000 5.733476e+001 1.431260e-001 1.454805e-001 3.554953e-002 -6.159142e-002 -4.485829e-002 -1.253798e-002 -5.544823e-002 -5.966830e-002 -3.484268e-002 4.273879e-002 -6.741941e-002 1.059989e-002 1.203263e-001 -1.215648e-003 2.131299e-003 -4.171699e-003 7.829702e-003 1.303937e-002 1.507958e-002 2.084882e-003 6.745637e-003 -2.991104e-003 -1.201643e-002 7.853692e-003 1.303317e-003 -3.215130e-003
<VARIANCE> 39
 9.777113e+001 8.150929e+001 6.748141e+001 8.132308e+001 1.087615e+002 7.360395e+001 8.101212e+001 8.091771e+001 5.266983e+001 6.499321e+001 6.029625e+001 4.336667e+001 2.552172e+002 2.431290e+000 3.639605e+000 3.274045e+000 4.247134e+000 4.459007e+000 4.790232e+000 4.355561e+000 4.513381e+000 3.630029e+000 4.215547e+000 3.603768e+000 3.549206e+000 3.757445e+000 3.745495e-001 5.945126e-001 5.648216e-001 7.234172e-001 7.736058e-001 8.806933e-001 7.723230e-001 8.247630e-001 6.960837e-001 7.537768e-001 6.910161e-001 6.825560e-001 5.353634e-001
<GCONST> 1.407961e+002
<STATE> 4
<MEAN> 39
 -7.136924e+000 -4.029756e+000 -9.767247e-001 -1.234541e+001 -8.965675e+000 -1.151537e+001 -5.990905e+000 -8.151379e+000 -1.436602e+000 -2.873832e+000 -3.951963e+000 -2.341689e+000 5.834216e+001 1.248808e-001 1.394881e-001 2.150687e-002 -5.590852e-002 -4.998628e-003 2.271558e-002 -6.201448e-002 -3.526992e-002 -4.227080e-002 1.277118e-002 -3.424003e-002 5.104457e-003 1.279350e-001 -4.586146e-003 -1.780629e-003 -4.828691e-003 6.383338e-004 6.999180e-003 7.875838e-003 -2.239391e-003 5.846931e-003 7.063049e-004 -8.465135e-003 9.356439e-003 -1.502864e-003 3.252460e-003
<VARIANCE> 39
 1.014193e+002 8.527729e+001 7.155391e+001 8.571243e+001 1.048175e+002 7.404708e+001 8.399328e+001 8.327493e+001 5.450354e+001 6.899691e+001 6.186689e+001 4.419186e+001 2.462608e+002 2.527807e+000 3.673188e+000 3.504116e+000 4.549589e+000 4.544727e+000 5.009861e+000 4.604731e+000 4.503892e+000 3.600233e+000 4.225533e+000 3.725218e+000 3.553641e+000 3.841300e+000 3.799724e-001 5.953535e-001 5.852359e-001 7.592905e-001 7.850518e-001 9.165643e-001 7.991967e-001 8.070907e-001 6.872329e-001 7.449869e-001 7.202303e-001 6.776303e-001 5.495401e-001
<GCONST> 1.416813e+002
<TRANSP> 5
 0.000000e+000 1.000000e+000 0.000000e+000 0.000000e+000 0.000000e+000
 0.000000e+000 7.806952e-001 2.193048e-001 0.000000e+000 0.000000e+000
 0.000000e+000 0.000000e+000 7.806956e-001 2.193045e-001 0.000000e+000
 0.000000e+000 0.000000e+000 0.000000e+000 7.806973e-001 2.193027e-001
 0.000000e+000 0.000000e+000 0.000000e+000 0.000000e+000 0.000000e+000
<ENDHMM>
~h "e"
<BEGINHMM>
<NUMSTATES> 5
<STATE> 2
<MEAN> 39
 -9.286534e+000 -4.326035e+000 -2.113968e+000 -1.333005e+001 -8.961475e+000 -1.105602e+001 -4.599060e+000 -5.863494e+000 -1.468797e+000 -3.673469e+000 -2.154356e+000 -2.481562e+000 5.949287e+001 9.839351e-002 7.473509e-002 3.271414e-002 -1.030449e-001 -9.786478e-002 2.358291e-003 -2.359823e-002 -4.960049e-002 -1.973470e-002 -1.107116e-002 -4.889955e-002 -1.935096e-002 2.395435e-001 -2.611007e-003 -1.648745e-003 -2.754244e-003 4.205711e-003 7.619021e-003 3.753495e-003 -4.371424e-005 -7.080141e-004 4.271222e-004 -3.511416e-003 2.753560e-003 9.598129e-004 -4.600264e-003
<VARIANCE> 39
 9.871676e+001 8.031091e+001 7.959796e+001 1.091485e+002 1.151974e+002 7.966485e+001 8.844723e+001 8.295132e+001 6.023333e+001 6.485675e+001 5.563167e+001 4.087721e+001 2.516809e+002 3.243126e+000 3.281143e+000 3.147782e+000 4.656289e+000 4.937893e+000 4.590097e+000 4.883130e+000 4.738499e+000 4.293062e+000 4.367002e+000 3.664355e+000 3.215729e+000 4.378662e+000 4.706357e-001 5.217660e-001 4.962350e-001 7.559061e-001 8.419924e-001 8.259513e-001 8.759808e-001 8.638147e-001 8.149708e-001 7.990897e-001 6.884827e-001 6.121733e-001 5.767182e-001
<GCONST> 1.425946e+002
<STATE> 3
<MEAN> 39
 -8.824669e+000 -3.957797e+000 -1.898011e+000 -1.382935e+001 -9.477691e+000 -1.109221e+001 -4.740885e+000 -6.124900e+000 -1.545650e+000 -3.686771e+000 -2.368499e+000 -2.509474e+000 6.076608e+001 8.276060e-002 6.865953e-002 3.159956e-002 -8.808894e-002 -8.052213e-002 7.294207e-003 -1.945996e-002 -6.019064e-002 -1.415466e-002 -1.642949e-002 -3.800430e-002 -1.397815e-002 2.171948e-001 -3.928366e-003 -1.418715e-003 -3.834209e-003 5.081650e-003 1.014902e-002 3.982907e-003 -9.305072e-004 3.653413e-004 2.777010e-003 -1.784210e-003 4.413921e-003 2.397554e-003 -6.582743e-003
<VARIANCE> 39
 1.004201e+002 8.038750e+001 8.237636e+001 1.144516e+002 1.175235e+002 7.975298e+001 9.028867e+001 8.618145e+001 6.127856e+001 6.762857e+001 5.654481e+001 4.232184e+001 2.421670e+002 3.368116e+000 3.351362e+000 3.265668e+000 4.828224e+000 5.098841e+000 4.620039e+000 4.991476e+000 4.800161e+000 4.312514e+000 4.447126e+000 3.678909e+000 3.262876e+000 4.558695e+000 4.869222e-001 5.321823e-001 5.101246e-001 7.723513e-001 8.667392e-001 8.387697e-001 8.947164e-001 8.683472e-001 8.127050e-001 8.114908e-001 6.844534e-001 6.170837e-001 5.992315e-001
<GCONST> 1.433595e+002
<STATE> 4
<MEAN> 39
 -8.442664e+000 -3.630380e+000 -1.680485e+000 -1.424167e+001 -9.921762e+000 -1.113094e+001 -4.848766e+000 -6.424129e+000 -1.588797e+000 -3.724031e+000 -2.550497e+000 -2.519970e+000 6.187789e+001 6.566871e-002 6.421398e-002 2.339090e-002 -7.103419e-002 -4.929335e-002 1.638114e-002 -2.018574e-002 -6.169949e-002 -4.222835e-003 -2.100119e-002 -2.577487e-002 -8.818638e-003 1.861484e-001 -4.692590e-003 -5.303949e-004 -5.020569e-003 5.423660e-003 1.305926e-002 4.599255e-003 -4.100448e-003 6.354743e-004 4.098600e-003 -3.585312e-004 3.833146e-003 2.042593e-003 -8.988868e-003
<VARIANCE> 39
 1.011106e+002 7.975317e+001 8.433785e+001 1.195573e+002 1.192174e+002 8.000002e+001 9.158730e+001 8.945303e+001 6.241602e+001 6.990465e+001 5.733661e+001 4.380093e+001 2.313100e+002 3.451796e+000 3.411358e+000 3.391127e+000 5.004063e+000 5.249338e+000 4.642220e+000 5.080314e+000 4.870542e+000 4.307050e+000 4.508816e+000 3.688466e+000 3.317600e+000 4.694531e+000 4.979781e-001 5.407540e-001 5.238296e-001 7.896203e-001 8.908146e-001 8.480960e-001 9.072964e-001 8.712803e-001 8.074200e-001 8.190851e-001 6.795843e-001 6.260484e-001 6.134762e-001
<GCONST> 1.439678e+002
<TRANSP> 5
 0.000000e+000 1.000000e+000 0.000000e+000 0.000000e+000 0.000000e+000
 0.000000e+000 7.758116e-001 2.241885e-001 0.000000e+000 0.000000e+000
 0.000000e+000 0.000000e+000 7.758127e-001 2.241873e-001 0.000000e+000
 0.000000e+000 0.000000e+000 0.000000e+000 7.758124e-001 2.241875e-001
 0.000000e+000 0.000000e+000 0.000000e+000 0.000000e+000 0.000000e+000
<ENDHMM>
~h "f"
<BEGINHMM>
<NUMSTATES> 5
<STATE> 2
<MEAN> 39
 -1.405208e+001 -6.917940e+000 -5.575161e+000 -6.865394e+000 -4.914561e+000 -8.514372e+000 -3.805059e+000 -5.617839e+000 -1.172083e+000 -4.348843e+000 -3.310441e+000 -3.990172e+000 5.064999e+001 -1.022270e-001 1.235421e-001 2.165571e-001 2.277832e-002 1.249784e-001 -1.222704e-001 -3.510881e-002 1.576260e-002 1.438870e-002 5.448759e-002 1.340994e-001 6.455603e-002 1.389346e-001 -4.542056e-002 3.585380e-003 3.896559e-002 -5.870734e-004 5.156953e-002 1.391747e-003 4.329047e-002 1.392437e-002 5.211755e-002 3.557448e-002 3.298299e-002 1.831046e-002 -1.207849e-002
<VARIANCE> 39
 3.747187e+001 3.681801e+001 5.975841e+001 4.946574e+001 4.939724e+001 5.176942e+001 6.406927e+001 3.968045e+001 5.097017e+001 4.801786e+001 4.497138e+001 3.330745e+001 2.239370e+002 2.681490e+000 1.434720e+000 2.407740e+000 3.048681e+000 2.778351e+000 3.036892e+000 3.110384e+000 3.505799e+000 3.425524e+000 3.299793e+000 3.052356e+000 2.208498e+000 1.511834e+000 4.199884e-001 2.276180e-001 3.942771e-001 4.931037e-001 5.060900e-001 5.679318e-001 5.881972e-001 6.840127e-001 6.889988e-001 6.497155e-001 6.216536e-001 4.074325e-001 1.775744e-001
<GCONST> 1.256732e+002
<STATE> 3
<MEAN> 39
 -1.356291e+001 -6.181935e+000 -4.926079e+000 -7.437852e+000 -4.698345e+000 -9.358223e+000 -4.676584e+000 -5.496282e+000 -8.362070e-001 -4.025201e+000 -2.970361e+000 -3.772873e+000 5.263093e+001 -1.166988e-001 1.356755e-001 2.463823e-001 -5.117952e-002 1.537006e-001 -8.576764e-002 -1.106867e-003 4.033063e-002 8.928616e-002 1.196771e-001 1.603537e-001 8.433193e-002 1.960940e-001 1.953062e-003 -7.766019e-003 2.824812e-004 -1.518286e-002 -4.160709e-003 1.937421e-002 6.283554e-003 5.883620e-003 1.721216e-002 1.505788e-002 -4.928879e-003 5.700722e-003 2.449704e-003
<VARIANCE> 39
 4.820161e+001 4.873274e+001 7.842173e+001 6.582298e+001 5.406342e+001 5.667723e+001 7.282316e+001 3.931771e+001 4.662569e+001 5.400641e+001 4.727804e+001 3.870956e+001 2.327806e+002 3.055578e+000 1.652567e+000 2.626618e+000 3.214030e+000 2.633555e+000 3.183326e+000 3.341091e+000 3.675531e+000 3.536066e+000 3.817413e+000 3.108861e+000 2.423874e+000 2.051006e+000 4.552891e-001 2.646585e-001 4.208704e-001 5.033762e-001 4.825150e-001 5.679905e-001 6.081668e-001 7.041778e-001 7.255001e-001 7.405986e-001 6.385356e-001 4.479514e-001 2.231244e-001
<GCONST> 1.293128e+002
<STATE> 4
<MEAN> 39
 -1.281599e+001 -5.206483e+000 -4.267045e+000 -8.577865e+000 -4.691592e+000 -9.861416e+000 -5.731997e+000 -5.433559e+000 -6.133541e-001 -3.553881e+000 -2.633095e+000 -3.530091e+000 5.536734e+001 -6.621288e-002 1.299973e-001 2.136813e-001 -1.151412e-001 7.149750e-002 3.989405e-003 -1.629126e-002 3.836463e-002 6.172283e-002 1.230345e-001 1.209485e-001 7.325064e-002 2.460125e-001 3.655861e-002 -1.160912e-002 -2.038012e-002 -1.647593e-002 -4.709968e-002 1.483718e-002 -2.199133e-002 -5.663529e-003 -1.937250e-002 -3.764132e-003 -2.816170e-002 -7.326218e-003 1.321750e-002
<VARIANCE> 39
 6.615082e+001 6.019056e+001 9.434768e+001 8.799494e+001 5.798038e+001 5.895977e+001 8.438204e+001 4.291325e+001 4.365649e+001 5.700390e+001 5.091523e+001 4.399178e+001 2.376210e+002 3.545103e+000 1.904756e+000 2.712861e+000 3.489367e+000 2.846668e+000 3.379034e+000 3.629246e+000 4.053113e+000 3.702910e+000 4.206416e+000 3.294400e+000 2.627885e+000 2.447534e+000 5.155014e-001 3.206340e-001 4.403434e-001 5.355025e-001 4.959222e-001 5.848842e-001 6.249282e-001 7.596196e-001 7.505236e-001 8.082667e-001 6.830784e-001 4.852070e-001 2.691046e-001
<GCONST> 1.330915e+002
<TRANSP> 5
 0.000000e+000 1.000000e+000 0.000000e+000 0.000000e+000 0.000000e+000
 0.000000e+000 8.177202e-001 1.822798e-001 0.000000e+000 0.000000e+000
 0.000000e+000 0.000000e+000 8.177204e-001 1.822796e-001 0.000000e+000
 0.000000e+000 0.000000e+000 0.000000e+000 8.177216e-001 1.822784e-001
 0.000000e+000 0.000000e+000 0.000000e+000 0.000000e+000 0.000000e+000
<ENDHMM>
~h "g"
<BEGINHMM>
<NUMSTATES> 5
<STATE> 2
<MEAN> 39
 -4.899768e+000 -2.552286e+000 -2.574187e+000 -1.331688e+001 -8.084077e+000 -1.158285e+001 -4.639864e+000 -8.891796e+000 -1.840672e+000 -4.504163e+000 -2.575119e+000 -5.049626e+000 6.048573e+001 7.740613e-002 4.264267e-003 2.607395e-002 -4.919641e-002 -2.631137e-002 -1.577532e-002 4.779544e-002 8.450270e-002 -2.675146e-002 -1.813709e-001 -1.873114e-002 -8.823578e-002 2.077310e-001 -2.115987e-003 2.824497e-004 -2.346234e-003 -1.188637e-002 7.136172e-003 -4.227081e-003 -8.351208e-003 -1.623225e-002 2.738370e-003 4.457185e-003 -9.054955e-003 9.282990e-003 -8.364864e-003
<VARIANCE> 39
 8.507420e+001 1.015380e+002 1.132448e+002 1.008834e+002 1.122010e+002 9.157125e+001 9.503143e+001 1.110938e+002 6.319724e+001 8.454617e+001 5.588010e+001 6.533371e+001 1.781748e+002 2.282313e+000 3.058660e+000 3.513509e+000 4.391762e+000 4.844776e+000 3.654016e+000 4.820634e+000 5.940166e+000 4.473220e+000 4.021889e+000 3.625842e+000 3.553424e+000 2.824242e+000 3.896367e-001 4.549234e-001 5.039771e-001 6.905866e-001 7.822796e-001 6.862434e-001 8.835113e-001 1.071182e+000 8.316143e-001 7.493542e-001 6.761900e-001 6.593695e-001 4.339928e-001
<GCONST> 1.423695e+002
<STATE> 3
<MEAN> 39
 -4.470787e+000 -2.298232e+000 -2.660383e+000 -1.353894e+001 -8.218783e+000 -1.173785e+001 -4.675049e+000 -8.620959e+000 -1.808523e+000 -5.307979e+000 -2.526744e+000 -5.581600e+000 6.136589e+001 5.377335e-002 2.796285e-002 7.802061e-003 -6.413344e-002 -2.008395e-003 -3.853969e-002 -1.193825e-002 1.692410e-002 -3.173062e-003 -1.241098e-001 -4.415637e-002 -7.244928e-002 1.319586e-001 -1.900762e-003 8.499246e-003 -3.532859e-003 -5.819360e-003 5.713320e-003 3.290613e-003 -1.382728e-002 -2.105408e-002 2.730954e-003 1.471800e-002 -7.788884e-003 9.723555e-003 -1.473195e-002
<VARIANCE> 39
 8.339052e+001 1.105315e+002 1.185436e+002 9.984592e+001 1.165093e+002 8.924975e+001 1.001282e+002 1.169745e+002 6.824293e+001 8.611210e+001 5.754707e+001 7.295882e+001 1.673200e+002 2.064229e+000 2.854656e+000 3.340359e+000 4.419158e+000 4.903752e+000 3.607279e+000 4.931331e+000 5.540380e+000 4.435218e+000 4.094393e+000 3.504039e+000 3.626523e+000 2.425819e+000 3.491774e-001 4.195012e-001 4.831162e-001 7.141697e-001 7.935751e-001 6.713993e-001 9.218324e-001 9.739833e-001 8.228152e-001 7.651617e-001 6.423239e-001 6.860311e-001 3.784125e-001
<GCONST> 1.419415e+002
<STATE> 4
<MEAN> 39
 -4.272135e+000 -2.035325e+000 -2.862710e+000 -1.378395e+001 -8.031843e+000 -1.180061e+001 -5.026602e+000 -8.668253e+000 -1.670715e+000 -5.688427e+000 -2.540519e+000 -6.113658e+000 6.183652e+001 1.846052e-002 5.582946e-002 -1.979175e-003 -6.824034e-002 2.901038e-002 -8.988605e-003 -6.393455e-002 -3.529029e-002 5.274573e-003 -4.931601e-002 -5.659657e-002 -5.167241e-002 5.532221e-002 -5.192414e-003 1.036781e-002 -4.031737e-003 2.947910e-003 7.432708e-003 1.192583e-002 -1.587046e-002 -6.980213e-003 -8.798780e-004 1.573958e-002 1.666201e-003 9.031136e-003 -1.577116e-002
<VARIANCE> 39
 8.198874e+001 1.179298e+002 1.218979e+002 9.990397e+001 1.157438e+002 8.325018e+001 1.003643e+002 1.185964e+002 7.112356e+001 8.607891e+001 5.805003e+001 8.001859e+001 1.576545e+002 1.874993e+000 2.680062e+000 3.203716e+000 4.515441e+000 4.978463e+000 3.643428e+000 5.079370e+000 5.242947e+000 4.293180e+000 4.098155e+000 3.388497e+000 3.677923e+000 2.097164e+000 3.154189e-001 3.908918e-001 4.627218e-001 7.517642e-001 8.207179e-001 6.713296e-001 9.562483e-001 8.990422e-001 7.963392e-001 7.638213e-001 6.198557e-001 6.967370e-001 3.281415e-001
<GCONST> 1.412925e+002
<TRANSP> 5
 0.000000e+000 1.000000e+000 0.000000e+000 0.000000e+000 0.000000e+000
 0.000000e+000 8.069114e-001 1.930887e-001 0.000000e+000 0.000000e+000
 0.000000e+000 0.000000e+000 8.069114e-001 1.930886e-001 0.000000e+000
 0.000000e+000 0.000000e+000 0.000000e+000 8.069134e-001 1.930866e-001
 0.000000e+000 0.000000e+000 0.000000e+000 0.000000e+000 0.000000e+000
<ENDHMM>
~h "h"
<BEGINHMM>
<NUMSTATES> 5
<STATE> 2
<MEAN> 39
 -1.226545e+001 -7.125106e+000 -4.932297e+000 -1.016386e+001 -4.239678e+000 -8.704304e+000 -3.797570e+000 -4.786129e+000 -8.907345e-001 -3.432708e+000 -1.658778e+000 -2.824103e+000 5.246899e+001 1.339562e-001 6.992684e-004 1.261538e-002 -8.889191e-002 -1.579504e-001 -7.252560e-002 -1.203507e-001 -9.338714e-002 -6.835435e-002 -5.877357e-002 -9.205641e-002 -4.461987e-002 1.527700e-001 -7.858437e-003 1.007175e-002 6.942173e-003 1.724591e-002 1.706471e-002 9.278705e-003 1.397056e-002 2.142712e-002 4.149805e-003 1.347879e-004 -1.349887e-003 1.054845e-002 -2.876541e-002
<VARIANCE> 39
 6.592665e+001 6.272744e+001 5.545840e+001 7.473126e+001 8.613074e+001 5.397069e+001 7.525235e+001 6.838923e+001 5.557256e+001 5.131067e+001 5.117456e+001 3.831135e+001 2.397827e+002 1.883193e+000 1.886560e+000 2.195936e+000 3.228677e+000 4.002736e+000 3.438669e+000 4.004057e+000 4.045372e+000 3.965086e+000 3.447181e+000 3.242375e+000 2.748620e+000 1.790334e+000 2.887118e-001 3.042401e-001 3.731455e-001 5.428994e-001 6.787778e-001 6.441633e-001 7.353540e-001 7.489067e-001 7.568840e-001 6.668800e-001 6.071700e-001 5.314960e-001 2.330155e-001
<GCONST> 1.316350e+002
<STATE> 3
<MEAN> 39
 -1.185037e+001 -7.013799e+000 -4.886876e+000 -1.052275e+001 -4.549564e+000 -8.813000e+000 -4.127937e+000 -4.913350e+000 -1.044498e+000 -3.572697e+000 -1.923139e+000 -2.926594e+000 5.297915e+001 1.177442e-001 2.964058e-002 2.010772e-002 -7.081067e-002 -1.191695e-001 -5.526786e-002 -9.069028e-002 -4.437881e-002 -5.835896e-002 -5.296314e-002 -8.726975e-002 -2.237386e-002 1.081427e-001 -1.183227e-002 8.309574e-003 1.715071e-003 7.735237e-003 1.853381e-002 7.518684e-003 1.506297e-002 2.170584e-002 3.373431e-003 4.291243e-003 4.407031e-003 9.633178e-003 -2.053547e-002
<VARIANCE> 39
 6.907415e+001 6.401409e+001 5.923079e+001 7.901389e+001 9.011423e+001 5.378801e+001 7.803776e+001 6.842815e+001 5.612967e+001 5.118236e+001 5.417593e+001 3.906841e+001 2.475967e+002 1.936893e+000 1.932112e+000 2.230139e+000 3.277780e+000 3.995168e+000 3.444965e+000 4.008331e+000 4.084567e+000 3.942576e+000 3.464876e+000 3.300998e+000 2.768968e+000 1.837752e+000 2.922098e-001 3.043465e-001 3.765004e-001 5.430436e-001 6.658092e-001 6.450376e-001 7.343396e-001 7.487580e-001 7.441255e-001 6.622642e-001 6.149865e-001 5.311971e-001 2.362069e-001
<GCONST> 1.321663e+002
<STATE> 4
<MEAN> 39
 -1.145503e+001 -6.836838e+000 -4.856364e+000 -1.087261e+001 -4.747848e+000 -8.892684e+000 -4.418255e+000 -4.930956e+000 -1.173040e+000 -3.696271e+000 -2.168846e+000 -2.984823e+000 5.348515e+001 9.284487e-002 4.414766e-002 1.524089e-002 -6.489885e-002 -7.275901e-002 -4.105407e-002 -6.144496e-002 -7.299545e-004 -4.894432e-002 -4.001606e-002 -7.002079e-002 -6.799378e-003 9.035729e-002 -1.354552e-002 2.289727e-003 -1.834850e-003 3.782155e-003 1.933008e-002 6.705522e-003 1.452536e-002 1.817011e-002 4.215801e-003 5.646850e-003 8.276408e-003 5.773545e-003 -9.015174e-003
<VARIANCE> 39
 7.248085e+001 6.560394e+001 6.242992e+001 8.378625e+001 9.381512e+001 5.456153e+001 8.003958e+001 6.987424e+001 5.730036e+001 5.164025e+001 5.673101e+001 3.969448e+001 2.522447e+002 2.001129e+000 2.005565e+000 2.282039e+000 3.309267e+000 4.028637e+000 3.477375e+000 4.021521e+000 4.163040e+000 3.931558e+000 3.486024e+000 3.360294e+000 2.779218e+000 1.948146e+000 2.999088e-001 3.091349e-001 3.807865e-001 5.472648e-001 6.604496e-001 6.488574e-001 7.341859e-001 7.547165e-001 7.365321e-001 6.607749e-001 6.244019e-001 5.304845e-001 2.453370e-001
<GCONST> 1.328922e+002
<TRANSP> 5
 0.000000e+000 1.000000e+000 0.000000e+000 0.000000e+000 0.000000e+000
 0.000000e+000 7.649897e-001 2.350103e-001 0.000000e+000 0.000000e+000
 0.000000e+000 0.000000e+000 7.649902e-001 2.350098e-001 0.000000e+000
 0.000000e+000 0.000000e+000 0.000000e+000 7.649916e-001 2.350084e-001
 0.000000e+000 0.000000e+000 0.000000e+000 0.000000e+000 0.000000e+000
<ENDHMM>
~h "i"
<BEGINHMM>
<NUMSTATES> 5
<STATE> 2
<MEAN> 39
 -9.365967e+000 -1.608245e+000 -4.073683e-001 -1.440570e+001 -8.122706e+000 -9.696217e+000 -6.368309e+000 -7.878179e+000 -1.717394e+000 -4.100996e+000 -3.515310e+000 -2.953541e+000 6.068697e+001 1.467302e-002 5.118377e-002 3.349362e-002 -3.652995e-002 -4.948307e-003 2.414160e-004 -4.053037e-002 -4.364800e-002 -3.977613e-003 -1.276760e-002 -2.449778e-002 -9.160142e-003 6.415692e-002 1.427685e-003 -7.405487e-003 -1.477437e-002 1.047524e-002 1.349923e-002 5.002473e-003 8.438928e-003 8.815709e-003 2.228011e-003 -2.018881e-003 2.739247e-003 2.884072e-003 -8.661355e-003
<VARIANCE> 39
 9.806180e+001 9.382195e+001 1.023439e+002 1.368308e+002 1.015859e+002 7.335760e+001 9.317089e+001 9.113396e+001 6.066349e+001 6.676869e+001 6.681028e+001 4.557842e+001 2.150936e+002 3.082300e+000 3.076964e+000 3.852708e+000 5.205154e+000 5.145999e+000 4.320795e+000 5.008381e+000 5.018993e+000 4.172163e+000 3.994325e+000 3.940847e+000 3.178298e+000 3.383288e+000 4.391089e-001 4.812832e-001 5.786304e-001 8.017574e-001 8.620484e-001 7.880726e-001 8.817936e-001 8.766108e-001 7.898969e-001 7.434357e-001 7.061382e-001 5.930535e-001 4.321067e-001
<GCONST> 1.429389e+002
<STATE> 3
<MEAN> 39
 -9.310843e+000 -1.352725e+000 -2.516273e-001 -1.451309e+001 -8.134677e+000 -9.695482e+000 -6.506481e+000 -8.024236e+000 -1.716009e+000 -4.189006e+000 -3.591824e+000 -2.990723e+000 6.098804e+001 1.845473e-002 2.588483e-002 -6.986135e-003 -4.208365e-003 2.967078e-002 8.727276e-003 -1.788420e-002 -1.705335e-002 -3.728540e-005 -1.950302e-002 -1.416023e-002 -5.082224e-003 3.985931e-002 8.855892e-004 -7.698354e-003 -1.420654e-002 1.212446e-002 1.361548e-002 4.250354e-003 9.627166e-003 1.030204e-002 2.039590e-003 -2.099481e-003 3.454554e-003 2.737733e-003 -8.991099e-003
<VARIANCE> 39
 9.853517e+001 9.351498e+001 1.025177e+002 1.388170e+002 1.016038e+002 7.330733e+001 9.451849e+001 9.295987e+001 6.099777e+001 6.814148e+001 6.716660e+001 4.620630e+001 2.091595e+002 3.082895e+000 3.100356e+000 3.903396e+000 5.283134e+000 5.162559e+000 4.328040e+000 5.040038e+000 5.040563e+000 4.189317e+000 4.020316e+000 3.955678e+000 3.199050e+000 3.381964e+000 4.391598e-001 4.825907e-001 5.832978e-001 8.097894e-001 8.639129e-001 7.884127e-001 8.844445e-001 8.776985e-001 7.916586e-001 7.460738e-001 7.073827e-001 5.956469e-001 4.317503e-001
<GCONST> 1.431175e+002
<STATE> 4
<MEAN> 39
 -9.244779e+000 -1.214169e+000 -2.403931e-001 -1.448759e+001 -8.038776e+000 -9.692489e+000 -6.572770e+000 -8.070291e+000 -1.714581e+000 -4.301236e+000 -3.624091e+000 -3.035268e+000 6.119491e+001 2.234977e-002 -3.245918e-003 -4.817033e-002 3.398945e-002 6.413826e-002 1.512666e-002 9.736400e-003 1.453650e-002 2.281761e-003 -2.520400e-002 -2.828394e-003 -1.330839e-003 1.459050e-002 8.899391e-006 -8.377342e-003 -1.220443e-002 1.230791e-002 1.202692e-002 3.214807e-003 1.026473e-002 1.167303e-002 1.687600e-003 -2.094653e-003 3.850004e-003 2.340389e-003 -8.348772e-003
<VARIANCE> 39
 9.910998e+001 9.338608e+001 1.018705e+002 1.399729e+002 1.011411e+002 7.303152e+001 9.539454e+001 9.517696e+001 6.131568e+001 6.937426e+001 6.712968e+001 4.678157e+001 2.038893e+002 3.072497e+000 3.128486e+000 3.925889e+000 5.321841e+000 5.149425e+000 4.336185e+000 5.061765e+000 5.064159e+000 4.208116e+000 4.044656e+000 3.965916e+000 3.221275e+000 3.411242e+000 4.385376e-001 4.838011e-001 5.857880e-001 8.131190e-001 8.623625e-001 7.880564e-001 8.856861e-001 8.795240e-001 7.929735e-001 7.482742e-001 7.081051e-001 5.987350e-001 4.357867e-001
<GCONST> 1.432442e+002
<TRANSP> 5
 0.000000e+000 1.000000e+000 0.000000e+000 0.000000e+000 0.000000e+000
 0.000000e+000 7.773556e-001 2.226444e-001 0.000000e+000 0.000000e+000
 0.000000e+000 0.000000e+000 7.773528e-001 2.226472e-001 0.000000e+000
 0.000000e+000 0.000000e+000 0.000000e+000 7.773516e-001 2.226483e-001
 0.000000e+000 0.000000e+000 0.000000e+000 0.000000e+000 0.000000e+000
<ENDHMM>
~h "j"
<BEGINHMM>
<NUMSTATES> 5
<STATE> 2
<MEAN> 39
 -1.059683e+001 -5.550000e+000 -5.836990e+000 -1.200524e+001 -5.151086e+000 -9.253499e+000 -3.830941e+000 -3.766895e+000 -1.132909e+000 -3.447752e+000 -1.558419e+000 -3.195067e+000 5.345385e+001 1.378864e-001 5.223113e-002 -4.004633e-004 -2.122412e-001 -9.859613e-002 -8.840360e-002 -9.111953e-002 -3.532893e-002 -4.638931e-002 3.305356e-003 -1.144341e-001 -5.145327e-002 2.836232e-001 -3.695591e-003 6.676812e-003 1.804330e-002 3.086335e-002 5.895828e-003 -3.138518e-003 -4.590255e-003 -5.136535e-003 7.035692e-005 -1.032755e-002 -9.590263e-003 9.303359e-003 -1.035971e-002
<VARIANCE> 39
 7.743748e+001 6.223237e+001 6.790250e+001 8.677445e+001 7.713142e+001 6.186628e+001 6.399355e+001 7.136217e+001 5.709741e+001 5.365561e+001 5.085798e+001 4.193932e+001 2.704914e+002 2.135953e+000 2.358646e+000 2.454527e+000 3.415433e+000 3.998912e+000 3.592880e+000 4.031897e+000 4.001832e+000 3.847459e+000 3.704404e+000 3.334426e+000 2.949802e+000 3.238623e+000 3.182714e-001 3.894250e-001 3.978379e-001 5.695586e-001 6.954979e-001 6.560898e-001 7.266611e-001 7.085063e-001 7.038722e-001 6.818378e-001 6.153825e-001 5.483547e-001 4.092121e-001
<GCONST> 1.346011e+002
<STATE> 3
<MEAN> 39
 -9.851659e+000 -5.235775e+000 -5.918167e+000 -1.290410e+001 -5.348702e+000 -9.418204e+000 -4.197401e+000 -3.760151e+000 -1.492777e+000 -3.557241e+000 -1.866182e+000 -3.310521e+000 5.501092e+001 1.238799e-001 7.406054e-002 4.476340e-002 -1.390327e-001 -8.717023e-002 -7.481784e-002 -1.004642e-001 -5.194100e-002 -5.609440e-002 -3.034505e-002 -1.163086e-001 -1.831460e-002 2.542206e-001 -5.178559e-003 6.510370e-003 1.222923e-002 2.925538e-002 2.484723e-003 7.495634e-003 6.202302e-004 -8.884418e-003 1.806350e-004 -1.430441e-002 2.217052e-003 9.565284e-003 -1.588958e-002
<VARIANCE> 39
 8.284234e+001 6.529642e+001 7.624710e+001 9.540565e+001 8.535033e+001 6.502931e+001 7.119982e+001 7.616109e+001 5.970741e+001 5.569157e+001 5.752811e+001 4.565299e+001 2.756676e+002 2.281539e+000 2.529943e+000 2.605676e+000 3.648344e+000 4.221297e+000 3.803850e+000 4.164863e+000 4.098606e+000 4.014545e+000 3.854810e+000 3.498627e+000 3.084482e+000 3.458641e+000 3.365083e-001 4.072711e-001 4.127067e-001 5.962715e-001 7.219959e-001 6.863299e-001 7.444694e-001 7.212297e-001 7.284068e-001 7.168777e-001 6.345401e-001 5.720287e-001 4.355003e-001
<GCONST> 1.367564e+002
<STATE> 4
<MEAN> 39
 -9.180859e+000 -4.841686e+000 -5.842444e+000 -1.362999e+001 -5.539359e+000 -9.523290e+000 -4.579672e+000 -3.801379e+000 -1.910803e+000 -3.743564e+000 -2.120164e+000 -3.341548e+000 5.645745e+001 9.878197e-002 8.693080e-002 7.390860e-002 -7.913276e-002 -8.259896e-002 -3.838315e-002 -9.327007e-002 -7.851227e-002 -5.529403e-002 -5.496407e-002 -9.445795e-002 1.327817e-003 2.078185e-001 -6.477883e-003 1.547966e-003 4.641453e-003 1.764080e-002 9.111900e-004 1.424354e-002 6.318990e-003 -7.355505e-003 1.587692e-003 -8.892230e-003 1.242163e-002 3.475958e-003 -1.423376e-002
<VARIANCE> 39
 8.682784e+001 6.817850e+001 8.308860e+001 1.046488e+002 9.228712e+001 6.754347e+001 7.705743e+001 8.034536e+001 6.270521e+001 5.762639e+001 6.356133e+001 4.850056e+001 2.725519e+002 2.458605e+000 2.675906e+000 2.756667e+000 3.905395e+000 4.459673e+000 4.014486e+000 4.309443e+000 4.279273e+000 4.151643e+000 4.079695e+000 3.611052e+000 3.226266e+000 3.574084e+000 3.573129e-001 4.198140e-001 4.288236e-001 6.253486e-001 7.515100e-001 7.221132e-001 7.548199e-001 7.480595e-001 7.515652e-001 7.619263e-001 6.450911e-001 5.956995e-001 4.497105e-001
<GCONST> 1.386455e+002
<TRANSP> 5
 0.000000e+000 1.000000e+000 0.000000e+000 0.000000e+000 0.000000e+000
 0.000000e+000 7.885463e-001 2.114537e-001 0.000000e+000 0.000000e+000
 0.000000e+000 0.000000e+000 7.885464e-001 2.114536e-001 0.000000e+000
 0.000000e+000 0.000000e+000 0.000000e+000 7.885479e-001 2.114521e-001
 0.000000e+000 0.000000e+000 0.000000e+000 0.000000e+000 0.000000e+000
<ENDHMM>
~h "k"
<BEGINHMM>
<NUMSTATES> 5
<STATE> 2
<MEAN> 39
 -8.180309e+000 -3.258904e+000 -4.025466e+000 -1.376805e+001 -6.361988e+000 -9.836624e+000 -5.432106e+000 -5.794703e+000 -1.812487e+000 -4.178161e+000 -3.164144e+000 -2.967663e+000 5.977180e+001 6.505669e-002 2.684425e-002 -2.207606e-002 -4.745990e-002 -1.349854e-002 3.270458e-003 -4.302729e-002 -4.309869e-002 -2.183055e-002 -1.824321e-002 -1.509749e-002 -2.206750e-002 8.098531e-002 -5.528627e-003 2.368124e-003 4.083777e-003 8.617292e-003 4.120189e-003 4.811232e-003 -3.765567e-003 -2.346563e-003 3.166729e-003 1.575873e-003 5.540891e-003 3.302869e-003 -8.121574e-003
<VARIANCE> 39
 1.055053e+002 9.330245e+001 9.327238e+001 1.173395e+002 9.325588e+001 7.324852e+001 8.736436e+001 9.122894e+001 6.342079e+001 6.678831e+001 6.545582e+001 4.468898e+001 2.233339e+002 3.041647e+000 3.386599e+000 3.997282e+000 5.015770e+000 5.158765e+000 4.637619e+000 5.331501e+000 5.365550e+000 4.507946e+000 4.224834e+000 4.111260e+000 3.298014e+000 3.883092e+000 4.427846e-001 5.319555e-001 6.370032e-001 8.197258e-001 8.860763e-001 8.576230e-001 9.382771e-001 9.485598e-001 8.519603e-001 7.887709e-001 7.392242e-001 6.250933e-001 4.838597e-001
<GCONST> 1.441135e+002
<STATE> 3
<MEAN> 39
 -7.923135e+000 -3.078041e+000 -4.089524e+000 -1.390130e+001 -6.406532e+000 -9.823789e+000 -5.611246e+000 -5.906247e+000 -1.895431e+000 -4.269083e+000 -3.187844e+000 -3.020932e+000 6.010854e+001 5.006790e-002 2.521018e-002 -1.212160e-002 -2.302465e-002 -8.699361e-003 1.801462e-003 -4.760341e-002 -4.218530e-002 -1.779573e-002 -1.682279e-002 -5.357249e-003 -1.637152e-002 6.280764e-002 -4.380897e-003 1.662883e-003 5.543725e-003 8.273304e-003 -1.814975e-004 -6.284993e-004 -2.485564e-003 -3.980935e-004 1.346922e-003 2.950788e-004 2.479645e-003 2.441560e-003 -5.411290e-003
<VARIANCE> 39
 1.059907e+002 9.325309e+001 9.418340e+001 1.181785e+002 9.314842e+001 7.342612e+001 8.869843e+001 9.240615e+001 6.397189e+001 6.773206e+001 6.530793e+001 4.526421e+001 2.181907e+002 3.020418e+000 3.402356e+000 4.051610e+000 5.071269e+000 5.152754e+000 4.628151e+000 5.404518e+000 5.435375e+000 4.549438e+000 4.247263e+000 4.104693e+000 3.308414e+000 3.889199e+000 4.373219e-001 5.348861e-001 6.442060e-001 8.283284e-001 8.877289e-001 8.531513e-001 9.461366e-001 9.597991e-001 8.579109e-001 7.927484e-001 7.375187e-001 6.279899e-001 4.850328e-001
<GCONST> 1.442848e+002
<STATE> 4
<MEAN> 39
 -7.723014e+000 -2.951634e+000 -4.134192e+000 -1.394548e+001 -6.431292e+000 -9.835314e+000 -5.775333e+000 -5.989441e+000 -1.967125e+000 -4.372506e+000 -3.195911e+000 -3.069650e+000 6.038698e+001 3.812650e-002 1.730672e-002 -2.099952e-003 -6.639063e-004 -7.693704e-003 -4.822617e-003 -4.612153e-002 -3.550299e-002 -1.437452e-002 -2.151402e-002 -3.538780e-003 -1.457905e-002 5.281110e-002 -3.681672e-003 -5.038134e-004 4.516014e-003 7.841760e-003 -9.637812e-005 -1.106524e-003 5.308986e-004 3.158749e-003 1.547127e-003 -1.838160e-003 6.916206e-004 1.381471e-003 -3.467518e-003
<VARIANCE> 39
 1.063529e+002 9.266297e+001 9.446397e+001 1.186534e+002 9.320966e+001 7.377618e+001 9.014621e+001 9.393718e+001 6.446778e+001 6.857439e+001 6.515975e+001 4.574150e+001 2.129521e+002 3.006985e+000 3.408029e+000 4.069179e+000 5.088766e+000 5.139685e+000 4.633443e+000 5.453430e+000 5.499699e+000 4.593231e+000 4.264015e+000 4.104399e+000 3.321185e+000 3.905364e+000 4.319487e-001 5.343859e-001 6.449677e-001 8.292530e-001 8.863156e-001 8.507884e-001 9.514585e-001 9.703677e-001 8.633989e-001 7.946076e-001 7.380923e-001 6.297106e-001 4.845871e-001
<GCONST> 1.443892e+002
<TRANSP> 5
 0.000000e+000 1.000000e+000 0.000000e+000 0.000000e+000 0.000000e+000
 0.000000e+000 7.763934e-001 2.236067e-001 0.000000e+000 0.000000e+000
 0.000000e+000 0.000000e+000 7.763980e-001 2.236020e-001 0.000000e+000
 0.000000e+000 0.000000e+000 0.000000e+000 7.763891e-001 2.236109e-001
 0.000000e+000 0.000000e+000 0.000000e+000 0.000000e+000 0.000000e+000
<ENDHMM>
~h "l"
<BEGINHMM>
<NUMSTATES> 5
<STATE> 2
<MEAN> 39
 -9.997475e+000 -6.044088e+000 -3.190010e+000 -1.290728e+001 -5.713628e+000 -1.104685e+001 -5.221512e+000 -5.648929e+000 -1.034178e+000 -4.357808e+000 -2.773629e+000 -2.347947e+000 5.748071e+001 7.879920e-002 8.564083e-002 3.385494e-002 -8.772562e-002 -1.181788e-001 1.450245e-002 -3.741718e-002 -2.759602e-002 -1.737803e-003 1.503977e-004 -2.125867e-002 -4.421399e-003 2.339988e-001 6.126906e-004 5.426970e-003 -2.774658e-003 2.363710e-003 -1.695188e-003 8.947080e-003 -4.243511e-003 -2.259538e-003 8.757454e-004 4.659105e-003 1.452957e-003 -6.060214e-003 -3.804834e-003
<VARIANCE> 39
 9.577777e+001 7.941159e+001 7.552966e+001 1.069434e+002 9.040025e+001 7.210249e+001 8.903940e+001 8.267759e+001 6.139988e+001 6.177821e+001 5.748908e+001 5.006107e+001 2.774024e+002 2.578403e+000 2.688836e+000 2.888978e+000 4.147459e+000 4.140552e+000 4.221172e+000 4.921911e+000 4.611734e+000 4.177373e+000 4.407290e+000 3.623294e+000 3.247955e+000 3.022969e+000 3.667829e-001 4.155846e-001 4.492110e-001 6.766609e-001 7.203507e-001 7.534026e-001 8.687156e-001 8.157451e-001 7.922862e-001 7.933121e-001 6.759114e-001 6.153679e-001 3.860527e-001
<GCONST> 1.396950e+002
<STATE> 3
<MEAN> 39
 -9.333364e+000 -5.540353e+000 -3.060991e+000 -1.343950e+001 -6.173658e+000 -1.114157e+001 -5.672809e+000 -5.685270e+000 -1.020376e+000 -4.497854e+000 -3.004603e+000 -2.310753e+000 5.896251e+001 8.349651e-002 9.947472e-002 2.577807e-002 -6.924395e-002 -1.160350e-001 2.590005e-002 -4.973127e-002 -2.102668e-002 -9.442265e-003 -1.984766e-003 -1.537990e-002 -1.938810e-002 2.190351e-001 2.023522e-004 4.678044e-003 -3.535044e-003 6.335245e-003 4.242457e-003 5.859036e-003 -4.073675e-003 -1.453537e-003 -4.416580e-003 9.504984e-004 5.168882e-004 -5.467459e-003 -7.627758e-003
<VARIANCE> 39
 1.023359e+002 8.199289e+001 8.029318e+001 1.104159e+002 9.865465e+001 7.270535e+001 9.037241e+001 8.882322e+001 6.453069e+001 6.482461e+001 5.937106e+001 5.082983e+001 2.714698e+002 2.717066e+000 2.797881e+000 3.033762e+000 4.266140e+000 4.228528e+000 4.271036e+000 5.064121e+000 4.792396e+000 4.315396e+000 4.541428e+000 3.702219e+000 3.281455e+000 3.254360e+000 3.851865e-001 4.305666e-001 4.653281e-001 6.853036e-001 7.325822e-001 7.561416e-001 8.828445e-001 8.426012e-001 8.064338e-001 8.157055e-001 6.887043e-001 6.211868e-001 4.107849e-001
<GCONST> 1.409664e+002
<STATE> 4
<MEAN> 39
 -8.639275e+000 -5.016754e+000 -2.999657e+000 -1.387281e+001 -6.625888e+000 -1.123346e+001 -6.119182e+000 -5.653687e+000 -1.083333e+000 -4.710905e+000 -3.175740e+000 -2.285899e+000 6.042060e+001 7.859530e-002 1.050902e-001 1.441481e-002 -4.626483e-002 -1.053579e-001 3.396236e-002 -4.828493e-002 -1.681121e-002 -2.669178e-002 -8.057006e-003 -8.339003e-003 -2.713531e-002 1.931466e-001 -3.577985e-004 2.660193e-003 -3.609409e-003 5.992326e-003 7.593395e-003 2.190747e-003 -1.745322e-003 -2.761405e-004 -6.010924e-003 -2.635297e-003 1.004877e-003 -1.278904e-003 -9.187288e-003
<VARIANCE> 39
 1.076976e+002 8.463371e+001 8.435796e+001 1.119136e+002 1.062533e+002 7.375028e+001 9.189005e+001 9.572891e+001 6.778351e+001 6.809126e+001 6.104033e+001 5.209685e+001 2.588740e+002 2.842899e+000 2.943569e+000 3.157707e+000 4.349762e+000 4.295082e+000 4.326013e+000 5.176652e+000 4.923959e+000 4.441034e+000 4.611867e+000 3.773678e+000 3.311496e+000 3.442780e+000 4.018816e-001 4.527713e-001 4.788589e-001 6.908489e-001 7.369987e-001 7.636917e-001 8.963118e-001 8.599872e-001 8.273997e-001 8.310409e-001 6.959239e-001 6.242771e-001 4.337232e-001
<GCONST> 1.420517e+002
<TRANSP> 5
 0.000000e+000 1.000000e+000 0.000000e+000 0.000000e+000 0.000000e+000
 0.000000e+000 7.897913e-001 2.102087e-001 0.000000e+000 0.000000e+000
 0.000000e+000 0.000000e+000 7.897900e-001 2.102100e-001 0.000000e+000
 0.000000e+000 0.000000e+000 0.000000e+000 7.897928e-001 2.102073e-001
 0.000000e+000 0.000000e+000 0.000000e+000 0.000000e+000 0.000000e+000
<ENDHMM>
~h "m"
<BEGINHMM>
<NUMSTATES> 5
<STATE> 2
<MEAN> 39
 -7.060853e+000 -5.382348e+000 -3.909570e+000 -1.207913e+001 -5.459419e+000 -1.003160e+001 -7.154131e+000 -7.094212e+000 -2.879794e+000 -4.556731e+000 -3.679450e+000 -4.418287e+000 6.033211e+001 5.650583e-002 7.717236e-003 -1.766033e-002 -1.018860e-002 1.202604e-002 -3.293504e-002 -4.664093e-002 7.923343e-004 -2.990733e-002 -4.306005e-002 -3.972280e-002 -2.899158e-002 9.526913e-002 -1.289451e-002 1.038897e-002 1.492279e-003 3.197702e-003 -5.283057e-004 2.730264e-003 1.248868e-002 1.832026e-002 8.419598e-003 -3.372058e-003 7.065817e-003 8.283541e-003 -1.124432e-002
<VARIANCE> 39
 9.933385e+001 8.220432e+001 7.621258e+001 1.052174e+002 8.710976e+001 6.850332e+001 9.919281e+001 1.011621e+002 6.582132e+001 6.563699e+001 6.076398e+001 4.697374e+001 2.462510e+002 2.148520e+000 2.755599e+000 3.155231e+000 4.075648e+000 3.950401e+000 3.851724e+000 4.396638e+000 5.683456e+000 4.125183e+000 3.979066e+000 3.438311e+000 3.081574e+000 2.628939e+000 3.030097e-001 4.012707e-001 4.946827e-001 6.535445e-001 6.659346e-001 6.927049e-001 7.687482e-001 9.394492e-001 7.611949e-001 7.249561e-001 6.293253e-001 5.651933e-001 3.235185e-001
<GCONST> 1.387225e+002
<STATE> 3
<MEAN> 39
 -6.818932e+000 -5.208665e+000 -3.917666e+000 -1.205494e+001 -5.430696e+000 -1.012787e+001 -7.338092e+000 -7.123303e+000 -2.983351e+000 -4.738078e+000 -3.795511e+000 -4.507157e+000 6.069096e+001 2.509520e-002 3.586423e-002 -9.209570e-003 4.576184e-003 9.993949e-003 -2.787317e-002 -1.918089e-002 2.920473e-002 -1.181484e-002 -4.836109e-002 -2.165838e-002 -6.385087e-003 6.136642e-002 -1.088690e-002 1.114374e-002 5.011919e-003 4.770040e-003 -1.716238e-003 2.959511e-003 9.329943e-003 1.033363e-002 6.652472e-003 -1.448591e-003 7.031176e-003 8.402920e-003 -1.317477e-002
<VARIANCE> 39
 9.912814e+001 8.431206e+001 7.704919e+001 1.047829e+002 8.646710e+001 6.882104e+001 9.797489e+001 1.008825e+002 6.635873e+001 6.611051e+001 6.086084e+001 4.727382e+001 2.419863e+002 2.137527e+000 2.790828e+000 3.174524e+000 4.064682e+000 3.913373e+000 3.830822e+000 4.309621e+000 5.669473e+000 4.121120e+000 3.974889e+000 3.434610e+000 3.087103e+000 2.599964e+000 2.992232e-001 4.034399e-001 4.971357e-001 6.511288e-001 6.579478e-001 6.847668e-001 7.549383e-001 9.356841e-001 7.582959e-001 7.213650e-001 6.291180e-001 5.656767e-001 3.186491e-001
<GCONST> 1.386266e+002
<STATE> 4
<MEAN> 39
 -6.670941e+000 -4.981437e+000 -3.909511e+000 -1.198017e+001 -5.409937e+000 -1.021193e+001 -7.439029e+000 -7.108920e+000 -3.046785e+000 -4.922389e+000 -3.867944e+000 -4.532885e+000 6.094759e+001 -2.207512e-004 5.773805e-002 2.004176e-003 1.816287e-002 6.406330e-003 -1.930008e-002 4.246956e-003 4.493728e-002 3.961133e-003 -4.737072e-002 -5.346545e-003 1.330235e-002 2.709437e-002 -7.821139e-003 8.840965e-003 5.477254e-003 5.283859e-003 -2.098667e-003 4.198629e-003 7.371285e-003 4.733860e-003 5.635385e-003 1.144347e-003 6.690186e-003 6.361612e-003 -1.337639e-002
<VARIANCE> 39
 9.933923e+001 8.614441e+001 7.813226e+001 1.046716e+002 8.587137e+001 6.937605e+001 9.657671e+001 1.003312e+002 6.682250e+001 6.657077e+001 6.101703e+001 4.754535e+001 2.367242e+002 2.157694e+000 2.842483e+000 3.196042e+000 4.050239e+000 3.896631e+000 3.837633e+000 4.259622e+000 5.636905e+000 4.123994e+000 3.968138e+000 3.449138e+000 3.096240e+000 2.625871e+000 3.013828e-001 4.091707e-001 5.009277e-001 6.482946e-001 6.537248e-001 6.824697e-001 7.476638e-001 9.335600e-001 7.581614e-001 7.184939e-001 6.317426e-001 5.676008e-001 3.227837e-001
<GCONST> 1.386908e+002
<TRANSP> 5
 0.000000e+000 1.000000e+000 0.000000e+000 0.000000e+000 0.000000e+000
 0.000000e+000 7.721291e-001 2.278709e-001 0.000000e+000 0.000000e+000
 0.000000e+000 0.000000e+000 7.721300e-001 2.278700e-001 0.000000e+000
 0.000000e+000 0.000000e+000 0.000000e+000 7.721272e-001 2.278728e-001
 0.000000e+000 0.000000e+000 0.000000e+000 0.000000e+000 0.000000e+000
<ENDHMM>
~h "n"
<BEGINHMM>
<NUMSTATES> 5
<STATE> 2
<MEAN> 39
 -5.316669e+000 -3.308167e+000 -4.191654e+000 -1.404330e+001 -6.678195e+000 -1.057191e+001 -7.281983e+000 -6.454876e+000 -2.893816e+000 -5.516312e+000 -4.146116e+000 -3.964081e+000 6.386236e+001 3.260139e-002 5.326096e-002 7.993146e-003 4.760076e-002 1.319561e-002 -1.508769e-002 -1.027715e-002 6.405767e-003 -2.036018e-002 -5.416197e-002 -4.192632e-003 -5.070348e-003 7.664511e-003 -9.037288e-003 6.914022e-004 -2.882956e-003 3.989148e-003 6.744598e-003 5.128323e-003 7.980996e-003 8.473971e-003 2.363256e-003 9.995133e-004 8.353071e-003 1.273600e-003 -9.092366e-003
<VARIANCE> 39
 1.082874e+002 9.289878e+001 8.774873e+001 1.162920e+002 9.762497e+001 7.563631e+001 9.650675e+001 1.089316e+002 6.842206e+001 7.566956e+001 6.616283e+001 5.209932e+001 1.929411e+002 2.745766e+000 3.250715e+000 3.542906e+000 4.451879e+000 4.547788e+000 4.244132e+000 4.880202e+000 5.619136e+000 4.300987e+000 4.153698e+000 3.804239e+000 3.240477e+000 3.051586e+000 3.770897e-001 4.579118e-001 5.504761e-001 7.050567e-001 7.503749e-001 7.462682e-001 8.415715e-001 9.357155e-001 7.815631e-001 7.463723e-001 6.808556e-001 5.927218e-001 3.729937e-001
<GCONST> 1.420261e+002
<STATE> 3
<MEAN> 39
 -5.209187e+000 -3.076999e+000 -4.157388e+000 -1.383436e+001 -6.621145e+000 -1.062033e+001 -7.302339e+000 -6.415496e+000 -2.978647e+000 -5.757035e+000 -4.148326e+000 -4.006423e+000 6.391484e+001 -4.974732e-004 4.891065e-002 3.372690e-004 6.119858e-002 3.198998e-002 -4.401370e-004 1.551806e-002 2.691230e-002 -1.183264e-002 -4.886523e-002 1.756074e-002 -6.935637e-004 -2.681947e-002 -9.174625e-003 -8.584204e-004 -3.480201e-003 1.427062e-003 6.677456e-003 6.205384e-003 8.312013e-003 8.015373e-003 2.467486e-003 2.268402e-003 7.828372e-003 7.691126e-004 -7.731932e-003
<VARIANCE> 39
 1.057312e+002 9.395206e+001 8.681396e+001 1.174110e+002 9.649221e+001 7.580569e+001 9.533458e+001 1.092126e+002 6.827231e+001 7.637824e+001 6.531341e+001 5.252557e+001 1.872572e+002 2.696610e+000 3.271342e+000 3.502449e+000 4.417211e+000 4.490843e+000 4.228355e+000 4.839432e+000 5.567048e+000 4.266698e+000 4.124263e+000 3.778488e+000 3.231899e+000 3.044669e+000 3.699294e-001 4.561227e-001 5.456170e-001 6.984815e-001 7.404655e-001 7.418106e-001 8.328361e-001 9.249114e-001 7.733979e-001 7.401882e-001 6.758824e-001 5.890212e-001 3.719325e-001
<GCONST> 1.417559e+002
<STATE> 4
<MEAN> 39
 -5.259233e+000 -2.895851e+000 -4.147323e+000 -1.356155e+001 -6.502594e+000 -1.061823e+001 -7.225705e+000 -6.325309e+000 -3.021199e+000 -5.967951e+000 -4.084094e+000 -4.027678e+000 6.379303e+001 -3.276838e-002 3.938552e-002 -6.950975e-003 6.729358e-002 4.957421e-002 1.807567e-002 4.164232e-002 4.421510e-002 -2.195354e-003 -3.783290e-002 3.713023e-002 3.429198e-003 -5.834246e-002 -8.238078e-003 -2.587857e-003 -2.699192e-003 -5.642705e-004 5.433555e-003 6.750396e-003 7.893558e-003 6.052159e-003 3.171823e-003 4.088420e-003 5.953593e-003 7.319101e-004 -6.341872e-003
<VARIANCE> 39
 1.037065e+002 9.466014e+001 8.567049e+001 1.183070e+002 9.515706e+001 7.577020e+001 9.373878e+001 1.087335e+002 6.796605e+001 7.662789e+001 6.421180e+001 5.269882e+001 1.839763e+002 2.662884e+000 3.293401e+000 3.453297e+000 4.378291e+000 4.440897e+000 4.209117e+000 4.796996e+000 5.490932e+000 4.235234e+000 4.095209e+000 3.753830e+000 3.223396e+000 3.077807e+000 3.660627e-001 4.564189e-001 5.402654e-001 6.919411e-001 7.326438e-001 7.379317e-001 8.245761e-001 9.113330e-001 7.670122e-001 7.349622e-001 6.712162e-001 5.859954e-001 3.784805e-001
<GCONST> 1.415104e+002
<TRANSP> 5
 0.000000e+000 1.000000e+000 0.000000e+000 0.000000e+000 0.000000e+000
 0.000000e+000 7.744054e-001 2.255946e-001 0.000000e+000 0.000000e+000
 0.000000e+000 0.000000e+000 7.743973e-001 2.256027e-001 0.000000e+000
 0.000000e+000 0.000000e+000 0.000000e+000 7.743981e-001 2.256019e-001
 0.000000e+000 0.000000e+000 0.000000e+000 0.000000e+000 0.000000e+000
<ENDHMM>
~h "o"
<BEGINHMM>
<NUMSTATES> 5
<STATE> 2
<MEAN> 39
 -7.323696e+000 -4.440524e+000 -6.197919e+000 -1.391699e+001 -4.668183e+000 -9.209847e+000 -6.800154e+000 -6.315230e+000 -1.725619e+000 -3.678149e+000 -2.311434e+000 -3.073400e+000 5.850660e+001 6.197749e-002 5.725152e-002 -3.602297e-003 -4.750670e-002 -1.570940e-002 -5.045295e-003 -4.959853e-002 -2.199452e-002 -2.181992e-002 -4.904534e-002 -1.354223e-002 -2.282539e-002 1.533159e-001 -1.426704e-002 7.214999e-003 9.550170e-003 1.883136e-002 -6.725734e-003 2.418550e-003 1.356285e-002 5.112945e-003 4.827616e-003 -2.789146e-003 1.365932e-003 -3.075715e-003 -6.607106e-003
<VARIANCE> 39
 1.071844e+002 7.236274e+001 7.571812e+001 1.050336e+002 8.633211e+001 6.953594e+001 1.006719e+002 7.441648e+001 6.446486e+001 6.163503e+001 5.916780e+001 4.237288e+001 2.294341e+002 2.797550e+000 2.923171e+000 3.404290e+000 4.952738e+000 4.532316e+000 4.405007e+000 5.131979e+000 4.730360e+000 4.409007e+000 4.014552e+000 3.749596e+000 3.093621e+000 3.350443e+000 3.979370e-001 4.484961e-001 5.526620e-001 7.637209e-001 7.935049e-001 8.120617e-001 9.038664e-001 8.585094e-001 8.149007e-001 7.594621e-001 6.814340e-001 5.928443e-001 4.201283e-001
<GCONST> 1.408973e+002
<STATE> 3
<MEAN> 39
 -7.058045e+000 -4.104434e+000 -6.287156e+000 -1.412586e+001 -4.652110e+000 -9.135556e+000 -7.006981e+000 -6.364920e+000 -1.764074e+000 -3.852255e+000 -2.363344e+000 -3.170251e+000 5.925712e+001 2.036119e-002 6.826093e-002 2.725066e-002 3.061564e-004 -3.464005e-002 -2.410850e-004 -1.465912e-002 -1.205321e-002 -1.251271e-002 -5.466603e-002 -8.486039e-003 -2.788595e-002 1.243053e-001 -1.463737e-002 3.013163e-003 9.278116e-003 1.712889e-002 -6.578112e-003 2.723970e-003 1.320703e-002 6.528936e-003 5.016279e-003 1.922473e-004 1.559729e-003 -1.102871e-003 -6.360095e-003
<VARIANCE> 39
 1.088708e+002 7.292987e+001 7.971014e+001 1.076251e+002 8.746504e+001 7.146655e+001 1.034665e+002 7.720006e+001 6.655656e+001 6.269998e+001 6.006180e+001 4.354212e+001 2.244572e+002 2.880182e+000 2.936496e+000 3.451131e+000 4.974564e+000 4.658990e+000 4.448912e+000 5.215252e+000 4.882860e+000 4.466197e+000 4.099007e+000 3.777337e+000 3.137059e+000 3.476007e+000 4.064773e-001 4.448083e-001 5.546939e-001 7.625270e-001 8.090380e-001 8.166422e-001 9.105267e-001 8.829818e-001 8.233617e-001 7.682676e-001 6.848106e-001 6.002916e-001 4.330401e-001
<GCONST> 1.415443e+002
<STATE> 4
<MEAN> 39
 -6.955633e+000 -3.754946e+000 -6.230309e+000 -1.418101e+001 -4.736372e+000 -9.065426e+000 -7.121358e+000 -6.423953e+000 -1.806702e+000 -4.022464e+000 -2.392324e+000 -3.260829e+000 5.984076e+001 -1.767256e-002 7.028934e-002 5.985453e-002 4.077042e-002 -5.603030e-002 -1.590378e-003 1.256755e-002 -1.104831e-003 -2.942149e-003 -5.132129e-002 -4.702320e-003 -2.511477e-002 9.972393e-002 -1.148436e-002 -1.327522e-003 6.683845e-003 1.181520e-002 -4.812909e-003 1.210395e-003 7.711388e-003 6.088969e-003 3.760104e-003 2.930417e-003 5.885956e-004 1.622679e-003 -3.581511e-003
<VARIANCE> 39
 1.102647e+002 7.486070e+001 8.398299e+001 1.103291e+002 8.940659e+001 7.251531e+001 1.041869e+002 8.032076e+001 6.822305e+001 6.375723e+001 6.075413e+001 4.435345e+001 2.189558e+002 2.970978e+000 2.974879e+000 3.521454e+000 4.998112e+000 4.766049e+000 4.492773e+000 5.310422e+000 5.021080e+000 4.499542e+000 4.177430e+000 3.818154e+000 3.172081e+000 3.628645e+000 4.190838e-001 4.460038e-001 5.625613e-001 7.617562e-001 8.226963e-001 8.204721e-001 9.225475e-001 9.043521e-001 8.301269e-001 7.781517e-001 6.911262e-001 6.052406e-001 4.522698e-001
<GCONST> 1.422150e+002
<TRANSP> 5
 0.000000e+000 1.000000e+000 0.000000e+000 0.000000e+000 0.000000e+000
 0.000000e+000 7.765787e-001 2.234213e-001 0.000000e+000 0.000000e+000
 0.000000e+000 0.000000e+000 7.765779e-001 2.234221e-001 0.000000e+000
 0.000000e+000 0.000000e+000 0.000000e+000 7.765783e-001 2.234216e-001
 0.000000e+000 0.000000e+000 0.000000e+000 0.000000e+000 0.000000e+000
<ENDHMM>
~h "p"
<BEGINHMM>
<NUMSTATES> 5
<STATE> 2
<MEAN> 39
 -8.261023e+000 -4.589939e+000 -4.887223e+000 -1.274812e+001 -5.528996e+000 -9.283908e+000 -5.641987e+000 -4.786984e+000 -9.558473e-001 -5.233604e+000 -3.567582e+000 -3.257588e+000 5.974969e+001 7.642531e-003 -1.507062e-004 -1.085609e-002 -8.003458e-004 7.419261e-003 5.576459e-003 -1.919912e-002 1.264975e-002 1.837207e-002 -2.586925e-002 -2.172383e-002 -1.292432e-002 5.723941e-002 -5.080975e-003 -1.810465e-003 2.763805e-003 -6.915364e-004 -7.721936e-004 -4.638316e-003 -1.583496e-003 8.416311e-004 5.024592e-004 5.512679e-004 2.365782e-003 -1.056044e-003 3.921005e-003
<VARIANCE> 39
 9.804058e+001 9.251374e+001 9.746429e+001 1.115907e+002 9.390337e+001 6.896665e+001 8.714631e+001 9.332822e+001 6.158111e+001 6.613327e+001 6.492549e+001 4.534390e+001 2.306086e+002 2.960154e+000 3.669450e+000 3.846071e+000 4.772727e+000 4.655127e+000 4.345617e+000 5.166083e+000 5.084414e+000 4.225417e+000 4.007333e+000 4.134059e+000 3.359116e+000 4.860456e+000 4.393182e-001 5.337778e-001 6.016167e-001 7.725878e-001 7.913761e-001 8.018301e-001 9.213167e-001 8.920047e-001 8.023702e-001 7.397209e-001 7.477843e-001 6.405168e-001 6.078010e-001
<GCONST> 1.435929e+002
<STATE> 3
<MEAN> 39
 -8.191869e+000 -4.547976e+000 -4.964293e+000 -1.274344e+001 -5.459682e+000 -9.243861e+000 -5.748536e+000 -4.716590e+000 -8.766956e-001 -5.372334e+000 -3.648585e+000 -3.345211e+000 6.006268e+001 -4.271251e-003 -1.146767e-002 -9.408995e-003 -4.361689e-003 6.078694e-003 -6.919341e-003 -2.344489e-002 1.071429e-002 1.618659e-002 -2.299821e-002 -1.990893e-002 -1.891376e-002 6.505041e-002 -2.502815e-003 -1.818739e-003 4.575619e-004 -3.010563e-003 -8.262786e-004 -3.696776e-003 -2.070606e-003 -9.976117e-004 -1.271039e-003 1.104385e-003 1.078359e-004 -1.385176e-003 4.373152e-003
<VARIANCE> 39
 9.812464e+001 9.282915e+001 1.008012e+002 1.116510e+002 9.558680e+001 6.939997e+001 8.869892e+001 9.492748e+001 6.198399e+001 6.731766e+001 6.519844e+001 4.613787e+001 2.248820e+002 3.040441e+000 3.691627e+000 3.948856e+000 4.845641e+000 4.700625e+000 4.377279e+000 5.225591e+000 5.082410e+000 4.257383e+000 4.039462e+000 4.185650e+000 3.388769e+000 4.994917e+000 4.498317e-001 5.337462e-001 6.169558e-001 7.826699e-001 7.996849e-001 8.068528e-001 9.312889e-001 8.923208e-001 8.066989e-001 7.434132e-001 7.539945e-001 6.447140e-001 6.264409e-001
<GCONST> 1.440220e+002
<STATE> 4
<MEAN> 39
 -8.181717e+000 -4.555151e+000 -5.041663e+000 -1.272686e+001 -5.380820e+000 -9.234096e+000 -5.847412e+000 -4.661923e+000 -8.149020e-001 -5.492253e+000 -3.713551e+000 -3.445806e+000 6.033798e+001 -1.290762e-002 -1.888300e-002 -1.084099e-002 -9.835703e-003 5.923716e-003 -1.481510e-002 -2.498980e-002 5.300445e-003 1.021843e-002 -1.893909e-002 -1.955095e-002 -2.057252e-002 6.822830e-002 -1.908665e-003 9.464862e-004 -5.834626e-004 -1.135338e-003 1.532175e-003 -4.471185e-004 -5.658845e-004 -1.387141e-003 -1.764574e-003 1.418214e-003 3.257627e-004 7.565959e-004 1.388417e-004
<VARIANCE> 39
 9.827763e+001 9.262627e+001 1.038240e+002 1.111816e+002 9.722482e+001 6.973707e+001 9.030334e+001 9.635444e+001 6.257915e+001 6.829489e+001 6.561699e+001 4.693734e+001 2.199010e+002 3.122374e+000 3.684540e+000 4.031229e+000 4.883824e+000 4.727853e+000 4.382703e+000 5.268770e+000 5.081274e+000 4.293087e+000 4.076506e+000 4.225483e+000 3.404598e+000 5.061502e+000 4.608670e-001 5.315861e-001 6.311052e-001 7.874787e-001 8.051597e-001 8.073319e-001 9.380303e-001 8.928261e-001 8.116705e-001 7.473879e-001 7.593313e-001 6.470143e-001 6.371558e-001
<GCONST> 1.443428e+002
<TRANSP> 5
 0.000000e+000 1.000000e+000 0.000000e+000 0.000000e+000 0.000000e+000
 0.000000e+000 7.816813e-001 2.183187e-001 0.000000e+000 0.000000e+000
 0.000000e+000 0.000000e+000 7.816874e-001 2.183126e-001 0.000000e+000
 0.000000e+000 0.000000e+000 0.000000e+000 7.816812e-001 2.183188e-001
 0.000000e+000 0.000000e+000 0.000000e+000 0.000000e+000 0.000000e+000
<ENDHMM>
~h "q"
<BEGINHMM>
<NUMSTATES> 5
<STATE> 2
<MEAN> 39
 -1.007614e+001 -6.391816e+000 -5.863645e+000 -1.195231e+001 -3.297743e+000 -9.412336e+000 -5.892324e+000 -3.747329e+000 -4.542502e-001 -4.692291e+000 -2.459113e+000 -3.436961e+000 5.937086e+001 -3.229060e-002 1.423055e-002 5.580019e-002 1.453617e-002 3.258147e-002 -3.489152e-002 -4.575637e-002 -4.497923e-002 2.083908e-002 2.888735e-002 -1.887888e-002 -8.365793e-003 1.502998e-002 -4.465695e-003 6.473582e-003 6.308760e-003 1.225689e-002 3.700947e-003 2.080777e-003 2.532970e-003 -4.939084e-004 1.223563e-003 6.694088e-003 1.498532e-003 2.329523e-003 -1.491741e-002
<VARIANCE> 39
 9.126034e+001 7.725655e+001 9.199641e+001 1.011579e+002 1.068484e+002 7.066228e+001 9.112246e+001 9.624418e+001 6.655090e+001 6.759309e+001 6.024293e+001 4.955239e+001 2.252968e+002 3.020941e+000 2.946494e+000 3.251607e+000 4.202577e+000 4.775089e+000 4.198766e+000 4.851559e+000 5.049817e+000 4.310700e+000 4.076366e+000 3.776528e+000 3.185784e+000 3.416764e+000 4.366755e-001 4.642720e-001 5.206974e-001 6.950187e-001 7.901965e-001 7.579577e-001 8.498743e-001 8.901381e-001 8.116190e-001 7.591082e-001 6.898401e-001 5.959566e-001 4.348340e-001
<GCONST> 1.414857e+002
<STATE> 3
<MEAN> 39
 -1.026345e+001 -6.289195e+000 -5.639637e+000 -1.186502e+001 -3.160705e+000 -9.503967e+000 -5.975029e+000 -3.910937e+000 -4.052805e-001 -4.553150e+000 -2.503338e+000 -3.435420e+000 5.932733e+001 -4.261271e-002 3.721274e-002 7.220071e-002 4.002006e-002 2.995303e-002 -2.694487e-002 -2.728885e-002 -4.672465e-002 1.554551e-002 4.572701e-002 -9.316057e-003 -7.210103e-004 -2.622484e-002 -1.656614e-003 6.398938e-003 1.948129e-003 7.084229e-003 -1.215975e-003 4.580535e-003 6.983913e-003 1.932622e-003 -1.742197e-003 5.083932e-003 3.215569e-003 2.593390e-003 -1.361627e-002
<VARIANCE> 39
 9.197117e+001 7.721678e+001 9.222887e+001 1.036342e+002 1.089197e+002 7.127021e+001 9.065701e+001 9.729699e+001 6.753905e+001 6.727991e+001 6.000793e+001 4.885695e+001 2.209805e+002 2.972228e+000 2.859185e+000 3.186768e+000 4.148046e+000 4.745728e+000 4.188498e+000 4.791703e+000 5.028691e+000 4.320940e+000 4.078715e+000 3.752884e+000 3.175085e+000 3.286757e+000 4.283332e-001 4.552169e-001 5.094076e-001 6.840515e-001 7.839272e-001 7.533311e-001 8.427475e-001 8.876920e-001 8.119716e-001 7.583882e-001 6.852971e-001 5.940729e-001 4.177478e-001
<GCONST> 1.412232e+002
<STATE> 4
<MEAN> 39
 -1.044239e+001 -6.093810e+000 -5.346901e+000 -1.173180e+001 -3.105605e+000 -9.563811e+000 -5.968277e+000 -4.122640e+000 -4.095295e-001 -4.363442e+000 -2.509570e+000 -3.399608e+000 5.916978e+001 -3.540376e-002 5.814564e-002 7.814007e-002 4.803298e-002 8.690104e-003 -1.274625e-002 4.286823e-004 -4.780326e-002 3.742224e-003 5.542541e-002 2.192707e-003 6.241221e-003 -5.432017e-002 4.071188e-003 5.213822e-003 -1.848655e-003 9.046745e-004 -6.942800e-003 6.659309e-003 1.045892e-002 1.536852e-003 -4.335341e-003 1.190240e-003 4.131352e-003 2.489470e-003 -9.583275e-003
<VARIANCE> 39
 9.309452e+001 7.744487e+001 9.117207e+001 1.069884e+002 1.104385e+002 7.212019e+001 9.006364e+001 9.803327e+001 6.851876e+001 6.663611e+001 5.964052e+001 4.778131e+001 2.159082e+002 2.947090e+000 2.792223e+000 3.133071e+000 4.114628e+000 4.740253e+000 4.188255e+000 4.749786e+000 4.999753e+000 4.325925e+000 4.071669e+000 3.736173e+000 3.165555e+000 3.227779e+000 4.249325e-001 4.482010e-001 4.997337e-001 6.762132e-001 7.817241e-001 7.512702e-001 8.395821e-001 8.839743e-001 8.120374e-001 7.568982e-001 6.814770e-001 5.929773e-001 4.116700e-001
<GCONST> 1.410475e+002
<TRANSP> 5
 0.000000e+000 1.000000e+000 0.000000e+000 0.000000e+000 0.000000e+000
 0.000000e+000 7.755110e-001 2.244890e-001 0.000000e+000 0.000000e+000
 0.000000e+000 0.000000e+000 7.755043e-001 2.244958e-001 0.000000e+000
 0.000000e+000 0.000000e+000 0.000000e+000 7.755085e-001 2.244916e-001
 0.000000e+000 0.000000e+000 0.000000e+000 0.000000e+000 0.000000e+000
<ENDHMM>
~h "r"
<BEGINHMM>
<NUMSTATES> 5
<STATE> 2
<MEAN> 39
 -9.017060e+000 -6.282242e+000 -3.999151e+000 -1.240209e+001 -6.287199e+000 -9.769062e+000 -5.593085e+000 -5.031076e+000 -1.048476e+000 -3.989270e+000 -2.727942e+000 -2.862759e+000 5.729758e+001 7.836501e-002 5.918325e-002 1.620357e-002 -8.398888e-002 -4.569815e-002 -3.974424e-003 -4.753945e-002 -4.142355e-002 -2.401980e-002 -1.687342e-002 -3.401335e-002 7.089083e-006 1.826485e-001 -3.416067e-003 4.688566e-003 -2.489924e-003 3.268000e-003 5.608187e-003 5.995287e-003 4.656291e-003 2.542552e-003 4.740806e-004 -1.205067e-003 9.054114e-005 1.002654e-004 -5.563104e-003
<VARIANCE> 39
 9.460720e+001 7.443584e+001 8.013129e+001 9.790784e+001 9.897073e+001 6.920074e+001 9.556142e+001 9.054710e+001 6.105315e+001 6.287668e+001 6.234950e+001 4.180013e+001 2.738387e+002 2.456345e+000 2.759267e+000 2.987174e+000 3.930593e+000 4.411849e+000 4.066971e+000 4.679734e+000 4.720560e+000 4.201270e+000 3.963200e+000 3.646763e+000 3.015947e+000 2.918995e+000 3.718411e-001 4.314388e-001 4.758430e-001 6.755465e-001 7.698836e-001 7.561500e-001 8.389261e-001 8.342562e-001 7.960549e-001 7.473994e-001 6.746495e-001 5.787710e-001 3.812923e-001
<GCONST> 1.394872e+002
<STATE> 3
<MEAN> 39
 -8.516072e+000 -5.989205e+000 -3.951554e+000 -1.285948e+001 -6.526781e+000 -9.792687e+000 -5.876034e+000 -5.161725e+000 -1.125485e+000 -4.097753e+000 -2.896474e+000 -2.855032e+000 5.839129e+001 7.194290e-002 6.655166e-002 9.667721e-003 -7.706374e-002 -3.571554e-002 6.320815e-003 -3.903023e-002 -3.745818e-002 -2.203663e-002 -1.889897e-002 -3.253393e-002 -8.891998e-004 1.750923e-001 -2.767514e-003 1.825457e-003 -2.655798e-003 2.398240e-003 5.033162e-003 2.546062e-003 3.021974e-003 1.928259e-003 9.916350e-004 -6.692368e-004 -1.855487e-004 -5.004212e-004 -3.789795e-003
<VARIANCE> 39
 9.792067e+001 7.759221e+001 8.462255e+001 1.027742e+002 1.013402e+002 7.072987e+001 9.703746e+001 9.422587e+001 6.220613e+001 6.543727e+001 6.378131e+001 4.301828e+001 2.704335e+002 2.546417e+000 2.851799e+000 3.086900e+000 4.052992e+000 4.502403e+000 4.107473e+000 4.771624e+000 4.821005e+000 4.256660e+000 4.033791e+000 3.701294e+000 3.049134e+000 3.027435e+000 3.817738e-001 4.404130e-001 4.876981e-001 6.917322e-001 7.797506e-001 7.577101e-001 8.479640e-001 8.447020e-001 8.023204e-001 7.575244e-001 6.808679e-001 5.818806e-001 3.927050e-001
<GCONST> 1.403591e+002
<STATE> 4
<MEAN> 39
 -8.044294e+000 -5.671607e+000 -3.916719e+000 -1.328498e+001 -6.735954e+000 -9.789268e+000 -6.135883e+000 -5.295628e+000 -1.200068e+000 -4.221438e+000 -3.056701e+000 -2.848941e+000 5.945872e+001 6.303530e-002 7.030042e-002 3.819421e-003 -6.863146e-002 -2.177894e-002 1.115395e-002 -3.259934e-002 -3.485129e-002 -1.983160e-002 -2.204044e-002 -3.094238e-002 -2.018364e-003 1.654309e-001 -3.053657e-003 2.635579e-004 -2.091590e-003 2.811067e-003 5.894084e-003 6.068277e-004 1.858493e-003 2.135500e-003 1.387550e-003 -9.621786e-004 2.400353e-004 -4.268975e-004 -3.028520e-003
<VARIANCE> 39
 1.006681e+002 8.068797e+001 8.884425e+001 1.076424e+002 1.028989e+002 7.217377e+001 9.810947e+001 9.788924e+001 6.326238e+001 6.793266e+001 6.497533e+001 4.439297e+001 2.639938e+002 2.628290e+000 2.943643e+000 3.184563e+000 4.181389e+000 4.576150e+000 4.140171e+000 4.854851e+000 4.931639e+000 4.297229e+000 4.096238e+000 3.752017e+000 3.084929e+000 3.126978e+000 3.908348e-001 4.503061e-001 4.995380e-001 7.078180e-001 7.869701e-001 7.591308e-001 8.560978e-001 8.568077e-001 8.065679e-001 7.658090e-001 6.871840e-001 5.855281e-001 4.030342e-001
<GCONST> 1.411431e+002
<TRANSP> 5
 0.000000e+000 1.000000e+000 0.000000e+000 0.000000e+000 0.000000e+000
 0.000000e+000 7.851484e-001 2.148516e-001 0.000000e+000 0.000000e+000
 0.000000e+000 0.000000e+000 7.851474e-001 2.148526e-001 0.000000e+000
 0.000000e+000 0.000000e+000 0.000000e+000 7.851520e-001 2.148480e-001
 0.000000e+000 0.000000e+000 0.000000e+000 0.000000e+000 0.000000e+000
<ENDHMM>
~h "s"
<BEGINHMM>
<NUMSTATES> 5
<STATE> 2
<MEAN> 39
 -1.221284e+001 -3.902618e+000 -5.659867e+000 -1.084773e+001 -4.655268e+000 -9.691631e+000 -4.527310e+000 -3.925179e+000 -4.291234e-001 -4.940129e+000 -2.004682e+000 -3.003590e+000 5.985690e+001 -5.632600e-003 7.859644e-003 -6.980313e-003 3.050043e-003 1.819624e-002 -1.099918e-002 7.850090e-003 1.178268e-002 9.045133e-003 -6.632490e-003 2.906953e-003 -6.878776e-003 5.675016e-002 2.177678e-002 -7.475040e-003 3.543725e-003 -9.846174e-003 -4.344123e-003 -5.650067e-003 -5.091593e-003 -8.839068e-003 -5.163817e-003 8.214195e-004 -7.178337e-003 -3.762851e-003 -6.139203e-004
<VARIANCE> 39
 1.143557e+002 8.533403e+001 8.116315e+001 1.156720e+002 8.872970e+001 7.009138e+001 9.075526e+001 9.650954e+001 6.176016e+001 6.626147e+001 6.178420e+001 4.245600e+001 2.283086e+002 4.288008e+000 3.310549e+000 3.310542e+000 4.460914e+000 4.425324e+000 4.429287e+000 5.312043e+000 5.082342e+000 4.269202e+000 4.246882e+000 4.096723e+000 3.223122e+000 3.397669e+000 5.787589e-001 4.996336e-001 5.285823e-001 7.081413e-001 7.606102e-001 8.059466e-001 9.413756e-001 8.971981e-001 8.098941e-001 7.783832e-001 7.387535e-001 6.150589e-001 4.315450e-001
<GCONST> 1.427889e+002
<STATE> 3
<MEAN> 39
 -1.217962e+001 -3.842831e+000 -5.705087e+000 -1.086912e+001 -4.558017e+000 -9.770765e+000 -4.551834e+000 -3.875334e+000 -4.258924e-001 -4.999095e+000 -2.030718e+000 -3.067662e+000 6.022344e+001 4.510844e-002 -1.030284e-002 3.662381e-003 -1.882524e-002 9.160388e-003 -2.269290e-002 -7.142084e-003 -1.100988e-002 -7.802621e-003 -3.489170e-003 -1.519786e-002 -1.651535e-002 4.984019e-002 1.880198e-002 -5.702682e-003 2.471057e-003 -8.851250e-003 -4.683847e-003 -4.211458e-003 -5.821888e-003 -8.802012e-003 -6.133482e-003 -8.321820e-005 -7.243096e-003 -3.394590e-003 9.891834e-004
<VARIANCE> 39
 1.156879e+002 8.535946e+001 8.232030e+001 1.154519e+002 9.103626e+001 7.120342e+001 9.261868e+001 9.809313e+001 6.189179e+001 6.749953e+001 6.225645e+001 4.321362e+001 2.234651e+002 4.378006e+000 3.314895e+000 3.330187e+000 4.496928e+000 4.491194e+000 4.476845e+000 5.367985e+000 5.124897e+000 4.286756e+000 4.273490e+000 4.120030e+000 3.240707e+000 3.458735e+000 5.895121e-001 4.998570e-001 5.285733e-001 7.118043e-001 7.680118e-001 8.131456e-001 9.483729e-001 9.002542e-001 8.095703e-001 7.811790e-001 7.400585e-001 6.157853e-001 4.387974e-001
<GCONST> 1.431113e+002
<STATE> 4
<MEAN> 39
 -1.201128e+001 -3.833945e+000 -5.699858e+000 -1.093318e+001 -4.478415e+000 -9.865451e+000 -4.611056e+000 -3.895506e+000 -4.753887e-001 -5.038112e+000 -2.098467e+000 -3.152027e+000 6.051426e+001 8.889536e-002 -2.323066e-002 1.234262e-002 -3.736633e-002 -1.674337e-003 -2.745415e-002 -1.993723e-002 -3.236894e-002 -2.497183e-002 -2.981195e-003 -3.112853e-002 -2.256050e-002 4.512205e-002 1.327755e-002 -3.422766e-003 1.587908e-003 -5.801642e-003 -4.537521e-003 -8.006399e-004 -3.665161e-003 -6.362307e-003 -5.210389e-003 -9.050685e-004 -5.481777e-003 -1.404924e-003 8.717976e-004
<VARIANCE> 39
 1.164457e+002 8.561778e+001 8.343684e+001 1.144083e+002 9.384000e+001 7.237006e+001 9.438197e+001 9.899105e+001 6.215565e+001 6.860387e+001 6.266066e+001 4.421360e+001 2.193111e+002 4.389025e+000 3.310786e+000 3.346529e+000 4.509556e+000 4.553832e+000 4.500876e+000 5.382411e+000 5.137393e+000 4.295803e+000 4.289820e+000 4.119673e+000 3.250907e+000 3.539309e+000 5.940633e-001 4.997482e-001 5.288798e-001 7.128207e-001 7.746926e-001 8.177180e-001 9.491582e-001 8.992910e-001 8.073265e-001 7.832361e-001 7.382659e-001 6.154404e-001 4.503849e-001
<GCONST> 1.433426e+002
<TRANSP> 5
 0.000000e+000 1.000000e+000 0.000000e+000 0.000000e+000 0.000000e+000
 0.000000e+000 7.793959e-001 2.206040e-001 0.000000e+000 0.000000e+000
 0.000000e+000 0.000000e+000 7.793964e-001 2.206036e-001 0.000000e+000
 0.000000e+000 0.000000e+000 0.000000e+000 7.793972e-001 2.206028e-001
 0.000000e+000 0.000000e+000 0.000000e+000 0.000000e+000 0.000000e+000
<ENDHMM>
~h "t"
<BEGINHMM>
<NUMSTATES> 5
<STATE> 2
<MEAN> 39
 -7.864172e+000 -4.674403e+000 -4.912851e+000 -1.246691e+001 -5.643900e+000 -1.044451e+001 -5.536140e+000 -3.694170e+000 -1.492861e+000 -6.319652e+000 -3.158906e+000 -2.958019e+000 6.050020e+001 1.070555e-002 -2.648617e-002 -3.241187e-002 5.548952e-003 3.376553e-002 3.525809e-004 7.529186e-003 5.397772e-002 -4.511087e-003 -5.230717e-002 6.662274e-003 -7.645564e-003 4.844219e-002 -3.314800e-003 -5.582610e-003 -2.721026e-004 -1.058253e-003 2.465534e-003 7.415769e-004 4.252580e-004 -2.138098e-003 -1.012733e-003 1.805235e-003 1.295392e-003 -1.729200e-003 3.568290e-003
<VARIANCE> 39
 9.244043e+001 8.835975e+001 7.723719e+001 1.009986e+002 9.362824e+001 7.020794e+001 8.843412e+001 1.027970e+002 6.001196e+001 7.201073e+001 5.951549e+001 4.479442e+001 2.343820e+002 2.624502e+000 3.531729e+000 3.305169e+000 4.258999e+000 4.814260e+000 4.516954e+000 4.947240e+000 5.280168e+000 4.143861e+000 4.265791e+000 3.989926e+000 3.226844e+000 5.243155e+000 3.933213e-001 4.949007e-001 5.266541e-001 6.885790e-001 8.116584e-001 8.461922e-001 8.599155e-001 9.063984e-001 7.799051e-001 7.899510e-001 7.288297e-001 6.031061e-001 6.733470e-001
<GCONST> 1.425899e+002
<STATE> 3
<MEAN> 39
 -7.794007e+000 -4.745669e+000 -5.047677e+000 -1.241298e+001 -5.457628e+000 -1.045298e+001 -5.551021e+000 -3.459430e+000 -1.514583e+000 -6.575167e+000 -3.123592e+000 -3.010798e+000 6.075708e+001 -1.288881e-003 -4.413389e-002 -3.437272e-002 6.662663e-003 4.100397e-002 -4.053789e-004 7.208348e-003 4.387352e-002 -8.731986e-003 -4.535630e-002 5.773606e-003 -1.602094e-002 5.445127e-002 -1.222192e-003 -6.045787e-003 -1.165088e-003 -1.414152e-003 8.523848e-004 -5.326215e-004 -2.318455e-003 -3.372783e-003 -2.489393e-003 8.178516e-004 -2.523967e-003 -2.036213e-003 5.784375e-003
<VARIANCE> 39
 9.128733e+001 8.795727e+001 7.772875e+001 1.005611e+002 9.410973e+001 6.995987e+001 8.883137e+001 1.041510e+002 6.031813e+001 7.315520e+001 5.917659e+001 4.609164e+001 2.302655e+002 2.648107e+000 3.536990e+000 3.303033e+000 4.286935e+000 4.803723e+000 4.487514e+000 4.937140e+000 5.261570e+000 4.142545e+000 4.294115e+000 3.999679e+000 3.270860e+000 5.422338e+000 3.957503e-001 4.923697e-001 5.264981e-001 6.932693e-001 8.113795e-001 8.440216e-001 8.524477e-001 9.000015e-001 7.777465e-001 7.934562e-001 7.302780e-001 6.083925e-001 6.972690e-001
<GCONST> 1.427139e+002
<STATE> 4
<MEAN> 39
 -7.800886e+000 -4.881136e+000 -5.175768e+000 -1.232308e+001 -5.248755e+000 -1.044781e+001 -5.544994e+000 -3.288167e+000 -1.557297e+000 -6.788616e+000 -3.091075e+000 -3.093684e+000 6.097525e+001 -9.081854e-003 -6.150639e-002 -3.604148e-002 8.297475e-003 4.339513e-002 8.646338e-004 3.359020e-003 2.770751e-002 -1.709213e-002 -3.879633e-002 -2.165949e-003 -2.119558e-002 6.070435e-002 4.097300e-004 -2.949513e-003 -3.321075e-004 6.523030e-004 5.820871e-004 1.157903e-003 -3.981982e-003 -5.667437e-003 -3.157474e-003 1.129808e-003 -3.662433e-003 -2.476414e-004 2.390591e-003
<VARIANCE> 39
 9.009306e+001 8.696497e+001 7.835149e+001 1.000286e+002 9.457634e+001 6.943396e+001 8.928464e+001 1.054060e+002 6.089687e+001 7.413701e+001 5.889425e+001 4.748211e+001 2.267775e+002 2.670024e+000 3.505213e+000 3.306590e+000 4.316040e+000 4.778604e+000 4.444891e+000 4.929267e+000 5.264375e+000 4.148913e+000 4.334075e+000 3.994099e+000 3.311214e+000 5.517499e+000 3.977753e-001 4.871039e-001 5.267403e-001 6.985672e-001 8.101211e-001 8.378921e-001 8.471685e-001 8.972488e-001 7.764118e-001 7.982932e-001 7.295939e-001 6.137432e-001 7.096704e-001
<GCONST> 1.427835e+002
<TRANSP> 5
 0.000000e+000 1.000000e+000 0.000000e+000 0.000000e+000 0.000000e+000
 0.000000e+000 7.777129e-001 2.222871e-001 0.000000e+000 0.000000e+000
 0.000000e+000 0.000000e+000 7.777131e-001 2.222869e-001 0.000000e+000
 0.000000e+000 0.000000e+000 0.000000e+000 7.777119e-001 2.222881e-001
 0.000000e+000 0.000000e+000 0.000000e+000 0.000000e+000 0.000000e+000
<ENDHMM>
~h "u"
<BEGINHMM>
<NUMSTATES> 5
<STATE> 2
<MEAN> 39
 -7.542669e+000 -3.256211e+000 -4.715858e+000 -1.306145e+001 -6.206317e+000 -9.297141e+000 -6.425287e+000 -6.511621e+000 -2.208706e+000 -4.156280e+000 -2.406897e+000 -3.446448e+000 5.869583e+001 4.094249e-002 2.764636e-002 1.321923e-002 -3.091829e-003 -2.059258e-002 -3.294265e-002 -3.091330e-002 -2.330698e-002 -2.098746e-002 -3.019135e-002 -2.858822e-002 -2.115616e-002 8.789276e-002 -7.597697e-003 -1.545786e-003 1.839596e-003 6.923136e-003 4.699138e-003 1.719211e-003 7.622403e-003 6.679268e-003 2.846029e-003 -3.005650e-003 1.037082e-003 1.655917e-003 -3.041392e-003
<VARIANCE> 39
 1.168462e+002 8.099924e+001 8.300634e+001 1.034302e+002 8.994124e+001 7.013010e+001 9.543981e+001 8.600781e+001 6.679055e+001 6.567841e+001 6.143648e+001 4.367530e+001 2.177308e+002 3.155240e+000 2.907972e+000 3.696908e+000 4.590972e+000 4.650067e+000 4.565693e+000 5.420699e+000 5.238310e+000 4.646669e+000 4.185598e+000 3.894714e+000 3.224685e+000 2.965858e+000 4.359176e-001 4.599660e-001 5.914997e-001 7.620908e-001 8.024842e-001 8.329916e-001 9.493726e-001 9.399033e-001 8.703856e-001 7.917142e-001 7.145730e-001 6.184534e-001 3.706729e-001
<GCONST> 1.422505e+002
<STATE> 3
<MEAN> 39
 -7.335756e+000 -3.060753e+000 -4.681239e+000 -1.309189e+001 -6.274499e+000 -9.390908e+000 -6.555289e+000 -6.596017e+000 -2.307606e+000 -4.282452e+000 -2.487792e+000 -3.518518e+000 5.913046e+001 2.217788e-002 2.027870e-002 1.669015e-002 1.085383e-002 -7.333950e-003 -2.951761e-002 -1.369841e-002 -5.576804e-003 -1.312611e-002 -3.632577e-002 -2.656185e-002 -1.671103e-002 8.238082e-002 -6.487365e-003 -1.481958e-003 -2.437682e-005 5.224256e-003 5.665077e-003 2.814095e-003 6.835290e-003 7.102001e-003 2.367569e-003 -1.508937e-003 2.737490e-003 2.165067e-003 -3.289709e-003
<VARIANCE> 39
 1.173130e+002 8.117172e+001 8.431940e+001 1.038987e+002 9.113615e+001 7.131113e+001 9.663644e+001 8.805444e+001 6.751868e+001 6.653621e+001 6.206726e+001 4.421518e+001 2.141649e+002 3.190888e+000 2.935096e+000 3.705848e+000 4.547481e+000 4.662388e+000 4.591286e+000 5.475277e+000 5.287271e+000 4.672837e+000 4.217122e+000 3.918294e+000 3.235579e+000 2.994123e+000 4.390139e-001 4.607241e-001 5.903714e-001 7.537019e-001 8.021742e-001 8.361574e-001 9.578910e-001 9.450422e-001 8.749663e-001 7.952682e-001 7.192305e-001 6.198828e-001 3.738182e-001
<GCONST> 1.424861e+002
<STATE> 4
<MEAN> 39
 -7.192112e+000 -2.912078e+000 -4.626561e+000 -1.308530e+001 -6.298888e+000 -9.486925e+000 -6.647580e+000 -6.620856e+000 -2.372476e+000 -4.427028e+000 -2.574265e+000 -3.578814e+000 5.955205e+001 6.013843e-003 1.111272e-002 1.714238e-002 2.222739e-002 8.803429e-003 -2.297474e-002 1.306256e-003 1.312767e-002 -4.509042e-003 -3.931162e-002 -2.094922e-002 -1.206946e-002 7.636704e-002 -5.188323e-003 -2.177661e-003 -1.181215e-003 4.224871e-003 6.361100e-003 3.632307e-003 5.602759e-003 6.897854e-003 2.525649e-003 -1.604896e-004 4.275829e-003 1.973890e-003 -3.798031e-003
<VARIANCE> 39
 1.168106e+002 8.155016e+001 8.577106e+001 1.045353e+002 9.256061e+001 7.235117e+001 9.725375e+001 9.029364e+001 6.802547e+001 6.749990e+001 6.263048e+001 4.478542e+001 2.109877e+002 3.210897e+000 2.971015e+000 3.704622e+000 4.501340e+000 4.672149e+000 4.601073e+000 5.506976e+000 5.325545e+000 4.685096e+000 4.240701e+000 3.940097e+000 3.244222e+000 3.063551e+000 4.412651e-001 4.623941e-001 5.884406e-001 7.449450e-001 8.019031e-001 8.364998e-001 9.623343e-001 9.480625e-001 8.770850e-001 7.973727e-001 7.231870e-001 6.200178e-001 3.830851e-001
<GCONST> 1.427012e+002
<TRANSP> 5
 0.000000e+000 1.000000e+000 0.000000e+000 0.000000e+000 0.000000e+000
 0.000000e+000 7.821013e-001 2.178987e-001 0.000000e+000 0.000000e+000
 0.000000e+000 0.000000e+000 7.821060e-001 2.178940e-001 0.000000e+000
 0.000000e+000 0.000000e+000 0.000000e+000 7.821016e-001 2.178984e-001
 0.000000e+000 0.000000e+000 0.000000e+000 0.000000e+000 0.000000e+000
<ENDHMM>
~h "v"
<BEGINHMM>
<NUMSTATES> 5
<STATE> 2
<MEAN> 39
 -1.068675e+001 -5.056348e+000 -2.833611e+000 -1.326935e+001 -6.831620e+000 -1.020930e+001 -5.285680e+000 -6.198822e+000 -1.328589e+000 -3.372723e+000 -1.758490e+000 -2.597625e+000 5.519323e+001 5.763800e-002 1.480236e-002 3.127545e-002 -1.425503e-001 -5.659645e-002 -5.835746e-002 -4.081523e-003 -2.024405e-002 -1.514247e-002 8.584886e-003 -2.639099e-002 -1.910445e-002 2.131624e-001 4.026908e-003 9.072567e-004 -1.349231e-002 1.420879e-002 1.645175e-002 7.662268e-003 2.411101e-003 1.477772e-003 9.289739e-003 4.341312e-004 -1.147387e-003 -3.602420e-003 -9.034309e-003
<VARIANCE> 39
 8.982222e+001 7.778465e+001 7.268867e+001 1.017024e+002 8.311308e+001 6.864532e+001 9.556653e+001 5.995803e+001 5.814062e+001 5.671804e+001 5.208215e+001 3.456051e+001 2.532575e+002 2.315972e+000 2.694759e+000 2.923195e+000 4.380839e+000 3.837740e+000 4.192902e+000 4.479154e+000 4.675848e+000 4.348723e+000 4.068269e+000 3.573429e+000 3.004679e+000 2.941792e+000 3.321579e-001 4.374126e-001 4.485667e-001 6.831151e-001 6.568667e-001 7.654532e-001 7.752833e-001 8.961524e-001 8.275234e-001 7.681149e-001 6.894625e-001 5.817015e-001 3.674136e-001
<GCONST> 1.378661e+002
<STATE> 3
<MEAN> 39
 -1.010258e+001 -4.816632e+000 -2.758394e+000 -1.396914e+001 -7.104302e+000 -1.039636e+001 -5.463020e+000 -6.174272e+000 -1.385266e+000 -3.328996e+000 -1.999821e+000 -2.678454e+000 5.641188e+001 8.381909e-002 2.919545e-002 -4.627378e-003 -1.109777e-001 -3.678314e-002 -4.655562e-002 4.111219e-003 7.657906e-004 2.005938e-003 -5.803654e-003 -3.616926e-002 -1.771168e-002 1.959669e-001 5.671003e-003 7.108546e-003 -1.046789e-002 1.273820e-002 6.708820e-003 3.266538e-003 -2.916887e-005 7.365121e-003 7.075757e-003 -8.113961e-003 -1.637139e-003 2.091698e-003 -1.140938e-002
<VARIANCE> 39
 9.663100e+001 8.439890e+001 7.550516e+001 1.046500e+002 8.878675e+001 6.979930e+001 9.741139e+001 6.451055e+001 5.892627e+001 6.052731e+001 5.334628e+001 3.536060e+001 2.540860e+002 2.393277e+000 2.909684e+000 3.019726e+000 4.541726e+000 3.983090e+000 4.236556e+000 4.556403e+000 4.773048e+000 4.353727e+000 4.037621e+000 3.546821e+000 3.025226e+000 3.080166e+000 3.400286e-001 4.677016e-001 4.611756e-001 7.093807e-001 6.867794e-001 7.731211e-001 7.982202e-001 8.990054e-001 8.290312e-001 7.537015e-001 6.766196e-001 5.896739e-001 3.890769e-001
<GCONST> 1.389708e+002
<STATE> 4
<MEAN> 39
 -9.422571e+000 -4.510949e+000 -2.739788e+000 -1.459230e+001 -7.372659e+000 -1.056935e+001 -5.559914e+000 -6.097977e+000 -1.452063e+000 -3.395284e+000 -2.265142e+000 -2.728127e+000 5.765478e+001 9.617776e-002 5.172696e-002 -2.125740e-002 -8.207960e-002 -3.241679e-002 -4.067867e-002 1.371760e-002 2.100888e-002 7.870360e-003 -4.078612e-002 -3.546443e-002 -3.534089e-003 1.782567e-001 1.082565e-003 8.287893e-003 -4.390612e-003 9.293407e-003 1.687658e-003 3.761131e-003 -1.062852e-004 7.900625e-003 2.982546e-003 -1.112787e-002 2.060716e-003 5.271709e-003 -7.731969e-003
<VARIANCE> 39
 1.027520e+002 9.082255e+001 7.677271e+001 1.074959e+002 9.279802e+001 6.992043e+001 9.802842e+001 6.937865e+001 5.906657e+001 6.395016e+001 5.579648e+001 3.631839e+001 2.512917e+002 2.489691e+000 3.168845e+000 3.108948e+000 4.660641e+000 4.241632e+000 4.318259e+000 4.684845e+000 4.822035e+000 4.322535e+000 4.067241e+000 3.583085e+000 3.055621e+000 3.245753e+000 3.490088e-001 5.019976e-001 4.769128e-001 7.353594e-001 7.319061e-001 7.893932e-001 8.374364e-001 8.961498e-001 8.195797e-001 7.577710e-001 6.780255e-001 5.994898e-001 4.109849e-001
<GCONST> 1.401273e+002
<TRANSP> 5
 0.000000e+000 1.000000e+000 0.000000e+000 0.000000e+000 0.000000e+000
 0.000000e+000 7.827015e-001 2.172985e-001 0.000000e+000 0.000000e+000
 0.000000e+000 0.000000e+000 7.827016e-001 2.172984e-001 0.000000e+000
 0.000000e+000 0.000000e+000 0.000000e+000 7.827038e-001 2.172962e-001
 0.000000e+000 0.000000e+000 0.000000e+000 0.000000e+000 0.000000e+000
<ENDHMM>
~h "w"
<BEGINHMM>
<NUMSTATES> 5
<STATE> 2
<MEAN> 39
 -8.607126e+000 -5.852638e+000 -6.535522e+000 -1.371565e+001 -4.983799e+000 -8.764298e+000 -5.258353e+000 -5.155012e+000 -1.186671e+000 -3.274237e+000 -2.765944e+000 -3.593789e+000 5.657996e+001 8.086514e-002 4.106884e-003 -4.060868e-002 -6.004618e-002 4.935864e-003 -2.099541e-002 -5.478629e-002 1.968260e-002 -5.177000e-003 -1.692236e-002 -6.001073e-002 -2.846822e-002 1.816733e-001 -1.010557e-002 4.473109e-003 1.141500e-002 1.937595e-002 1.458348e-003 -1.844873e-003 5.330069e-003 6.108641e-003 2.525520e-003 -5.617070e-003 6.180543e-003 4.981626e-003 -7.678410e-003
<VARIANCE> 39
 1.089001e+002 7.865101e+001 7.225340e+001 1.020682e+002 8.671848e+001 6.551532e+001 8.297694e+001 7.333877e+001 5.898526e+001 5.848807e+001 6.497495e+001 4.234253e+001 2.644293e+002 2.465454e+000 2.956994e+000 2.941720e+000 3.966220e+000 4.637387e+000 4.153701e+000 4.445373e+000 4.419399e+000 4.193367e+000 3.891819e+000 3.844767e+000 3.046883e+000 2.483197e+000 3.402806e-001 4.221632e-001 4.530760e-001 6.379523e-001 7.946048e-001 7.581177e-001 8.154250e-001 8.108621e-001 8.102162e-001 7.442278e-001 7.114332e-001 5.901321e-001 2.990182e-001
<GCONST> 1.384996e+002
<STATE> 3
<MEAN> 39
 -8.066897e+000 -5.668088e+000 -6.723333e+000 -1.407712e+001 -5.003090e+000 -8.813616e+000 -5.526812e+000 -5.075706e+000 -1.214563e+000 -3.367049e+000 -2.968516e+000 -3.681414e+000 5.750117e+001 6.571292e-002 1.967282e-002 -1.584801e-002 -1.930864e-002 2.387640e-003 -2.458234e-002 -4.396264e-002 2.651000e-002 -1.369537e-003 -3.234039e-002 -4.044119e-002 -1.541823e-002 1.647119e-001 -6.275090e-003 4.724624e-003 9.685332e-003 1.313219e-002 -1.965528e-003 -6.752310e-004 3.790519e-003 9.280143e-004 9.773170e-004 -4.081828e-003 6.635927e-003 5.103794e-003 -8.138913e-003
<VARIANCE> 39
 1.128631e+002 8.038555e+001 7.633866e+001 1.056242e+002 9.000772e+001 6.625401e+001 8.467275e+001 7.598493e+001 5.914873e+001 5.895824e+001 6.636694e+001 4.321638e+001 2.656548e+002 2.532438e+000 3.089149e+000 3.047993e+000 3.957010e+000 4.719797e+000 4.209776e+000 4.554253e+000 4.472959e+000 4.189117e+000 3.930565e+000 3.919843e+000 3.055570e+000 2.557778e+000 3.459420e-001 4.321827e-001 4.641537e-001 6.334882e-001 7.977421e-001 7.649201e-001 8.335549e-001 8.163558e-001 8.075532e-001 7.498181e-001 7.226615e-001 5.918398e-001 3.039674e-001
<GCONST> 1.391771e+002
<STATE> 4
<MEAN> 39
 -7.542533e+000 -5.438238e+000 -6.852901e+000 -1.435157e+001 -5.041388e+000 -8.872838e+000 -5.786127e+000 -4.983119e+000 -1.239215e+000 -3.517012e+000 -3.117462e+000 -3.743124e+000 5.841102e+001 5.437130e-002 2.933184e-002 4.518509e-003 7.774164e-003 -4.565656e-003 -2.474177e-002 -3.784410e-002 2.362152e-002 -7.825868e-007 -4.350457e-002 -2.332313e-002 -5.230699e-003 1.492319e-001 -3.531545e-003 2.734747e-003 7.038848e-003 7.387898e-003 -3.210308e-003 3.879099e-004 1.614491e-003 -1.918510e-003 3.865388e-004 -1.951047e-003 5.713013e-003 3.961226e-003 -6.139651e-003
<VARIANCE> 39
 1.159303e+002 8.227832e+001 8.052996e+001 1.095162e+002 9.336342e+001 6.699560e+001 8.578893e+001 7.845689e+001 5.948500e+001 5.938058e+001 6.691325e+001 4.425433e+001 2.632046e+002 2.599906e+000 3.214537e+000 3.152107e+000 3.961836e+000 4.813022e+000 4.276309e+000 4.679045e+000 4.523268e+000 4.201601e+000 3.954659e+000 3.989086e+000 3.081515e+000 2.642308e+000 3.536831e-001 4.429095e-001 4.753785e-001 6.318907e-001 8.045068e-001 7.743673e-001 8.531287e-001 8.211560e-001 8.070917e-001 7.521878e-001 7.332249e-001 5.957606e-001 3.105165e-001
<GCONST> 1.398499e+002
<TRANSP> 5
 0.000000e+000 1.000000e+000 0.000000e+000 0.000000e+000 0.000000e+000
 0.000000e+000 7.874971e-001 2.125029e-001 0.000000e+000 0.000000e+000
 0.000000e+000 0.000000e+000 7.874915e-001 2.125085e-001 0.000000e+000
 0.000000e+000 0.000000e+000 0.000000e+000 7.874963e-001 2.125037e-001
 0.000000e+000 0.000000e+000 0.000000e+000 0.000000e+000 0.000000e+000
<ENDHMM>
~h "x"
<BEGINHMM>
<NUMSTATES> 5
<STATE> 2
<MEAN> 39
 -7.406048e+000 -4.374969e+000 -3.328341e+000 -1.409464e+001 -6.983850e+000 -9.890973e+000 -6.089815e+000 -6.574339e+000 -3.279854e+000 -4.572047e+000 -3.496219e+000 -4.142044e+000 6.034737e+001 4.589591e-002 2.196593e-003 4.343648e-003 -8.012571e-002 -3.157753e-002 8.702755e-004 -5.344262e-003 -6.108252e-003 -6.099901e-002 -2.767962e-002 -1.022256e-002 -3.520678e-002 1.468551e-001 -1.259532e-002 -4.168374e-003 -4.519270e-003 4.738578e-003 1.514164e-002 7.133215e-003 1.072130e-002 9.938890e-003 9.049156e-003 -3.266155e-003 1.015917e-002 5.918116e-003 -6.415679e-003
<VARIANCE> 39
 9.706473e+001 8.212597e+001 7.152054e+001 1.167440e+002 8.988384e+001 6.669325e+001 9.429403e+001 9.514301e+001 6.728671e+001 6.855502e+001 6.480799e+001 4.356083e+001 2.466171e+002 2.299819e+000 2.945791e+000 3.478913e+000 4.630960e+000 4.397634e+000 4.263392e+000 4.734819e+000 5.324289e+000 4.178559e+000 4.080926e+000 3.443619e+000 2.962779e+000 2.352964e+000 3.303636e-001 4.215698e-001 5.645567e-001 7.753732e-001 7.680814e-001 7.929318e-001 8.522474e-001 9.080243e-001 7.773538e-001 7.394930e-001 6.371927e-001 5.541655e-001 2.717779e-001
<GCONST> 1.397998e+002
<STATE> 3
<MEAN> 39
 -7.153653e+000 -4.233775e+000 -3.279341e+000 -1.433809e+001 -7.100689e+000 -9.881538e+000 -6.142118e+000 -6.622725e+000 -3.489488e+000 -4.747596e+000 -3.494245e+000 -4.277302e+000 6.098948e+001 1.385543e-002 -3.031888e-004 -4.598408e-003 -5.199059e-002 2.845038e-003 1.697731e-002 1.404448e-002 1.391385e-002 -3.421207e-002 -4.324283e-002 1.846736e-002 -2.132147e-002 1.198357e-001 -8.364867e-003 -9.383960e-004 -3.018318e-003 9.723929e-003 1.135982e-002 4.560848e-003 4.404458e-003 6.063954e-003 9.960436e-003 -5.566938e-003 7.459092e-003 6.161448e-003 -9.548499e-003
<VARIANCE> 39
 9.571337e+001 8.271700e+001 7.218941e+001 1.170720e+002 9.000411e+001 6.706226e+001 9.307837e+001 9.520827e+001 6.781802e+001 6.983347e+001 6.393134e+001 4.398936e+001 2.443654e+002 2.300922e+000 3.021157e+000 3.555274e+000 4.724197e+000 4.423912e+000 4.287093e+000 4.767109e+000 5.356638e+000 4.224208e+000 4.163174e+000 3.434636e+000 2.986383e+000 2.357584e+000 3.275597e-001 4.267028e-001 5.746359e-001 7.865300e-001 7.690542e-001 7.935691e-001 8.565929e-001 9.119208e-001 7.838725e-001 7.480921e-001 6.349586e-001 5.574540e-001 2.673908e-001
<GCONST> 1.399959e+002
<STATE> 4
<MEAN> 39
 -7.024410e+000 -4.086010e+000 -3.254069e+000 -1.443536e+001 -7.109820e+000 -9.837795e+000 -6.147435e+000 -6.619555e+000 -3.613318e+000 -4.978935e+000 -3.403734e+000 -4.388803e+000 6.150409e+001 -9.708197e-003 -5.447600e-004 -1.258035e-002 -1.060285e-002 3.215732e-002 2.591154e-002 2.055349e-002 2.841759e-002 -6.598660e-003 -5.962281e-002 3.815448e-002 -6.634140e-003 8.431420e-002 -4.331528e-003 8.637838e-004 -2.497852e-003 1.478818e-002 8.671888e-003 1.752271e-003 2.917610e-004 2.517762e-003 9.005933e-003 -4.018284e-003 4.580982e-003 6.096891e-003 -1.259040e-002
<VARIANCE> 39
 9.461120e+001 8.367810e+001 7.289575e+001 1.174629e+002 9.031838e+001 6.769099e+001 9.124754e+001 9.484352e+001 6.849016e+001 7.084580e+001 6.289530e+001 4.411691e+001 2.405060e+002 2.316351e+000 3.091070e+000 3.606205e+000 4.760975e+000 4.447652e+000 4.329768e+000 4.805841e+000 5.362020e+000 4.270691e+000 4.238209e+000 3.438306e+000 3.019018e+000 2.384764e+000 3.265729e-001 4.322704e-001 5.824891e-001 7.875888e-001 7.701338e-001 7.963999e-001 8.622428e-001 9.130068e-001 7.896997e-001 7.591270e-001 6.336381e-001 5.622802e-001 2.667951e-001
<GCONST> 1.401850e+002
<TRANSP> 5
 0.000000e+000 1.000000e+000 0.000000e+000 0.000000e+000 0.000000e+000
 0.000000e+000 7.884396e-001 2.115604e-001 0.000000e+000 0.000000e+000
 0.000000e+000 0.000000e+000 7.884390e-001 2.115610e-001 0.000000e+000
 0.000000e+000 0.000000e+000 0.000000e+000 7.884377e-001 2.115623e-001
 0.000000e+000 0.000000e+000 0.000000e+000 0.000000e+000 0.000000e+000
<ENDHMM>
~h "y"
<BEGINHMM>
<NUMSTATES> 5
<STATE> 2
<MEAN> 39
 -8.846481e+000 -3.572918e+000 -1.356633e+000 -1.483140e+001 -8.516484e+000 -9.989652e+000 -6.059442e+000 -6.184172e+000 -1.884229e+000 -3.841492e+000 -3.538891e+000 -2.928329e+000 6.118484e+001 5.385361e-002 8.143975e-002 5.431041e-002 -2.857366e-002 -1.339527e-002 3.802916e-003 -5.061826e-002 -5.187181e-002 -2.691572e-003 -4.443252e-003 -2.137006e-002 -5.883710e-003 5.959263e-002 -4.983756e-004 -3.567080e-003 -1.418894e-002 1.108245e-002 2.057444e-002 5.896837e-003 5.012346e-003 5.598060e-003 4.660587e-003 -1.727515e-003 2.574851e-003 4.294311e-003 -1.124616e-002
<VARIANCE> 39
 8.658931e+001 9.168278e+001 1.065539e+002 1.230034e+002 1.126563e+002 7.193156e+001 9.071749e+001 8.763873e+001 6.163100e+001 6.510450e+001 6.569940e+001 4.268151e+001 2.525469e+002 2.491950e+000 3.251744e+000 3.721203e+000 4.333471e+000 4.920236e+000 4.115937e+000 5.023421e+000 5.022601e+000 4.228435e+000 4.072012e+000 3.710475e+000 3.022228e+000 3.271920e+000 3.723630e-001 4.585267e-001 5.264372e-001 6.745051e-001 8.044971e-001 7.452209e-001 8.817673e-001 8.706387e-001 7.977068e-001 7.554037e-001 6.805491e-001 5.771746e-001 3.843891e-001
<GCONST> 1.414676e+002
<STATE> 3
<MEAN> 39
 -8.586711e+000 -3.238930e+000 -1.145975e+000 -1.502038e+001 -8.574075e+000 -9.970082e+000 -6.251767e+000 -6.327040e+000 -1.892860e+000 -3.911379e+000 -3.623635e+000 -2.945428e+000 6.161349e+001 4.944848e-002 6.826119e-002 1.542067e-002 7.093218e-004 3.476440e-002 1.511249e-002 -3.657977e-002 -3.575248e-002 5.223955e-003 -1.081716e-002 -1.170297e-002 1.866728e-003 2.986410e-002 -7.688286e-004 -5.843848e-003 -1.501688e-002 7.571085e-003 1.703198e-002 4.199958e-003 5.710510e-003 7.000990e-003 2.678044e-003 -2.874558e-003 2.297915e-003 3.363297e-003 -7.054875e-003
<VARIANCE> 39
 8.644965e+001 9.331482e+001 1.078313e+002 1.271617e+002 1.126465e+002 7.230223e+001 9.090921e+001 8.879196e+001 6.173259e+001 6.656251e+001 6.600496e+001 4.331702e+001 2.425861e+002 2.511586e+000 3.316334e+000 3.797401e+000 4.452591e+000 4.977452e+000 4.135983e+000 5.040350e+000 5.037472e+000 4.236314e+000 4.107448e+000 3.728625e+000 3.046845e+000 3.373441e+000 3.754685e-001 4.654701e-001 5.340661e-001 6.875312e-001 8.138962e-001 7.486646e-001 8.818697e-001 8.719813e-001 7.987491e-001 7.600487e-001 6.825483e-001 5.802515e-001 3.950272e-001
<GCONST> 1.418214e+002
<STATE> 4
<MEAN> 39
 -8.363101e+000 -2.967288e+000 -1.073658e+000 -1.509216e+001 -8.494948e+000 -9.934878e+000 -6.388386e+000 -6.419177e+000 -1.892200e+000 -4.002068e+000 -3.657619e+000 -2.958534e+000 6.191913e+001 4.394355e-002 4.927198e-002 -2.594479e-002 2.297649e-002 7.358976e-002 2.333303e-002 -1.865187e-002 -1.687961e-002 8.223350e-003 -1.868862e-002 -3.099325e-003 6.704831e-003 9.109425e-003 -1.551783e-003 -7.345407e-003 -1.352941e-002 4.394670e-003 1.230269e-002 3.250796e-003 6.536751e-003 8.143784e-003 9.886133e-004 -3.224593e-003 2.481379e-003 1.827845e-003 -3.189206e-003
<VARIANCE> 39
 8.663182e+001 9.438718e+001 1.076423e+002 1.309884e+002 1.115811e+002 7.269733e+001 9.079189e+001 8.998539e+001 6.188677e+001 6.788657e+001 6.619202e+001 4.403894e+001 2.325739e+002 2.554227e+000 3.372259e+000 3.857403e+000 4.572567e+000 5.045844e+000 4.173501e+000 5.057562e+000 5.047564e+000 4.243580e+000 4.137965e+000 3.759809e+000 3.080003e+000 3.495019e+000 3.820644e-001 4.729888e-001 5.431339e-001 7.019089e-001 8.252003e-001 7.551349e-001 8.832579e-001 8.738903e-001 7.998593e-001 7.640019e-001 6.863505e-001 5.841278e-001 4.086908e-001
<GCONST> 1.421878e+002
<TRANSP> 5
 0.000000e+000 1.000000e+000 0.000000e+000 0.000000e+000 0.000000e+000
 0.000000e+000 7.772792e-001 2.227208e-001 0.000000e+000 0.000000e+000
 0.000000e+000 0.000000e+000 7.772836e-001 2.227164e-001 0.000000e+000
 0.000000e+000 0.000000e+000 0.000000e+000 7.772782e-001 2.227218e-001
 0.000000e+000 0.000000e+000 0.000000e+000 0.000000e+000 0.000000e+000
<ENDHMM>
~h "z"
<BEGINHMM>
<NUMSTATES> 5
<STATE> 2
<MEAN> 39
 -1.091244e+001 -5.256562e+000 -5.932545e+000 -9.881419e+000 -4.446641e+000 -8.500935e+000 -4.757469e+000 -4.704354e+000 -3.982600e-001 -3.055436e+000 1.584119e-001 -3.370522e+000 5.560761e+001 1.542072e-001 1.125863e-001 7.416073e-003 -3.719223e-002 -1.930182e-001 -8.574261e-003 -1.265198e-001 -1.066640e-001 -3.822354e-003 -9.839828e-002 -1.018939e-001 -3.659047e-003 3.269213e-001 -1.124579e-003 2.942102e-003 9.059702e-003 3.890618e-003 -5.492949e-003 -1.928363e-002 5.287627e-003 4.306357e-003 -4.685383e-003 -6.817647e-004 -4.780885e-003 -1.724551e-002 8.585476e-003
<VARIANCE> 39
 1.081306e+002 5.823033e+001 6.013221e+001 8.604352e+001 6.279003e+001 7.084852e+001 8.914893e+001 1.242728e+002 7.394230e+001 5.755613e+001 5.634571e+001 4.354143e+001 2.907221e+002 4.030018e+000 2.915415e+000 3.322949e+000 4.258368e+000 3.713383e+000 4.317450e+000 5.011926e+000 5.343328e+000 4.662645e+000 4.547068e+000 3.814608e+000 3.569965e+000 2.515189e+000 5.456184e-001 4.678427e-001 5.703778e-001 7.153227e-001 6.497617e-001 7.735121e-001 8.758580e-001 9.330557e-001 8.454345e-001 9.305877e-001 7.051668e-001 6.870136e-001 3.317272e-001
<GCONST> 1.410670e+002
<STATE> 3
<MEAN> 39
