~o
<STREAMINFO> 1 39
<VECSIZE> 39<NULLD><MFCC_D_A_0><DIAGC>
~h "a"
<BEGINHMM>
<NUMSTATES> 5
<STATE> 2
<NUMMIXES> 2
<MIXTURE> 1 6.186248e-001
<MEAN> 39
 -1.954953e+000 -1.267304e+001 -8.730664e+000 -1.891106e+001 -6.417741e+000 -1.357519e+001 -8.005171e+000 3.836684e+000 -1.113050e+000 -7.970786e+000 -8.899955e+000 -2.371678e+000 7.823132e+001 -1.631550e-001 -1.957118e+000 -4.493773e-001 -4.194138e-001 1.252452e+000 6.363566e-001 5.474204e-001 1.737267e+000 -5.166257e-001 -9.994053e-001 -7.341701e-001 6.604115e-001 1.164790e+000 -4.020825e-001 6.136984e-001 3.402553e-001 6.521888e-001 1.288917e-001 2.017463e-001 1.793914e-001 -7.063576e-001 -1.695495e-001 3.342439e-001 5.213433e-001 4.824695e-003 -8.179450e-001
<VARIANCE> 39
 4.316660e+001 3.278619e+001 6.765065e+001 7.380667e+001 1.067179e+002 8.175245e+001 9.566761e+001 7.689144e+001 7.169414e+001 7.616570e+001 6.860902e+001 5.855716e+001 1.456366e+001 1.833875e+000 2.635507e+000 4.052912e+000 4.004062e+000 5.097635e+000 4.676406e+000 5.334442e+000 6.227256e+000 4.582119e+000 4.855498e+000 4.415717e+000 3.826774e+000 1.463977e+000 4.505529e-001 4.820013e-001 5.227988e-001 6.043798e-001 9.947342e-001 8.578724e-001 9.631091e-001 9.929775e-001 8.933360e-001 8.342766e-001 8.818346e-001 7.154706e-001 4.960202e-001
<GCONST> 1.380167e+002
<MIXTURE> 2 3.813141e-001
<MEAN> 39
 -3.233911e+000 -1.046719e+001 -1.037987e+001 -1.455693e+001 -5.888288e+000 -1.133002e+001 -6.591823e+000 -6.475011e-001 -2.140219e+000 -1.065981e+001 -4.656427e+000 -9.517556e-002 6.980687e+001 4.976254e-001 -1.688966e+000 -7.582711e-001 -8.343257e-001 6.636712e-001 2.163599e-001 -1.649643e-001 1.234453e+000 -4.678323e-001 -1.266664e+000 -4.123835e-001 5.056590e-001 2.481853e+000 -3.500808e-001 2.315952e-001 3.131677e-001 1.512384e-001 1.177472e-001 6.047739e-002 9.141355e-002 -2.921171e-001 -3.455342e-002 3.803451e-001 9.358961e-002 -2.076969e-001 -4.313568e-001
<VARIANCE> 39
 5.848118e+001 6.409250e+001 9.637045e+001 8.264875e+001 1.033516e+002 8.739193e+001 9.234576e+001 8.311319e+001 7.299966e+001 8.627314e+001 7.104797e+001 5.486094e+001 1.650943e+002 5.125114e+000 5.363722e+000 6.206274e+000 6.286824e+000 7.726543e+000 6.525234e+000 7.276025e+000 9.316300e+000 6.265954e+000 6.249914e+000 6.042095e+000 4.871562e+000 8.513620e+000 7.937409e-001 1.000786e+000 9.979740e-001 9.301839e-001 1.137433e+000 1.031702e+000 1.125191e+000 1.269896e+000 1.053209e+000 1.115012e+000 9.547557e-001 8.595364e-001 1.602278e+000
<GCONST> 1.540187e+002
<STATE> 3
<NUMMIXES> 2
<MIXTURE> 1 5.431814e-001
<MEAN> 39
 -1.045397e+000 -1.499784e+001 -7.048540e+000 -2.014658e+001 -1.327851e+000 -1.495739e+001 -7.109064e+000 5.211786e+000 -1.883515e+000 -7.253195e+000 -8.815125e+000 -3.431833e+000 7.893105e+001 1.343051e-001 2.928080e-001 2.218927e-002 3.780385e-001 2.550652e-002 -4.226774e-002 -2.432354e-001 -1.035179e-001 -1.412216e-001 -1.270022e-001 3.352326e-001 -9.058221e-002 -2.954609e-001 7.703604e-002 5.337229e-001 1.340651e-001 2.242685e-001 -3.306132e-001 2.595966e-002 -1.866046e-001 -4.346730e-001 1.589262e-002 1.820626e-001 2.766025e-001 -8.858533e-002 -3.537942e-001
<VARIANCE> 39
 4.090543e+001 2.609050e+001 3.880828e+001 7.946297e+001 1.061192e+002 7.383226e+001 1.133708e+002 8.108131e+001 7.060692e+001 5.537449e+001 5.414292e+001 6.306520e+001 7.586103e+000 5.829259e-001 1.504428e+000 1.628830e+000 1.352660e+000 2.925923e+000 2.455414e+000 3.429819e+000 2.777826e+000 2.452793e+000 2.795772e+000 2.288979e+000 2.392420e+000 5.083855e-001 1.093665e-001 2.075782e-001 2.315346e-001 3.033277e-001 3.848239e-001 3.920628e-001 5.801581e-001 6.266546e-001 5.064890e-001 4.819216e-001 4.173910e-001 4.231616e-001 1.205676e-001
<GCONST> 1.164399e+002
<MIXTURE> 2 4.567180e-001
<MEAN> 39
 -5.293636e+000 -1.519889e+001 -1.200224e+001 -1.266478e+001 -4.545545e+000 -7.530866e+000 -8.276551e+000 1.642601e+000 -5.554930e+000 -1.191591e+001 -7.074605e+000 -2.028694e-001 7.833429e+001 2.787238e-002 4.491479e-001 5.651924e-002 2.774504e-001 -2.507855e-002 -1.572713e-001 -2.287750e-001 -3.536766e-001 -1.044457e-001 -7.751354e-002 1.897756e-002 -2.915745e-001 -4.169263e-001 6.513647e-002 5.655746e-001 2.566057e-001 -8.930355e-002 -2.571511e-001 -3.327259e-001 -1.197357e-001 -2.906377e-001 1.712135e-001 2.690611e-001 2.545092e-003 -2.637412e-001 -3.870208e-001
<VARIANCE> 39
 4.287597e+001 2.859275e+001 4.101865e+001 5.487667e+001 6.502457e+001 4.495696e+001 8.239555e+001 5.974940e+001 6.782559e+001 5.622371e+001 6.899413e+001 3.789458e+001 2.781503e+001 6.590322e-001 1.641240e+000 1.450602e+000 1.703221e+000 2.892977e+000 2.245419e+000 2.958111e+000 2.252909e+000 2.474837e+000 2.396938e+000 2.121912e+000 2.007753e+000 6.429524e-001 1.296889e-001 2.439370e-001 2.542067e-001 2.668653e-001 3.729631e-001 3.794177e-001 4.631720e-001 4.598785e-001 4.602479e-001 4.426642e-001 4.199089e-001 3.483486e-001 1.489112e-001
<GCONST> 1.149060e+002
<STATE> 4
<NUMMIXES> 2
<MIXTURE> 1 4.929073e-001
<MEAN> 39
 -5.274397e-001 -6.350067e+000 -6.881045e+000 -1.356277e+001 -4.414853e+000 -1.405750e+001 -1.093639e+001 1.852545e+000 -1.540612e+000 -9.173444e+000 -6.522317e+000 -4.547168e+000 7.113171e+001 -2.349175e-001 2.175153e+000 6.799458e-001 1.567228e+000 8.007357e-002 3.736139e-001 2.834510e-002 -8.585619e-001 9.492727e-002 -2.585674e-002 8.292315e-001 -2.047170e-001 -2.360332e+000 -3.927782e-001 -9.570882e-002 -9.119034e-002 1.607143e-001 1.804719e-001 3.187676e-001 5.136345e-001 7.273474e-002 1.627701e-003 5.709936e-002 7.823786e-002 1.068930e-001 -1.321187e-001
<VARIANCE> 39
 5.147883e+001 3.982125e+001 4.709027e+001 8.612409e+001 1.116769e+002 6.814070e+001 1.056658e+002 9.329036e+001 6.674532e+001 9.822822e+001 5.883985e+001 5.496694e+001 3.925050e+001 1.948187e+000 2.281565e+000 2.219232e+000 2.493099e+000 4.159621e+000 3.945976e+000 5.887298e+000 4.961158e+000 3.769993e+000 4.055700e+000 3.595806e+000 3.359720e+000 2.130670e+000 2.778791e-001 4.001113e-001 4.012541e-001 4.907571e-001 6.485400e-001 6.407342e-001 8.673856e-001 8.040012e-001 6.417195e-001 7.629340e-001 6.487658e-001 5.813807e-001 3.037794e-001
<GCONST> 1.336929e+002
<MIXTURE> 2 5.070111e-001
<MEAN> 39
 -2.226059e+000 -6.724703e+000 -1.028973e+001 -1.266689e+001 -3.920533e+000 -1.071023e+001 -6.934023e+000 8.089262e-001 -2.494704e+000 -1.282860e+001 -4.553950e+000 -4.618283e+000 6.728466e+001 -5.495171e-001 1.264124e+000 6.107604e-001 3.410310e-001 -7.151143e-001 -2.301437e-001 5.329036e-001 -1.128490e+000 -2.364691e-001 6.826726e-001 -1.511828e-002 -5.086753e-001 -1.423173e+000 -9.379032e-002 6.276817e-005 1.941522e-001 -2.249055e-002 4.035335e-003 -3.598998e-002 -4.708906e-002 -1.466876e-001 -9.302745e-003 2.165342e-001 -3.118337e-004 5.383870e-002 -2.156165e-002
<VARIANCE> 39
 6.175557e+001 6.105461e+001 7.604095e+001 8.359840e+001 9.147524e+001 6.511529e+001 9.776646e+001 1.001591e+002 8.465803e+001 7.669020e+001 5.590498e+001 5.777006e+001 1.021271e+002 1.541615e+000 2.472235e+000 3.275707e+000 2.903055e+000 3.866297e+000 3.729951e+000 4.821041e+000 4.921846e+000 4.388244e+000 4.026644e+000 3.614003e+000 3.576558e+000 1.075733e+000 1.514193e-001 3.356698e-001 4.239309e-001 4.851254e-001 5.749046e-001 5.974181e-001 7.873898e-001 8.324010e-001 7.779664e-001 6.605816e-001 6.341420e-001 6.065900e-001 1.864536e-001
<GCONST> 1.336128e+002
<TRANSP> 5
 0.000000e+000 1.000000e+000 0.000000e+000 0.000000e+000 0.000000e+000
 0.000000e+000 5.514543e-001 4.485457e-001 0.000000e+000 0.000000e+000
 0.000000e+000 0.000000e+000 7.780754e-001 2.219246e-001 0.000000e+000
 0.000000e+000 0.000000e+000 0.000000e+000 7.007638e-001 2.992363e-001
 0.000000e+000 0.000000e+000 0.000000e+000 0.000000e+000 0.000000e+000
<ENDHMM>
~h "b"
<BEGINHMM>
<NUMSTATES> 5
<STATE> 2
<NUMMIXES> 2
<MIXTURE> 1 5.150360e-001
<MEAN> 39
 -6.645642e+000 -9.381146e+000 -1.034900e+001 -1.502492e+001 -4.494015e+000 -8.706734e+000 -6.861873e+000 -2.958747e+000 1.222084e+000 -1.256214e+000 -9.087425e+000 -7.359341e+000 6.038965e+001 -5.388393e-001 -1.271163e+000 -7.940935e-001 -3.383039e-001 5.198385e-001 6.112987e-001 9.691336e-001 1.219986e+000 4.119579e-001 -5.404652e-001 -7.356288e-001 4.757101e-001 1.028022e+000 -1.487905e-001 1.225744e-001 2.707654e-001 5.413650e-001 1.785981e-001 2.832394e-001 2.050121e-001 -2.246639e-001 -3.799790e-001 -2.565772e-001 2.548325e-001 3.052805e-001 -3.040035e-001
<VARIANCE> 39
 4.059017e+001 6.891879e+001 5.868364e+001 6.583749e+001 2.945570e+001 5.279913e+001 8.752915e+001 6.976629e+001 3.465631e+001 3.637809e+001 8.401155e+001 6.086503e+001 2.423052e+002 9.599734e-001 3.532898e+000 2.216130e+000 5.497890e+000 2.210426e+000 2.919363e+000 3.080743e+000 4.870465e+000 3.467627e+000 4.757461e+000 4.052572e+000 3.387188e+000 3.173872e+000 1.304749e-001 4.064342e-001 3.156373e-001 7.603228e-001 3.772849e-001 5.723884e-001 6.412017e-001 8.367532e-001 5.439003e-001 8.128544e-001 6.630508e-001 4.708452e-001 2.652864e-001
<GCONST> 1.301539e+002
<MIXTURE> 2 4.849635e-001
<MEAN> 39
 -9.067431e+000 -1.075414e+001 -9.514545e+000 -1.317637e+001 -2.733800e+000 -6.289956e+000 -3.247245e+000 -3.898712e+000 -1.892271e+000 -3.939689e+000 -5.499260e+000 -4.146682e+000 5.683957e+001 -1.936318e-001 -6.587486e-002 1.866134e-001 2.998984e-001 1.476639e-001 8.585390e-002 5.314524e-002 -3.026623e-001 -8.276967e-001 -1.003199e+000 -4.552124e-001 1.928477e-001 1.640352e-001 1.170967e-001 1.034307e-001 3.596538e-002 -4.545785e-002 -2.183308e-002 -1.915168e-001 -2.596886e-001 -7.227797e-002 -3.440956e-002 7.948845e-002 -7.837828e-002 -1.458556e-001 -3.827794e-002
<VARIANCE> 39
 4.058739e+001 1.054676e+002 6.459723e+001 7.502333e+001 4.120901e+001 6.653008e+001 8.220586e+001 7.388734e+001 3.797978e+001 4.673158e+001 9.363993e+001 5.257357e+001 2.531243e+002 9.984480e-001 2.763650e+000 2.247781e+000 2.533596e+000 2.056619e+000 2.743786e+000 3.885564e+000 5.136343e+000 2.606181e+000 2.757562e+000 3.390813e+000 3.217595e+000 1.816229e+000 1.221718e-001 5.387357e-001 4.564936e-001 5.444478e-001 3.807419e-001 4.194380e-001 7.478834e-001 1.007494e+000 6.117249e-001 6.072018e-001 7.129453e-001 4.642382e-001 3.486881e-001
<GCONST> 1.297272e+002
<STATE> 3
<NUMMIXES> 2
<MIXTURE> 1 7.946008e-001
<MEAN> 39
 -1.761152e+001 -1.232138e+001 -6.033310e+000 -8.645125e+000 -1.950181e+000 -7.833961e+000 -3.501201e-001 -5.539384e+000 1.168279e+000 -3.455802e+000 9.015811e-001 -2.856982e+000 3.985520e+001 2.641490e-002 2.811707e-002 7.025063e-004 7.159390e-002 5.518566e-002 4.208804e-002 1.431259e-002 2.606939e-002 -3.978802e-003 4.423130e-002 2.624444e-002 -4.353212e-002 -2.213099e-002 4.067633e-002 2.990510e-002 3.904735e-003 -3.293820e-002 -3.352398e-002 -3.256441e-002 5.540607e-004 5.985856e-002 1.399140e-002 -1.629632e-002 -2.758636e-002 -1.869823e-002 2.293994e-002
<VARIANCE> 39
 2.961162e+000 4.268990e+000 6.727839e+000 9.106867e+000 1.080241e+001 1.223637e+001 1.727764e+001 1.718119e+001 2.053607e+001 1.647055e+001 1.457495e+001 1.562785e+001 5.272161e+000 2.036677e-001 4.090349e-001 7.319625e-001 1.281405e+000 1.462924e+000 1.832111e+000 1.881934e+000 2.282146e+000 2.761081e+000 2.160069e+000 1.945052e+000 2.014039e+000 4.088388e-002 5.011048e-002 9.501392e-002 1.604565e-001 2.756281e-001 3.108587e-001 3.943523e-001 4.019085e-001 4.645457e-001 6.087167e-001 4.733709e-001 3.796226e-001 4.352315e-001 9.397568e-003
<GCONST> 8.171474e+001
<MIXTURE> 2 2.054009e-001
<MEAN> 39
 -1.358612e+001 -1.151090e+001 -7.683733e+000 -1.090796e+001 -3.155564e+000 -7.422353e+000 -2.195149e+000 -3.227437e+000 8.592482e-001 -4.227172e+000 -4.233696e+000 -3.302759e+000 5.068645e+001 -2.382850e-001 -1.667367e-001 1.747125e-001 1.000734e-001 5.089511e-002 -1.220301e-001 -1.449894e-001 -7.832624e-002 -4.074555e-001 -4.051429e-001 -9.786408e-002 3.499776e-001 -8.701076e-002 3.598412e-002 7.606588e-002 8.341707e-002 6.197156e-002 5.170292e-002 -7.662696e-002 -1.915004e-001 -2.295154e-001 -1.610803e-001 1.236746e-001 1.091163e-001 -7.433940e-002 -1.088448e-001
<VARIANCE> 39
 3.270686e+001 3.184724e+001 2.123638e+001 3.123535e+001 2.451662e+001 3.919300e+001 4.339787e+001 3.852852e+001 3.841872e+001 3.200443e+001 7.988764e+001 2.882265e+001 2.974432e+002 2.656954e-001 4.572184e-001 9.063889e-001 1.273470e+000 1.719339e+000 1.916499e+000 2.070253e+000 2.668004e+000 2.663670e+000 2.084652e+000 2.298186e+000 2.074498e+000 9.684079e-002 8.964195e-002 1.514190e-001 1.689575e-001 3.195887e-001 3.245953e-001 4.656915e-001 3.987963e-001 5.207809e-001 5.259011e-001 5.512335e-001 5.880990e-001 4.159249e-001 5.223480e-002
<GCONST> 1.055645e+002
<STATE> 4
<NUMMIXES> 2
<MIXTURE> 1 2.754194e-001
<MEAN> 39
 -1.091728e+001 -6.502556e+000 -5.065289e+000 -1.005116e+001 -3.492510e+000 -1.046665e+001 -6.291813e+000 -6.262046e+000 -3.490491e+000 -3.432412e+000 -4.326390e+000 -4.318916e+000 5.191656e+001 7.335415e-001 1.112699e+000 8.353580e-001 4.197445e-001 -1.125186e-001 -3.488845e-001 -3.837015e-001 -7.899109e-001 -1.012363e+000 -3.540302e-001 4.190468e-003 -2.611584e-001 -4.034522e-002 5.173495e-001 3.845359e-001 1.820175e-001 1.554479e-001 -2.435173e-002 1.634318e-001 -1.728073e-001 -1.974641e-001 -9.832554e-002 -2.443107e-001 -3.787490e-002 -5.587575e-002 3.392899e-001
<VARIANCE> 39
 5.032877e+001 6.168402e+001 3.591238e+001 7.252959e+001 3.085539e+001 3.942446e+001 6.128556e+001 4.554696e+001 4.252455e+001 4.852132e+001 7.985452e+001 4.044961e+001 2.808660e+002 9.943317e-001 1.757213e+000 1.269249e+000 1.805364e+000 1.891580e+000 2.319237e+000 3.339139e+000 5.095862e+000 3.957432e+000 3.508604e+000 2.677997e+000 1.821572e+000 5.942352e-001 4.654741e-001 9.369015e-001 5.091329e-001 4.071341e-001 3.472868e-001 5.357958e-001 8.490975e-001 9.249401e-001 8.121001e-001 5.775284e-001 6.324943e-001 4.693041e-001 1.850147e-001
<GCONST> 1.253804e+002
<MIXTURE> 2 7.245809e-001
<MEAN> 39
 -7.436128e+000 -1.528395e+001 -8.991979e+000 -1.392273e+001 7.516208e-002 -4.965602e+000 -9.160665e+000 -9.199905e-001 -7.120450e+000 -6.802974e+000 -1.962934e+001 -1.414227e+000 7.811567e+001 3.187552e-001 9.166011e-001 8.162342e-001 -4.461043e-001 3.840554e-001 -1.185053e+000 -3.445022e-001 -3.804086e-001 -8.180656e-001 7.813189e-001 -2.964738e-001 -6.918395e-001 -7.137202e-001 1.908642e-001 3.336434e-001 7.285663e-002 -7.101218e-002 -2.832683e-001 -2.862550e-001 -1.118647e-001 -3.104557e-001 3.222986e-001 4.744242e-001 8.413348e-002 -2.430845e-001 -2.258802e-001
<VARIANCE> 39
 5.529135e+000 1.003899e+001 1.094500e+001 1.422792e+001 2.571049e+001 3.225821e+001 2.416905e+001 2.990985e+001 3.166240e+001 1.997772e+001 1.459405e+001 3.073297e+001 5.878440e+000 2.393828e-001 6.269981e-001 3.008375e-001 7.289687e-001 1.054190e+000 1.690687e+000 9.229122e-001 1.598150e+000 1.607379e+000 1.734136e+000 1.225473e+000 1.563461e+000 2.157848e-001 2.003005e-002 4.484382e-002 4.914726e-002 1.799538e-001 2.169230e-001 2.544422e-001 1.610991e-001 3.047035e-001 2.534972e-001 2.094000e-001 2.105254e-001 2.238992e-001 1.114707e-002
<GCONST> 7.792599e+001
<TRANSP> 5
 0.000000e+000 1.000000e+000 0.000000e+000 0.000000e+000 0.000000e+000
 0.000000e+000 7.735737e-001 2.264263e-001 0.000000e+000 0.000000e+000
 0.000000e+000 0.000000e+000 9.094936e-001 9.050631e-002 0.000000e+000
 0.000000e+000 0.000000e+000 0.000000e+000 7.286136e-001 2.713865e-001
 0.000000e+000 0.000000e+000 0.000000e+000 0.000000e+000 0.000000e+000
<ENDHMM>
~h "c"
<BEGINHMM>
<NUMSTATES> 5
<STATE> 2
<NUMMIXES> 2
<MIXTURE> 1 3.521082e-001
<MEAN> 39
 -1.074592e+001 2.983101e+000 -1.296154e+000 -3.097198e+000 -5.964773e+000 -7.411768e+000 -4.643751e+000 -4.813004e+000 -7.541039e-001 -1.295650e+000 8.722270e-001 -3.941014e-001 5.290337e+001 -1.051936e+000 -1.082183e+000 -9.977226e-001 3.466918e-001 1.753724e+000 1.349041e+000 1.167143e+000 1.178981e+000 6.039632e-002 3.288345e-001 7.101601e-001 3.631788e-001 -4.144281e-001 2.796342e-001 -4.423939e-001 -5.601312e-001 -7.620272e-001 -8.633110e-002 -1.350359e-001 -2.073044e-001 -1.187546e-001 -1.854102e-001 2.018600e-001 -3.275125e-001 -1.063743e-001 7.862868e-001
<VARIANCE> 39
 2.741172e+001 4.777333e+001 2.141730e+001 4.153792e+001 5.052340e+001 4.343306e+001 3.721490e+001 3.164634e+001 2.518662e+001 3.122798e+001 2.974235e+001 2.542405e+001 7.922403e+001 1.592646e+000 2.823576e+000 3.490609e+000 3.560471e+000 3.448950e+000 3.473874e+000 3.269864e+000 3.126383e+000 3.301742e+000 3.410076e+000 3.742063e+000 2.552999e+000 2.186949e+000 3.153302e-001 5.229928e-001 7.019861e-001 6.442518e-001 7.260628e-001 7.467673e-001 6.875021e-001 6.828105e-001 5.805236e-001 6.668744e-001 7.193123e-001 4.889977e-001 4.105980e-001
<GCONST> 1.255224e+002
<MIXTURE> 2 6.478869e-001
<MEAN> 39
 -1.251839e+001 -2.656763e+000 -7.615858e+000 -1.201494e+001 -8.706241e+000 -1.112212e+001 -5.096740e+000 -7.966853e+000 -1.098687e+000 -3.824264e+000 1.115746e+000 -3.365754e+000 5.387822e+001 -3.277927e-001 -2.178927e-001 -1.729425e-001 2.087392e-002 3.134056e-002 -6.480648e-002 1.045520e-001 5.715220e-002 -2.444498e-003 2.849679e-001 2.074906e-001 6.884038e-002 -5.037566e-001 2.049262e-001 -2.445113e-002 -6.233719e-003 -8.451232e-002 1.247058e-001 4.821676e-002 -6.328474e-002 6.841525e-002 -8.919027e-002 -1.473118e-002 -6.952774e-002 2.053704e-002 1.954427e-001
<VARIANCE> 39
 5.516948e+001 8.807569e+001 4.178185e+001 4.227305e+001 9.012540e+001 8.012022e+001 8.620210e+001 7.730665e+001 6.174171e+001 5.344381e+001 6.597947e+001 9.134682e+001 1.257858e+002 2.029062e+000 1.834542e+000 2.430546e+000 3.160568e+000 3.798723e+000 4.145053e+000 4.167203e+000 4.312319e+000 4.362481e+000 4.576691e+000 4.077104e+000 4.263338e+000 1.947830e+000 3.143473e-001 3.999057e-001 5.193877e-001 6.681765e-001 7.899751e-001 8.936328e-001 9.563784e-001 9.265194e-001 9.684071e-001 9.462084e-001 7.659470e-001 8.770311e-001 3.516522e-001
<GCONST> 1.373549e+002
<STATE> 3
<NUMMIXES> 2
<MIXTURE> 1 5.295522e-001
<MEAN> 39
 -1.089003e+001 -4.471050e+000 -8.480844e+000 -9.533383e+000 -2.675819e-001 -5.246835e+000 -1.630885e+000 -2.049058e+000 -2.163820e+000 -2.749377e+000 -1.553435e+000 -7.754515e-001 5.243121e+001 1.289944e+000 -8.362073e-001 -2.445982e+000 -2.213874e+000 3.475755e-001 -2.257361e-001 -3.233221e-001 1.048348e+000 -1.156454e+000 7.830656e-001 3.087494e-001 4.394400e-001 2.756355e+000 5.854282e-001 3.684707e-001 8.082917e-002 -4.544902e-001 -6.430935e-001 -5.805716e-001 -5.356832e-001 -3.314357e-001 -1.766623e-001 8.816826e-002 -5.043548e-002 -1.017759e-001 8.824840e-001
<VARIANCE> 39
 3.382365e+001 6.193026e+001 5.881567e+001 7.897540e+001 7.401199e+001 6.906174e+001 4.627693e+001 6.168473e+001 5.767934e+001 6.116290e+001 3.852335e+001 2.687769e+001 1.116443e+002 4.516109e+000 7.937950e+000 9.374619e+000 9.115397e+000 1.065551e+001 1.293683e+001 7.814545e+000 6.521649e+000 7.306353e+000 5.709370e+000 4.678389e+000 4.397515e+000 7.290593e+000 4.513684e-001 9.173799e-001 1.236692e+000 1.136456e+000 1.296984e+000 1.234744e+000 1.096215e+000 1.081562e+000 1.089561e+000 8.033816e-001 7.522321e-001 5.602816e-001 1.054375e+000
<GCONST> 1.488717e+002
<MIXTURE> 2 4.704464e-001
<MEAN> 39
 -1.199304e+001 -3.679098e+000 -1.049589e+001 -9.596348e+000 -6.495838e-001 -5.174358e+000 -2.906529e+000 -3.738347e+000 -1.167820e+000 2.231002e+000 3.507208e-001 -1.042149e+000 5.873613e+001 1.187973e+000 -1.403746e-001 -6.774366e-001 -1.668312e+000 -4.542588e-001 -7.968460e-001 -1.259988e+000 -1.508452e-001 -9.752881e-001 3.679553e-002 -6.042005e-001 -2.252711e-001 1.676106e+000 7.710477e-001 4.912817e-001 5.474338e-001 -5.082092e-001 -8.934189e-001 -7.009429e-001 -6.241711e-001 -2.179374e-001 -2.828052e-001 -4.828721e-001 -3.611678e-001 -6.838507e-002 5.093624e-001
<VARIANCE> 39
 6.108723e+001 5.559956e+001 7.315827e+001 9.536495e+001 1.040543e+002 8.151946e+001 7.445789e+001 9.121584e+001 7.528176e+001 6.741517e+001 4.259163e+001 5.393440e+001 9.349600e+001 3.265962e+000 5.708695e+000 8.245793e+000 7.069019e+000 1.009549e+001 8.798529e+000 8.436026e+000 8.083541e+000 6.334482e+000 5.089461e+000 4.880156e+000 3.801491e+000 3.991651e+000 5.428519e-001 8.278209e-001 1.337945e+000 1.315297e+000 1.733192e+000 1.387513e+000 1.463360e+000 1.393089e+000 1.185897e+000 1.011740e+000 8.636581e-001 9.268169e-001 7.119773e-001
<GCONST> 1.517896e+002
<STATE> 4
<NUMMIXES> 2
<MIXTURE> 1 4.826811e-001
<MEAN> 39
 -3.245530e+000 -4.700663e+000 -1.216376e+001 -1.741991e+001 -2.210790e+000 -1.418064e+001 -8.786262e+000 -7.526909e-001 -6.251461e+000 1.147824e-001 -2.559382e+000 -4.856190e+000 6.534237e+001 1.366171e+000 -2.118218e-001 -9.603642e-002 -1.173780e+000 -3.713257e-001 -1.524486e+000 -4.828925e-001 7.710478e-001 -2.618341e-001 -2.070601e-001 -4.155072e-001 4.447723e-001 3.174219e+000 -1.163496e-001 8.974076e-002 6.676012e-001 1.091478e-001 -4.610783e-001 3.528438e-001 4.301704e-001 -5.537026e-001 4.859572e-001 -3.434935e-001 -3.327598e-002 3.706542e-001 -3.757769e-001
<VARIANCE> 39
 5.661405e+001 6.713411e+001 1.754646e+002 1.553234e+002 1.496276e+002 2.172190e+002 1.627318e+002 1.451644e+002 1.494181e+002 1.013893e+002 7.488235e+001 6.995299e+001 7.658517e+001 5.989813e+000 7.670859e+000 1.024580e+001 1.020576e+001 1.167637e+001 1.211166e+001 1.405332e+001 1.307651e+001 1.121276e+001 8.693221e+000 7.055836e+000 6.480180e+000 8.092393e+000 9.061586e-001 1.235820e+000 1.788647e+000 2.071192e+000 2.467551e+000 2.595485e+000 2.515669e+000 2.049550e+000 2.022352e+000 1.418100e+000 1.214275e+000 1.193857e+000 1.092703e+000
<GCONST> 1.686893e+002
<MIXTURE> 2 5.173178e-001
<MEAN> 39
 -6.321045e+000 -2.964171e+000 -1.009301e+001 -1.697948e+001 -5.849277e+000 -1.006203e+001 -6.515340e+000 -4.480643e+000 -5.940703e+000 -4.892863e-001 -8.811781e-001 -1.331356e+000 6.467428e+001 2.328352e+000 1.107542e+000 3.564757e-001 -2.039998e+000 -2.112607e+000 -1.196075e+000 -1.650022e+000 -1.226663e+000 -8.553154e-001 -5.952644e-001 -6.150972e-001 -6.851368e-002 2.544804e+000 1.955973e-002 1.117377e-002 4.131314e-001 1.176594e-001 -3.733836e-002 1.443188e-001 3.232494e-002 -7.655524e-002 3.263600e-001 -1.372535e-001 -1.438110e-001 -6.423701e-002 -2.941683e-001
<VARIANCE> 39
 7.337315e+001 9.307285e+001 1.335031e+002 1.044436e+002 9.778815e+001 1.113752e+002 1.006628e+002 1.005702e+002 8.595000e+001 6.668543e+001 5.999019e+001 4.530346e+001 8.588966e+001 5.016750e+000 5.285827e+000 7.547681e+000 7.978453e+000 7.479400e+000 6.918449e+000 7.762856e+000 7.760815e+000 6.373103e+000 5.079404e+000 4.711853e+000 4.085374e+000 7.953947e+000 7.060392e-001 1.251969e+000 1.466287e+000 1.392962e+000 1.557911e+000 1.361262e+000 1.313621e+000 1.709764e+000 1.178525e+000 1.079488e+000 1.044713e+000 7.584454e-001 1.233357e+000
<GCONST> 1.558801e+002
<TRANSP> 5
 0.000000e+000 1.000000e+000 0.000000e+000 0.000000e+000 0.000000e+000
 0.000000e+000 7.904827e-001 2.095173e-001 0.000000e+000 0.000000e+000
 0.000000e+000 0.000000e+000 5.772879e-001 4.227120e-001 0.000000e+000
 0.000000e+000 0.000000e+000 0.000000e+000 5.520824e-001 4.479176e-001
 0.000000e+000 0.000000e+000 0.000000e+000 0.000000e+000 0.000000e+000
<ENDHMM>
~h "d"
<BEGINHMM>
<NUMSTATES> 5
<STATE> 2
<NUMMIXES> 2
<MIXTURE> 1 4.937303e-001
<MEAN> 39
 -1.083629e+001 -3.432393e+000 -1.975528e+000 -1.137933e+001 -9.163836e+000 -1.327829e+001 -4.486443e+000 -5.683918e+000 -1.369416e+000 -2.737973e+000 -4.035975e+000 -1.772986e+000 5.613241e+001 6.119713e-001 1.043198e+000 1.669410e-001 1.471024e+000 2.171407e-001 3.649647e-001 -1.197339e-001 -3.886866e-001 -3.505462e-001 -5.653998e-001 5.713568e-001 4.283479e-001 -1.090887e+000 5.155138e-001 3.959035e-001 1.922324e-001 -1.106085e-001 -1.797544e-001 -7.997748e-002 -1.323095e-001 -1.749743e-001 -4.690573e-002 -1.434816e-001 -1.435654e-001 -6.371647e-002 3.012978e-001
<VARIANCE> 39
 6.215250e+001 3.307854e+001 2.759859e+001 5.408265e+001 1.015413e+002 6.437930e+001 3.248182e+001 4.850953e+001 4.150403e+001 4.800085e+001 4.402190e+001 2.672495e+001 3.009525e+002 3.280973e+000 4.176359e+000 3.184581e+000 3.145830e+000 4.657336e+000 4.572362e+000 3.009994e+000 3.218741e+000 2.442321e+000 4.692080e+000 3.741614e+000 3.120915e+000 4.722548e+000 7.376519e-001 8.364683e-001 2.358930e-001 2.941913e-001 1.068050e+000 9.265367e-001 4.544462e-001 6.534295e-001 4.526386e-001 5.911769e-001 7.373988e-001 6.902832e-001 6.617458e-001
<GCONST> 1.330542e+002
<MIXTURE> 2 5.062702e-001
<MEAN> 39
 -1.332327e+001 -5.115237e+000 -3.278081e+000 -8.061656e+000 -2.129106e+000 -1.096129e+001 -5.870512e+000 -7.339272e+000 -2.206226e+000 -3.398432e+000 -2.122181e+000 -2.588316e+000 4.916355e+001 1.487057e+000 1.760017e+000 6.271846e-001 -2.542584e-002 -1.046245e+000 -1.290455e+000 -1.344112e+000 -1.005758e+000 -1.263145e+000 -5.904730e-001 -7.816395e-001 -7.862013e-001 3.177358e-001 5.086130e-001 6.849457e-001 3.221416e-001 -2.514073e-001 -4.632569e-001 -4.065529e-001 -3.096451e-001 3.020056e-002 -1.113122e-001 -1.280398e-001 -3.069338e-001 -2.157875e-001 3.438636e-001
<VARIANCE> 39
 3.055326e+001 5.700373e+001 4.115345e+001 1.168441e+002 7.921853e+001 6.205599e+001 7.777044e+001 4.279345e+001 4.325797e+001 5.156044e+001 2.799428e+001 2.891782e+001 1.861979e+002 3.866464e+000 5.511296e+000 3.150735e+000 5.655011e+000 6.121941e+000 4.638876e+000 4.892933e+000 6.130068e+000 4.935338e+000 5.948619e+000 1.375332e+000 2.163281e+000 1.958137e+000 5.239161e-001 8.762108e-001 5.126866e-001 7.676105e-001 9.578802e-001 9.449769e-001 1.084399e+000 9.863288e-001 7.692416e-001 1.040014e+000 4.552728e-001 5.380620e-001 1.957772e-001
<GCONST> 1.366861e+002
<STATE> 3
<NUMMIXES> 2
<MIXTURE> 1 6.461743e-001
<MEAN> 39
 -2.593932e+000 7.314819e+000 6.777892e-001 -7.835148e+000 -1.356559e+001 -1.352431e+001 -6.775561e+000 -7.076993e+000 -3.687600e+000 -8.229528e+000 -5.750463e+000 -3.076046e+000 5.508833e+001 -1.676095e-001 4.228942e-001 1.126089e-001 5.878156e-001 6.553555e-001 6.198043e-001 2.540277e-001 -6.480051e-002 1.864442e-001 -8.170373e-003 -1.263746e-001 -4.361615e-001 -5.331552e-001 -3.183309e-001 -4.015151e-001 -1.901719e-003 -2.051881e-001 8.333453e-002 3.413856e-002 -4.692439e-002 -1.583451e-002 7.261644e-002 3.194306e-001 8.044049e-002 1.078690e-001 3.587151e-001
<VARIANCE> 39
 3.851719e+001 3.747655e+001 2.619513e+001 4.841386e+001 3.916323e+001 4.315691e+001 5.625710e+001 4.640622e+001 2.514182e+001 4.095299e+001 3.027225e+001 3.048233e+001 1.447240e+002 1.535269e+000 2.088972e+000 1.979107e+000 1.970739e+000 3.340013e+000 3.128489e+000 3.376501e+000 3.397695e+000 1.983546e+000 2.842981e+000 3.166657e+000 3.106878e+000 2.867153e+000 2.140500e-001 3.020603e-001 2.600071e-001 5.470927e-001 6.548331e-001 7.640892e-001 6.645009e-001 7.122795e-001 4.008107e-001 7.254495e-001 5.372081e-001 6.491960e-001 4.402592e-001
<GCONST> 1.232804e+002
<MIXTURE> 2 3.538257e-001
<MEAN> 39
 -3.237081e+000 6.918921e+000 2.805941e+000 -5.399137e+000 -1.035430e+001 -1.402194e+001 -9.937455e+000 -1.160019e+001 -6.220780e+000 -8.193492e+000 -3.921104e+000 -4.992910e+000 4.926141e+001 3.183755e+000 3.612664e+000 8.480816e-001 -1.265867e+000 -2.876678e+000 -2.240812e+000 -1.006094e+000 -6.309708e-001 -8.431758e-001 -6.553618e-001 -1.068854e+000 -1.009777e+000 2.145426e+000 -6.160027e-001 -8.739300e-001 -6.800668e-001 -4.149676e-001 2.168309e-001 4.359649e-001 8.312675e-001 5.081652e-001 3.951215e-001 4.357431e-001 1.725245e-001 1.289600e-001 2.057855e-001
<VARIANCE> 39
 4.116000e+001 5.413180e+001 3.892760e+001 2.906771e+001 6.632011e+001 3.614027e+001 3.135933e+001 2.942146e+001 3.130695e+001 3.964823e+001 3.136092e+001 2.820251e+001 8.228912e+001 6.589252e+000 8.974683e+000 3.661347e+000 4.089922e+000 5.450760e+000 3.536573e+000 6.429209e+000 6.345072e+000 3.997191e+000 5.246513e+000 3.889082e+000 3.767380e+000 4.410944e+000 6.263750e-001 8.851852e-001 4.528616e-001 7.459198e-001 1.137892e+000 8.261431e-001 7.808977e-001 8.422782e-001 8.718411e-001 7.898691e-001 6.363119e-001 5.864522e-001 4.511695e-001
<GCONST> 1.357006e+002
<STATE> 4
<NUMMIXES> 2
<MIXTURE> 1 4.374165e-001
<MEAN> 39
 2.554516e-001 8.381082e+000 1.364036e+000 -1.386957e+001 -9.371695e+000 -1.437874e+001 -4.692045e+000 -1.136555e+001 -4.433108e+000 -6.821546e+000 -6.669298e+000 -5.683975e+000 6.085595e+001 -7.616026e-001 -7.830734e-001 4.689340e-002 -1.094603e+000 6.363194e-001 -7.217441e-001 -3.853850e-001 9.161628e-001 2.489915e-001 4.090823e-001 1.983140e-001 5.185144e-001 1.877448e+000 -1.780137e-001 -6.857557e-001 5.525642e-002 -2.627928e-001 -1.821485e-001 -1.632500e-001 -1.559471e-001 3.051743e-002 4.574471e-002 5.615805e-001 2.204553e-001 1.557830e-001 4.287703e-001
<VARIANCE> 39
 7.115467e+001 5.198235e+001 1.568552e+002 1.178616e+002 8.115300e+001 6.871598e+001 1.045999e+002 1.067530e+002 6.677811e+001 7.540742e+001 8.053486e+001 6.202937e+001 9.107259e+001 6.025062e+000 6.607610e+000 7.471653e+000 9.455932e+000 9.167511e+000 9.296419e+000 1.292096e+001 9.455382e+000 5.137184e+000 7.943312e+000 7.116764e+000 7.871271e+000 8.195297e+000 1.198993e+000 1.133501e+000 1.481750e+000 1.559249e+000 2.051568e+000 1.571878e+000 2.292383e+000 1.355287e+000 1.032988e+000 1.194070e+000 1.223000e+000 1.263467e+000 1.363749e+000
<GCONST> 1.606517e+002
<MIXTURE> 2 5.625830e-001
<MEAN> 39
 -1.247286e+000 8.332645e-001 3.052875e+000 -1.458215e+001 -1.263719e+001 -1.631118e+001 -4.853582e+000 -1.265914e+001 -4.742799e+000 4.005666e-001 -5.721400e+000 -7.312016e+000 6.327752e+001 3.581240e-001 8.211363e-002 -5.920333e-002 -1.331783e-001 -3.081587e-001 2.139709e-001 3.791978e-001 -5.967036e-001 -3.186413e-001 8.063756e-002 -4.216277e-002 -1.078843e-001 2.065303e-001 1.118257e-002 1.208415e-001 -2.810077e-002 -2.084963e-002 8.270882e-002 1.768396e-001 -6.968173e-002 -1.152757e-001 3.211809e-002 -2.250322e-001 -8.327347e-002 9.569681e-002 -3.840385e-002
<VARIANCE> 39
 8.901709e+001 6.508711e+001 1.190921e+002 1.785287e+002 8.997373e+001 1.053500e+002 1.035311e+002 1.350981e+002 8.395351e+001 9.719344e+001 5.903422e+001 9.626512e+001 1.590023e+002 3.059722e+000 3.807216e+000 5.352849e+000 5.349641e+000 4.373095e+000 5.199721e+000 5.486290e+000 5.316580e+000 4.967403e+000 4.878254e+000 3.036211e+000 4.134970e+000 2.811779e+000 5.478585e-001 7.870774e-001 7.643780e-001 1.024645e+000 1.004772e+000 1.261979e+000 1.013820e+000 1.121688e+000 9.102030e-001 8.790445e-001 6.150201e-001 8.333417e-001 5.565713e-001
<GCONST> 1.485919e+002
<TRANSP> 5
 0.000000e+000 1.000000e+000 0.000000e+000 0.000000e+000 0.000000e+000
 0.000000e+000 6.175702e-001 3.824298e-001 0.000000e+000 0.000000e+000
 0.000000e+000 0.000000e+000 7.149652e-001 2.850348e-001 0.000000e+000
 0.000000e+000 0.000000e+000 0.000000e+000 8.617076e-001 1.382924e-001
 0.000000e+000 0.000000e+000 0.000000e+000 0.000000e+000 0.000000e+000
<ENDHMM>
~h "e"
<BEGINHMM>
<NUMSTATES> 5
<STATE> 2
<NUMMIXES> 2
<MIXTURE> 1 3.833379e-001
<MEAN> 39
 -6.122997e+000 -5.941151e-001 2.222842e-001 -1.166720e+001 -1.379043e+001 -1.406651e+001 -5.362557e+000 -5.373378e+000 -2.629634e+000 -4.437623e+000 5.279696e-001 -3.555863e+000 6.543764e+001 1.161128e+000 -1.267670e+000 2.159057e+000 -3.615866e+000 -3.742279e+000 -9.665521e-001 1.203641e-001 -1.069311e-001 8.468086e-002 1.771453e+000 6.162420e-001 1.252285e+000 4.515576e+000 -1.844223e-002 -1.477027e-001 3.461376e-001 -6.955506e-001 -1.502343e-001 2.464464e-001 1.465093e-001 -3.427306e-001 6.731681e-002 4.087576e-001 -6.116013e-001 2.421290e-001 1.149364e-002
<VARIANCE> 39
 6.600112e+001 7.778633e+001 7.165691e+001 9.839919e+001 1.121929e+002 9.330322e+001 6.668210e+001 7.642084e+001 5.306167e+001 5.673036e+001 4.949154e+001 5.072234e+001 1.563685e+002 9.707415e+000 1.277363e+001 1.035794e+001 1.046723e+001 1.148725e+001 1.023017e+001 7.545592e+000 9.301774e+000 8.120224e+000 7.825718e+000 6.336149e+000 5.274554e+000 1.079803e+001 1.214923e+000 1.339150e+000 1.198760e+000 1.641868e+000 1.756838e+000 1.383485e+000 1.132380e+000 1.438594e+000 1.032339e+000 9.654155e-001 1.023494e+000 8.678756e-001 1.863664e+000
<GCONST> 1.593691e+002
<MIXTURE> 2 6.166610e-001
<MEAN> 39
 -5.838826e+000 -9.806046e-001 3.037503e+000 -1.549461e+001 -1.740244e+001 -1.642295e+001 -8.042582e+000 -7.093756e+000 -2.555813e+000 -3.802407e+000 -2.920120e+000 -2.273082e+000 7.212935e+001 1.806805e+000 -5.394334e-001 1.133428e+000 -1.988793e+000 -3.101179e+000 -7.753311e-001 5.833670e-002 -5.388930e-001 -5.800473e-001 4.803043e-001 -1.638641e-001 4.928794e-001 2.000065e+000 -4.175058e-001 -2.423600e-001 -1.879289e-001 -2.133884e-002 3.373643e-001 5.787987e-001 3.381362e-001 1.757048e-003 1.248058e-001 4.593664e-001 -8.985783e-002 5.888830e-002 -2.277878e-001
<VARIANCE> 39
 4.968198e+001 6.365593e+001 4.687768e+001 8.466512e+001 4.998630e+001 5.065155e+001 6.494176e+001 8.009528e+001 4.894964e+001 4.962702e+001 5.082490e+001 4.016355e+001 4.073346e+001 7.934082e+000 3.742946e+000 5.289265e+000 5.686884e+000 6.349034e+000 7.699306e+000 9.311258e+000 5.685657e+000 5.288628e+000 6.921391e+000 4.580415e+000 4.318540e+000 4.024860e+000 7.987248e-001 8.673660e-001 3.907675e-001 5.969673e-001 8.724585e-001 9.241999e-001 9.943106e-001 1.274616e+000 7.836815e-001 8.558968e-001 8.184347e-001 6.987579e-001 3.328728e-001
<GCONST> 1.423115e+002
<STATE> 3
<NUMMIXES> 2
<MIXTURE> 1 6.002033e-001
<MEAN> 39
 -3.748841e+000 -6.538259e+000 7.940803e+000 -2.184720e+001 -2.057210e+001 -1.870893e+001 -5.314779e+000 -4.419596e+000 -4.652102e+000 2.766248e+000 -3.838275e+000 -5.402033e-001 7.777767e+001 -1.133870e-001 -9.954870e-001 1.228845e+000 -2.030918e+000 -8.835031e-001 4.546582e-001 9.797889e-001 -4.316517e-001 -9.843653e-002 2.103381e+000 -8.120527e-001 6.045795e-001 9.761969e-001 -2.974524e-001 6.759593e-001 -6.021606e-001 7.589154e-001 9.012605e-001 6.334431e-001 -1.355157e-002 -2.710171e-001 2.884738e-001 -5.041981e-001 -6.888568e-002 -2.837347e-001 -8.931152e-001
<VARIANCE> 39
 2.967429e+001 3.500562e+001 5.779243e+001 1.040141e+002 5.430819e+001 5.665195e+001 5.471103e+001 7.151235e+001 4.837564e+001 6.280239e+001 5.467476e+001 4.397982e+001 1.026742e+001 2.518984e+000 3.396642e+000 3.759395e+000 5.794341e+000 5.663379e+000 5.300070e+000 5.765502e+000 5.672278e+000 3.780927e+000 6.787576e+000 4.283381e+000 3.639165e+000 2.324146e+000 6.288550e-001 5.798233e-001 6.682106e-001 8.009070e-001 8.036566e-001 8.511302e-001 8.936516e-001 9.173418e-001 6.772407e-001 1.183186e+000 7.883514e-001 6.936243e-001 4.062362e-001
<GCONST> 1.367744e+002
<MIXTURE> 2 3.997957e-001
<MEAN> 39
 -4.161664e+000 -8.180448e-001 4.413888e+000 -2.168340e+001 -2.403956e+001 -1.215630e+001 -6.131246e+000 -1.067685e+001 -5.181842e-001 -3.027031e+000 -2.935430e+000 2.593576e-001 7.312305e+001 1.254644e-001 -5.394928e-001 4.132123e-001 -1.346495e+000 -1.214098e+000 1.128340e+000 4.813487e-001 -1.012490e+000 -2.467971e-001 5.288693e-001 -4.536858e-001 1.761380e-001 1.552757e+000 -6.478369e-001 3.950017e-002 -4.659093e-001 8.370255e-001 1.399962e+000 1.977853e-001 8.512453e-002 2.506430e-001 -1.011622e-001 1.537637e-003 -8.612171e-002 -3.831423e-001 -9.777810e-001
<VARIANCE> 39
 3.915768e+001 7.592122e+001 6.280607e+001 1.136751e+002 6.697221e+001 6.615939e+001 7.774271e+001 8.731472e+001 8.507679e+001 5.735514e+001 5.574953e+001 4.490469e+001 5.102419e+001 3.441353e+000 3.798739e+000 4.927800e+000 8.383663e+000 7.694475e+000 5.817629e+000 5.293481e+000 5.180125e+000 4.858068e+000 5.507107e+000 3.995683e+000 4.561524e+000 6.348332e+000 7.130378e-001 9.425277e-001 8.206060e-001 1.083510e+000 1.286470e+000 1.200707e+000 1.419433e+000 1.148178e+000 1.101102e+000 9.030749e-001 8.508820e-001 6.659123e-001 7.512679e-001
<GCONST> 1.470085e+002
<STATE> 4
<NUMMIXES> 2
<MIXTURE> 1 4.830092e-001
<MEAN> 39
 -3.746911e+000 -4.413306e+000 9.394107e+000 -2.644619e+001 -1.951879e+001 -1.449882e+001 -3.724198e+000 -9.289969e+000 -3.308257e+000 5.431984e+000 -7.159605e+000 -2.975178e-002 7.672690e+001 2.256400e-001 6.797227e-001 -3.832696e-001 7.395915e-001 3.860285e-001 4.296955e-001 4.147705e-002 -4.990184e-001 1.511168e-001 -5.882030e-001 1.442762e-001 -1.467232e-001 -8.166300e-001 5.680669e-002 1.835557e-001 -2.853986e-001 5.244566e-001 1.390303e-001 6.618133e-002 -1.229385e-001 1.092331e-001 2.124882e-002 -4.765192e-001 2.796457e-001 -1.523985e-001 -3.395877e-001
<VARIANCE> 39
 3.307044e+001 4.381052e+001 4.949815e+001 1.208669e+002 5.380925e+001 7.939635e+001 6.094205e+001 8.098434e+001 6.415784e+001 5.602915e+001 5.273973e+001 4.640668e+001 1.821079e+001 1.008240e+000 1.865188e+000 1.833579e+000 3.806382e+000 2.845287e+000 3.150702e+000 2.776733e+000 3.355433e+000 2.498492e+000 3.626540e+000 2.611470e+000 2.402103e+000 1.979061e+000 2.100345e-001 2.762406e-001 2.891352e-001 5.306772e-001 5.103224e-001 6.030812e-001 6.316562e-001 6.396112e-001 4.785789e-001 6.451669e-001 5.221323e-001 4.512258e-001 2.090767e-001
<GCONST> 1.241390e+002
<MIXTURE> 2 5.169875e-001
<MEAN> 39
 -5.626935e+000 -2.383049e+000 3.548753e+000 -1.987565e+001 -2.167812e+001 -9.127213e+000 -5.370910e+000 -1.078770e+001 -2.555877e+000 -2.016394e+000 -3.485885e+000 -1.970320e+000 7.346007e+001 -8.850349e-002 4.278357e-001 -4.975791e-001 1.046572e+000 6.248500e-001 -4.163720e-002 -1.135669e-001 8.523430e-002 -3.299071e-001 -7.293454e-001 7.156525e-002 -4.431794e-001 -7.674845e-001 -6.028654e-002 7.634152e-002 -7.093197e-002 2.608489e-001 3.738631e-001 -3.372203e-001 -8.909950e-002 1.451634e-001 2.620247e-002 -1.854730e-002 -5.094336e-002 -8.775658e-003 -2.216297e-001
<VARIANCE> 39
 4.948181e+001 6.986974e+001 4.773287e+001 8.846770e+001 6.596709e+001 7.962354e+001 6.134192e+001 8.875578e+001 8.232906e+001 6.234629e+001 4.059251e+001 4.412619e+001 5.395984e+001 1.003818e+000 1.869644e+000 2.047092e+000 3.591885e+000 3.761137e+000 3.987304e+000 3.188466e+000 3.636352e+000 3.690891e+000 3.464885e+000 3.280528e+000 2.597356e+000 1.273471e+000 1.830643e-001 2.707698e-001 2.667036e-001 5.141733e-001 5.595875e-001 6.801735e-001 6.604933e-001 6.342095e-001 6.641302e-001 6.265531e-001 5.446174e-001 4.963127e-001 1.783345e-001
<GCONST> 1.273442e+002
<TRANSP> 5
 0.000000e+000 1.000000e+000 0.000000e+000 0.000000e+000 0.000000e+000
 0.000000e+000 3.013664e-001 6.986336e-001 0.000000e+000 0.000000e+000
 0.000000e+000 0.000000e+000 4.955455e-001 5.044545e-001 0.000000e+000
 0.000000e+000 0.000000e+000 0.000000e+000 8.317279e-001 1.682721e-001
 0.000000e+000 0.000000e+000 0.000000e+000 0.000000e+000 0.000000e+000
<ENDHMM>
~h "f"
<BEGINHMM>
<NUMSTATES> 5
<STATE> 2
<NUMMIXES> 2
<MIXTURE> 1 3.373593e-001
<MEAN> 39
 -1.501114e+001 -8.351692e+000 -4.647774e+000 -6.403125e+000 -1.305878e+000 -8.719729e+000 -2.607126e+000 -7.199063e+000 -4.526776e-001 -5.366407e+000 -2.414434e+000 -4.102722e+000 4.303057e+001 1.575208e-001 3.232635e-001 4.092410e-001 5.759299e-001 6.362610e-001 3.652228e-001 3.524311e-001 7.011659e-002 -1.321549e-001 -2.854261e-001 -2.625526e-001 -2.714931e-001 8.822548e-002 -7.142975e-002 -9.789954e-002 -1.631883e-001 -1.758647e-001 -1.385942e-001 3.326659e-002 3.094460e-001 2.413974e-001 1.350065e-001 1.790119e-001 2.755518e-001 3.946238e-002 -4.993610e-002
<VARIANCE> 39
 7.739511e+000 8.295896e+000 1.284231e+001 2.273648e+001 2.270980e+001 1.695281e+001 2.371408e+001 2.286709e+001 2.503633e+001 3.016125e+001 2.582399e+001 1.774058e+001 4.514167e+001 6.602520e-001 7.413749e-001 1.045378e+000 1.885738e+000 2.317578e+000 2.300262e+000 2.322828e+000 3.088471e+000 2.939195e+000 2.491119e+000 2.129227e+000 1.925388e+000 1.481883e-001 1.290263e-001 1.975268e-001 2.192821e-001 4.500962e-001 5.376067e-001 3.644682e-001 3.876223e-001 6.188281e-001 4.645126e-001 3.964102e-001 5.386151e-001 3.891203e-001 4.140973e-002
<GCONST> 9.994784e+001
<MIXTURE> 2 6.626397e-001
<MEAN> 39
 -1.615392e+001 -9.985946e+000 -5.869556e+000 -8.782970e+000 -2.710799e+000 -7.941292e+000 6.351367e-001 -4.984526e+000 1.259143e-001 -5.722568e+000 -6.368921e-001 -3.193323e+000 4.041013e+001 -1.011812e-001 -1.532033e-001 -2.002382e-001 -2.405494e-001 -3.139606e-001 -2.214205e-001 -1.683276e-001 -4.946632e-002 5.103349e-002 1.507781e-001 1.896736e-001 1.841702e-001 -7.430266e-002 5.205173e-002 6.527764e-002 6.282809e-002 4.865164e-002 6.510689e-002 -2.366743e-002 -1.534328e-001 -1.244353e-001 -5.979172e-002 -8.433565e-002 -1.193509e-001 -2.405412e-002 2.640436e-002
<VARIANCE> 39
 2.507395e+000 4.148178e+000 1.122026e+001 1.519043e+001 1.530733e+001 2.210742e+001 2.055109e+001 2.457629e+001 2.861422e+001 2.772187e+001 2.397801e+001 2.011306e+001 2.589034e+000 3.737612e-001 6.272483e-001 1.028066e+000 1.701482e+000 1.477549e+000 1.738937e+000 2.403415e+000 2.821362e+000 3.003908e+000 2.269932e+000 3.018619e+000 2.062445e+000 9.687741e-002 7.641240e-002 1.262115e-001 2.149936e-001 3.255540e-001 3.046298e-001 4.362200e-001 5.195701e-001 5.609977e-001 6.457219e-001 4.945819e-001 5.394054e-001 4.712002e-001 2.136231e-002
<GCONST> 9.148365e+001
<STATE> 3
<NUMMIXES> 2
<MIXTURE> 1 5.534509e-001
<MEAN> 39
 -1.848074e+001 3.482373e+000 -1.059500e+000 3.506308e+000 -6.201248e+000 -6.398713e+000 -6.038964e+000 -5.832458e+000 -5.191620e+000 -4.949883e+000 -4.611152e+000 -5.567440e+000 6.774146e+001 -1.165148e+000 9.018092e-001 1.248562e+000 5.590153e-001 1.044430e+000 5.806531e-001 3.131699e-001 -3.430623e-001 9.741127e-001 1.411121e+000 7.192589e-001 1.486551e-001 -1.210287e+000 2.188896e-001 -3.236492e-001 -2.841635e-001 7.098453e-002 -2.951027e-001 2.102931e-001 -2.481936e-001 2.259859e-001 -1.407158e-001 8.372592e-002 -1.673025e-001 1.862598e-001 1.139065e-001
<VARIANCE> 39
 3.396511e+001 1.400407e+001 1.496975e+001 1.362804e+001 3.848877e+001 2.984165e+001 1.410142e+001 2.483525e+001 8.000040e+001 4.937878e+001 4.048495e+001 3.796435e+001 2.982951e+001 1.589129e+000 1.450999e+000 1.039430e+000 1.231395e+000 1.126998e+000 1.606476e+000 2.138046e+000 1.812384e+000 2.709115e+000 4.563485e+000 2.427830e+000 2.083566e+000 7.849326e-001 3.106097e-001 3.284977e-001 1.003754e-001 2.866855e-001 3.940007e-001 2.738292e-001 5.907947e-001 3.616975e-001 5.592847e-001 1.230324e+000 4.169534e-001 2.745647e-001 2.151923e-001
<GCONST> 1.083256e+002
<MIXTURE> 2 4.465492e-001
<MEAN> 39
 -1.352123e+001 -3.832211e+000 -6.136882e+000 -2.363107e+000 -1.117601e+001 -3.062528e+000 -5.998321e+000 -5.674413e+000 -1.023498e+001 -2.776171e+000 -9.430830e+000 -4.753628e+000 6.598377e+001 -1.003494e+000 3.439629e-001 2.522521e-001 7.389545e-001 1.691265e-001 4.406274e-001 1.473139e+000 1.781210e-001 -9.378807e-001 -8.772343e-001 3.052837e-001 -6.068280e-001 -2.369575e-001 2.581249e-001 1.567118e-001 1.309126e-001 -2.773313e-001 -9.783147e-002 -3.691016e-001 -1.090115e-001 1.318043e-001 4.999174e-001 1.129931e-001 -8.345537e-003 -1.212026e-001 1.514016e-001
<VARIANCE> 39
 6.274977e+001 3.092150e+001 3.413131e+001 6.473719e+001 5.276583e+001 7.007541e+001 4.749525e+001 2.599714e+001 6.990196e+001 4.759317e+001 4.414776e+001 1.901261e+001 2.072929e+002 2.496417e+000 2.610458e+000 1.682951e+000 2.121023e+000 1.052385e+000 5.573668e+000 2.080916e+000 3.404757e+000 2.705415e+000 3.883666e+000 3.060728e+000 1.696559e+000 6.071706e-001 5.160541e-001 2.633392e-001 3.686332e-001 5.503140e-001 3.725720e-001 7.991812e-001 4.722527e-001 9.897712e-001 9.522728e-001 1.064514e+000 7.708642e-001 4.387586e-001 3.153571e-001
<GCONST> 1.250457e+002
<STATE> 4
<NUMMIXES> 2
<MIXTURE> 1 4.755948e-001
<MEAN> 39
 -5.536057e+000 -1.535470e+000 -1.069384e+001 -1.441723e+001 -5.936069e+000 -8.348687e+000 -1.317204e+001 -7.207041e+000 -8.616796e-001 -5.788645e+000 1.239014e+000 -3.344385e+000 6.685644e+001 -4.210054e-001 1.084019e-001 4.038125e-001 1.153328e-001 5.873634e-001 3.518732e-001 -3.871923e-002 9.190999e-001 7.182005e-002 4.173031e-001 -1.692261e-001 1.558935e-001 2.547316e-001 4.469437e-002 5.265118e-002 1.931699e-001 4.703675e-002 -1.208114e-001 -4.770596e-001 -8.536908e-003 2.684331e-001 -5.220335e-002 2.994457e-001 -1.401919e-001 -1.150415e-001 2.619170e-001
<VARIANCE> 39
 1.957758e+002 3.823495e+001 2.413593e+001 7.266172e+001 4.306372e+001 7.319702e+001 1.450100e+002 5.912734e+001 4.948494e+001 4.009671e+001 2.115758e+001 4.101109e+001 1.387581e+002 5.206110e+000 4.726697e+000 2.885471e+000 4.897779e+000 3.667806e+000 5.855206e+000 4.000224e+000 4.277477e+000 5.158492e+000 5.633417e+000 2.345073e+000 3.574453e+000 2.028426e+000 9.908965e-001 6.171955e-001 4.644993e-001 7.543102e-001 7.717001e-001 7.085904e-001 9.423849e-001 9.743146e-001 1.024678e+000 9.912075e-001 4.054936e-001 6.739418e-001 6.895584e-001
<GCONST> 1.385493e+002
<MIXTURE> 2 5.244052e-001
<MEAN> 39
 -1.070469e+001 -3.375071e+000 -8.611573e+000 -7.212473e+000 -4.855369e+000 -1.751147e+001 -1.032069e+001 -1.391140e+000 -1.176399e+000 -1.887851e+000 -1.148105e+000 -6.607823e+000 6.698649e+001 1.372656e+000 9.215648e-002 -6.346915e-001 -8.625064e-001 -1.506474e+000 -5.072227e-001 -2.775423e-001 1.116689e-001 -4.164993e-001 -4.938464e-001 -4.887561e-001 5.001969e-002 1.697273e+000 3.154499e-001 1.669751e-002 -6.529462e-003 -2.769691e-001 -1.269508e-001 2.530441e-001 -2.712337e-001 -4.792414e-001 6.025769e-002 -2.159518e-001 -1.534873e-001 9.989800e-002 9.202692e-002
<VARIANCE> 39
 9.812975e+001 2.254450e+001 4.090469e+001 6.667781e+001 3.154425e+001 1.100842e+002 6.897876e+001 4.592432e+001 5.043866e+001 1.898017e+001 3.116902e+001 2.747876e+001 1.255745e+002 9.468687e+000 2.001517e+000 6.843744e+000 2.971131e+000 2.617385e+000 7.527753e+000 6.833843e+000 8.115304e+000 7.590096e+000 3.063258e+000 4.250499e+000 3.555048e+000 8.682158e+000 1.069396e+000 5.542501e-001 9.053577e-001 6.677434e-001 5.552017e-001 1.342562e+000 7.940348e-001 1.112994e+000 1.267663e+000 7.504416e-001 1.045350e+000 7.355399e-001 8.282549e-001
<GCONST> 1.409821e+002
<TRANSP> 5
 0.000000e+000 1.000000e+000 0.000000e+000 0.000000e+000 0.000000e+000
 0.000000e+000 9.724154e-001 2.758458e-002 0.000000e+000 0.000000e+000
 0.000000e+000 0.000000e+000 8.130350e-001 1.869650e-001 0.000000e+000
 0.000000e+000 0.000000e+000 0.000000e+000 8.975115e-001 1.024886e-001
 0.000000e+000 0.000000e+000 0.000000e+000 0.000000e+000 0.000000e+000
<ENDHMM>
~h "g"
<BEGINHMM>
<NUMSTATES> 5
<STATE> 2
<NUMMIXES> 2
<MIXTURE> 1 6.269626e-001
<MEAN> 39
 -9.500415e+000 -4.107782e+000 -3.348904e+000 -9.440128e+000 -3.112611e+000 -1.093518e+001 -9.033945e+000 -1.328739e+001 -1.144154e+000 -1.655569e+000 -6.825672e-001 -4.248664e+000 5.486485e+001 7.890878e-001 1.388953e-001 -8.234084e-001 2.120672e-001 6.349425e-001 -2.377339e-001 -9.757100e-001 4.351181e-001 5.982593e-001 -3.156569e-001 -1.845819e-001 -2.333974e-002 4.093886e-001 4.073977e-001 1.886438e-001 -1.946516e-001 -5.346075e-001 -6.237972e-001 -5.188425e-001 1.221026e-001 7.430676e-001 -2.906645e-002 -4.120689e-001 -1.040665e-001 -1.391069e-001 6.295798e-001
<VARIANCE> 39
 1.117773e+002 1.016036e+002 7.806976e+001 2.754815e+001 4.053838e+001 2.856210e+001 3.997390e+001 5.122949e+001 3.469954e+001 4.804682e+001 2.916756e+001 2.972268e+001 1.425450e+002 3.467304e+000 6.381291e+000 6.593699e+000 3.495676e+000 5.942853e+000 7.688816e+000 7.051255e+000 1.185310e+001 5.314919e+000 4.265587e+000 3.258003e+000 3.713558e+000 2.236383e+000 3.434031e-001 1.221525e+000 7.468929e-001 3.599785e-001 1.123667e+000 1.115275e+000 1.512304e+000 1.319096e+000 5.509364e-001 5.558132e-001 6.774762e-001 5.757434e-001 4.747317e-001
<GCONST> 1.392760e+002
<MIXTURE> 2 3.730375e-001
<MEAN> 39
 -2.331005e+000 -1.608533e+000 -4.269880e+000 -1.139484e+001 -7.467610e+000 -1.853404e+001 -8.478875e+000 -1.908618e+000 1.086427e+000 -8.956037e+000 -4.366946e+000 -5.324154e+000 6.192670e+001 1.627507e+000 4.264779e-001 -7.075104e-001 -2.851542e+000 -1.983108e+000 -3.113761e+000 1.126295e-001 1.609355e+000 7.741340e-001 -7.073324e-001 -1.514419e+000 -4.717579e-001 3.418429e+000 -1.917819e-001 -4.955991e-001 -1.093400e-001 -7.885411e-001 -5.824344e-002 8.756340e-001 6.614535e-001 -9.954049e-001 -1.712008e-001 6.302117e-001 -3.236176e-001 -9.552120e-002 -1.256372e-001
<VARIANCE> 39
 2.916845e+001 3.519374e+001 3.783574e+001 7.590008e+001 5.996675e+001 6.816205e+001 1.137016e+002 1.706748e+002 9.869116e+001 2.971113e+001 5.491229e+001 2.984065e+001 1.108740e+002 5.841729e+000 1.405916e+001 3.333893e+000 6.849028e+000 8.515778e+000 5.560379e+000 9.307808e+000 1.687868e+001 4.551549e+000 4.993716e+000 6.530438e+000 5.153714e+000 7.038279e+000 7.080042e-001 1.104908e+000 1.022592e+000 1.638940e+000 1.054055e+000 1.101818e+000 2.199034e+000 2.265813e+000 1.103431e+000 7.710997e-001 9.378623e-001 9.209561e-001 9.928104e-001
<GCONST> 1.516098e+002
<STATE> 3
<NUMMIXES> 2
<MIXTURE> 1 6.090807e-001
<MEAN> 39
 -2.700141e+000 1.596601e+000 3.546990e+000 -1.000018e+001 -1.110256e+001 -1.616174e+001 -7.733874e+000 -1.320775e+001 -6.653868e+000 8.270595e+000 -7.323253e-001 -8.542819e+000 6.710140e+001 -5.260748e-002 1.054433e-001 -2.218150e-001 -5.498623e-001 2.657284e-001 -9.828361e-002 4.757158e-001 4.805876e-001 -3.742844e-001 -5.827513e-001 -1.053034e-001 2.514399e-002 1.891225e-001 -1.474303e-001 -5.969083e-002 -5.349297e-002 1.631468e-001 2.411239e-001 1.917520e-001 3.472070e-001 8.383612e-002 1.228350e-001 1.432696e-001 2.736909e-002 1.829204e-001 -1.087732e-001
<VARIANCE> 39
 1.208036e+001 1.044863e+001 4.104885e+001 5.167890e+001 5.370517e+001 1.545321e+001 1.030645e+002 6.162645e+001 5.449686e+001 7.585593e+001 3.776553e+001 1.735176e+001 9.215394e+000 8.249233e-001 5.558367e-001 3.452278e+000 3.149693e+000 4.236131e+000 2.722819e+000 2.521553e+000 3.309514e+000 4.253516e+000 3.550134e+000 3.106385e+000 1.431662e+000 6.226534e-001 1.673869e-001 7.379194e-002 1.866472e-001 5.342584e-001 5.217602e-001 3.061763e-001 5.100853e-001 3.235525e-001 7.422122e-001 4.761255e-001 6.195810e-001 2.858516e-001 1.959298e-001
<GCONST> 1.118564e+002
<MIXTURE> 2 3.909195e-001
<MEAN> 39
 -3.707186e+000 1.359208e+000 -3.647177e+000 -1.378458e+001 -7.862756e+000 -1.637240e+001 -6.532268e+000 -7.276731e+000 1.938739e+000 -1.432858e+000 -2.215739e+000 -7.042843e+000 6.210778e+001 4.939139e-001 -4.132379e-001 -3.810410e-001 -1.433810e+000 -9.584324e-001 -4.345618e-001 1.780745e-001 -9.610727e-002 -1.054041e+000 -3.120345e-001 -1.640226e-001 -3.182060e-001 7.437842e-001 -3.946137e-002 -2.282055e-001 -1.017463e-001 1.024501e-001 -1.809318e-002 7.239414e-001 1.091637e-001 -3.618432e-001 -6.712443e-001 -4.852116e-001 -1.524049e-001 2.782510e-001 1.355561e-002
<VARIANCE> 39
 5.524474e+001 4.230607e+001 5.035736e+001 8.743999e+001 1.045875e+002 5.503762e+001 5.866097e+001 4.665275e+001 1.312188e+002 1.123585e+002 5.158467e+001 3.644909e+001 7.999938e+001 1.160967e+000 2.552595e+000 2.928793e+000 4.711864e+000 6.986155e+000 3.285511e+000 1.285544e+001 2.548974e+000 8.647942e+000 5.724781e+000 3.059644e+000 2.478856e+000 1.211079e+000 3.995937e-001 4.766226e-001 8.498012e-001 9.212781e-001 9.155105e-001 8.388522e-001 6.862633e-001 6.939241e-001 1.413709e+000 1.050397e+000 6.286399e-001 4.363370e-001 3.986985e-001
<GCONST> 1.376433e+002
<STATE> 4
<NUMMIXES> 2
<MIXTURE> 1 3.851471e-001
<MEAN> 39
 3.585556e-001 -1.530712e+000 -1.248439e+001 -1.587249e+001 -1.097919e+001 -1.571273e+001 -4.186692e+000 -1.153073e+001 2.775346e+000 -8.932528e+000 -6.102789e+000 -1.201150e+001 6.064833e+001 -5.006349e-002 -9.988248e-001 -8.441663e-001 -7.993501e-001 8.682921e-001 1.672383e+000 8.736027e-001 4.275711e-002 -5.318645e-001 5.630008e-001 3.261043e-001 6.185213e-001 1.344493e-001 -1.262463e-001 -1.845073e-002 2.391257e-001 3.236305e-001 1.669032e-001 2.025144e-001 -1.895165e-001 6.874670e-002 -2.747210e-001 1.337566e-001 1.320712e-001 2.223155e-001 6.260863e-002
<VARIANCE> 39
 3.800711e+001 6.281907e+001 1.077454e+002 5.785576e+001 6.582026e+001 9.902919e+001 8.044946e+001 9.495631e+001 5.748363e+001 9.691882e+001 8.315984e+001 1.783687e+002 8.447246e+001 1.726238e+000 2.175949e+000 5.991549e+000 6.221716e+000 5.242238e+000 2.636042e+000 8.894595e+000 5.041484e+000 4.513988e+000 5.954204e+000 3.654916e+000 3.636071e+000 1.355919e+000 1.062060e-001 3.155237e-001 5.066670e-001 1.145068e+000 7.415034e-001 9.984584e-001 1.300015e+000 1.110176e+000 7.202722e-001 1.149622e+000 9.792281e-001 6.150934e-001 3.056150e-001
<GCONST> 1.403813e+002
<MIXTURE> 2 6.148528e-001
<MEAN> 39
 -8.375703e-001 7.895876e+000 -6.654484e+000 -9.267033e+000 -2.048013e+001 -2.336402e+001 3.380725e-001 -1.210878e+001 -2.265835e+000 -1.329240e+001 -4.595578e+000 -1.534645e+001 5.377075e+001 -1.542063e-001 -4.869156e-002 -1.483189e-001 1.603419e-001 -7.389793e-002 -1.712386e-001 1.258749e-003 -4.837615e-002 -7.304721e-002 -2.460834e-001 -4.000095e-001 -1.035605e-001 -1.765325e-001 2.132324e-002 -1.373140e-001 -1.185741e-001 -1.158108e-001 1.684640e-002 -2.422690e-002 -6.467895e-002 5.306754e-002 1.522639e-001 1.336244e-002 2.520138e-002 3.523046e-002 1.468037e-002
<VARIANCE> 39
 2.614471e+001 7.771068e+001 1.126807e+002 3.806198e+001 1.146895e+002 4.954848e+001 3.915556e+001 5.870523e+001 1.033005e+002 2.410321e+001 5.004669e+001 7.363799e+001 2.107565e+001 6.670217e-001 1.674407e+000 2.763971e+000 3.725623e+000 2.719417e+000 9.520720e-001 4.286186e+000 2.757951e+000 4.663429e+000 3.276557e+000 3.636309e+000 3.313574e+000 3.776064e-001 6.220465e-002 2.642054e-001 4.799261e-001 7.712353e-001 5.055398e-001 2.363533e-001 1.180883e+000 5.302985e-001 6.060295e-001 6.130807e-001 6.819748e-001 7.079828e-001 5.265240e-002
<GCONST> 1.208713e+002
<TRANSP> 5
 0.000000e+000 1.000000e+000 0.000000e+000 0.000000e+000 0.000000e+000
 0.000000e+000 6.597470e-001 3.402530e-001 0.000000e+000 0.000000e+000
 0.000000e+000 0.000000e+000 6.718897e-001 3.281103e-001 0.000000e+000
 0.000000e+000 0.000000e+000 0.000000e+000 8.228279e-001 1.771721e-001
 0.000000e+000 0.000000e+000 0.000000e+000 0.000000e+000 0.000000e+000
<ENDHMM>
~h "h"
<BEGINHMM>
<NUMSTATES> 5
<STATE> 2
<NUMMIXES> 2
<MIXTURE> 1 2.640602e-001
<MEAN> 39
 -1.619117e+001 -7.653848e+000 -4.321662e+000 -7.329999e+000 -2.066254e+000 -5.894939e+000 -9.482068e-001 -3.897317e+000 5.384688e-001 -2.977870e+000 -8.905758e-001 -3.247425e+000 4.186591e+001 1.712491e-002 2.076527e-002 7.330142e-002 8.842336e-002 1.335236e-001 9.334960e-002 -1.733321e-002 -1.041361e-002 -2.469217e-002 4.230275e-002 5.992534e-002 1.791573e-002 7.176684e-002 5.835306e-002 4.049466e-002 1.334718e-002 -6.081895e-003 -3.788334e-002 -8.345728e-002 -9.664820e-002 -4.586621e-002 -5.100843e-002 -5.016764e-002 -4.399266e-003 4.465633e-002 1.448104e-002
<VARIANCE> 39
 2.464501e+001 3.304803e+001 2.761311e+001 3.724620e+001 3.810364e+001 3.265034e+001 3.770855e+001 3.907499e+001 3.410855e+001 3.179527e+001 2.774325e+001 2.496919e+001 1.527250e+002 5.473366e-001 7.230102e-001 9.992805e-001 1.621831e+000 2.040988e+000 2.177937e+000 2.512194e+000 2.762181e+000 2.879946e+000 2.434333e+000 2.265617e+000 2.010152e+000 2.139151e-001 1.118223e-001 1.522114e-001 2.371304e-001 3.773147e-001 4.730875e-001 4.935416e-001 5.510061e-001 5.987246e-001 6.081781e-001 5.081017e-001 4.691898e-001 4.466317e-001 6.067198e-002
<GCONST> 1.086112e+002
<MIXTURE> 2 7.359222e-001
<MEAN> 39
 -1.748298e+001 -1.157126e+001 -5.951327e+000 -8.379965e+000 -2.118224e+000 -7.955501e+000 -4.942450e-001 -5.303553e+000 7.929767e-001 -3.821666e+000 7.981132e-001 -2.774657e+000 3.937513e+001 -1.160954e-002 -1.835742e-002 -4.701338e-002 -4.029856e-002 -1.438935e-002 -2.016763e-002 -2.955166e-002 -5.957818e-003 -1.465827e-002 -8.450923e-003 -1.640148e-002 -8.973806e-003 -1.902813e-002 6.019288e-003 1.419802e-003 -1.061062e-002 -4.964686e-003 1.972488e-002 2.179998e-002 1.136848e-002 1.841859e-002 6.906362e-003 1.102896e-002 -8.457722e-003 -1.481790e-002 8.178948e-003
<VARIANCE> 39
 2.738904e+000 6.529634e+000 6.401806e+000 9.233696e+000 1.281859e+001 1.511164e+001 1.917424e+001 2.102832e+001 2.218604e+001 1.844556e+001 1.957597e+001 1.622074e+001 6.601326e+000 1.604890e-001 4.004011e-001 6.940569e-001 1.146927e+000 1.577119e+000 1.980479e+000 2.093610e+000 2.696285e+000 2.996527e+000 2.310181e+000 2.375894e+000 2.138478e+000 4.231016e-002 3.398580e-002 8.327872e-002 1.411033e-001 2.343470e-001 3.240936e-001 4.103614e-001 4.331779e-001 5.645449e-001 6.488887e-001 4.848178e-001 4.961075e-001 4.583062e-001 8.684068e-003
<GCONST> 8.377650e+001
<STATE> 3
<NUMMIXES> 2
<MIXTURE> 1 4.927612e-001
<MEAN> 39
 -1.724610e+001 -8.276006e+000 -5.967051e+000 -8.686264e+000 4.184221e-001 -7.684302e+000 -2.031620e+000 -9.496335e-001 1.623770e+000 -1.698114e+000 -7.533299e-001 -9.652597e-001 5.578298e+001 -7.974533e-002 -1.159879e-001 -1.770755e-001 -1.815848e-001 3.241042e-001 1.675842e-001 -3.711039e-003 1.830519e-001 1.738238e-001 1.029156e-001 1.463386e-001 9.876240e-002 1.987040e-001 4.064015e-001 2.274993e-001 3.143004e-002 -9.410464e-002 -2.047538e-001 -1.489211e-001 -2.284398e-001 -2.313922e-001 -2.730533e-001 -2.087221e-001 -1.456686e-001 -9.390542e-002 1.471790e-001
<VARIANCE> 39
 4.129797e+001 5.735549e+001 6.561546e+001 8.254244e+001 7.145627e+001 6.888457e+001 5.843394e+001 8.331084e+001 7.061249e+001 5.691140e+001 5.483385e+001 4.426437e+001 2.293246e+002 9.390599e-001 1.338609e+000 1.816923e+000 2.175245e+000 2.635077e+000 2.919922e+000 2.985879e+000 3.505108e+000 3.544352e+000 2.981684e+000 2.717832e+000 2.508378e+000 5.979911e-001 3.130260e-001 3.267151e-001 3.968500e-001 4.789113e-001 6.293908e-001 6.408039e-001 6.791460e-001 7.123276e-001 7.493481e-001 6.377522e-001 6.026571e-001 5.199134e-001 1.761820e-001
<GCONST> 1.271097e+002
<MIXTURE> 2 5.072300e-001
<MEAN> 39
 -1.125007e+001 -6.012622e+000 -6.319517e+000 -1.113538e+001 -5.703909e+000 -1.124872e+001 -5.056216e+000 -5.520047e+000 -3.528389e+000 -4.278672e+000 -1.059437e+000 -2.589737e+000 5.491019e+001 1.084087e-001 1.181637e-001 -1.349862e-001 -2.108341e-001 4.797503e-002 -2.362286e-001 -4.165975e-001 -1.564876e-003 -1.598704e-001 -9.443856e-002 -1.895822e-001 -6.057259e-002 2.444937e-001 -1.548818e-002 -5.634563e-002 -3.861387e-002 -1.047245e-003 1.073682e-001 8.680008e-002 3.663136e-002 1.472143e-001 1.409852e-001 5.276291e-002 -1.708877e-002 3.796378e-002 1.447693e-002
<VARIANCE> 39
 4.293674e+001 6.801910e+001 6.716992e+001 6.942328e+001 9.320305e+001 8.159720e+001 7.722223e+001 8.455699e+001 7.557279e+001 7.055247e+001 7.420795e+001 5.912880e+001 2.062945e+002 1.637662e+000 1.804165e+000 2.405721e+000 3.508812e+000 4.665895e+000 4.126614e+000 5.086349e+000 5.159311e+000 5.064190e+000 4.188247e+000 3.931748e+000 3.563139e+000 8.545240e-001 2.048169e-001 2.658910e-001 3.480996e-001 5.315961e-001 7.279524e-001 7.011154e-001 8.378381e-001 8.496686e-001 7.935288e-001 7.643886e-001 6.856241e-001 6.550506e-001 1.197136e-001
<GCONST> 1.340678e+002
<STATE> 4
<NUMMIXES> 2
<MIXTURE> 1 5.337232e-001
<MEAN> 39
 -1.183241e+001 -8.891106e+000 -1.127896e+001 -1.445879e+001 5.879966e+000 -7.753465e+000 -5.428919e+000 2.627832e-002 2.275541e-001 -1.415659e+000 -1.844148e+000 -4.428542e+000 5.230088e+001 1.007127e+000 3.572649e-001 -8.609599e-001 -1.067726e+000 7.226683e-001 1.527897e-001 -6.457121e-001 5.616940e-001 8.247406e-002 -1.297844e-001 -1.922639e-002 9.162590e-003 2.438138e+000 2.346906e-001 1.583264e-001 1.005246e-001 -8.832465e-002 -3.275826e-001 -1.041530e-001 -9.178992e-002 -2.069170e-001 -8.192529e-002 -2.115640e-001 -6.089047e-002 7.833192e-002 3.846828e-001
<VARIANCE> 39
 7.140675e+001 8.037549e+001 1.378876e+002 1.571575e+002 1.960712e+002 1.405484e+002 1.472018e+002 1.503205e+002 1.162192e+002 9.330281e+001 7.599365e+001 9.988319e+001 1.399361e+002 7.041792e+000 5.822090e+000 7.953879e+000 9.350257e+000 1.211824e+001 8.333943e+000 9.632141e+000 9.320675e+000 6.722067e+000 6.875657e+000 5.259436e+000 5.741529e+000 7.767924e+000 9.452085e-001 9.039556e-001 1.254203e+000 1.596739e+000 1.790138e+000 1.438822e+000 1.658682e+000 1.656674e+000 1.287179e+000 1.170017e+000 1.025605e+000 1.043939e+000 1.258799e+000
<GCONST> 1.633399e+002
<MIXTURE> 2 4.662674e-001
<MEAN> 39
 -1.433394e+001 -7.924120e+000 -8.657676e+000 -1.311065e+001 5.864504e+000 -8.332975e+000 -6.655807e+000 3.288741e-001 1.883635e+000 -3.270414e+000 -2.039727e+000 -3.073967e+000 6.287679e+001 2.298861e+000 9.797004e-001 1.825387e-001 -8.874975e-001 -1.617978e+000 -4.109536e-001 -1.123033e+000 -1.683718e+000 -1.439489e+000 -1.515483e+000 -1.024361e+000 -8.368320e-002 1.220935e+000 6.417631e-001 1.103710e-001 -7.752737e-002 -3.888662e-001 -6.045551e-001 -4.253476e-002 -1.566039e-001 -1.384268e-001 -2.313277e-001 -5.844251e-002 -3.460339e-001 -5.564268e-002 3.016655e-001
<VARIANCE> 39
 7.343686e+001 8.110928e+001 1.128403e+002 1.197672e+002 1.649082e+002 8.410785e+001 1.066643e+002 1.013713e+002 8.218803e+001 8.585265e+001 6.278501e+001 6.543800e+001 1.507865e+002 6.571032e+000 3.461400e+000 4.388375e+000 4.575771e+000 6.673722e+000 4.760242e+000 5.711609e+000 5.974555e+000 5.908417e+000 4.507732e+000 4.542416e+000 4.143285e+000 3.291977e+000 7.518869e-001 6.109403e-001 6.481249e-001 7.206033e-001 9.895242e-001 7.793284e-001 9.905781e-001 1.140020e+000 9.883437e-001 8.936040e-001 8.223147e-001 5.903616e-001 4.750773e-001
<GCONST> 1.481577e+002
<TRANSP> 5
 0.000000e+000 1.000000e+000 0.000000e+000 0.000000e+000 0.000000e+000
 0.000000e+000 9.299943e-001 7.000571e-002 0.000000e+000 0.000000e+000
 0.000000e+000 0.000000e+000 7.691945e-001 2.308056e-001 0.000000e+000
 0.000000e+000 0.000000e+000 0.000000e+000 7.814209e-001 2.185791e-001
 0.000000e+000 0.000000e+000 0.000000e+000 0.000000e+000 0.000000e+000
<ENDHMM>
~h "i"
<BEGINHMM>
<NUMSTATES> 5
<STATE> 2
<NUMMIXES> 2
<MIXTURE> 1 5.224091e-001
<MEAN> 39
 -3.575784e+000 1.501079e+000 9.199468e+000 -2.229656e+001 -1.792102e+001 -1.105982e+001 -8.538363e+000 -1.472554e+001 -4.715926e+000 -2.808689e-001 -8.171413e+000 -2.401326e+000 7.193559e+001 -7.049243e-001 1.850334e-001 2.495070e+000 -3.295089e+000 -7.659606e-001 1.215894e+000 -7.218528e-001 -5.328829e-001 1.940358e-001 8.647097e-001 -1.219298e+000 1.156871e+000 1.398669e+000 -2.551974e-001 1.409344e-001 -5.462086e-001 2.061191e-001 6.874365e-001 2.632873e-001 1.737825e-001 2.965700e-001 2.118374e-001 -1.213640e-001 1.246735e-001 1.334539e-001 -4.989881e-001
<VARIANCE> 39
 6.825864e+001 6.194307e+001 1.050898e+002 1.494790e+002 8.440268e+001 9.688152e+001 9.175240e+001 8.687295e+001 7.243347e+001 7.178433e+001 8.284213e+001 5.615814e+001 4.975925e+001 3.864431e+000 3.479268e+000 7.000931e+000 9.191005e+000 6.559699e+000 6.428708e+000 6.974812e+000 7.130023e+000 5.283613e+000 5.601853e+000 5.802671e+000 5.015955e+000 2.631587e+000 6.312273e-001 7.095434e-001 1.396211e+000 1.856372e+000 1.452175e+000 1.197569e+000 1.286128e+000 1.314425e+000 9.487357e-001 9.492157e-001 1.077288e+000 8.100459e-001 7.392964e-001
<GCONST> 1.514120e+002
<MIXTURE> 2 4.775561e-001
<MEAN> 39
 -9.346047e+000 7.802778e+000 8.758416e+000 -1.958908e+001 -1.516087e+001 -1.218377e+001 -1.335485e+001 -1.432414e+001 1.305852e-001 -6.130295e+000 -5.036276e+000 -2.912333e+000 6.615322e+001 2.132525e+000 1.376445e+000 2.167800e+000 -2.929842e+000 -3.292244e+000 -1.132804e-001 -2.242690e+000 -1.949242e+000 -2.164488e-002 -1.451783e-002 -2.013187e+000 2.771888e-001 2.559272e+000 -5.954313e-001 -7.296122e-001 -5.563443e-001 1.118568e-001 7.119315e-001 5.767277e-001 8.255699e-001 6.266580e-001 9.317656e-002 4.253670e-001 1.201444e-001 1.929164e-001 -2.980765e-001
<VARIANCE> 39
 4.751360e+001 5.445510e+001 5.866189e+001 1.194988e+002 9.475295e+001 5.692935e+001 7.001716e+001 5.645298e+001 6.165542e+001 5.628745e+001 4.847218e+001 3.602058e+001 9.208589e+001 6.274690e+000 5.687730e+000 6.515400e+000 7.271162e+000 7.614972e+000 6.731711e+000 7.814880e+000 6.115932e+000 6.460344e+000 5.349823e+000 6.393339e+000 4.328053e+000 5.959985e+000 8.139240e-001 8.052460e-001 7.465127e-001 1.269917e+000 1.623333e+000 9.886063e-001 1.124717e+000 1.017689e+000 1.034366e+000 8.257514e-001 8.767745e-001 6.947947e-001 7.676257e-001
<GCONST> 1.485052e+002
<STATE> 3
<NUMMIXES> 2
<MIXTURE> 1 4.579216e-001
<MEAN> 39
 -4.326499e+000 5.944004e+000 1.638618e+001 -3.700624e+001 -1.656053e+001 -5.785275e+000 -9.504431e+000 -1.714753e+001 -3.587044e+000 1.974100e+000 -1.571769e+001 4.031729e+000 7.453732e+001 2.342792e-001 1.620830e-001 -4.765942e-001 2.303727e-002 5.210154e-001 5.173766e-001 1.264330e-001 3.256435e-002 5.844623e-002 -1.288707e-001 1.305779e-001 1.356020e-001 -3.614269e-001 6.891167e-002 -5.130944e-002 -6.292080e-001 1.000634e+000 2.575352e-001 -2.079847e-001 1.579319e-001 1.422588e-001 5.450183e-002 -3.352686e-001 5.701869e-001 -4.486418e-001 -3.479660e-001
<VARIANCE> 39
 2.788660e+001 4.839172e+001 5.189450e+001 1.259407e+002 6.553099e+001 9.085802e+001 7.431754e+001 6.565381e+001 5.320124e+001 5.284895e+001 6.896407e+001 4.931010e+001 1.178850e+001 1.258497e+000 2.179549e+000 2.506755e+000 5.258178e+000 3.094229e+000 3.402052e+000 3.749085e+000 3.302473e+000 2.815400e+000 2.944862e+000 3.359855e+000 3.133976e+000 9.196939e-001 3.137848e-001 3.175408e-001 5.543296e-001 7.798755e-001 7.201317e-001 7.032664e-001 8.034838e-001 7.939183e-001 5.565056e-001 5.743293e-001 6.515365e-001 5.351070e-001 1.992536e-001
<GCONST> 1.281559e+002
<MIXTURE> 2 5.420260e-001
<MEAN> 39
 -9.900401e+000 4.978545e+000 7.966396e+000 -2.311469e+001 -1.605211e+001 -8.406875e+000 -1.637712e+001 -1.250151e+001 -1.560751e-001 -3.571734e+000 -7.244827e+000 -2.345714e+000 7.277013e+001 1.065184e-001 3.755069e-002 -2.664840e-001 1.139891e-001 2.807338e-001 2.089615e-001 1.066975e-001 2.744811e-002 -1.755264e-002 -9.425585e-002 -1.174826e-001 -6.979951e-002 -1.409114e-001 1.040856e-001 -7.179668e-002 -2.493250e-001 6.255702e-001 1.972606e-001 -2.458092e-001 3.945023e-001 8.004897e-002 -2.315181e-001 -3.522991e-002 1.193197e-001 -9.517151e-002 -3.259625e-001
<VARIANCE> 39
 2.684223e+001 3.749360e+001 4.624139e+001 1.094440e+002 6.123877e+001 6.096439e+001 7.961633e+001 4.799346e+001 6.361580e+001 7.832872e+001 6.724405e+001 4.651990e+001 2.993439e+001 6.621787e-001 1.193940e+000 1.376374e+000 2.616191e+000 2.234030e+000 2.254364e+000 2.793261e+000 2.223085e+000 2.506325e+000 2.301360e+000 2.153637e+000 1.947743e+000 6.304545e-001 1.618907e-001 2.015729e-001 2.729068e-001 4.245454e-001 5.759792e-001 4.884591e-001 5.643328e-001 5.020300e-001 5.195118e-001 4.877136e-001 4.761374e-001 3.952573e-001 1.310438e-001
<GCONST> 1.175862e+002
<STATE> 4
<NUMMIXES> 2
<MIXTURE> 1 4.957871e-001
<MEAN> 39
 -5.403367e+000 7.426493e+000 8.642910e+000 -1.800044e+001 -1.310920e+001 -8.086800e+000 -1.089576e+001 -1.278018e+001 -1.352590e+000 -4.327057e+000 -6.090506e+000 -2.051752e+000 6.476345e+001 -1.574750e-001 1.960827e-001 -1.036843e+000 2.251436e+000 1.196513e+000 -5.136127e-002 6.611339e-001 5.725372e-001 1.169527e-001 -5.087302e-001 8.322212e-001 -2.573436e-001 -1.649509e+000 -2.592312e-001 -1.803019e-001 -9.431873e-002 -5.131256e-003 1.535508e-001 8.900008e-002 1.044540e-001 7.543319e-002 2.223404e-002 1.115629e-001 4.399835e-002 5.010719e-002 4.007468e-003
<VARIANCE> 39
 5.278846e+001 4.966359e+001 5.666658e+001 1.517196e+002 7.330768e+001 1.169698e+002 6.961391e+001 6.676672e+001 5.419613e+001 6.310632e+001 5.591988e+001 4.616769e+001 5.626263e+001 1.925085e+000 2.291625e+000 2.959486e+000 3.503458e+000 4.006661e+000 4.251254e+000 4.875402e+000 4.047029e+000 3.833284e+000 3.738978e+000 3.958437e+000 3.283638e+000 1.908160e+000 2.307332e-001 3.503404e-001 3.632767e-001 5.449303e-001 6.291028e-001 6.943616e-001 7.289115e-001 6.890334e-001 6.256027e-001 6.029693e-001 5.824868e-001 5.231947e-001 2.288070e-001
<GCONST> 1.323562e+002
<MIXTURE> 2 5.041658e-001
<MEAN> 39
 -6.807249e+000 5.004268e+000 6.124243e+000 -1.969631e+001 -1.166343e+001 -7.232943e+000 -9.146783e+000 -1.408682e+001 -1.566676e+000 -6.415066e+000 -6.265138e+000 -3.511594e+000 6.581017e+001 5.793683e-002 -8.031868e-001 -1.760906e+000 2.625960e+000 7.513105e-001 -1.010107e+000 8.747804e-001 4.007591e-001 -5.116324e-001 -2.007784e-001 7.613607e-001 -7.623342e-001 -1.000152e+000 -2.372138e-002 -5.089954e-002 -5.339004e-002 -5.414479e-002 1.963527e-002 -8.925114e-002 -1.096272e-001 6.328331e-002 3.688861e-002 1.300511e-001 -1.585966e-002 1.399911e-001 -4.882511e-002
<VARIANCE> 39
 7.513898e+001 6.828782e+001 6.356573e+001 1.173522e+002 8.872438e+001 9.519041e+001 8.022173e+001 7.410191e+001 7.158712e+001 8.336299e+001 5.911375e+001 4.984320e+001 9.405091e+001 2.584673e+000 2.254994e+000 3.721628e+000 5.300497e+000 4.353389e+000 4.708630e+000 5.154690e+000 4.883394e+000 4.836970e+000 4.350423e+000 4.525247e+000 3.815667e+000 1.095967e+000 1.789524e-001 3.604649e-001 4.862233e-001 7.820827e-001 7.843119e-001 7.873899e-001 8.465473e-001 8.126296e-001 8.696699e-001 7.517665e-001 7.341502e-001 6.468223e-001 1.494580e-001
<GCONST> 1.374389e+002
<TRANSP> 5
 0.000000e+000 1.000000e+000 0.000000e+000 0.000000e+000 0.000000e+000
 0.000000e+000 6.268244e-001 3.731756e-001 0.000000e+000 0.000000e+000
 0.000000e+000 0.000000e+000 7.831381e-001 2.168619e-001 0.000000e+000
 0.000000e+000 0.000000e+000 0.000000e+000 7.358485e-001 2.641516e-001
 0.000000e+000 0.000000e+000 0.000000e+000 0.000000e+000 0.000000e+000
<ENDHMM>
~h "j"
<BEGINHMM>
<NUMSTATES> 5
<STATE> 2
<NUMMIXES> 2
<MIXTURE> 1 4.727292e-001
<MEAN> 39
 -1.435993e+001 -2.412841e+000 -6.439669e+000 -1.119399e+001 -2.533534e+000 -7.322997e+000 -4.870831e+000 -2.326084e-001 -4.860994e-001 -1.423332e+000 6.793970e-001 -3.432966e+000 6.178431e+001 -8.223307e-001 -4.518859e-004 -2.787664e-001 -4.285487e-001 -9.021393e-002 1.007106e+000 1.109528e+000 2.290653e-001 4.217366e-001 1.207268e+000 2.653345e-001 -1.792512e-002 -3.109866e-001 2.711718e-001 -4.012937e-002 3.657479e-002 -1.997604e-001 -1.864176e-001 1.333841e-002 -2.736856e-002 -1.976277e-001 -2.751359e-001 -2.348582e-001 -9.475950e-002 1.192972e-001 1.445759e-001
<VARIANCE> 39
 3.582331e+001 3.709021e+001 9.871621e+001 6.454211e+001 1.017075e+002 6.590578e+001 6.905360e+001 7.813210e+001 5.619032e+001 5.864218e+001 3.591673e+001 4.834924e+001 1.165522e+002 3.170195e+000 1.802941e+000 2.657028e+000 3.086952e+000 3.962706e+000 3.765746e+000 4.657748e+000 5.004277e+000 5.279271e+000 4.641296e+000 3.120982e+000 2.890939e+000 1.250285e+000 2.115123e-001 2.854376e-001 4.237546e-001 4.700752e-001 6.382159e-001 5.935297e-001 7.610956e-001 8.693823e-001 7.825705e-001 7.352176e-001 5.457240e-001 5.850766e-001 1.278265e-001
<GCONST> 1.311158e+002
<MIXTURE> 2 5.272704e-001
<MEAN> 39
 -1.294246e+001 -6.296906e+000 -8.541077e+000 -1.311393e+001 -6.878342e+000 -9.151862e+000 -6.159060e+000 -6.074522e+000 -3.840616e+000 -2.731460e+000 3.463759e+000 -1.277195e+000 5.649657e+001 -3.648619e-001 -2.370583e-001 1.106671e-001 1.133508e-001 5.682419e-001 9.975129e-002 -3.561304e-001 -1.712664e-001 3.450234e-001 5.458984e-001 2.011537e-002 -3.417069e-003 -3.899497e-001 1.269347e-001 5.249251e-002 -3.621703e-004 5.616920e-002 7.934868e-002 -8.942429e-002 -1.107046e-001 1.222105e-001 1.318245e-001 -8.552895e-002 -2.193251e-001 -1.007830e-001 -3.345932e-002
<VARIANCE> 39
 4.371051e+001 5.939714e+001 5.906023e+001 5.975070e+001 1.087117e+002 8.699510e+001 1.482915e+002 5.203332e+001 4.847660e+001 6.910475e+001 6.604041e+001 5.547137e+001 1.897873e+002 1.100841e+000 2.092679e+000 1.837063e+000 1.986123e+000 3.221931e+000 3.339248e+000 3.807618e+000 4.153193e+000 3.953275e+000 5.442938e+000 3.033387e+000 3.352896e+000 1.524633e+000 1.270258e-001 2.340286e-001 3.070600e-001 2.709737e-001 4.817184e-001 6.654673e-001 6.464440e-001 6.552935e-001 6.909060e-001 9.750158e-001 5.452942e-001 6.116139e-001 1.217774e-001
<GCONST> 1.288603e+002
<STATE> 3
<NUMMIXES> 2
<MIXTURE> 1 4.097618e-001
<MEAN> 39
 -1.581403e+001 -4.976172e-001 -3.492637e+000 -2.033092e+001 -5.828910e+000 -3.383458e+000 -1.388598e-001 -3.895624e+000 3.183492e-001 1.151726e+000 -3.164818e+000 -5.363271e+000 6.013474e+001 -1.977681e-001 -2.974646e-002 -1.114329e-002 -5.107808e-001 4.912352e-001 3.246154e-001 2.156949e-001 -2.424754e-001 1.549651e-001 -3.625034e-001 -4.692060e-001 4.000094e-001 -6.384305e-002 9.366109e-001 1.578268e-001 1.602291e-001 2.618704e-002 -2.548935e-001 -3.228640e-001 -3.900245e-001 -2.469608e-001 -3.028693e-001 -3.476461e-001 2.098932e-002 2.849464e-001 3.030366e-001
<VARIANCE> 39
 3.648352e+001 7.655738e+001 1.044406e+002 1.823948e+002 1.081876e+002 6.807102e+001 7.535159e+001 1.082709e+002 6.577885e+001 5.243705e+001 5.322692e+001 3.897195e+001 1.784161e+002 2.973887e+000 1.983860e+000 2.895554e+000 4.306663e+000 4.701396e+000 4.121006e+000 4.707361e+000 4.968856e+000 5.544917e+000 5.289328e+000 2.936066e+000 2.166289e+000 1.827974e+000 6.459107e-001 5.280112e-001 6.216456e-001 9.708410e-001 9.227648e-001 8.005496e-001 1.144208e+000 1.331064e+000 8.460047e-001 9.898461e-001 4.211558e-001 4.724474e-001 4.043833e-001
<GCONST> 1.404317e+002
<MIXTURE> 2 5.902381e-001
<MEAN> 39
 -1.661032e+001 -3.610208e+000 -3.672913e+000 -1.453792e+001 -3.366066e+000 -5.534124e+000 -1.504840e+000 -1.000263e+000 -1.402910e+000 9.658949e-001 -1.180675e+000 -3.933912e+000 6.347739e+001 1.099915e-001 7.242991e-001 8.035126e-001 -2.494081e-001 -7.206060e-001 -7.025769e-002 -4.559025e-001 -9.925054e-001 2.066515e-002 -5.441560e-001 -8.564747e-001 9.291139e-002 -2.790078e-001 1.022638e+000 5.159806e-001 2.719951e-001 -3.929515e-001 -7.279421e-001 -6.925106e-001 -7.587028e-001 -5.958937e-001 -3.505883e-001 -5.947036e-001 -2.778782e-001 1.186535e-002 3.549580e-001
<VARIANCE> 39
 5.032380e+001 3.042365e+001 1.350513e+002 8.854288e+001 8.781015e+001 5.408347e+001 7.941072e+001 1.118181e+002 6.674084e+001 5.977470e+001 4.345109e+001 7.342761e+001 8.938097e+001 3.320650e+000 1.543934e+000 2.441463e+000 2.368314e+000 3.130912e+000 4.258420e+000 3.696574e+000 4.071428e+000 4.026801e+000 3.090481e+000 2.244151e+000 3.243960e+000 8.198699e-001 3.526393e-001 3.211255e-001 4.386540e-001 4.607706e-001 6.749001e-001 5.221461e-001 8.570223e-001 1.032642e+000 1.129445e+000 7.893466e-001 6.613472e-001 7.651709e-001 2.627880e-001
<GCONST> 1.327335e+002
<STATE> 4
<NUMMIXES> 2
<MIXTURE> 1 4.850004e-001
<MEAN> 39
 -9.257208e+000 -9.110922e+000 -1.913147e+001 -1.876454e+001 7.801393e+000 -4.088263e+000 -2.474942e+000 2.077822e+000 -4.533669e+000 -1.385025e+000 1.363274e+000 -2.184148e+000 5.253677e+001 1.297968e+000 8.122180e-001 -8.749579e-001 -1.346543e+000 -1.996500e-001 -3.707215e-001 3.058133e-001 3.078417e-001 -1.674913e-001 -1.746137e-002 2.657286e-001 2.373406e-002 2.153486e+000 3.043208e-001 3.480977e-001 3.836215e-001 7.845107e-002 -4.695025e-001 -1.930000e-001 -2.693579e-001 -4.522389e-001 8.132270e-002 -6.650019e-002 -9.889790e-002 -1.371793e-001 3.716846e-001
<VARIANCE> 39
 3.285065e+001 6.512632e+001 1.122250e+002 1.794698e+002 1.654533e+002 2.281638e+002 9.428724e+001 1.643854e+002 1.412004e+002 9.650183e+001 1.170890e+002 5.786450e+001 1.731566e+002 4.558386e+000 6.037179e+000 9.234480e+000 7.693649e+000 7.040282e+000 7.998924e+000 9.779462e+000 8.739703e+000 6.050450e+000 6.163970e+000 4.181592e+000 4.624915e+000 5.191423e+000 6.659691e-001 7.709512e-001 1.247018e+000 1.334209e+000 1.059901e+000 1.472998e+000 1.645484e+000 1.167039e+000 1.058785e+000 1.014313e+000 8.579493e-001 8.562118e-001 9.347129e-001
<GCONST> 1.578595e+002
<MIXTURE> 2 5.149994e-001
<MEAN> 39
 -1.263311e+001 -9.477085e-001 -4.608076e+000 -1.591200e+001 -5.044545e-001 -6.832384e+000 -4.123071e+000 -2.831435e+000 -2.579743e+000 -9.063137e-001 -2.520607e+000 -3.131843e+000 6.376761e+001 3.254520e+000 1.838871e+000 1.350580e+000 -1.166647e+000 -2.932047e+000 -1.454600e+000 -2.246084e+000 -2.798224e+000 -1.333802e+000 -1.703764e+000 -1.447205e+000 -1.493098e-001 1.297710e+000 6.742198e-001 -8.293962e-002 -2.587592e-001 -6.170296e-001 -8.248543e-001 -1.930131e-001 -3.427737e-001 -2.014125e-001 -1.020166e-001 2.664431e-003 -1.677472e-001 -7.902562e-003 5.924121e-001
<VARIANCE> 39
 6.978328e+001 3.861646e+001 1.564820e+002 1.048242e+002 1.226289e+002 7.065437e+001 7.706616e+001 8.878115e+001 5.815685e+001 4.970236e+001 4.306838e+001 4.797545e+001 8.437824e+001 3.890110e+000 3.342687e+000 3.631690e+000 4.538762e+000 5.893012e+000 4.180892e+000 5.670131e+000 5.296511e+000 5.630570e+000 3.780501e+000 2.773129e+000 4.749300e+000 1.686197e+000 5.894744e-001 5.316781e-001 5.856975e-001 6.653615e-001 1.155138e+000 6.584992e-001 1.014619e+000 1.023511e+000 8.762171e-001 6.821045e-001 5.812529e-001 7.671821e-001 3.810324e-001
<GCONST> 1.407243e+002
<TRANSP> 5
 0.000000e+000 1.000000e+000 0.000000e+000 0.000000e+000 0.000000e+000
 0.000000e+000 7.402238e-001 2.597762e-001 0.000000e+000 0.000000e+000
 0.000000e+000 0.000000e+000 4.780061e-001 5.219939e-001 0.000000e+000
 0.000000e+000 0.000000e+000 0.000000e+000 6.301602e-001 3.698398e-001
 0.000000e+000 0.000000e+000 0.000000e+000 0.000000e+000 0.000000e+000
<ENDHMM>
~h "k"
<BEGINHMM>
<NUMSTATES> 5
<STATE> 2
<NUMMIXES> 2
<MIXTURE> 1 4.532230e-001
<MEAN> 39
 -1.126495e+001 2.090074e+000 -8.383063e-001 -2.487650e+000 -3.882716e+000 -5.834056e+000 -3.582243e+000 -3.444009e+000 -2.467103e-001 -8.695966e-001 -8.305524e-003 -8.050912e-001 5.355993e+001 -6.917827e-001 -6.071829e-001 -5.597554e-001 1.810316e-001 1.024042e+000 9.273959e-001 8.545265e-001 8.274531e-001 2.194417e-001 3.203686e-001 5.986763e-001 3.402040e-001 -5.760973e-001 1.145526e-001 -1.883427e-001 -3.195133e-001 -6.587782e-001 -2.135651e-001 -2.949156e-001 -1.988715e-001 -5.010738e-003 -4.373017e-002 2.831496e-002 -2.826457e-001 -4.604981e-002 6.711894e-001
<VARIANCE> 39
 2.673085e+001 3.427827e+001 2.204041e+001 2.844077e+001 3.075497e+001 3.316488e+001 3.330543e+001 3.926150e+001 2.707826e+001 3.121947e+001 2.621076e+001 2.249453e+001 5.104447e+001 1.667337e+000 1.862367e+000 3.061647e+000 3.907573e+000 3.114301e+000 3.270534e+000 2.941730e+000 3.133594e+000 2.787427e+000 2.838185e+000 2.900376e+000 2.293478e+000 2.579378e+000 3.425393e-001 3.812178e-001 5.355174e-001 5.949928e-001 5.681904e-001 7.027990e-001 6.093878e-001 6.226848e-001 5.756759e-001 5.745372e-001 5.544257e-001 4.804082e-001 3.803047e-001
<GCONST> 1.206989e+002
<MIXTURE> 2 5.467508e-001
<MEAN> 39
 -1.321922e+001 -2.787921e+000 -5.026519e+000 -1.158726e+001 -7.259100e+000 -1.058748e+001 -2.964271e+000 -6.568633e+000 -5.352378e-001 -4.640831e+000 -1.467581e+000 -3.269106e+000 5.557544e+001 -1.691979e-001 -5.059507e-001 -3.286791e-001 1.451037e-001 1.096574e-001 3.646117e-002 1.979569e-001 3.270309e-001 1.025934e-001 2.235632e-001 3.026271e-001 1.200906e-001 -9.721841e-001 2.661490e-001 3.732366e-002 -7.617701e-002 -2.834761e-001 1.195320e-001 1.426731e-001 -1.090455e-001 9.337807e-002 -1.029225e-001 -2.869130e-002 -6.483304e-002 1.244872e-002 3.517888e-001
<VARIANCE> 39
 6.615347e+001 7.265775e+001 5.157064e+001 5.792011e+001 6.805721e+001 6.103152e+001 6.160054e+001 6.966422e+001 5.950631e+001 5.838896e+001 5.838883e+001 4.292617e+001 1.242288e+002 2.212978e+000 2.468669e+000 2.979481e+000 4.030324e+000 4.449463e+000 4.706350e+000 4.824098e+000 4.873129e+000 4.775013e+000 4.677215e+000 4.647907e+000 3.744954e+000 3.496808e+000 4.181668e-001 5.672880e-001 8.017280e-001 1.043782e+000 1.027135e+000 1.030834e+000 1.098651e+000 1.134407e+000 1.099462e+000 9.789296e-001 9.297965e-001 7.870226e-001 5.639292e-001
<GCONST> 1.411013e+002
<STATE> 3
<NUMMIXES> 2
<MIXTURE> 1 5.115126e-001
<MEAN> 39
 -1.092737e+001 -3.373277e+000 -3.626440e+000 -9.823412e+000 -3.172943e+000 -9.319722e+000 -1.827225e+000 -5.019381e+000 -9.791074e-001 -3.825031e+000 -2.428285e+000 -2.869386e+000 5.270837e+001 4.906935e-001 -1.234430e+000 -1.781775e+000 -1.816242e+000 1.092488e+000 -2.886592e-001 -4.347192e-001 1.328513e+000 -2.228085e-001 4.955019e-001 1.952995e-001 4.263189e-001 2.462498e+000 4.885951e-001 1.267850e-001 -3.098206e-001 -7.935323e-001 -1.810149e-001 -2.331020e-001 -4.606735e-001 -1.990182e-002 -2.224687e-001 -8.453712e-003 -1.002172e-001 2.262137e-002 1.138718e+000
<VARIANCE> 39
 6.247871e+001 9.063890e+001 7.748416e+001 9.510920e+001 1.036061e+002 9.634446e+001 8.183494e+001 8.638979e+001 6.429558e+001 6.438331e+001 5.900351e+001 4.415011e+001 1.161693e+002 7.113193e+000 8.506242e+000 1.202786e+001 1.284886e+001 1.204799e+001 1.252737e+001 1.065049e+001 1.087201e+001 8.878576e+000 6.938663e+000 6.220124e+000 5.656822e+000 1.158008e+001 8.039714e-001 1.412822e+000 1.376109e+000 1.747342e+000 1.804851e+000 1.744047e+000 1.545230e+000 1.637850e+000 1.288333e+000 1.130155e+000 1.056577e+000 8.967121e-001 1.544823e+000
<GCONST> 1.611239e+002
<MIXTURE> 2 4.884745e-001
<MEAN> 39
 -1.100696e+001 -2.637213e+000 -5.234910e+000 -9.830441e+000 -4.955923e+000 -9.524096e+000 -1.998042e+000 -2.551898e+000 7.870283e-001 -2.228105e+000 -8.861992e-001 -1.230972e+000 5.590803e+001 9.962599e-001 -6.432226e-001 -2.110230e+000 -2.574353e+000 2.259511e-001 -2.640753e-001 -4.935437e-001 8.269829e-001 -8.754160e-001 6.846298e-002 -3.752429e-001 -1.224472e-001 2.277615e+000 5.719640e-001 3.454439e-001 -5.385201e-002 -5.535538e-001 -1.967327e-001 -7.447951e-002 -4.838568e-001 -4.060244e-001 -5.286378e-001 -1.815304e-001 -2.746104e-001 -1.892726e-001 7.580209e-001
<VARIANCE> 39
 5.687371e+001 7.694180e+001 6.363774e+001 9.195596e+001 8.745533e+001 9.233822e+001 6.860637e+001 8.966324e+001 5.835709e+001 6.398796e+001 5.702470e+001 4.199067e+001 9.636074e+001 5.396218e+000 6.142467e+000 1.041200e+001 1.059417e+001 1.113430e+001 1.158021e+001 8.957642e+000 9.145147e+000 8.410321e+000 6.307490e+000 6.380048e+000 4.979854e+000 6.595266e+000 5.497971e-001 7.882417e-001 9.763282e-001 1.320111e+000 1.459491e+000 1.457883e+000 1.190995e+000 1.337559e+000 1.089862e+000 9.813917e-001 9.903424e-001 7.355009e-001 7.744512e-001
<GCONST> 1.539494e+002
<STATE> 4
<NUMMIXES> 2
<MIXTURE> 1 4.626660e-001
<MEAN> 39
 -3.140381e+000 -2.232523e+000 -1.724243e+001 -2.419964e+001 -3.370519e-001 -4.605835e+000 -6.047308e+000 -3.010211e+000 -8.750092e+000 -4.306383e-002 -1.291987e+000 -3.876126e+000 6.329348e+001 1.527995e+000 7.406469e-001 -3.988124e-001 -1.072969e+000 1.203247e-001 -6.280083e-002 -1.279083e+000 -5.405818e-001 -1.355449e+000 1.651412e-001 3.551370e-001 -1.535612e-001 1.909148e+000 1.653329e-001 6.806591e-001 1.497552e+000 1.089816e+000 -9.412742e-001 -7.121499e-001 -1.787848e-001 -8.406530e-001 5.992916e-001 -5.174894e-001 -1.432892e-001 1.882700e-001 -3.349673e-001
<VARIANCE> 39
 6.900973e+001 7.181095e+001 1.381222e+002 1.479384e+002 1.201793e+002 1.037380e+002 1.144265e+002 1.037068e+002 9.714611e+001 7.843402e+001 6.224599e+001 6.300561e+001 5.095214e+001 4.083733e+000 5.394625e+000 1.215906e+001 1.135576e+001 8.944871e+000 7.820214e+000 7.652290e+000 8.874127e+000 7.701942e+000 6.000970e+000 4.604786e+000 4.644761e+000 4.992988e+000 6.421326e-001 9.346849e-001 1.850466e+000 2.027905e+000 1.980073e+000 1.650344e+000 1.940365e+000 1.745977e+000 1.663657e+000 1.266181e+000 1.008813e+000 1.142441e+000 7.001517e-001
<GCONST> 1.588036e+002
<MIXTURE> 2 5.373139e-001
<MEAN> 39
 -1.016332e+001 -5.427017e+000 -8.535849e+000 -1.512883e+001 -3.127808e+000 -1.309297e+001 -5.261310e+000 8.979725e-001 -1.953301e-002 -2.603957e+000 -2.632391e+000 -5.446118e-001 6.544011e+001 2.079233e+000 1.302662e+000 4.857383e-002 -2.019190e+000 -1.594569e+000 -1.195041e+000 -1.477158e+000 -1.112463e+000 -1.145408e+000 -1.209557e+000 -1.500512e+000 -3.755366e-001 2.986593e+000 3.328985e-001 4.265164e-001 6.130098e-001 1.456176e-001 -4.683133e-001 4.972449e-001 -6.458300e-002 -8.015336e-001 -2.563911e-001 -1.260684e-001 -2.267410e-001 -1.397145e-001 -3.941940e-001
<VARIANCE> 39
 6.480937e+001 8.312611e+001 1.006991e+002 1.095455e+002 1.114113e+002 1.201563e+002 1.051842e+002 1.049365e+002 6.802889e+001 7.325504e+001 6.016774e+001 4.931736e+001 9.227206e+001 4.276218e+000 6.786117e+000 6.491845e+000 7.155393e+000 7.126192e+000 6.816952e+000 7.655150e+000 8.045309e+000 5.897047e+000 4.828655e+000 5.942992e+000 3.871599e+000 8.762319e+000 9.626882e-001 1.315763e+000 1.111792e+000 1.484931e+000 1.814856e+000 1.781286e+000 1.887938e+000 1.587325e+000 1.215395e+000 1.099859e+000 1.137519e+000 8.404430e-001 1.194642e+000
<GCONST> 1.567197e+002
<TRANSP> 5
 0.000000e+000 1.000000e+000 0.000000e+000 0.000000e+000 0.000000e+000
 0.000000e+000 7.530019e-001 2.469981e-001 0.000000e+000 0.000000e+000
 0.000000e+000 0.000000e+000 5.108876e-001 4.891124e-001 0.000000e+000
 0.000000e+000 0.000000e+000 0.000000e+000 5.319816e-001 4.680184e-001
 0.000000e+000 0.000000e+000 0.000000e+000 0.000000e+000 0.000000e+000
<ENDHMM>
~h "l"
<BEGINHMM>
<NUMSTATES> 5
<STATE> 2
<NUMMIXES> 2
<MIXTURE> 1 4.448067e-001
<MEAN> 39
 -2.229868e+000 -4.477856e+000 8.957765e-001 -1.174302e+001 -1.175335e+001 -1.914655e+001 -1.146485e+001 -6.949916e+000 -1.443733e+000 -6.115655e+000 -4.668662e+000 -1.327180e+000 6.848685e+001 3.613578e-001 7.845563e-001 6.727038e-001 8.720883e-001 -8.462056e-002 -1.311293e+000 -3.618376e-001 3.795504e-001 -1.306475e-001 -8.459973e-001 4.126106e-001 1.194465e+000 -4.121448e-001 -9.142484e-002 4.529478e-002 -1.425122e-001 -4.783807e-001 1.814895e-001 4.228170e-001 9.604634e-002 2.118761e-001 7.037718e-003 1.561200e-001 1.132626e-001 8.574633e-002 3.463824e-002
<VARIANCE> 39
 5.679995e+001 5.455578e+001 5.769186e+001 9.301915e+001 6.304317e+001 8.529907e+001 1.017993e+002 6.527622e+001 7.782831e+001 6.729817e+001 6.104518e+001 6.591456e+001 8.983500e+001 1.341394e+000 2.464750e+000 2.333639e+000 3.989359e+000 4.414896e+000 4.796670e+000 6.842036e+000 4.715328e+000 5.329341e+000 5.025829e+000 4.335896e+000 3.751061e+000 1.616445e+000 2.842965e-001 4.085225e-001 3.905393e-001 7.683958e-001 7.516252e-001 9.443216e-001 9.034467e-001 8.659698e-001 8.101698e-001 1.025926e+000 7.975494e-001 7.071933e-001 2.479354e-001
<GCONST> 1.374707e+002
<MIXTURE> 2 5.551913e-001
<MEAN> 39
 -7.242152e+000 -1.191956e+000 -2.415520e-001 -1.154249e+001 -1.377121e+001 -1.806199e+001 -1.189621e+001 -7.864211e+000 -2.771561e+000 -8.169317e+000 -3.575865e-001 -4.466035e-001 7.149742e+001 -2.849758e-001 5.260870e-001 4.491438e-001 4.079214e-001 1.502325e-001 -4.015767e-001 8.794913e-002 1.182129e-001 -4.665361e-001 -2.817294e-001 2.856163e-002 4.141675e-001 -3.447286e-001 -1.924032e-002 -1.088601e-001 -1.436787e-001 -2.100738e-001 7.887238e-002 3.021990e-001 5.606183e-002 1.800081e-002 1.302993e-001 1.090642e-001 -1.989063e-001 -8.565864e-002 8.080492e-002
<VARIANCE> 39
 3.264325e+001 3.612555e+001 4.413794e+001 5.708546e+001 3.239771e+001 5.106640e+001 5.872506e+001 4.765168e+001 6.010570e+001 4.653643e+001 3.552816e+001 4.607640e+001 4.023012e+001 5.252342e-001 1.024004e+000 1.451600e+000 1.636070e+000 1.499686e+000 2.638034e+000 2.408093e+000 2.815587e+000 2.944096e+000 2.477764e+000 2.400683e+000 2.527889e+000 3.511876e-001 6.609114e-002 1.387666e-001 2.105429e-001 3.351490e-001 2.527982e-001 4.933545e-001 4.346924e-001 4.890785e-001 5.641254e-001 4.780887e-001 4.675650e-001 3.598904e-001 5.594181e-002
<GCONST> 1.102902e+002
<STATE> 3
<NUMMIXES> 2
<MIXTURE> 1 4.234379e-001
<MEAN> 39
 -4.586916e+000 -1.179467e+000 6.391724e-001 -1.344122e+001 -1.038330e+001 -1.845861e+001 -1.223596e+001 -6.242570e+000 1.275867e+000 -9.240060e+000 -2.671450e+000 1.949913e+000 6.475391e+001 2.499915e-001 1.209978e-001 -1.140357e-002 -2.060224e-001 -3.294133e-002 -8.801287e-002 5.530537e-002 8.147954e-001 1.257621e-001 -7.042766e-001 2.800867e-001 5.639369e-001 1.126614e-001 -8.661937e-003 -1.823120e-001 -2.545151e-001 -3.700530e-001 -1.182963e-002 3.082566e-001 2.982120e-001 2.062642e-001 -1.219560e-001 2.858096e-001 -6.730559e-002 -3.480425e-001 2.513323e-001
<VARIANCE> 39
 8.997506e+001 7.150452e+001 6.348328e+001 9.410939e+001 6.256243e+001 8.052294e+001 8.450556e+001 6.749277e+001 7.649226e+001 8.557104e+001 7.456198e+001 7.831254e+001 1.248254e+002 1.800471e+000 2.974815e+000 2.861339e+000 4.436845e+000 4.401549e+000 6.037961e+000 6.122353e+000 5.586354e+000 4.543965e+000 5.100246e+000 4.563004e+000 3.724708e+000 2.174548e+000 3.599806e-001 6.274384e-001 5.541813e-001 8.359618e-001 8.679068e-001 1.071928e+000 1.225738e+000 1.107238e+000 8.649420e-001 1.276236e+000 8.642318e-001 8.762289e-001 3.544894e-001
<GCONST> 1.431454e+002
<MIXTURE> 2 5.765607e-001
<MEAN> 39
 -1.956119e+000 -3.910721e+000 1.312909e+000 -1.070443e+001 -1.085406e+001 -2.140727e+001 -1.404496e+001 -4.809698e+000 -1.653102e+000 -8.627917e+000 -6.463720e+000 5.062421e+000 7.069861e+001 -2.355010e-001 -3.519129e-001 -1.738054e-002 -6.498109e-001 -1.174741e-001 2.992163e-001 4.608792e-001 2.164163e-001 -1.842869e-002 2.573117e-001 -1.456323e-001 -3.409911e-001 4.261777e-001 -1.176492e-001 -3.388674e-001 -2.630075e-001 -3.769626e-001 -2.787323e-001 5.252064e-001 3.488968e-001 -3.095444e-002 8.969928e-002 2.282360e-001 1.112580e-001 -5.464247e-001 3.237596e-001
<VARIANCE> 39
 6.772237e+001 5.179981e+001 3.807321e+001 5.802904e+001 6.227045e+001 6.520358e+001 6.910719e+001 6.205534e+001 5.453281e+001 5.527796e+001 5.768435e+001 5.165520e+001 1.719289e+001 4.863598e-001 1.059645e+000 1.266195e+000 1.954201e+000 2.308332e+000 2.350661e+000 3.387630e+000 2.870268e+000 2.579510e+000 2.724386e+000 3.015709e+000 2.002661e+000 7.126178e-001 8.836409e-002 2.348293e-001 2.773652e-001 4.687770e-001 5.472827e-001 5.541000e-001 7.427238e-001 5.968237e-001 6.057162e-001 5.839909e-001 6.587638e-001 3.791780e-001 1.187978e-001
<GCONST> 1.182079e+002
<STATE> 4
<NUMMIXES> 2
<MIXTURE> 1 4.539281e-001
<MEAN> 39
 2.384220e+000 -2.291797e+000 3.789654e+000 -1.773463e+001 -8.557693e+000 -1.654458e+001 -1.446922e+001 -3.296384e+000 1.608407e+000 -1.030920e+001 -8.421976e+000 3.614896e+000 6.840092e+001 -2.071479e-002 1.863228e-001 -7.092993e-002 -5.013794e-001 1.742439e-001 -1.429506e-002 4.226906e-001 4.821101e-001 -4.116579e-001 3.432232e-001 1.871738e-001 8.337414e-002 4.318352e-001 -2.096925e-001 -2.023548e-001 -1.138720e-001 -1.955870e-001 3.658711e-002 8.642697e-002 3.294590e-001 -1.798982e-001 -1.672283e-001 4.454006e-001 1.322020e-001 -6.792713e-002 1.162855e-001
<VARIANCE> 39
 5.101049e+001 6.778336e+001 6.571735e+001 1.464524e+002 8.634124e+001 1.619585e+002 1.393973e+002 1.629065e+002 1.251924e+002 1.136153e+002 7.807582e+001 1.335408e+002 6.862199e+001 3.825298e+000 4.289999e+000 3.448955e+000 6.523664e+000 5.901991e+000 8.729192e+000 8.543086e+000 8.398997e+000 8.266815e+000 7.722271e+000 7.170774e+000 7.421093e+000 4.234279e+000 3.214925e-001 6.646503e-001 5.087316e-001 9.019303e-001 1.113925e+000 1.359466e+000 1.438436e+000 1.531190e+000 1.661318e+000 1.191036e+000 1.195451e+000 1.399810e+000 3.678268e-001
<GCONST> 1.543971e+002
<MIXTURE> 2 5.460705e-001
<MEAN> 39
 -5.195856e-001 -5.543038e+000 1.922158e+000 -1.855300e+001 -9.267564e+000 -2.035647e+001 -1.327158e+001 -1.550400e+000 8.389424e-001 -8.327783e+000 -6.885870e+000 4.258614e+000 7.329655e+001 -2.678198e-001 -1.112785e+000 -1.077132e+000 -9.325007e-001 5.020575e-002 1.213164e+000 1.516475e+000 7.143167e-001 -1.715363e-001 4.533932e-001 -2.925619e-001 -1.067323e+000 7.798613e-001 -7.471944e-002 -5.498591e-002 -2.239831e-001 6.447155e-002 7.731499e-002 3.812405e-001 3.249999e-001 -2.037150e-001 -2.317520e-001 4.536086e-002 -5.523377e-002 -1.074728e-001 -2.909608e-002
<VARIANCE> 39
 6.177347e+001 5.559617e+001 6.255230e+001 1.172884e+002 7.434728e+001 8.446077e+001 9.520109e+001 1.117154e+002 8.088677e+001 7.550013e+001 7.352570e+001 8.824522e+001 3.121776e+001 9.072451e-001 3.521317e+000 3.277773e+000 4.026863e+000 4.664845e+000 4.642329e+000 8.272170e+000 7.692420e+000 5.727278e+000 6.183529e+000 4.592039e+000 4.334611e+000 1.879617e+000 1.273153e-001 4.539951e-001 3.141814e-001 4.395658e-001 6.070225e-001 6.253828e-001 9.699256e-001 7.906110e-001 7.426021e-001 8.379393e-001 7.167161e-001 7.403524e-001 1.706396e-001
<GCONST> 1.368907e+002
<TRANSP> 5
 0.000000e+000 1.000000e+000 0.000000e+000 0.000000e+000 0.000000e+000
 0.000000e+000 7.000999e-001 2.999001e-001 0.000000e+000 0.000000e+000
 0.000000e+000 0.000000e+000 5.988007e-001 4.011993e-001 0.000000e+000
 0.000000e+000 0.000000e+000 0.000000e+000 6.556109e-001 3.443892e-001
 0.000000e+000 0.000000e+000 0.000000e+000 0.000000e+000 0.000000e+000
<ENDHMM>
~h "m"
<BEGINHMM>
<NUMSTATES> 5
<STATE> 2
<NUMMIXES> 2
<MIXTURE> 1 4.131940e-001
<MEAN> 39
 -6.559710e+000 -3.388866e+000 -2.552045e+000 -7.296978e+000 -4.921889e+000 -1.040443e+001 -7.152144e+000 -9.903780e+000 -3.495221e+000 -3.765237e+000 -2.877632e+000 -4.574156e+000 5.723013e+001 1.492967e+000 1.495821e+000 7.136971e-001 7.380859e-001 -9.220556e-002 -7.260528e-001 -1.117363e+000 -1.786371e+000 -9.416061e-001 -8.660902e-002 -3.562982e-001 -2.856415e-001 6.573187e-001 3.082610e-001 1.506224e-001 -1.068689e-001 -3.180875e-001 -1.380937e-001 -9.246058e-002 -2.340005e-001 -1.575904e-001 -1.494024e-001 -2.274455e-003 -5.881765e-002 -9.487446e-002 4.243546e-001
<VARIANCE> 39
 7.088802e+001 5.512376e+001 3.993466e+001 5.322293e+001 6.118022e+001 5.792859e+001 8.135428e+001 7.969064e+001 4.543928e+001 5.858432e+001 4.501132e+001 3.630749e+001 2.281545e+002 6.026653e+000 6.332153e+000 4.128184e+000 3.586334e+000 4.072930e+000 4.427331e+000 5.810205e+000 6.564950e+000 5.083216e+000 4.605229e+000 3.581751e+000 3.219091e+000 4.236716e+000 7.607055e-001 8.559572e-001 7.441556e-001 5.943730e-001 6.323133e-001 8.000118e-001 9.114004e-001 1.263068e+000 8.734781e-001 8.084462e-001 6.676094e-001 5.429688e-001 5.904562e-001
<GCONST> 1.415126e+002
<MIXTURE> 2 5.867933e-001
<MEAN> 39
 3.622802e+000 -1.433109e-001 -4.702354e+000 -1.155992e+001 -7.332518e+000 -1.160543e+001 -1.279692e+001 -1.571399e+001 -8.138296e+000 -4.578746e+000 -5.248983e+000 -7.728642e+000 6.584194e+001 1.147167e+000 -4.814145e-002 -4.668920e-001 5.530800e-001 -1.881755e-001 -4.410872e-001 -4.350424e-001 -1.926286e+000 -8.127996e-001 8.112063e-001 -6.147180e-001 -7.207500e-001 9.584353e-001 -6.483685e-001 -5.102308e-001 5.258190e-002 -1.481252e-001 2.135426e-001 2.595158e-001 3.929890e-001 6.318522e-001 4.150112e-001 1.509331e-001 -1.718346e-002 2.152311e-001 -4.796300e-002
<VARIANCE> 39
 6.298526e+001 8.694501e+001 6.382189e+001 7.275449e+001 6.917503e+001 6.578038e+001 6.355747e+001 8.310544e+001 5.520854e+001 7.098837e+001 5.381298e+001 3.602081e+001 6.465955e+001 4.038958e+000 5.533296e+000 6.125762e+000 7.140739e+000 5.770781e+000 5.951832e+000 6.751275e+000 8.335842e+000 6.224401e+000 5.908242e+000 4.511918e+000 3.767653e+000 5.885029e+000 4.468041e-001 8.875291e-001 9.254698e-001 7.889608e-001 7.319714e-001 8.782796e-001 8.684227e-001 1.097712e+000 8.184985e-001 9.432481e-001 7.284709e-001 5.613607e-001 3.676758e-001
<GCONST> 1.445157e+002
<STATE> 3
<NUMMIXES> 2
<MIXTURE> 1 4.947858e-001
<MEAN> 39
 2.237239e+000 -4.558521e+000 -2.610790e+000 -8.302701e+000 -7.267222e+000 -1.133229e+001 -1.165697e+001 -1.685368e+001 -8.355357e+000 -5.993430e-001 -5.874227e+000 -7.188120e+000 6.984904e+001 -1.655231e-002 6.931287e-002 7.962210e-002 3.455835e-001 1.310107e-001 -4.707869e-002 -1.037995e-002 -3.470795e-001 -4.832926e-002 3.268378e-001 1.505785e-001 1.098370e-001 -6.894784e-002 -8.475908e-002 -6.386840e-002 -1.520569e-001 -4.093752e-001 -4.243724e-002 6.811821e-002 2.760932e-002 6.173784e-001 2.522143e-001 -2.046695e-001 6.452314e-002 -1.150346e-002 1.248816e-001
<VARIANCE> 39
 6.040574e+001 5.286388e+001 4.719263e+001 7.493727e+001 6.813761e+001 6.177505e+001 1.029148e+002 9.056332e+001 5.894857e+001 7.856483e+001 6.336706e+001 4.505430e+001 1.937673e+001 3.349301e-001 1.307758e+000 1.315459e+000 1.861118e+000 1.878456e+000 1.801633e+000 2.266893e+000 3.148088e+000 2.391134e+000 2.517535e+000 2.144301e+000 2.046745e+000 6.148634e-001 8.942211e-002 1.877587e-001 4.042400e-001 4.177799e-001 3.430347e-001 4.231546e-001 5.264129e-001 8.004203e-001 6.120808e-001 5.779703e-001 4.694744e-001 4.817192e-001 9.347539e-002
<GCONST> 1.172498e+002
<MIXTURE> 2 5.051841e-001
<MEAN> 39
 -6.059799e-001 -1.479715e+000 -4.069975e+000 -9.287684e+000 -6.749769e+000 -1.206613e+001 -1.295879e+001 -1.290786e+001 -7.722288e+000 -5.257890e+000 -6.816396e+000 -9.111460e+000 6.800961e+001 -9.869138e-002 6.681209e-002 9.301358e-002 1.562129e-001 8.143129e-002 -7.610584e-002 8.650345e-002 4.707572e-002 -6.429347e-002 4.765254e-002 -1.116134e-001 -1.977747e-001 -6.623223e-002 -3.465691e-002 -8.056598e-002 -8.178153e-002 -1.987247e-001 -6.536679e-002 1.115452e-001 6.271348e-002 1.871172e-001 9.798018e-002 -4.910724e-002 5.907242e-002 1.664340e-001 7.630596e-002
<VARIANCE> 39
 6.923276e+001 7.741310e+001 5.013091e+001 5.368109e+001 5.169102e+001 4.724010e+001 6.530257e+001 5.233235e+001 5.746693e+001 6.646715e+001 5.905828e+001 3.350776e+001 5.495436e+001 2.477235e-001 9.174610e-001 1.120798e+000 1.385513e+000 1.603293e+000 1.686404e+000 1.948561e+000 2.202585e+000 2.020694e+000 2.273509e+000 2.022912e+000 1.797945e+000 3.517680e-001 5.842304e-002 1.383167e-001 2.751599e-001 2.816445e-001 2.877818e-001 3.733383e-001 3.841711e-001 4.773262e-001 4.271999e-001 4.496488e-001 4.132507e-001 3.526089e-001 5.172300e-002
<GCONST> 1.092839e+002
<STATE> 4
<NUMMIXES> 2
<MIXTURE> 1 4.920148e-001
<MEAN> 39
 -1.141870e+000 3.762135e+000 -2.447383e+000 -6.446957e+000 -5.842825e+000 -1.161270e+001 -8.140933e+000 -1.171373e+001 -6.356523e+000 -7.056163e+000 -4.342332e+000 -7.809904e+000 6.081616e+001 -5.509050e-001 -7.950839e-002 -4.122441e-002 -1.493918e-001 5.983598e-002 3.969568e-001 3.719554e-001 6.312941e-001 4.407994e-001 -4.994668e-002 3.107530e-001 3.749599e-001 -3.446852e-001 -8.330447e-002 -2.540555e-001 -1.295872e-001 -2.510603e-001 6.866879e-002 1.569513e-001 -5.180803e-003 1.743637e-001 1.249768e-001 3.208837e-002 5.847756e-002 8.823655e-002 1.096048e-001
<VARIANCE> 39
 7.138607e+001 8.244681e+001 6.376225e+001 6.655173e+001 6.490352e+001 5.783484e+001 8.211565e+001 8.275960e+001 6.635188e+001 7.167115e+001 5.534089e+001 4.987378e+001 8.960395e+001 1.101690e+000 2.664609e+000 3.366133e+000 3.600238e+000 3.367348e+000 3.455165e+000 3.969652e+000 4.287150e+000 4.015338e+000 4.118850e+000 3.632006e+000 3.284127e+000 1.582662e+000 1.634623e-001 3.826750e-001 5.700513e-001 6.303435e-001 6.047353e-001 6.992009e-001 7.157521e-001 8.864311e-001 7.575439e-001 8.379225e-001 6.768982e-001 6.574643e-001 2.015805e-001
<GCONST> 1.332776e+002
<MIXTURE> 2 5.079717e-001
<MEAN> 39
 2.451500e+000 -6.195983e+000 -6.304704e+000 -1.072306e+001 -5.483060e+000 -1.210679e+001 -1.308281e+001 -1.426132e+001 -5.273696e+000 7.695341e-001 -4.795546e+000 -9.882640e+000 7.145029e+001 -3.408359e-001 -1.609374e+000 -1.594473e+000 -2.012508e+000 5.355861e-001 3.947964e-001 -1.876018e-001 3.718806e+000 1.698614e+000 -1.337634e+000 -3.959359e-001 1.068954e-001 1.374311e+000 -2.688400e-001 -2.513312e-001 5.916538e-002 -2.003037e-001 2.410858e-001 8.169220e-002 3.789474e-002 8.053589e-001 6.526263e-002 -7.048264e-001 -1.664848e-001 4.901268e-001 1.234297e-001
<VARIANCE> 39
 5.692193e+001 6.080994e+001 5.765282e+001 6.217770e+001 5.396358e+001 5.728441e+001 7.645459e+001 9.905730e+001 6.157221e+001 7.454772e+001 5.673057e+001 3.612229e+001 4.545985e+001 8.167645e-001 1.996379e+000 4.171198e+000 3.364258e+000 3.783105e+000 4.545943e+000 4.991104e+000 8.968946e+000 6.669753e+000 5.697652e+000 3.848031e+000 4.839617e+000 9.442160e-001 8.932862e-002 2.523375e-001 5.887060e-001 8.500631e-001 4.939845e-001 5.545869e-001 6.267682e-001 1.284646e+000 8.786568e-001 7.684017e-001 5.756030e-001 6.076632e-001 1.292506e-001
<GCONST> 1.316492e+002
<TRANSP> 5
 0.000000e+000 1.000000e+000 0.000000e+000 0.000000e+000 0.000000e+000
 0.000000e+000 5.821544e-001 4.178456e-001 0.000000e+000 0.000000e+000
 0.000000e+000 0.000000e+000 7.972122e-001 2.027877e-001 0.000000e+000
 0.000000e+000 0.000000e+000 0.000000e+000 6.535734e-001 3.464266e-001
 0.000000e+000 0.000000e+000 0.000000e+000 0.000000e+000 0.000000e+000
<ENDHMM>
~h "n"
<BEGINHMM>
<NUMSTATES> 5
<STATE> 2
<NUMMIXES> 2
<MIXTURE> 1 5.621381e-001
<MEAN> 39
 3.582624e+000 -5.540467e+000 -2.097429e+000 -1.502665e+001 -9.084938e+000 -1.670064e+001 -7.506871e+000 -8.947656e+000 -7.625261e+000 -1.448847e+000 -5.972155e+000 -5.563507e+000 7.222617e+001 6.550635e-001 8.564642e-001 2.910303e-001 1.416530e+000 -1.074647e+000 -1.055228e-001 9.542287e-001 -2.081310e+000 -3.880332e-001 3.530576e-001 -2.985684e-001 3.747239e-001 -1.002615e+000 -1.206256e-001 5.433338e-002 -1.246149e-001 -2.066364e-001 1.515586e-001 2.957075e-001 -1.743508e-001 2.997308e-001 2.140941e-001 -2.155134e-001 1.982457e-002 2.482360e-002 3.135874e-002
<VARIANCE> 39
