~o
<STREAMINFO> 1 39
<VECSIZE> 39<NULLD><MFCC_D_A_0><DIAGC>
~h "a"
<BEGINHMM>
<NUMSTATES> 5
<STATE> 2
<NUMMIXES> 2
<MIXTURE> 1 5.025784e-001
<MEAN> 39
 -2.238690e+000 -1.165352e+001 -9.033229e+000 -1.729094e+001 -6.190306e+000 -1.297006e+001 -7.257884e+000 2.410435e+000 -1.080820e+000 -8.450933e+000 -7.346138e+000 -1.691804e+000 7.527412e+001 7.518233e-002 -1.807180e+000 -4.825057e-001 -4.241088e-001 1.235628e+000 6.315736e-001 4.158897e-001 1.721866e+000 -2.517366e-001 -8.969868e-001 -4.242996e-001 8.067588e-001 1.544187e+000 -3.863276e-001 4.801635e-001 3.461868e-001 4.931240e-001 1.592954e-001 1.916031e-001 1.858824e-001 -5.160822e-001 -9.152113e-002 3.680892e-001 4.270802e-001 -3.928812e-003 -6.401321e-001
<VARIANCE> 39
 5.013576e+001 4.395942e+001 7.701801e+001 8.113186e+001 1.049401e+002 8.516966e+001 9.466277e+001 8.475670e+001 7.216761e+001 8.071169e+001 7.380466e+001 6.004911e+001 8.561001e+001 2.957440e+000 3.584867e+000 4.751328e+000 4.724204e+000 5.918125e+000 5.222494e+000 6.000457e+000 7.220853e+000 5.069855e+000 5.245153e+000 4.783647e+000 4.165669e+000 4.085271e+000 5.751113e-001 6.896544e-001 6.796564e-001 7.784728e-001 1.048007e+000 8.885829e-001 1.021522e+000 1.135221e+000 9.499028e-001 9.307320e-001 9.528251e-001 7.693361e-001 9.412782e-001
<GCONST> 1.460931e+002
<MIXTURE> 2 4.973637e-001
<MEAN> 39
 -2.598638e+000 -1.200135e+001 -9.467143e+000 -1.712898e+001 -5.960646e+000 -1.242231e+001 -7.804885e+000 1.450927e+000 -2.023146e+000 -9.170715e+000 -7.206870e+000 -1.655479e+000 7.468179e+001 3.345822e-003 -1.846300e+000 -7.360248e-001 -6.785010e-001 9.000944e-001 3.155403e-001 9.865850e-002 1.470920e+000 -6.858695e-001 -1.323497e+000 -7.089584e-001 4.001784e-001 1.655329e+000 -3.360526e-001 4.530794e-001 2.951946e-001 3.863610e-001 4.947293e-002 6.353398e-002 7.218783e-002 -5.520340e-001 -1.536750e-001 2.874566e-001 2.734564e-001 -1.269425e-001 -6.329708e-001
<VARIANCE> 39
 5.014848e+001 4.755084e+001 8.082548e+001 8.313620e+001 1.059706e+002 8.665608e+001 9.645786e+001 8.645397e+001 7.293004e+001 8.286390e+001 7.429047e+001 5.831580e+001 9.182041e+001 3.086077e+000 3.742086e+000 4.993556e+000 4.895039e+000 6.223572e+000 5.509079e+000 6.273931e+000 8.024624e+000 5.373881e+000 5.494228e+000 5.082584e+000 4.197968e+000 4.640205e+000 5.573695e-001 7.125446e-001 7.193468e-001 7.844849e-001 1.011761e+000 9.067618e-001 1.022038e+000 1.173606e+000 9.603226e-001 9.507951e-001 9.340949e-001 7.864983e-001 9.126164e-001
<GCONST> 1.472074e+002
<STATE> 3
<NUMMIXES> 2
<MIXTURE> 1 5.129037e-001
<MEAN> 39
 -2.329417e+000 -1.471786e+001 -8.420903e+000 -1.737026e+001 -2.649905e+000 -1.244381e+001 -7.545856e+000 4.034822e+000 -2.663440e+000 -8.576017e+000 -8.057345e+000 -2.315838e+000 7.873859e+001 1.400366e-001 4.136721e-001 1.256802e-001 4.657867e-001 8.755082e-002 5.723194e-002 -1.478408e-001 -5.099155e-002 2.269475e-002 2.740098e-002 4.034199e-001 1.421949e-002 -3.312348e-001 6.837146e-002 5.475664e-001 2.051078e-001 1.489598e-001 -2.495018e-001 -6.404303e-002 -1.154311e-001 -3.310235e-001 1.106433e-001 2.545288e-001 2.253576e-001 -1.004197e-001 -3.630269e-001
<VARIANCE> 39
 4.762478e+001 2.718407e+001 4.370456e+001 8.412460e+001 9.498656e+001 7.459653e+001 1.034325e+002 7.629865e+001 7.356535e+001 6.123883e+001 6.041583e+001 5.767956e+001 1.351593e+001 6.171155e-001 1.612411e+000 1.535054e+000 1.476356e+000 2.889097e+000 2.366406e+000 3.267057e+000 2.551740e+000 2.419537e+000 2.631550e+000 2.200071e+000 2.214299e+000 6.170410e-001 1.206998e-001 2.197853e-001 2.403456e-001 3.069135e-001 3.864435e-001 4.093680e-001 5.401692e-001 5.618183e-001 4.922453e-001 4.672678e-001 4.295534e-001 3.940923e-001 1.357188e-001
<GCONST> 1.173575e+002
<MIXTURE> 2 4.869960e-001
<MEAN> 39
 -3.550315e+000 -1.535726e+001 -1.044403e+001 -1.603672e+001 -2.813987e+000 -1.047980e+001 -8.077039e+000 3.041855e+000 -4.366485e+000 -1.030933e+001 -7.939686e+000 -1.553431e+000 7.840997e+001 4.691820e-002 4.001647e-001 -2.670087e-002 2.059765e-001 -1.261248e-001 -2.690399e-001 -3.639849e-001 -4.256251e-001 -2.688996e-001 -2.241781e-001 -4.018591e-003 -4.144312e-001 -4.346748e-001 5.802840e-002 5.320830e-001 1.738248e-001 1.828307e-002 -3.231409e-001 -2.088425e-001 -1.642187e-001 -3.857118e-001 5.243707e-002 1.733955e-001 7.530700e-002 -2.388112e-001 -3.688745e-001
<VARIANCE> 39
 4.673394e+001 2.776961e+001 4.576881e+001 7.884652e+001 8.461121e+001 7.034196e+001 9.588716e+001 7.235491e+001 7.007998e+001 5.984990e+001 6.335258e+001 4.930003e+001 2.095293e+001 6.513274e-001 1.643993e+000 1.502931e+000 1.548878e+000 2.841321e+000 2.332899e+000 3.145539e+000 2.512918e+000 2.485461e+000 2.542532e+000 2.223366e+000 2.152538e+000 6.165988e-001 1.242314e-001 2.315641e-001 2.542202e-001 3.086797e-001 3.864394e-001 4.204741e-001 5.179626e-001 5.414496e-001 4.905254e-001 4.639812e-001 4.324003e-001 3.859130e-001 1.360951e-001
<GCONST> 1.173540e+002
<STATE> 4
<NUMMIXES> 2
<MIXTURE> 1 5.005395e-001
<MEAN> 39
 -1.502591e+000 -5.698525e+000 -7.546720e+000 -1.210407e+001 -4.025745e+000 -1.255293e+001 -9.100021e+000 1.718143e+000 -1.691779e+000 -1.029675e+001 -5.375283e+000 -4.569694e+000 6.902087e+001 -4.165899e-001 1.756666e+000 7.793753e-001 1.172624e+000 -4.974722e-003 3.653344e-001 4.261421e-001 -7.005048e-001 1.578924e-001 4.630746e-001 7.294333e-001 -9.491687e-002 -1.865619e+000 -2.612078e-001 -6.876382e-002 3.171691e-002 1.099638e-001 1.380314e-001 2.107576e-001 2.906132e-001 3.258153e-002 4.546862e-002 1.869105e-001 8.327353e-002 1.180150e-001 -4.208785e-002
<VARIANCE> 39
 6.019958e+001 4.719469e+001 5.915012e+001 9.056362e+001 1.055912e+002 7.004286e+001 1.098630e+002 9.585046e+001 7.492962e+001 9.614510e+001 5.913428e+001 5.702668e+001 6.878458e+001 1.793187e+000 2.597854e+000 2.433692e+000 2.964402e+000 4.179556e+000 3.827163e+000 5.412627e+000 4.851144e+000 3.944199e+000 4.178011e+000 3.718250e+000 3.332087e+000 1.959812e+000 2.699278e-001 3.597641e-001 4.158204e-001 4.770469e-001 6.206315e-001 6.460354e-001 9.203082e-001 8.189139e-001 6.929029e-001 7.307212e-001 6.388834e-001 5.889222e-001 2.559789e-001
<GCONST> 1.350025e+002
<MIXTURE> 2 4.993860e-001
<MEAN> 39
 -2.286025e+000 -6.632493e+000 -9.444871e+000 -1.336967e+001 -4.188398e+000 -1.211054e+001 -8.001833e+000 5.953164e-001 -2.310115e+000 -1.181703e+001 -5.375602e+000 -4.530413e+000 6.811892e+001 -5.640668e-001 1.481279e+000 4.686998e-001 6.749104e-001 -5.378485e-001 -1.645767e-001 2.994612e-001 -1.187591e+000 -2.484645e-001 2.570959e-001 9.404665e-002 -5.788323e-001 -1.804169e+000 -1.957581e-001 -8.426725e-002 3.582638e-002 -1.059226e-002 3.007877e-002 6.506708e-002 1.390117e-001 -8.062747e-002 -4.059273e-002 1.050518e-001 -1.054328e-002 4.457009e-002 -4.827277e-002
<VARIANCE> 39
 6.170754e+001 5.326585e+001 6.849028e+001 8.404518e+001 9.702431e+001 7.097937e+001 1.007590e+002 9.573740e+001 7.692430e+001 8.220376e+001 5.705198e+001 5.586647e+001 8.921293e+001 1.854076e+000 2.842777e+000 3.044745e+000 3.165230e+000 4.120481e+000 3.906670e+000 5.241593e+000 4.953246e+000 4.162687e+000 4.150517e+000 3.738117e+000 3.570099e+000 1.658761e+000 2.295715e-001 3.622366e-001 4.543883e-001 5.146156e-001 6.191992e-001 6.576851e-001 8.996478e-001 8.451859e-001 7.358007e-001 7.177278e-001 6.529527e-001 6.133032e-001 2.282028e-001
<GCONST> 1.355208e+002
<TRANSP> 5
 0.000000e+000 1.000000e+000 0.000000e+000 0.000000e+000 0.000000e+000
 0.000000e+000 5.579662e-001 4.420338e-001 0.000000e+000 0.000000e+000
 0.000000e+000 0.000000e+000 7.811698e-001 2.188302e-001 0.000000e+000
 0.000000e+000 0.000000e+000 0.000000e+000 7.096228e-001 2.903771e-001
 0.000000e+000 0.000000e+000 0.000000e+000 0.000000e+000 0.000000e+000
<ENDHMM>
~h "b"
<BEGINHMM>
<NUMSTATES> 5
<STATE> 2
<NUMMIXES> 2
<MIXTURE> 1 4.978231e-001
<MEAN> 39
 -8.410612e+000 -1.116454e+001 -1.071398e+001 -1.448683e+001 -3.176707e+000 -6.641278e+000 -4.474158e+000 -2.890071e+000 -5.033844e-001 -1.698914e+000 -8.586129e+000 -5.019247e+000 6.060763e+001 -3.565919e-001 -7.289390e-001 -2.220813e-001 2.131592e-001 7.089934e-001 6.431823e-001 7.382102e-001 7.574824e-001 9.172450e-002 -5.763132e-001 -4.437365e-001 5.935056e-001 6.448125e-001 -6.121187e-003 1.645752e-001 2.582986e-001 3.214305e-001 1.299284e-001 4.936861e-002 9.088351e-003 -1.965690e-001 -2.028994e-001 6.325524e-003 2.485148e-001 1.031993e-001 -2.009298e-001
<VARIANCE> 39
 3.776504e+001 7.543533e+001 4.942313e+001 6.629195e+001 3.611423e+001 6.286873e+001 9.893098e+001 6.901859e+001 3.615100e+001 3.499278e+001 9.320715e+001 5.882071e+001 2.770768e+002 8.380745e-001 2.369789e+000 2.021634e+000 4.073996e+000 2.083051e+000 2.997472e+000 2.863789e+000 4.875591e+000 3.547811e+000 3.828960e+000 3.641906e+000 2.897166e+000 2.226125e+000 1.282410e-001 3.318149e-001 2.747365e-001 6.392766e-001 3.776190e-001 6.021306e-001 6.383354e-001 8.078509e-001 5.104249e-001 6.928387e-001 5.858732e-001 4.820795e-001 2.762137e-001
<GCONST> 1.280573e+002
<MIXTURE> 2 5.021770e-001
<MEAN> 39
 -8.433997e+000 -1.201645e+001 -1.104189e+001 -1.496691e+001 -3.721555e+000 -6.090389e+000 -4.631813e+000 -2.823742e+000 -9.602815e-001 -2.354990e+000 -8.102633e+000 -4.733266e+000 6.148577e+001 -4.152038e-001 -7.106209e-001 -2.817211e-001 -1.995691e-001 3.163102e-001 2.792921e-001 3.820288e-001 3.661690e-001 -5.908419e-001 -1.016418e+000 -7.708555e-001 1.893340e-001 6.232153e-001 5.553349e-002 1.672093e-001 1.422166e-001 1.703954e-001 4.222315e-002 -1.194841e-001 -1.869469e-001 -1.792485e-001 -2.239124e-001 -6.416380e-002 -2.438795e-002 -2.683764e-002 -2.093972e-001
<VARIANCE> 39
 3.529695e+001 7.117451e+001 4.958049e+001 5.955235e+001 3.976943e+001 6.633690e+001 9.025311e+001 6.712962e+001 4.055902e+001 3.891381e+001 1.074047e+002 6.273585e+001 2.803066e+002 9.424451e-001 2.647667e+000 2.130414e+000 3.348186e+000 2.019166e+000 2.723302e+000 2.819780e+000 5.632943e+000 3.205230e+000 3.051750e+000 3.697135e+000 2.973231e+000 2.529935e+000 1.233186e-001 3.353716e-001 3.274330e-001 6.061957e-001 3.496105e-001 4.978336e-001 6.440322e-001 8.836393e-001 5.714533e-001 7.083074e-001 6.617184e-001 4.814857e-001 2.817165e-001
<GCONST> 1.284243e+002
<STATE> 3
<NUMMIXES> 2
<MIXTURE> 1 4.986041e-001
<MEAN> 39
 -1.689534e+001 -1.198776e+001 -6.006430e+000 -8.750702e+000 -1.951758e+000 -7.651330e+000 -3.556393e-001 -5.190873e+000 1.210798e+000 -3.301440e+000 2.443554e-001 -2.926135e+000 4.126892e+001 6.482814e-002 1.117282e-001 1.302395e-001 2.085559e-001 1.996982e-001 1.500993e-001 1.638467e-001 1.520947e-001 4.946908e-002 1.479774e-001 1.906732e-001 9.248213e-002 -5.529090e-003 5.558045e-002 5.354958e-002 4.181647e-002 -2.363548e-003 -7.474145e-003 5.887975e-003 1.586804e-003 6.941058e-002 2.867931e-002 3.504682e-002 2.284512e-002 -2.332415e-002 1.986411e-002
<VARIANCE> 39
 1.108475e+001 1.066511e+001 9.485451e+000 1.404743e+001 1.426815e+001 1.655727e+001 2.317352e+001 2.224976e+001 2.425352e+001 1.935158e+001 2.553585e+001 1.907329e+001 5.734381e+001 2.116188e-001 4.152421e-001 7.781562e-001 1.234444e+000 1.497236e+000 1.871295e+000 1.934610e+000 2.260245e+000 2.640799e+000 2.127486e+000 1.870448e+000 2.012676e+000 5.071567e-002 5.839184e-002 1.030961e-001 1.668367e-001 2.799238e-001 3.230494e-001 3.880936e-001 4.238454e-001 4.872721e-001 5.868576e-001 4.909325e-001 4.122774e-001 4.300791e-001 1.485350e-002
<GCONST> 9.053041e+001
<MIXTURE> 2 5.013945e-001
<MEAN> 39
 -1.658743e+001 -1.240629e+001 -6.568208e+000 -9.409658e+000 -2.374933e+000 -7.865340e+000 -1.107905e+000 -5.006608e+000 8.597797e-001 -4.049099e+000 -5.368163e-001 -3.097940e+000 4.283378e+001 -9.751439e-002 -1.028106e-001 -4.655017e-002 -9.229971e-002 -9.717751e-002 -1.777929e-001 -2.442520e-001 -1.764952e-001 -2.273384e-001 -2.203058e-001 -2.227131e-001 -5.496737e-002 -7.209287e-002 1.203222e-002 1.019591e-002 -2.516678e-002 -4.208855e-002 -2.209525e-002 -8.117647e-002 -6.378598e-002 -4.177706e-002 -5.168548e-002 -1.094373e-002 -3.721311e-002 -3.862358e-002 -1.817473e-002
<VARIANCE> 39
 1.231164e+001 8.799809e+000 1.097534e+001 1.414929e+001 1.331584e+001 1.873579e+001 2.301841e+001 2.369846e+001 2.528340e+001 1.987814e+001 3.868341e+001 1.895982e+001 1.037087e+002 2.193887e-001 3.835745e-001 7.724183e-001 1.264084e+000 1.388044e+000 1.728318e+000 1.862445e+000 2.438074e+000 2.801058e+000 2.217021e+000 2.143861e+000 1.951674e+000 5.334925e-002 5.165934e-002 9.569274e-002 1.513624e-001 2.848905e-001 3.002923e-001 4.033241e-001 3.916062e-001 4.764811e-001 6.128017e-001 5.167173e-001 4.617079e-001 4.204726e-001 1.651243e-002
<GCONST> 9.176759e+001
<STATE> 4
<NUMMIXES> 2
<MIXTURE> 1 4.541123e-001
<MEAN> 39
 -7.709580e+000 -1.054305e+001 -6.195083e+000 -1.329412e+001 -1.143316e+000 -8.615513e+000 -8.602304e+000 -2.463956e+000 -5.595413e+000 -4.019166e+000 -1.555382e+001 -3.634867e+000 6.965144e+001 5.479614e-001 1.144055e+000 8.756528e-001 -4.571457e-002 -1.019865e-001 -9.181977e-001 -3.038536e-001 -8.433568e-001 1.070675e-001 1.142428e+000 1.276338e-001 -3.400233e-001 -7.579169e-001 2.398680e-001 2.724334e-001 1.182633e-001 1.418283e-001 -2.456210e-001 3.598274e-002 -1.379478e-001 -3.525054e-001 3.198591e-001 6.318700e-002 2.161112e-001 3.352267e-002 -5.162860e-002
<VARIANCE> 39
 2.234142e+001 4.261217e+001 1.868868e+001 2.946028e+001 1.940670e+001 4.090572e+001 3.229609e+001 4.427852e+001 4.123709e+001 3.692560e+001 9.104424e+001 4.839882e+001 1.807505e+002 3.036140e-001 8.876138e-001 7.477955e-001 9.961483e-001 1.730008e+000 2.048798e+000 1.353155e+000 4.021519e+000 2.755398e+000 2.771420e+000 1.746225e+000 1.465121e+000 4.532308e-001 1.268286e-001 2.159528e-001 1.430140e-001 2.430895e-001 2.088020e-001 3.483734e-001 2.652098e-001 4.604259e-001 5.007445e-001 6.116048e-001 3.466816e-001 2.922551e-001 7.196354e-002
<GCONST> 1.054552e+002
<MIXTURE> 2 5.458868e-001
<MEAN> 39
 -7.195627e+000 -1.356299e+001 -8.377858e+000 -1.396983e+001 -2.392918e-001 -6.525264e+000 -9.879094e+000 -2.774469e+000 -7.168649e+000 -5.746714e+000 -1.733438e+001 -2.963434e+000 7.506225e+001 4.527128e-001 9.854313e-001 7.402197e-001 -4.094195e-001 -3.253571e-003 -1.231393e+000 -4.836407e-001 -7.995117e-001 -7.040172e-001 7.302987e-001 -1.701388e-001 -8.956408e-001 -7.865281e-001 1.511807e-001 2.413347e-001 3.380954e-002 2.188249e-002 -3.073220e-001 -1.902778e-001 -1.133745e-001 -1.940284e-001 2.856840e-001 2.105873e-001 7.582628e-002 -1.638258e-001 -1.630237e-001
<VARIANCE> 39
 1.186160e+001 2.833181e+001 2.119370e+001 2.251899e+001 3.465401e+001 3.668282e+001 2.946474e+001 3.963594e+001 3.338421e+001 3.074603e+001 5.217843e+001 3.938008e+001 7.277077e+001 2.730354e-001 6.733154e-001 5.592857e-001 9.169047e-001 1.737810e+000 1.701194e+000 1.452660e+000 2.617752e+000 2.398691e+000 1.888550e+000 1.660976e+000 1.626328e+000 3.164864e-001 4.691203e-002 1.204930e-001 1.059832e-001 2.320024e-001 2.801233e-001 3.034783e-001 2.333592e-001 4.066618e-001 3.637491e-001 4.325446e-001 2.937972e-001 2.830740e-001 3.336593e-002
<GCONST> 9.669688e+001
<TRANSP> 5
 0.000000e+000 1.000000e+000 0.000000e+000 0.000000e+000 0.000000e+000
 0.000000e+000 7.129335e-001 2.870665e-001 0.000000e+000 0.000000e+000
 0.000000e+000 0.000000e+000 9.119811e-001 8.801886e-002 0.000000e+000
 0.000000e+000 0.000000e+000 0.000000e+000 7.288342e-001 2.711658e-001
 0.000000e+000 0.000000e+000 0.000000e+000 0.000000e+000 0.000000e+000
<ENDHMM>
~h "c"
<BEGINHMM>
<NUMSTATES> 5
<STATE> 2
<NUMMIXES> 2
<MIXTURE> 1 4.944580e-001
<MEAN> 39
 -1.216346e+001 6.879689e-001 -3.317752e+000 -5.579171e+000 -5.551349e+000 -7.412400e+000 -3.047249e+000 -4.343321e+000 -2.060313e-001 -1.706842e+000 3.035121e-001 -1.837485e+000 5.409840e+001 -6.708248e-001 -7.219160e-001 -7.678170e-001 1.819680e-001 1.317536e+000 1.061700e+000 9.098198e-001 9.626884e-001 2.221517e-001 5.771422e-001 6.526493e-001 3.676808e-001 -2.480437e-001 3.329587e-001 -2.621782e-001 -3.509441e-001 -5.419458e-001 5.597274e-003 -9.083562e-002 -1.775598e-001 -2.513970e-002 -1.811817e-001 1.512246e-001 -2.189071e-001 3.859667e-003 7.047086e-001
<VARIANCE> 39
 4.562395e+001 7.098232e+001 3.470016e+001 6.417506e+001 5.699808e+001 5.492882e+001 4.353904e+001 4.646257e+001 3.776279e+001 4.004647e+001 3.807431e+001 4.442430e+001 1.040162e+002 2.140985e+000 2.771689e+000 4.085558e+000 4.243702e+000 4.260644e+000 4.669491e+000 3.858168e+000 4.048678e+000 3.985307e+000 4.024930e+000 3.912452e+000 2.993382e+000 2.545700e+000 3.593172e-001 5.992970e-001 7.518720e-001 7.821608e-001 8.183081e-001 9.022044e-001 7.979911e-001 8.420304e-001 8.111369e-001 7.854046e-001 7.984167e-001 5.898243e-001 5.132309e-001
<GCONST> 1.344334e+002
<MIXTURE> 2 5.055418e-001
<MEAN> 39
 -1.304932e+001 -1.605365e+000 -5.242867e+000 -9.486193e+000 -7.151789e+000 -9.559034e+000 -2.570534e+000 -6.109978e+000 -2.347663e-001 -4.247272e+000 -9.153866e-001 -3.718130e+000 5.326569e+001 -5.349516e-001 -8.117989e-001 -7.428540e-001 -1.167598e-001 5.418144e-001 1.468904e-001 1.553977e-001 2.729197e-001 -1.818874e-001 2.478113e-001 2.587971e-001 -3.155520e-002 -4.324500e-001 3.443385e-001 -1.485253e-001 -2.579744e-001 -4.752297e-001 -4.375573e-003 -5.424209e-002 -2.226927e-001 1.356127e-002 -1.909463e-001 2.228886e-002 -1.841581e-001 -2.977318e-002 4.884569e-001
<VARIANCE> 39
 5.422246e+001 8.718475e+001 4.006121e+001 5.314604e+001 5.495460e+001 5.604033e+001 4.863771e+001 5.787998e+001 5.005104e+001 4.841103e+001 4.415218e+001 5.210840e+001 1.259909e+002 2.459360e+000 2.650286e+000 3.662431e+000 3.968766e+000 4.469322e+000 4.269181e+000 4.319679e+000 5.029252e+000 4.486036e+000 4.683610e+000 4.160641e+000 3.500735e+000 2.861517e+000 3.639140e-001 5.241345e-001 7.802470e-001 8.529097e-001 8.683800e-001 9.590859e-001 9.606276e-001 1.002941e+000 9.360609e-001 9.871937e-001 7.771593e-001 6.929818e-001 5.302423e-001
<GCONST> 1.378839e+002
<STATE> 3
<NUMMIXES> 2
<MIXTURE> 1 5.098613e-001
<MEAN> 39
 -1.114824e+001 -4.824958e+000 -9.789014e+000 -9.629008e+000 2.564059e-001 -5.622132e+000 -2.450871e+000 -2.152707e+000 -2.277873e+000 -9.200857e-002 -6.142848e-001 -5.853286e-001 5.599284e+001 1.395573e+000 -3.829041e-001 -1.656378e+000 -1.796532e+000 8.544447e-002 -5.342526e-001 -6.096432e-001 7.086536e-001 -9.822910e-001 7.358253e-001 9.879309e-002 3.202825e-001 2.487479e+000 6.673901e-001 5.239906e-001 4.125754e-001 -3.376055e-001 -7.900616e-001 -6.142336e-001 -4.650391e-001 -3.271965e-001 -8.142734e-002 -1.610512e-001 -1.323876e-001 -9.293907e-002 6.507946e-001
<VARIANCE> 39
 4.363884e+001 5.531215e+001 5.949549e+001 8.585725e+001 8.719415e+001 8.171387e+001 5.719028e+001 7.660796e+001 6.761235e+001 7.208852e+001 3.961761e+001 3.922712e+001 1.147790e+002 4.117650e+000 7.468213e+000 1.003245e+001 7.837878e+000 1.074908e+001 1.175846e+001 8.006208e+000 7.448193e+000 6.696763e+000 5.668976e+000 4.720631e+000 4.775701e+000 6.825783e+000 5.350763e-001 8.622649e-001 1.303603e+000 1.157466e+000 1.521680e+000 1.270963e+000 1.250753e+000 1.249137e+000 1.173185e+000 9.609669e-001 7.775234e-001 7.412394e-001 1.007798e+000
<GCONST> 1.515559e+002
<MIXTURE> 2 4.901392e-001
<MEAN> 39
 -1.115212e+001 -4.737189e+000 -1.050106e+001 -1.046340e+001 -6.167862e-001 -5.629882e+000 -2.856259e+000 -2.756652e+000 -1.770297e+000 2.285147e-001 -6.714013e-001 -9.593697e-001 5.669656e+001 1.301886e+000 -5.641073e-001 -1.593086e+000 -2.239083e+000 -2.529769e-001 -9.250686e-001 -1.286088e+000 2.063354e-001 -1.342665e+000 1.336263e-001 -4.819177e-001 -1.097633e-001 2.331251e+000 6.576463e-001 4.826324e-001 4.296467e-001 -4.900830e-001 -8.483098e-001 -6.772070e-001 -6.151196e-001 -3.769590e-001 -2.687785e-001 -3.511573e-001 -3.258749e-001 -1.365615e-001 6.031188e-001
<VARIANCE> 39
 4.897651e+001 5.919110e+001 6.790585e+001 8.410742e+001 9.793803e+001 8.597301e+001 6.295034e+001 8.079238e+001 7.054192e+001 7.044247e+001 4.509137e+001 4.574265e+001 1.112020e+002 3.765541e+000 7.070908e+000 9.218024e+000 8.239714e+000 1.100694e+001 1.066563e+001 8.805842e+000 7.997960e+000 7.202354e+000 5.535323e+000 4.957540e+000 4.458513e+000 6.543563e+000 4.840627e-001 8.828623e-001 1.317033e+000 1.230169e+000 1.602085e+000 1.305745e+000 1.289474e+000 1.313448e+000 1.139070e+000 1.038922e+000 8.005787e-001 8.362364e-001 8.690278e-001
<GCONST> 1.525423e+002
<STATE> 4
<NUMMIXES> 2
<MIXTURE> 1 5.003787e-001
<MEAN> 39
 -4.232234e+000 -4.463891e+000 -1.076933e+001 -1.663083e+001 -3.971961e+000 -1.248194e+001 -7.391036e+000 -2.454704e+000 -5.299611e+000 -5.713238e-001 -1.982427e+000 -3.310368e+000 6.530879e+001 1.773860e+000 4.850392e-001 3.833294e-001 -1.360670e+000 -9.741431e-001 -1.196658e+000 -4.918596e-001 2.822907e-002 -1.138097e-001 -1.731608e-001 -3.697771e-001 4.733212e-001 2.723742e+000 -9.541572e-002 3.395494e-002 5.392495e-001 1.682342e-001 -1.910377e-001 3.086163e-001 3.050885e-001 -2.736601e-001 4.013851e-001 -1.736935e-001 2.562306e-002 1.886514e-001 -3.357372e-001
<VARIANCE> 39
 7.119514e+001 7.489638e+001 1.449945e+002 1.290527e+002 1.251027e+002 1.675764e+002 1.318956e+002 1.224151e+002 1.153510e+002 9.168895e+001 7.098221e+001 6.365825e+001 8.997624e+001 5.863890e+000 7.820132e+000 8.733909e+000 8.642370e+000 9.856323e+000 9.194038e+000 1.093419e+001 1.076508e+001 8.688623e+000 6.776540e+000 6.112895e+000 5.476782e+000 8.932407e+000 8.168484e-001 1.141650e+000 1.642864e+000 1.714604e+000 2.071836e+000 1.928151e+000 1.925034e+000 1.828789e+000 1.626346e+000 1.244664e+000 1.152173e+000 1.111100e+000 1.168362e+000
<GCONST> 1.638351e+002
<MIXTURE> 2 4.996209e-001
<MEAN> 39
 -4.856586e+000 -4.905408e+000 -1.085528e+001 -1.728618e+001 -4.412982e+000 -1.154607e+001 -7.423960e+000 -3.500524e+000 -5.488207e+000 -2.364689e-001 -2.156278e+000 -3.060251e+000 6.470895e+001 1.752513e+000 3.548223e-001 -9.794183e-004 -1.986828e+000 -1.465679e+000 -1.174900e+000 -1.236199e+000 -5.550227e-001 -7.169607e-001 -7.412826e-001 -8.422778e-001 3.202167e-002 2.606544e+000 -6.578816e-002 4.248038e-002 5.030955e-001 6.759939e-002 -2.101345e-001 2.330183e-001 1.195081e-001 -2.594758e-001 2.487690e-001 -2.248831e-001 -9.023310e-002 3.615712e-002 -3.516709e-001
<VARIANCE> 39
 7.161755e+001 9.506895e+001 1.582215e+002 1.231627e+002 1.211382e+002 1.604985e+002 1.347216e+002 1.254642e+002 1.072759e+002 8.034982e+001 7.772115e+001 6.365155e+001 9.019662e+001 5.767340e+000 7.082152e+000 8.770798e+000 8.867949e+000 9.385077e+000 8.705994e+000 9.967485e+000 1.034546e+001 8.073004e+000 6.134150e+000 5.885088e+000 5.382353e+000 8.648670e+000 8.070602e-001 1.381158e+000 1.673396e+000 1.684563e+000 1.900244e+000 1.771160e+000 1.696049e+000 1.905906e+000 1.508880e+000 1.211662e+000 1.195038e+000 1.067609e+000 1.210406e+000
<GCONST> 1.632492e+002
<TRANSP> 5
 0.000000e+000 1.000000e+000 0.000000e+000 0.000000e+000 0.000000e+000
 0.000000e+000 7.256253e-001 2.743747e-001 0.000000e+000 0.000000e+000
 0.000000e+000 0.000000e+000 5.377652e-001 4.622347e-001 0.000000e+000
 0.000000e+000 0.000000e+000 0.000000e+000 5.716764e-001 4.283236e-001
 0.000000e+000 0.000000e+000 0.000000e+000 0.000000e+000 0.000000e+000
<ENDHMM>
~h "d"
<BEGINHMM>
<NUMSTATES> 5
<STATE> 2
<NUMMIXES> 2
<MIXTURE> 1 5.020909e-001
<MEAN> 39
 -1.146437e+001 -4.999492e+000 -1.676117e+000 -1.043196e+001 -8.227621e+000 -1.418175e+001 -4.475260e+000 -4.626649e+000 -1.437542e+000 -2.004383e+000 -3.234936e+000 -1.650983e+000 5.707601e+001 8.623452e-001 1.398514e+000 4.771921e-001 8.672334e-001 -1.411102e-001 -6.849840e-002 -3.696191e-001 -5.353611e-001 -5.378953e-001 -2.733795e-001 2.878312e-001 1.501433e-001 -3.136931e-001 5.775253e-001 5.806075e-001 2.564663e-001 -9.873430e-003 -1.824718e-001 -1.567391e-001 -2.320444e-001 -8.479737e-002 -5.542867e-002 -2.236120e-001 -1.684457e-001 -2.898080e-002 2.016061e-001
<VARIANCE> 39
 4.566313e+001 3.448308e+001 2.768511e+001 8.127549e+001 1.316937e+002 8.208851e+001 3.727681e+001 5.440118e+001 3.441261e+001 4.292357e+001 3.214573e+001 2.312106e+001 3.179917e+002 3.672986e+000 4.465790e+000 2.746290e+000 3.866865e+000 4.306936e+000 4.193496e+000 3.567311e+000 3.070973e+000 2.886140e+000 3.989656e+000 2.491795e+000 2.771718e+000 3.039706e+000 6.101038e-001 7.984855e-001 2.605374e-001 4.718588e-001 1.051886e+000 9.324400e-001 6.206774e-001 6.872631e-001 4.377676e-001 6.410608e-001 4.988256e-001 5.483345e-001 6.374223e-001
<GCONST> 1.325632e+002
<MIXTURE> 2 4.979098e-001
<MEAN> 39
 -1.265479e+001 -4.689605e+000 -2.293629e+000 -1.029728e+001 -7.962235e+000 -1.340844e+001 -5.731421e+000 -5.420581e+000 -2.120378e+000 -2.890080e+000 -2.608453e+000 -1.668045e+000 5.667301e+001 9.723417e-001 1.083244e+000 2.144971e-001 4.782955e-001 -5.439327e-001 -6.199343e-001 -1.067876e+000 -8.699766e-001 -9.527125e-001 -7.182729e-001 -5.647413e-001 -4.647982e-001 -3.002281e-001 4.566949e-001 4.850532e-001 2.012299e-001 -7.737155e-002 -1.943773e-001 -1.955912e-001 -3.386628e-001 -1.448169e-001 -8.605260e-002 -2.499223e-001 -3.379239e-001 -2.198512e-001 8.517213e-002
<VARIANCE> 39
 3.895245e+001 4.182622e+001 3.423111e+001 8.713176e+001 1.193017e+002 7.035513e+001 5.702946e+001 5.268163e+001 3.907234e+001 4.712192e+001 2.874141e+001 2.466522e+001 3.258145e+002 3.238683e+000 4.346267e+000 2.707879e+000 4.286299e+000 5.266636e+000 4.344085e+000 4.614241e+000 5.129160e+000 3.687845e+000 5.216054e+000 2.246299e+000 2.429101e+000 2.588120e+000 4.182127e-001 7.134755e-001 3.813153e-001 5.266359e-001 9.303693e-001 9.605985e-001 8.070689e-001 7.405536e-001 5.818320e-001 7.866177e-001 4.455370e-001 5.211361e-001 3.802321e-001
<GCONST> 1.343292e+002
<STATE> 3
<NUMMIXES> 2
<MIXTURE> 1 5.140384e-001
<MEAN> 39
 -3.192159e+000 5.234467e+000 1.180383e+000 -6.655556e+000 -1.193444e+001 -1.346558e+001 -8.064297e+000 -7.742185e+000 -4.322588e+000 -6.835545e+000 -4.401958e+000 -2.191705e+000 5.525635e+001 8.672545e-001 1.536641e+000 4.927570e-001 5.094323e-001 -5.159607e-002 1.387305e-001 1.319136e-001 -1.735098e-001 8.638366e-002 -2.536805e-001 -2.429111e-001 -3.567816e-001 -2.415841e-001 -2.781939e-001 -3.510728e-001 -1.272140e-001 -1.977624e-001 3.584471e-002 1.667300e-001 2.783760e-001 2.658961e-001 1.456492e-001 2.721393e-001 8.340908e-002 1.236709e-002 2.964812e-001
<VARIANCE> 39
 3.197680e+001 4.729662e+001 2.908642e+001 4.766189e+001 5.273996e+001 4.863818e+001 5.971195e+001 5.018835e+001 3.022882e+001 3.601274e+001 3.060181e+001 2.922987e+001 1.502224e+002 5.017683e+000 6.114051e+000 2.339604e+000 3.101255e+000 5.771547e+000 4.706193e+000 4.412316e+000 3.885026e+000 2.111144e+000 3.759175e+000 3.193783e+000 3.331580e+000 5.737229e+000 2.633998e-001 3.960370e-001 3.167823e-001 5.694169e-001 7.825081e-001 6.915960e-001 8.341289e-001 6.674650e-001 5.555992e-001 6.919661e-001 6.186954e-001 7.058342e-001 4.775230e-001
<GCONST> 1.309247e+002
<MIXTURE> 2 4.859614e-001
<MEAN> 39
 -4.342581e+000 4.748404e+000 1.385464e+000 -6.734317e+000 -1.201334e+001 -1.392211e+001 -9.827826e+000 -9.075576e+000 -4.877439e+000 -7.389558e+000 -4.269555e+000 -3.546435e+000 5.413178e+001 1.259168e+000 1.999099e+000 3.185247e-001 4.553400e-003 -9.311396e-001 -8.590192e-001 -5.029916e-001 -5.470592e-001 -5.113369e-001 -6.352836e-001 -8.717287e-001 -9.996430e-001 9.235629e-002 -3.570023e-001 -4.388660e-001 -3.087720e-001 -3.036266e-001 1.044124e-001 1.540351e-001 3.570847e-001 1.697446e-001 1.858604e-001 1.978425e-001 -1.524936e-002 -6.965336e-003 2.276525e-001
<VARIANCE> 39
 3.300299e+001 5.667082e+001 3.035068e+001 4.159137e+001 5.038682e+001 4.506265e+001 6.331680e+001 4.470639e+001 3.483501e+001 4.686137e+001 3.240725e+001 2.927384e+001 1.547458e+002 5.529761e+000 6.281955e+000 2.716749e+000 3.209199e+000 7.225462e+000 5.684306e+000 4.981105e+000 4.403673e+000 2.841704e+000 4.282454e+000 3.393344e+000 3.465708e+000 4.762887e+000 3.531640e-001 4.823654e-001 4.489188e-001 4.818767e-001 7.454589e-001 6.763702e-001 8.889601e-001 7.172147e-001 7.024217e-001 7.431071e-001 4.854957e-001 6.066114e-001 3.546387e-001
<GCONST> 1.330188e+002
<STATE> 4
<NUMMIXES> 2
<MIXTURE> 1 4.590890e-001
<MEAN> 39
 -1.690168e-001 6.143002e+000 2.743842e+000 -1.403268e+001 -1.135229e+001 -1.534097e+001 -4.026741e+000 -1.184912e+001 -4.651500e+000 -4.231457e+000 -6.291126e+000 -5.874361e+000 6.131543e+001 -9.356748e-002 -8.728805e-002 8.817312e-002 -4.426540e-001 2.981750e-001 -2.058620e-003 1.294256e-001 4.602070e-001 1.999587e-001 2.239117e-001 3.347058e-001 2.038190e-001 9.531650e-001 -1.654474e-001 -3.548937e-001 5.338313e-002 -1.616458e-001 -1.397612e-002 -3.054718e-002 -9.261344e-002 5.883152e-002 8.543926e-002 2.565511e-001 1.834770e-001 1.878059e-001 2.939057e-001
<VARIANCE> 39
 7.794624e+001 7.322781e+001 1.359650e+002 1.387625e+002 8.769117e+001 8.295532e+001 1.006518e+002 1.082324e+002 6.078131e+001 8.657391e+001 6.531618e+001 6.515247e+001 1.197844e+002 5.171314e+000 5.879066e+000 5.558817e+000 8.218702e+000 7.554465e+000 7.205147e+000 9.067645e+000 6.710632e+000 4.637129e+000 5.881911e+000 4.901658e+000 5.975796e+000 6.136409e+000 9.147489e-001 1.175043e+000 1.074737e+000 1.329965e+000 1.543531e+000 1.380616e+000 1.683063e+000 1.184037e+000 9.352087e-001 1.191123e+000 9.520317e-001 1.033305e+000 1.071643e+000
<GCONST> 1.559454e+002
<MIXTURE> 2 5.409109e-001
<MEAN> 39
 -4.854025e-001 4.005757e+000 2.632490e+000 -1.314047e+001 -1.182699e+001 -1.557964e+001 -4.790150e+000 -1.232383e+001 -5.490254e+000 -3.537019e+000 -6.295430e+000 -7.330263e+000 6.034315e+001 7.308450e-002 -1.573796e-001 -3.001690e-001 -4.228924e-001 -1.377425e-001 -2.142395e-001 1.902884e-002 -2.273337e-001 -2.756938e-001 -5.475299e-004 -9.083465e-002 -2.330373e-001 9.056668e-001 -1.370645e-001 -2.863238e-001 -6.718957e-002 -1.847247e-001 1.307757e-003 8.192855e-002 -1.302705e-001 -6.848341e-002 5.617679e-002 1.330388e-001 7.422150e-002 1.313581e-001 1.405160e-001
<VARIANCE> 39
 7.915237e+001 7.767355e+001 1.224187e+002 1.495509e+002 8.702160e+001 8.832881e+001 9.803668e+001 1.236350e+002 6.089969e+001 9.895864e+001 5.922538e+001 7.971285e+001 1.504860e+002 5.009984e+000 6.280268e+000 6.086083e+000 6.310763e+000 6.808503e+000 6.674779e+000 8.261665e+000 7.270334e+000 4.867303e+000 5.788392e+000 4.297021e+000 5.012242e+000 6.187738e+000 8.629992e-001 1.205740e+000 1.005706e+000 1.162032e+000 1.491948e+000 1.449433e+000 1.480285e+000 1.234894e+000 8.924150e-001 1.094744e+000 8.717259e-001 8.844302e-001 9.144600e-001
<GCONST> 1.551807e+002
<TRANSP> 5
 0.000000e+000 1.000000e+000 0.000000e+000 0.000000e+000 0.000000e+000
 0.000000e+000 6.605283e-001 3.394717e-001 0.000000e+000 0.000000e+000
 0.000000e+000 0.000000e+000 6.776901e-001 3.223099e-001 0.000000e+000
 0.000000e+000 0.000000e+000 0.000000e+000 8.627521e-001 1.372479e-001
 0.000000e+000 0.000000e+000 0.000000e+000 0.000000e+000 0.000000e+000
<ENDHMM>
~h "e"
<BEGINHMM>
<NUMSTATES> 5
<STATE> 2
<NUMMIXES> 2
<MIXTURE> 1 5.052683e-001
<MEAN> 39
 -6.571874e+000 -7.486317e-001 1.390154e+000 -1.244506e+001 -1.366905e+001 -1.522804e+001 -6.685081e+000 -5.517805e+000 -2.070914e+000 -3.826151e+000 -7.541116e-001 -2.797433e+000 6.741923e+001 1.394486e+000 -5.058297e-001 1.644898e+000 -2.034852e+000 -2.948089e+000 -8.337063e-001 1.254139e-001 -2.013192e-001 -1.336129e-001 1.073113e+000 4.543850e-001 9.541679e-001 2.690817e+000 -9.800141e-002 -1.672475e-001 9.509255e-002 -4.104390e-001 -4.499902e-002 2.998739e-001 2.231024e-001 -1.511423e-001 1.410853e-001 3.978812e-001 -2.327270e-001 2.004264e-001 5.824103e-002
<VARIANCE> 39
 6.795908e+001 6.181752e+001 6.103428e+001 9.073560e+001 7.921236e+001 9.872455e+001 6.964216e+001 7.796885e+001 5.015873e+001 4.731210e+001 6.142394e+001 4.815331e+001 1.442136e+002 9.120685e+000 8.516026e+000 7.468030e+000 8.340770e+000 9.292275e+000 9.010465e+000 8.166920e+000 8.081036e+000 6.596301e+000 7.245582e+000 5.352281e+000 4.995652e+000 8.789537e+000 9.758523e-001 1.056253e+000 7.814109e-001 1.135338e+000 1.212691e+000 1.184573e+000 9.405823e-001 1.292241e+000 9.295884e-001 9.303160e-001 9.459019e-001 8.096988e-001 1.014359e+000
<GCONST> 1.534375e+002
<MIXTURE> 2 4.947298e-001
<MEAN> 39
 -6.790341e+000 -7.615365e-001 1.163164e+000 -1.338310e+001 -1.437726e+001 -1.511830e+001 -7.063784e+000 -6.479874e+000 -2.840865e+000 -4.611955e+000 -1.741625e+000 -3.222604e+000 6.883134e+001 1.392370e+000 -6.094188e-001 1.307250e+000 -2.251024e+000 -3.225965e+000 -1.018952e+000 -1.364882e-001 -5.871840e-001 -6.884095e-001 5.315570e-001 -8.428206e-002 3.778372e-001 2.689605e+000 -9.351496e-002 -2.117245e-001 -1.987862e-003 -2.905181e-001 -2.675724e-002 3.228156e-001 1.833002e-001 -1.329756e-001 2.607508e-002 3.490953e-001 -2.784379e-001 1.225857e-001 -1.016332e-001
<VARIANCE> 39
 6.653413e+001 6.516746e+001 5.510202e+001 8.277758e+001 7.078753e+001 8.009161e+001 6.350566e+001 7.786133e+001 5.362109e+001 4.744901e+001 5.820301e+001 4.391585e+001 1.120876e+002 9.135927e+000 7.215656e+000 6.606160e+000 7.737052e+000 8.318714e+000 8.454351e+000 9.170042e+000 7.492801e+000 6.693552e+000 7.641961e+000 5.259238e+000 4.641746e+000 8.067075e+000 9.754662e-001 1.016628e+000 7.022299e-001 1.018400e+000 1.191727e+000 1.208526e+000 9.863235e-001 1.413585e+000 8.590666e-001 9.395360e-001 9.346650e-001 8.062432e-001 8.394533e-001
<GCONST> 1.515378e+002
<STATE> 3
<NUMMIXES> 2
<MIXTURE> 1 5.091794e-001
<MEAN> 39
 -3.524833e+000 -4.116206e+000 6.004972e+000 -1.970755e+001 -2.191569e+001 -1.655350e+001 -6.235886e+000 -5.930211e+000 -2.976808e+000 3.093835e-002 -2.041512e+000 -6.294622e-001 7.568312e+001 3.396529e-001 -8.684924e-001 1.284053e+000 -1.919057e+000 -1.344239e+000 4.739175e-001 7.083864e-001 -4.711198e-001 4.892591e-002 1.776576e+000 -5.864299e-001 8.587421e-001 1.312940e+000 -5.440426e-001 3.354325e-001 -4.681644e-001 6.540757e-001 1.138649e+000 5.692686e-001 1.751663e-001 -7.220371e-002 2.170071e-001 -1.287008e-001 -1.185223e-001 -1.797491e-001 -8.474898e-001
<VARIANCE> 39
 3.524476e+001 5.775986e+001 6.035938e+001 1.062042e+002 6.146415e+001 6.675378e+001 6.388807e+001 8.075088e+001 6.076261e+001 6.497028e+001 5.133121e+001 4.452024e+001 2.820433e+001 3.679502e+000 3.714286e+000 4.498169e+000 7.206502e+000 6.783843e+000 6.090806e+000 6.255564e+000 5.890559e+000 4.091827e+000 6.849083e+000 4.280546e+000 3.813961e+000 4.793737e+000 7.202897e-001 8.842155e-001 6.958945e-001 8.186630e-001 9.911886e-001 9.877292e-001 1.053756e+000 1.101874e+000 8.812596e-001 1.120978e+000 7.299606e-001 6.949559e-001 5.346696e-001
<GCONST> 1.431964e+002
<MIXTURE> 2 4.908202e-001
<MEAN> 39
 -4.244475e+000 -3.448825e+000 4.905300e+000 -2.020633e+001 -2.284167e+001 -1.555781e+001 -6.389439e+000 -7.516586e+000 -3.019964e+000 -1.481530e+000 -2.730664e+000 -8.768855e-001 7.478327e+001 1.405578e-001 -8.252928e-001 9.726589e-001 -2.019161e+000 -1.622736e+000 5.751316e-001 6.194811e-001 -8.797631e-001 -5.255235e-001 1.223893e+000 -8.317524e-001 1.839917e-001 1.547634e+000 -5.045890e-001 2.644263e-001 -4.875536e-001 6.411419e-001 1.148384e+000 4.504374e-001 5.120753e-002 -8.515286e-002 7.185955e-002 -1.222194e-001 -2.386210e-001 -3.091389e-001 -8.851302e-001
<VARIANCE> 39
 3.558221e+001 6.784189e+001 5.913900e+001 9.465678e+001 5.604200e+001 6.739542e+001 6.556160e+001 8.758542e+001 6.994928e+001 6.222696e+001 4.959741e+001 4.132608e+001 4.060922e+001 3.846451e+000 3.887741e+000 4.564038e+000 7.394066e+000 6.809735e+000 6.127990e+000 6.311330e+000 5.467067e+000 4.554245e+000 6.735926e+000 4.374779e+000 4.153428e+000 4.834587e+000 7.588162e-001 1.026919e+000 7.042555e-001 8.935705e-001 9.856017e-001 1.063858e+000 1.205719e+000 1.172500e+000 1.015432e+000 1.073129e+000 8.309016e-001 7.050501e-001 6.498865e-001
<GCONST> 1.448932e+002
<STATE> 4
<NUMMIXES> 2
<MIXTURE> 1 4.925301e-001
<MEAN> 39
 -3.726229e+000 -2.485526e+000 8.505280e+000 -2.459152e+001 -2.006312e+001 -1.289577e+001 -3.892647e+000 -1.067107e+001 -2.299899e+000 3.012522e+000 -5.912350e+000 -4.785336e-001 7.466212e+001 -1.018449e-002 6.495268e-001 -4.053187e-001 8.579268e-001 7.172992e-001 3.958959e-001 2.459490e-001 -1.611561e-001 1.778054e-001 -4.431396e-001 3.139003e-001 -9.378888e-002 -7.735895e-001 -3.465386e-002 1.251339e-001 -2.393815e-001 4.232209e-001 2.530372e-001 -1.039103e-002 -5.289152e-002 1.855270e-001 4.495237e-002 -2.476434e-001 2.190348e-001 -6.448945e-002 -2.614257e-001
<VARIANCE> 39
 4.170070e+001 6.129290e+001 5.604041e+001 1.348565e+002 7.415531e+001 9.919508e+001 6.769363e+001 8.154425e+001 7.669387e+001 7.667098e+001 5.504346e+001 4.877851e+001 4.230249e+001 1.536588e+000 2.275447e+000 2.332602e+000 4.889255e+000 3.893773e+000 3.880819e+000 3.282457e+000 3.965662e+000 3.192924e+000 4.241200e+000 3.219222e+000 2.773367e+000 2.224635e+000 2.701836e-001 3.344588e-001 3.692857e-001 7.332455e-001 6.645889e-001 7.127730e-001 6.906432e-001 6.897445e-001 5.756794e-001 8.384596e-001 6.014575e-001 5.300501e-001 2.903890e-001
<GCONST> 1.325475e+002
<MIXTURE> 2 5.074653e-001
<MEAN> 39
 -4.804543e+000 -2.615821e+000 6.806654e+000 -2.326530e+001 -2.104028e+001 -1.140056e+001 -4.481403e+000 -1.156046e+001 -2.909679e+000 8.166809e-001 -5.414692e+000 -1.060567e+000 7.374347e+001 -1.379145e-001 4.394827e-001 -5.927082e-001 8.497268e-001 5.081459e-001 9.881483e-002 -4.672274e-002 -2.350275e-001 -3.151433e-001 -6.803095e-001 -6.942205e-002 -5.732856e-001 -7.718769e-001 -5.423698e-002 7.555876e-002 -2.332897e-001 3.614822e-001 2.794140e-001 -1.916844e-001 -1.248380e-001 1.246132e-001 5.217027e-003 -2.400283e-001 8.863708e-002 -1.310055e-001 -2.401397e-001
<VARIANCE> 39
 4.833384e+001 6.360290e+001 5.780229e+001 1.244565e+002 7.144510e+001 1.058583e+002 6.393606e+001 8.694080e+001 7.936822e+001 7.493642e+001 5.319719e+001 4.798140e+001 5.322046e+001 1.551425e+000 2.212043e+000 2.406297e+000 4.641446e+000 4.153065e+000 4.057685e+000 3.502520e+000 4.178250e+000 3.631241e+000 4.141775e+000 3.384032e+000 2.824069e+000 1.820567e+000 2.463692e-001 3.411993e-001 3.747751e-001 7.320160e-001 7.377173e-001 7.947314e-001 7.243952e-001 7.052782e-001 6.398424e-001 7.913888e-001 6.255492e-001 5.358390e-001 2.780860e-001
<GCONST> 1.333458e+002
<TRANSP> 5
 0.000000e+000 1.000000e+000 0.000000e+000 0.000000e+000 0.000000e+000
 0.000000e+000 3.251753e-001 6.748247e-001 0.000000e+000 0.000000e+000
 0.000000e+000 0.000000e+000 4.842812e-001 5.157188e-001 0.000000e+000
 0.000000e+000 0.000000e+000 0.000000e+000 8.320087e-001 1.679913e-001
 0.000000e+000 0.000000e+000 0.000000e+000 0.000000e+000 0.000000e+000
<ENDHMM>
~h "f"
<BEGINHMM>
<NUMSTATES> 5
<STATE> 2
<NUMMIXES> 2
<MIXTURE> 1 4.954634e-001
<MEAN> 39
 -1.563357e+001 -9.304018e+000 -5.358272e+000 -7.517179e+000 -2.016832e+000 -8.243585e+000 -9.232089e-001 -5.820767e+000 3.588180e-001 -5.352275e+000 -1.253561e+000 -3.655784e+000 4.192272e+001 1.085752e-001 1.845943e-001 1.699311e-001 2.558069e-001 3.321666e-001 2.439982e-001 2.676365e-001 2.429354e-001 1.670745e-001 1.087647e-001 8.306631e-002 1.813306e-002 6.131391e-002 2.403852e-002 3.617014e-002 1.429220e-002 -2.521445e-002 1.695705e-002 1.245071e-002 9.090236e-002 5.776853e-002 1.765049e-002 8.344461e-002 7.402264e-002 2.413550e-002 1.139796e-002
<VARIANCE> 39
 5.428209e+000 6.731268e+000 1.189100e+001 1.907024e+001 1.868263e+001 1.803332e+001 2.426619e+001 2.460082e+001 2.724824e+001 2.822425e+001 2.536492e+001 2.051973e+001 3.021603e+001 5.301204e-001 6.883416e-001 1.042550e+000 1.735062e+000 1.956806e+000 2.050978e+000 2.252274e+000 2.800632e+000 2.800632e+000 2.452552e+000 2.403543e+000 2.041410e+000 1.175068e-001 1.005953e-001 1.644688e-001 2.125474e-001 3.647750e-001 3.886148e-001 3.645800e-001 4.643819e-001 6.037418e-001 5.581022e-001 4.644185e-001 5.496028e-001 4.189465e-001 3.034608e-002
<GCONST> 9.721335e+001
<MIXTURE> 2 5.045367e-001
<MEAN> 39
 -1.591539e+001 -9.535199e+000 -5.598919e+000 -8.460845e+000 -2.440425e+000 -8.155299e+000 -9.844925e-004 -5.683634e+000 -5.173659e-001 -5.769855e+000 -1.206216e+000 -3.354637e+000 4.073243e+001 -1.321418e-001 -1.620865e-001 -1.613042e-001 -1.890276e-001 -3.112046e-001 -2.972733e-001 -2.460581e-001 -2.469840e-001 -1.846315e-001 -9.788168e-002 -1.701197e-002 4.404803e-002 -1.006575e-001 -2.462794e-003 -1.751558e-002 -3.989917e-002 -2.959277e-002 -2.639222e-002 -2.163902e-002 -8.539239e-002 -6.091656e-002 -3.958922e-003 -6.937233e-002 -4.002157e-002 -3.144169e-002 -1.255001e-002
<VARIANCE> 39
 3.708218e+000 5.614207e+000 1.239320e+001 1.882730e+001 1.816872e+001 2.290775e+001 2.358885e+001 2.576116e+001 2.721797e+001 2.895250e+001 2.576582e+001 1.853185e+001 6.559320e+000 4.076111e-001 6.892760e-001 1.142166e+000 2.028342e+000 1.804835e+000 1.793382e+000 2.485691e+000 2.894526e+000 3.073263e+000 2.311647e+000 3.101596e+000 2.087807e+000 1.124377e-001 9.259927e-002 1.463607e-001 2.421989e-001 4.008795e-001 4.090954e-001 4.568203e-001 5.655739e-001 6.086876e-001 6.210674e-001 4.851121e-001 5.973592e-001 4.665819e-001 2.753891e-002
<GCONST> 9.624091e+001
<STATE> 3
<NUMMIXES> 2
<MIXTURE> 1 4.903820e-001
<MEAN> 39
 -1.669984e+001 1.975195e+000 -2.151000e+000 2.247194e+000 -7.067626e+000 -5.380757e+000 -6.202031e+000 -5.157302e+000 -6.701540e+000 -4.354322e+000 -5.410853e+000 -4.475007e+000 6.708635e+001 -1.137430e+000 8.034766e-001 1.119289e+000 6.902830e-001 9.134578e-001 5.328579e-001 7.391787e-001 -1.774296e-002 5.627055e-001 1.044695e+000 8.348656e-001 -1.089637e-001 -1.128325e+000 1.697547e-001 -2.209535e-001 -1.807871e-001 -1.067145e-002 -1.689897e-001 9.974093e-002 -1.082557e-001 1.956109e-001 3.581479e-002 4.497126e-003 -9.693570e-002 1.038850e-001 1.183324e-001
<VARIANCE> 39
 4.889610e+001 2.568717e+001 2.506215e+001 3.528204e+001 4.029502e+001 3.952472e+001 2.004002e+001 2.270708e+001 7.418318e+001 5.290538e+001 4.515771e+001 3.556343e+001 6.449119e+001 1.594065e+000 1.872274e+000 1.311872e+000 1.357920e+000 1.279971e+000 2.520370e+000 2.423338e+000 2.523100e+000 3.090219e+000 5.137435e+000 2.599273e+000 1.803182e+000 7.955446e-001 3.843699e-001 3.028127e-001 2.028521e-001 3.027629e-001 2.776581e-001 4.083178e-001 5.097036e-001 4.160907e-001 7.008473e-001 1.145514e+000 4.956221e-001 3.366831e-001 2.266072e-001
<GCONST> 1.154844e+002
<MIXTURE> 2 5.096179e-001
<MEAN> 39
 -1.528409e+001 -1.565926e+000 -4.845714e+000 -9.797596e-001 -9.676247e+000 -4.749671e+000 -6.463823e+000 -6.394436e+000 -7.959038e+000 -3.287608e+000 -7.766923e+000 -5.824035e+000 6.706578e+001 -1.160851e+000 5.288733e-001 5.067462e-001 7.372540e-001 4.350448e-001 6.227034e-001 9.475682e-001 -2.732025e-001 -3.213982e-001 -1.895590e-001 2.776079e-001 -3.346275e-001 -4.496759e-001 2.353036e-001 -2.591212e-002 -3.903633e-002 -7.488595e-002 -2.230028e-001 -1.537496e-001 -1.835389e-001 2.532724e-001 1.811676e-001 1.210916e-001 -1.171752e-001 -2.605691e-002 1.262210e-001
<VARIANCE> 39
 6.165459e+001 3.740771e+001 2.836210e+001 5.159384e+001 5.586610e+001 6.314653e+001 3.256322e+001 2.676833e+001 8.693990e+001 5.142399e+001 4.738121e+001 2.380798e+001 1.501755e+002 2.208409e+000 1.985383e+000 1.660283e+000 1.687383e+000 1.134606e+000 4.150025e+000 2.374996e+000 2.605193e+000 3.948449e+000 5.362627e+000 2.874256e+000 2.307369e+000 8.006848e-001 4.490070e-001 3.771257e-001 2.933947e-001 4.504162e-001 4.796193e-001 7.762218e-001 4.274563e-001 5.747409e-001 9.480258e-001 1.140049e+000 6.724710e-001 3.593328e-001 2.741897e-001
<GCONST> 1.238678e+002
<STATE> 4
<NUMMIXES> 2
<MIXTURE> 1 5.181711e-001
<MEAN> 39
 -7.202694e+000 -2.091954e+000 -9.556054e+000 -1.149497e+001 -5.206098e+000 -1.163727e+001 -1.196905e+001 -4.598153e+000 -9.227852e-001 -4.292952e+000 2.512516e-002 -4.567586e+000 6.555243e+001 3.794889e-001 2.488764e-001 1.170320e-001 -1.359120e-001 -7.728539e-002 1.670542e-001 6.693957e-002 7.851242e-001 2.227590e-002 1.477109e-001 -2.769098e-001 3.509609e-001 8.553096e-001 1.781707e-001 3.374290e-002 1.685416e-001 -8.419499e-002 -1.181199e-001 -1.955229e-001 -1.066623e-001 -9.938090e-003 -1.084920e-002 1.598657e-001 -7.024442e-002 5.825116e-003 2.929507e-001
<VARIANCE> 39
 1.715437e+002 3.520077e+001 3.276656e+001 7.903981e+001 3.837426e+001 1.043203e+002 1.246829e+002 6.173335e+001 5.607983e+001 3.599633e+001 2.543075e+001 3.985516e+001 1.508286e+002 7.780707e+000 3.764177e+000 4.301042e+000 4.355453e+000 3.924486e+000 6.633204e+000 4.967124e+000 5.394167e+000 5.761519e+000 5.269898e+000 2.834599e+000 3.541772e+000 5.062726e+000 1.070469e+000 5.865205e-001 6.366534e-001 6.556116e-001 6.365374e-001 1.054513e+000 9.082814e-001 1.201368e+000 1.092973e+000 9.673986e-001 6.797355e-001 6.747326e-001 8.146477e-001
<GCONST> 1.426508e+002
<MIXTURE> 2 4.818289e-001
<MEAN> 39
 -9.476417e+000 -2.990286e+000 -9.663035e+000 -9.617999e+000 -5.511200e+000 -1.463037e+001 -1.118889e+001 -3.811603e+000 -1.216105e+000 -3.208361e+000 -5.919684e-002 -5.562087e+000 6.800690e+001 6.504585e-001 -9.089243e-002 -4.246384e-001 -6.450979e-001 -9.017950e-001 -3.894041e-001 -3.325303e-001 2.574384e-001 -3.964583e-001 -3.523819e-001 -3.439506e-001 -1.884666e-001 1.155866e+000 2.106453e-001 3.089942e-002 -1.105971e-003 -1.645383e-001 -1.258226e-001 9.243970e-003 -1.854063e-001 -2.313841e-001 3.688228e-002 -1.116318e-001 -2.281930e-001 -7.954002e-003 5.203831e-002
<VARIANCE> 39
 1.241417e+002 2.760502e+001 3.504626e+001 8.340866e+001 3.807388e+001 1.185464e+002 8.745045e+001 5.826817e+001 4.465828e+001 2.838413e+001 2.992391e+001 3.186180e+001 1.194452e+002 8.544549e+000 2.822013e+000 5.579001e+000 3.541377e+000 4.000515e+000 6.959583e+000 5.847358e+000 7.377931e+000 7.113818e+000 3.362747e+000 3.755066e+000 3.348030e+000 6.904312e+000 9.968194e-001 5.710986e-001 7.523226e-001 7.772615e-001 6.527842e-001 1.265235e+000 7.908962e-001 1.180444e+000 1.204201e+000 8.070056e-001 7.778022e-001 7.416463e-001 6.892996e-001
<GCONST> 1.421208e+002
<TRANSP> 5
 0.000000e+000 1.000000e+000 0.000000e+000 0.000000e+000 0.000000e+000
 0.000000e+000 9.725315e-001 2.746844e-002 0.000000e+000 0.000000e+000
 0.000000e+000 0.000000e+000 8.107848e-001 1.892152e-001 0.000000e+000
 0.000000e+000 0.000000e+000 0.000000e+000 8.982147e-001 1.017853e-001
 0.000000e+000 0.000000e+000 0.000000e+000 0.000000e+000 0.000000e+000
<ENDHMM>
~h "g"
<BEGINHMM>
<NUMSTATES> 5
<STATE> 2
<NUMMIXES> 2
<MIXTURE> 1 4.990624e-001
<MEAN> 39
 -5.534418e+000 -3.029325e+000 -3.528093e+000 -1.117074e+001 -4.262863e+000 -1.365121e+001 -8.762914e+000 -9.479076e+000 -4.802651e-001 -3.846507e+000 -1.563477e+000 -4.142153e+000 5.727132e+001 9.972308e-001 -1.285449e-001 -1.090590e+000 -1.128034e+000 2.975759e-001 -4.454555e-001 -2.387445e-001 1.773485e+000 1.108408e+000 -3.861950e-001 -4.400769e-001 -6.849436e-001 2.047840e+000 2.332005e-001 3.194861e-003 -2.476315e-001 -6.827319e-001 -2.202506e-001 -1.722279e-001 2.485956e-001 2.773886e-001 -7.526911e-002 -2.187717e-002 -1.164701e-001 -6.596853e-003 5.317341e-001
<VARIANCE> 39
 9.624681e+001 9.464862e+001 4.287057e+001 5.398858e+001 5.226830e+001 6.019743e+001 5.387994e+001 1.455870e+002 4.811957e+001 6.144595e+001 4.768893e+001 4.164678e+001 1.564298e+002 3.498339e+000 9.679437e+000 5.680017e+000 7.756247e+000 7.678871e+000 9.124553e+000 7.368397e+000 1.764931e+001 5.680225e+000 3.958857e+000 3.889582e+000 4.461544e+000 9.287766e+000 5.625532e-001 1.627559e+000 1.036609e+000 8.277650e-001 9.736393e-001 1.768807e+000 1.440735e+000 3.126527e+000 7.651327e-001 7.852253e-001 7.240101e-001 1.074401e+000 1.535147e+000
<GCONST> 1.522971e+002
<MIXTURE> 2 5.009377e-001
<MEAN> 39
 -5.036456e+000 -2.028159e+000 -4.807186e+000 -1.176111e+001 -5.073466e+000 -1.582449e+001 -9.119141e+000 -5.971376e+000 6.281380e-002 -6.532178e+000 -1.123464e+000 -4.326760e+000 5.886015e+001 1.440024e+000 1.308046e-001 -9.822251e-001 -1.698337e+000 -7.402772e-001 -1.399134e+000 -5.112731e-001 1.227568e+000 2.113182e-001 -6.975880e-001 -9.508444e-001 -9.949462e-001 2.710486e+000 -6.831028e-002 -2.711914e-001 -1.775142e-001 -5.144647e-001 -1.315051e-001 2.840140e-001 2.092630e-001 -3.386913e-001 -2.105131e-001 1.785059e-001 -3.389264e-001 -1.133011e-001 1.877478e-001
<VARIANCE> 39
 6.047916e+001 6.036214e+001 5.880502e+001 8.277911e+001 6.881396e+001 6.973357e+001 7.224959e+001 1.425889e+002 6.953423e+001 3.804480e+001 4.694575e+001 5.187039e+001 1.394475e+002 4.967883e+000 1.242645e+001 5.429016e+000 7.163343e+000 1.076005e+001 9.681087e+000 8.102092e+000 1.825753e+001 4.808115e+000 4.469843e+000 4.516398e+000 5.749845e+000 9.663102e+000 5.903419e-001 1.275902e+000 1.430635e+000 1.200473e+000 1.089731e+000 1.527145e+000 1.770393e+000 3.439057e+000 9.582472e-001 8.054128e-001 7.526682e-001 1.221235e+000 1.804978e+000
<GCONST> 1.555420e+002
<STATE> 3
<NUMMIXES> 2
<MIXTURE> 1 5.336426e-001
<MEAN> 39
 -2.167749e+000 1.113338e+000 1.388495e+000 -1.100273e+001 -9.207912e+000 -1.518786e+001 -9.529007e+000 -1.166314e+001 -3.739198e+000 5.265640e+000 -1.599093e+000 -7.366931e+000 6.641815e+001 1.600618e-002 -1.081885e-002 -1.148227e-001 -8.531151e-001 1.150162e-001 1.084836e-002 3.179671e-001 3.835353e-001 -5.274047e-001 -1.562006e-001 1.456307e-002 2.094406e-001 3.549208e-001 -1.346885e-001 -5.808178e-002 -6.721432e-002 1.478065e-001 2.184445e-001 2.557585e-001 2.885374e-001 6.554413e-002 -6.730349e-002 2.987244e-002 1.239427e-001 3.059480e-001 -7.147884e-002
<VARIANCE> 39
 2.844501e+001 2.510361e+001 5.241500e+001 6.851237e+001 7.406917e+001 2.244299e+001 9.269099e+001 7.545452e+001 7.903017e+001 9.221544e+001 5.541806e+001 2.625306e+001 2.057489e+001 9.108904e-001 8.937247e-001 3.908525e+000 4.002446e+000 5.038789e+000 3.543845e+000 4.538595e+000 3.119112e+000 5.723033e+000 4.849343e+000 3.198202e+000 1.953131e+000 7.584387e-001 2.147918e-001 1.861072e-001 4.073289e-001 7.596263e-001 6.932147e-001 4.360515e-001 7.109546e-001 5.185248e-001 1.148924e+000 7.898684e-001 7.434525e-001 3.471474e-001 3.406748e-001
<GCONST> 1.257444e+002
<MIXTURE> 2 4.663575e-001
<MEAN> 39
 -3.622872e+000 1.213876e+000 6.432602e-002 -1.247371e+001 -1.040092e+001 -1.694895e+001 -5.332251e+000 -9.754709e+000 -2.732709e+000 4.223943e+000 -1.851778e+000 -8.542675e+000 6.468937e+001 1.673001e-001 -2.067186e-001 -4.324061e-001 -9.025212e-001 -5.669668e-002 -2.941998e-001 2.022078e-001 -2.556844e-001 -7.065778e-001 -5.585049e-001 -4.175936e-001 -1.752989e-001 5.080146e-001 -1.157005e-001 -1.456172e-001 -1.013054e-001 2.568916e-001 1.557262e-001 3.336306e-001 9.595545e-002 -9.272770e-002 -2.952592e-001 -3.130600e-001 -5.302022e-002 2.202005e-001 -1.266673e-001
<VARIANCE> 39
 2.708548e+001 2.808770e+001 6.725258e+001 7.988979e+001 1.124202e+002 3.472847e+001 6.905316e+001 5.925218e+001 1.243566e+002 1.039795e+002 5.216889e+001 3.103712e+001 6.412488e+001 9.123046e-001 1.726118e+000 3.467945e+000 4.183845e+000 6.469748e+000 2.989278e+000 8.733274e+000 3.235905e+000 6.097331e+000 4.801453e+000 2.685843e+000 2.196759e+000 8.225696e-001 2.326743e-001 3.459317e-001 5.695377e-001 7.750953e-001 7.251731e-001 6.180525e-001 5.519843e-001 6.755505e-001 1.151707e+000 7.849479e-001 6.785480e-001 4.963498e-001 3.042061e-001
<GCONST> 1.313884e+002
<STATE> 4
<NUMMIXES> 2
<MIXTURE> 1 5.133708e-001
<MEAN> 39
 -4.736292e-001 1.524916e+000 -9.443169e+000 -1.509006e+001 -1.244897e+001 -1.814989e+001 -4.314025e+000 -1.002006e+001 4.992614e-001 -1.169720e+001 -5.087495e+000 -1.240536e+001 6.080366e+001 -4.237183e-002 -4.110791e-001 -3.306173e-001 -1.606035e-001 4.538163e-001 8.344511e-001 5.948396e-001 -1.311372e-002 -1.135968e-001 2.031551e-001 1.005475e-001 4.703126e-001 9.324005e-003 -3.274929e-002 -6.629236e-002 9.347619e-002 5.291241e-002 3.629486e-002 1.042368e-001 2.905510e-002 1.187775e-001 -3.945137e-004 1.545787e-001 6.732780e-002 2.171198e-001 7.701991e-002
<VARIANCE> 39
 3.192113e+001 1.240346e+002 9.451834e+001 9.800433e+001 2.342503e+002 9.949107e+001 8.775105e+001 8.794431e+001 8.254382e+001 5.861028e+001 6.172681e+001 1.093275e+002 1.094116e+002 8.552651e-001 1.956311e+000 4.737415e+000 4.760132e+000 4.827753e+000 2.686188e+000 5.694737e+000 3.377656e+000 4.297007e+000 4.351730e+000 3.989643e+000 3.277878e+000 7.391255e-001 9.188353e-002 3.244655e-001 4.962446e-001 8.847322e-001 7.669177e-001 5.206630e-001 1.064755e+000 6.914265e-001 7.024355e-001 7.125410e-001 6.836223e-001 5.962369e-001 2.259037e-001
<GCONST> 1.358083e+002
<MIXTURE> 2 4.866293e-001
<MEAN> 39
 -9.639397e-001 2.121137e+000 -9.272661e+000 -1.285177e+001 -1.454409e+001 -1.924646e+001 -2.629917e+000 -1.071278e+001 8.125722e-001 -1.321702e+001 -5.615369e+000 -1.398510e+001 5.801797e+001 -1.785997e-001 -3.008755e-001 -2.319056e-001 7.473927e-002 -2.593662e-001 -4.469200e-002 -1.017129e-001 -3.558440e-001 -2.194741e-001 -2.542601e-001 -5.335395e-001 9.633275e-003 -1.969928e-001 -2.689046e-002 -7.731459e-002 -8.278909e-002 -5.496389e-002 3.744871e-002 -5.163367e-002 -6.802900e-002 -9.584355e-003 -3.090174e-002 -2.452003e-002 6.493945e-002 -2.736334e-002 -2.389081e-002
<VARIANCE> 39
 2.586002e+001 1.318426e+002 1.097247e+002 8.250244e+001 1.785666e+002 9.290018e+001 7.109917e+001 6.216245e+001 1.047813e+002 3.404477e+001 5.018119e+001 1.022733e+002 1.102918e+002 8.212658e-001 2.010419e+000 3.580389e+000 4.024227e+000 4.932977e+000 1.809855e+000 5.562407e+000 3.827453e+000 4.924277e+000 3.283957e+000 3.037347e+000 3.005589e+000 6.710206e-001 7.436821e-002 2.224405e-001 4.581762e-001 7.701575e-001 6.375525e-001 3.465403e-001 1.130241e+000 5.202328e-001 6.776901e-001 6.508473e-001 6.579536e-001 5.743216e-001 9.284953e-002
<GCONST> 1.301181e+002
<TRANSP> 5
 0.000000e+000 1.000000e+000 0.000000e+000 0.000000e+000 0.000000e+000
 0.000000e+000 6.581678e-001 3.418323e-001 0.000000e+000 0.000000e+000
 0.000000e+000 0.000000e+000 6.614600e-001 3.385400e-001 0.000000e+000
 0.000000e+000 0.000000e+000 0.000000e+000 8.429039e-001 1.570961e-001
 0.000000e+000 0.000000e+000 0.000000e+000 0.000000e+000 0.000000e+000
<ENDHMM>
~h "h"
<BEGINHMM>
<NUMSTATES> 5
<STATE> 2
<NUMMIXES> 2
<MIXTURE> 1 4.952673e-001
<MEAN> 39
 -1.678318e+001 -1.031117e+001 -5.064006e+000 -7.891693e+000 -1.905634e+000 -7.277589e+000 -5.711622e-001 -4.808626e+000 8.650813e-001 -3.460903e+000 4.293019e-001 -2.781322e+000 4.074559e+001 5.776311e-002 9.082812e-002 1.279133e-001 1.520902e-001 1.955899e-001 1.979764e-001 1.713953e-001 1.693921e-001 1.597664e-001 1.897103e-001 1.941690e-001 1.263543e-001 3.566746e-002 4.447836e-002 4.088330e-002 2.762624e-002 2.168638e-002 2.284503e-002 1.193214e-002 1.259284e-002 2.936800e-002 1.036658e-002 1.682000e-002 2.137567e-002 9.525326e-003 2.186956e-002
<VARIANCE> 39
 1.090613e+001 1.698387e+001 1.352664e+001 1.701212e+001 2.016875e+001 2.176722e+001 2.502756e+001 2.731148e+001 2.548576e+001 2.275416e+001 2.215349e+001 1.869358e+001 5.224313e+001 2.766648e-001 5.109681e-001 7.932699e-001 1.304582e+000 1.685677e+000 2.034213e+000 2.234143e+000 2.680298e+000 2.934554e+000 2.345582e+000 2.305587e+000 2.054058e+000 9.610302e-002 5.872877e-002 1.066105e-001 1.702538e-001 2.794231e-001 3.654791e-001 4.368578e-001 4.799007e-001 5.644222e-001 6.367924e-001 4.913750e-001 4.796963e-001 4.515781e-001 2.213774e-002
<GCONST> 9.577437e+001
<MIXTURE> 2 5.047212e-001
<MEAN> 39
 -1.692088e+001 -1.095499e+001 -5.475406e+000 -8.455095e+000 -2.488012e+000 -8.198602e+000 -1.028108e+000 -5.577154e+000 2.739435e-001 -4.185380e+000 3.471779e-001 -3.041539e+000 3.998282e+001 -6.173693e-002 -1.061468e-001 -1.554025e-001 -1.656727e-001 -1.604630e-001 -1.850728e-001 -2.195411e-001 -1.842854e-001 -1.827959e-001 -1.851413e-001 -1.903213e-001 -1.257657e-001 -4.048438e-002 -1.162405e-002 -2.004225e-002 -3.395646e-002 -3.030071e-002 -1.477680e-002 -1.515654e-002 -3.466818e-002 -2.354291e-002 -1.720920e-002 -1.750655e-002 -3.276579e-002 -1.074616e-002 -3.430916e-003
<VARIANCE> 39
 6.103437e+000 1.100715e+001 1.006015e+001 1.379675e+001 1.662494e+001 1.927570e+001 2.246774e+001 2.402914e+001 2.461171e+001 2.113704e+001 2.203786e+001 1.790947e+001 2.149141e+001 2.185870e-001 4.605947e-001 7.560694e-001 1.283712e+000 1.642517e+000 2.104288e+000 2.249453e+000 2.750574e+000 3.052919e+000 2.364708e+000 2.373204e+000 2.144932e+000 6.535771e-002 4.625849e-002 9.894089e-002 1.642357e-001 2.794355e-001 3.589666e-001 4.556434e-001 4.817120e-001 5.927869e-001 6.698155e-001 5.097711e-001 5.016134e-001 4.625389e-001 1.447308e-002
<GCONST> 9.148892e+001
<STATE> 3
<NUMMIXES> 2
<MIXTURE> 1 4.900302e-001
<MEAN> 39
 -1.468151e+001 -7.083086e+000 -5.384617e+000 -8.740363e+000 -2.083535e+000 -8.410224e+000 -3.103414e+000 -2.543952e+000 -3.704882e-001 -2.103364e+000 -3.900247e-001 -1.286544e+000 5.576728e+001 -3.323027e-003 5.626201e-002 -2.042103e-002 -3.480858e-002 3.110067e-001 1.647865e-001 2.437682e-002 2.896542e-001 2.510031e-001 2.122419e-001 1.961698e-001 2.202466e-001 2.810752e-001 2.096430e-001 1.189709e-001 2.739498e-002 -1.377401e-002 -4.640765e-003 -7.179711e-003 -5.051195e-002 6.618107e-003 -3.197562e-002 -4.109112e-002 -2.138673e-002 4.156636e-003 9.811983e-002
<VARIANCE> 39
 5.308147e+001 6.172459e+001 6.399835e+001 7.047094e+001 8.219193e+001 7.073065e+001 6.401486e+001 8.498589e+001 7.482264e+001 6.250602e+001 5.819271e+001 4.862967e+001 2.195883e+002 1.117329e+000 1.453841e+000 1.985341e+000 2.649017e+000 3.119886e+000 3.290186e+000 3.532792e+000 3.775427e+000 3.882659e+000 3.222157e+000 2.961529e+000 2.775278e+000 6.514496e-001 2.713298e-001 2.985738e-001 3.512781e-001 4.690768e-001 6.328003e-001 6.369951e-001 7.262748e-001 7.366245e-001 7.666672e-001 6.519841e-001 5.982516e-001 5.410067e-001 1.501868e-001
<GCONST> 1.289466e+002
<MIXTURE> 2 5.099700e-001
<MEAN> 39
 -1.326813e+001 -7.038296e+000 -6.029428e+000 -9.946549e+000 -3.721738e+000 -1.012696e+001 -4.140426e+000 -4.288915e+000 -2.186864e+000 -4.080470e+000 -1.277071e+000 -2.416377e+000 5.468916e+001 2.837522e-002 -3.928194e-002 -2.097020e-001 -2.876544e-001 -7.342011e-002 -2.482111e-001 -4.409406e-001 -1.765599e-001 -2.546741e-001 -2.254417e-001 -2.344834e-001 -1.654077e-001 1.336085e-001 1.229310e-001 2.820806e-002 -3.705623e-002 -7.479070e-002 -7.972431e-002 -7.146087e-002 -1.109099e-001 -5.601230e-002 -8.178570e-002 -8.661195e-002 -1.112716e-001 -3.739386e-002 3.727852e-002
<VARIANCE> 39
 4.649227e+001 6.661770e+001 6.040692e+001 6.953918e+001 8.798122e+001 7.396986e+001 6.485480e+001 8.033707e+001 7.313643e+001 6.415099e+001 6.116587e+001 4.968765e+001 2.178078e+002 1.253110e+000 1.457818e+000 1.957881e+000 2.660004e+000 3.522233e+000 3.410430e+000 4.136922e+000 4.275445e+000 4.273643e+000 3.545566e+000 3.326611e+000 2.885272e+000 6.771777e-001 2.561162e-001 2.717340e-001 3.433778e-001 4.952495e-001 6.690375e-001 6.629597e-001 7.650545e-001 8.133197e-001 8.002170e-001 7.105254e-001 6.460877e-001 5.772609e-001 1.201786e-001
<GCONST> 1.300618e+002
<STATE> 4
<NUMMIXES> 2
<MIXTURE> 1 5.157241e-001
<MEAN> 39
 -1.354213e+001 -9.034120e+000 -9.565579e+000 -1.377231e+001 4.846982e+000 -8.249346e+000 -5.488453e+000 -4.047838e-001 1.357234e+000 -1.764529e+000 -1.219660e+000 -3.610370e+000 5.427203e+001 1.204240e+000 6.360217e-001 -2.262447e-001 -6.282831e-001 3.068789e-001 2.003343e-001 -3.814509e-001 7.925988e-002 -1.170153e-001 -2.618612e-001 -2.841335e-002 2.223491e-001 1.753646e+000 4.542879e-001 2.243666e-001 6.179722e-002 -1.468617e-001 -3.249227e-001 -3.743054e-002 -7.532059e-002 -1.510315e-001 -1.137357e-001 -1.337472e-001 -1.345429e-001 7.069965e-002 4.305176e-001
<VARIANCE> 39
 6.809142e+001 7.186046e+001 1.235932e+002 1.281725e+002 1.949125e+002 1.103839e+002 1.303651e+002 1.365722e+002 1.025025e+002 8.746436e+001 6.968819e+001 8.658144e+001 1.737387e+002 6.282749e+000 4.553666e+000 6.114325e+000 6.722280e+000 1.016433e+001 6.651123e+000 7.664326e+000 8.517021e+000 6.442021e+000 5.925654e+000 4.758555e+000 4.850983e+000 5.085762e+000 8.405203e-001 7.578933e-001 9.163355e-001 1.151940e+000 1.440835e+000 1.124573e+000 1.320872e+000 1.384566e+000 1.143688e+000 1.005487e+000 9.411224e-001 8.430489e-001 8.955680e-001
<GCONST> 1.569279e+002
<MIXTURE> 2 4.842680e-001
<MEAN> 39
 -1.399055e+001 -8.978048e+000 -9.382725e+000 -1.216530e+001 5.518527e+000 -9.009624e+000 -5.833010e+000 5.688970e-001 1.708280e+000 -2.487389e+000 -2.136879e+000 -3.496999e+000 5.774781e+001 1.344937e+000 3.395050e-001 -5.307389e-001 -1.018814e+000 -5.274723e-001 -2.987081e-001 -1.103981e+000 -7.439153e-001 -8.875030e-001 -1.069824e+000 -7.396826e-001 -2.881878e-001 1.309744e+000 4.366432e-001 8.778132e-002 -6.014606e-002 -2.921869e-001 -4.988065e-001 -6.962182e-002 -1.742721e-001 -2.143583e-001 -2.399615e-001 -1.962302e-001 -2.479804e-001 -4.389611e-002 2.383327e-001
<VARIANCE> 39
 6.638924e+001 7.352382e+001 1.122364e+002 1.290726e+002 1.828670e+002 1.112013e+002 1.257159e+002 1.262838e+002 9.882349e+001 8.958962e+001 7.047545e+001 8.322687e+001 1.758460e+002 6.247025e+000 3.667021e+000 5.260144e+000 5.959220e+000 9.601025e+000 5.814823e+000 6.893822e+000 8.543457e+000 7.012595e+000 5.782964e+000 5.029195e+000 4.666598e+000 4.387805e+000 7.628704e-001 6.538851e-001 8.549193e-001 1.036289e+000 1.342620e+000 1.050170e+000 1.259337e+000 1.397392e+000 1.153101e+000 9.947065e-001 9.258958e-001 7.936596e-001 6.188655e-001
<GCONST> 1.547322e+002
<TRANSP> 5
 0.000000e+000 1.000000e+000 0.000000e+000 0.000000e+000 0.000000e+000
 0.000000e+000 9.458075e-001 5.419257e-002 0.000000e+000 0.000000e+000
 0.000000e+000 0.000000e+000 7.470099e-001 2.529901e-001 0.000000e+000
 0.000000e+000 0.000000e+000 0.000000e+000 7.911057e-001 2.088943e-001
 0.000000e+000 0.000000e+000 0.000000e+000 0.000000e+000 0.000000e+000
<ENDHMM>
~h "i"
<BEGINHMM>
<NUMSTATES> 5
<STATE> 2
<NUMMIXES> 2
<MIXTURE> 1 5.059996e-001
<MEAN> 39
 -5.878750e+000 4.110839e+000 8.637293e+000 -2.017499e+001 -1.598079e+001 -1.177133e+001 -9.869084e+000 -1.383386e+001 -2.395432e+000 -2.481029e+000 -6.072242e+000 -2.565132e+000 6.857994e+001 6.224416e-001 8.601868e-001 2.549785e+000 -3.044932e+000 -1.839340e+000 6.467935e-001 -1.258394e+000 -1.079350e+000 2.893261e-001 6.871182e-001 -1.330860e+000 9.920305e-001 1.930663e+000 -3.860679e-001 -1.857433e-001 -4.371747e-001 4.568944e-002 6.180040e-001 4.510722e-001 4.234757e-001 3.916425e-001 1.976956e-001 1.602120e-001 8.668432e-002 2.404150e-001 -3.221399e-001
<VARIANCE> 39
 7.340964e+001 6.960735e+001 8.739281e+001 1.408594e+002 9.859584e+001 8.077294e+001 8.970732e+001 7.681915e+001 7.135591e+001 6.981877e+001 6.976450e+001 4.771130e+001 8.672719e+001 7.493346e+000 5.281168e+000 7.019776e+000 9.050522e+000 8.693429e+000 7.119678e+000 7.843385e+000 7.233303e+000 5.790043e+000 5.687833e+000 6.173600e+000 4.976075e+000 4.660249e+000 8.266268e-001 9.632502e-001 1.191352e+000 1.649896e+000 1.648210e+000 1.132264e+000 1.366246e+000 1.266529e+000 9.613177e-001 9.574471e-001 1.003541e+000 7.715468e-001 8.576570e-001
<GCONST> 1.541215e+002
<MIXTURE> 2 4.939759e-001
<MEAN> 39
 -6.962693e+000 4.660133e+000 7.815179e+000 -2.004213e+001 -1.575489e+001 -1.182318e+001 -1.071860e+001 -1.458496e+001 -2.406970e+000 -4.254828e+000 -6.351901e+000 -3.277386e+000 6.811015e+001 8.798482e-001 8.136376e-001 2.287881e+000 -3.105613e+000 -2.340278e+000 2.840436e-001 -1.763787e+000 -1.575124e+000 -1.883679e-001 1.265037e-001 -1.872965e+000 3.557468e-001 2.150162e+000 -3.947208e-001 -3.561725e-001 -4.766432e-001 4.338206e-002 5.817723e-001 4.190330e-001 4.137394e-001 4.304700e-001 1.133303e-001 1.695911e-001 3.352956e-002 1.475543e-001 -3.557425e-001
<VARIANCE> 39
 7.295065e+001 7.102825e+001 8.522862e+001 1.322268e+002 9.829430e+001 7.700632e+001 8.800939e+001 7.178683e+001 7.439652e+001 7.131047e+001 6.445596e+001 4.450587e+001 8.750410e+001 7.507366e+000 5.174265e+000 6.914927e+000 8.274732e+000 8.951921e+000 7.522274e+000 8.263243e+000 7.269588e+000 6.158528e+000 5.864942e+000 6.415524e+000 4.717228e+000 5.130919e+000 8.022978e-001 1.020242e+000 1.114558e+000 1.565196e+000 1.650040e+000 1.183119e+000 1.376689e+000 1.218934e+000 1.042774e+000 9.883989e-001 9.876400e-001 7.613278e-001 8.225517e-001
<GCONST> 1.539890e+002
<STATE> 3
<NUMMIXES> 2
<MIXTURE> 1 4.982051e-001
<MEAN> 39
 -6.294109e+000 5.736256e+000 1.374155e+001 -3.110136e+001 -1.658262e+001 -7.180196e+000 -1.204624e+001 -1.492370e+001 -2.123386e+000 3.658807e-001 -1.201291e+001 1.750894e+000 7.390801e+001 1.612298e-001 1.868166e-001 -2.067906e-001 -1.346781e-001 4.713424e-001 5.859140e-001 1.390012e-001 1.386743e-001 2.138518e-001 8.111621e-002 1.052476e-001 3.280862e-001 -2.111079e-001 4.973122e-002 -4.280293e-002 -4.908111e-001 8.563828e-001 3.056574e-001 -1.519940e-001 3.141143e-001 1.638675e-001 -1.451577e-002 -1.770152e-001 4.342791e-001 -2.517206e-001 -3.565325e-001
<VARIANCE> 39
 3.459824e+001 4.466376e+001 6.134528e+001 1.777960e+002 6.288954e+001 7.945290e+001 8.652592e+001 6.553573e+001 5.791142e+001 6.538175e+001 8.957576e+001 5.812428e+001 1.725527e+001 1.026927e+000 1.789708e+000 2.108339e+000 4.276293e+000 2.799513e+000 2.925849e+000 3.384516e+000 2.847043e+000 2.593806e+000 2.751001e+000 2.862309e+000 2.631669e+000 9.088326e-001 2.872368e-001 2.801485e-001 4.813267e-001 6.744681e-001 7.103633e-001 6.132901e-001 7.459612e-001 6.863744e-001 5.531076e-001 5.657347e-001 6.293070e-001 5.073737e-001 1.880792e-001
<GCONST> 1.270671e+002
<MIXTURE> 2 5.017529e-001
<MEAN> 39
 -8.040653e+000 4.990330e+000 1.119459e+001 -2.871571e+001 -1.684601e+001 -7.167948e+000 -1.374786e+001 -1.486201e+001 -1.694593e+000 -1.518005e+000 -1.115087e+001 1.356022e-001 7.352529e+001 9.278358e-002 4.244141e-002 -3.696441e-001 -8.041483e-002 2.739592e-001 2.956676e-001 2.658639e-002 -8.160601e-002 -9.597836e-002 -2.146042e-001 -2.191379e-001 -1.178238e-001 -1.609471e-001 9.281343e-002 -8.779943e-002 -4.662949e-001 8.090850e-001 2.534741e-001 -2.938833e-001 3.019838e-001 1.119765e-001 -1.614959e-001 -2.142342e-001 3.091011e-001 -2.960534e-001 -3.638738e-001
<VARIANCE> 39
 3.506210e+001 4.264466e+001 6.392896e+001 1.530349e+002 6.238516e+001 7.421623e+001 8.597692e+001 5.751304e+001 6.615468e+001 7.538045e+001 7.998107e+001 5.389675e+001 2.584350e+001 1.024297e+000 1.726233e+000 2.021767e+000 3.902039e+000 2.758550e+000 2.843064e+000 3.322515e+000 2.786034e+000 2.751117e+000 2.672728e+000 2.809110e+000 2.489588e+000 8.847595e-001 2.426605e-001 2.730484e-001 4.513397e-001 6.354984e-001 6.872948e-001 6.114236e-001 7.042047e-001 6.581377e-001 5.956160e-001 5.758295e-001 6.100355e-001 4.967325e-001 1.822699e-001
<GCONST> 1.264302e+002
<STATE> 4
<NUMMIXES> 2
<MIXTURE> 1 5.000055e-001
<MEAN> 39
 -5.913052e+000 6.602157e+000 7.853217e+000 -1.844836e+001 -1.216950e+001 -7.469688e+000 -1.023735e+001 -1.281172e+001 -1.208734e+000 -4.605631e+000 -5.617992e+000 -2.162963e+000 6.565627e+001 -6.415471e-002 -1.455203e-001 -1.140788e+000 2.374232e+000 1.156312e+000 -2.063284e-001 8.637030e-001 6.668847e-001 3.868945e-002 -2.274166e-001 9.694253e-001 -3.307591e-001 -1.243159e+000 -1.376055e-001 -1.074944e-001 -5.723615e-002 3.630169e-002 1.173831e-001 5.374716e-002 6.814706e-002 1.089350e-001 5.266903e-002 1.527906e-001 4.198485e-002 1.060655e-001 -1.834840e-002
<VARIANCE> 39
 6.440414e+001 5.722701e+001 5.913568e+001 1.498975e+002 8.316680e+001 1.110178e+002 7.846474e+001 7.198779e+001 6.181335e+001 7.101241e+001 5.842902e+001 4.885478e+001 6.664766e+001 2.192245e+000 2.347334e+000 3.281036e+000 4.241650e+000 4.009599e+000 4.478489e+000 4.965905e+000 4.273873e+000 4.079486e+000 3.915868e+000 3.995903e+000 3.394040e+000 1.590791e+000 2.245148e-001 3.455586e-001 4.049460e-001 6.337824e-001 6.766430e-001 7.210979e-001 7.729979e-001 7.277032e-001 7.106870e-001 6.542969e-001 6.260220e-001 5.607991e-001 1.910419e-001
<GCONST> 1.346718e+002
<MIXTURE> 2 4.999508e-001
<MEAN> 39
 -7.274126e+000 5.824877e+000 6.512489e+000 -1.952232e+001 -1.234861e+001 -7.857488e+000 -1.015463e+001 -1.394374e+001 -1.330035e+000 -6.418862e+000 -6.301133e+000 -3.318415e+000 6.528611e+001 -9.060306e-002 -5.213869e-001 -1.565747e+000 2.257558e+000 7.378886e-001 -7.654641e-001 6.412714e-001 3.020232e-001 -4.666071e-001 -4.193295e-001 5.826899e-001 -7.051172e-001 -1.204206e+000 -9.165485e-002 -1.230430e-001 -9.310237e-002 -3.208886e-002 3.339475e-002 -8.244352e-002 -4.959859e-002 3.123486e-002 -2.369020e-002 7.675466e-002 -3.970543e-002 5.325034e-002 -4.270204e-002
<VARIANCE> 39
 6.418790e+001 6.127919e+001 6.031715e+001 1.229307e+002 8.133620e+001 9.679703e+001 8.028827e+001 6.832610e+001 6.461087e+001 7.685432e+001 5.714328e+001 4.776494e+001 8.838229e+001 2.308159e+000 2.366600e+000 3.377469e+000 4.729123e+000 4.179379e+000 4.446987e+000 4.873658e+000 4.356747e+000 4.454704e+000 4.016993e+000 4.219536e+000 3.559445e+000 1.514698e+000 2.031919e-001 3.469874e-001 4.243852e-001 7.221406e-001 7.221114e-001 7.463107e-001 8.020566e-001 7.425055e-001 7.696376e-001 6.861529e-001 6.693462e-001 6.031135e-001 1.771158e-001
<GCONST> 1.355587e+002
<TRANSP> 5
 0.000000e+000 1.000000e+000 0.000000e+000 0.000000e+000 0.000000e+000
 0.000000e+000 6.279807e-001 3.720193e-001 0.000000e+000 0.000000e+000
 0.000000e+000 0.000000e+000 7.712496e-001 2.287504e-001 0.000000e+000
 0.000000e+000 0.000000e+000 0.000000e+000 7.584234e-001 2.415766e-001
 0.000000e+000 0.000000e+000 0.000000e+000 0.000000e+000 0.000000e+000
<ENDHMM>
~h "j"
<BEGINHMM>
<NUMSTATES> 5
<STATE> 2
<NUMMIXES> 2
<MIXTURE> 1 4.993375e-001
<MEAN> 39
 -1.436257e+001 -3.162911e+000 -6.217591e+000 -1.085436e+001 -3.944926e+000 -7.514953e+000 -4.668739e+000 -2.473929e+000 -8.273559e-001 -1.346408e+000 1.750700e+000 -1.901500e+000 5.992017e+001 -5.096725e-001 -2.853291e-002 -7.373760e-002 -7.055655e-002 4.097666e-001 7.926943e-001 7.274210e-001 1.946726e-001 6.116458e-001 9.924207e-001 3.410704e-001 1.085990e-001 -2.758812e-001 2.360930e-001 3.315332e-003 3.878241e-002 -8.369860e-002 -5.449009e-002 -3.065756e-003 -6.812102e-002 -3.302988e-002 -1.062445e-001 -8.283407e-002 -1.012371e-001 7.344473e-002 1.039141e-001
<VARIANCE> 39
 3.749053e+001 4.216754e+001 7.559720e+001 6.219623e+001 9.530869e+001 7.591919e+001 7.651817e+001 8.082247e+001 5.086939e+001 6.070478e+001 4.861884e+001 5.080096e+001 1.318339e+002 2.193672e+000 1.499178e+000 2.328833e+000 2.613220e+000 3.450154e+000 3.144368e+000 4.483217e+000 4.516883e+000 4.491789e+000 4.775245e+000 2.673329e+000 2.891035e+000 1.309382e+000 1.990474e-001 2.588813e-001 3.739309e-001 4.278369e-001 5.425829e-001 5.734002e-001 7.916149e-001 7.924137e-001 7.795624e-001 8.015112e-001 4.861096e-001 5.960836e-001 1.434758e-001
<GCONST> 1.295300e+002
<MIXTURE> 2 5.006621e-001
<MEAN> 39
 -1.438056e+001 -4.933816e+000 -6.662961e+000 -1.296832e+001 -6.147350e+000 -9.197125e+000 -5.738712e+000 -4.556571e+000 -2.591058e+000 -3.010624e+000 8.251438e-001 -2.160074e+000 6.006411e+001 -6.311357e-001 -2.533713e-001 -7.728481e-002 -2.392860e-001 1.494011e-001 2.113871e-001 6.210629e-003 -2.568088e-001 2.726988e-001 6.062888e-001 9.082411e-002 -3.272130e-002 -4.172078e-001 2.250875e-001 -6.468967e-003 -5.562183e-002 -6.914506e-002 -4.640529e-002 -1.037890e-001 -1.550151e-001 -1.410355e-002 -2.542580e-002 -1.454440e-001 -1.152060e-001 -2.808960e-002 1.470934e-002
<VARIANCE> 39
 3.985656e+001 4.647404e+001 7.469883e+001 6.535983e+001 9.619923e+001 7.480925e+001 1.038746e+002 6.800363e+001 4.926078e+001 6.519662e+001 6.209563e+001 5.689245e+001 1.701242e+002 1.899153e+000 1.579959e+000 2.150125e+000 2.334718e+000 3.534217e+000 3.295433e+000 4.334936e+000 4.303807e+000 4.207858e+000 5.468150e+000 2.723876e+000 3.258807e+000 1.488020e+000 1.690122e-001 2.696683e-001 3.509833e-001 3.873124e-001 6.090938e-001 6.802070e-001 6.303688e-001 7.511509e-001 7.479441e-001 8.989676e-001 5.491023e-001 6.411997e-001 1.490034e-001
<GCONST> 1.305728e+002
<STATE> 3
<NUMMIXES> 2
<MIXTURE> 1 4.711566e-001
<MEAN> 39
 -1.565058e+001 -2.068919e+000 -5.962539e+000 -1.566803e+001 -3.500601e+000 -4.434380e+000 -1.317147e+000 -1.216296e+000 -1.555726e+000 1.296459e+000 -5.970590e-001 -3.742571e+000 6.126909e+001 1.658320e-001 2.572348e-001 4.944967e-002 -5.951267e-001 1.038344e-001 4.218023e-001 4.100578e-002 -2.204550e-001 6.870011e-002 1.183078e-001 -2.540006e-001 1.868816e-001 4.092250e-002 8.793388e-001 3.465451e-001 3.121362e-001 -1.062582e-001 -3.253241e-001 -3.553106e-001 -4.345978e-001 -3.367904e-001 -2.512071e-001 -3.482631e-001 -1.788116e-001 1.392905e-001 2.672626e-001
<VARIANCE> 39
 4.388449e+001 5.286661e+001 1.089955e+002 1.271278e+002 1.004790e+002 7.195045e+001 7.270802e+001 1.228895e+002 7.082738e+001 5.808895e+001 5.184525e+001 4.746377e+001 1.262732e+002 2.124344e+000 1.986507e+000 3.976732e+000 3.799603e+000 4.582441e+000 4.560152e+000 5.211095e+000 4.976826e+000 5.164193e+000 4.307645e+000 3.312259e+000 2.778040e+000 1.559237e+000 5.549979e-001 3.871158e-001 5.408792e-001 8.630953e-001 7.400843e-001 8.150941e-001 1.101292e+000 1.223050e+000 9.438443e-001 8.150548e-001 5.844600e-001 5.887918e-001 3.371977e-001
<GCONST> 1.392083e+002
<MIXTURE> 2 5.288436e-001
<MEAN> 39
 -1.528964e+001 -3.263620e+000 -5.129339e+000 -1.504551e+001 -3.520112e+000 -4.902157e+000 -2.643533e+000 -1.901451e+000 -2.116690e+000 6.783081e-001 -1.184379e+000 -4.443751e+000 6.223921e+001 -1.054971e-001 2.296853e-001 7.888985e-002 -6.837925e-001 -5.300797e-001 1.539034e-002 -3.785569e-001 -6.871292e-001 -3.042444e-001 -2.177142e-001 -7.912020e-001 -5.332807e-002 -1.273817e-001 8.297099e-001 3.863545e-001 2.109298e-001 -2.928407e-001 -4.922923e-001 -5.566905e-001 -5.214779e-001 -3.820089e-001 -3.079577e-001 -4.812685e-001 -3.409619e-001 3.251917e-002 2.363648e-001
<VARIANCE> 39
 5.046851e+001 4.468372e+001 1.189986e+002 1.062057e+002 8.670904e+001 6.981306e+001 9.109143e+001 1.121085e+002 7.305895e+001 5.998127e+001 5.381568e+001 6.585635e+001 1.284331e+002 2.602769e+000 2.084064e+000 3.697594e+000 3.419222e+000 4.498247e+000 4.860611e+000 4.254394e+000 5.079833e+000 5.506874e+000 4.656596e+000 3.083331e+000 3.297355e+000 1.306313e+000 4.560921e-001 3.519393e-001 5.208488e-001 6.607742e-001 7.311249e-001 6.935881e-001 9.814855e-001 1.128712e+000 9.826514e-001 8.497686e-001 7.104731e-001 7.604532e-001 2.893925e-001
<GCONST> 1.389042e+002
<STATE> 4
<NUMMIXES> 2
<MIXTURE> 1 5.111981e-001
<MEAN> 39
 -1.109804e+001 -5.316942e+000 -1.219727e+001 -2.031810e+001 2.889706e+000 -2.614432e+000 -2.197556e+000 -1.534923e+000 -3.525010e+000 -1.209998e+000 9.752608e-001 -2.880552e+000 5.667711e+001 2.314064e+000 1.564669e+000 3.844685e-001 -1.029204e+000 -1.011412e+000 -8.747066e-001 -5.687534e-001 -7.088166e-001 -2.379382e-001 -5.409535e-001 -3.071247e-001 4.498649e-001 1.571540e+000 6.529477e-001 3.974973e-001 2.322948e-001 -9.272952e-002 -6.428455e-001 -3.167818e-001 -4.399295e-001 -4.519528e-001 1.968271e-002 -4.874022e-002 -1.078762e-001 1.997038e-002 5.921898e-001
<VARIANCE> 39
 5.948931e+001 6.077305e+001 1.991867e+002 1.363366e+002 1.661797e+002 1.533385e+002 8.173147e+001 1.125330e+002 1.066024e+002 7.317142e+001 8.035748e+001 5.505858e+001 1.488213e+002 4.714566e+000 4.708189e+000 7.817365e+000 7.008951e+000 6.225708e+000 5.849307e+000 9.147551e+000 9.390717e+000 5.266884e+000 5.269205e+000 3.056425e+000 4.441002e+000 3.444484e+000 7.723786e-001 6.338351e-001 1.021147e+000 1.228014e+000 1.143229e+000 1.110524e+000 1.434232e+000 9.756414e-001 9.716197e-001 1.028789e+000 6.286095e-001 8.422606e-001 6.027984e-001
<GCONST> 1.529756e+002
<MIXTURE> 2 4.888020e-001
<MEAN> 39
 -1.156740e+001 -3.543235e+000 -1.088903e+001 -1.731705e+001 2.509230e+000 -4.308208e+000 -3.281099e+000 -5.157778e-001 -2.855334e+000 -2.488998e-001 -7.291766e-001 -3.054319e+000 6.094550e+001 2.196393e+000 1.191891e+000 7.185518e-001 -1.224144e+000 -1.981329e+000 -1.397380e+000 -1.573753e+000 -1.856909e+000 -1.230840e+000 -1.448232e+000 -1.140621e+000 -2.566890e-001 1.207660e+000 5.881046e-001 1.116314e-001 5.120054e-002 -4.019165e-001 -8.184661e-001 -3.697387e-001 -4.499620e-001 -4.963513e-001 -2.313615e-001 -2.166953e-001 -2.742307e-001 -8.934934e-002 4.844059e-001
<VARIANCE> 39
 6.388910e+001 4.298947e+001 1.597191e+002 1.234965e+002 1.346406e+002 1.144103e+002 8.370639e+001 8.624020e+001 8.737994e+001 6.136147e+001 6.336635e+001 5.708573e+001 1.387097e+002 3.994611e+000 3.756101e+000 6.069207e+000 5.074431e+000 7.183136e+000 5.588911e+000 6.930337e+000 7.752720e+000 5.198780e+000 5.334315e+000 3.085873e+000 4.503068e+000 2.634770e+000 6.087275e-001 5.800520e-001 9.373437e-001 1.011575e+000 1.197352e+000 8.291533e-001 1.266038e+000 1.136751e+000 1.061383e+000 8.109500e-001 6.128467e-001 8.299679e-001 4.969510e-001
<GCONST> 1.481973e+002
<TRANSP> 5
 0.000000e+000 1.000000e+000 0.000000e+000 0.000000e+000 0.000000e+000
 0.000000e+000 7.213377e-001 2.786623e-001 0.000000e+000 0.000000e+000
 0.000000e+000 0.000000e+000 4.556348e-001 5.443652e-001 0.000000e+000
 0.000000e+000 0.000000e+000 0.000000e+000 5.713893e-001 4.286107e-001
 0.000000e+000 0.000000e+000 0.000000e+000 0.000000e+000 0.000000e+000
<ENDHMM>
~h "k"
<BEGINHMM>
<NUMSTATES> 5
<STATE> 2
<NUMMIXES> 2
<MIXTURE> 1 4.995930e-001
<MEAN> 39
 -1.202041e+001 3.586436e-001 -2.041836e+000 -4.853506e+000 -4.574811e+000 -7.039236e+000 -3.037367e+000 -3.679790e+000 9.604120e-002 -1.285295e+000 -1.678720e-001 -1.374441e+000 5.476664e+001 -3.986101e-001 -4.348528e-001 -4.009526e-001 2.130153e-001 8.530201e-001 7.828983e-001 7.459627e-001 8.530117e-001 3.484566e-001 4.455521e-001 6.664324e-001 4.248657e-001 -6.039515e-001 1.923122e-001 -7.432546e-002 -2.270862e-001 -5.273369e-001 -7.755689e-002 -1.377293e-001 -1.394691e-001 6.010384e-002 -6.584995e-002 2.837796e-002 -1.721480e-001 -4.347912e-004 6.061874e-001
<VARIANCE> 39
 4.100782e+001 5.171723e+001 3.657069e+001 5.589536e+001 4.858998e+001 5.075496e+001 4.403935e+001 5.169090e+001 3.944996e+001 4.423618e+001 3.816388e+001 3.149875e+001 7.379081e+001 2.185691e+000 2.247186e+000 3.382841e+000 4.231671e+000 3.951885e+000 4.288384e+000 3.788631e+000 3.924468e+000 3.602259e+000 3.544998e+000 3.508490e+000 2.863159e+000 3.288214e+000 4.347007e-001 5.246377e-001 7.151294e-001 8.686296e-001 8.184476e-001 9.352618e-001 8.106849e-001 8.569083e-001 7.827863e-001 7.305028e-001 7.132329e-001 6.044762e-001 5.823665e-001
<GCONST> 1.326580e+002
<MIXTURE> 2 5.003842e-001
<MEAN> 39
 -1.299345e+001 -1.717825e+000 -3.769390e+000 -9.004399e+000 -6.098931e+000 -9.352047e+000 -3.192912e+000 -6.308828e+000 -6.725443e-001 -3.971192e+000 -1.097058e+000 -2.798627e+000 5.330785e+001 -3.038077e-001 -7.500117e-001 -6.509309e-001 -1.484396e-001 2.250966e-001 7.169664e-002 2.047462e-001 3.600724e-001 -4.507586e-002 8.059345e-002 1.338452e-001 5.633971e-002 -7.306455e-001 2.640953e-001 -3.603657e-002 -2.233840e-001 -5.147909e-001 -5.504823e-002 -4.995716e-002 -1.911037e-001 3.379535e-002 -1.400058e-001 -7.263721e-002 -1.926956e-001 -5.764171e-002 5.189865e-001
<VARIANCE> 39
 5.364225e+001 6.706402e+001 4.238111e+001 5.949638e+001 5.660891e+001 5.451069e+001 5.039832e+001 5.893313e+001 4.680640e+001 4.918304e+001 4.696194e+001 3.586790e+001 1.060204e+002 2.255938e+000 2.520619e+000 3.433676e+000 4.395964e+000 4.445448e+000 4.601776e+000 4.507053e+000 4.525881e+000 4.260053e+000 4.126553e+000 4.104114e+000 3.324654e+000 3.784022e+000 4.149047e-001 5.513912e-001 7.720526e-001 9.913550e-001 9.467152e-001 1.019282e+000 9.709131e-001 9.884841e-001 9.511760e-001 8.498861e-001 8.228780e-001 6.946050e-001 5.730440e-001
<GCONST> 1.377121e+002
<STATE> 3
<NUMMIXES> 2
<MIXTURE> 1 5.045831e-001
<MEAN> 39
 -1.078775e+001 -3.694729e+000 -5.262409e+000 -1.026141e+001 -3.524178e+000 -9.369799e+000 -1.545018e+000 -2.903237e+000 -3.883707e-002 -2.540393e+000 -1.546991e+000 -1.769932e+000 5.485310e+001 9.730686e-001 -7.276918e-001 -1.896618e+000 -2.145150e+000 7.269064e-001 -2.602453e-001 -3.783504e-001 1.202021e+000 -4.624778e-001 4.416397e-001 1.010482e-001 3.516191e-001 2.652452e+000 5.219549e-001 3.035526e-001 -2.342093e-002 -5.213164e-001 -2.026074e-001 -1.350869e-001 -4.559804e-001 -2.866124e-001 -3.160875e-001 -7.539975e-002 -1.352624e-001 -5.063453e-002 8.816654e-001
<VARIANCE> 39
 6.093870e+001 8.260646e+001 7.826430e+001 9.485350e+001 1.024409e+002 1.005786e+002 7.767798e+001 9.104975e+001 6.399245e+001 6.700685e+001 5.807359e+001 4.373780e+001 1.154801e+002 6.613575e+000 7.768486e+000 1.163888e+001 1.188388e+001 1.215193e+001 1.247810e+001 9.885579e+000 1.043498e+001 8.892456e+000 6.818633e+000 6.364200e+000 5.485304e+000 1.003549e+001 7.107960e-001 1.142883e+000 1.270994e+000 1.584820e+000 1.688624e+000 1.632324e+000 1.413405e+000 1.590775e+000 1.237341e+000 1.072633e+000 1.021206e+000 8.183754e-001 1.329646e+000
<GCONST> 1.593657e+002
<MIXTURE> 2 4.954093e-001
<MEAN> 39
 -1.082820e+001 -3.478401e+000 -5.545019e+000 -1.096097e+001 -4.357988e+000 -9.858727e+000 -2.083625e+000 -3.365850e+000 -1.282274e-001 -3.170209e+000 -1.816934e+000 -1.992257e+000 5.540771e+001 9.155318e-001 -8.752453e-001 -2.066011e+000 -2.512934e+000 2.817978e-001 -5.493523e-001 -8.542627e-001 7.407050e-001 -9.213841e-001 -7.880846e-002 -4.695200e-001 -1.497060e-001 2.496120e+000 5.106189e-001 2.919500e-001 -4.381625e-002 -5.645391e-001 -2.199016e-001 -1.084209e-001 -5.288305e-001 -3.521658e-001 -4.451116e-001 -1.715842e-001 -2.560320e-001 -1.541920e-001 7.884126e-001
<VARIANCE> 39
 6.332380e+001 8.673188e+001 7.673965e+001 9.736656e+001 1.013196e+002 9.829344e+001 7.874015e+001 9.679707e+001 6.500611e+001 6.747634e+001 5.917990e+001 4.518549e+001 1.096092e+002 6.243821e+000 7.777063e+000 1.139238e+001 1.204463e+001 1.221731e+001 1.220218e+001 9.792088e+000 1.007831e+001 8.731502e+000 6.877083e+000 6.670318e+000 5.252574e+000 9.297790e+000 6.614646e-001 1.099355e+000 1.207636e+000 1.600937e+000 1.686481e+000 1.635711e+000 1.379844e+000 1.555148e+000 1.243831e+000 1.089654e+000 1.042896e+000 8.080923e-001 1.110369e+000
<GCONST> 1.589654e+002
<STATE> 4
<NUMMIXES> 2
<MIXTURE> 1 5.013304e-001
<MEAN> 39
 -5.546150e+000 -3.563416e+000 -1.238664e+001 -2.028488e+001 -1.861403e+000 -9.438095e+000 -6.073199e+000 -1.558470e+000 -4.881458e+000 -1.536238e+000 -2.271667e+000 -2.595660e+000 6.517443e+001 1.713973e+000 9.754084e-001 1.416131e-001 -1.160452e+000 -4.502435e-001 -2.439212e-001 -9.604869e-001 -6.079656e-001 -8.405544e-001 -2.142305e-001 -1.852058e-001 -6.754069e-003 2.250793e+000 1.813722e-001 4.851187e-001 1.015013e+000 6.702782e-001 -6.261268e-001 -7.716267e-002 -1.536358e-003 -7.268533e-001 3.044667e-001 -2.344973e-001 -7.615681e-002 1.330327e-001 -4.012915e-001
<VARIANCE> 39
 7.533796e+001 8.071736e+001 1.502928e+002 1.482392e+002 1.262917e+002 1.409652e+002 1.171644e+002 1.152595e+002 1.037390e+002 8.217897e+001 6.758760e+001 6.205376e+001 7.178771e+001 4.658391e+000 6.365337e+000 9.121836e+000 9.661076e+000 8.932185e+000 7.744372e+000 8.158882e+000 8.627385e+000 7.089917e+000 5.957465e+000 6.042531e+000 4.423563e+000 7.299680e+000 8.577694e-001 1.214607e+000 1.812308e+000 1.963108e+000 2.115305e+000 2.111971e+000 1.994611e+000 1.773168e+000 1.619881e+000 1.292043e+000 1.112260e+000 1.063037e+000 9.471280e-001
<GCONST> 1.616632e+002
<MIXTURE> 2 4.986522e-001
<MEAN> 39
 -6.903004e+000 -4.566847e+000 -1.197395e+001 -1.969633e+001 -2.559011e+000 -1.022890e+001 -6.007894e+000 -1.279265e+000 -3.814498e+000 -2.301643e+000 -2.806755e+000 -2.136538e+000 6.503686e+001 1.718301e+000 9.121528e-001 -2.668780e-001 -1.808977e+000 -9.940006e-001 -8.019344e-001 -1.594092e+000 -1.079419e+000 -1.443539e+000 -8.600402e-001 -1.026505e+000 -4.858419e-001 2.533549e+000 1.535557e-001 4.711415e-001 9.253612e-001 5.545250e-001 -5.688281e-001 3.399761e-002 -9.483383e-002 -7.667471e-001 5.247701e-002 -2.701022e-001 -1.951906e-001 -4.393585e-002 -4.351608e-001
<VARIANCE> 39
 7.938499e+001 8.581877e+001 1.478070e+002 1.435749e+002 1.267355e+002 1.350981e+002 1.173182e+002 1.179639e+002 1.021320e+002 8.212437e+001 6.856857e+001 6.053402e+001 7.892724e+001 4.437727e+000 6.482247e+000 8.266270e+000 8.963929e+000 8.737957e+000 7.487099e+000 8.208490e+000 8.569447e+000 6.965412e+000 5.926905e+000 6.477307e+000 4.194731e+000 7.549447e+000 8.831828e-001 1.280884e+000 1.757341e+000 1.961217e+000 2.085941e+000 2.151440e+000 1.993235e+000 1.775627e+000 1.568928e+000 1.309813e+000 1.158577e+000 1.011381e+000 1.025451e+000
<GCONST> 1.616567e+002
<TRANSP> 5
 0.000000e+000 1.000000e+000 0.000000e+000 0.000000e+000 0.000000e+000
 0.000000e+000 7.475613e-001 2.524387e-001 0.000000e+000 0.000000e+000
 0.000000e+000 0.000000e+000 5.005748e-001 4.994253e-001 0.000000e+000
 0.000000e+000 0.000000e+000 0.000000e+000 5.068288e-001 4.931712e-001
 0.000000e+000 0.000000e+000 0.000000e+000 0.000000e+000 0.000000e+000
<ENDHMM>
~h "l"
<BEGINHMM>
<NUMSTATES> 5
<STATE> 2
<NUMMIXES> 2
<MIXTURE> 1 4.995179e-001
<MEAN> 39
 -4.882228e+000 -2.671841e+000 6.345828e-001 -1.117919e+001 -1.227785e+001 -1.827986e+001 -1.191415e+001 -6.820944e+000 -1.710378e+000 -5.936681e+000 -2.338647e+000 -2.533720e-001 6.938419e+001 7.885397e-002 6.671393e-001 6.642241e-001 6.727026e-001 5.696880e-002 -7.002870e-001 -1.992734e-002 3.939453e-001 -1.472954e-001 -3.552395e-001 4.043360e-001 9.457133e-001 -3.223602e-001 -2.004128e-002 -2.635191e-003 -9.920648e-002 -2.888468e-001 1.177512e-001 3.155421e-001 1.392234e-001 1.276946e-001 8.525605e-002 1.395184e-001 3.345513e-002 3.858006e-002 7.801828e-002
<VARIANCE> 39
 4.659401e+001 4.648623e+001 4.944549e+001 7.907608e+001 5.554792e+001 7.699015e+001 8.326710e+001 5.668814e+001 6.772999e+001 5.988540e+001 5.382567e+001 5.684616e+001 8.393790e+001 1.025288e+000 1.705389e+000 1.729653e+000 2.607502e+000 2.848403e+000 3.623863e+000 4.449337e+000 3.601337e+000 3.827965e+000 3.683233e+000 3.036336e+000 3.126773e+000 1.031462e+000 1.797847e-001 2.725173e-001 2.783529e-001 5.479826e-001 4.992695e-001 7.348387e-001 6.788505e-001 6.478913e-001 6.672629e-001 6.868126e-001 6.255308e-001 5.161592e-001 1.611338e-001
<GCONST> 1.268582e+002
<MIXTURE> 2 5.004819e-001
<MEAN> 39
 -5.821223e+000 -2.486349e+000 -5.150008e-001 -1.247941e+001 -1.264724e+001 -1.843913e+001 -1.231169e+001 -8.157954e+000 -1.909999e+000 -7.418491e+000 -2.140180e+000 -9.665784e-001 6.940532e+001 -1.558516e-001 5.038757e-001 4.703278e-001 4.582107e-001 -4.150415e-002 -7.796928e-001 -1.570591e-001 -1.217102e-001 -5.335193e-001 -4.942186e-001 -7.740600e-002 4.248768e-001 -3.262400e-001 -6.579937e-002 -5.759500e-002 -1.591949e-001 -2.432948e-001 4.885332e-002 3.107705e-001 8.232213e-002 2.831838e-002 -5.330573e-003 5.170527e-002 -6.630545e-002 -9.416321e-002 5.031216e-002
<VARIANCE> 39
 4.235233e+001 4.613926e+001 4.327104e+001 7.040949e+001 4.602428e+001 6.967150e+001 7.328662e+001 5.409946e+001 6.613831e+001 5.658210e+001 5.379250e+001 4.808068e+001 8.145386e+001 9.614611e-001 1.528103e+000 1.698533e+000 2.492501e+000 2.357121e+000 3.638159e+000 3.917256e+000 3.671721e+000 3.811927e+000 3.405715e+000 2.952350e+000 2.918904e+000 8.123072e-001 1.319578e-001 2.206935e-001 2.518941e-001 5.078750e-001 4.476143e-001 6.779025e-001 5.801231e-001 6.163917e-001 7.015211e-001 6.923362e-001 6.226913e-001 4.567710e-001 1.235782e-001
<GCONST> 1.233888e+002
<STATE> 3
<NUMMIXES> 2
<MIXTURE> 1 4.891287e-001
<MEAN> 39
 -2.980891e+000 -1.729549e+000 1.760975e+000 -1.144480e+001 -1.146620e+001 -1.970138e+001 -1.299893e+001 -5.962955e+000 -8.286365e-001 -8.255692e+000 -4.688607e+000 4.193807e+000 6.929523e+001 1.020823e-001 3.082386e-002 -1.775322e-003 -2.446781e-001 -5.282564e-002 3.134305e-001 3.366601e-001 5.975232e-001 2.357593e-001 -3.002221e-001 2.854517e-001 2.556024e-001 2.614475e-001 1.336159e-003 -2.293395e-001 -2.738497e-001 -3.607853e-001 -1.049327e-001 4.631764e-001 3.337754e-001 1.087913e-001 6.336864e-002 2.939487e-001 1.290274e-002 -4.109100e-001 2.837823e-001
<VARIANCE> 39
 7.152172e+001 5.715771e+001 5.164224e+001 7.266595e+001 6.356552e+001 7.785020e+001 7.511324e+001 6.388688e+001 6.818423e+001 7.025082e+001 6.470090e+001 6.298695e+001 5.859307e+001 1.333716e+000 2.269092e+000 1.990865e+000 2.998435e+000 3.522216e+000 3.739830e+000 4.389138e+000 4.265829e+000 3.708759e+000 4.457451e+000 4.090965e+000 3.378313e+000 1.545035e+000 1.884626e-001 4.211535e-001 3.899578e-001 6.029611e-001 6.326572e-001 7.280841e-001 9.354662e-001 8.647717e-001 7.533575e-001 8.251923e-001 7.565168e-001 6.259728e-001 2.381345e-001
<GCONST> 1.327060e+002
<MIXTURE> 2 5.108708e-001
<MEAN> 39
 -2.800741e+000 -2.750556e+000 1.123117e+000 -1.118271e+001 -1.169950e+001 -2.000292e+001 -1.334462e+001 -6.245225e+000 -1.570277e+000 -9.023630e+000 -5.272313e+000 3.423306e+000 6.973936e+001 -1.800814e-001 -3.161826e-001 -1.224303e-001 -5.956416e-001 -2.215821e-001 2.256120e-001 3.233457e-001 4.151590e-001 -3.722675e-002 -2.013817e-001 -1.222656e-001 -2.535919e-001 3.412393e-001 -1.067547e-001 -2.905377e-001 -3.070414e-001 -3.373659e-001 -1.394863e-001 4.151674e-001 2.818404e-001 3.536771e-002 2.855998e-002 1.842716e-001 3.112072e-002 -5.256697e-001 2.468398e-001
<VARIANCE> 39
 7.353006e+001 6.927400e+001 4.261721e+001 6.579058e+001 5.896383e+001 7.201020e+001 7.090779e+001 6.862199e+001 6.367915e+001 6.554568e+001 6.226439e+001 5.616755e+001 4.065660e+001 8.779072e-001 1.666175e+000 1.758502e+000 2.908005e+000 3.208012e+000 3.010125e+000 4.606912e+000 3.694028e+000 3.426099e+000 4.106711e+000 3.687399e+000 2.720418e+000 1.311394e+000 1.384614e-001 3.541439e-001 3.544634e-001 5.759622e-001 5.937250e-001 6.433480e-001 9.086289e-001 7.485542e-001 7.339149e-001 8.272660e-001 7.286806e-001 5.854131e-001 2.013404e-001
<GCONST> 1.286263e+002
<STATE> 4
<NUMMIXES> 2
<MIXTURE> 1 5.067050e-001
<MEAN> 39
 1.271621e+000 -3.753897e+000 3.487180e+000 -1.896869e+001 -8.293447e+000 -1.916199e+001 -1.420903e+001 -1.002015e+000 2.346934e+000 -9.752481e+000 -7.433008e+000 5.479774e+000 7.112186e+001 4.457906e-002 -3.318628e-001 -4.848767e-001 -6.143881e-001 2.312420e-001 5.271727e-001 9.800841e-001 7.157874e-001 -1.620479e-001 3.271779e-001 2.344517e-001 -2.316646e-001 5.554749e-001 -1.028687e-001 -1.217423e-001 -1.457019e-001 -8.674455e-002 3.659232e-002 2.579020e-001 3.677117e-001 -1.541965e-001 -2.296039e-001 2.908740e-001 4.887706e-002 -8.759306e-002 7.916185e-002
<VARIANCE> 39
 5.505364e+001 6.304553e+001 6.749370e+001 1.321268e+002 7.983088e+001 1.284004e+002 1.226873e+002 1.239517e+002 1.090148e+002 9.123072e+001 7.194013e+001 1.172892e+002 5.858281e+001 2.212315e+000 4.398046e+000 3.217829e+000 5.397002e+000 5.072642e+000 7.705165e+000 8.380325e+000 7.602519e+000 6.836964e+000 6.666014e+000 5.569148e+000 5.828019e+000 2.888653e+000 1.975238e-001 5.263284e-001 4.198589e-001 7.046594e-001 8.359258e-001 9.625146e-001 1.157986e+000 1.106820e+000 1.146307e+000 1.008651e+000 9.055198e-001 1.117160e+000 2.631159e-001
<GCONST> 1.467862e+002
<MIXTURE> 2 4.932937e-001
<MEAN> 39
 5.421907e-001 -4.901873e+000 2.251591e+000 -1.801022e+001 -9.481073e+000 -1.912317e+001 -1.405811e+001 -1.968068e+000 7.365507e-001 -9.609983e+000 -7.639575e+000 4.151136e+000 7.124410e+001 -1.833296e-001 -6.142743e-001 -7.745357e-001 -7.128738e-001 4.406376e-002 7.762060e-001 9.357349e-001 5.407590e-001 -3.048476e-001 2.269850e-001 -4.422752e-001 -7.686046e-001 5.668572e-001 -1.670938e-001 -1.255836e-001 -2.076247e-001 -4.310161e-002 4.775353e-002 2.610094e-001 3.583342e-001 -2.149449e-001 -2.699676e-001 1.965235e-001 -2.521116e-002 -1.827936e-001 9.951960e-003
<VARIANCE> 39
 6.068498e+001 6.733703e+001 6.451230e+001 1.253591e+002 7.590485e+001 1.036839e+002 1.194780e+002 1.157504e+002 8.974214e+001 8.255667e+001 7.253048e+001 9.893027e+001 5.080405e+001 1.698694e+000 4.016765e+000 3.597436e+000 4.935436e+000 4.821208e+000 5.713802e+000 8.813184e+000 7.728520e+000 6.411632e+000 6.791780e+000 4.790625e+000 5.828231e+000 3.083821e+000 2.046906e-001 5.944848e-001 3.956543e-001 6.587934e-001 8.118474e-001 8.877383e-001 1.198794e+000 1.052158e+000 9.836250e-001 9.987169e-001 8.684042e-001 9.498279e-001 2.629981e-001
<GCONST> 1.446841e+002
<TRANSP> 5
 0.000000e+000 1.000000e+000 0.000000e+000 0.000000e+000 0.000000e+000
 0.000000e+000 7.255688e-001 2.744312e-001 0.000000e+000 0.000000e+000
 0.000000e+000 0.000000e+000 5.533848e-001 4.466152e-001 0.000000e+000
 0.000000e+000 0.000000e+000 0.000000e+000 6.542173e-001 3.457827e-001
 0.000000e+000 0.000000e+000 0.000000e+000 0.000000e+000 0.000000e+000
<ENDHMM>
~h "m"
<BEGINHMM>
<NUMSTATES> 5
<STATE> 2
<NUMMIXES> 2
<MIXTURE> 1 5.014769e-001
<MEAN> 39
 -1.031952e-001 -2.489755e+000 -3.459837e+000 -9.145934e+000 -6.487517e+000 -1.134781e+001 -1.083909e+001 -1.342481e+001 -5.470696e+000 -2.742317e+000 -3.776701e+000 -6.347547e+000 6.342324e+001 1.149955e+000 7.683532e-001 2.007349e-001 1.086457e+000 6.060848e-002 -4.035526e-001 -5.580713e-001 -1.934070e+000 -7.156329e-001 8.089131e-001 -1.186608e-001 -1.819614e-001 4.097926e-001 -1.958062e-001 -1.466722e-001 3.115772e-002 -2.479452e-001 9.404740e-002 1.099551e-001 1.481881e-001 3.419974e-001 1.528383e-001 5.283079e-002 -1.231594e-003 1.158627e-001 2.215131e-001
<VARIANCE> 39
 8.601113e+001 6.627399e+001 4.942202e+001 6.402456e+001 6.602137e+001 5.812203e+001 8.009004e+001 8.645568e+001 5.058164e+001 6.685370e+001 4.891714e+001 3.901516e+001 1.475213e+002 4.072192e+000 5.692758e+000 5.149741e+000 4.681629e+000 4.479736e+000 4.526330e+000 6.160226e+000 7.240787e+000 5.357446e+000 4.809967e+000 3.629680e+000 3.422056e+000 4.075176e+000 6.725215e-001 7.700014e-001 7.687225e-001 6.494903e-001 6.370317e-001 7.680457e-001 9.109038e-001 1.260409e+000 8.580070e-001 8.136775e-001 6.432376e-001 5.661939e-001 4.053735e-001
<GCONST> 1.422596e+002
<MIXTURE> 2 4.985136e-001
<MEAN> 39
 4.183985e-001 -2.069790e+000 -4.739889e+000 -1.044517e+001 -6.745699e+000 -1.160697e+001 -1.215761e+001 -1.392757e+001 -7.048968e+000 -4.562144e+000 -4.992893e+000 -7.386104e+000 6.449816e+001 1.045382e+000 4.295676e-001 4.128145e-003 8.037913e-001 -1.957508e-001 -7.743302e-001 -8.191988e-001 -2.042503e+000 -1.084802e+000 4.219990e-001 -6.243972e-001 -8.539453e-001 4.862840e-001 -3.633295e-001 -3.202707e-001 -1.083997e-002 -2.378483e-001 8.980866e-002 1.408925e-001 1.571131e-001 3.919407e-001 2.196583e-001 2.467056e-002 -8.682106e-002 1.048490e-001 9.760642e-002
<VARIANCE> 39
 8.025191e+001 7.823873e+001 5.412285e+001 6.667288e+001 6.470121e+001 5.992006e+001 7.249629e+001 8.758942e+001 5.574908e+001 6.568501e+001 5.283210e+001 3.722422e+001 1.166614e+002 3.568589e+000 5.153820e+000 5.399819e+000 5.299196e+000 4.882564e+000 5.187065e+000 6.685865e+000 7.178387e+000 5.779211e+000 5.387398e+000 3.969446e+000 3.500796e+000 4.550884e+000 5.006114e-001 7.926183e-001 7.513674e-001 6.528860e-001 6.521812e-001 7.942836e-001 8.934271e-001 1.152638e+000 8.284538e-001 8.267922e-001 6.472764e-001 5.576838e-001 3.172431e-001
<GCONST> 1.423249e+002
<STATE> 3
<NUMMIXES> 2
<MIXTURE> 1 5.023745e-001
<MEAN> 39
 1.171103e+000 -3.407263e+000 -2.740863e+000 -8.587021e+000 -6.969735e+000 -1.139809e+001 -1.193797e+001 -1.500505e+001 -7.621110e+000 -1.904469e+000 -5.635931e+000 -7.479790e+000 6.941286e+001 -1.151816e-002 1.130738e-001 9.247721e-002 2.539424e-001 1.685845e-001 3.744384e-002 1.081101e-001 -5.353516e-002 8.501383e-002 2.889551e-001 2.199386e-001 1.454602e-001 -5.292494e-002 -3.660863e-002 -5.541247e-002 -1.265650e-001 -2.988838e-001 -2.569813e-002 9.096838e-002 6.134746e-002 4.510636e-001 2.287287e-001 -1.013196e-001 9.395576e-002 7.229868e-002 1.110786e-001
<VARIANCE> 39
 6.692780e+001 6.015910e+001 4.932455e+001 6.803224e+001 6.159041e+001 5.512996e+001 8.912232e+001 8.123590e+001 5.680798e+001 7.635860e+001 6.016745e+001 4.097419e+001 3.223959e+001 2.860501e-001 1.061774e+000 1.222205e+000 1.659383e+000 1.720442e+000 1.664470e+000 2.032244e+000 2.730297e+000 2.188897e+000 2.279312e+000 1.994452e+000 1.828635e+000 4.819510e-001 7.153121e-002 1.617260e-001 3.312036e-001 3.690857e-001 3.061227e-001 3.773237e-001 4.469746e-001 7.176709e-001 5.453041e-001 5.161328e-001 4.217362e-001 4.177732e-001 7.086355e-002
<GCONST> 1.137169e+002
<MIXTURE> 2 4.975995e-001
<MEAN> 39
 2.209609e-001 -3.386372e+000 -3.803495e+000 -9.399214e+000 -7.039264e+000 -1.166108e+001 -1.302460e+001 -1.464953e+001 -8.326104e+000 -3.373546e+000 -7.020276e+000 -8.566570e+000 6.915837e+001 -9.294214e-002 -1.869828e-002 -5.365818e-003 9.574236e-002 1.677229e-002 -1.339431e-001 -2.113694e-002 -7.532234e-002 -1.543793e-001 6.256901e-003 -1.576769e-001 -2.495152e-001 -1.909396e-002 -6.536387e-002 -8.548205e-002 -1.421658e-001 -3.002199e-001 -7.368264e-002 7.381377e-002 2.794536e-002 3.767018e-001 1.369154e-001 -1.793068e-001 -3.134700e-003 6.789617e-002 9.858921e-002
<VARIANCE> 39
 6.696427e+001 6.655098e+001 4.885467e+001 6.166086e+001 5.771970e+001 5.330505e+001 7.973686e+001 7.023112e+001 5.876002e+001 7.343675e+001 6.139968e+001 3.816682e+001 3.721297e+001 2.710783e-001 1.028653e+000 1.244678e+000 1.622390e+000 1.662721e+000 1.706916e+000 2.000156e+000 2.585294e+000 2.133169e+000 2.315828e+000 2.018650e+000 1.833222e+000 4.709347e-001 6.739766e-002 1.529059e-001 3.225544e-001 3.485391e-001 3.042189e-001 3.868458e-001 4.351241e-001 6.857628e-001 4.983227e-001 5.143032e-001 4.341484e-001 4.057108e-001 6.925368e-002
<GCONST> 1.128851e+002
<STATE> 4
<NUMMIXES> 2
<MIXTURE> 1 4.949921e-001
<MEAN> 39
 8.351424e-002 1.605674e-001 -3.644829e+000 -7.596384e+000 -5.550189e+000 -1.163541e+001 -9.266747e+000 -1.193767e+001 -5.428378e+000 -3.814191e+000 -3.723703e+000 -8.302937e+000 6.434815e+001 -4.051974e-001 -4.778999e-001 -5.147601e-001 -6.744780e-001 3.572631e-001 4.612460e-001 2.618049e-001 1.766809e+000 1.074207e+000 -4.036122e-001 1.904674e-001 3.269594e-001 2.353765e-001 -1.126278e-001 -2.065417e-001 -9.531815e-003 -1.735396e-001 1.623429e-001 1.276128e-001 2.390319e-002 3.764776e-001 1.130227e-001 -2.074480e-001 5.926322e-004 2.404368e-001 1.282446e-001
<VARIANCE> 39
 7.244511e+001 9.766032e+001 6.361378e+001 6.894190e+001 6.055653e+001 5.619486e+001 8.316875e+001 8.831461e+001 6.666356e+001 8.540722e+001 5.433921e+001 4.603822e+001 1.043541e+002 9.536044e-001 2.849080e+000 4.029817e+000 4.239219e+000 3.299030e+000 3.620716e+000 4.338597e+000 7.851480e+000 5.550957e+000 4.813200e+000 3.687546e+000 3.843503e+000 1.887587e+000 1.571218e-001 3.389308e-001 5.266623e-001 6.719882e-001 5.518337e-001 6.048161e-001 6.597310e-001 1.086248e+000 7.807496e-001 9.019238e-001 6.249517e-001 6.603419e-001 1.588522e-001
<GCONST> 1.350220e+002
<MIXTURE> 2 5.049885e-001
<MEAN> 39
 -4.503759e-001 -6.876264e-001 -4.937371e+000 -8.748690e+000 -6.047284e+000 -1.219480e+001 -1.040293e+001 -1.238620e+001 -5.712278e+000 -4.481933e+000 -4.861287e+000 -9.121306e+000 6.481055e+001 -4.774487e-001 -8.873601e-001 -8.424060e-001 -1.092754e+000 1.619584e-001 2.473905e-001 -3.726323e-003 1.931827e+000 8.344352e-001 -7.815017e-001 -2.644479e-001 1.009943e-001 4.426086e-001 -1.663661e-001 -2.457676e-001 -3.549761e-002 -2.077871e-001 1.167357e-001 9.910734e-002 -2.410546e-002 3.968283e-001 2.370277e-002 -3.290226e-001 -7.527357e-002 2.637816e-001 8.475515e-002
<VARIANCE> 39
 7.028176e+001 9.591546e+001 6.056064e+001 6.831171e+001 6.288505e+001 5.966214e+001 8.533553e+001 8.929121e+001 6.626894e+001 9.161435e+001 5.550480e+001 4.315878e+001 1.123577e+002 9.141714e-001 2.623217e+000 4.178095e+000 4.105918e+000 3.454118e+000 3.949876e+000 4.423666e+000 9.134502e+000 5.606949e+000 5.053377e+000 3.712661e+000 3.931814e+000 1.765594e+000 1.271963e-001 2.937670e-001 5.291017e-001 6.757725e-001 5.647243e-001 6.224688e-001 6.613989e-001 1.142754e+000 7.779579e-001 9.327678e-001 6.377727e-001 6.498729e-001 1.252718e-001
<GCONST> 1.349068e+002
<TRANSP> 5
 0.000000e+000 1.000000e+000 0.000000e+000 0.000000e+000 0.000000e+000
 0.000000e+000 5.712283e-001 4.287717e-001 0.000000e+000 0.000000e+000
 0.000000e+000 0.000000e+000 7.938987e-001 2.061013e-001 0.000000e+000
 0.000000e+000 0.000000e+000 0.000000e+000 6.720980e-001 3.279020e-001
 0.000000e+000 0.000000e+000 0.000000e+000 0.000000e+000 0.000000e+000
<ENDHMM>
~h "n"
<BEGINHMM>
<NUMSTATES> 5
<STATE> 2
<NUMMIXES> 2
<MIXTURE> 1 5.093580e-001
<MEAN> 39
 2.342868e+000 -4.647188e+000 -2.895499e+000 -1.459725e+001 -9.193935e+000 -1.504041e+001 -8.719580e+000 -8.417731e+000 -6.219157e+000 -2.955390e+000 -5.078508e+000 -5.364201e+000 7.198566e+001 5.880664e-001 8.357104e-001 3.550141e-001 1.354122e+000 -8.765356e-001 -2.556879e-001 8.840784e-001 -1.623877e+000 -3.152468e-001 4.207445e-001 -1.124802e-001 3.085206e-001 -8.840727e-001 -1.030336e-001 5.322019e-002 -3.765515e-002 -1.624083e-001 1.353386e-001 2.368723e-001 -3.119934e-002 2.072031e-001 1.614164e-001 -7.928000e-002 6.906643e-003 1.258686e-001 2.719780e-002
<VARIANCE> 39
